svm_type c_svc
kernel_type linear
nr_class 3
total_sv 1828
rho 0.741766 7.8748 1.31027
label 1 2 3
probA -1.73249 -1.13296 -1.6083
probB -0.254628 -0.155549 -0.18452
nr_sv 395 815 618
SV
0.01712093182573956 0 1:4.189585 2:-0.9002284 3:-14.29628 4:-2.15 5:50.1 6:0 
3.616779882796491 0 1:4.2296987 2:-0.99719049 3:29.37656 4:3.13 5:50.1 6:0 
10 0 1:4.1120808 2:-1.1761787 3:29.59688 4:3.64 5:50.1 6:0 
10 0 1:3.9798197 2:-1.3226105 3:29.83304 4:3.94 5:50.1 6:0 
10 0 1:3.8354255 2:-1.4439428 3:30.06156 4:3.96 5:50.1 6:0 
10 0 1:3.6699043 2:-1.6552114 3:30.26336 4:3.6 5:50.1 6:0 
10 0 1:3.4895108 2:-1.8039353 3:30.40144 4:2.73 5:50.1 6:0 
10 0 1:3.2943375 2:-1.9517327 3:30.41484 4:1.47 5:50.1 6:0 
10 0 1:3.0794462 2:-2.1489131 3:30.32164 4:0.13 5:50.1 6:0 
10 0 1:6.3142263 2:-1.8325707 3:47.8714 4:4.65 5:50.1 6:0 
10 0 1:6.1168604 2:-1.9736592 3:48.3024 4:4.73 5:50.1 6:0 
10 0 1:5.9038659 2:-2.1299454 3:48.735 4:4.8 5:50.1 6:0 
10 0 1:4.4574317 2:-1.0820665 3:0.97588 4:11.54 5:25.93912 6:1.4 
10 0 1:4.3256076 2:-1.3182411 3:2.07516 4:10.89 5:25.81884 6:0.92 
10 0 1:4.1782653 2:-1.4734233 3:3.1302 4:10.36 5:25.7588 6:0.38 
10 0 1:4.0049723 2:-1.7329299 3:4.14656 4:10.12 5:25.73844 6:0.08 
10 0 1:3.8123716 2:-1.9260069 3:5.13344 4:10.06 5:25.75856 6:-0.06 
10 0 1:3.5989735 2:-2.1339813 3:6.0868 4:9.9 5:25.8262 6:-0.27 
10 0 1:3.3654437 2:-2.3352978 3:6.99204 4:9.41 5:25.94696 6:-0.75 
10 0 1:3.1131163 2:-2.523274 3:7.82876 4:8.57 5:26.12524 6:-1.52 
10 0 1:2.8419459 2:-2.7117038 3:8.59084 4:7.54 5:26.36416 6:-2.48 
10 0 1:6.1807603 2:-1.6402426 3:61.25436 4:12.77 5:50.1 6:0 
0.6034432793119857 0 1:3.6668534 2:-0.70596991 3:-9.58168 4:0.5 5:50.1 6:0 
0.04726039720625093 0 1:4.3163799 2:-1.2734214 3:281.1354 4:-14.92 5:16.2796 6:-9.39 
10 0 1:4.0304555 2:-1.5106129 3:278.56676 4:-14.49 5:17.84524 6:-9.49 
10 0 1:3.8702539 2:-1.6020165 3:277.30152 4:-13.57 5:18.61948 6:-8.6 
10 0 1:3.6965318 2:-1.7372207 3:276.0488 4:-12.35 5:19.3722 6:-7.36 
10 0 1:3.5151597 2:-1.8137209 3:274.80796 4:-11.25 5:20.11204 6:-6.25 
10 0 1:3.3232041 2:-1.9195557 3:273.57648 4:-10.67 5:20.84552 6:-5.65 
10 0 1:4.2966522 2:-1.0151518 3:35.15684 4:7.72 5:50.1 6:0 
10 0 1:4.1780481 2:-1.1860407 3:35.9798 4:8.94 5:50.1 6:0 
10 0 1:4.0497103 2:-1.2833787 3:36.9296 4:10.79 5:50.1 6:0 
10 0 1:3.9124255 2:-1.3728478 3:37.98132 4:12.73 5:50.1 6:0 
10 0 1:3.762461 2:-1.4996446 3:39.16548 4:14.16 5:50.1 6:0 
10 0 1:3.5988341 2:-1.6362694 3:40.38268 4:14.59 5:50.1 6:0 
10 0 1:6.0638693 2:-1.8218672 3:81.5758 4:3.1 5:50.1 6:0 
10 0 1:5.8660753 2:-1.9779397 3:81.8128 4:3.48 5:50.1 6:0 
10 0 1:4.3499872 2:-0.979275 3:10.1878 4:8.39 5:50.1 6:0 
10 0 1:4.2487181 2:-1.0126908 3:10.78208 4:9.52 5:50.1 6:0 
10 0 1:4.139881 2:-1.0883713 3:11.55768 4:8.78 5:50.1 6:0 
10 0 1:4.0302252 2:-1.0965578 3:12.37732 4:7.09 5:50.1 6:0 
10 0 1:3.9169356 2:-1.1328964 3:13.18488 4:6.01 5:50.1 6:0 
10 0 1:3.2102699 2:-0.86687234 3:-2.6602 4:2.76 5:-0.3568 6:4.56 
10 0 1:3.0969196 2:-1.1335028 3:-2.5848 4:1.63 5:-0.7112 6:4.59 
10 0 1:2.9646263 2:-1.3229337 3:-2.56584 4:0.76 5:-1.10216 6:4.51 
10 0 1:2.8102458 2:-1.5438045 3:-2.5564 4:0.24 5:-1.5306 6:4.48 
10 0 1:2.6338538 2:-1.7639197 3:-2.54868 4:0.04 5:-1.98532 6:4.61 
10 0 1:2.4298613 2:-2.0399257 3:-2.57124 4:-0.01 5:-2.43876 6:4.79 
10 0 1:2.206581 2:-2.2328021 3:-2.64772 4:-0.17 5:-2.86928 6:4.73 
10 0 1:1.967197 2:-2.393841 3:-2.75784 4:-0.57 5:-3.26216 6:4.2 
10 0 1:1.7143356 2:-2.5286133 3:-2.87476 4:-1.24 5:-3.61824 6:3.23 
10 7.060579477076206 1:1.4456493 2:-2.6868627 3:-2.97536 4:-2.14 5:-3.94864 6:1.98 
10 0 1:3.8244698 2:-1.1800663 3:90.4756 4:-2.03 5:30.3264 6:-0.73 
10 0 1:3.7033279 2:-1.211419 3:90.238 4:-3.46 5:30.333 6:-0.12 
10 0 1:3.5820689 2:-1.2125904 3:89.842 4:-4.53 5:30.336 6:0.3 
10 0 1:3.4623328 2:-1.1973609 3:89.21 4:-4.53 5:30.328 6:0.49 
10 0 1:3.3481409 2:-1.1419188 3:88.7546 4:-3.39 5:30.3064 6:0.53 
10 0 1:3.2454762 2:-1.0266476 3:88.4828 4:-1.78 5:30.2672 6:0.5 
10 0 1:3.1562697 2:-0.89206462 3:88.3748 4:-0.44 5:30.2072 6:0.48 
5.754029723814318 0 1:3.0791817 2:-0.77087998 3:88.4542 4:0.42 5:30.1268 6:0.52 
10 0 1:3.5383848 2:-0.66933189 3:98.2728 4:3.42 5:42.3782 6:2.52 
10 0 1:3.4537165 2:-0.84668296 3:98.428 4:2.76 5:42.232 6:2.52 
10 0 1:3.3514699 2:-1.0224655 3:98.538 4:2.5 5:42.102 6:2.52 
10 0 1:3.2332123 2:-1.1825762 3:98.6528 4:2.52 5:41.9872 6:2.67 
10 0 1:3.1049033 2:-1.2830902 3:98.7836 4:2.57 5:41.8374 6:2.88 
10 0 1:2.9655594 2:-1.393439 3:98.957 4:1.95 5:41.641 6:2.56 
10 0 1:2.8150704 2:-1.5048904 3:99.0034 4:0.46 5:41.4826 6:1.44 
10 0 1:2.6536043 2:-1.6146605 3:98.8768 4:-0.95 5:41.4412 6:-0.41 
10 0 1:4.0085752 2:-0.99669906 3:50.1 4:0 5:50.1 6:0 
10 0 1:3.9004007 2:-1.0817444 3:50.1 4:0 5:50.1 6:0 
10 0 1:3.7842846 2:-1.1611616 3:50.1 4:0 5:50.1 6:0 
10 0 1:3.6602451 2:-1.2403947 3:50.1 4:0 5:50.1 6:0 
10 0 1:3.5287332 2:-1.3151185 3:50.1 4:0 5:50.1 6:0 
10 0 1:3.1378218 2:-0.80925799 3:48.44932 4:8.1 5:48.74868 6:-5.75 
10 0 1:3.0575058 2:-0.80315949 3:49.3478 4:8.48 5:49.2802 6:-6.16 
10 0 1:2.9706122 2:-0.86893604 3:50.33688 4:9 5:49.81912 6:-6.27 
10 0 1:2.8792927 2:-0.91319511 3:51.35388 4:9.16 5:50.36312 6:-6.53 
10 0 1:2.7886539 2:-0.906388 3:52.3704 4:9.39 5:50.9206 6:-6.71 
10 0 1:2.687375 2:-1.012789 3:53.41812 4:10.14 5:51.50288 6:-6.43 
10 0 1:2.5874837 2:-0.99891328 3:54.52132 4:11.29 5:52.10668 6:-5.54 
10 0 1:2.4931289 2:-0.94354752 3:55.65156 4:12.26 5:52.70444 6:-4.4 
10 0 1:2.4063902 2:-0.86738776 3:56.79592 4:12.26 5:53.25308 6:-3.58 
10 0 1:2.3261393 2:-0.8025083 3:57.83928 4:11.07 5:53.69672 6:-3.95 
10 0 1:2.2510138 2:-0.7512554 3:58.71432 4:9.47 5:54.20968 6:-5.72 
10 0 1:2.1865706 2:-0.64443174 3:59.50892 4:8.25 5:54.94608 6:-7.53 
10 0 1:2.1348656 2:-0.51705026 3:60.3198 4:7.85 5:55.8082 6:-8.27 
10 0 1:2.0886804 2:-0.46185237 3:61.22764 4:8.09 5:56.53436 6:-7.54 
10 0 1:2.0597605 2:-0.28919822 3:62.17232 4:8.35 5:57.12768 6:-5.75 
10 0 1:2.0274173 2:-0.32343261 3:63.06608 4:8.56 5:57.57292 6:-3.97 
10 0 1:2.0085342 2:-0.18883063 3:63.9418 4:8.83 5:57.8922 6:-2.56 
10 0 1:2.0001047 2:-0.084295374 3:64.80968 4:8.97 5:58.08232 6:-1.56 
10 0 1:2.57481 2:-0.43186479 3:101.258 4:4.05 5:70.387 6:-9.55 
10 0 1:2.5106183 2:-0.64191672 3:101.89324 4:4.47 5:71.10076 6:-8.41 
10 0 1:2.4293845 2:-0.81233868 3:102.51292 4:5.42 5:71.70508 6:-6.75 
10 0 1:2.3398179 2:-0.89566522 3:103.1352 4:6.84 5:72.2478 6:-4.93 
10 0 1:2.2400889 2:-0.99729 3:103.75632 4:8.14 5:72.77468 6:-3.5 
10 0 1:2.130324 2:-1.0976498 3:104.3782 4:8.78 5:73.3018 6:-2.97 
10 0 1:2.0101166 2:-1.2020737 3:105.006 4:8.61 5:73.843 6:-3.52 
10 0 1:1.8787398 2:-1.3137678 3:105.64156 4:7.78 5:74.42444 6:-4.96 
10 0 1:1.7366788 2:-1.4206101 3:106.27776 4:6.94 5:75.08024 6:-6.73 
5.051009305858105 0 1:3.6349417 2:-0.87609246 3:7.19612 4:0 5:22.90688 6:-5.68 
10 0 1:3.5479042 2:-0.87037507 3:7.23244 4:0 5:23.29656 6:-5 
10 0 1:3.452006 2:-0.95898208 3:7.25916 4:0 5:23.77184 6:-4.98 
10 0 1:3.3563054 2:-0.95700621 3:7.27072 4:0 5:24.25428 6:-4.97 
10 0 1:3.2636508 2:-0.92654587 3:7.27268 4:0 5:24.73632 6:-5.1 
10 0 1:3.1675036 2:-0.96147225 3:7.27044 4:0 5:25.24856 6:-5.39 
10 0 1:3.0706959 2:-0.96807663 3:7.27012 4:0 5:25.81588 6:-5.63 
10 0 1:2.9766451 2:-0.94050847 3:7.26892 4:0 5:26.42308 6:-5.57 
10 0 1:2.8841861 2:-0.92458984 3:7.27048 4:0 5:27.00352 6:-5.02 
10 0 1:2.7856695 2:-0.98516618 3:7.2804 4:0 5:27.4646 6:-4.12 
10 0 1:2.6884541 2:-0.97215352 3:7.30032 4:0 5:27.78968 6:-3.27 
10 0 1:2.5908676 2:-0.97586517 3:7.3274 4:0 5:28.0256 6:-2.71 
10 0 1:2.4842068 2:-1.0666076 3:7.3556 4:0 5:28.2284 6:-2.48 
10 0 1:2.3812493 2:-1.0295751 3:7.40512 4:-0.22 5:28.44188 6:-2.45 
10 0 1:2.2736153 2:-1.0763399 3:7.42576 4:-0.94 5:28.66824 6:-2.46 
10 0 1:2.1598353 2:-1.1378002 3:7.29208 4:-1.82 5:28.90392 6:-2.46 
10 0 1:2.0490878 2:-1.1074746 3:7.00336 4:-2.19 5:29.15164 6:-2.46 
10 0 1:1.9450169 2:-1.0407096 3:6.68984 4:-1.74 5:29.41516 6:-2.46 
10 0 1:1.8412956 2:-1.0372131 3:6.5416 4:-0.51 5:29.6974 6:-2.39 
10 10 1:1.7536736 2:-0.87621958 3:6.49048 4:1.2 5:29.99752 6:-1.94 
10 10 1:1.6798825 2:-0.73791156 3:6.5536 4:2.92 5:30.3174 6:-1.18 
10 10 1:1.6154369 2:-0.64445591 3:6.66248 4:4.25 5:30.65852 6:-0.7 
10 10 1:1.557553 2:-0.57883891 3:6.83308 4:5.01 5:31.02492 6:-0.8 
10 10 1:1.5054729 2:-0.52080037 3:7.07292 4:5.1 5:31.41708 6:-1.53 
10 10 1:1.4527789 2:-0.5269406 3:7.37156 4:4.66 5:31.84044 6:-2.57 
10 10 1:1.399364 2:-0.53414914 3:7.68772 4:4.05 5:32.30228 6:-3.42 
10 10 1:1.3636446 2:-0.35719311 3:7.97252 4:3.25 5:32.79348 6:-4.04 
10 10 1:1.3224657 2:-0.41178926 3:8.20848 4:2.4 5:33.27952 6:-4.44 
10 10 1:1.2985615 2:-0.23904186 3:8.42804 4:1.77 5:33.71296 6:-4.54 
10 10 1:1.2617062 2:-0.36855339 3:8.66212 4:1.29 5:34.03088 6:-4.95 
10 10 1:1.2422292 2:-0.19477024 3:8.88684 4:0.88 5:34.40016 6:-6 
10 10 1:1.2343507 2:-0.078785011 3:9.06364 4:0.5 5:34.98136 6:-6.93 
10 10 1:1.2314812 2:-0.028695181 3:9.1938 4:0.16 5:35.6882 6:-7.22 
10 10 1:1.2318232 2:0.0034202207 3:9.3132 4:-0.21 5:36.2718 6:-6.67 
10 10 1:1.2345667 2:0.027435548 3:9.42932 4:-0.72 5:36.74668 6:-5.48 
0 10 1:1.2478783 2:0.1331161 3:9.50484 4:-1.3 5:37.09516 6:-4.39 
0 10 1:1.2795579 2:0.31679591 3:9.503 4:-1.7 5:37.34 6:-3.41 
0 10 1:1.3133365 2:0.3377859 3:9.42628 4:-1.84 5:37.48072 6:-2.48 
0 10 1:1.3637932 2:0.50456672 3:9.30144 4:-1.74 5:37.59356 6:-1.87 
0 10 1:1.4099266 2:0.46133374 3:9.14416 4:-1.5 5:37.73484 6:-1.46 
0 10 1:1.4705082 2:0.6058166 3:8.95932 4:-1.23 5:37.91668 6:-1.16 
0 10 1:1.5393866 2:0.68878408 3:8.74848 4:-1.16 5:38.11852 6:-1.08 
0 10 1:1.6094352 2:0.70048586 3:8.5424 4:-1.72 5:38.3446 6:-1.35 
0 10 1:1.6746141 2:0.65178868 3:8.25596 4:-2.99 5:38.60204 6:-1.87 
0 10 1:1.730529 2:0.55914897 3:7.82636 4:-4.11 5:38.86364 6:-2.27 
0 10 1:1.7796535 2:0.49124483 3:7.33052 4:-4.63 5:39.09448 6:-2.41 
0 10 1:1.8274394 2:0.4778596 3:6.86288 4:-4.41 5:39.28912 6:-2.31 
0 10 1:1.8785114 2:0.51071994 3:6.50048 4:-3.75 5:39.47452 6:-2.15 
0 10 1:1.9202763 2:0.41764839 3:6.1848 4:-3.56 5:39.6802 6:-2.27 
0 9.026755279348981 1:1.9697139 2:0.49437602 3:5.83028 4:-3.88 5:39.91872 6:-2.62 
10 0 1:3.1152988 2:-0.13822454 3:11.7516 4:11.17 5:86.1814 6:2.94 
10 0 1:3.1010191 2:-0.14279669 3:12.7096 4:12.69 5:86.0814 6:3.69 
9.87017379599869 0 1:3.0888577 2:-0.121614 3:13.8028 4:14.61 5:85.9092 6:4.01 
10 0 1:3.0780679 2:-0.10789791 3:15.0334 4:16.01 5:85.7536 6:3.5 
10 0 1:3.0689612 2:-0.091067029 3:16.4662 4:15.93 5:85.7178 6:2.05 
10 0 1:3.0545429 2:-0.14418289 3:17.8808 4:14.01 5:85.8332 6:0.09 
10 0 1:2.9143 2:-0.20784395 3:24.4298 4:3.54 5:85.9972 6:-0.01 
10 0 1:2.8259807 2:-0.23832442 3:24.774 4:0.55 5:86.27 6:0.39 
10 0 1:2.8027599 2:-0.23220826 3:24.6786 4:0.39 5:86.3494 6:0.37 
10 0 1:2.7807714 2:-0.21988466 3:24.5966 4:0.26 5:86.4294 6:0.23 
10 0 1:2.6726018 2:-0.12480549 3:24.574 4:1.68 5:83.45 6:1.75 
8.101239044890301 0 1:2.6132005 2:-0.12319578 3:26.7576 4:1.53 5:83.6394 6:0 
10 0 1:2.5856748 2:-0.27525696 3:26.9236 4:1.62 5:83.6224 6:0 
10 0 1:2.5433221 2:-0.42352728 3:27.1072 4:1.78 5:83.6028 6:0 
10 0 1:2.4837558 2:-0.5956626 3:27.316 4:2 5:83.581 6:0 
10 0 1:2.4022793 2:-0.8147652 3:27.5564 4:2.22 5:83.5546 6:0 
10 0 1:2.3082479 2:-0.9403141 3:27.8216 4:2.37 5:83.5254 6:-0.01 
10 0 1:2.1989882 2:-1.0925969 3:28.1052 4:2.45 5:83.4918 6:-0.02 
10 0 1:2.0654958 2:-1.334924 3:28.4004 4:2.61 5:83.4506 6:0.11 
10 0 1:1.9210159 2:-1.4447986 3:28.7028 4:2.95 5:83.4002 6:0.46 
10 0 1:1.7556507 2:-1.6536522 3:29.032 4:3.19 5:83.341 6:0.93 
10 0 1:4.7069337 2:-1.1573352 3:6.91032 4:3.86 5:50.1 6:0 
10 0 1:4.5840922 2:-1.2284158 3:7.30952 4:4.25 5:50.1 6:0 
10 0 1:4.4541689 2:-1.2992327 3:7.75864 4:4.33 5:50.1 6:0 
10 0 1:4.3249534 2:-1.2921546 3:8.23864 4:4.53 5:50.1 6:0 
10 0 1:4.1972717 2:-1.276817 3:8.73464 4:4.87 5:50.1 6:0 
10 0 1:4.0790817 2:-1.1819003 3:9.24112 4:5.26 5:50.1 6:0 
10 0 1:3.9668563 2:-1.1222541 3:9.77248 4:5.8 5:50.1 6:0 
10 0 1:3.8534531 2:-1.1340324 3:10.36916 4:6.41 5:50.1 6:0 
10 0 1:3.7452396 2:-1.0821347 3:11.04536 4:6.9 5:50.1 6:0 
10 0 1:3.6449077 2:-1.003319 3:11.75036 4:7.07 5:50.1 6:0 
10 0 1:3.5521701 2:-0.92737597 3:12.43356 4:6.93 5:50.1 6:0 
10 0 1:3.4632897 2:-0.88880416 3:13.08596 4:6.51 5:50.1 6:0 
10 0 1:3.3807854 2:-0.82504261 3:13.72012 4:5.81 5:50.1 6:0 
10 0 1:3.307777 2:-0.73008452 3:14.3118 4:5.01 5:50.1 6:0 
10 0 1:3.2447608 2:-0.63016157 3:14.85028 4:4.52 5:50.1 6:0 
10 0 1:4.2254848 2:-1.1594609 3:78.73496 4:10.86 5:50.1 6:0 
10 0 1:4.0868693 2:-1.3861551 3:80.01256 4:11.46 5:50.1 6:0 
10 0 1:3.9274003 2:-1.5946896 3:81.34556 4:12.3 5:50.1 6:0 
0.08961192765454379 0 1:4.925722 2:-1.2200424 3:79.5728 4:4.26 5:52.0792 6:-4.41 
10 0 1:4.7976361 2:-1.2808591 3:80.0478 4:3.43 5:52.5102 6:-5.66 
10 0 1:3.8846432 2:-1.2080112 3:83.5848 4:-5.41 5:18.2482 6:-10 
10 0 1:3.7609112 2:-1.2373202 3:83.12704 4:-4.68 5:19.22696 6:-10 
10 0 1:3.6342642 2:-1.2664696 3:82.71908 4:-4.23 5:20.21492 6:-10 
10 0 1:3.5066034 2:-1.2766075 3:82.33912 4:-4.08 5:21.20988 6:-10 
10 0 1:3.3737017 2:-1.3290178 3:81.94748 4:-4.06 5:22.21052 6:-9.84 
10 0 1:3.2350648 2:-1.3863688 3:81.51452 4:-3.97 5:23.21548 6:-9.46 
10 0 1:3.097391 2:-1.3767384 3:81.02996 4:-4 5:24.22404 6:-9.19 
10 0 1:2.9613713 2:-1.3601967 3:80.50904 4:-4.15 5:25.23696 6:-9.17 
10 0 1:2.818277 2:-1.4309429 3:79.97852 4:-4.44 5:26.25948 6:-9.42 
10 0 1:2.676241 2:-1.4203602 3:79.44544 4:-4.89 5:27.29256 6:-9.89 
10 0 1:2.5463429 2:-1.2989805 3:78.903 4:-5.37 5:28.336 6:-10.37 
10 0 1:2.4171331 2:-1.2920985 3:78.35024 4:-5.83 5:29.38876 6:-10.83 
10 0 1:2.2989833 2:-1.1814976 3:77.78952 4:-6.2 5:30.45048 6:-11.2 
10 0 1:2.183764 2:-1.152193 3:77.23704 4:-6.35 5:31.51996 6:-11.2 
10 0 1:2.0713968 2:-1.1236721 3:76.6468 4:-6.32 5:32.5932 6:-10.83 
10 0 1:1.9703713 2:-1.0102557 3:75.9862 4:-6.1 5:33.6738 6:-10.33 
10 0 1:1.8712416 2:-0.99129674 3:75.30012 4:-5.86 5:34.72788 6:-10.21 
10 0 1:1.7878236 2:-0.83418017 3:74.64128 4:-5.84 5:35.81372 6:-10.71 
10 0 1:1.7010648 2:-0.867588 3:74.0518 4:-6.1 5:36.9652 6:-11.35 
10 0 1:1.6349896 2:-0.66075134 3:73.49112 4:-6.68 5:38.10588 6:-11.8 
10 0 1:1.5627043 2:-0.72285296 3:72.90912 4:-7.22 5:39.18388 6:-11.94 
10 0 1:1.5173986 2:-0.45305718 3:72.32564 4:-7.43 5:40.17636 6:-11.86 
10 0 1:1.4646984 2:-0.52700196 3:71.74396 4:-7.38 5:41.17104 6:-11.95 
10 0 1:1.4373697 2:-0.2732871 3:71.1652 4:-7.21 5:42.2398 6:-12.08 
10 0 1:1.4018798 2:-0.3548992 3:70.58888 4:-6.92 5:43.32412 6:-11.93 
5.366200572379299 0 1:1.3896319 2:-0.12247926 3:70.0162 4:-6.44 5:44.4038 6:-11.47 
10 0 1:1.375173 2:-0.14458874 3:69.4512 4:-5.83 5:45.4708 6:-10.86 
9.956361925011416 0 1:3.6623269 2:-0.85138679 3:-8.49924 4:0.27 5:0.32624 6:0 
10 0 1:3.5695694 2:-0.92757442 3:-8.54 4:0.28 5:0.393 6:0 
10 0 1:3.4763169 2:-0.93252469 3:-8.60188 4:0.3 5:0.48188 6:0 
10 0 1:3.3872088 2:-0.89108155 3:-8.6786 4:0.33 5:0.5906 6:0.01 
10 0 1:3.3085518 2:-0.78657034 3:-8.77316 4:0.33 5:0.71916 6:0.02 
10 0 1:3.1672658 2:-0.56140192 3:2.7378 4:3.26 5:50.1 6:0 
10 0 1:3.0968321 2:-0.70433742 3:3.012 4:3.8 5:50.1 6:0 
10 0 1:3.0263294 2:-0.70502673 3:3.36 4:4.47 5:50.1 6:0 
10 0 1:2.9557038 2:-0.70625666 3:3.7514 4:5.29 5:50.1 6:0 
10 0 1:2.8864454 2:-0.69258323 3:4.2396 4:6.18 5:50.1 6:0 
10 0 1:2.8249869 2:-0.61458486 3:4.8466 4:6.45 5:50.1 6:0 
10 0 1:2.7618191 2:-0.63167848 3:5.443 4:5.89 5:50.1 6:0 
10 0 1:2.7015554 2:-0.60263722 3:5.9148 4:4.66 5:50.1 6:0 
10 0 1:2.6482962 2:-0.532592 3:6.215 4:3.34 5:50.1 6:0 
10 0 1:2.6011328 2:-0.47163359 3:6.471 4:3.08 5:50.1 6:0 
10 0 1:2.560287 2:-0.40845842 3:6.8412 4:3.82 5:50.1 6:0 
10 0 1:2.5269292 2:-0.33357819 3:7.299 4:4.83 5:50.1 6:0 
10 0 1:2.4919114 2:-0.35017798 3:7.792 4:5.7 5:50.1 6:0 
10 0 1:2.4563277 2:-0.35583611 3:8.2726 4:6.01 5:50.1 6:0 
10 0 1:2.4290552 2:-0.27272556 3:8.7088 4:5.82 5:50.1 6:0 
10 0 1:2.3944517 2:-0.34603512 3:9.1096 4:5.25 5:50.1 6:0 
6.568747925893769 0 1:2.486591 2:-0.30146071 3:20.2778 4:4.81 5:50.1 6:0 
10 0 1:2.4419214 2:-0.44669559 3:20.6526 4:2.77 5:50.1 6:0 
10 0 1:2.3771494 2:-0.64771977 3:20.8666 4:0.61 5:50.1 6:0 
10 0 1:2.3048457 2:-0.72303759 3:20.9674 4:-1.08 5:50.1 6:0 
10 0 1:5.0196457 2:-1.4564888 3:-15.02152 4:-5.23 5:-11.43448 6:-4.78 
10 0 1:4.86155 2:-1.5809568 3:-15.52256 4:-6.05 5:-10.81544 6:-5.49 
10 0 1:4.7034758 2:-1.5807419 3:-16.04668 4:-6.05 5:-10.47132 6:-3.77 
10 0 1:4.5515268 2:-1.5194906 3:-16.59224 4:-6.04 5:-10.22776 6:-1.31 
10 0 1:4.4131969 2:-1.3832985 3:-17.1572 4:-6.05 5:-10.2748 6:-0.11 
10 0 1:4.2821704 2:-1.3102651 3:-17.7416 4:-6.04 5:-10.3084 6:-0.01 
10 0 1:4.1546307 2:-1.2753969 3:-18.3482 4:-6.03 5:-10.3018 6:-0.02 
10 0 1:4.0242685 2:-1.3036228 3:-18.97552 4:-6 5:-10.25648 6:0.18 
10 0 1:3.8991205 2:-1.25148 3:-19.61644 4:-5.98 5:-10.20656 6:0.81 
10 0 1:3.7820769 2:-1.1704357 3:-20.29572 4:-6.03 5:-10.26428 6:1.85 
10 0 1:3.6629329 2:-1.1914395 3:-21.02068 4:-5.94 5:-10.44332 6:3.05 
10 0 1:3.5582421 2:-1.0469083 3:-21.67276 4:-5.41 5:-10.72424 6:3.97 
10 0 1:3.4615301 2:-0.96711997 3:-22.154 4:-4.18 5:-11.154 6:4.2 
10 0 1:3.374794 2:-0.86736118 3:-22.4576 4:-2.31 5:-11.6624 6:3.87 
10 0 1:3.2994158 2:-0.75378146 3:-22.57608 4:-0.57 5:-12.10492 6:3.32 
10 0 1:3.2319684 2:-0.67447445 3:-22.47612 4:0.3 5:-12.42288 6:2.85 
0.2581326108137714 0 1:3.1716014 2:-0.60366967 3:-22.36296 4:0.2 5:-12.67504 6:2.62 
10 0 1:3.2984205 2:-1.0843169 3:59.73632 4:-4.91 5:-24.36632 6:0.08 
10 0 1:3.1762177 2:-1.2220283 3:59.3908 4:-5.03 5:-24.5268 6:-0.02 
10 0 1:3.056782 2:-1.194357 3:59.02508 4:-4.99 5:-24.65808 6:-0.01 
10 0 1:2.9448045 2:-1.119775 3:-24.74228 4:-0.01 5:-14.76172 6:-1.71 
10 0 1:2.8361056 2:-1.0869893 3:-24.68384 4:-0.02 5:-14.70716 6:-1.09 
10 0 1:2.7281536 2:-1.0795197 3:-24.66912 4:0.03 5:-14.63988 6:-0.54 
10 0 1:2.6237102 2:-1.044434 3:-24.68428 4:0.21 5:-14.57972 6:0.16 
10 0 1:2.520973 2:-1.0273717 3:-24.69228 4:0.59 5:-14.60272 6:1.09 
10 10 1:2.4303103 2:-0.90662676 3:-24.66524 4:1 5:-14.72576 6:1.89 
10 10 1:2.3531261 2:-0.77184263 3:-24.60672 4:1.13 5:-14.88928 6:2.28 
10 10 1:2.2801652 2:-0.72960872 3:-24.5532 4:0.74 5:-15.0568 6:2.2 
10 10 1:2.2188481 2:-0.61317081 3:-24.54044 4:-0.02 5:-15.22356 6:1.89 
10 10 1:2.1689982 2:-0.49849957 3:-24.56296 4:-0.78 5:-15.41704 6:1.67 
10 10 1:2.1204121 2:-0.48586082 3:-24.60324 4:-1.37 5:-15.65076 6:1.65 
10 10 1:2.0852509 2:-0.3516115 3:-24.66356 4:-1.95 5:-15.91044 6:1.73 
0 10 1:2.1787819 2:-0.24059687 3:-2.85984 4:-3.5 5:6.00984 6:-8.6 
0 10 1:2.1458599 2:-0.32921925 3:-3.20016 4:-3.68 5:6.89116 6:-7.72 
0 8.338411207657325 1:2.120882 2:-0.24977953 3:-3.59504 4:-4.84 5:7.66004 6:-7.41 
0 10 1:2.0288567 2:-0.20124948 3:-5.90404 4:-7.22 5:10.63904 6:-9.86 
0 10 1:2.0103266 2:-0.18530094 3:-6.48316 4:-7.04 5:11.54916 6:-9.16 
0 10 1:1.9920655 2:-0.18261092 3:-7.05928 4:-7.1 5:12.29628 6:-7.84 
0 10 1:1.9754581 2:-0.16607413 3:-7.68084 4:-7.48 5:12.93984 6:-6.49 
0 10 1:1.9605682 2:-0.14889885 3:-8.39104 4:-7.95 5:13.41904 6:-5.68 
0 10 1:1.9470796 2:-0.13488521 3:-9.17004 4:-8.26 5:13.84804 6:-5.64 
0 10 1:1.9358649 2:-0.11214754 3:-9.97404 4:-8.34 5:14.34104 6:-6.32 
0 10 1:1.929148 2:-0.067169434 3:-10.7796 4:-8.33 5:14.9996 6:-7.46 
0 10 1:1.9189539 2:-0.10194054 3:-11.58316 4:-8.4 5:15.78916 6:-8.63 
0 10 1:1.9077851 2:-0.11168752 3:-12.4082 4:-8.72 5:16.7302 6:-9.47 
0 10 1:1.9023913 2:-0.053938019 3:-13.297 4:-9.2 5:17.738 6:-9.9 
0 10 1:1.901053 2:-0.013383423 3:-14.2656 4:-9.55 5:18.7586 6:-10.03 
0 10 1:1.890992 2:-0.10061016 3:-15.268 4:-9.53 5:19.764 6:-10.01 
0 10 1:1.8912001 2:0.0020809665 3:-16.2196 4:-9.17 5:20.7536 6:-10 
0 10 1:1.9032785 2:0.12078396 3:-17.0704 4:-8.81 5:21.7314 6:-10 
0 10 1:1.9229217 2:0.19643218 3:-17.8728 4:-8.81 5:22.6998 6:-10 
0 10 1:1.9381025 2:0.15180768 3:-18.7208 4:-9.07 5:23.6638 6:-10 
0 10 1:1.9535342 2:0.15431732 3:-19.6324 4:-9.22 5:24.6274 6:-10 
0 10 1:1.9714622 2:0.17927965 3:-20.5452 4:-9.07 5:25.5922 6:-10 
0 10 1:1.99192 2:0.20457846 3:-21.3944 4:-8.81 5:26.5574 6:-10 
0 10 1:2.0148375 2:0.22917451 3:-22.1942 4:-8.83 5:27.5192 6:-10.06 
0 10 1:2.0370454 2:0.22207929 3:-23.0368 4:-9.18 5:28.4988 6:-10.1 
0 10 1:2.0558637 2:0.1881828 3:-23.9716 4:-9.08 5:29.4876 6:-9.63 
10 0 1:2.6263004 2:-0.47905279 3:85.7278 4:-2.64 5:61.7812 6:-3.43 
8.311130768734669 0 1:2.5778715 2:-0.48428877 3:85.3582 4:-4.32 5:62.1568 6:-3.63 
10 0 1:2.5256483 2:-0.52223195 3:84.853 4:-5.55 5:62.431 6:-3.81 
10 0 1:5.9216212 2:-1.7922577 3:-7.6872 4:0.91 5:50.1 6:0 
10 0 1:5.7179432 2:-2.0367794 3:-7.6106 4:0.71 5:50.1 6:0 
10 0 1:5.4887594 2:-2.2918382 3:-7.464 4:0.89 5:50.1 6:0 
10 0 1:5.2361482 2:-2.5261119 3:-7.1482 4:0.6 5:50.1 6:0 
10 0 1:4.9662682 2:-2.6988007 3:-6.7646 4:0.25 5:50.1 6:0 
10 0 1:4.6812066 2:-2.8506154 3:-6.4486 4:0.07 5:50.1 6:0 
10 0 1:4.3893202 2:-2.918864 3:-6.3186 4:0.18 5:50.1 6:0 
10 0 1:4.1591462 2:-1.1522859 3:33.76932 4:-5.9 5:50.1 6:0 
10 0 1:4.0311448 2:-1.2800141 3:33.21 4:-6.3 5:50.1 6:0 
10 0 1:3.8851805 2:-1.459643 3:32.54268 4:-7.05 5:50.1 6:0 
10 0 1:3.727071 2:-1.5810948 3:31.775 4:-7.79 5:50.1 6:0 
10 0 1:3.5596324 2:-1.6743858 3:30.95988 4:-8.34 5:50.1 6:0 
10 0 1:3.3853517 2:-1.7428078 3:30.1214 4:-8.83 5:50.1 6:0 
10 0 1:3.1999517 2:-1.8539999 3:29.23892 4:-9.21 5:50.1 6:0 
10 0 1:3.0059059 2:-1.9404577 3:28.31308 4:-9.28 5:50.1 6:0 
10 0 1:2.8044988 2:-2.0140705 3:27.3928 4:-9.03 5:50.1 6:0 
10 0 1:2.5964363 2:-2.0806253 3:26.5352 4:-8.7 5:50.1 6:0 
10 0 1:3.7189981 2:-0.76687941 3:-17.37564 4:4.44 5:-11.25736 6:5 
5.014903223577655 0 1:3.5758685 2:-0.69933208 3:-16.42568 4:4.49 5:-12.40532 6:5.79 
10 0 1:4.6633144 2:-0.8459449 3:44.688 4:2.91 5:109.569 6:-5.22 
10 0 1:4.5683108 2:-0.95003553 3:44.92388 4:2.4 5:110.15712 6:-5.72 
10 0 1:4.4662289 2:-1.0208197 3:45.07452 4:1.63 5:110.85148 6:-6.06 
10 0 1:4.3585101 2:-1.0771873 3:45.10896 4:0.73 5:111.58704 6:-6.09 
10 0 1:4.2469385 2:-1.115716 3:45.04488 4:-0.15 5:112.28612 6:-5.9 
10 0 1:4.1331167 2:-1.1382183 3:44.91968 4:-0.89 5:112.88732 6:-5.72 
10 0 1:4.0167161 2:-1.164006 3:44.77104 4:-1.48 5:113.44196 6:-5.96 
10 0 1:3.8965432 2:-1.201729 3:44.6292 4:-1.92 5:114.0188 6:-6.49 
10 0 1:3.7780466 2:-1.1849658 3:44.51784 4:-2.21 5:114.59416 6:-6.97 
10 0 1:3.66557 2:-1.1247661 3:44.43972 4:-2.4 5:115.16628 6:-7.32 
10 0 1:4.1018641 2:-1.1646572 3:35.35 4:-12.02 5:50.1 6:0 
10 0 1:3.9834387 2:-1.1842537 3:34.2958 4:-11.89 5:50.1 6:0 
10 0 1:3.8636686 2:-1.1977011 3:33.2468 4:-11.57 5:50.1 6:0 
10 0 1:3.7493628 2:-1.143058 3:32.2378 4:-11.28 5:50.1 6:0 
10 0 1:3.6418185 2:-1.0754432 3:31.2332 4:-11.19 5:50.1 6:0 
10 0 1:3.5434791 2:-0.98339339 3:30.1742 4:-11.37 5:50.1 6:0 
10 0 1:2.5634949 2:-0.7710528 3:19.671 4:-16.99 5:12.567 6:-16.14 
10 0 1:2.4761921 2:-0.87302809 3:17.8168 4:-17.35 5:14.1342 6:-16.5 
10 0 1:2.3789751 2:-0.97216987 3:16.0812 4:-17.15 5:15.7798 6:-17.61 
10 0 1:2.270614 2:-1.0836109 3:14.4868 4:-16.62 5:17.5832 6:-18.74 
10 0 1:2.1633582 2:-1.0725582 3:13.0302 4:-16.35 5:19.4138 6:-18.83 
10 0 1:2.0505932 2:-1.1276505 3:11.5094 4:-15.79 5:21.1366 6:-17.92 
10 0 1:1.9170183 2:-1.3357493 3:9.9714 4:-14.62 5:22.8506 6:-16.68 
10 0 1:4.9592388 2:-1.1013573 3:-7.82344 4:9.99 5:55.09144 6:5.01 
10 0 1:4.849836 2:-1.0940283 3:-6.82068 4:9.99 5:54.58668 6:5.01 
10 0 1:4.7410017 2:-1.0883421 3:-5.81728 4:9.99 5:54.08028 6:5.01 
10 0 1:4.6288375 2:-1.1216427 3:-4.81188 4:9.99 5:53.57288 6:5.01 
10 0 1:4.525518 2:-1.0331945 3:-3.80176 4:9.99 5:53.06176 6:5.01 
10 0 1:4.4298725 2:-0.95645555 3:-2.78776 4:9.99 5:52.54576 6:5.01 
10 0 1:4.337226 2:-0.92646453 3:-1.77124 4:10 5:52.02624 6:5.01 
10 0 1:4.2496953 2:-0.8753076 3:-0.75092 4:10.02 5:51.50592 6:5.01 
10 0 1:4.1602939 2:-0.89401381 3:0.28036 4:9.93 5:50.98664 6:5.01 
10 0 1:4.0786779 2:-0.81615951 3:1.3004 4:9.63 5:50.4686 6:5.01 
5.104206602895959e-005 0 1:3.1867615 2:-0.28375235 3:-14.00396 4:22.4 5:-5.46704 6:22.5 
0 10 1:3.1199245 2:-0.017970872 3:-15.00832 4:25.02 5:5.31932 6:26.61 
0 10 1:3.1309337 2:0.11009195 3:-12.63056 4:25 5:2.77356 6:26.29 
0 10 1:3.138449 2:0.075153026 3:-10.22612 4:25 5:0.25312 6:25.83 
0 10 1:3.1470734 2:0.086243961 3:-7.80236 4:25.02 5:-2.22264 6:25.38 
0 10 1:3.1562655 2:0.091921327 3:-5.35504 4:25.03 5:-4.66596 6:25.08 
0 10 1:3.1656363 2:0.093707101 3:-2.88072 4:24.92 5:-7.11128 6:24.97 
0 10 1:3.1735331 2:0.078968316 3:-0.40568 4:24.61 5:-9.58032 6:24.98 
0 10 1:3.1952646 2:0.075308192 3:-16.93796 4:25 5:-16.94704 6:22.55 
0 10 1:3.2021904 2:0.069257846 3:-17.8272 4:22.55 5:-11.0748 6:25.08 
0 10 1:3.2091851 2:0.069946834 3:-15.57352 4:22.77 5:-13.56348 6:24.98 
0 10 1:3.2162859 2:0.071008334 3:-14.93936 4:24.97 5:-15.05564 6:19.99 
0 10 1:3.2234609 2:0.071749582 3:-14.9424 4:20 5:-16.0576 6:20 
0 6.982293892905696 1:3.2306718 2:0.072109132 3:-16.94236 4:20 5:-15.35564 6:22.08 
0 10 1:3.2604186 2:0.075471199 3:-14.9282 4:25.03 5:-3.5638 6:25 
0 10 1:3.2680384 2:0.076198797 3:-12.41516 4:24.93 5:-6.06384 6:25 
0 10 1:3.2757306 2:0.076921224 3:-9.91312 4:24.62 5:-8.56388 6:25 
0 10 1:3.3071732 2:0.079379569 3:-14.437 4:25 5:-0.239 6:19.47 
0 10 1:3.3139839 2:0.06810681 3:-11.937 4:25 5:-2.032 6:18.93 
0 10 1:3.3205489 2:0.065650831 3:-9.437 4:25 5:-3.894 6:19.58 
0 10 1:3.32715 2:0.066010424 3:-6.937 4:25 5:-5.907 6:20.64 
5.580071671979274 0 1:3.6758263 2:0.026427842 3:241.69696 4:45.02 5:50.1 6:0 
10 0 1:3.7316342 2:0.043926928 3:414.14908 4:45.02 5:50.1 6:0 
10 0 1:3.7816822 2:0.043597137 3:465.93932 4:44.66 5:50.1 6:0 
10 0 1:3.837721 2:0.040995666 3:498.6458 4:38.57 5:50.1 6:0 
4.020549843172836 0 1:3.8719125 2:0.10144941 3:513.04416 4:34.99 5:50.1 6:0 
0.02204433610477737 0 1:4.2310407 2:0.080090747 3:605.24532 4:29.9 5:50.1 6:0 
10 0 1:4.2366575 2:-0.026755087 3:619.02588 4:25.53 5:50.1 6:0 
10 0 1:4.2406901 2:0.023638422 3:624.42044 4:24.97 5:50.1 6:0 
10 0 1:4.2437466 2:0.030564774 3:627.09868 4:24.98 5:50.1 6:0 
3.06069940654995 0 1:4.2515598 2:0.07813194 3:629.76208 4:24.99 5:50.1 6:0 
9.964601869631494 0 1:4.297109 2:0.12341216 3:642.84288 4:25.62 5:50.1 6:0 
10 0 1:4.3070306 2:0.099215177 3:645.52256 4:26.09 5:50.1 6:0 
10 0 1:4.2687451 2:-0.25771307 3:658.68648 4:26.82 5:50.1 6:0 
10 0 1:4.2332284 2:-0.35516644 3:661.20576 4:26.61 5:50.1 6:0 
10 0 1:4.1906312 2:-0.42597232 3:663.70024 4:26.52 5:50.1 6:0 
10 0 1:4.1387945 2:-0.5183674 3:666.178 4:26.53 5:50.1 6:0 
10 0 1:4.0785113 2:-0.60283136 3:668.63688 4:26.4 5:50.1 6:0 
10 0 1:4.0054806 2:-0.73030731 3:671.0658 4:25.95 5:50.1 6:0 
-0 10 1:-1.1108152 2:-0.53742545 3:19.72052 4:-5.05 5:50.1 6:0 
-0 10 1:-1.1471487 2:-0.36333483 3:19.25284 4:-4.94 5:50.1 6:0 
-10 10 1:-1.1684041 2:-0.21255361 3:18.77012 4:-4.87 5:50.1 6:0 
-10 10 1:-1.1788089 2:-0.10404852 3:18.26888 4:-4.84 5:50.1 6:0 
-10 10 1:-1.1854121 2:-0.066031819 3:17.7368 4:-4.85 5:50.1 6:0 
-10 10 1:-1.1705097 2:0.14902444 3:17.16792 4:-4.78 5:50.1 6:0 
-10 10 1:-1.1712015 2:-0.0069185014 3:16.59012 4:-4.4 5:50.1 6:0 
-10 10 1:-1.1597926 2:0.11408954 3:16.06156 4:-3.58 5:50.1 6:0 
-10 10 1:-1.171252 2:-0.11459448 3:15.65916 4:-2.45 5:50.1 6:0 
-10 10 1:-1.1760883 2:-0.048363405 3:15.35856 4:-1.37 5:50.1 6:0 
-0 10 1:-1.2084938 2:-0.32405464 3:15.15488 4:-0.66 5:50.1 6:0 
-0 10 1:-1.2501684 2:-0.41674641 3:14.96164 4:-0.5 5:50.1 6:0 
-0 10 1:-1.2790426 2:-0.28874129 3:14.7264 4:-0.78 5:50.1 6:0 
-0 10 1:-1.3090287 2:-0.29986119 3:14.46324 4:-1.23 5:50.1 6:0 
-0 10 1:-1.3427778 2:-0.33749089 3:14.2244 4:-1.62 5:50.1 6:0 
-0 10 1:-1.3761249 2:-0.33347131 3:14.04168 4:-1.87 5:50.1 6:0 
-0 10 1:-1.4013839 2:-0.25258947 3:13.87964 4:-2.06 5:50.1 6:0 
-0 10 1:-1.4328138 2:-0.31429931 3:13.66008 4:-2.34 5:50.1 6:0 
-0 10 1:-1.4753032 2:-0.42489392 3:13.33768 4:-2.83 5:50.1 6:0 
-0 10 1:-1.504358 2:-0.29054846 3:12.93292 4:-3.65 5:50.1 6:0 
-0 10 1:-1.5476857 2:-0.43327675 3:12.47952 4:-4.88 5:50.1 6:0 
-0 10 1:-1.5813987 2:-0.33712968 3:11.99972 4:-6.37 5:50.1 6:0 
-0 10 1:-1.6173903 2:-0.35991675 3:11.4908 4:-7.64 5:50.1 6:0 
-0 10 1:-1.6575072 2:-0.40116806 3:10.94804 4:-8.28 5:50.1 6:0 
-0 10 1:-1.6989729 2:-0.41465793 3:10.37416 4:-8.29 5:50.1 6:0 
-0 10 1:-1.7415938 2:-0.42620888 3:9.76844 4:-7.94 5:50.1 6:0 
-0 10 1:-1.7854847 2:-0.43890855 3:9.13304 4:-7.51 5:50.1 6:0 
-0 10 1:-1.8305667 2:-0.45081975 3:8.47376 4:-7.07 5:50.1 6:0 
-0 10 1:-1.8634303 2:-0.32863623 3:7.7998 4:-6.64 5:50.1 6:0 
-0 10 1:-1.8937319 2:-0.30301598 3:7.1178 4:-6.43 5:50.1 6:0 
-0 10 1:-1.9203342 2:-0.26602296 3:6.43 4:-6.73 5:50.1 6:0 
-0 10 1:-1.9307127 2:-0.10378533 3:5.73424 4:-7.5 5:50.1 6:0 
-0 10 1:-1.9369895 2:-0.062767987 3:5.03036 4:-8.27 5:50.1 6:0 
-0 10 1:-1.9415311 2:-0.045415749 3:4.323 4:-8.55 5:50.1 6:0 
-10 10 1:-1.9314715 2:0.10059576 3:3.6178 4:-8.32 5:50.1 6:0 
-10 10 1:-1.9265969 2:0.048745877 3:2.9174 4:-7.98 5:50.1 6:0 
-10 10 1:-1.9208895 2:0.057074453 3:2.2378 4:-7.87 5:50.1 6:0 
-10 10 1:-1.9091358 2:0.1175371 3:1.5864 4:-7.99 5:50.1 6:0 
-10 10 1:-1.9011682 2:0.079675886 3:0.9472 4:-8.12 5:50.1 6:0 
-3.566617687314298 10 1:-1.8974383 2:0.037298546 3:0.2916 4:-8.04 5:50.1 6:0 
-0 10 1:-1.897753 2:-0.0031465295 3:-0.4094 4:-7.91 5:50.1 6:0 
-0 10 1:-1.9074995 2:-0.097465526 3:-1.1672 4:-8.01 5:50.1 6:0 
-0 10 1:-1.926665 2:-0.19165498 3:-1.9822 4:-8.43 5:50.1 6:0 
-0 10 1:-1.958685 2:-0.32019984 3:-2.8604 4:-9.05 5:50.1 6:0 
-0 10 1:-1.9993467 2:-0.4066173 3:-3.7858 4:-9.61 5:50.1 6:0 
-0 10 1:-2.0464358 2:-0.4708903 3:-4.7198 4:-9.95 5:50.1 6:0 
-0 10 1:-2.1124322 2:-0.65996406 3:-5.6274 4:-10.06 5:50.1 6:0 
-0 10 1:-2.1842627 2:-0.7183052 3:-6.4892 4:-9.86 5:50.1 6:0 
-0 0.000851360582427201 1:-2.26607 2:-0.81807341 3:-7.3094 4:-9.26 5:50.1 6:0 
-0 10 1:-5.0609617 2:-1.543954 3:-15.1198 4:1.92 5:-12.4142 6:1.8 
-0 10 1:-5.204525 2:-1.4356326 3:-14.8706 4:2.31 5:-12.6634 6:2.22 
-0 10 1:-5.3413782 2:-1.3685323 3:-14.5636 4:2.51 5:-12.9584 6:2.38 
-0 10 1:-5.4696441 2:-1.2826588 3:-14.2204 4:2.5 5:-13.2816 6:2.37 
-0 10 1:-5.5912468 2:-1.2160266 3:-13.8488 4:2.1 5:-13.6392 6:2.03 
-0 10 1:-5.6974363 2:-1.061895 3:-13.4764 4:1.36 5:-14.0086 6:1.35 
-0 10 1:-5.7836651 2:-0.86228823 3:-14.1392 4:0.88 5:50.1 6:0 
-0 10 1:-5.8447933 2:-0.61128202 3:-13.789 4:1.29 5:50.1 6:0 
-0 10 1:-5.8846341 2:-0.39840826 3:-13.3832 4:2.86 5:50.1 6:0 
-0 10 1:-5.9106761 2:-0.26041986 3:-12.8744 4:5.18 5:50.1 6:0 
-0 10 1:-5.9318888 2:-0.21212712 3:-12.2814 4:7.22 5:50.1 6:0 
-0 10 1:-5.9478557 2:-0.15966937 3:-11.6456 4:8.46 5:50.1 6:0 
-0 10 1:-5.9541862 2:-0.063304307 3:-10.9938 4:8.95 5:50.1 6:0 
-0 10 1:-5.9548694 2:-0.0068321453 3:-10.324 4:9.03 5:50.1 6:0 
-0 10 1:-5.9488816 2:0.059878276 3:-9.6268 4:9.03 5:50.1 6:0 
-0 10 1:-5.9358776 2:0.13003924 3:-8.8992 4:8.98 5:50.1 6:0 
-0 10 1:-5.9157587 2:0.20118981 3:-8.1386 4:8.8 5:50.1 6:0 
-10 0 1:5.6712132 2:-2.3265273 3:49.1538 4:4.86 5:50.1 6:0 
-10 0 1:5.4303715 2:-2.4084167 3:49.5508 4:4.89 5:50.1 6:0 
-10 0 1:5.179014 2:-2.5135751 3:49.9446 4:4.86 5:50.1 6:0 
-0 10 1:-3.4114578 2:-0.77110084 3:60.6586 4:-3.05 5:50.1 6:0 
-0 10 1:-3.4830974 2:-0.71639544 3:60.4162 4:-2.44 5:50.1 6:0 
-0 10 1:-3.54337 2:-0.60272692 3:60.1492 4:-1.75 5:50.1 6:0 
-10 0 1:5.2674629 2:-0.73941546 3:-1.84692 4:8.99 5:50.1 6:0 
-10 0 1:5.1916733 2:-0.7578954 3:9.29196 4:8.54 5:50.1 6:0 
-10 0 1:5.1135418 2:-0.78131566 3:10.32912 4:8.89 5:50.1 6:0 
-10 0 1:5.0339181 2:-0.79623705 3:11.3596 4:8.93 5:50.1 6:0 
-10 0 1:4.9539409 2:-0.79977197 3:12.33176 4:8.94 5:50.1 6:0 
-10 0 1:4.8724537 2:-0.81487192 3:13.314 4:9.2 5:50.1 6:0 
-10 0 1:4.7907136 2:-0.81740093 3:14.3884 4:9.51 5:50.1 6:0 
-10 0 1:4.7057918 2:-0.8492177 3:15.52756 4:9.5 5:50.1 6:0 
-10 0 1:4.6220515 2:-0.83740285 3:16.62756 4:9.07 5:50.1 6:0 
-10 0 1:4.5332973 2:-0.88754236 3:17.62 4:8.7 5:50.1 6:0 
-10 0 1:4.4455368 2:-0.87760475 3:18.56288 4:8.82 5:50.1 6:0 
-10 0 1:4.3508441 2:-0.94692756 3:19.549 4:9.33 5:50.1 6:0 
-10 0 1:4.2541048 2:-0.96739249 3:20.5786 4:9.76 5:50.1 6:0 
-10 0 1:4.1536947 2:-1.0041009 3:21.56608 4:9.62 5:50.1 6:0 
-10 0 1:4.0460011 2:-1.0769364 3:22.40908 4:8.98 5:50.1 6:0 
-10 0 1:3.9374082 2:-1.0859288 3:23.10468 4:8.56 5:50.1 6:0 
-10 0 1:3.8270254 2:-1.103828 3:23.74592 4:8.89 5:50.1 6:0 
-10 0 1:3.7093687 2:-1.1765667 3:24.568 4:10.12 5:50.1 6:0 
-10 0 1:3.5866282 2:-1.227405 3:25.55872 4:11.81 5:50.1 6:0 
-10 0 1:3.4607716 2:-1.2585664 3:24.69948 4:4.48 5:50.1 6:0 
-10 0 1:3.3338207 2:-1.2695093 3:25.0648 4:4.42 5:50.1 6:0 
-10 0 1:3.208147 2:-1.2567365 3:25.4384 4:4.34 5:50.1 6:0 
-10 0 1:3.0853068 2:-1.2284018 3:25.8196 4:4.25 5:50.1 6:0 
-10 0 1:2.9659269 2:-1.1937988 3:26.2072 4:4.15 5:50.1 6:0 
-10 0 1:2.8477725 2:-1.1815448 3:26.5992 4:4.08 5:50.1 6:0 
-10 0 1:2.7294977 2:-1.1827478 3:26.9942 4:4.02 5:50.1 6:0 
-10 0 1:2.6102743 2:-1.1922342 3:27.387 4:4 5:50.1 6:0 
-10 0 1:2.4868716 2:-1.2340269 3:27.7744 4:4 5:50.1 6:0 
-10 0 1:2.3586873 2:-1.2818433 3:28.1564 4:4.01 5:50.1 6:0 
-10 0 1:2.2263449 2:-1.3234236 3:28.5324 4:4 5:50.1 6:0 
-10 0 1:2.0889601 2:-1.3738483 3:28.8974 4:3.97 5:50.1 6:0 
-0 0.01817711275334762 1:-0.75982366 2:-1.1430164 3:38.2374 4:12.05 5:50.1 6:0 
-0 10 1:-2.6038077 2:-0.77606871 3:48.117 4:1.32 5:50.1 6:0 
-0 10 1:-2.6658527 2:-0.62045054 3:48.5762 4:1.3 5:50.1 6:0 
-0 10 1:-2.7055124 2:-0.39659694 3:49.003 4:1.32 5:50.1 6:0 
-0 10 1:-2.7533624 2:-0.47849963 3:49.3942 4:1.39 5:50.1 6:0 
-0 10 1:-2.8040254 2:-0.50662999 3:49.7518 4:1.59 5:50.1 6:0 
-0 10 1:-2.8648269 2:-0.60801484 3:50.0814 4:1.95 5:50.1 6:0 
-0 10 1:-2.9294998 2:-0.64672883 3:50.387 4:2.41 5:50.1 6:0 
-0 10 1:-2.9925947 2:-0.63094934 3:50.6702 4:2.96 5:50.1 6:0 
-0 10 1:-3.0500316 2:-0.57436911 3:50.9334 4:3.57 5:50.1 6:0 
-0 10 1:-3.0997284 2:-0.49696774 3:51.1786 4:4.13 5:50.1 6:0 
-0 10 1:-3.1425017 2:-0.42773333 3:51.4202 4:4.41 5:50.1 6:0 
-0 10 1:-3.1796137 2:-0.37111962 3:51.6682 4:4.03 5:50.1 6:0 
-0 10 1:-3.2082665 2:-0.28652802 3:51.9056 4:2.96 5:50.1 6:0 
-0 10 1:-3.2275205 2:-0.1925399 3:52.0926 4:1.63 5:50.1 6:0 
-0 10 1:-3.2386405 2:-0.11120071 3:52.205 4:0.65 5:50.1 6:0 
-0 10 1:-3.2446336 2:-0.059930637 3:52.2696 4:0.65 5:50.1 6:0 
-0 10 1:-3.2482476 2:-0.036140324 3:52.393 4:1.6 5:50.1 6:0 
-0 10 1:-3.2520269 2:-0.037792959 3:52.6346 4:2.59 5:50.1 6:0 
-0 10 1:-3.2586027 2:-0.065758268 3:52.9424 4:3 5:50.1 6:0 
-0 10 1:-3.2696738 2:-0.11071015 3:53.24 4:2.76 5:50.1 6:0 
-0 10 1:-3.2882179 2:-0.18544097 3:53.4772 4:2.23 5:50.1 6:0 
-0 10 1:-3.3165764 2:-0.28358579 3:53.6782 4:1.99 5:50.1 6:0 
-0 10 1:-3.3566009 2:-0.40024435 3:53.8856 4:2.01 5:50.1 6:0 
-0 10 1:-3.4068746 2:-0.50273689 3:54.088 4:1.92 5:50.1 6:0 
-0 10 1:-3.4727281 2:-0.65853535 3:54.2618 4:1.57 5:50.1 6:0 
-0 10 1:-3.5634126 2:-0.90684469 3:54.3684 4:1 5:50.1 6:0 
-0 0.05754923857639791 1:-4.5065656 2:-0.98584256 3:54.0408 4:-4.04 5:50.1 6:0 
-0 10 1:-4.5933892 2:-0.86823543 3:53.6182 4:-3.97 5:50.1 6:0 
-0 10 1:-4.6798152 2:-0.86426081 3:53.2078 4:-3.75 5:50.1 6:0 
-0 10 1:-4.7621583 2:-0.82343026 3:52.8338 4:-3.33 5:50.1 6:0 
-10 0 1:6.0104847 2:-1.7027555 3:62.43024 4:13.4 5:50.1 6:0 
-10 0 1:5.8389193 2:-1.7156545 3:63.74116 4:13.89 5:50.1 6:0 
-10 0 1:5.6679523 2:-1.7096691 3:65.22116 4:14.1 5:50.1 6:0 
-10 0 1:5.4966722 2:-1.7128018 3:66.76892 4:13.97 5:50.1 6:0 
-10 0 1:5.3251289 2:-1.715433 3:68.30528 4:13.51 5:50.1 6:0 
-10 0 1:5.1493266 2:-1.7580224 3:69.76376 4:12.69 5:50.1 6:0 
-10 0 1:4.9642072 2:-1.8511943 3:71.0638 4:11.6 5:50.1 6:0 
-10 0 1:4.7706278 2:-1.9357935 3:72.199 4:10.59 5:50.1 6:0 
-10 0 1:4.5689825 2:-2.0164531 3:73.1634 4:10.19 5:50.1 6:0 
-0 10 1:0.24744197 2:-0.66998644 3:86.83188 4:6.63 5:50.1 6:0 
-0 0.0002155501056152339 1:-0.31077297 2:-0.76923801 3:89.64008 4:6.68 5:50.1 6:0 
-0 10 1:-5.0013473 2:-0.66127153 3:94.17284 4:-7.68 5:50.1 6:0 
-0 10 1:-5.0457847 2:-0.44437353 3:93.46916 4:-7.35 5:50.1 6:0 
-0 10 1:-5.0791949 2:-0.33410236 3:92.77376 4:-6.92 5:50.1 6:0 
-0 10 1:-5.1054798 2:-0.26284944 3:92.08972 4:-6.48 5:50.1 6:0 
-0 10 1:-5.1235807 2:-0.18100893 3:91.41528 4:-6.16 5:50.1 6:0 
-0 10 1:-5.1395862 2:-0.16005501 3:90.75084 4:-5.97 5:50.1 6:0 
-0 10 1:-5.1517086 2:-0.12122358 3:90.10676 4:-5.9 5:50.1 6:0 
-0 10 1:-5.1593393 2:-0.076307212 3:88.7916 4:-10.01 5:50.1 6:0 
-0 10 1:-5.1620421 2:-0.027028303 3:87.8086 4:-8.96 5:50.1 6:0 
-0 10 1:-5.1582287 2:0.038134495 3:86.9832 4:-8.28 5:50.1 6:0 
-0 10 1:-5.1468454 2:0.11383325 3:86.1858 4:-8 5:50.1 6:0 
-0 10 1:-5.1309062 2:0.15939203 3:85.3822 4:-7.89 5:50.1 6:0 
-0 10 1:-5.1113731 2:0.19533062 3:84.6058 4:-7.78 5:50.1 6:0 
-0 10 1:-5.087862 2:0.23511054 3:83.878 4:-7.87 5:50.1 6:0 
-0 10 1:-5.0602716 2:0.27590407 3:83.1286 4:-8.42 5:50.1 6:0 
-0 10 1:-5.0314383 2:0.28833295 3:82.2786 4:-9.26 5:50.1 6:0 
-0 10 1:-5.0008275 2:0.30610874 3:81.8074 4:-10.52 5:50.1 6:0 
-0 10 1:-4.9710149 2:0.29812559 3:80.8158 4:-10.52 5:50.1 6:0 
-0 10 1:-4.93919 2:0.31824897 3:79.8504 4:-10.52 5:50.1 6:0 
-0 10 1:-4.9114525 2:0.2773753 3:78.9086 4:-10.5 5:50.1 6:0 
-0 10 1:-4.8809957 2:0.30456797 3:77.9902 4:-10.33 5:50.1 6:0 
-0 10 1:-4.8550259 2:0.25969825 3:77.0958 4:-9.89 5:50.1 6:0 
-0 10 1:-4.8251411 2:0.29884736 3:76.2254 4:-9.17 5:50.1 6:0 
-0 10 1:-4.7971226 2:0.2801848 3:75.378 4:-8.39 5:50.1 6:0 
-0 10 1:-4.7705169 2:0.26605775 3:74.5556 4:-7.9 5:50.1 6:0 
-0 10 1:-4.7450789 2:0.25437955 3:73.2568 4:-7.81 5:50.1 6:0 
-0 10 1:-4.721134 2:0.23944965 3:72.4824 4:-7.83 5:50.1 6:0 
-0 10 1:-4.6991453 2:0.21988689 3:72.2318 4:-8.07 5:50.1 6:0 
-0 10 1:-4.6794059 2:0.19739371 3:71.4572 4:-7.79 5:50.1 6:0 
-0 10 1:-4.6627108 2:0.16695122 3:70.6564 4:-7.28 5:50.1 6:0 
-0 10 1:-4.6529474 2:0.097633926 3:69.8368 4:-6.81 5:50.1 6:0 
-0 10 1:-4.6503402 2:0.026071316 3:69.013 4:-6.48 5:50.1 6:0 
-0 10 1:-4.6525386 2:-0.021983108 3:68.2014 4:-6.27 5:50.1 6:0 
-0 10 1:-4.6606435 2:-0.081049259 3:67.415 4:-6.03 5:50.1 6:0 
-0 10 1:-4.6784968 2:-0.17853291 3:66.6708 4:-5.57 5:50.1 6:0 
-0 10 1:-4.6959457 2:-0.17448954 3:66.0096 4:-4.93 5:50.1 6:0 
-0 10 1:-4.7199177 2:-0.23971926 3:65.4674 4:-4.41 5:50.1 6:0 
-0 10 1:-4.7466902 2:-0.26772571 3:64.9988 4:-4.44 5:50.1 6:0 
-0 10 1:-4.7826595 2:-0.35969254 3:64.483 4:-5.22 5:50.1 6:0 
-0 10 1:-4.8248635 2:-0.42204067 3:63.7924 4:-6.69 5:50.1 6:0 
-0 10 1:-4.8819098 2:-0.57046292 3:62.9726 4:-8.47 5:50.1 6:0 
-0 10 1:-4.9470325 2:-0.65122675 3:62.002 4:-10.12 5:50.1 6:0 
-0 10 1:-5.5333868 2:-0.84533564 3:53.9014 4:-11.52 5:50.1 6:0 
-0 10 1:-5.6192655 2:-0.85878675 3:52.755 4:-11.44 5:50.1 6:0 
-0 10 1:-5.7027292 2:-0.83463723 3:51.6616 4:-11.54 5:50.1 6:0 
-0 10 1:-5.8712559 2:-0.82391305 3:49.4964 4:-11.85 5:50.1 6:0 
-0 10 1:-5.9573546 2:-0.86098693 3:48.4062 4:-11.74 5:50.1 6:0 
-0 10 1:-6.038554 2:-0.81199418 3:47.3186 4:-11.42 5:50.1 6:0 
-0 10 1:-6.1188145 2:-0.8026048 3:46.2362 4:-11 5:50.1 6:0 
-0 10 1:-6.1928014 2:-0.73986882 3:45.163 4:-10.59 5:50.1 6:0 
-0 10 1:-6.2616678 2:-0.68866457 3:44.1014 4:-10.27 5:50.1 6:0 
-10 0 1:3.1219282 2:-2.0127598 3:272.35016 4:-10.71 5:21.56784 6:-5.66 
-10 0 1:2.9102858 2:-2.1164236 3:271.11672 4:-11.07 5:22.28428 6:-6.11 
-10 0 1:2.6943577 2:-2.1592807 3:269.8676 4:-11.29 5:23.0134 6:-6.76 
-0 10 1:-3.2073638 2:-0.87129874 3:251.3986 4:-4.5 5:42.2814 6:-4.5 
-0 10 1:-3.2768003 2:-0.69436503 3:250.955 4:-4.75 5:42.725 6:-4.75 
-9.685438296353874 0 1:3.4256723 2:-1.7316172 3:41.56272 4:13.86 5:50.1 6:0 
-10 10 1:0.12965211 2:-0.41292086 3:56.70268 4:10.01 5:50.1 6:0 
-10 10 1:-0.14015965 2:0.070943996 3:57.3784 4:0.64 5:50.1 6:0 
-0 10 1:-0.199182 2:-0.59022348 3:57.30292 4:0.79 5:50.1 6:0 
-0 6.589896459041056 1:-0.33704209 2:-0.679221 3:57.24964 4:1.08 5:50.1 6:0 
-0 10 1:-0.40215018 2:-0.6510809 3:57.24676 4:1.14 5:50.1 6:0 
-0 10 1:-0.46628082 2:-0.64130644 3:57.2416 4:1.03 5:50.1 6:0 
-0 10 1:-0.53068208 2:-0.64401258 3:57.23072 4:0.71 5:50.1 6:0 
-0 10 1:-0.65440068 2:-0.56206662 3:57.19624 4:-0.39 5:50.1 6:0 
-0 10 1:-0.70713886 2:-0.52738183 3:57.13956 4:-1.08 5:50.1 6:0 
-0 10 1:-2.0461255 2:-0.51958649 3:49.06988 4:-9.73 5:50.1 6:0 
-0 10 1:-2.092536 2:-0.46410494 3:48.16072 4:-10.55 5:50.1 6:0 
-0 10 1:-2.134384 2:-0.41847958 3:47.12012 4:-11.7 5:50.1 6:0 
-0 10 1:-2.1721717 2:-0.37787694 3:45.9678 4:-12.84 5:50.1 6:0 
-0 10 1:-2.2036764 2:-0.31504746 3:44.68408 4:-13.66 5:50.1 6:0 
-0 10 1:-2.21959 2:-0.15913537 3:43.34792 4:-14.04 5:50.1 6:0 
-0 10 1:-2.233431 2:-0.13841058 3:42.01724 4:-13.97 5:50.1 6:0 
-0 10 1:-2.2463026 2:-0.12871599 3:40.72016 4:-13.6 5:50.1 6:0 
-0 10 1:-2.2480083 2:-0.017056694 3:39.4564 4:-13.08 5:50.1 6:0 
-0 10 1:-2.2554635 2:-0.074551771 3:38.22288 4:-12.59 5:50.1 6:0 
-0 10 1:-2.2544809 2:0.0098257668 3:37.02168 4:-12.23 5:50.1 6:0 
-0.5270883141707381 10 1:-2.2515888 2:0.028920884 3:35.85468 4:-12.04 5:50.1 6:0 
-0 10 1:-2.2481734 2:0.034154132 3:34.72008 4:-11.99 5:50.1 6:0 
-10 10 1:-2.2427776 2:0.053958016 3:33.61732 4:-12.01 5:50.1 6:0 
-10 10 1:-2.2351468 2:0.076308143 3:32.54724 4:-12.03 5:50.1 6:0 
-10 10 1:-2.2245751 2:0.10571611 3:31.512 4:-11.87 5:50.1 6:0 
-10 10 1:-2.2145225 2:0.10052608 3:30.5162 4:-11.31 5:50.1 6:0 
-10 10 1:-2.1942508 2:0.20271722 3:29.5706 4:-10.31 5:50.1 6:0 
-10 10 1:-2.1822413 2:0.12009514 3:28.6892 4:-9.1 5:50.1 6:0 
-10 10 1:-2.1582598 2:0.23981554 3:27.8506 4:-8.19 5:50.1 6:0 
-10 10 1:-2.1356327 2:0.22627099 3:27.0044 4:-8.05 5:50.1 6:0 
-10 10 1:-2.1136867 2:0.2194599 3:26.0638 4:-8.66 5:50.1 6:0 
-10 10 1:-2.0945548 2:0.19131817 3:25.0454 4:-9.53 5:50.1 6:0 
-10 10 1:-2.0707535 2:0.23801316 3:23.9468 4:-10.08 5:50.1 6:0 
-10 10 1:-2.0518645 2:0.18889016 3:22.8848 4:-10.08 5:50.1 6:0 
-10 10 1:-2.0342159 2:0.17648584 3:21.9348 4:-9.71 5:50.1 6:0 
-10 10 1:-2.0236467 2:0.10569275 3:21.0822 4:-9.26 5:50.1 6:0 
-10 10 1:-2.0151485 2:0.084981737 3:20.2462 4:-8.77 5:50.1 6:0 
-10 10 1:-2.0068755 2:0.082729707 3:19.3846 4:-8.11 5:50.1 6:0 
-10 10 1:-2.000659 2:0.062165262 3:18.5198 4:-7.28 5:50.1 6:0 
-0 10 1:-2.0039617 2:-0.033027513 3:17.691 4:-6.56 5:50.1 6:0 
-0 10 1:-2.0130767 2:-0.09114983 3:16.9132 4:-6.12 5:50.1 6:0 
-0 10 1:-2.0224289 2:-0.093522048 3:16.1776 4:-5.96 5:50.1 6:0 
-0 10 1:-2.03078 2:-0.083511119 3:15.476 4:-5.94 5:50.1 6:0 
-0 10 1:-2.0447961 2:-0.14016111 3:14.8084 4:-5.95 5:50.1 6:0 
-0 10 1:-2.0617941 2:-0.16997952 3:14.1706 4:-5.93 5:50.1 6:0 
-0 10 1:-2.079732 2:-0.17937939 3:13.5546 4:-5.8 5:50.1 6:0 
-0 10 1:-2.0973842 2:-0.17652125 3:12.9558 4:-5.48 5:50.1 6:0 
-0 10 1:-2.1145318 2:-0.17147634 3:12.3742 4:-5 5:50.1 6:0 
-0 10 1:-2.13202 2:-0.17488209 3:11.8142 4:-4.5 5:50.1 6:0 
-0 10 1:-2.1528784 2:-0.20858359 3:11.2728 4:-4.17 5:50.1 6:0 
-0 10 1:-2.1776576 2:-0.24779201 3:10.7428 4:-4.06 5:50.1 6:0 
-0 10 1:-2.2006694 2:-0.23011836 3:10.2204 4:-4.06 5:50.1 6:0 
-0 10 1:-2.2176531 2:-0.16983719 3:9.7 4:-4.07 5:50.1 6:0 
-0 10 1:-2.238814 2:-0.21160862 3:9.1792 4:-4.03 5:50.1 6:0 
-0 10 1:-2.2635663 2:-0.24752346 3:8.657 4:-4.01 5:50.1 6:0 
-0 10 1:-2.2825704 2:-0.19004078 3:8.1418 4:-4.13 5:50.1 6:0 
-0 10 1:-2.2991891 2:-0.16618725 3:7.6372 4:-4.58 5:50.1 6:0 
-0 10 1:-2.3187809 2:-0.19591806 3:7.117 4:-5.26 5:50.1 6:0 
-0 10 1:-2.3397776 2:-0.20996691 3:6.559 4:-5.84 5:50.1 6:0 
-0 10 1:-2.3542861 2:-0.14508435 3:5.9866 4:-5.92 5:50.1 6:0 
-0 10 1:-2.3742809 2:-0.19994865 3:5.467 4:-5.29 5:50.1 6:0 
-0 10 1:-2.3992252 2:-0.24944251 3:5.083 4:-4.23 5:50.1 6:0 
-0 10 1:-2.4199993 2:-0.2077414 3:4.823 4:-3.27 5:50.1 6:0 
-0 10 1:-2.4503875 2:-0.30388143 3:4.644 4:-2.71 5:50.1 6:0 
-0 10 1:-2.4907394 2:-0.4035192 3:4.4816 4:-2.48 5:50.1 6:0 
-0 10 1:-2.5391404 2:-0.48400975 3:4.319 4:-2.63 5:50.1 6:0 
-0 10 1:-2.5887492 2:-0.49608818 3:4.096 4:-3.35 5:50.1 6:0 
-0 10 1:-2.6454448 2:-0.56695674 3:3.6422 4:-4.84 5:50.1 6:0 
-0 10 1:-2.7050524 2:-0.59607578 3:2.996 4:-6.89 5:50.1 6:0 
-0 10 1:-2.7642823 2:-0.59229887 3:2.164 4:-8.71 5:50.1 6:0 
-0 10 1:-2.8228173 2:-0.58534979 3:1.0772 4:-9.44 5:50.1 6:0 
-0 10 1:-2.8824232 2:-0.59605955 3:0.0288 4:-8.91 5:50.1 6:0 
-0 10 1:-2.9452644 2:-0.62841143 3:-0.8024 4:-7.75 5:50.1 6:0 
-0 10 1:-3.0024097 2:-0.57145327 3:-1.4872 4:-6.76 5:50.1 6:0 
-0 10 1:-3.0612845 2:-0.58874808 3:-1.9608 4:-6.36 5:50.1 6:0 
-0 10 1:-3.1241043 2:-0.62819728 3:-2.399 4:-6.45 5:50.1 6:0 
-0 10 1:-3.180071 2:-0.55966706 3:-2.8326 4:-6.6 5:50.1 6:0 
-0 10 1:-3.2412578 2:-0.61186821 3:-3.2436 4:-6.6 5:50.1 6:0 
-0 10 1:-3.2993409 2:-0.58083104 3:-3.6302 4:-6.41 5:50.1 6:0 
-0 10 1:-3.3559935 2:-0.56652583 3:-3.9922 4:-5.97 5:50.1 6:0 
-0 10 1:-3.4162438 2:-0.60250322 3:-4.326 4:-5.2 5:50.1 6:0 
-0 10 1:-3.4782731 2:-0.62029273 3:-4.6326 4:-4.07 5:50.1 6:0 
-0 10 1:-3.5417313 2:-0.63458239 3:-4.9144 4:-2.71 5:50.1 6:0 
-0 10 1:-3.6041038 2:-0.6237251 3:-5.1746 4:-1.43 5:50.1 6:0 
-0 10 1:-3.6659112 2:-0.61807409 3:-5.4144 4:-0.5 5:50.1 6:0 
-10 0 1:5.7488767 2:-1.0082933 3:102.2998 4:-5.64 5:39.2432 6:-15.26 
-10 0 1:5.6277319 2:-1.2114475 3:101.7408 4:-5.58 5:40.7392 6:-14.99 
-10 0 1:5.4893098 2:-1.384221 3:101.1928 4:-5.05 5:42.1872 6:-14.51 
-10 0 1:5.3364336 2:-1.528762 3:100.7214 4:-4.11 5:43.5746 6:-14.14 
-10 0 1:5.1676069 2:-1.6882668 3:100.3806 4:-3.22 5:44.9464 6:-14.27 
-10 0 1:4.9836776 2:-1.8392934 3:100.1408 4:-2.95 5:46.3802 6:-14.85 
-10 0 1:4.7804504 2:-2.0322719 3:99.8952 4:-3.47 5:47.9208 6:-15.44 
-10 0 1:4.5559308 2:-2.2451964 3:99.5112 4:-4.65 5:49.5218 6:-15.55 
-10 0 1:5.6515976 2:-2.1447771 3:82.0684 4:3.93 5:50.1 6:0 
-10 0 1:5.4230579 2:-2.2853978 3:82.3894 4:4.49 5:50.1 6:0 
-10 0 1:5.182486 2:-2.4057191 3:82.7826 4:5.18 5:50.1 6:0 
-0 10 1:-3.3975197 2:-0.90222086 3:97.5294 4:2.3 5:50.1 6:0 
-0 10 1:-3.4844808 2:-0.86961105 3:97.5964 4:3.13 5:50.1 6:0 
-0 10 1:-3.5672738 2:-0.82792963 3:97.7882 4:4.26 5:50.1 6:0 
-0 10 1:-3.6473502 2:-0.80076399 3:98.0362 4:4.74 5:50.1 6:0 
-0 10 1:-3.7298682 2:-0.82518058 3:98.2446 4:4.2 5:50.1 6:0 
-0 10 1:-3.8084926 2:-0.7862434 3:98.455 4:2.89 5:50.1 6:0 
-0 10 1:-3.8931296 2:-0.84636977 3:98.6722 4:1.59 5:50.1 6:0 
-0 10 1:-3.9815797 2:-0.88450098 3:98.9012 4:0.88 5:50.1 6:0 
-0 10 1:-4.0609898 2:-0.79410126 3:99.1348 4:0.71 5:50.1 6:0 
-0 10 1:-4.139064 2:-0.78074237 3:99.3152 4:0.83 5:50.1 6:0 
-0 10 1:-4.2098714 2:-0.70807331 3:99.451 4:0.91 5:50.1 6:0 
-0 10 1:-4.2681813 2:-0.58309913 3:99.616 4:1.11 5:50.1 6:0 
-0 10 1:-4.3202198 2:-0.52038553 3:99.8718 4:1.83 5:50.1 6:0 
-0 10 1:-4.3656342 2:-0.45414417 3:100.2466 4:2.87 5:50.1 6:0 
-0 10 1:-4.4060319 2:-0.40397669 3:100.7296 4:3.73 5:50.1 6:0 
-0 10 1:-4.4425306 2:-0.36498734 3:101.2666 4:4.3 5:50.1 6:0 
-0 10 1:-4.4783655 2:-0.35834865 3:101.8254 4:4.86 5:50.1 6:0 
-0 10 1:-4.5130967 2:-0.34731177 3:102.3476 4:5.62 5:50.1 6:0 
-0 10 1:-4.5454921 2:-0.32395456 3:102.8424 4:6.14 5:50.1 6:0 
-0 10 1:-4.5788876 2:-0.33395492 3:101.6132 4:1.6 5:50.1 6:0 
-0 10 1:-4.6121491 2:-0.33261485 3:101.6124 4:1.25 5:50.1 6:0 
-0 10 1:-4.6375425 2:-0.25393405 3:101.6226 4:1.1 5:50.1 6:0 
-10 0 1:5.4885791 2:-0.91353044 3:50.1 4:0 5:50.1 6:0 
-10 0 1:5.3935153 2:-0.95063772 3:50.1 4:0 5:50.1 6:0 
-10 0 1:5.2880189 2:-1.0549641 3:50.1 4:0 5:50.1 6:0 
-10 0 1:5.171703 2:-1.1631594 3:50.1 4:0 5:50.1 6:0 
-10 0 1:5.045343 2:-1.2635993 3:50.1 4:0 5:50.1 6:0 
-10 0 1:4.9019639 2:-1.433791 3:50.1 4:0 5:50.1 6:0 
-10 0 1:4.7491178 2:-1.5284613 3:50.1 4:0 5:50.1 6:0 
-10 0 1:4.5873797 2:-1.6173815 3:50.1 4:0 5:50.1 6:0 
-10 0 1:4.4119689 2:-1.7541073 3:50.1 4:0 5:50.1 6:0 
-10 0 1:4.2296249 2:-1.8234399 3:50.1 4:0 5:50.1 6:0 
-10 0 1:4.0351393 2:-1.944856 3:50.1 4:0 5:50.1 6:0 
-10 0 1:3.8325607 2:-2.0257859 3:50.1 4:0 5:50.1 6:0 
-7.506101632782636 0 1:3.6291888 2:-2.0337193 3:50.1 4:0 5:50.1 6:0 
-10 10 1:0.18620383 2:-0.39235976 3:50.1 4:0 5:50.1 6:0 
-10 10 1:-0.27713717 2:-0.33207862 3:50.1 4:0 5:50.1 6:0 
-0 10 1:-0.41530203 2:-0.54923442 3:50.1 4:0 5:50.1 6:0 
-0 10 1:-0.47488376 2:-0.59581723 3:50.1 4:0 5:50.1 6:0 
-0 10 1:-0.61003822 2:-0.51910635 3:50.1 4:0 5:50.1 6:0 
-10 0 1:3.7993711 2:-1.1756446 3:14.00436 4:5.58 5:50.1 6:0 
-10 0 1:3.6740253 2:-1.2534578 3:14.84648 4:5.08 5:50.1 6:0 
-10 0 1:3.5468416 2:-1.271837 3:15.62832 4:4.12 5:50.1 6:0 
-10 0 1:3.4086951 2:-1.3814658 3:16.24484 4:2.63 5:50.1 6:0 
-10 0 1:3.2688663 2:-1.3982875 3:16.71772 4:1.12 5:50.1 6:0 
-10 0 1:3.1232182 2:-1.4564816 3:17.05416 4:0.4 5:50.1 6:0 
-10 0 1:2.9698825 2:-1.5333562 3:17.26028 4:0.68 5:50.1 6:0 
-10 0 1:2.8131271 2:-1.5675546 3:17.37976 4:1.41 5:50.1 6:0 
-0.04549962615597492 0 1:2.6543213 2:-1.5880573 3:17.43668 4:2.09 5:50.1 6:0 
-10 0 1:1.6408382 2:-1.1112665 3:12.77272 4:5.45 5:50.1 6:0 
-10 0 1:1.4200733 2:-1.0214848 3:13.87008 4:7.17 5:50.1 6:0 
-0 10 1:-3.0250342 2:-0.99615833 3:32.94424 4:4.78 5:50.1 6:0 
-0 10 1:-3.1337672 2:-1.0873296 3:33.4418 4:5.52 5:50.1 6:0 
-0 10 1:-3.2340022 2:-1.0023502 3:29.96652 4:0.89 5:50.1 6:0 
-0 10 1:-3.5530787 2:-1.0551286 3:29.82288 4:0.28 5:50.1 6:0 
-0 10 1:-3.6506144 2:-0.9753566 3:29.77708 4:0.26 5:50.1 6:0 
-0 10 1:-3.7369413 2:-0.86326959 3:29.80192 4:-0.48 5:50.1 6:0 
-0 10 1:-3.817107 2:-0.80165648 3:29.66904 4:-1.95 5:50.1 6:0 
-0 10 1:-3.8918633 2:-0.74756336 3:29.41808 4:-2.93 5:50.1 6:0 
-0 10 1:-3.9562941 2:-0.64430779 3:29.03024 4:-2.76 5:50.1 6:0 
-10 10 1:5.7562854 2:-0.27582309 3:-5.48652 4:1.16 5:-6.17348 6:1.17 
-10 10 1:5.7184553 2:-0.37830139 3:-5.4188 4:1.06 5:-6.2842 6:0.69 
-10 10 1:5.6763514 2:-0.4210389 3:-5.3568 4:0.71 5:-6.3052 6:-0.52 
-10 9.835693683043115 1:5.6331551 2:-0.4319628 3:-5.298 4:0.22 5:-6.141 6:-1.49 
-10 0 1:5.5873664 2:-0.4578877 3:-5.24288 4:0 5:-5.92612 6:-1.26 
-10 0 1:5.5375031 2:-0.49863302 3:-5.19508 4:0 5:-5.94592 6:0.22 
-10 0 1:5.4830332 2:-0.5446991 3:-5.15804 4:0 5:-6.09296 6:2.27 
-10 0 1:5.4237048 2:-0.59328336 3:-5.13264 4:0 5:-6.41136 6:3.87 
-10 0 1:5.3606984 2:-0.63006405 3:-5.1182 4:0 5:-6.8938 6:4.81 
-10 0 1:5.2947902 2:-0.65908241 3:-5.11452 4:0 5:-7.44448 6:5.34 
-10 0 1:5.2258289 2:-0.68961261 3:-5.12624 4:0 5:-8.00176 6:5.54 
-10 0 1:5.1536556 2:-0.72173266 3:-5.15328 4:0 5:-8.53272 6:5.57 
-10 0 1:5.0741485 2:-0.79507184 3:-5.19856 4:0.02 5:-9.04844 6:5.56 
-10 0 1:4.9916672 2:-0.82481284 3:-5.2652 4:0.01 5:-9.5558 6:5.28 
-10 0 1:4.9080131 2:-0.83654056 3:-5.36384 4:-0.1 5:-10.00316 6:4.42 
-10 0 1:4.8225907 2:-0.8542237 3:-5.5008 4:-0.3 5:-10.2662 6:2.85 
-10 0 1:4.7370434 2:-0.85547352 3:-5.64788 4:-0.35 5:-10.37512 6:0.9 
-10 0 1:4.6537311 2:-0.83312259 3:-5.75092 4:0.01 5:-10.32508 6:-0.66 
-10 0 1:4.5658748 2:-0.8785629 3:-5.76396 4:0.8 5:-10.10704 6:-1.35 
-10 0 1:4.4786186 2:-0.87256266 3:-5.691 4:1.6 5:-9.858 6:-1.4 
-10 0 1:4.391723 2:-0.86895548 3:-5.58576 4:2.02 5:-9.62124 6:-1.36 
-10 0 1:4.3045979 2:-0.87125085 3:-5.47684 4:2 5:-9.39116 6:-1.71 
-10 0 1:4.2169797 2:-0.87618226 3:-5.3462 4:1.71 5:-9.1398 6:-2.47 
-10 0 1:4.1269215 2:-0.90058202 3:-5.16876 4:1.29 5:-8.86624 6:-3.33 
-10 0 1:4.0335844 2:-0.93337088 3:-4.95656 4:0.83 5:-8.57844 6:-4.09 
-10 0 1:3.9372728 2:-0.96311664 3:-4.74948 4:0.39 5:-8.27152 6:-4.64 
-10 0 1:3.8385972 2:-0.98675605 3:-4.57324 4:0.09 5:-7.94376 6:-4.93 
-10 0 1:3.7386364 2:-0.99960718 3:-4.42248 4:-0.03 5:-7.59552 6:-5.03 
-10 0 1:3.6307574 2:-1.0787909 3:-4.26372 4:-0.25 5:-7.22828 6:-5 
-10 0 1:3.5210958 2:-1.0966153 3:-4.17472 4:-0.82 5:-6.84428 6:-5 
-10 0 1:3.4123538 2:-1.0874206 3:-4.21444 4:-1.23 5:-6.44556 6:-5.05 
-10 0 1:3.2945618 2:-1.17792 3:-4.3108 4:-1.23 5:-6.0272 6:-5.14 
-10 0 1:3.181193 2:-1.1336874 3:-4.38 4:-0.67 5:-5.579 6:-5.11 
-10 0 1:3.0563282 2:-1.2486487 3:-4.35352 4:0.28 5:-5.09748 6:-4.85 
-10 0 1:2.9343368 2:-1.2199131 3:-4.28948 4:0.8 5:-4.58752 6:-4.64 
-10 0 1:2.8060354 2:-1.2830142 3:-4.26428 4:0.8 5:-4.07072 6:-4.72 
-10 0 1:2.6746894 2:-1.3134608 3:-4.24704 4:0.54 5:-3.55396 6:-5.28 
-10 0 1:2.5451935 2:-1.2949585 3:-4.2354 4:0.16 5:-2.9706 6:-6.15 
-10 0 1:2.4076376 2:-1.375559 3:-4.22832 4:0 5:-2.29168 6:-6.6 
-10 0 1:2.2677451 2:-1.3989255 3:-4.22572 4:0 5:-1.59028 6:-6.52 
-10 0 1:2.1341212 2:-1.3362386 3:-4.22668 4:-0.01 5:-0.93332 6:-6.09 
-10 0 1:2.0049511 2:-1.2917011 3:-4.2366 4:-0.02 5:-0.3524 6:-5.42 
-10 0 1:1.8722117 2:-1.3273936 3:-4.26092 4:0.07 5:0.17992 6:-4.68 
-10 0 1:1.7433808 2:-1.2883097 3:-4.28492 4:0.38 5:0.64492 6:-3.71 
-10 0 1:1.620245 2:-1.2313573 3:-4.26372 4:0.99 5:0.97072 6:-2.46 
-10 0 1:1.5055053 2:-1.1473971 3:-4.14964 4:1.74 5:1.17864 6:-1.27 
-6.100514832618331 0 1:1.3877846 2:-1.1772073 3:-3.93892 4:2.35 5:1.24192 6:-0.44 
-10 0 1:1.2801676 2:-1.0761695 3:-3.6796 4:2.61 5:1.2496 6:-0.09 
-10 0 1:1.1848265 2:-0.9534111 3:-3.42208 4:2.43 5:1.26408 6:-0.2 
-10 10 1:1.1027755 2:-0.82050998 3:-3.19036 4:1.91 5:1.30936 6:-0.45 
-10 10 1:1.0261745 2:-0.76601018 3:-2.98652 4:1.3 5:1.35052 6:-0.43 
-10 10 1:0.95065802 2:-0.75516499 3:-2.81836 4:0.79 5:1.33436 6:0.01 
-10 10 1:0.88799597 2:-0.62662041 3:-2.67716 4:0.48 5:1.20616 6:0.69 
-10 10 1:0.83937657 2:-0.48619401 3:-2.54032 4:0.28 5:0.96832 6:1.18 
-10 10 1:0.80639109 2:-0.32985482 3:-2.413 4:0.1 5:0.707 6:1.35 
-0 10 1:-3.3517737 2:-0.88914007 3:-14.0896 4:-7.35 5:-3.9834 6:-2.91 
-10 0 1:2.4800992 2:-1.7350514 3:98.7328 4:-1.69 5:41.5382 6:-2.5 
-0 10 1:-6.5154434 2:-1.1273344 3:50.1 4:0 5:20.766083 6:5.22 
-0 10 1:-6.6224824 2:-1.0703897 3:50.1 4:0 5:17.50413 6:4.67 
-0 10 1:-6.7212215 2:-0.98739163 3:50.1 4:0 5:14.246364 6:4.4 
-0 10 1:-6.8169271 2:-0.95705598 3:50.1 4:0 5:10.963095 6:4.31 
-10 0 1:3.3900885 2:-1.3864472 3:50.1 4:0 5:50.1 6:0 
-10 0 1:3.249561 2:-1.4052752 3:50.1 4:0 5:50.1 6:0 
-10 0 1:3.1039779 2:-1.4558315 3:102.0716 4:7.3 5:50.1 6:0 
-10 0 1:2.9444231 2:-1.5955476 3:102.8172 4:7.51 5:50.1 6:0 
-9.885995651559423 0 1:2.7818611 2:-1.6256201 3:103.7172 4:7.87 5:50.1 6:0 
-0.5489255248342865 0 1:1.7195967 2:-1.2053338 3:106.6826 4:1.88 5:50.1 6:0 
-10 10 1:0.25487707 2:-0.54584885 3:50.1 4:0 5:50.1 6:0 
-10 10 1:0.21026905 2:-0.44608016 3:50.1 4:0 5:50.1 6:0 
-10 10 1:0.17674654 2:-0.33522517 3:50.1 4:0 5:50.1 6:0 
-10 10 1:0.15960491 2:-0.17141624 3:50.1 4:0 5:50.1 6:0 
-10 10 1:0.1628645 2:0.03259589 3:50.1 4:0 5:50.1 6:0 
-10 10 1:0.17793272 2:0.15068215 3:50.1 4:0 5:50.1 6:0 
-10 10 1:0.13176725 2:-0.46165463 3:50.1 4:0 5:50.1 6:0 
-10 10 1:0.087699073 2:-0.44068181 3:50.1 4:0 5:50.1 6:0 
-10 10 1:0.056756287 2:-0.30942787 3:50.1 4:0 5:50.1 6:0 
-10 10 1:0.060229102 2:0.034728158 3:50.1 4:0 5:50.1 6:0 
-10 10 1:0.093390092 2:0.3316099 3:50.1 4:0 5:50.1 6:0 
-10 10 1:0.12952652 2:0.36136431 3:50.1 4:0 5:50.1 6:0 
-10 0 1:5.8150467 2:-0.46918777 3:59.71156 4:3.04 5:44.57344 6:-7.7 
-10 0 1:5.7588314 2:-0.56215299 3:60.14288 4:2.78 5:45.27512 6:-8.26 
-10 0 1:5.6949623 2:-0.63869066 3:60.58144 4:2.96 5:45.96556 6:-8.05 
-10 0 1:5.6235422 2:-0.71420105 3:60.99868 4:3.16 5:46.63732 6:-7.68 
-10 0 1:5.5406191 2:-0.82923078 3:61.3868 4:3.15 5:47.3102 6:-7.58 
-10 0 1:5.4493508 2:-0.9126832 3:61.76444 4:2.88 5:48.00556 6:-7.84 
-10 0 1:5.3519431 2:-0.97407681 3:62.12888 4:2.53 5:48.71812 6:-8.19 
-10 0 1:5.24268 2:-1.0926307 3:62.46552 4:2.44 5:49.44248 6:-8.34 
-10 0 1:5.1241435 2:-1.1853654 3:62.78532 4:2.73 5:50.18268 6:-8.34 
-10 0 1:4.991863 2:-1.3228052 3:63.13332 4:3.32 5:50.94168 6:-8.34 
-10 0 1:4.8515776 2:-1.4028537 3:63.55832 4:4.05 5:51.72068 6:-8.34 
-10 0 1:4.7071366 2:-1.44441 3:64.0562 4:4.63 5:52.5178 6:-8.34 
-10 0 1:4.5680242 2:-1.3911243 3:64.5986 4:4.85 5:53.3264 6:-8.34 
-10 0 1:4.4282877 2:-1.3973643 3:65.13892 4:4.59 5:54.13608 6:-8.37 
-10 0 1:4.2935655 2:-1.3472225 3:65.6138 4:4.01 5:54.9482 6:-8.39 
-10 0 1:4.1655984 2:-1.2796705 3:66.00612 4:3.54 5:55.76288 6:-8.23 
-10 0 1:4.0324211 2:-1.3317738 3:66.34352 4:3.39 5:56.55948 6:-7.76 
-10 0 1:3.8985258 2:-1.3389529 3:66.6804 4:3.66 5:57.2956 6:-7.08 
-10 0 1:3.7636512 2:-1.3487453 3:67.04836 4:4.06 5:57.97664 6:-6.46 
-10 0 1:3.6255241 2:-1.3812717 3:67.43072 4:4.3 5:58.63428 6:-6.05 
-10 0 1:3.4917289 2:-1.3379513 3:67.8282 4:4.37 5:59.2628 6:-5.9 
-10 0 1:3.3467061 2:-1.4502287 3:68.27888 4:4.45 5:59.82112 6:-5.94 
-10 0 1:3.2016425 2:-1.4506355 3:68.81096 4:4.78 5:60.30004 6:-6.07 
-10 0 1:3.0439014 2:-1.5774111 3:69.4458 4:5.5 5:60.7742 6:-6.08 
-10 0 1:2.8882651 2:-1.5563632 3:70.16448 4:6.48 5:61.29252 6:-5.62 
-0 2.875557174124733 1:-6.0769312 2:-0.8043504 3:99.85088 4:-6.51 5:82.49112 6:-11.51 
-0 10 1:-6.1452185 2:-0.68287217 3:99.5856 4:-5.71 5:83.2634 6:-10.74 
-0 10 1:-6.2079479 2:-0.62729459 3:99.3254 4:-4.49 5:84.0366 6:-9.42 
-0 10 1:-6.2653138 2:-0.57365871 3:99.07696 4:-2.98 5:84.78704 6:-7.61 
-0 10 1:-6.3227926 2:-0.57478807 3:98.8456 4:-1.54 5:85.4784 6:-5.64 
-0 10 1:-6.3791517 2:-0.56359062 3:98.644 4:-0.62 5:86.064 6:-4.01 
-0 10 1:-6.4301285 2:-0.5097684 3:98.4624 4:-0.41 5:86.5396 6:-3.1 
-0 0.03555918125090674 1:-5.1203217 2:-1.2210936 3:39.6966 4:1.59 5:85.3914 6:-1.2 
-0 10 1:-5.240027 2:-1.1970529 3:39.9164 4:2.89 5:85.5126 6:-1.2 
-0 10 1:-5.3568548 2:-1.1682777 3:40.306 4:3.47 5:85.644 6:-1.19 
-0 10 1:-5.4698954 2:-1.1304058 3:40.6102 4:3.71 5:85.7888 6:-1.19 
-0 10 1:-5.573619 2:-1.0372361 3:40.9306 4:4.31 5:85.9444 6:-1.2 
-0 10 1:-5.673569 2:-0.99950003 3:41.342 4:5.26 5:86.113 6:-1.1 
-0 10 1:-5.7678829 2:-0.94313885 3:41.8742 4:6.63 5:86.2968 6:-0.43 
-0 10 1:-5.8528787 2:-0.84995869 3:42.447 4:7.96 5:86.5 6:0.72 
-0 10 1:-5.9334249 2:-0.80546153 3:42.9306 4:8.67 5:86.7214 6:1.38 
-0 10 1:-6.0083122 2:-0.74887346 3:43.38 4:8.82 5:86.953 6:1.04 
-0 10 1:-6.0876213 2:-0.79309084 3:43.9462 4:8.39 5:87.1878 6:-0.26 
-0 10 1:-6.1656854 2:-0.78064041 3:44.649 4:7.69 5:87.473 6:-1.43 
-0 10 1:-6.2531624 2:-0.87477051 3:45.4662 4:7.1 5:87.6228 6:-1.45 
-0 10 1:-6.3462965 2:-0.93134109 3:46.2684 4:6.44 5:87.6176 6:-1.35 
-0 10 1:-6.4500887 2:-1.0379222 3:47.0456 4:5.88 5:87.4954 6:-1.85 
-0 10 1:-6.5591162 2:-1.0902744 3:47.8342 4:5.6 5:87.4838 6:-2.89 
-0 10 1:-6.6723707 2:-1.1325449 3:48.6124 4:5.48 5:87.6236 6:-4.05 
-0 10 1:-6.7876079 2:-1.1523728 3:49.3802 4:5.44 5:87.9068 6:-4.53 
-0 10 1:-6.8996483 2:-1.1204038 3:50.1196 4:5.33 5:88.1544 6:-4.69 
-0 10 1:-7.0095457 2:-1.098974 3:50.8354 4:5.35 5:88.4246 6:-4.95 
-0 10 1:-7.1176576 2:-1.081119 3:51.5532 4:6.07 5:88.7308 6:-4.83 
-0 10 1:-7.2190202 2:-1.0136255 3:52.3178 4:7.65 5:89.0822 6:-4.12 
-0 10 1:-7.3130032 2:-0.93983043 3:53.196 4:9.36 5:89.485 6:-2.89 
-0 10 1:-7.4023273 2:-0.89324069 3:54.0514 4:10.31 5:89.9276 6:-1.53 
-0 10 1:-7.4890003 2:-0.86673058 3:54.7272 4:10.53 5:90.3348 6:-1.22 
-0 10 1:-7.5746177 2:-0.85617386 3:55.2768 4:10.22 5:90.9512 6:-2.34 
-0 10 1:-7.6598325 2:-0.85214798 3:55.7868 4:9.65 5:91.7082 6:-3.67 
-0 10 1:-7.7451475 2:-0.85314936 3:56.347 4:8.75 5:92.653 6:-4.65 
-0 10 1:-7.8280651 2:-0.82917636 3:56.8786 4:7.11 5:93.4524 6:-5.12 
-0 10 1:-7.9142946 2:-0.86229539 3:57.296 4:5.13 5:94.153 6:-5.44 
-0 10 1:-7.9985612 2:-0.84266561 3:57.6834 4:3.35 5:94.6796 6:-6.55 
-0 10 1:-8.0854855 2:-0.86924328 3:58.063 4:1.87 5:95.276 6:-8.19 
-0 10 1:-8.1713584 2:-0.85872885 3:58.4312 4:0.86 5:95.8978 6:-9.7 
-0 10 1:-8.2593365 2:-0.87978068 3:58.7896 4:0.34 5:96.5984 6:-11.14 
-0 10 1:-8.3479792 2:-0.88642684 3:59.1406 4:0.6 5:97.4674 6:-12.18 
-0 10 1:-8.435765 2:-0.87785879 3:59.5396 4:1.03 5:98.4724 6:-12.62 
-0 10 1:-8.5207556 2:-0.84990524 3:59.7566 4:0.35 5:99.6274 6:-13.05 
-0 10 1:-8.6015675 2:-0.80811968 3:59.825 4:-1 5:100.915 6:-13.71 
-0 10 1:-8.6751855 2:-0.73617969 3:59.7116 4:-2.39 5:102.2624 6:-14.43 
-0 10 1:-8.7471577 2:-0.71972189 3:59.532 4:-3.3 5:103.57 6:-14.94 
-0 10 1:-8.8202539 2:-0.73096236 3:59.4748 4:-3.14 5:104.7902 6:-15.02 
-0 10 1:-8.8972533 2:-0.76999375 3:59.477 4:-2.92 5:106.003 6:-15.04 
-0 10 1:-8.9817092 2:-0.84455934 3:59.413 4:-2.98 5:107.275 6:-15.07 
-0 10 1:-9.0765547 2:-0.94845452 3:59.3486 4:-2.79 5:108.6054 6:-14.57 
-0 10 1:-9.1785813 2:-1.0202659 3:59.3014 4:-2.29 5:109.8036 6:-12.99 
-0 10 1:-9.2800815 2:-1.0150027 3:59.2646 4:-1.56 5:110.8214 6:-10.51 
-0 10 1:-9.3803943 2:-1.0031278 3:59.239 4:-0.61 5:111.658 6:-7.82 
-0 10 1:-9.4754451 2:-0.95050764 3:59.2308 4:0.77 5:112.3222 6:-5.18 
-0 10 1:-9.5632627 2:-0.87817592 3:59.2484 4:2.74 5:112.7966 6:-2.66 
-0 10 1:-9.6429381 2:-0.79675396 3:59.3416 4:4.17 5:113.2364 6:-0.93 
-0 10 1:-9.713359 2:-0.70420921 3:59.4184 4:4.26 5:113.6876 6:-0.34 
-0 10 1:-9.7772893 2:-0.63930292 3:59.4114 4:3.5 5:114.1116 6:-0.69 
-0 10 1:-9.8348437 2:-0.57554368 3:59.4202 4:2.48 5:114.4558 6:-1.6 
-0 10 1:-9.8893551 2:-0.54511444 3:59.5558 4:2.14 5:114.7042 6:-2.27 
-0 10 1:-9.9425216 2:-0.53166507 3:59.8626 4:2.55 5:114.8834 6:-2.51 
-0 10 1:-9.9948138 2:-0.52292182 3:60.2768 4:2.81 5:114.9872 6:-2.98 
-0 10 1:-10.046753 2:-0.51939292 3:60.681 4:3.19 5:115.166 6:-3.67 
-0 10 1:-10.099021 2:-0.52267741 3:61.129 4:3.91 5:115.501 6:-3.83 
-0 10 1:-10.145639 2:-0.46617747 3:61.6162 4:4.6 5:115.8988 6:-3.33 
-0 10 1:-10.189908 2:-0.442699 3:62.1272 4:4.98 5:116.2248 6:-2.37 
-0 10 1:-10.231387 2:-0.4147831 3:62.6278 4:5.1 5:116.3802 6:-1.38 
-0 10 1:-10.265852 2:-0.34465611 3:63.1186 4:5.44 5:116.4544 6:-0.65 
-0 10 1:-10.294424 2:-0.28571162 3:63.522 4:6.26 5:116.594 6:0.22 
-0 10 1:-10.327937 2:-0.33513837 3:50.1 4:0 5:113.69925 6:0.93 
-0 10 1:-10.352176 2:-0.24238734 3:50.1 4:0 5:110.80178 6:1.01 
-0 10 1:-10.365321 2:-0.13145317 3:50.1 4:0 5:107.892 6:0.32 
-0 10 1:-10.367323 2:-0.020011116 3:50.1 4:0 5:104.96724 6:-0.82 
-10 0 1:3.7473864 2:-1.8001387 3:82.69832 4:12.97 5:50.1 6:0 
-10 0 1:4.66206 2:-1.3557606 3:80.4942 4:2.82 5:52.9818 6:-6.57 
-10 0 1:4.5236233 2:-1.3843666 3:80.931 4:2.84 5:53.506 6:-6.86 
-10 0 1:4.3848989 2:-1.3872449 3:81.3526 4:3.27 5:54.0774 6:-6.64 
-10 0 1:4.2462598 2:-1.3863908 3:81.7542 4:3.53 5:54.6808 6:-6.49 
-10 0 1:4.1070235 2:-1.3923627 3:82.1374 4:3.55 5:55.3056 6:-6.49 
-10 0 1:3.9638401 2:-1.4318344 3:82.4986 4:3.61 5:55.9534 6:-6.36 
-10 0 1:3.8167203 2:-1.4711975 3:82.8612 4:3.68 5:56.6038 6:-6 
-10 0 1:3.6642847 2:-1.5243566 3:83.24 4:3.6 5:57.208 6:-5.35 
-10 0 1:3.4983195 2:-1.6596512 3:83.608 4:3.36 5:57.7 6:-4.56 
-7.115682979421844 0 1:3.321072 2:-1.7724749 3:83.9484 4:3.01 5:58.0736 6:-3.97 
-0 0.3931758351501249 1:-0.91724057 2:-0.96508357 3:91.2854 4:6.87 5:66.5946 6:6.53 
-0 10 1:-1.8334823 2:-0.49524971 3:88.6606 4:-4.42 5:68.3884 6:-2.28 
-0 10 1:-1.8702385 2:-0.36756234 3:88.4092 4:-4.38 5:68.3568 6:-0.47 
-0 10 1:-1.9115572 2:-0.41318669 3:88.0594 4:-4.03 5:68.2206 6:1.42 
-0 10 1:-1.965127 2:-0.53569773 3:87.6638 4:-3.05 5:67.9382 6:3.17 
-0 10 1:-2.0311558 2:-0.66028851 3:87.2954 4:-1.47 5:67.5896 6:4.47 
-0 10 1:-2.1093706 2:-0.78214807 3:87.0382 4:0.06 5:67.2638 6:4.93 
-0 10 1:-2.7566408 2:-0.69900656 3:86.8782 4:-0.33 5:66.5168 6:0.05 
-0 10 1:-2.8253851 2:-0.68744351 3:86.3998 4:-0.33 5:66.4862 6:0.06 
-0 10 1:-2.896619 2:-0.71233869 3:50.1 4:0 5:66.4554 6:0.06 
-0 10 1:-2.9682486 2:-0.71629657 3:50.1 4:0 5:66.4234 6:0.08 
-0 10 1:-3.0261901 2:-0.57941476 3:50.1 4:0 5:66.3586 6:-0.01 
-0 10 1:-3.078473 2:-0.52282835 3:50.1 4:0 5:66.3452 6:-0.26 
-0 10 1:-3.1126019 2:-0.34128963 3:50.1 4:0 5:63.193333 6:-0.45 
-0 10 1:-3.1435097 2:-0.30907762 3:50.1 4:0 5:60.104739 6:-0.49 
-0 10 1:-3.1729808 2:-0.29471078 3:50.1 4:0 5:56.991 6:-0.42 
-10 0 1:3.3524413 2:-0.97598722 3:50.1 4:0 5:4.9016 6:-5.45 
-10 0 1:3.2584873 2:-0.93954019 3:50.1 4:0 5:5.3118 6:-6.76 
-10 0 1:3.1535901 2:-1.0489726 3:50.1 4:0 5:5.7502 6:-7.59 
-10 0 1:3.0475201 2:-1.0606993 3:50.1 4:0 5:6.2112 6:-7.6 
-10 0 1:2.9322948 2:-1.1522533 3:50.1 4:0 5:6.6626 6:-6.86 
-10 0 1:2.7965808 2:-1.3571403 3:50.1 4:0 5:7.05 6:-5.63 
-10 0 1:2.6548669 2:-1.4171387 3:50.1 4:0 5:7.3218 6:-4.49 
-10 0 1:2.5073096 2:-1.4755729 3:50.1 4:0 5:7.5668 6:-3.95 
-10 0 1:2.3516328 2:-1.5567684 3:50.1 4:0 5:7.8912 6:-3.59 
-0 0.07189896121268846 1:-0.77181729 2:-0.79058841 3:50.1 4:0 5:17.7018 6:-3.51 
-0 10 1:-0.83834731 2:-0.66530024 3:50.1 4:0 5:18.1386 6:-3.03 
-10 0 1:2.225538 2:-0.79307652 3:20.952 4:-2.1 5:50.1 6:0 
-10 0 1:2.1456019 2:-0.79936113 3:20.8148 4:-2.35 5:50.1 6:0 
-10 0 1:2.0497582 2:-0.9584374 3:20.6382 4:-2.23 5:50.1 6:0 
-10 0 1:1.9403372 2:-1.0942102 3:20.458 4:-2.3 5:50.1 6:0 
-10 0 1:1.8255081 2:-1.1482905 3:20.2434 4:-2.83 5:50.1 6:0 
-10 0 1:1.7008971 2:-1.2461102 3:19.9498 4:-3.79 5:50.1 6:0 
-10 10 1:0.1511277 2:-0.44080465 3:14.5494 4:-2.21 5:50.1 6:0 
-10 10 1:-0.10707116 2:-0.039481797 3:14.2776 4:-1.41 5:50.1 6:0 
-0 10 1:-0.37897631 2:-0.64990181 3:13.9206 4:-2.7 5:50.1 6:0 
-10 10 1:-0.41646615 2:-0.37489844 3:13.5648 4:-3.99 5:50.1 6:0 
-10 10 1:-0.45500211 2:-0.38535955 3:13.0582 4:-4.91 5:50.1 6:0 
-10 10 1:-0.49640503 2:-0.41402918 3:12.4164 4:-5.09 5:50.1 6:0 
-10 0 1:2.4646184 2:-0.61029875 3:84.508 4:-5.55 5:62.568 6:-3.55 
-10 0 1:2.4046227 2:-0.59995724 3:84.2884 4:-4.22 5:62.5406 6:-2.9 
-10 0 1:2.3285411 2:-0.76081639 3:84.2546 4:-3.01 5:62.4714 6:-2.56 
-10 0 1:2.254881 2:-0.73660019 3:84.1778 4:-1.98 5:62.5092 6:-2.72 
-10 0 1:2.1694409 2:-0.85440112 3:84.1524 4:-0.82 5:62.6766 6:-3.15 
-10 0 1:2.0803128 2:-0.89128122 3:84.2012 4:0.28 5:62.9838 6:-3.27 
-10 0 1:1.9683385 2:-1.119743 3:84.336 4:1.49 5:63.28 6:-2.75 
-0 0.7536410651283267 1:-0.8811439 2:-0.96512304 3:69.2582 4:7.77 5:62.7108 6:2.06 
-0 10 1:-1.1125676 2:-0.49110334 3:50.1 4:0 5:62.3338 6:3.32 
-0 10 1:-2.4942424 2:-1.0510598 3:-7.6112 4:0.17 5:50.1 6:0 
-0 10 1:-2.5898516 2:-0.95609225 3:-7.8146 4:0.63 5:50.1 6:0 
-0 10 1:-2.6796962 2:-0.89844574 3:-7.9814 4:0.91 5:50.1 6:0 
-0 10 1:-2.7675747 2:-0.87878556 3:-8.1456 4:0.75 5:50.1 6:0 
-0 10 1:-2.8559284 2:-0.88353703 3:-8.3402 4:0.27 5:50.1 6:0 
-0 10 1:-2.9445718 2:-0.88643419 3:-8.6014 4:-0.49 5:50.1 6:0 
-0 10 1:-3.0314222 2:-0.86850364 3:-8.9052 4:-1.29 5:50.1 6:0 
-0 10 1:-3.1137718 2:-0.82349562 3:-9.1294 4:-1.86 5:50.1 6:0 
-0 10 1:-3.1914903 2:-0.77718483 3:-9.2038 4:-2.18 5:50.1 6:0 
-0 10 1:-3.2712188 2:-0.79728546 3:-9.1604 4:-2.76 5:50.1 6:0 
-0 10 1:-3.3544448 2:-0.83225972 3:-8.9852 4:-3.35 5:50.1 6:0 
-0 10 1:-3.4356627 2:-0.81217971 3:-8.9196 4:-3.02 5:50.1 6:0 
-0 10 1:-3.5031554 2:-0.67492653 3:-8.948 4:-1.92 5:50.1 6:0 
-0 10 1:-3.560587 2:-0.57431621 3:-8.998 4:-0.48 5:50.1 6:0 
-0 10 1:-3.613634 2:-0.53046933 3:-8.9914 4:0.49 5:50.1 6:0 
-0 10 1:-3.6557325 2:-0.42098513 3:-9.039 4:0.15 5:50.1 6:0 
-0 10 1:-3.7028444 2:-0.47111958 3:-9.2824 4:-0.88 5:50.1 6:0 
-0 10 1:-3.7393894 2:-0.36545015 3:-9.6472 4:-2.13 5:50.1 6:0 
-0 10 1:-3.7761909 2:-0.36801484 3:-10.0514 4:-3.67 5:50.1 6:0 
-0 10 1:-3.8141166 2:-0.37925629 3:-10.4906 4:-5.2 5:50.1 6:0 
-0 10 1:-3.8538602 2:-0.3974367 3:-11.0126 4:-6.38 5:50.1 6:0 
-0 10 1:-3.896986 2:-0.4312573 3:-11.6356 4:-6.98 5:50.1 6:0 
-0 10 1:-3.9440353 2:-0.47049353 3:-12.2676 4:-6.94 5:50.1 6:0 
-0 10 1:-3.9988711 2:-0.54835755 3:-12.7642 4:-6.57 5:50.1 6:0 
-0 10 1:-4.064776 2:-0.65904939 3:-13.2706 4:-6.26 5:50.1 6:0 
-0 10 1:-4.1414974 2:-0.76721375 3:-13.9488 4:-6.28 5:50.1 6:0 
-0 10 1:-4.2292968 2:-0.87799422 3:-14.7702 4:-6.59 5:50.1 6:0 
-0 10 1:-4.3297725 2:-1.0047571 3:24.764 4:-2.71 5:-14.893 6:-6.88 
-0 10 1:-5.5401571 2:-0.50529792 3:23.611417 4:-5.31 5:-12.966417 6:-7.6 
-0 10 1:-5.5964695 2:-0.56312497 3:-14.759478 4:-7.97 5:50.1 6:0 
-0 10 1:-5.6637119 2:-0.67242342 3:-12.148636 4:-7.98 5:50.1 6:0 
-0 10 1:-5.7412635 2:-0.77551591 3:-9.5681429 4:-7.55 5:50.1 6:0 
-0 10 1:-5.8200578 2:-0.78794277 3:-6.822 4:-6.98 5:50.1 6:0 
-0 10 1:-5.9029231 2:-0.82865347 3:-3.9265789 4:-6.65 5:-7.3694211 6:-7.22 
-0 10 1:-5.9916198 2:-0.88696694 3:-0.958 4:-7.36 5:-10.081 6:-8.32 
-0 10 1:-6.0816254 2:-0.9000562 3:1.8551765 4:-8.63 5:-12.763176 6:-8.7 
-0 10 1:-6.1788729 2:-0.97247528 3:4.52025 4:-9.27 5:50.1 6:0 
-0 10 1:-6.2846173 2:-1.0574435 3:7.1213333 4:-9.25 5:50.1 6:0 
-0 10 1:-6.3972061 2:-1.125888 3:9.785 4:-8.53 5:50.1 6:0 
-10 10 1:5.21245 2:-0.30254962 3:103.3266 4:12.14 5:50.1 6:0 
-10 10 1:5.1821845 2:-0.30265533 3:104.4506 4:13.09 5:50.1 6:0 
-10 10 1:5.1458138 2:-0.36370649 3:105.69476 4:13.75 5:50.1 6:0 
-10 10 1:5.1085344 2:-0.37279469 3:107.06672 4:13.62 5:50.1 6:0 
-10 0 1:5.0638075 2:-0.44726819 3:108.48476 4:13.02 5:50.1 6:0 
-10 0 1:5.0179083 2:-0.45899275 3:109.7982 4:12.47 5:50.1 6:0 
-10 8.382957361432336 1:4.9708138 2:-0.4709442 3:111.05108 4:12.11 5:50.1 6:0 
-10 0 1:4.9174198 2:-0.53394033 3:112.33588 4:12.31 5:50.1 6:0 
-10 0 1:4.8614541 2:-0.55965727 3:113.75152 4:12.94 5:50.1 6:0 
-10 0 1:4.802866 2:-0.58588071 3:115.22384 4:13.38 5:50.1 6:0 
-10 0 1:4.7403403 2:-0.62525726 3:116.64476 4:13.6 5:50.1 6:0 
-10 0 1:4.6747534 2:-0.65586878 3:118.04496 4:13.81 5:50.1 6:0 
-10 0 1:4.6046407 2:-0.7011274 3:119.42424 4:13.95 5:50.1 6:0 
-10 0 1:4.5305827 2:-0.74057941 3:120.79572 4:14.06 5:50.1 6:0 
-10 0 1:4.4538889 2:-0.76693869 3:122.18004 4:14.22 5:50.1 6:0 
-10 0 1:4.3783828 2:-0.75506039 3:123.58968 4:14.52 5:50.1 6:0 
-10 0 1:4.2998667 2:-0.78516079 3:125.01124 4:14.96 5:50.1 6:0 
-10 0 1:4.2211501 2:-0.78716673 3:126.4404 4:15.54 5:50.1 6:0 
-10 0 1:4.1441418 2:-0.77008297 3:127.88448 4:16.08 5:50.1 6:0 
-10 0 1:4.0632215 2:-0.80920284 3:129.35728 4:16.37 5:50.1 6:0 
-10 0 1:3.9860234 2:-0.77198079 3:130.86576 4:16.16 5:50.1 6:0 
-10 0 1:3.9054464 2:-0.80577031 3:132.38464 4:15.42 5:50.1 6:0 
-10 0 1:3.8257156 2:-0.79730735 3:133.88384 4:14.23 5:50.1 6:0 
-10 0 1:3.7487989 2:-0.76916712 3:135.30624 4:12.76 5:50.1 6:0 
-10 0 1:3.6658581 2:-0.82940871 3:136.60412 4:11.4 5:50.1 6:0 
-10 0 1:3.5848087 2:-0.8104932 3:137.78484 4:10.47 5:50.1 6:0 
-10 0 1:3.5049427 2:-0.79866014 3:138.90692 4:10.03 5:50.1 6:0 
-10 0 1:3.4247642 2:-0.80178537 3:140.0298 4:9.87 5:50.1 6:0 
-10 0 1:3.3386505 2:-0.86113693 3:141.14988 4:9.61 5:50.1 6:0 
-10 0 1:3.2496193 2:-0.89031188 3:142.21844 4:9.08 5:50.1 6:0 
-10 0 1:3.1586743 2:-0.90944986 3:143.19524 4:8.33 5:50.1 6:0 
-10 0 1:3.0654051 2:-0.93269245 3:144.08152 4:7.3 5:50.1 6:0 
-10 0 1:2.9694993 2:-0.9590582 3:144.79732 4:6 5:50.1 6:0 
-10 0 1:2.8704998 2:-0.98999426 3:145.38268 4:4.92 5:50.1 6:0 
-10 0 1:2.7692153 2:-1.0128457 3:145.80688 4:4.37 5:50.1 6:0 
-10 0 1:2.6661984 2:-1.0301684 3:146.21584 4:4.41 5:50.1 6:0 
-10 0 1:2.561628 2:-1.0457043 3:146.70224 4:5.04 5:50.1 6:0 
-10 0 1:2.4516407 2:-1.0998729 3:147.24016 4:5.84 5:50.1 6:0 
-10 0 1:2.3387574 2:-1.1288328 3:147.76228 4:6.29 5:50.1 6:0 
-5.943743568956744 0 1:2.2241357 2:-1.1462169 3:148.28228 4:6.29 5:50.1 6:0 
-0.2986098506658549 0 1:1.8701197 2:-1.2049914 3:149.84344 4:5.03 5:50.1 6:0 
-0 10 1:-7.6366168 2:-1.0469702 3:149.64844 4:-5.01 5:50.1 6:0 
-0 10 1:-2.6773611 2:-0.95664414 3:15.26564 4:-1.14 5:50.1 6:0 
-0 10 1:-2.7607887 2:-0.83427654 3:15.20472 4:-0.94 5:50.1 6:0 
-0 10 1:-2.8327366 2:-0.71947845 3:15.15316 4:-0.83 5:50.1 6:0 
-0 10 1:-2.8959792 2:-0.63242574 3:15.1096 4:-0.76 5:50.1 6:0 
-0 10 1:-2.9506194 2:-0.54640261 3:15.07092 4:-0.59 5:50.1 6:0 
-10 0 1:6.4749231 2:-1.1748114 3:114.4276 4:6.36 5:40.8744 6:-3.59 
-10 0 1:6.344137 2:-1.3078612 3:115.0788 4:6.3 5:41.1912 6:-3.44 
-10 0 1:6.2018546 2:-1.4228237 3:115.725 4:6.61 5:41.503 6:-3.08 
-10 0 1:6.0545674 2:-1.472872 3:116.3702 4:7.05 5:41.8288 6:-2.63 
-10 0 1:5.9030835 2:-1.5148389 3:116.9968 4:7.15 5:42.1812 6:-2.43 
-10 0 1:5.7458958 2:-1.5718776 3:117.5762 4:6.82 5:42.5658 6:-2.52 
-10 0 1:5.5854217 2:-1.6047411 3:118.0802 4:6.16 5:42.9798 6:-2.81 
-10 0 1:5.4194061 2:-1.660156 3:118.5118 4:5.24 5:43.4182 6:-3.4 
-10 0 1:5.2462955 2:-1.7311053 3:118.899 4:4.19 5:43.873 6:-4.22 
-10 0 1:5.0615762 2:-1.8471931 3:119.2522 4:3.3 5:44.3398 6:-5.04 
-10 0 1:4.8732965 2:-1.8827975 3:119.5914 4:2.85 5:44.8246 6:-5.57 
-10 0 1:4.6831581 2:-1.9013835 3:119.9404 4:2.95 5:45.3146 6:-5.74 
-10 0 1:4.4889234 2:-1.9423467 3:120.3296 4:3.63 5:45.7984 6:-5.53 
-10 0 1:4.293796 2:-1.9512748 3:120.782 4:4.61 5:46.287 6:-5.1 
-10 0 1:4.0986802 2:-1.9511582 3:121.2798 4:5.18 5:46.7992 6:-5 
-10 0 1:3.9056744 2:-1.9300576 3:121.7836 4:5 5:47.3534 6:-5.47 
-10 0 1:3.7134292 2:-1.9224523 3:122.2616 4:4.19 5:47.9424 6:-6.37 
-0 10 1:-1.5731997 2:-0.640562 3:126.935 4:0.71 5:68.77 6:-6.35 
-0 10 1:-1.6323269 2:-0.59127214 3:126.9068 4:1.24 5:69.5002 6:-5.97 
-0 10 1:-1.685711 2:-0.53384148 3:126.9846 4:1.84 5:70.1674 6:-5.53 
-0 10 1:-1.7352813 2:-0.49570307 3:127.2168 4:1.68 5:70.7072 6:-5.46 
-0 10 1:-1.7849225 2:-0.49641175 3:127.5052 4:0.69 5:71.1048 6:-6.07 
-0 10 1:-1.8361734 2:-0.51250923 3:127.8612 4:-0.6 5:71.3918 6:-7.24 
-0 10 1:-1.8891645 2:-0.52991026 3:128.0228 4:-1.52 5:71.6692 6:-8.26 
-0 10 1:-1.9386493 2:-0.49484785 3:128.829 4:-1.12 5:71.986 6:-8.46 
-0 10 1:-1.9823517 2:-0.43702441 3:128.6434 4:0.48 5:72.3926 6:-7.86 
-0 10 1:-2.0225928 2:-0.40241067 3:50.1 4:0 5:72.9246 6:-6.98 
-0 10 1:-2.0599756 2:-0.37382827 3:50.1 4:0 5:73.5642 6:-6.34 
-0 10 1:-2.0948242 2:-0.34848599 3:50.1 4:0 5:74.3402 6:-6.07 
-0 10 1:-2.1276621 2:-0.32837905 3:50.1 4:0 5:75.1456 6:-5.85 
-0 10 1:-2.1469997 2:-0.1933761 3:50.1 4:0 5:75.888 6:-5.43 
-0 10 1:-2.1646568 2:-0.17657054 3:50.1 4:0 5:76.5438 6:-4.94 
-0 10 1:-2.1812959 2:-0.16639108 3:50.1 4:0 5:77.1408 6:-4.63 
-0 10 1:-2.1942927 2:-0.12996822 3:50.1 4:0 5:77.7176 6:-4.53 
-0 10 1:-2.1948675 2:-0.0057479227 3:50.1 4:0 5:78.292 6:-4.47 
-0 10 1:-2.2024761 2:-0.07608632 3:50.1 4:0 5:78.851 6:-4.35 
-0 10 1:-2.208953 2:-0.064768835 3:50.1 4:0 5:79.3806 6:-4.24 
-0 10 1:-2.2251836 2:-0.16230621 3:50.1 4:0 5:76.870583 6:-4.33 
-0 10 1:-2.2412129 2:-0.16029301 3:50.1 4:0 5:74.359739 6:-4.61 
-0 10 1:-2.2638601 2:-0.2264717 3:50.1 4:0 5:71.870182 6:-4.8 
-10 0 1:3.5603483 2:-1.052217 3:44.37764 4:-2.53 5:115.73336 6:-7.53 
-10 0 1:3.4548015 2:-1.0554679 3:44.3204 4:-2.53 5:116.2946 6:-7.54 
-10 0 1:3.3424272 2:-1.1237431 3:44.2628 4:-2.35 5:116.8522 6:-7.35 
-10 0 1:3.2200819 2:-1.2234532 3:44.20276 4:-1.96 5:117.41324 6:-6.96 
-0.0499324271804814 0 1:3.0884266 2:-1.3165535 3:44.13548 4:-1.4 5:117.97952 6:-6.4 
-0 2.216096305158584 1:-2.0814262 2:-1.0807338 3:49.56952 4:3.86 5:134.87048 6:-5.31 
-0 10 1:-2.2792166 2:-0.96792686 3:50.37964 4:3.31 5:135.74136 6:-4.51 
-0 10 1:-2.3736553 2:-0.94438644 3:50.7782 4:3.23 5:136.0748 6:-4.23 
-0 10 1:-2.4677416 2:-0.94086371 3:51.16992 4:3.2 5:136.40808 6:-4.13 
-0 10 1:-2.5644127 2:-0.96671098 3:51.55224 4:3.15 5:136.76176 6:-4.1 
-0 10 1:-2.6626528 2:-0.98240043 3:51.92576 4:3.09 5:137.10724 6:-4.09 
-0 10 1:-2.7612889 2:-0.98636113 3:52.29236 4:3.05 5:137.43364 6:-4.24 
-0 10 1:-2.8597275 2:-0.98438642 3:52.65456 4:3.05 5:137.78044 6:-4.72 
-0 10 1:-2.9564866 2:-0.96759054 3:53.01164 4:3.11 5:138.21836 6:-5.47 
-0 10 1:-3.0495032 2:-0.93016644 3:53.37344 4:3.18 5:138.77056 6:-6.26 
-0 10 1:-3.1365223 2:-0.87019011 3:53.74652 4:3.08 5:139.41548 6:-6.9 
-0 10 1:-3.2212034 2:-0.84681132 3:54.10984 4:2.65 5:140.11216 6:-7.29 
-0 10 1:-3.3033766 2:-0.82173256 3:54.41716 4:1.81 5:140.82684 6:-7.4 
-0 10 1:-3.3814387 2:-0.78062053 3:54.59248 4:0.67 5:141.53052 6:-7.32 
-0 10 1:-3.4538803 2:-0.72441569 3:54.65912 4:-0.47 5:142.19788 6:-7.12 
-0 10 1:-3.5207402 2:-0.66859945 3:54.59452 4:-1.27 5:142.82648 6:-6.9 
-0 10 1:-3.5822152 2:-0.61474947 3:54.47596 4:-1.54 5:143.43404 6:-6.64 
-0 10 1:-3.6374726 2:-0.55257403 3:54.35076 4:-1.37 5:144.03824 6:-6.33 
-0 10 1:-3.684804 2:-0.4733147 3:54.24144 4:-0.93 5:144.64256 6:-5.91 
-0 10 1:-3.7235572 2:-0.38753166 3:54.1426 4:-0.49 5:145.2434 6:-5.49 
-0 10 1:-3.7534934 2:-0.29936252 3:54.0458 4:-0.18 5:145.8402 6:-5.18 
-10 0 1:8.0281504 2:-1.8340373 3:49.6866 4:-4.52 5:50.1 6:0 
-10 0 1:7.8243148 2:-2.0383559 3:49.36588 4:-4.81 5:50.1 6:0 
-10 0 1:7.6013197 2:-2.2299511 3:49.02172 4:-5 5:50.1 6:0 
-10 0 1:7.3590899 2:-2.4222981 3:48.65396 4:-5.09 5:50.1 6:0 
-10 0 1:7.0976492 2:-2.6144071 3:48.26596 4:-5.11 5:50.1 6:0 
-10 0 1:6.816601 2:-2.8104826 3:47.86392 4:-5.15 5:50.1 6:0 
-10 0 1:6.515566 2:-3.0103495 3:47.43008 4:-5.27 5:50.1 6:0 
-0 5.380364803841673 1:-3.0175993 2:-0.48994407 3:18.25828 4:-19.21 5:50.1 6:0 
-0 10 1:-3.060046 2:-0.42446684 3:16.24832 4:-19.76 5:50.1 6:0 
-0 10 1:-3.100062 2:-0.40015937 3:14.12872 4:-20.25 5:50.1 6:0 
-0 10 1:-3.1378259 2:-0.37763903 3:11.95284 4:-20.89 5:50.1 6:0 
-0 10 1:-3.177894 2:-0.40068146 3:9.71516 4:-21.57 5:50.1 6:0 
-0 10 1:-3.2203781 2:-0.42484129 3:7.442 4:-22.01 5:50.1 6:0 
-0 7.686284411479989 1:-4.1409039 2:-0.84972037 3:-1.44408 4:-9.36 5:-10.40092 6:-17.66 
-0 4.096249493640992 1:-4.2258381 2:-0.84934266 3:-2.59932 4:-10 5:-8.44568 6:-17.28 
-0 10 1:-4.4736602 2:-0.77798925 3:-6.4726 4:-12.94 5:-2.9334 6:-17.27 
-0 5.697610435960752 1:-4.5509581 2:-0.77297876 3:-7.78252 4:-13.49 5:-1.22348 6:-17.28 
-0 10 1:-4.8654474 2:-0.78117943 3:-12.86772 4:-15.17 5:4.85672 6:-16.09 
-0 10 1:-4.9454003 2:-0.79952952 3:-14.16016 4:-14.79 5:6.19016 6:-15.17 
-0 10 1:-5.0239657 2:-0.78565357 3:5.75248 4:-4.43 5:-13.06748 6:-13.93 
-0 10 1:-5.1006548 2:-0.76689081 3:5.48952 4:-3.11 5:-11.84152 6:-12.72 
-0 10 1:-5.1695449 2:-0.68890065 3:5.29912 4:-1.94 5:-10.67412 6:-11.48 
-0 10 1:-5.2334607 2:-0.63915811 3:5.16984 4:-1.42 5:-9.56184 6:-10.45 
-10 0 1:1.7772442 2:-1.3977409 3:8.4132 4:-13.91 5:24.6198 6:-16 
-0 10 1:-4.8426752 2:-0.94638831 3:82.3602 4:8.63 5:13.5088 6:-22.61 
-0 10 1:-4.9187768 2:-0.76101587 3:83.1562 4:7.51 5:15.8858 6:-22.92 
-0 10 1:-4.978858 2:-0.60081236 3:83.8246 4:6.14 5:18.1624 6:-23.2 
-0 10 1:-5.0293123 2:-0.50454287 3:84.4712 4:5.9 5:20.3348 6:-23.03 
-0 10 1:-5.0689623 2:-0.39649972 3:85.208 4:6.93 5:22.451 6:-22.37 
-0 10 1:-5.0970363 2:-0.28073997 3:86.0572 4:7.3 5:24.4908 6:-22.07 
-0 10 1:-5.1171766 2:-0.20140262 3:87.1052 4:7.57 5:26.5978 6:-22.48 
-0 10 1:-5.126497 2:-0.093204232 3:88.1536 4:7.7 5:128.6984 6:-19.32 
-0 10 1:-5.1326946 2:-0.061975746 3:50.1 4:0 5:130.6146 6:-20.23 
-0 10 1:-5.1214409 2:0.11253666 3:50.1 4:0 5:132.6402 6:-21.14 
-0 10 1:-5.1383392 2:-0.16898311 3:50.1 4:0 5:131.32708 6:-21.64 
-0 10 1:-5.1552715 2:-0.16932299 3:50.1 4:0 5:130.08235 6:-22.1 
-0 10 1:-5.1710931 2:-0.15821641 3:50.1 4:0 5:128.95727 6:-22.87 
-0 10 1:-5.1851455 2:-0.14052372 3:50.1 4:0 5:127.96286 6:-23.65 
-0 10 1:-5.1845311 2:0.0061438901 3:50.1 4:0 5:126.958 6:-23.88 
-0 10 1:-5.1791162 2:0.054149562 3:50.1 4:0 5:24.834947 6:-20.08 
-0 10 1:-5.1735445 2:0.055716815 3:50.1 4:0 5:23.317 6:-20 
-0 10 1:-5.1621466 2:0.11397918 3:50.1 4:0 5:21.800941 6:-20.04 
-0 10 1:-5.1515052 2:0.10641394 3:50.1 4:0 5:20.285625 6:-20.08 
-0 10 1:-5.13297 2:0.18535166 3:50.1 4:0 5:18.765333 6:-20.08 
-0 10 1:-5.1056063 2:0.27363726 3:50.1 4:0 5:17.243857 6:-20.08 
-0 10 1:-5.0815741 2:0.24032168 3:50.1 4:0 5:15.717923 6:-20.08 
-10 10 1:3.9195205 2:-0.85960041 3:673.45772 4:25.17 5:50.1 6:0 
-10 10 1:3.8263801 2:-0.93140442 3:675.81788 4:24.23 5:50.1 6:0 
-10 10 1:3.7223325 2:-1.0404757 3:678.1504 4:23.44 5:50.1 6:0 
-0 10 1:3.6036898 2:-1.1864277 3:680.41028 4:23.18 5:50.1 6:0 
-1.30932554302755e-005 10 1:3.4728431 2:-1.3084671 3:682.63556 4:23.55 5:50.1 6:0 
-0 10 1:3.3293419 2:-1.4350117 3:684.87568 4:24.1 5:50.1 6:0 
-0 10 1:3.1749779 2:-1.5436399 3:687.12364 4:24.43 5:50.1 6:0 
-0 10 1:3.0094766 2:-1.6550135 3:689.38604 4:24.22 5:50.1 6:0 
-0 2.983501140003865 1:2.4383715 2:-2.0361636 3:696.13456 4:20.59 5:50.1 6:0 
-0 10 1:-6.7408379 2:-1.3682752 3:61.5234 4:7.27 5:50.1 6:0 
-0 10 1:-6.8670894 2:-1.2625155 3:62.1796 4:7.75 5:50.1 6:0 
-0 10 1:-6.9812994 2:-1.1420995 3:62.8686 4:8.25 5:50.1 6:0 
-0 10 1:-7.0844307 2:-1.0313135 3:63.6112 4:8.76 5:50.1 6:0 
-0 10 1:-7.1772442 2:-0.9281344 3:64.4002 4:9.06 5:50.1 6:0 
-0 10 1:-7.2617098 2:-0.84465693 3:65.213 4:9.01 5:50.1 6:0 
-0 10 1:-7.3392592 2:-0.77549326 3:66.0256 4:8.57 5:50.1 6:0 
-0 10 1:-7.4084912 2:-0.69232 3:66.824 4:7.86 5:50.1 6:0 
-0 10 1:-7.4681991 2:-0.59707875 3:67.6102 4:7.15 5:50.1 6:0 
-0 10 1:-7.5200824 2:-0.51883383 3:68.3868 4:6.66 5:50.1 6:0 
-0 10 1:-7.5627319 2:-0.42649509 3:69.1502 4:6.43 5:50.1 6:0 
-0 10 1:-7.5949069 2:-0.32174912 3:69.8932 4:6.41 5:50.1 6:0 
-0 10 1:-7.6231623 2:-0.28255408 3:70.6102 4:6.44 5:50.1 6:0 
-0 -10 1:-4.8770902 2:-0.36180226 3:9.908 4:-4.61 5:50.1 6:0 
-0 -10 1:-4.9187412 2:-0.4165094 3:9.595 4:-3.34 5:50.1 6:0 
-0 -9.504849957814587 1:-3.5111123 2:-0.19037097 3:18.403 4:-4.26 5:50.1 6:0 
-0 -10 1:-3.5509792 2:-0.20513119 3:24.759462 4:-2.88 5:50.1 6:0 
-0 -10 1:-3.6034151 2:-0.60045047 3:59.8636 4:-1.12 5:50.1 6:0 
-0 -10 1:-3.654271 2:-0.50855955 3:59.5578 4:-0.74 5:50.1 6:0 
-0 -10 1:-3.7026075 2:-0.4833648 3:59.2376 4:-0.54 5:50.1 6:0 
-0 -10 1:-3.7485405 2:-0.45932963 3:58.9214 4:-0.34 5:50.1 6:0 
-0 -10 1:-3.7828317 2:-0.34291196 3:58.6428 4:0.04 5:50.1 6:0 
-0 -10 1:-3.8142879 2:-0.31456189 3:58.4502 4:0.46 5:50.1 6:0 
-0 -10 1:-3.841589 2:-0.27301112 3:58.328 4:0.51 5:50.1 6:0 
-0 -10 1:-3.9353066 2:-0.26512275 3:60.0198 4:0.9 5:50.1 6:0 
-0 -10 1:-3.9626492 2:-0.27342607 3:59.9958 4:0.91 5:50.1 6:0 
-0 -10 1:-4.0150047 2:-0.26818836 3:59.9624 4:1.56 5:50.1 6:0 
-0 -10 1:-4.0428906 2:-0.27885882 3:60.0136 4:1.76 5:50.1 6:0 
-0 -10 1:-4.1189015 2:-0.27285613 3:60.3632 4:1.04 5:50.1 6:0 
-0 -10 1:-4.1660917 2:-0.25045213 3:60.8048 4:0.7 5:50.1 6:0 
-0 -10 1:-4.2207853 2:-0.29387282 3:61.376 4:2.2 5:50.1 6:0 
-0 -8.17470276104279 1:-4.4823589 2:-0.24368968 3:63.8408 4:-0.76 5:50.1 6:0 
-0 -10 1:-4.5034027 2:-0.21043772 3:63.8832 4:-0.24 5:50.1 6:0 
-0 -10 1:-5.076463 2:-1.0178064 3:182.93312 4:-6.62 5:49.55988 6:-10.13 
-0 -10 1:-5.1560796 2:-0.79616608 3:182.11444 4:-7.68 5:50.68256 6:-10.55 
-0 -10 1:-5.2194821 2:-0.63402521 3:181.28304 4:-8.65 5:51.74696 6:-11.14 
-0 -10 1:-5.2657483 2:-0.46266242 3:180.44008 4:-9.2 5:52.79692 6:-11.73 
-0 -10 1:-5.2903215 2:-0.24573161 3:179.5998 4:-9.27 5:53.8682 6:-12.34 
-0 -10 1:-2.9886274 2:-0.073232686 3:54.631 4:-0.04 5:90.713 6:-14.49 
-0 -10 1:-3.0041695 2:-0.15542106 3:54.678 4:0.21 5:92.128 6:-14.31 
-0 -10 1:-3.0213341 2:-0.17164621 3:54.7164 4:0.63 5:93.5406 6:-13.87 
-0 -10 1:-3.0333768 2:-0.12042701 3:54.7482 4:1.01 5:94.9558 6:-13.49 
-0 -10 1:-3.0451047 2:-0.11727881 3:54.7782 4:1.2 5:96.3738 6:-13.35 
-0 -10 1:-3.0554167 2:-0.10312022 3:54.807 4:1.19 5:97.799 6:-13.44 
-0 -10 1:-3.0646706 2:-0.092538614 3:54.8342 4:1.07 5:99.2368 6:-13.7 
-0 -10 1:-3.0715572 2:-0.068866497 3:54.8602 4:1 5:100.6988 6:-13.91 
-0 -4.662445137277537 1:-3.0714549 2:0.0010227436 3:54.8864 4:0.98 5:102.1866 6:-13.93 
-0 -10 1:-2.988505 2:-0.086035947 3:54.3898 4:-1.65 5:116.3292 6:-8.24 
-0 -10 1:-2.9997317 2:-0.11226704 3:54.2162 4:-2.49 5:117.1678 6:-9.42 
-0 -10 1:-3.0079878 2:-0.082560516 3:54.0112 4:-2.89 5:118.0798 6:-10.27 
-0 -10 1:-3.0278604 2:-0.081375645 3:53.8946 4:0.77 5:129.1674 6:-11.77 
-0 -10 1:-3.0524443 2:-0.11476817 3:54.4934 4:0.14 5:133.7946 6:-12.12 
-0 -10 1:-3.1968703 2:-0.27588764 3:56.6708 4:2.81 5:152.3572 6:-10.45 
-0 -10 1:-3.2636308 2:-0.36546912 3:57.2018 4:0.54 5:154.4502 6:-11.41 
-0 -10 1:-3.3061527 2:-0.42521848 3:57.2892 4:-0.58 5:155.4778 6:-11.87 
-0 -10 1:-3.3474181 2:-0.41265399 3:57.3134 4:-0.72 5:156.5006 6:-11.88 
-0 -3.83362392159505 1:-3.3856767 2:-0.38258591 3:57.3724 4:0.15 5:157.5266 6:-11.41 
-0 -10 1:-3.4241956 2:-0.38518918 3:57.5642 4:1.45 5:158.5548 6:-10.78 
-0 -0.1464752543803663 1:-3.5785086 2:-0.39194745 3:58.5544 4:2.02 5:162.6106 6:-10.77 
-0 -10 1:-1.6294102 2:-0.33063442 3:50.1 4:0 5:188.3765 6:-5.71 
-0 -10 1:-1.7312624 2:-0.22363076 3:50.1 4:0 5:79.706875 6:-3.76 
-0 -10 1:-1.7521326 2:-0.20870197 3:50.1 4:0 5:76.691333 6:-3.63 
-0 -10 1:-1.7711802 2:-0.19047598 3:50.1 4:0 5:73.599286 6:-3.11 
-0 -10 1:-1.7877903 2:-0.16610094 3:50.1 4:0 5:70.435077 6:-2.64 
-0 -10 1:-4.8515198 2:-0.89361496 3:52.5332 4:-2.71 5:50.1 6:0 
-0 -10 1:-4.9372325 2:-0.85712703 3:52.3344 4:-2.1 5:50.1 6:0 
-0 -10 1:-5.0251266 2:-0.87894114 3:52.1974 4:-1.71 5:50.1 6:0 
-0 -10 1:-5.1026518 2:-0.77525177 3:52.086 4:-1.47 5:50.1 6:0 
-0 -10 1:-5.176775 2:-0.74123284 3:51.9856 4:-1.42 5:50.1 6:0 
-0 -10 1:-5.2353947 2:-0.58619689 3:51.8778 4:-1.43 5:50.1 6:0 
-0 -10 1:-5.2872736 2:-0.51878848 3:51.7752 4:-1.43 5:50.1 6:0 
-0 -10 1:-4.7923841 2:-0.3011953 3:47.0822 4:-3.48 5:50.1 6:0 
-0 -10 1:-4.8352969 2:-0.42912794 3:46.7222 4:-5.09 5:50.1 6:0 
-0 -10 1:-4.8761052 2:-0.40808215 3:46.2782 4:-5.65 5:50.1 6:0 
-0 -10 1:-4.9223999 2:-0.46294722 3:45.8332 4:-5.07 5:50.1 6:0 
-0 -10 1:-4.9625938 2:-0.40193962 3:45.4674 4:-4.11 5:50.1 6:0 
-0 -10 1:-5.0045989 2:-0.42005098 3:45.1792 4:-3.35 5:50.1 6:0 
-0 -10 1:-5.0467693 2:-0.42170353 3:44.9286 4:-2.77 5:50.1 6:0 
-0 -10 1:-5.0845183 2:-0.37748994 3:44.785 4:-2.1 5:50.1 6:0 
-0 -5.655973776981226 1:-5.1223599 2:-0.37841604 3:44.7374 4:-1.29 5:50.1 6:0 
-0 -10 1:-0.37301965 2:-0.10224057 3:50.985455 4:1.11 5:50.1 6:0 
-0 -10 1:-0.36669705 2:0.063226008 3:54.288143 4:-0.21 5:50.1 6:0 
-0 -10 1:-0.35628547 2:0.10411581 3:57.517 4:-1.54 5:50.1 6:0 
-0 -10 1:-0.37261135 2:-0.16325878 3:60.775526 4:-1.66 5:50.1 6:0 
-0 -10 1:-0.4049117 2:-0.32300351 3:63.406111 4:-1.68 5:50.1 6:0 
-0 -10 1:-0.36781531 2:0.013102898 3:50.1 4:0 5:50.1 6:0 
-0 -10 1:-0.38009261 2:-0.12277303 3:50.1 4:0 5:50.1 6:0 
-0 -10 1:-0.38003657 2:0.00056039604 3:50.1 4:0 5:50.1 6:0 
-0 -10 1:-6.3280165 2:-0.6634872 3:43.0486 4:-10.07 5:50.1 6:0 
-0 -10 1:-6.386786 2:-0.58769446 3:42.0026 4:-10.02 5:50.1 6:0 
-0 -10 1:-6.4467868 2:-0.60000818 3:40.9514 4:-10.02 5:50.1 6:0 
-0 -10 1:-6.5060228 2:-0.59236014 3:39.8876 4:-9.9 5:50.1 6:0 
-0 -10 1:-6.5577638 2:-0.51740985 3:38.8366 4:-9.47 5:50.1 6:0 
-0 -10 1:-6.6035728 2:-0.45809006 3:37.8538 4:-8.63 5:50.1 6:0 
-0 -1.189815773459014 1:-6.6417043 2:-0.3813153 3:37.021 4:-7.49 5:50.1 6:0 
-0 -8.476502620298239 1:-5.6622182 2:-0.39919004 3:37.2906 4:-4.22 5:50.1 6:0 
-0 -10 1:-5.705201 2:-0.42982777 3:37.0416 4:-4.22 5:50.1 6:0 
-0 -9.97453953402656 1:-2.2418683 2:-0.11329937 3:50.1 4:0 5:50.1 6:0 
-0 -10 1:-3.3439028 2:-0.67102485 3:250.5304 4:-4.92 5:43.1486 6:-4.92 
-0 -10 1:-3.3992372 2:-0.55334408 3:250.1224 4:-5 5:43.5586 6:-4.98 
-0 -10 1:-3.4523851 2:-0.5314792 3:249.726 4:-5.01 5:43.946 6:-5 
-0 -10 1:-3.4919947 2:-0.39609659 3:249.34 4:-5.01 5:44.308 6:-5.26 
-0 -10 1:-3.5286694 2:-0.36674673 3:248.9668 4:-5.03 5:44.6902 6:-5.99 
-0 -0.17495228339252 1:-3.55912 2:-0.30450536 3:248.612 4:-4.97 5:45.191 6:-7.05 
-0 -10 1:-3.5831519 2:-0.24031937 3:248.2788 4:-4.72 5:45.7882 6:-8.02 
-0 -0.06261186165264325 1:-3.7387856 2:-0.37913213 3:247.2678 4:4.78 5:55.0162 6:-4.49 
-0 -0.002899108396605626 1:-3.7807262 2:-0.41940607 3:247.599 4:4.85 5:55.666 6:-4.6 
-0 -0.03387992685353078 1:-3.8656819 2:-0.42148479 3:248.1368 4:4.57 5:56.9952 6:-4.5 
-0 -0.001945478810900802 1:-3.9083652 2:-0.4268331 3:248.3406 4:3.93 5:57.6674 6:-5.11 
-0 -10 1:-3.9961351 2:-0.44256911 3:248.7372 4:1.76 5:59.0988 6:-8.09 
-0 -10 1:-4.0800002 2:-0.41036347 3:249.0952 4:-0.72 5:60.8518 6:-12.12 
-0 -10 1:-4.1243129 2:-0.44312725 3:249.252 4:-1.55 5:61.891 6:-13.59 
-0 -10 1:-4.1693378 2:-0.45024902 3:249.3864 4:-1.86 5:63.0096 6:-14.27 
-0 -10 1:-4.2075668 2:-0.3822895 3:249.4958 4:-1.7 5:64.1662 6:-14.21 
-0 -0.00181232466551836 1:-4.2491135 2:-0.41546706 3:249.587 4:-1.31 5:65.332 6:-13.73 
-0 -9.93865387435852 1:-4.3315739 2:-0.42782736 3:249.6398 4:-0.47 5:67.7242 6:-12.72 
-0 -10 1:-4.3684596 2:-0.3688565 3:249.6422 4:0.19 5:68.9338 6:-12.21 
-0 -10 1:-3.7100088 2:-0.32774693 3:38.8768 4:3.35 5:132.5952 6:-12.25 
-0 -10 1:-3.7539567 2:-0.43947941 3:39.2828 4:2.16 5:133.7402 6:-12.52 
-0 -10 1:-3.7988161 2:-0.44859386 3:39.5758 4:0.77 5:134.8812 6:-12.63 
-0 -10 1:-3.840917 2:-0.42100935 3:39.735 4:-0.35 5:135.981 6:-12.54 
-0 -10 1:-3.8799788 2:-0.39061768 3:39.844 4:-1 5:136.985 6:-12.36 
-0 -10 1:-3.9193031 2:-0.39324285 3:39.9718 4:-0.97 5:137.9022 6:-12.22 
-0 -10 1:-3.9569274 2:-0.37624344 3:40.1668 4:-0.35 5:138.8242 6:-12.2 
-0 -10 1:-3.9959451 2:-0.39017678 3:40.3738 4:0.38 5:139.8462 6:-12.23 
-0 -9.963087666999355 1:-4.0328324 2:-0.36887284 3:40.5238 4:1.34 5:140.9852 6:-12.12 
-0 -10 1:-4.1803755 2:-0.47253266 3:66.2706 4:-0.86 5:194.5764 6:-15.56 
-0 -10 1:-4.2725659 2:-0.46752282 3:66.8022 4:-1.22 5:196.9988 6:-16.19 
-0 -9.979030865478322 1:-4.3068158 2:-0.34249933 3:67.0976 4:-0.89 5:198.2264 6:-15.84 
-0 -10 1:-3.726605 2:-0.60693808 3:-5.6334 4:-0.03 5:50.1 6:0 
-0 -10 1:-3.7847905 2:-0.58185495 3:-5.83 4:0.1 5:50.1 6:0 
-0 -10 1:-3.8373644 2:-0.52573893 3:-6.0022 4:0.07 5:50.1 6:0 
-0 -10 1:-3.9023013 2:-0.58358591 3:12.7262 4:4.25 5:50.1 6:0 
-0 -10 1:-3.9687796 2:-0.66478234 3:13.1946 4:3.67 5:50.1 6:0 
-0 -10 1:-4.0462259 2:-0.77446269 3:13.6606 4:3.44 5:50.1 6:0 
-0 -10 1:-4.131652 2:-0.85426125 3:14.1226 4:3.6 5:50.1 6:0 
-0 -10 1:-4.2184095 2:-0.86757506 3:14.5778 4:4.04 5:50.1 6:0 
-0 -10 1:-4.3080383 2:-0.89628807 3:15.0254 4:4.52 5:50.1 6:0 
-0 -10 1:-4.3934774 2:-0.85439128 3:15.4644 4:4.75 5:50.1 6:0 
-0 -10 1:-4.471513 2:-0.78035537 3:15.8936 4:4.6 5:50.1 6:0 
-0 -10 1:-4.5494886 2:-0.77975683 3:16.2986 4:4.26 5:50.1 6:0 
-0 -10 1:-4.616629 2:-0.67140404 3:16.6692 4:4.07 5:50.1 6:0 
-0 -10 1:-4.6833102 2:-0.66681134 3:17.0338 4:4.24 5:50.1 6:0 
-0 -10 1:-2.6678574 2:-0.28579267 3:41.7034 4:-1.61 5:50.1 6:0 
-0 -10 1:-2.7143054 2:-0.4644797 3:41.421 4:-1.71 5:50.1 6:0 
-0 -10 1:-2.7738099 2:-0.59504552 3:41.1408 4:-1.95 5:50.1 6:0 
-0 -10 1:-2.8428753 2:-0.69065343 3:40.8498 4:-2.28 5:50.1 6:0 
-0 -10 1:-2.918759 2:-0.75883771 3:40.5372 4:-2.71 5:50.1 6:0 
-0 -10 1:-2.9919111 2:-0.73152061 3:40.221 4:-3.02 5:50.1 6:0 
-0 -10 1:-3.0693591 2:-0.77448015 3:39.9454 4:-2.92 5:50.1 6:0 
-0 -10 1:-3.1502449 2:-0.80885813 3:39.7858 4:-2.47 5:50.1 6:0 
-0 -10 1:-3.2288824 2:-0.78637457 3:39.7374 4:-2 5:50.1 6:0 
-0 -10 1:-3.3028769 2:-0.73994528 3:39.7114 4:-1.72 5:50.1 6:0 
-0 -10 1:-3.3841495 2:-0.81272557 3:39.6484 4:-1.63 5:50.1 6:0 
-0 -10 1:-3.4572674 2:-0.73117893 3:39.5512 4:-1.42 5:50.1 6:0 
-0 -10 1:-3.5333805 2:-0.76113177 3:39.4918 4:-0.92 5:50.1 6:0 
-0 -10 1:-3.5938338 2:-0.60453269 3:39.504 4:-0.4 5:50.1 6:0 
-0 -10 1:-3.6524454 2:-0.58611642 3:39.5438 4:-0.08 5:50.1 6:0 
-0 -10 1:-3.7050576 2:-0.52612155 3:39.5762 4:0.02 5:50.1 6:0 
-0 -10 1:-3.7466715 2:-0.41613896 3:39.5802 4:0.02 5:50.1 6:0 
-0 -10 1:-3.7834727 2:-0.36801226 3:39.559 4:0.07 5:50.1 6:0 
-0 -10 1:-3.8159115 2:-0.32438753 3:39.5282 4:0.2 5:50.1 6:0 
-0 -10 1:-5.2235383 2:-1.2736692 3:86.756 4:1.52 5:114.299 6:-13.46 
-0 -10 1:-5.3401059 2:-1.1656768 3:86.5824 4:0.92 5:115.9856 6:-13.95 
-0 -10 1:-5.4401798 2:-1.000739 3:86.3688 4:-0.1 5:117.6862 6:-14.69 
-0 -10 1:-5.5255484 2:-0.85368572 3:86.0256 4:-0.89 5:119.4504 6:-15.33 
-0 -10 1:-5.5958624 2:-0.70314011 3:85.5528 4:-0.97 5:121.3052 6:-15.88 
-0 -10 1:-5.649645 2:-0.53782583 3:85.2294 4:-0.24 5:123.2136 6:-16.47 
-0 -10 1:-5.684946 2:-0.35300984 3:85.1272 4:1.2 5:125.1018 6:-17.08 
-0 -10 1:-4.2936326 2:-0.37621071 3:110.3986 4:2.12 5:50.1 6:0 
-0 -10 1:-4.3475483 2:-0.53915701 3:110.4506 4:2.11 5:50.1 6:0 
-0 -10 1:-4.4094155 2:-0.61867278 3:110.5446 4:1.73 5:50.1 6:0 
-0 -10 1:-4.485188 2:-0.7577249 3:110.673 4:0.79 5:50.1 6:0 
-0 -10 1:-4.5600516 2:-0.74863609 3:110.7638 4:-0.05 5:50.1 6:0 
-0 -10 1:-4.6383074 2:-0.78255737 3:110.8218 4:-0.33 5:50.1 6:0 
-0 -10 1:-4.7199826 2:-0.81675234 3:50.1 4:0 5:50.1 6:0 
-0 -10 1:-4.8124761 2:-0.92493473 3:50.1 4:0 5:50.1 6:0 
-0 -10 1:-4.9177909 2:-1.0531484 3:50.1 4:0 5:50.1 6:0 
-0 -10 1:-5.0302721 2:-1.1248121 3:50.1 4:0 5:50.1 6:0 
-0 -10 1:-5.1425778 2:-1.123057 3:50.1 4:0 5:50.1 6:0 
-0 -10 1:-5.2742146 2:-1.3163673 3:50.1 4:0 5:50.1 6:0 
-0 -10 1:-5.4144315 2:-1.402169 3:50.1 4:0 5:50.1 6:0 
-0 -10 1:-5.4974551 2:-0.41275494 3:50.1 4:0 5:50.1 6:0 
-0 -10 1:-5.5453546 2:-0.47899444 3:50.1 4:0 5:50.1 6:0 
-0 -10 1:-5.6019247 2:-0.56570111 3:50.1 4:0 5:50.1 6:0 
-0 -10 1:-5.6626058 2:-0.6068108 3:50.1 4:0 5:50.1 6:0 
-0 -10 1:-5.7221455 2:-0.59539772 3:50.1 4:0 5:50.1 6:0 
-0 -10 1:-5.7832943 2:-0.61148728 3:50.1 4:0 5:50.1 6:0 
-0 -10 1:-5.8483334 2:-0.65039171 3:50.1 4:0 5:50.1 6:0 
-0 -10 1:-5.9182382 2:-0.69904747 3:50.1 4:0 5:50.1 6:0 
-0 -10 1:-5.9867635 2:-0.68525273 3:50.1 4:0 5:50.1 6:0 
-0 -10 1:-6.062463 2:-0.75699536 3:50.1 4:0 5:50.1 6:0 
-0 -10 1:-6.1417159 2:-0.79252936 3:50.1 4:0 5:50.1 6:0 
-0 -10 1:-4.0134681 2:-0.57173978 3:28.87372 4:-1.47 5:50.1 6:0 
-0 -10 1:-4.0646417 2:-0.51173649 3:28.85584 4:0.28 5:50.1 6:0 
-0 -10 1:-4.1042488 2:-0.39607036 3:29.0474 4:1.29 5:50.1 6:0 
-0 -10 1:-3.7307026 2:-0.30963743 3:31.30292 4:-3.15 5:50.1 6:0 
-0 -10 1:-3.7758783 2:-0.45175708 3:31.0242 4:-3.96 5:50.1 6:0 
-0 -10 1:-3.8221218 2:-0.46243508 3:30.58856 4:-3.98 5:50.1 6:0 
-0 -10 1:-3.8740374 2:-0.51915581 3:30.21716 4:-3.67 5:50.1 6:0 
-0 -10 1:-3.9289297 2:-0.54892315 3:29.88292 4:-3.74 5:50.1 6:0 
-0 -10 1:-3.9781134 2:-0.49183655 3:29.49868 4:-4.22 5:50.1 6:0 
-0 -10 1:-4.0201625 2:-0.42049112 3:29.08908 4:-4.73 5:50.1 6:0 
-0 -10 1:-4.0607681 2:-0.40605648 3:28.67028 4:-5.02 5:50.1 6:0 
-0 -10 1:-4.099015 2:-0.38246836 3:28.28392 4:-4.92 5:50.1 6:0 
-0 -10 1:-4.1355289 2:-0.36513969 3:27.97424 4:-4.49 5:50.1 6:0 
-0 -10 1:-4.1682308 2:-0.32701824 3:27.73824 4:-3.69 5:50.1 6:0 
-0 -10 1:-4.1985242 2:-0.30293443 3:27.53848 4:-2.52 5:50.1 6:0 
-0 -10 1:-3.9687738 2:-0.36631351 3:27.53004 4:0.14 5:50.1 6:0 
-0 -10 1:-4.0094122 2:-0.40638427 3:27.48292 4:0.53 5:50.1 6:0 
-0 -10 1:-4.054813 2:-0.45400729 3:27.56724 4:1.3 5:50.1 6:0 
-0 -10 1:-4.0997178 2:-0.44904882 3:27.767 4:2.56 5:50.1 6:0 
-0 -10 1:-4.3257686 2:-0.46393897 3:29.64664 4:3 5:50.1 6:0 
-0 -10 1:-4.4079812 2:-0.41204592 3:30.32996 4:1.33 5:50.1 6:0 
-0 -2.712889968087905 1:-5.4530703 2:-0.57557405 3:36.49032 4:1.9 5:50.1 6:0 
-0 -10 1:-5.5118666 2:-0.58796347 3:36.53676 4:0.92 5:50.1 6:0 
-0 -10 1:-5.5735859 2:-0.61719323 3:36.59204 4:0.23 5:50.1 6:0 
-0 -10 1:-5.6407072 2:-0.67121277 3:36.69256 4:-0.33 5:50.1 6:0 
-0 -10 1:-5.7116191 2:-0.70911898 3:36.81752 4:-0.91 5:50.1 6:0 
-0 -10 1:-5.7789263 2:-0.67307169 3:36.921 4:-1.4 5:50.1 6:0 
-0 -10 1:-5.8375524 2:-0.58626146 3:36.98652 4:-1.68 5:50.1 6:0 
-0 -10 1:0.77775521 2:-0.28635878 3:-2.341 4:0.05 5:0.502 6:1.52 
-0 -10 1:0.74517105 2:-0.32584159 3:-2.335 4:0.28 5:0.348 6:2 
-0 -7.546992968781963 1:0.7228365 2:-0.22334553 3:-2.3418 4:0.75 5:0.1728 6:2.85 
-10 -0 1:1.9971077 2:0.54957548 3:-0.509 4:1.07 5:3.575 6:0.03 
-10 -0 1:2.0547491 2:0.57641403 3:-0.45796 4:1.82 5:3.65296 6:0 
-10 -0 1:2.1160136 2:0.61264479 3:-0.30948 4:2.48 5:3.73948 6:-0.12 
-10 -0 1:2.1689195 2:0.52905901 3:-0.08056 4:2.74 5:3.82656 6:-0.43 
-10 -0 1:2.2207502 2:0.51830719 3:0.19904 4:2.43 5:3.91196 6:-0.98 
-10 -0 1:2.2669353 2:0.4618507 3:0.49872 4:1.55 5:3.98628 6:-1.67 
-10 -0 1:2.3199834 2:0.53048069 3:0.77284 4:0.26 5:4.04016 6:-2.34 
-10 -0 1:2.3641325 2:0.44149081 3:0.97592 4:-1.11 5:4.07108 6:-2.81 
-10 -0 1:2.4059431 2:0.41810619 3:1.07804 4:-2.21 5:4.07696 6:-3 
-10 -0 1:2.4397592 2:0.33816163 3:1.09648 4:-2.71 5:4.06752 6:-2.87 
-10 -0 1:2.4603518 2:0.20592554 3:1.0822 4:-2.52 5:4.0538 6:-2.36 
-10 -0 1:2.4759576 2:0.15605841 3:1.07372 4:-1.82 5:4.03028 6:-1.58 
-10 -0 1:2.4855622 2:0.096045357 3:1.07632 4:-1.08 5:3.99168 6:-0.95 
-10 -10 1:2.4882779 2:0.027157161 3:1.09328 4:-0.54 5:3.94872 6:-0.78 
-10 -10 1:2.482829 2:-0.054488563 3:1.13696 4:-0.1 5:3.93504 6:-0.95 
-10 -10 1:2.466132 2:-0.16696985 3:1.21856 4:0.54 5:3.98544 6:-1 
-10 -10 1:2.4457365 2:-0.20395516 3:1.3206 4:1.52 5:4.0954 6:-0.49 
-10 -10 1:2.4234637 2:-0.22272827 3:1.41884 4:2.64 5:4.22816 6:0.43 
-10 -10 1:2.3992385 2:-0.24225237 3:1.52184 4:3.41 5:4.34816 6:1.08 
-10 -10 1:2.3739889 2:-0.25249525 3:1.65676 4:3.59 5:4.43924 6:1.07 
-10 -10 1:2.3503885 2:-0.23600452 3:1.83884 4:3.39 5:4.51116 6:0.49 
-10 -10 1:2.3273048 2:-0.23083694 3:2.07652 4:3.01 5:4.58848 6:-0.35 
-10 -10 1:2.2952961 2:-0.32008682 3:2.32536 4:2.65 5:4.70264 6:-1.09 
-10 -10 1:2.2671322 2:-0.28163933 3:2.56468 4:2.5 5:4.85832 6:-1.61 
-10 -10 1:2.2427399 2:-0.24392276 3:2.8196 4:2.5 5:5.0334 6:-1.94 
-10 -10 1:2.211487 2:-0.31252855 3:3.11428 4:2.75 5:5.19872 6:-1.96 
-10 -10 1:2.1725621 2:-0.38924928 3:3.46884 4:3.33 5:5.33816 6:-1.59 
-10 -10 1:2.129999 2:-0.42563099 3:3.85352 4:3.97 5:5.46248 6:-1.03 
-10 -10 1:2.0861535 2:-0.4384549 3:4.23296 4:4.58 5:5.58404 6:-0.4 
-10 -10 1:2.038691 2:-0.47462513 3:4.6038 4:5.08 5:5.7092 6:0.11 
-10 -10 1:1.9875594 2:-0.51131647 3:4.95384 4:5.47 5:5.84216 6:0.37 
-10 -10 1:1.9318132 2:-0.55746169 3:5.30672 4:6.01 5:5.97428 6:0.4 
-3.946080208421449 -10 1:1.877688 2:-0.54125162 3:5.71376 4:6.81 5:6.13224 6:0.21 
-0 -10 1:1.8264013 2:-0.51286749 3:6.24276 4:7.75 5:6.33024 6:0.05 
-0 -10 1:1.7858251 2:-0.40576142 3:6.9022 4:8.43 5:6.5478 6:0.04 
-0 -10 1:1.755529 2:-0.30296138 3:7.61312 4:8.44 5:6.76288 6:0.19 
-0 -0.0006521053778269054 1:1.7336883 2:-0.21840686 3:8.27752 4:7.66 5:6.92948 6:0.34 
-0 -10 1:1.6543903 2:-0.1801769 3:17.449 4:4.36 5:3.717 6:2.12 
-0 -10 1:1.6330955 2:-0.21294772 3:17.98616 4:3.64 5:3.38284 6:2.04 
-0 -10 1:1.615028 2:-0.18067487 3:18.43576 4:3.05 5:3.05324 6:2.14 
-0 -9.980313748234837 1:1.6034549 2:-0.11573075 3:18.80656 4:2.74 5:2.73444 6:2.44 
-10 -0 1:2.1146643 2:-0.079333722 3:-17.844 4:4.99 5:-9.743 6:9.29 
-10 -0 1:2.1022352 2:-0.12429129 3:-17.4878 4:4.23 5:-10.5402 6:8.71 
-10 -0 1:2.0951843 2:-0.070508345 3:-17.1572 4:3.29 5:-11.3298 6:7.92 
-10 -0 1:2.0833716 2:-0.11812738 3:-16.86 4:2.44 5:-12.093 6:7.19 
-10 -0 1:2.0727817 2:-0.10589915 3:-16.6008 4:1.81 5:-12.8352 6:6.69 
-10 -0 1:2.0599738 2:-0.12807869 3:-16.3748 4:1.31 5:-13.5592 6:6.27 
-10 -0 1:2.0518465 2:-0.081273173 3:-16.1728 4:0.81 5:-14.2642 6:5.81 
-10 -0.5612861674629832 1:2.0345985 2:-0.17247959 3:-15.9934 4:0.38 5:-14.9446 6:5.38 
-10 -0 1:2.0205961 2:-0.1400241 3:-15.8402 4:0.08 5:-15.5968 6:5.08 
-10 -0 1:2.0084845 2:-0.12111627 3:-15.7138 4:-0.04 5:-16.2212 6:4.97 
-10 -0 1:1.9962483 2:-0.12236151 3:-15.6182 4:-0.05 5:-16.8188 6:4.98 
-10 -0 1:1.984595 2:-0.11653382 3:-15.5568 4:0.04 5:-17.3932 6:5 
-4.368390673267206 -0 1:1.9731782 2:-0.11416767 3:-15.5132 4:0.33 5:-17.9468 6:5 
-3.093568975299576 -10 1:1.9303649 2:-0.10452857 3:-18.009 4:4.57 5:38.507 6:-0.14 
-10 -0 1:1.9254406 2:-0.049243014 3:-17.5496 4:3.77 5:38.5166 6:-0.6 
-10 -0 1:1.925612 2:0.0017136575 3:-17.1284 4:2.69 5:38.5174 6:-1.17 
-10 -8.892881822688196 1:1.926697 2:0.010849817 3:-16.7624 4:1.88 5:38.5014 6:-1.53 
-10 -0 1:1.9276869 2:0.0098992787 3:-16.4178 4:1.76 5:38.4618 6:-1.42 
-10 -0 1:1.9310352 2:0.033483422 3:-16.0624 4:2.21 5:38.3974 6:-0.92 
-10 -0 1:1.9364045 2:0.053692985 3:-15.6496 4:2.78 5:38.3086 6:-0.39 
-10 -0 1:1.9441787 2:0.077741282 3:-15.1968 4:2.98 5:38.1958 6:-0.08 
-10 -0 1:1.9527104 2:0.08531716 3:-14.764 4:2.81 5:38.058 6:0.01 
-10 -0 1:1.9561951 2:0.03484729 3:-14.3494 4:2.57 5:37.8964 6:-0.02 
-10 -0 1:1.9645271 2:0.083319392 3:-13.9208 4:2.59 5:37.7108 6:0.08 
-10 -0 1:1.9814988 2:0.16971781 3:-13.4532 4:2.93 5:37.5032 6:0.52 
-10 -0 1:1.9885053 2:0.070064347 3:-12.974 4:3.5 5:37.287 6:1.48 
-10 -0 1:2.0073022 2:0.1879693 3:-12.5452 4:4.32 5:37.0422 6:2.93 
-10 -0 1:2.0148567 2:0.075545091 3:-12.1868 4:5.42 5:36.7518 6:4.41 
-10 -0 1:2.0345219 2:0.19665197 3:-11.8326 4:6.69 5:36.4376 6:5.48 
-10 -0 1:2.043206 2:0.086840987 3:-11.389 4:7.78 5:36.125 6:5.98 
-10 -0 1:2.0607992 2:0.17593229 3:-10.8362 4:8.28 5:35.8352 6:6.05 
-10 -0 1:2.0751185 2:0.14319218 3:-10.2754 4:8.11 5:35.5494 6:6.02 
-10 -0 1:2.0840628 2:0.089443558 3:-9.796 4:7.78 5:35.244 6:6.02 
-10 -0 1:2.0951831 2:0.11120278 3:-9.3596 4:7.79 5:34.9276 6:6.03 
-10 -0 1:2.1061702 2:0.10987108 3:-8.8642 4:8.03 5:34.6012 6:5.92 
-10 -0 1:2.1050479 2:-0.011223329 3:-8.2612 4:7.96 5:34.2632 6:5.52 
-10 -0 1:2.1028306 2:-0.022172354 3:-7.6234 4:7.14 5:33.9124 6:4.76 
-10 -0 1:2.0995608 2:-0.032698122 3:-7.026 4:5.7 5:33.55 6:3.72 
-10 -0 1:2.0954615 2:-0.040993066 3:-6.499 4:4.26 5:33.178 6:2.67 
-10 -10 1:2.0889439 2:-0.065175999 3:-6.0158 4:3.52 5:32.8028 6:1.9 
-10 -10 1:2.0790643 2:-0.098795855 3:-5.4972 4:3.68 5:32.4292 6:1.58 
-10 -10 1:2.0645426 2:-0.14521722 3:-4.8948 4:4.5 5:32.0628 6:1.68 
-10 -10 1:2.0430488 2:-0.21493758 3:-4.1948 4:5.43 5:31.7078 6:1.95 
-10 -10 1:2.0168226 2:-0.26226215 3:-3.4436 4:5.93 5:31.3666 6:2.21 
-10 -10 1:1.9901892 2:-0.26633413 3:-2.7142 4:5.89 5:31.0372 6:2.41 
-10 -10 1:1.9646634 2:-0.25525807 3:-2.0502 4:5.41 5:30.7252 6:2.57 
-10 -10 1:1.9350326 2:-0.29630831 3:-1.4976 4:4.68 5:30.4356 6:2.85 
-10 -10 1:1.8977907 2:-0.37241848 3:-1.0756 4:3.88 5:30.1476 6:3.27 
-10 -10 1:1.8659862 2:-0.3180451 3:-0.766 4:3.25 5:29.816 6:3.75 
-10 -10 1:1.8231152 2:-0.42871032 3:-0.5234 4:3.04 5:29.4054 6:3.97 
-10 -10 1:1.7803833 2:-0.42731881 3:-0.2806 4:3.39 5:28.9936 6:3.75 
-10 -10 1:1.7371091 2:-0.43274216 3:0.0302 4:4.23 5:28.6788 6:3.43 
-10 -10 1:1.6900055 2:-0.4710361 3:0.4776 4:5.38 5:28.4334 6:3.46 
-0 -10 1:1.6479666 2:-0.42038893 3:1.032 4:6.51 5:28.158 6:4.05 
-0 -10 1:1.5995149 2:-0.48451648 3:1.713 4:7.34 5:27.753 6:4.96 
