svm_type c_svc
kernel_type linear
nr_class 3
total_sv 6993
rho -0.635314 5.73304 0.679724
label 1 2 3
probA -1.9227 -1.34519 -1.68057
probB 0.146511 -0.0717599 -0.129176
nr_sv 1683 3184 2126
SV
1 0 1:4.3647133 2:-0.81043933 3:0 4:0.90267091 
1 0 1:4.2796078 2:-0.85105502 3:0 4:0.90267091 
1 0 1:4.189585 2:-0.9002284 3:0 4:0.90267091 
1 0 1:4.1046591 2:-0.84925861 3:0 4:0.90267091 
1 0 1:4.024073 2:-0.80586176 3:0 4:0.90267091 
1 0 1:3.9438782 2:-0.80194776 3:0 4:0.90267091 
1 0 1:3.8712845 2:-0.72593674 3:0 4:0.90267091 
1 0 1:3.7952895 2:-0.75994981 3:0 4:0.90267091 
1 0 1:3.7257701 2:-0.69519445 3:0.84611717 4:0 
1 0 1:3.6589322 2:-0.66837851 3:0.84611717 4:0 
1 0 1:4.4121326 2:-0.68104343 3:0.99999254 4:0.90267091 
1 0 1:4.3294177 2:-0.82714854 3:0.99999995 4:0.90267091 
1 0 1:4.2296987 2:-0.99719049 3:1 4:0.90267091 
1 0 1:4.1120808 2:-1.1761787 3:1 4:0.90267091 
1 0 1:3.9798197 2:-1.3226105 3:1 4:0.90267091 
1 0 1:3.8354255 2:-1.4439428 3:1 4:0.90267091 
1 0 1:3.6699043 2:-1.6552114 3:1 4:0.90267091 
1 0 1:3.4895108 2:-1.8039353 3:1 4:0.90267091 
1 0 1:3.2943375 2:-1.9517327 3:0.99960158 4:0.90267091 
1 0 1:3.0794462 2:-2.1489131 3:0.77884692 4:0.90267091 
1 0 1:6.9809043 2:-1.3738277 3:1 4:0.90267091 
1 0 1:6.8293812 2:-1.5152313 3:1 4:0.90267091 
1 0 1:6.6674656 2:-1.619156 3:1 4:0.90267091 
1 0 1:6.4974834 2:-1.6998216 3:1 4:0.90267091 
1 0 1:6.3142263 2:-1.8325707 3:1 4:0.90267091 
1 0 1:6.1168604 2:-1.9736592 3:1 4:0.90267091 
1 0 1:5.9038659 2:-2.1299454 3:1 4:0.90267091 
1 0 1:6.0404077 2:-1.2698402 3:0.9583347 4:0 
1 0 1:5.9126364 2:-1.2777128 3:0.95715354 4:0 
1 0 1:5.7821979 2:-1.3043855 3:0.95595007 4:0 
1 0 1:5.6572241 2:-1.2497375 3:0.95500598 4:0 
1 0 1:5.5366198 2:-1.206043 3:0.95590735 4:0 
1 0 1:5.4188804 2:-1.1773945 3:0.95889567 4:0 
1 0 1:5.3011733 2:-1.1770712 3:0.96146622 4:0 
1 0 1:5.1869181 2:-1.1425522 3:0.96167378 4:0 
1 0 1:5.07539 2:-1.1152801 3:0.95874366 4:0 
1 0 1:4.9664104 2:-1.0897962 3:0.9543487 4:0 
1 0 1:4.861493 2:-1.0491738 3:0.95314866 4:0 
1 0 1:4.7640158 2:-0.97477213 3:0.95629979 4:0 
1 0 1:4.5656384 2:-0.90114376 3:0 4:0.65612375 
1 0 1:4.4574317 2:-1.0820665 3:1 4:0.66282015 
1 0 1:4.3256076 2:-1.3182411 3:1 4:0.68808589 
1 0 1:4.1782653 2:-1.4734233 3:1 4:0.71646602 
1 0 1:4.0049723 2:-1.7329299 3:1 4:0.73184466 
1 0 1:3.8123716 2:-1.9260069 3:1 4:0.73619793 
1 0 1:3.5989735 2:-2.1339813 3:1 4:0.73705422 
1 0 1:3.3654437 2:-2.3352978 3:1 4:0.7385739 
1 0 1:3.1131163 2:-2.523274 3:1 4:0.74079635 
1 0 1:2.8419459 2:-2.7117038 3:1 4:0.74373588 
1 0 1:3.9572127 2:-0.69502312 3:0 4:0.90267091 
1 0 1:3.8874162 2:-0.69796481 3:0 4:0.90267091 
1 0 1:3.8178568 2:-0.69559451 3:0 4:0.90267091 
1 0 1:3.7492605 2:-0.68596255 3:0 4:0.90267091 
1 0 1:3.6835392 2:-0.65721318 3:0 4:0.90267091 
1 0 1:3.6181542 2:-0.65385004 3:0 4:0.90267091 
1 0 1:3.5616899 2:-0.5646428 3:0 4:0.90267091 
1 0 1:3.3909663 2:-0.78652187 3:0 4:0.040147732 
1 0 1:3.3121744 2:-0.78791874 3:0 4:0.105356 
1 0 1:3.2405963 2:-0.71578139 3:0 4:0.18268386 
1 0 1:3.1752675 2:-0.65328803 3:0 4:0.25920983 
1 0 1:3.1155804 2:-0.59687123 3:0 4:0.32720194 
1 0 1:3.0612988 2:-0.54281584 3:0 4:0.38403214 
1 0 1:6.6404987 2:-1.2915838 3:1 4:0.90267091 
1 0 1:6.4984408 2:-1.4205785 3:1 4:0.90267091 
1 0 1:6.3447845 2:-1.5365632 3:1 4:0.90267091 
1 0 1:6.1807603 2:-1.6402426 3:1 4:0.90267091 
0.9988668303049132 0 1:4.7127495 2:-0.84940566 3:0 4:0.90267091 
1 0 1:4.6227898 2:-0.89959709 3:0 4:0.90267091 
1 0 1:4.5326052 2:-0.9018456 3:0 4:0.90267091 
1 0 1:4.44418 2:-0.88425243 3:0 4:0.90267091 
1 0 1:4.3572789 2:-0.86901098 3:0 4:0.90267091 
1 0 1:4.2711009 2:-0.86178043 3:0 4:0.90267091 
1 0 1:4.1874812 2:-0.83619699 3:0 4:0.90267091 
1 0 1:4.1086727 2:-0.78808456 3:0 4:0.90267091 
1 0 1:4.0277766 2:-0.80896127 3:0 4:0.90267091 
1 0 1:3.9506471 2:-0.77129443 3:0 4:0.90267091 
1 0 1:3.8793529 2:-0.71294245 3:0 4:0.90267091 
1 0 1:3.8046848 2:-0.74668123 3:0 4:0.90267091 
1 0 1:3.7374504 2:-0.67234343 3:0 4:0.90267091 
1 0 1:3.6668534 2:-0.70596991 3:0 4:0.90267091 
1 0 1:3.6063709 2:-0.60482572 3:0 4:0.90267091 
1 0 1:3.5486347 2:-0.57736198 3:0 4:0.90267091 
1 0 1:4.6540374 2:-0.8412544 3:0.98511206 4:0.51750948 
1 0 1:4.5585237 2:-0.95513718 3:0.98297204 4:0.5334659 
1 0 1:4.443722 2:-1.1480168 3:0.98077237 4:0.55051953 
1 0 1:4.3163799 2:-1.2734214 3:0.97931769 4:0.56860092 
1 0 1:4.1815168 2:-1.3486309 3:0.97901586 4:0.58685735 
1 0 1:4.0304555 2:-1.5106129 3:0.97986617 4:0.60435558 
1 0 1:3.8702539 2:-1.6020165 3:0.98168683 4:0.62061975 
1 0 1:3.6965318 2:-1.7372207 3:0.98394405 4:0.63560652 
1 0 1:3.5151597 2:-1.8137209 3:0.98575521 4:0.649592 
1 0 1:3.3232041 2:-1.9195557 3:0.98656456 4:0.66277174 
1 0 1:4.5688961 2:-0.7191399 3:1 4:0.90267091 
1 0 1:4.4907934 2:-0.7810275 3:1 4:0.90267091 
1 0 1:4.3981674 2:-0.92626006 3:1 4:0.90267091 
1 0 1:4.2966522 2:-1.0151518 3:1 4:0.90267091 
1 0 1:4.1780481 2:-1.1860407 3:1 4:0.90267091 
1 0 1:4.0497103 2:-1.2833787 3:1 4:0.90267091 
1 0 1:3.9124255 2:-1.3728478 3:1 4:0.90267091 
1 0 1:3.762461 2:-1.4996446 3:1 4:0.90267091 
1 0 1:3.5988341 2:-1.6362694 3:1 4:0.90267091 
1 0 1:6.5640108 2:-1.3349138 3:1 4:0.90267091 
1 0 1:6.4130944 2:-1.5091644 3:1 4:0.90267091 
1 0 1:6.246056 2:-1.6703836 3:1 4:0.90267091 
1 0 1:6.0638693 2:-1.8218672 3:1 4:0.90267091 
1 0 1:5.8660753 2:-1.9779397 3:1 4:0.90267091 
1 0 1:4.5413193 2:-0.87281046 3:0.99930537 4:0.90267091 
1 0 1:4.4479147 2:-0.93404584 3:1 4:0.90267091 
1 0 1:4.3499872 2:-0.979275 3:1 4:0.90267091 
1 0 1:4.2487181 2:-1.0126908 3:1 4:0.90267091 
1 0 1:4.139881 2:-1.0883713 3:1 4:0.90267091 
1 0 1:4.0302252 2:-1.0965578 3:1 4:0.90267091 
1 0 1:3.9169356 2:-1.1328964 3:1 4:0.90267091 
1 0 1:4.0467575 2:-0.65048251 3:0.54183838 4:0.59361355 
1 0 1:3.9237243 2:-0.61005513 3:0.66610142 4:0.54061806 
1 0 1:3.2102699 2:-0.86687234 3:0 4:0 
1 0 1:3.0969196 2:-1.1335028 3:0 4:0 
1 0 1:2.9646263 2:-1.3229337 3:0 4:0 
1 0 1:2.8102458 2:-1.5438045 3:0 4:0 
1 0 1:2.6338538 2:-1.7639197 3:0 4:0 
1 0 1:2.4298613 2:-2.0399257 3:0 4:0 
1 0 1:2.206581 2:-2.2328021 3:0 4:0 
1 1 1:1.967197 2:-2.393841 3:0 4:0 
1 1 1:1.7143356 2:-2.5286133 3:0 4:0 
1 1 1:1.4456493 2:-2.6868627 3:0 4:0 
1 0 1:5.063694 2:-0.8435768 3:1 4:0.75438738 
1 0 1:4.9720551 2:-0.91638919 3:1 4:0.77087313 
1 0 1:4.876124 2:-0.95931083 3:1 4:0.77415041 
1 0 1:4.7814535 2:-0.94670479 3:0.99999844 4:0.7747717 
1 0 1:4.6902095 2:-0.91244003 3:0.99724308 4:0.77546257 
1 0 1:4.6012904 2:-0.88919103 3:0.94415461 4:0.77700362 
1 0 1:4.514364 2:-0.86926421 3:0.94140836 4:0.77942995 
1 0 1:4.4261056 2:-0.88258423 3:0.94035289 4:0.78215917 
1 0 1:4.3351851 2:-0.90920504 3:0.94034517 4:0.78450231 
1 0 1:4.2430258 2:-0.92159254 3:0.94082557 4:0.78600466 
1 0 1:4.1493035 2:-0.93722298 3:0.94202965 4:0.78663482 
1 0 1:4.0508655 2:-0.98437969 3:0.94283883 4:0.78671692 
1 0 1:3.9424765 2:-1.0838906 3:0.94110861 4:0.78666015 
1 0 1:3.8244698 2:-1.1800663 3:0.93512335 4:0.78666974 
1 0 1:3.7033279 2:-1.211419 3:0.92575518 4:0.78673303 
1 0 1:3.5820689 2:-1.2125904 3:0.91772612 4:0.77289608 
1 0 1:3.4623328 2:-1.1973609 3:0.91664892 4:0.76377662 
1 0 1:3.3481409 2:-1.1419188 3:0.9238735 4:0.76162793 
1 0 1:3.2454762 2:-1.0266476 3:0.93378838 4:0.76267582 
1 0 1:3.1562697 2:-0.89206462 3:0.94140759 4:0.76302693 
1 0 1:3.0791817 2:-0.77087998 3:0.99175376 4:0.76026825 
1 0 1:3.0142565 2:-0.64925255 3:0.99991096 4:0.74942752 
1 0 1:2.9618909 2:-0.52365536 3:0.99999997 4:0.72688148 
1 0 1:2.9230394 2:-0.3885156 3:1 4:0.69288324 
1 0 1:2.8980201 2:-0.25019274 3:1 4:0.6569529 
1 0 1:2.7619884 2:-0.17268017 3:0.93880324 4:0.80905188 
1 0 1:2.7439124 2:-0.18076037 3:0.93803427 4:0.8117912 
1 0 1:2.7261002 2:-0.17812201 3:0.93657512 4:0.81462109 
1 0 1:2.7087804 2:-0.17319802 3:0.9361553 4:0.81772323 
1 0 1:2.6875964 2:-0.21184033 3:0.93897971 4:0.82056056 
1 0 1:2.6669085 2:-0.20687835 3:0.94582088 4:0.8220769 
1 0 1:2.650095 2:-0.16813558 3:0.99742547 4:0.8192653 
1 0 1:2.6166783 2:-0.20027471 3:1 4:0.6771598 
1 0 1:3.605318 2:-0.48917475 3:1 4:0.84345181 
1 0 1:3.5383848 2:-0.66933189 3:1 4:0.76921664 
1 0 1:3.4537165 2:-0.84668296 3:1 4:0.76816394 
1 0 1:3.3514699 2:-1.0224655 3:1 4:0.76722258 
1 0 1:3.2332123 2:-1.1825762 3:1 4:0.75915642 
1 0 1:3.1049033 2:-1.2830902 3:1 4:0.74769228 
1 0 1:2.9655594 2:-1.393439 3:0.99999998 4:0.76191569 
1 0 1:2.8150704 2:-1.5048904 3:0.9951675 4:0.81150386 
1 0 1:2.6536043 2:-1.6146605 3:0.95102694 4:0.8658911 
1 0 1:5.2330305 2:-0.81496766 3:1 4:0.90267091 
1 0 1:5.1517887 2:-0.81241769 3:1 4:0.90267091 
1 0 1:5.0710905 2:-0.80698197 3:1 4:0.90267091 
1 0 1:4.9926481 2:-0.78442383 3:1 4:0.90267091 
1 0 1:4.5300925 2:-0.63411856 3:0.99999978 4:0.90267091 
1 0 1:4.4610733 2:-0.69019167 3:1 4:0.90267091 
1 0 1:4.3873109 2:-0.73762396 3:1 4:0.90267091 
1 0 1:4.3142449 2:-0.73065962 3:1 4:0.90267091 
1 0 1:4.2418966 2:-0.7234832 3:1 4:0.90267091 
1 0 1:4.1648508 2:-0.77045833 3:1 4:0.90267091 
1 0 1:4.0836587 2:-0.8119206 3:1 4:0.90267091 
1 0 1:4.0067379 2:-0.76920775 3:1 4:0.90267091 
1 0 1:3.9357066 2:-0.71031369 3:1 4:0.90267091 
1 0 1:3.8708293 2:-0.64877246 3:1 4:0.90267091 
1 0 1:3.8111336 2:-0.59695724 3:1 4:0.90267091 
1 0 1:3.7611906 2:-0.49943004 3:1 4:0.90267091 
1 0 1:4.269626 2:-0.63856741 3:0.84611717 4:0.90267091 
1 0 1:4.1954159 2:-0.7421008 3:0.84611717 4:0.90267091 
1 0 1:4.1082451 2:-0.87170834 3:0.84611717 4:0.90267091 
1 0 1:4.0085752 2:-0.99669906 3:0.84611717 4:0.90267091 
1 0 1:3.9004007 2:-1.0817444 3:0.84611717 4:0.90267091 
1 0 1:3.7842846 2:-1.1611616 3:0.84611717 4:0.90267091 
1 0 1:3.6602451 2:-1.2403947 3:0.84611717 4:0.90267091 
1 0 1:3.5287332 2:-1.3151185 3:0.84611717 4:0.90267091 
1 0 1:3.7716839 2:-0.6932858 3:0.91060576 4:0.038879271 
1 0 1:3.7082764 2:-0.63407451 3:0.99349775 4:0.088832478 
1 0 1:3.5265768 2:-0.44955305 3:1 4:0.73565064 
1 0 1:3.4800223 2:-0.46554511 3:1 4:0.74752125 
1 0 1:3.4377198 2:-0.42302443 3:1 4:0.75937154 
1 0 1:3.3926098 2:-0.45110053 3:1 4:0.77009778 
1 0 1:3.3554739 2:-0.3713584 3:1 4:0.77882795 
1 0 1:3.3749251 2:-0.31130997 3:1 4:0.8898475 
1 0 1:3.3349297 2:-0.39995401 3:1 4:0.89194582 
1 0 1:3.2795378 2:-0.55391918 3:1 4:0.89397274 
1 0 1:3.2187476 2:-0.60790182 3:1 4:0.89594146 
1 0 1:3.1378218 2:-0.80925799 3:1 4:0.89788262 
1 0 1:3.0575058 2:-0.80315949 3:1 4:0.89980178 
1 0 1:2.9706122 2:-0.86893604 3:1 4:0.90170006 
1 0 1:2.8792927 2:-0.91319511 3:1 4:0.9035691 
1 0 1:2.7886539 2:-0.906388 3:1 4:0.90543684 
1 0 1:2.687375 2:-1.012789 3:1 4:0.90733783 
1 0 1:2.5874837 2:-0.99891328 3:1 4:0.90925702 
1 0 1:2.4931289 2:-0.94354752 3:1 4:0.9111065 
1 0 1:2.4063902 2:-0.86738776 3:1 4:0.91276121 
1 0 1:2.3261393 2:-0.8025083 3:1 4:0.91407013 
1 0 1:2.2510138 2:-0.7512554 3:1 4:0.91555203 
1 0 1:2.1865706 2:-0.64443174 3:1 4:0.91762207 
1 0 1:2.1348656 2:-0.51705026 3:1 4:0.9199628 
1 0 1:2.0886804 2:-0.46185237 3:1 4:0.92186799 
1 0 1:2.0597605 2:-0.28919822 3:1 4:0.92338131 
1 0 1:2.0274173 2:-0.32343261 3:1 4:0.92449212 
1 0 1:2.0085342 2:-0.18883063 3:1 4:0.92527589 
1 0 1:2.0001047 2:-0.084295374 3:1 4:0.92573761 
1 0 1:1.9966096 2:-0.034951014 3:1 4:0.92605812 
1 0 1:2.6179965 2:-0.14837667 3:1 4:0.94794377 
1 0 1:2.57481 2:-0.43186479 3:1 4:0.94917527 
1 0 1:2.5106183 2:-0.64191672 3:1 4:0.95022083 
1 0 1:2.4293845 2:-0.81233868 3:1 4:0.95108461 
1 0 1:2.3398179 2:-0.89566522 3:1 4:0.95184402 
1 0 1:2.2400889 2:-0.99729 3:1 4:0.95256689 
1 0 1:2.130324 2:-1.0976498 3:1 4:0.95327623 
1 0 1:2.0101166 2:-1.2020737 3:1 4:0.95399045 
1 0 1:1.8787398 2:-1.3137678 3:1 4:0.95474227 
1 0 1:1.7366788 2:-1.4206101 3:1 4:0.95557149 
1 0 1:3.878951 2:-0.74289641 3:0.17262033 4:0.65796411 
1 0 1:3.8021418 2:-0.7680928 3:0.19105508 4:0.67455034 
1 0 1:3.722551 2:-0.79590796 3:0.18743875 4:0.68655622 
1 0 1:3.6349417 2:-0.87609246 3:0.17864076 4:0.6964921 
1 0 1:3.5479042 2:-0.87037507 3:0.17995857 4:0.70236207 
1 0 1:3.452006 2:-0.95898208 3:0.1809277 4:0.70932101 
1 0 1:3.3563054 2:-0.95700621 3:0.18134689 4:0.71616747 
1 0 1:3.2636508 2:-0.92654587 3:0.18141795 4:0.7227978 
1 0 1:3.1675036 2:-0.96147225 3:0.18133673 4:0.72962183 
1 0 1:3.0706959 2:-0.96807663 3:0.18132513 4:0.73692381 
1 0 1:2.9766451 2:-0.94050847 3:0.18128162 4:0.74445404 
1 0 1:2.8841861 2:-0.92458984 3:0.18133819 4:0.75138918 
1 0 1:2.7856695 2:-0.98516618 3:0.18169785 4:0.75672247 
1 0 1:2.6884541 2:-0.97215352 3:0.18241996 4:0.76039237 
1 0 1:2.5908676 2:-0.97586517 3:0.18340131 4:0.76301017 
1 0 1:2.4842068 2:-1.0666076 3:0.18442288 4:0.76523043 
1 0 1:2.3812493 2:-1.0295751 3:0.18344306 4:0.76753811 
1 0 1:2.2736153 2:-1.0763399 3:0.17526706 4:0.7699525 
1 0 1:2.1598353 2:-1.1378002 3:0.16028318 4:0.77243133 
1 0 1:2.0490878 2:-1.1074746 3:0.14658939 4:0.77499901 
1 0 1:1.9450169 2:-1.0407096 3:0.14102758 4:0.77768874 
1 0 1:1.8412956 2:-1.0372131 3:0.14916714 4:0.78052279 
1 0 1:1.7536736 2:-0.87621958 3:0.90129009 4:0.78348442 
1 0 1:1.6798825 2:-0.73791156 3:0.99999802 4:0.78658339 
1 0 1:1.6154369 2:-0.64445591 3:1 4:0.78982412 
1 0 1:1.557553 2:-0.57883891 3:1 4:0.79323326 
1 0 1:1.5054729 2:-0.52080037 3:1 4:0.79680191 
1 0 1:1.4527789 2:-0.5269406 3:1 4:0.80056406 
1 1 1:1.399364 2:-0.53414914 3:1 4:0.80456436 
1 1 1:1.3636446 2:-0.35719311 3:0.99999997 4:0.80870396 
1 1 1:1.3224657 2:-0.41178926 3:0.99993759 4:0.81268732 
1 1 1:1.2985615 2:-0.23904186 3:0.99595987 4:0.81614811 
1 1 1:1.2617062 2:-0.36855339 3:0.96002817 4:0.81863328 
1 1 1:1.2422292 2:-0.19477024 3:0.83804443 4:0.8214648 
1 1 1:1.2343507 2:-0.078785011 3:0.60787951 4:0.82580478 
1 1 1:1.2314812 2:-0.028695181 3:0.35673117 4:0.83089818 
1 1 1:1.2318232 2:0.0034202207 3:0.25060474 4:0.83495711 
1 1 1:1.2345667 2:0.027435548 3:0.24689567 4:0.83816604 
0 1 1:1.2478783 2:0.1331161 3:0.24080498 4:0.84046894 
0 1 1:1.2795579 2:0.31679591 3:0.23489932 4:0.84206129 
0 1 1:1.3133365 2:0.3377859 3:0.230401 4:0.84296706 
0 1 1:1.3637932 2:0.50456672 3:0.227793 4:0.84368846 
0 1 1:1.4099266 2:0.46133374 3:0.22607063 4:0.84458557 
0 1 1:1.4705082 2:0.6058166 3:0.2237722 4:0.84573032 
0 1 1:1.5393866 2:0.68878408 3:0.21768881 4:0.84698807 
0 1 1:1.6094352 2:0.70048586 3:0.20317975 4:0.84838096 
1 0 1:2.9643229 2:-0.17834623 3:0.99993072 4:0.96701147 
1 0 1:2.9143 2:-0.20784395 3:1 4:0.96691094 
1 0 1:2.8940309 2:-0.20269182 3:0.99999997 4:0.96649246 
1 0 1:2.873522 2:-0.20508839 3:0.99961643 4:0.9658421 
1 0 1:2.8498131 2:-0.23708875 3:0.97903531 4:0.96397821 
1 0 1:2.8259807 2:-0.23832442 3:0.9155401 4:0.96242273 
1 0 1:2.8027599 2:-0.23220826 3:0.85621436 4:0.96275249 
1 0 1:2.7807714 2:-0.21988466 3:0.79091318 4:0.964567 
0.5322600305234845 0 1:2.7630455 2:-0.17725877 3:0.69790121 4:0.96476185 
1 0 1:2.6726018 2:-0.12480549 3:0.99980397 4:0.937491 
1 0 1:2.6625942 2:-0.10007565 3:0.99998814 4:0.95498295 
1 0 1:2.639774 2:-0.10251009 3:0.99998759 4:0.96458592 
1 0 1:2.6132005 2:-0.12319578 3:0.99958323 4:0.96480674 
1 0 1:2.5856748 2:-0.27525696 3:0.99978508 4:0.96479096 
1 0 1:2.5433221 2:-0.42352728 3:0.99993753 4:0.96477275 
1 0 1:2.4837558 2:-0.5956626 3:0.99999013 4:0.96475249 
1 0 1:2.4022793 2:-0.8147652 3:0.9999987 4:0.96472793 
1 0 1:2.3082479 2:-0.9403141 3:0.99999971 4:0.96470074 
1 0 1:2.1989882 2:-1.0925969 3:0.99999988 4:0.96466942 
1 0 1:2.0654958 2:-1.334924 3:0.99999998 4:0.96327216 
1 0 1:1.9210159 2:-1.4447986 3:1 4:0.95860876 
1 0 1:1.7556507 2:-1.6536522 3:1 4:0.95161391 
1 0 1:5.021021 2:-0.8478644 3:0.88022449 4:0.90267091 
1 0 1:4.9259937 2:-0.95027229 3:0.99895797 4:0.90267091 
1 0 1:4.8226673 2:-1.0332648 3:0.99999949 4:0.90267091 
1 0 1:4.7069337 2:-1.1573352 3:1 4:0.90267091 
1 0 1:4.5840922 2:-1.2284158 3:1 4:0.90267091 
1 0 1:4.4541689 2:-1.2992327 3:1 4:0.90267091 
1 0 1:4.3249534 2:-1.2921546 3:1 4:0.90267091 
1 0 1:4.1972717 2:-1.276817 3:1 4:0.90267091 
1 0 1:4.0790817 2:-1.1819003 3:1 4:0.90267091 
1 0 1:3.9668563 2:-1.1222541 3:1 4:0.90267091 
1 0 1:3.8534531 2:-1.1340324 3:1 4:0.90267091 
1 0 1:3.7452396 2:-1.0821347 3:1 4:0.90267091 
1 0 1:3.6449077 2:-1.003319 3:1 4:0.90267091 
1 0 1:3.5521701 2:-0.92737597 3:1 4:0.90267091 
1 0 1:3.4632897 2:-0.88880416 3:1 4:0.90267091 
1 0 1:3.3807854 2:-0.82504261 3:1 4:0.90267091 
1 0 1:3.307777 2:-0.73008452 3:1 4:0.90267091 
1 0 1:3.2447608 2:-0.63016157 3:1 4:0.90267091 
1 0 1:3.1916923 2:-0.53068529 3:1 4:0.90267091 
1 0 1:3.1486035 2:-0.4308881 3:1 4:0.90267091 
1 0 1:3.1148067 2:-0.3379673 3:1 4:0.90267091 
1 0 1:3.0868546 2:-0.27952182 3:1 4:0.90267091 
1 0 1:4.4364332 2:-0.76941651 3:1 4:0.90267091 
1 0 1:4.3414309 2:-0.95002304 3:1 4:0.90267091 
1 0 1:4.2254848 2:-1.1594609 3:1 4:0.90267091 
1 0 1:4.0868693 2:-1.3861551 3:1 4:0.90267091 
1 0 1:3.9274003 2:-1.5946896 3:1 4:0.90267091 
1 0 1:5.271499 2:-0.97656211 3:1 4:0.90532694 
1 0 1:5.1634014 2:-1.080976 3:1 4:0.9066161 
1 0 1:5.0477262 2:-1.1567515 3:1 4:0.90788768 
1 0 1:4.925722 2:-1.2200424 3:1 4:0.9091708 
1 0 1:4.7976361 2:-1.2808591 3:1 4:0.91051093 
1 0 1:5.0578233 2:-0.96315463 3:0.92131789 4:0.30354065 
1 0 1:4.9587098 2:-0.99113498 3:0.92124553 4:0.33829094 
1 0 1:4.8606144 2:-0.98095343 3:0.92008802 4:0.37203763 
1 0 1:4.7606233 2:-0.99991101 3:0.91700929 4:0.40473867 
1 0 1:4.6590732 2:-1.0155009 3:0.9129932 4:0.43616405 
1 0 1:4.5570011 2:-1.0207214 3:0.908905 4:0.46607478 
1 0 1:4.4527801 2:-1.0422095 3:0.90399174 4:0.49434608 
1 0 1:4.3454318 2:-1.0734832 3:0.89761863 4:0.52100256 
1 0 1:4.2358953 2:-1.0953651 3:0.89173025 4:0.54608292 
1 0 1:4.1223472 2:-1.1354808 3:0.88995061 4:0.56968365 
1 0 1:4.0054443 2:-1.1690292 3:0.89316478 4:0.59192204 
1 0 1:3.8846432 2:-1.2080112 3:0.89905267 4:0.6129312 
1 0 1:3.7609112 2:-1.2373202 3:0.90408229 4:0.63277574 
1 0 1:3.6342642 2:-1.2664696 3:0.9068341 4:0.65148083 
1 0 1:3.5066034 2:-1.2766075 3:0.90724704 4:0.66907763 
1 0 1:3.3737017 2:-1.3290178 3:0.90661061 4:0.68561776 
1 0 1:3.2350648 2:-1.3863688 3:0.90643601 4:0.7011531 
1 0 1:3.097391 2:-1.3767384 3:0.90519665 4:0.71574459 
1 0 1:2.9613713 2:-1.3601967 3:0.90289197 4:0.72946976 
1 0 1:2.818277 2:-1.4309429 3:0.89935682 4:0.74245339 
1 0 1:2.676241 2:-1.4203602 3:0.89434071 4:0.75475028 
1 0 1:2.5463429 2:-1.2989805 3:0.88884706 4:0.76639732 
1 0 1:2.4171331 2:-1.2920985 3:0.88330213 4:0.77742119 
1 0 1:2.2989833 2:-1.1814976 3:0.8783937 4:0.78785546 
1 0 1:2.183764 2:-1.152193 3:0.87549971 4:0.79772467 
1 0 1:2.0713968 2:-1.1236721 3:0.87421128 4:0.80703015 
1 0 1:1.9703713 2:-1.0102557 3:0.87457018 4:0.81583891 
1 0 1:1.8712416 2:-0.99129674 3:0.87503768 4:0.82392921 
1 0 1:1.7878236 2:-0.83418017 3:0.87341619 4:0.83178214 
1 0 1:1.7010648 2:-0.867588 3:0.86917016 4:0.83961517 
1 0 1:1.6349896 2:-0.66075134 3:0.86158658 4:0.8469097 
1 0 1:1.5627043 2:-0.72285296 3:0.85406143 4:0.85340882 
1 0 1:1.5173986 2:-0.45305718 3:0.84991207 4:0.85907646 
1 0 1:1.4646984 2:-0.52700196 3:0.84857561 4:0.86447237 
1 0 1:1.4373697 2:-0.2732871 3:0.84855959 4:0.86997299 
1 0 1:1.4018798 2:-0.3548992 3:0.8498627 4:0.87525933 
1 1 1:1.3896319 2:-0.12247926 3:0.85322732 4:0.88024763 
1 1 1:1.375173 2:-0.14458874 3:0.85793605 4:0.88492468 
1 1 1:1.3766484 2:0.014754027 3:0.86171086 4:0.88934545 
1 1 1:1.386059 2:0.094106122 3:0.86293613 4:0.89354044 
1 1 1:1.3986639 2:0.12604898 3:0.86164924 4:0.89753693 
0 1 1:1.4322689 2:0.33605008 3:0.85960007 4:0.90134341 
1 0 1:3.8776762 2:-0.72095634 3:0.84611717 4:0.061375794 
1 0 1:3.7968148 2:-0.80861368 3:0.84611717 4:0.071011219 
1 0 1:3.7130661 2:-0.8374869 3:0.84611717 4:0.084159645 
1 0 1:3.6230354 2:-0.90030677 3:0.84611717 4:0.099691807 
1 0 1:3.5359307 2:-0.87104719 3:0.84611717 4:0.11596741 
1 0 1:3.4500401 2:-0.85890663 3:0.84611717 4:0.13346993 
1 0 1:3.8318211 2:-0.84942753 3:0 4:2.9745737e-005 
1 0 1:3.7474655 2:-0.84355592 3:0 4:4.9638232e-005 
1 0 1:3.6623269 2:-0.85138679 3:0 4:9.3032528e-005 
1 0 1:3.5695694 2:-0.92757442 3:0 4:0.00019185231 
1 0 1:3.4763169 2:-0.93252469 3:0 4:0.00040822093 
1 0 1:3.3872088 2:-0.89108155 3:0 4:0.00082965007 
1 0 1:3.3085518 2:-0.78657034 3:0 4:0.001589425 
1 0 1:3.4988617 2:-0.4597839 3:0.99990186 4:0.90267091 
1 0 1:3.4532427 2:-0.45618939 3:0.99972565 4:0.90267091 
1 0 1:3.4117732 2:-0.41469588 3:0.99897895 4:0.90267091 
1 0 1:3.3777333 2:-0.34039876 3:0.99864241 4:0.90267091 
1 0 1:3.340408 2:-0.37325297 3:0.99918067 4:0.90267091 
1 0 1:3.3064811 2:-0.33926867 3:0.99952608 4:0.90267091 
1 0 1:3.2712939 2:-0.35187257 3:0.99967816 4:0.90267091 
1 0 1:3.223406 2:-0.47887833 3:0.99989511 4:0.90267091 
1 0 1:3.1672658 2:-0.56140192 3:0.99999448 4:0.90267091 
1 0 1:3.0968321 2:-0.70433742 3:0.99999998 4:0.90267091 
1 0 1:3.0263294 2:-0.70502673 3:1 4:0.90267091 
1 0 1:2.9557038 2:-0.70625666 3:1 4:0.90267091 
1 0 1:2.8864454 2:-0.69258323 3:1 4:0.90267091 
1 0 1:2.8249869 2:-0.61458486 3:1 4:0.90267091 
1 0 1:2.7618191 2:-0.63167848 3:1 4:0.90267091 
1 0 1:2.7015554 2:-0.60263722 3:1 4:0.90267091 
1 0 1:2.6482962 2:-0.532592 3:0.99999996 4:0.90267091 
1 0 1:2.6011328 2:-0.47163359 3:0.99999954 4:0.90267091 
1 0 1:2.560287 2:-0.40845842 3:1 4:0.90267091 
1 0 1:2.5269292 2:-0.33357819 3:1 4:0.90267091 
1 0 1:2.4919114 2:-0.35017798 3:1 4:0.90267091 
1 0 1:2.4563277 2:-0.35583611 3:1 4:0.90267091 
1 0 1:2.4290552 2:-0.27272556 3:1 4:0.90267091 
1 0 1:2.3944517 2:-0.34603512 3:1 4:0.90267091 
1 0 1:2.3705329 2:-0.23918791 3:1 4:0.90267091 
1 0 1:2.3453286 2:-0.25204294 3:0.99923559 4:0.90267091 
1 0 1:2.3224061 2:-0.22922452 3:0.38046167 4:0.90267091 
1 0 1:2.3047269 2:-0.17679258 3:0.2659306 4:0.90267091 
1 0 1:2.5541567 2:-0.11498613 3:1 4:0.90267091 
1 0 1:2.5384312 2:-0.15725477 3:1 4:0.90267091 
1 0 1:2.516737 2:-0.21694154 3:1 4:0.90267091 
1 0 1:2.486591 2:-0.30146071 3:1 4:0.90267091 
1 0 1:2.4419214 2:-0.44669559 3:0.99999998 4:0.90267091 
1 0 1:2.3771494 2:-0.64771977 3:0.9065279 4:0.90267091 
1 0 1:2.3048457 2:-0.72303759 3:0.53897266 4:0.90267091 
1 0 1:5.30245 2:-1.2772119 3:0 4:0 
1 0 1:5.1652946 2:-1.3715543 3:0 4:0 
1 0 1:5.0196457 2:-1.4564888 3:0 4:0 
1 0 1:4.86155 2:-1.5809568 3:0 4:0 
1 0 1:4.7034758 2:-1.5807419 3:0 4:0 
1 0 1:4.5515268 2:-1.5194906 3:0 4:0 
1 0 1:4.4131969 2:-1.3832985 3:0 4:0 
1 0 1:4.2821704 2:-1.3102651 3:0 4:0 
1 0 1:4.1546307 2:-1.2753969 3:0 4:0 
1 0 1:4.0242685 2:-1.3036228 3:0 4:0 
1 0 1:3.8991205 2:-1.25148 3:0 4:0 
1 0 1:3.7820769 2:-1.1704357 3:0 4:0 
1 0 1:3.6629329 2:-1.1914395 3:0 4:0 
1 0 1:3.5582421 2:-1.0469083 3:0 4:0 
1 0 1:3.4615301 2:-0.96711997 3:0 4:0 
1 0 1:3.374794 2:-0.86736118 3:0 4:0 
1 0 1:3.2994158 2:-0.75378146 3:0 4:0 
1 0 1:3.2319684 2:-0.67447445 3:0 4:0 
1 0 1:3.6824587 2:-0.67265895 3:0.99270252 4:0 
1 0 1:3.600949 2:-0.81509652 3:0.87763665 4:0 
1 0 1:3.5093731 2:-0.91575909 3:0.85629796 4:0 
1 0 1:3.4068522 2:-1.0252093 3:0.84007229 4:0 
1 0 1:3.2984205 2:-1.0843169 3:0.83244513 4:0 
1 0 1:3.1762177 2:-1.2220283 3:0.82955357 4:0 
1 0 1:3.056782 2:-1.194357 3:0.82846465 4:0 
1 0 1:2.9448045 2:-1.119775 3:0 4:0 
1 0 1:2.8361056 2:-1.0869893 3:0 4:0 
1 0 1:2.7281536 2:-1.0795197 3:0 4:0 
1 0 1:2.6237102 2:-1.044434 3:0 4:0 
1 0 1:2.520973 2:-1.0273717 3:0 4:0 
1 0 1:2.4303103 2:-0.90662676 3:0 4:0 
1 0 1:2.3531261 2:-0.77184263 3:0 4:0 
1 1 1:2.2801652 2:-0.72960872 3:0 4:0 
1 1 1:2.2188481 2:-0.61317081 3:0 4:0 
1 1 1:2.1689982 2:-0.49849957 3:0 4:0 
1 1 1:2.1204121 2:-0.48586082 3:0 4:0 
1 1 1:2.0852509 2:-0.3516115 3:0 4:0 
1 1 1:2.0612635 2:-0.23987413 3:0.74610543 4:0 
0 1 1:2.0456174 2:-0.15646102 3:0.73850846 4:0 
0 1 1:2.0332784 2:-0.12339003 3:0.73747043 4:0 
0 1 1:2.0309838 2:-0.022945883 3:0.74256256 4:0 
0 1 1:2.0381942 2:0.072104157 3:0.74637335 4:0 
0 1 1:2.0547086 2:0.16514343 3:0.74423383 4:0 
0 1 1:2.0803904 2:0.25681777 3:0.73498286 4:0 
0 1 1:2.1154972 2:0.35106852 3:0.718077 4:0 
0 1 1:2.1616235 2:0.46126303 3:0.70012585 4:0 
0 1 1:2.2076279 2:0.46004361 3:0.68580862 4:0 
0 1 1:2.2624992 2:0.54871355 3:0.67626523 4:0 
0 1 1:2.3242584 2:0.61759146 3:0.67390752 4:0 
0 0.696082088021361 1:2.3862695 2:0.6201111 3:0.67234285 4:0 
0 1 1:2.361367 2:-0.30316257 3:0.01037334 4:0 
0 1 1:2.3272378 2:-0.34129118 3:0.0016803886 4:0.0010894425 
0 1 1:2.2944315 2:-0.32806368 3:1.5901716e-005 4:0.018372274 
0 1 1:2.2650801 2:-0.29351404 3:0 4:0.055237744 
0 1 1:2.2369316 2:-0.28148484 3:0 4:0.10417887 
1 1 1:2.2028415 2:-0.34090031 3:0 4:0.15717347 
0 1 1:2.1787819 2:-0.24059687 3:0 4:0.20505464 
1 1 1:2.1458599 2:-0.32921925 3:0 4:0.24608547 
0 1 1:2.120882 2:-0.24977953 3:0 4:0.28059251 
0 1 1:2.0992375 2:-0.21644453 3:0 4:0.30698264 
1 1 1:2.0718631 2:-0.27374386 3:0 4:0.33389439 
0 1 1:2.0489816 2:-0.22881542 3:0 4:0.36556223 
0 1 1:2.0781326 2:0.22268901 3:0.90309114 4:0 
0 1 1:2.1021634 2:0.24030826 3:0.90778447 4:0 
0 1 1:2.1286383 2:0.26474909 3:0.91222078 4:0 
0 1 1:2.139991 2:0.11352665 3:0.91290277 4:0 
0 1 1:2.1578472 2:0.17856198 3:0.90892861 4:0 
0 1 1:2.1621922 2:0.043449845 3:0.90266039 4:0 
0 1 1:2.16946 2:0.072678221 3:0.89673575 4:0 
0 1 1:2.1784175 2:0.089574938 3:0.89248434 4:0 
0 1 1:2.1883044 2:0.098869441 3:0.89026137 4:0 
0 1 1:2.1949491 2:0.06644688 3:0.88881687 4:0 
0 1 1:2.2034311 2:0.084819703 3:0.88675782 4:0 
0 1 1:2.2136523 2:0.10221208 3:0.88313327 4:0 
0 1 1:2.22169 2:0.080377474 3:0.87634453 4:0 
0 1 1:2.2294154 2:0.077254017 3:0.86483101 4:0 
0 1 1:2.2353254 2:0.059099338 3:0.84940476 4:0 
0 1 1:2.2383114 2:0.029860246 3:0.83524126 4:0 
0 1 1:2.231526 2:-0.067853545 3:0.82760087 4:0 
0 1 1:2.2157555 2:-0.15770542 3:0.82934965 4:0 
0 1 1:2.1994896 2:-0.16265886 3:0.83790673 4:0 
0 1 1:2.184249 2:-0.15240591 3:0.84741465 4:0 
1 1 1:2.1624945 2:-0.21754472 3:0.85475212 4:0 
0 1 1:2.14368 2:-0.18814516 3:0.86036856 4:0 
0 1 1:2.1255432 2:-0.18136832 3:0.86570454 4:0 
1 1 1:2.1063492 2:-0.19193952 3:0.87236526 4:0 
1 1 1:2.0820256 2:-0.24323625 3:0.87885275 4:0 
1 1 1:2.055585 2:-0.26440617 3:0.88110099 4:0 
1 1 1:2.0298967 2:-0.2568828 3:0.87827419 4:0 
1 1 1:2.0052875 2:-0.24609218 3:0.87167272 4:0 
1 1 1:1.9840046 2:-0.21282929 3:0.8648441 4:1.9509868e-005 
1 1 1:1.9657877 2:-0.18216873 3:0.86085468 4:0.009511255 
1 1 1:1.9515862 2:-0.14201493 3:0.85875267 4:0.038690024 
0 1 1:1.9419438 2:-0.096423733 3:0.85717257 4:0.079129823 
0 1 1:1.9350586 2:-0.068852308 3:0.85592556 4:0.12546907 
0 1 1:1.9297438 2:-0.053148363 3:0.85470196 4:0.17346422 
0 1 1:1.9223796 2:-0.07364191 3:0.85315494 4:0.22102409 
1 1 1:1.9114179 2:-0.10961662 3:0.85103493 4:0.2669381 
1 1 1:1.9027136 2:-0.087043231 3:0.84853193 4:0.3105855 
1 1 1:1.896274 2:-0.064395468 3:0.84584747 4:0.35173787 
0 1 1:1.8927562 2:-0.035178891 3:0.84320466 4:0.39035473 
0.6645682822574867 0 1:1.8891781 2:-0.029149676 3:0.83083129 4:0.45997996 
1 0 1:1.8851059 2:-0.040722367 3:0.82141546 4:0.49116087 
1 0 1:1.9989147 2:-0.015963227 3:0.71081746 4:0.81117824 
1 0 1:2.0048392 2:-0.0071989221 3:0.70189647 4:0.82691282 
1 0 1:2.0050193 2:0.0018001507 3:0.71381545 4:0.8332675 
1 0 1:2.0101746 2:0.0065309556 3:0.76985533 4:0.84411881 
1 0 1:2.9762933 2:-0.22845022 3:0.92633261 4:0.92505407 
1 0 1:2.9439979 2:-0.32295453 3:0.92817808 4:0.9268744 
1 0 1:2.8987198 2:-0.45278089 3:0.92856314 4:0.9283981 
1 0 1:2.8532794 2:-0.45440406 3:0.92834034 4:0.92938287 
1 0 1:2.8034441 2:-0.49835284 3:0.92912885 4:0.93031146 
1 0 1:2.7625644 2:-0.40879687 3:0.93131783 4:0.93121822 
1 0 1:2.7158626 2:-0.46701856 3:0.93450515 4:0.93215676 
1 0 1:2.6742057 2:-0.4165691 3:0.9334951 4:0.93311267 
1 0 1:2.6263004 2:-0.47905279 3:0.92397867 4:0.93403052 
1 0 1:2.5778715 2:-0.48428877 3:0.91127738 4:0.93480437 
1 0 1:2.5256483 2:-0.52223195 3:0.90053687 4:0.93536192 
1 0 1:6.2548893 2:-1.2887748 3:0 4:0.90267091 
1 0 1:6.100847 2:-1.5404232 3:0 4:0.90267091 
1 0 1:5.9216212 2:-1.7922577 3:0 4:0.90267091 
1 0 1:5.7179432 2:-2.0367794 3:0 4:0.90267091 
1 0 1:5.4887594 2:-2.2918382 3:0 4:0.90267091 
1 0 1:5.2361482 2:-2.5261119 3:0 4:0.90267091 
1 0 1:4.9662682 2:-2.6988007 3:0 4:0.90267091 
1 0 1:4.6812066 2:-2.8506154 3:0 4:0.90267091 
1 0 1:4.3893202 2:-2.918864 3:0 4:0.90267091 
1 0 1:5.5345934 2:-0.93416162 3:1 4:0.90267091 
1 0 1:5.4393854 2:-0.95207991 3:0.99999608 4:0.90267091 
1 0 1:5.345042 2:-0.94343373 3:0.80294101 4:0.90267091 
1 0 1:5.2533735 2:-0.91668569 3:0.76652789 4:0.90267091 
1 0 1:5.1685305 2:-0.8484301 3:0.72748939 4:0.90267091 
1 0 1:4.3776155 2:-0.87871004 3:0.64564789 4:0.90267091 
1 0 1:4.2743748 2:-1.0324066 3:0.64019468 4:0.90267091 
1 0 1:4.1591462 2:-1.1522859 3:0.63559677 4:0.90267091 
1 0 1:4.0311448 2:-1.2800141 3:0.62214317 4:0.90267091 
1 0 1:3.8851805 2:-1.459643 3:0.60078627 4:0.90267091 
1 0 1:3.727071 2:-1.5810948 3:0.57790999 4:0.90267091 
1 0 1:3.5596324 2:-1.6743858 3:0.55747787 4:0.90267091 
1 0 1:3.3853517 2:-1.7428078 3:0.53743426 4:0.90267091 
1 0 1:3.1999517 2:-1.8539999 3:0.51845806 4:0.90267091 
1 0 1:3.0059059 2:-1.9404577 3:0.50430854 4:0.90267091 
1 0 1:2.8044988 2:-2.0140705 3:0.49583808 4:0.90267091 
1 0 1:2.5964363 2:-2.0806253 3:0.48936941 4:0.90267091 
1 0 1:4.7479089 2:-0.72948954 3:1 4:0.98098733 
1 0 1:4.6633144 2:-0.8459449 3:1 4:0.98121223 
1 0 1:4.5683108 2:-0.95003553 3:0.99999998 4:0.98145665 
1 0 1:4.4662289 2:-1.0208197 3:0.999975 4:0.98174008 
1 0 1:4.3585101 2:-1.0771873 3:0.98988015 4:0.98203441 
1 0 1:4.2469385 2:-1.115716 3:0.8176573 4:0.98230863 
1 0 1:4.1331167 2:-1.1382183 3:0.80750242 4:0.98254025 
1 0 1:4.0167161 2:-1.164006 3:0.79885571 4:0.98275056 
1 0 1:3.8965432 2:-1.201729 3:0.79205732 4:0.98296591 
1 0 1:3.7780466 2:-1.1849658 3:0.7873852 4:0.98317736 
1 0 1:3.66557 2:-1.1247661 3:0.7842562 4:0.98338435 
1 0 1:6.0279059 2:-1.1359674 3:1 4:0.90267091 
1 0 1:5.9115262 2:-1.1637972 3:1 4:0.90267091 
1 0 1:5.7951274 2:-1.1639882 3:1 4:0.90267091 
1 0 1:5.6858864 2:-1.09241 3:1 4:0.90267091 
1 0 1:5.5889719 2:-0.96914468 3:1 4:0.90267091 
1 0 1:5.4965813 2:-0.92390615 3:1 4:0.90267091 
1 0 1:5.4096323 2:-0.86949021 3:1 4:0.90267091 
0.1925550084072281 0 1:5.3257297 2:-0.839026 3:1 4:0.90267091 
1 0 1:5.2440434 2:-0.81686326 3:1 4:0.90267091 
1 0 1:5.1363281 2:-1.0302367 3:0.076824795 4:0.90267091 
1 0 1:5.0357005 2:-1.0062766 3:0.081913128 4:0.90267091 
1 0 1:4.935099 2:-1.0060149 3:0.026398745 4:0.90267091 
1 0 1:4.8301062 2:-1.049928 3:0.022143244 4:0.90267091 
1 0 1:4.7281265 2:-1.0197972 3:0.018622889 4:0.90267091 
1 0 1:4.6260626 2:-1.0206383 3:0.016030163 4:0.90267091 
1 0 1:4.5339482 2:-0.92114424 3:0.014595344 4:0.90267091 
1 0 1:4.444105 2:-0.89843234 3:0.071071772 4:0.90267091 
1 0 1:4.3639911 2:-0.80113883 3:0.027375206 4:0.90267091 
1 0 1:5.1372681 2:-0.97962093 3:1 4:0.90267091 
1 0 1:5.0323907 2:-1.0487738 3:1 4:0.90267091 
1 0 1:4.9210721 2:-1.1131856 3:1 4:0.90267091 
1 0 1:4.8051494 2:-1.1592275 3:1 4:0.90267091 
1 0 1:4.6990734 2:-1.0607597 3:1 4:0.90267091 
1 0 1:4.6128351 2:-0.86238295 3:1 4:0.90267091 
1 0 1:4.5400401 2:-0.85940664 3:0.60064789 4:0.90267091 
1 0 1:4.4408794 2:-0.99160711 3:0.57943547 4:0.90267091 
1 0 1:4.3349059 2:-1.0597347 3:0.56365271 4:0.90267091 
1 0 1:4.2183298 2:-1.1657611 3:0.55171803 4:0.90267091 
1 0 1:4.1018641 2:-1.1646572 3:0.5411479 4:0.90267091 
1 0 1:3.9834387 2:-1.1842537 3:0.53156016 4:0.90267091 
1 0 1:3.8636686 2:-1.1977011 3:0.52521469 4:0.90267091 
1 0 1:3.7493628 2:-1.143058 3:0.51839585 4:0.90267091 
1 0 1:3.6418185 2:-1.0754432 3:0.50746849 4:0.90267091 
1 0 1:3.5434791 2:-0.98339339 3:0.49031604 4:0.90267091 
1 0 1:3.4618065 2:-0.81672607 3:0.46705327 4:0.90267091 
1 0 1:3.392094 2:-0.69712489 3:0.44232099 4:0.90267091 
1 0 1:3.3321211 2:-0.59972988 3:0.4158804 4:0.90267091 
1 0 1:3.2799334 2:-0.52187654 3:0.38559529 4:0.90267091 
1 0 1:3.2374736 2:-0.42459804 3:0.35122118 4:0.90267091 
1 0 1:3.0358238 2:-0.43054317 3:0.99923399 4:0 
1 0 1:2.9948219 2:-0.41001844 3:1 4:0 
1 0 1:2.7005406 2:-0.37883226 3:0.31552675 4:0.34366848 
1 0 1:2.6406002 2:-0.59940373 3:0.27747958 4:0.41104546 
1 0 1:2.5634949 2:-0.7710528 3:0.23649287 4:0.46572322 
1 0 1:2.4761921 2:-0.87302809 3:0.20224165 4:0.51256378 
1 0 1:2.3789751 2:-0.97216987 3:0.17704553 4:0.55631433 
1 0 1:2.270614 2:-1.0836109 3:0.15719411 4:0.59864618 
1 0 1:2.1633582 2:-1.0725582 3:0.13582535 4:0.63641206 
1 0 1:2.0505932 2:-1.1276505 3:0.11566923 4:0.6678219 
1 0 1:1.9170183 2:-1.3357493 3:0.099381162 4:0.69563177 
1 0 1:5.172988 2:-1.040453 3:0 4:0.73454141 
1 0 1:5.0693745 2:-1.0361352 3:0 4:0.73209653 
1 0 1:4.9592388 2:-1.1013573 3:0 4:0.72908444 
1 0 1:4.849836 2:-1.0940283 3:0 4:0.72602734 
1 0 1:4.7410017 2:-1.0883421 3:0 4:0.7229145 
1 0 1:4.6288375 2:-1.1216427 3:0 4:0.71974863 
1 0 1:4.525518 2:-1.0331945 3:0 4:0.71651123 
1 0 1:4.4298725 2:-0.95645555 3:0 4:0.7131928 
1 0 1:4.337226 2:-0.92646453 3:0 4:0.70979988 
1 0 1:4.2496953 2:-0.8753076 3:0 4:0.70634859 
1 0 1:4.1602939 2:-0.89401381 3:1 4:0.70285015 
1 0 1:4.0786779 2:-0.81615951 3:1 4:0.69930523 
1 0 1:4.0057566 2:-0.72921298 3:1 4:0.70160357 
1 0 1:3.9365793 2:-0.69177289 3:1 4:0.711499 
1 0 1:3.8788348 2:-0.5774455 3:1 4:0.72051092 
1 0 1:3.8251405 2:-0.5369429 3:1 4:0.72175003 
1 0 1:4.1387945 2:-0.5183674 3:1 4:0.90267091 
1 0 1:4.0785113 2:-0.60283136 3:1 4:0.90267091 
1 0 1:4.0054806 2:-0.73030731 3:1 4:0.90267091 
1 0 1:5.2969518 2:-1.0954933 3:0.74486627 4:0 
1 0 1:5.1873462 2:-1.0960555 3:0.99949214 4:0 
1 0 1:5.0828611 2:-1.0448518 3:0.99999461 4:0 
1 0 1:6.9023154 2:-1.2681691 3:1 4:0.92481933 
1 0 1:6.752797 2:-1.495184 3:1 4:0.92481134 
1 0 1:6.5833544 2:-1.6944251 3:1 4:0.93040255 
1 0 1:6.3975046 2:-1.8584982 3:1 4:0.93528856 
1 0 1:3.9571508 2:-0.64854697 3:0 4:0.90267091 
1 0 1:3.6157189 2:-0.56160288 3:1 4:0.90267091 
1 0 1:3.5610176 2:-0.5470124 3:1 4:0.90267091 
1 0 1:3.5067177 2:-0.54299891 3:1 4:0.90267091 
1 0 1:3.4551237 2:-0.51594039 3:1 4:0.90267091 
1 0 1:3.4101328 2:-0.44990875 3:1 4:0.90267091 
1 0 1:3.3761362 2:-0.33996574 3:1 4:0.90267091 
1 0 1:4.5223923 2:-0.77428402 3:0.46098094 4:0.90267091 
1 0 1:4.4413516 2:-0.81040657 3:0.43452 4:0.90267091 
1 0 1:4.3545772 2:-0.86774415 3:0.41448886 4:0.90267091 
1 0 1:4.2576741 2:-0.96903089 3:0.40067253 4:0.90267091 
1 0 1:4.1583576 2:-0.99316493 3:0.3892937 4:0.90267091 
1 0 1:4.0487 2:-1.0965765 3:0.37863594 4:0.90267091 
1 0 1:3.940221 2:-1.08479 3:0.37053108 4:0.90267091 
1 0 1:6.7349903 2:-1.2753483 3:1 4:0.90267091 
1 0 1:6.5994837 2:-1.3550655 3:1 4:0.90267091 
1 0 1:6.4576082 2:-1.4187553 3:1 4:0.90267091 
1 0 1:6.3118671 2:-1.4574113 3:1 4:0.90267091 
1 0 1:6.1686724 2:-1.4319466 3:1 4:0.90267091 
1 0 1:6.0231223 2:-1.4555007 3:1 4:0.90267091 
1 0 1:5.8857242 2:-1.3739817 3:1 4:0.90267091 
1 0 1:5.7536838 2:-1.3204038 3:1 4:0.90267091 
1 0 1:5.633938 2:-1.197458 3:1 4:0.90267091 
1 0 1:5.5245499 2:-1.0938805 3:1 4:0.90267091 
1 0 1:5.4174605 2:-1.0708947 3:1 4:0.90267091 
1 0 1:5.3112218 2:-1.0623863 3:1 4:0.90267091 
1 0 1:5.2084511 2:-1.0277073 3:1 4:0.90267091 
1 0 1:5.1087015 2:-0.9974957 3:1 4:0.90267091 
1 0 1:5.0117439 2:-0.96957654 3:1 4:0.90267091 
1 0 1:4.9188376 2:-0.92906254 3:1 4:0.90267091 
1 0 1:4.8359766 2:-0.82861054 3:1 4:0.90267091 
1 0 1:4.7592346 2:-0.76742018 3:1 4:0.90267091 
1 0 1:4.6922733 2:-0.66961254 3:1 4:0.90267091 
1 0 1:5.0369312 2:-0.98895643 3:0 4:0.94021743 
1 0 1:4.9451199 2:-0.91811291 3:0 4:0.94292889 
1 0 1:4.6593654 2:-0.80979684 3:0.9024241 4:0.58249612 
1 0 1:4.5615057 2:-0.97859687 3:0.89207104 4:0.60126087 
1 0 1:4.4465263 2:-1.1497941 3:0.88222627 4:0.61986908 
1 0 1:4.3166513 2:-1.2987493 3:0.87742405 4:0.63823526 
1 0 1:4.168909 2:-1.4774228 3:0.87962101 4:0.65617512 
1 0 1:4.0029939 2:-1.6591518 3:0.88654264 4:0.67346495 
1 0 1:3.8215715 2:-1.8142233 3:0.89344021 4:0.68993599 
1 0 1:3.6247369 2:-1.9683462 3:0.89701663 4:0.70559027 
1 0 1:3.4079337 2:-2.1680317 3:0.89590109 4:0.72046219 
1 0 1:7.4707724 2:-1.5296412 3:0.99152098 4:0.90267091 
1 0 1:4.8670947 2:-1.0003177 3:0.50883779 4:0.64859596 
1 0 1:4.7600636 2:-1.0703111 3:0.4758661 4:0.66493394 
1 0 1:4.6505968 2:-1.0946679 3:0.46326343 4:0.67998404 
1 0 1:4.5427132 2:-1.0788359 3:0.45660414 4:0.69392308 
1 0 1:4.4365476 2:-1.0616568 3:0.44702317 4:0.70697741 
1 0 1:4.327487 2:-1.0906055 3:0.43017949 4:0.71933698 
1 0 1:4.2108186 2:-1.1666846 3:0.40761764 4:0.73113898 
1 0 1:4.0930861 2:-1.1773249 3:0.38369778 4:0.7424883 
1 0 1:3.9794862 2:-1.1359986 3:0.36292506 4:0.75257238 
1 0 1:3.8697469 2:-1.0973928 3:0.34417302 4:0.76500877 
1 0 1:3.7638476 2:-1.0589933 3:0.32478208 4:0.77815472 
1 0 1:3.6598171 2:-1.0403053 3:0.30449431 4:0.79278343 
1 0 1:3.5671102 2:-0.92706835 3:0.28349224 4:0.80509877 
1 0 1:3.4878983 2:-0.79211915 3:0.2613456 4:0.81550273 
1 0 1:3.4212315 2:-0.6666687 3:0.23723848 4:0.82343143 
1 0 1:3.3653265 2:-0.5590491 3:0.21071429 4:0.83061435 
1 0 1:3.3147813 2:-0.50545204 3:0.18371523 4:0.83749233 
1 0 1:4.8460104 2:-1.0185056 3:0.48845015 4:0 
1 0 1:4.7377583 2:-1.0825215 3:0.4572035 4:0 
1 0 1:4.6293561 2:-1.0840212 3:0.42034228 4:0 
1 0 1:4.5143635 2:-1.149926 3:0.38778548 4:0 
1 0 1:4.3940804 2:-1.2028311 3:0.3678874 4:0 
1 0 1:4.2721848 2:-1.2189559 3:0.35492009 4:0 
1 0 1:4.1492734 2:-1.229114 3:0.34007202 4:0 
1 0 1:4.0240032 2:-1.2527027 3:0.31751291 4:0 
1 0 1:3.8936604 2:-1.3034276 3:0.28906609 4:0 
1 0 1:3.7591115 2:-1.3454889 3:0.2638639 4:0 
1 0 1:3.6230715 2:-1.3603998 3:0.24418913 4:0 
1 0 1:3.4910392 2:-1.3203236 3:0.22810983 4:0 
1 0 1:3.3589829 2:-1.3205623 3:0.21698716 4:0 
1 0 1:3.2427066 2:-1.1627633 3:0.20766647 4:0 
1 0 1:3.1285332 2:-1.141734 3:0.1976859 4:0 
1 0 1:3.0246724 2:-1.0386079 3:0.18486416 4:0 
1 0 1:2.9160131 2:-1.0865933 3:0.16822841 4:0 
1 0 1:2.8189074 2:-0.97105705 3:0.14951703 4:0 
1 0 1:2.7297984 2:-0.89109037 3:0.1309574 4:0.002856703 
1 0 1:2.6446973 2:-0.85101053 3:0.11289896 4:0.02256682 
1 0 1:2.5734135 2:-0.71283815 3:0.095423602 4:0.057632982 
1 0 1:2.5112077 2:-0.6220582 3:0.080093804 4:0.10102193 
1 0 1:2.4543337 2:-0.56873964 3:0.06705911 4:0.14788146 
1 0 1:2.4102529 2:-0.44080766 3:0.053776809 4:0.19584339 
1 0 1:5.7957622 2:-1.0310327 3:0.69292544 4:0.90267091 
1 0 1:5.6949294 2:-1.0083288 3:0.67591221 4:0.90267091 
1 0 1:5.400268 2:-1.0950584 3:0 4:0.90267091 
1 0 1:5.2846165 2:-1.1565149 3:0 4:0.90267091 
1 0 1:5.1627207 2:-1.2189582 3:0 4:0.90267091 
1 0 1:5.0351409 2:-1.2757978 3:0 4:0.90267091 
1 0 1:4.9063535 2:-1.2878745 3:0 4:0.90267091 
1 0 1:4.7711981 2:-1.3515534 3:0 4:0.90267091 
1 0 1:4.6388114 2:-1.3238674 3:0 4:0.90267091 
1 0 1:4.5042306 2:-1.3458085 3:0 4:0.90267091 
1 0 1:4.3741738 2:-1.3005679 3:0 4:0.90267091 
1 0 1:4.2465629 2:-1.2761091 3:0 4:0.90267091 
1 0 1:4.1214621 2:-1.251008 3:0 4:0.90267091 
1 0 1:3.9990115 2:-1.224506 3:0 4:0.90267091 
1 0 1:3.881456 2:-1.1755545 3:0 4:0.90267091 
1 0 1:3.7731668 2:-1.0828918 3:0 4:0.90267091 
1 0 1:3.6780709 2:-0.95095956 3:0 4:0.90267091 
1 0 1:3.5938726 2:-0.84198283 3:0 4:0.90267091 
1 0 1:3.5144362 2:-0.794364 3:0 4:0.90267091 
1 0 1:3.4362456 2:-0.78190618 3:0 4:0.90267091 
1 0 1:3.3627399 2:-0.73505656 3:0 4:0.90267091 
1 0 1:3.2983735 2:-0.64366444 3:0 4:0.90267091 
1 0 1:3.2441924 2:-0.54181027 3:0 4:0.90267091 
1 0 1:3.1940995 2:-0.50092953 3:0 4:0.90267091 
1 0 1:3.609393 2:-0.46886255 3:0.99993144 4:0.90267091 
1 0 1:3.5515604 2:-0.57832626 3:0.9995551 4:0.90267091 
1 0 1:3.4875699 2:-0.63990456 3:0.99807942 4:0.90267091 
1 0 1:3.4086481 2:-0.78921785 3:0.99835959 4:0.90267091 
1 0 1:3.3208353 2:-0.87812855 3:0.99957475 4:0.90267091 
1 0 1:3.2267247 2:-0.9411057 3:0.99997534 4:0.90267091 
1 0 1:3.1166366 2:-1.1008812 3:0.99999988 4:0.90267091 
1 0 1:3.0046627 2:-1.1197387 3:1 4:0.90267091 
1 0 1:2.8978742 2:-1.0678854 3:1 4:0.90267091 
1 0 1:2.7909682 2:-1.0690596 3:1 4:0.90267091 
1 0 1:2.6949633 2:-0.9600494 3:0.99999915 4:0.90267091 
1 0 1:2.6035376 2:-0.91425617 3:0.99995701 4:0.90267091 
1 0 1:2.5065261 2:-0.97011538 3:0.99987664 4:0.90267091 
1 0 1:2.4183386 2:-0.88187522 3:0.99983995 4:0.90267091 
1 0 1:2.3417381 2:-0.76600501 3:0.99899335 4:0.90267091 
1 0 1:2.2684244 2:-0.7331373 3:0.98355943 4:0.90267091 
1 0 1:2.2015227 2:-0.6690162 3:0.90197441 4:0.90267091 
1 0 1:2.1456482 2:-0.55874566 3:0.84390818 4:0.90267091 
1 0 1:2.1044493 2:-0.41198866 3:0.85008204 4:0.90267091 
1 0 1:2.0814993 2:-0.22949953 3:0.76258612 4:0.90267091 
1 0 1:2.068319 2:-0.13180392 3:0.53316293 4:0.90267091 
1 0 1:4.789003 2:-0.88140574 3:0.092756656 4:0.90267091 
1 0 1:4.6990962 2:-0.89906714 3:0.088536977 4:0.90267091 
1 0 1:4.6047988 2:-0.94297463 3:0.083939867 4:0.90267091 
1 0 1:4.5058476 2:-0.98951157 3:0.075500379 4:0.90267091 
1 0 1:4.4058263 2:-1.0002129 3:0.063741593 4:0.90267091 
1 0 1:4.3042949 2:-1.0153144 3:0.051975485 4:0.90267091 
1 0 1:4.1986843 2:-1.0561056 3:0.043099343 4:0.90267091 
1 0 1:4.0871854 2:-1.1149896 3:0.03683615 4:0.90267091 
1 0 1:3.971114 2:-1.1607139 3:0.031843872 4:0.90267091 
1 0 1:3.85052 2:-1.2059398 3:0.027681356 4:0.90267091 
1 0 1:3.7344041 2:-1.1611591 3:0.024423117 4:0.90267091 
1 0 1:3.6297838 2:-1.0462026 3:0.021964854 4:0.90267091 
1 0 1:3.5251663 2:-1.0461753 3:0.020072891 4:0.90267091 
1 0 1:3.4309706 2:-0.94195731 3:0.018171213 4:0.90267091 
1 0 1:3.3421238 2:-0.88846783 3:0.015948714 4:0.90267091 
1 0 1:3.2565766 2:-0.85547197 3:0.013676771 4:0.90267091 
1 0 1:3.1790506 2:-0.77526002 3:0.012004939 4:0.90267091 
1 0 1:3.1057709 2:-0.73279719 3:0.011567713 4:0.90267091 
1 0 1:3.0366052 2:-0.69165642 3:0.012500712 4:0.90267091 
1 0 1:2.9733655 2:-0.63239714 3:0.09240914 4:0.90267091 
1 0 1:2.9167805 2:-0.56584955 3:0.20473514 4:0.90267091 
1 0 1:2.8658179 2:-0.50962689 3:0.24435229 4:0.90267091 
1 0 1:2.8216711 2:-0.44146804 3:0.25266956 4:0.90267091 
1 0 1:2.7840753 2:-0.37595744 3:0.27228091 4:0.90267091 
1 0 1:2.7533134 2:-0.30761917 3:0.28495088 4:0.90267091 
1 0 1:3.4215368 2:-0.35359341 3:0.94209915 4:0.90267091 
1 0 1:3.3826806 2:-0.38856202 3:0.94096514 4:0.90267091 
1 0 1:3.3326853 2:-0.49995372 3:0.97370307 4:0.90267091 
1 0 1:3.2798621 2:-0.52823187 3:0.99796292 4:0.90267091 
1 0 1:3.2233158 2:-0.5654628 3:0.99999594 4:0.90267091 
1 0 1:3.1629787 2:-0.60337064 3:1 4:0.90267091 
1 0 1:3.1105579 2:-0.52420784 3:1 4:0.90267091 
1 0 1:3.0526698 2:-0.57888173 3:1 4:0.90267091 
1 0 1:2.9999459 2:-0.52723888 3:1 4:0.90267091 
1 0 1:2.9483631 2:-0.51582749 3:1 4:0.90267091 
1 0 1:2.8945024 2:-0.53860734 3:0.99999998 4:0.90267091 
1 0 1:2.8484402 2:-0.46062249 3:0.99999994 4:0.90267091 
1 0 1:2.795074 2:-0.53366159 3:0.99999996 4:0.90267091 
1 0 1:2.7536282 2:-0.41445829 3:0.99999991 4:0.90267091 
1 0 1:2.7155699 2:-0.38058314 3:0.99999837 4:0.90267091 
1 0 1:2.6836009 2:-0.3196895 3:0.9999915 4:0.90267091 
1 0 1:2.6619834 2:-0.21617484 3:0.99999483 4:0.90267091 
1 0 1:2.6423587 2:-0.19624716 3:0.99999977 4:0.90267091 
1 0 1:2.6273829 2:-0.14975761 3:1 4:0.90267091 
1 0 1:2.5957912 2:-0.3159171 3:1 4:0.90267091 
1 0 1:2.5559237 2:-0.39867532 3:1 4:0.90267091 
1 0 1:2.5023285 2:-0.53595244 3:1 4:0.90267091 
1 0 1:2.4507495 2:-0.5157895 3:1 4:0.90267091 
1 0 1:2.4038717 2:-0.46877761 3:1 4:0.90267091 
1 0 1:2.3690125 2:-0.34859228 3:1 4:0.90267091 
1 0 1:2.3418275 2:-0.27184992 3:1 4:0.90267091 
1 0 1:2.3184076 2:-0.23419882 3:1 4:0.90267091 
1 0 1:2.304799 2:-0.13608664 3:1 4:0.90267091 
1 0 1:2.2927878 2:-0.12011215 3:1 4:0.90267091 
1 0 1:2.2846673 2:-0.073025499 3:1 4:0.90267091 
1 0 1:2.2841103 2:-0.042937282 3:1 4:0.90267091 
1 0 1:3.174086 2:-0.36092589 3:1 4:0.90267091 
1 0 1:3.1260254 2:-0.480606 3:1 4:0.90267091 
1 0 1:3.0569061 2:-0.69119378 3:1 4:0.90267091 
1 0 1:2.9838111 2:-0.73094968 3:1 4:0.90267091 
1 0 1:2.8902298 2:-0.93581297 3:1 4:0.90267091 
1 0 1:2.7847796 2:-1.0545016 3:1 4:0.90267091 
1 0 1:2.6627772 2:-1.2200239 3:1 4:0.90267091 
1 0 1:2.5150603 2:-1.4771697 3:1 4:0.90267091 
1 0 1:2.3577176 2:-1.5734268 3:1 4:0.90267091 
1 0 1:4.989835 2:-1.1618007 3:0.92021627 4:0.14400484 
1 0 1:4.8451729 2:-1.4466211 3:0.91260237 4:0.22012604 
1 0 1:4.6699904 2:-1.7518255 3:0.90463983 4:0.29334089 
1 0 1:4.4630741 2:-2.0691624 3:0.89554967 4:0.35826676 
1 0 1:4.2267742 2:-2.3629991 3:0.88669998 4:0.41209701 
1 0 1:3.9597537 2:-2.6702053 3:0.88041855 4:0.45736374 
1 0 1:3.6691982 2:-2.9055543 3:0.87934713 4:0.49471813 
1 0 1:3.3536944 2:-3.1550382 3:0.88313713 4:0.52770784 
1 0 1:6.2941179 2:-1.1615803 3:0.99999956 4:0.78600675 
1 0 1:6.1661085 2:-1.280094 3:0.99997442 4:0.8027906 
1 0 1:6.0283449 2:-1.3776366 3:0.99021625 4:0.84223157 
1 0 1:5.8810803 2:-1.4726457 3:0.94093722 4:0.86032702 
1 0 1:5.1015613 2:-1.0626822 3:0.99999977 4:0.58054521 
1 0 1:4.9710832 2:-1.3047806 3:0.99999999 4:0.60105408 
1 0 1:4.8189637 2:-1.5211948 3:1 4:0.62046928 
1 0 1:4.6452123 2:-1.737514 3:1 4:0.63801388 
1 0 1:4.4520543 2:-1.9315799 3:1 4:0.65270958 
1 0 1:4.24311 2:-2.0894431 3:1 4:0.66490127 
1 0 1:4.0240154 2:-2.1909465 3:0.99998422 4:0.67518969 
1 0 1:3.795061 2:-2.2895434 3:0.86777762 4:0.68553849 
1 0 1:1.9163756 2:-0.24012828 3:1 4:0.90267091 
1 0 1:1.8923627 2:-0.24012828 3:1 4:0.90267091 
1 0 1:1.8631071 2:-0.2925559 3:1 4:0.90267091 
1 0 1:1.8425075 2:-0.2059965 3:1 4:0.90267091 
1 0 1:1.8302088 2:-0.1229871 3:1 4:0.90267091 
1 0 1:1.8282148 2:-0.019940108 3:1 4:0.90267091 
1 0 1:5.9682441 2:-1.4490822 3:0 4:0 
1 0 1:5.7896301 2:-1.78614 3:0 4:0 
1 0 1:5.580534 2:-2.0909608 3:0 4:0 
1 0 1:6.4315028 2:-1.3768691 3:1 4:0.38079224 
1 0 1:6.2851515 2:-1.4635132 3:1 4:0.40471597 
1 0 1:4.7087645 2:-0.92792917 3:0 4:0.73748578 
1 0 1:6.626379 2:-1.4163214 3:0.97792177 4:0 
1 0 1:6.4832799 2:-1.4309918 3:0.80744621 4:0 
1 0 1:6.3463089 2:-1.3697092 3:0.78686776 4:0 
1 0 1:5.7667963 2:-1.3550133 3:0.97384035 4:0 
1 0 1:4.3423643 2:-0.82264135 3:0 4:0.90267091 
1 0 1:4.2452429 2:-0.97121406 3:0 4:0.90267091 
1 0 1:4.1406358 2:-1.0460709 3:0 4:0.90267091 
1 0 1:4.021248 2:-1.1938781 3:0 4:0.90267091 
1 0 1:3.89034 2:-1.3090806 3:0 4:0.90267091 
1 0 1:3.7487563 2:-1.4158364 3:0 4:0.90267091 
1 0 1:3.5977084 2:-1.510479 3:0 4:0.90267091 
1 0 1:4.9644442 2:-0.9846896 3:0.93659008 4:0.00017258375 
1 0 1:4.8543822 2:-1.1006204 3:0.92516841 4:0.0084052861 
1 0 1:4.7276385 2:-1.2674362 3:0.90963658 4:0.030918792 
1 0 1:4.5845295 2:-1.4310907 3:0.89965083 4:0.061521691 
1 0 1:4.4253415 2:-1.5918796 3:0.89253704 4:0.10496341 
1 0 1:4.2511521 2:-1.7418937 3:0.88397524 4:0.16031042 
1 0 1:4.0630159 2:-1.8813624 3:0.88151742 4:0.21639251 
1 0 1:3.8587436 2:-2.0427233 3:0.88817584 4:0.26075471 
1 0 1:4.1668152 2:-0.65500441 3:1 4:0.90267091 
1 0 1:4.1015598 2:-0.65255395 3:1 4:0.90267091 
1 0 1:4.0368513 2:-0.64708555 3:1 4:0.90267091 
1 0 1:3.9733421 2:-0.63509204 3:1 4:0.90267091 
1 0 1:3.913379 2:-0.59963101 3:1 4:0.90267091 
1 0 1:3.8632519 2:-0.50127065 3:1 4:0.90267091 
1 0 1:3.6744625 2:-0.40828177 3:1 4:0.90267091 
1 0 1:3.6270208 2:-0.47441653 3:1 4:0.90267091 
1 0 1:3.5802839 2:-0.46736864 3:1 4:0.90267091 
1 0 1:3.5302348 2:-0.50049182 3:1 4:0.90267091 
1 0 1:3.4767976 2:-0.5343719 3:1 4:0.90267091 
1 0 1:3.4214675 2:-0.55330085 3:1 4:0.90267091 
1 0 1:3.3631087 2:-0.58358756 3:1 4:0.90267091 
1 0 1:3.3018281 2:-0.61280624 3:1 4:0.90267091 
1 0 1:3.2362605 2:-0.65567576 3:1 4:0.90267091 
1 0 1:3.1715538 2:-0.64706766 3:1 4:0.90267091 
1 0 1:3.1088322 2:-0.62721569 3:1 4:0.90267091 
1 0 1:3.0541364 2:-0.54695769 3:1 4:0.90267091 
1 0 1:3.0128926 2:-0.41243799 3:1 4:0.90267091 
1 0 1:2.9781508 2:-0.3474184 3:1 4:0.90267091 
1 0 1:2.8911726 2:-0.17687631 3:1 4:0.90267091 
1 0 1:2.8484849 2:-0.26085787 3:1 4:0.90267091 
1 0 1:2.8129712 2:-0.35513745 3:1 4:0.90267091 
1 0 1:2.7641014 2:-0.48869799 3:1 4:0.90267091 
1 0 1:2.700639 2:-0.63462331 3:1 4:0.90267091 
1 0 1:2.6247452 2:-0.75893811 3:1 4:0.90267091 
1 0 1:2.5271489 2:-0.97596328 3:1 4:0.90267091 
1 0 1:2.4238076 2:-1.0334134 3:1 4:0.90267091 
1 0 1:2.3085644 2:-1.1524313 3:1 4:0.90267091 
1 0 1:2.186841 2:-1.2172342 3:1 4:0.90267091 
1 0 1:2.0673462 2:-1.1949484 3:1 4:0.90267091 
1 0 1:1.9395137 2:-1.2783247 3:1 4:0.90267091 
1 0 1:1.8129238 2:-1.2658989 3:1 4:0.90267091 
1 0 1:1.689671 2:-1.2325282 3:1 4:0.90267091 
1 0 1:1.5589396 2:-1.3073136 3:1 4:0.90267091 
1 0 1:1.438115 2:-1.2082463 3:1 4:0.90267091 
1 0 1:1.3305107 2:-1.0760432 3:1 4:0.90267091 
1 1 1:1.2343996 2:-0.96111113 3:1 4:0.90267091 
1 1 1:1.146243 2:-0.88156552 3:1 4:0.90267091 
1 1 1:1.0665156 2:-0.79727425 3:1 4:0.90267091 
1 1 1:0.98325532 2:-0.8326028 3:1 4:0.90267091 
1 1 1:0.90742906 2:-0.75826265 3:1 4:0.90267091 
1 1 1:0.84576871 2:-0.61660351 3:1 4:0.90267091 
1 1 1:0.80162898 2:-0.44139724 3:1 4:0.90267091 
1 1 1:0.75097458 2:-0.50654405 3:1 4:0.90267091 
1 1 1:0.70631321 2:-0.4466137 3:1 4:0.90267091 
1 1 1:0.68260909 2:-0.2370412 3:1 4:0.90267091 
1 1 1:0.67284453 2:-0.097645576 3:1 4:0.90267091 
1 1 1:0.64528158 2:-0.27562947 3:1 4:0.90267091 
1 1 1:0.63466233 2:-0.10619256 3:1 4:0.90267091 
1 1 1:0.64030845 2:0.056461251 3:1 4:0.90267091 
1 1 1:0.66064374 2:0.20335285 3:1 4:0.90267091 
1 1 1:0.65914194 2:-0.015017974 3:1 4:0.90267091 
1 1 1:0.67407341 2:0.14931476 3:1 4:0.90267091 
1 1 1:0.70501958 2:0.3094616 3:1 4:0.90267091 
0 1 1:0.75106374 2:0.46044162 3:1 4:0.90267091 
1 1 1:0.7811229 2:0.30059167 3:1 4:0.90267091 
0 1 1:0.82152043 2:0.40397522 3:1 4:0.90267091 
0 1 1:0.87531648 2:0.53796056 3:1 4:0.90267091 
0 1 1:0.93542277 2:0.60106292 3:1 4:0.90267091 
0 1 1:0.99065492 2:0.55232149 3:1 4:0.90267091 
0 1 1:1.0250594 2:0.34404504 3:1 4:0.90267091 
1 1 1:1.0578546 2:0.32795138 3:1 4:0.90267091 
0 1 1:1.0939275 2:0.36072946 3:1 4:0.90267091 
0 1 1:1.1341348 2:0.40207254 3:1 4:0.90267091 
0 1 1:1.1746244 2:0.40489633 3:1 4:0.90267091 
0 1 1:1.2149229 2:0.40298464 3:1 4:0.90267091 
0 1 1:1.2478809 2:0.32958018 3:1 4:0.90267091 
0 1 1:1.276385 2:0.28504118 3:1 4:0.90267091 
0 1 1:1.3053329 2:0.28947917 3:1 4:0.90267091 
0 1 1:1.3345117 2:0.29178772 3:1 4:0.90267091 
0 1 1:1.3639004 2:0.29388688 3:1 4:0.90267091 
0 1 1:1.3936624 2:0.29762059 3:1 4:0.90267091 
1 0 1:1.4472953 2:0.21593629 3:1 4:0.90267091 
1 0 1:2.9054206 2:-0.19841319 3:1 4:0.90267091 
1 0 1:2.8831616 2:-0.22258931 3:1 4:0.90267091 
1 0 1:2.8631842 2:-0.19977477 3:1 4:0.90267091 
1 0 1:2.8468805 2:-0.16303633 3:1 4:0.90267091 
1 0 1:2.8311145 2:-0.15766064 3:1 4:0.90267091 
1 0 1:2.8130835 2:-0.18030944 3:1 4:0.90267091 
1 0 1:2.7928941 2:-0.20189379 3:1 4:0.90267091 
1 0 1:2.7678354 2:-0.25058784 3:1 4:0.90267091 
1 0 1:2.7434991 2:-0.24336254 3:1 4:0.90267091 
1 0 1:2.7195354 2:-0.23963689 3:1 4:0.90267091 
1 0 1:2.6951015 2:-0.24433868 3:1 4:0.90267091 
1 0 1:2.6699647 2:-0.25136855 3:1 4:0.90267091 
1 0 1:2.6463627 2:-0.23601968 3:1 4:0.90267091 
1 0 1:2.6160325 2:-0.30330252 3:1 4:0.90267091 
1 0 1:2.5856957 2:-0.30336775 3:1 4:0.90267091 
1 0 1:2.5567054 2:-0.28990256 3:1 4:0.90267091 
1 0 1:2.530274 2:-0.26431406 3:1 4:0.90267091 
1 0 1:2.4991672 2:-0.31106824 3:1 4:0.90267091 
1 0 1:2.4738679 2:-0.25299286 3:1 4:0.90267091 
1 0 1:2.4526635 2:-0.21204389 3:1 4:0.90267091 
1 0 1:2.4246567 2:-0.280068 3:1 4:0.90267091 
1 0 1:2.4025335 2:-0.22123211 3:1 4:0.90267091 
1 0 1:2.3850252 2:-0.17508319 3:1 4:0.90267091 
1 0 1:2.3600557 2:-0.24969522 3:1 4:0.90267091 
1 0 1:2.3411021 2:-0.18953582 3:1 4:0.90267091 
1 0 1:2.3272254 2:-0.13876719 3:1 4:0.90267091 
1 0 1:2.3052174 2:-0.2200798 3:1 4:0.90267091 
1 0 1:2.2893846 2:-0.15832774 3:1 4:0.90267091 
1 0 1:2.27922 2:-0.10164672 3:1 4:0.90267091 
1 0 1:2.2602605 2:-0.18959482 3:1 4:0.90267091 
1 0 1:2.2475439 2:-0.12716627 3:1 4:0.90267091 
1 0 1:2.2409275 2:-0.06616344 3:1 4:0.90267091 
1 0 1:2.2245997 2:-0.16327826 3:1 4:0.90267091 
1 0 1:2.2138571 2:-0.10742569 3:1 4:0.90267091 
1 0 1:2.2091101 2:-0.047470094 3:1 4:0.90267091 
1 0 1:2.1961841 2:-0.1292599 3:1 4:0.90267091 
1 0 1:2.1896382 2:-0.065458889 3:1 4:0.90267091 
1 0 1:2.1878535 2:-0.017847491 3:1 4:0.90267091 
1 0 1:2.1791795 2:-0.086739419 3:1 4:0.90267091 
1 0 1:2.1736638 2:-0.055157519 3:1 4:0.90267091 
1 0 1:2.1724931 2:-0.011707199 3:1 4:0.90267091 
1 0 1:2.1733669 2:0.0087381781 3:1 4:0.90267091 
1 0 1:2.1695638 2:-0.038030384 3:1 4:0.90267091 
1 0 1:2.1628872 2:-0.066766537 3:1 4:0.90267091 
1 0 1:2.1579963 2:-0.04890891 3:1 4:0.90267091 
1 0 1:2.1549381 2:-0.03058156 3:1 4:0.90267091 
1 0 1:2.1536935 2:-0.012446301 3:1 4:0.90267091 
1 0 1:2.1517718 2:-0.019216813 3:1 4:0.90267091 
1 0 1:2.1446273 2:-0.071445724 3:1 4:0.90267091 
1 0 1:2.1393291 2:-0.052981108 3:1 4:0.90267091 
1 0 1:2.1359312 2:-0.033979594 3:1 4:0.90267091 
1 0 1:2.1344022 2:-0.015289358 3:1 4:0.90267091 
1 0 1:2.1342393 2:-0.0016290633 3:1 4:0.90267091 
1 0 1:2.1267092 2:-0.075301892 3:1 4:0.90267091 
1 0 1:2.1210537 2:-0.056554719 3:1 4:0.90267091 
1 0 1:2.1178406 2:-0.032131238 3:1 4:0.90267091 
1 0 1:2.1172481 2:-0.0059244448 3:1 4:0.90267091 
1 0 1:2.1184811 2:0.012330125 3:1 4:0.90267091 
1 0 1:2.1126899 2:-0.057912696 3:1 4:0.90267091 
1 0 1:2.1095782 2:-0.031116297 3:1 4:0.90267091 
1 0 1:2.1091172 2:-0.0046104963 3:1 4:0.90267091 
1 0 1:2.1112679 2:0.021507594 3:1 4:0.90267091 
1 0 1:2.1132452 2:0.019772842 3:1 4:0.90267091 
1 0 1:2.1101393 2:-0.031059692 3:1 4:0.90267091 
1 0 1:2.1097626 2:-0.0037660786 3:1 4:0.90267091 
1 0 1:2.1120262 2:0.022636034 3:1 4:0.90267091 
1 0 1:2.1198338 2:0.029497043 3:1 4:0.90267091 
1 0 1:2.1201043 2:0.0027053328 3:1 4:0.90267091 
1 0 1:2.1231263 2:0.030219484 3:1 4:0.90267091 
1 0 1:2.1402628 2:0.0090415582 3:1 4:0.90267091 
1 0 1:2.1432234 2:-0.038995212 3:1 4:0.90267091 
1 0 1:2.1445253 2:0.013018862 3:1 4:0.90267091 
1 0 1:2.1351668 2:-0.093585248 3:1 4:0.90267091 
1 0 1:2.1239156 2:-0.11251188 3:1 4:0.90267091 
1 0 1:2.1115856 2:-0.12329962 3:1 4:0.90267091 
1 0 1:2.0995162 2:-0.12069436 3:1 4:0.90267091 
1 0 1:2.088235 2:-0.11281212 3:1 4:0.90267091 
1 0 1:2.0780576 2:-0.10177364 3:1 4:0.90267091 
1 0 1:2.0700129 2:-0.080447199 3:1 4:0.90267091 
1 0 1:2.0529912 2:-0.17021679 3:1 4:0.90267091 
1 0 1:2.0390932 2:-0.13897961 3:1 4:0.90267091 
1 0 1:2.0313285 2:-0.07764711 3:1 4:0.90267091 
1 0 1:2.0143766 2:-0.1695188 3:1 4:0.90267091 
1 0 1:2.0041986 2:-0.10178073 3:1 4:0.90267091 
1 0 1:1.9881674 2:-0.16031181 3:1 4:0.90267091 
1 0 1:1.9800484 2:-0.081190107 3:1 4:0.90267091 
1 0 1:1.9595759 2:-0.20472521 3:1 4:0.90267091 
1 0 1:1.9448135 2:-0.14762334 3:1 4:0.90267091 
1 0 1:1.9312105 2:-0.13603063 3:1 4:0.90267091 
1 0 1:1.9163099 2:-0.14900597 3:1 4:0.90267091 
1 0 1:1.8976714 2:-0.18638456 3:1 4:0.90267091 
1 0 1:1.8772758 2:-0.2039557 3:1 4:0.90267091 
1 0 1:1.8573246 2:-0.1995128 3:1 4:0.90267091 
1 0 1:1.8351271 2:-0.22197477 3:1 4:0.90267091 
1 0 1:1.8140517 2:-0.21075368 3:1 4:0.90267091 
1 0 1:1.7965867 2:-0.1746498 3:1 4:0.90267091 
1 0 1:1.7823584 2:-0.14228342 3:1 4:0.90267091 
1 0 1:1.7716697 2:-0.10688701 3:1 4:0.90267091 
1 0 1:1.7654271 2:-0.062425844 3:1 4:0.90267091 
1 0 1:1.7637729 2:-0.016542401 3:1 4:0.90267091 
1 0 1:1.7545727 2:-0.092001963 3:1 4:0.90267091 
1 0 1:1.7444571 2:-0.10115552 3:1 4:0.90267091 
1 0 1:1.740508 2:-0.039491666 3:1 4:0.90267091 
1 0 1:1.7291279 2:-0.11380015 3:1 4:0.90267091 
1 0 1:1.720855 2:-0.082729496 3:1 4:0.90267091 
1 0 1:1.7092416 2:-0.11613427 3:1 4:0.90267091 
1 0 1:1.7038316 2:-0.054099604 3:1 4:0.90267091 
1 0 1:1.6867546 2:-0.17077043 3:1 4:0.90267091 
1 0 1:1.6752821 2:-0.11472431 3:1 4:0.90267091 
1 0 1:1.6665554 2:-0.087267125 3:1 4:0.90267091 
1 0 1:1.6586962 2:-0.078592565 3:1 4:0.90267091 
1 0 1:1.6507401 2:-0.079560066 3:1 4:0.90267091 
1 0 1:1.6417548 2:-0.089853982 3:1 4:0.90267091 
1 0 1:1.6334439 2:-0.083108264 3:1 4:0.90267091 
1 0 1:1.625799 2:-0.076449432 3:1 4:0.90267091 
1 0 1:1.6197588 2:-0.060402227 3:1 4:0.90267091 
1 0 1:1.6164865 2:-0.032723004 3:1 4:0.90267091 
1 0 1:1.6166754 2:0.0018890453 3:1 4:0.90267091 
1 0 1:1.6156518 2:-0.010236062 3:1 4:0.90267091 
1 0 1:1.6097633 2:-0.058884763 3:1 4:0.90267091 
1 0 1:1.6103186 2:0.0055529119 3:1 4:0.90267091 
1 0 1:1.6168437 2:0.065250917 3:1 4:0.90267091 
1 0 1:1.617577 2:0.007333615 3:1 4:0.90267091 
1 0 1:1.6179375 2:0.0036047631 3:1 4:0.90267091 
1 0 1:1.6242095 2:0.062720084 3:1 4:0.90267091 
1 0 1:1.6362555 2:0.12045969 3:1 4:0.90267091 
1 0 1:1.6377836 2:0.015280727 3:1 4:0.90267091 
1 0 1:1.6437531 2:0.059695214 3:1 4:0.90267091 
1 0 1:1.6553405 2:0.11587463 3:0.99327255 4:0.90267091 
1 0 1:1.6687798 2:0.13439271 3:0.9988543 4:0.90267091 
1 0 1:1.6759394 2:0.071595682 3:0.99997848 4:0.90267091 
1 0 1:1.6910128 2:0.1507338 3:0.99999999 4:0.90267091 
1 0 1:4.7793696 2:-0.9942891 3:1 4:0 
1 0 1:4.6763842 2:-1.0298537 3:1 4:0 
1 0 1:4.573608 2:-1.0277622 3:1 4:0 
1 0 1:4.4665364 2:-1.0707161 3:1 4:0 
1 0 1:4.3590101 2:-1.0752627 3:1 4:0 
1 0 1:4.2510642 2:-1.0794596 3:1 4:0 
1 0 1:4.1372409 2:-1.1382328 3:1 4:0 
1 0 1:4.0247357 2:-1.1250517 3:1 4:0 
1 0 1:3.9119433 2:-1.127924 3:1 4:0 
1 0 1:3.7965688 2:-1.1537449 3:0 4:0.11339009 
1 0 1:3.6771241 2:-1.1944477 3:0 4:0.053460486 
1 0 1:3.5531831 2:-1.2394096 3:0 4:0.041065244 
1 0 1:3.4284464 2:-1.2473669 3:0 4:0.030560742 
1 0 1:3.3064379 2:-1.2200855 3:0 4:0.020267019 
1 0 1:3.1925533 2:-1.1388455 3:0 4:0.011177583 
1 0 1:3.0885022 2:-1.0405112 3:0 4:0.0049105463 
1 0 1:2.9921562 2:-0.96346013 3:0 4:0.0019275599 
1 0 1:2.89375 2:-0.98406154 3:0 4:0.00063088891 
1 0 1:2.7964422 2:-0.97307801 3:0 4:0.00010972074 
1 0 1:2.7044263 2:-0.92015915 3:0 4:1.6140984e-006 
1 0 1:2.6217779 2:-0.826484 3:0 4:0 
1 0 1:2.5495115 2:-0.72266409 3:0 4:0 
1 0 1:2.4838284 2:-0.65683093 3:0 4:0 
1 0 1:2.4229906 2:-0.60837801 3:0 4:0 
1 0.4144772395404431 1:2.3721858 2:-0.50804794 3:0 4:0 
1 1 1:2.3315883 2:-0.40597536 3:0 4:0 
0 1 1:2.3012573 2:-0.3033099 3:0 4:0 
1 0 1:2.2760475 2:-0.25209807 3:1 4:0 
0 1 1:2.2469453 2:-0.004376787 3:1 4:0 
0 1 1:2.2548873 2:0.079419745 3:1 4:0 
0 0.6487792138613936 1:2.2678605 2:0.12973185 3:1 4:0 
1 0 1:5.7455866 2:-1.1437376 3:0.95066866 4:0.90267091 
1 0 1:5.6078643 2:-1.3772234 3:0.95113083 4:0.90267091 
1 0 1:5.4468692 2:-1.6099513 3:0.95195329 4:0.90267091 
1 0 1:5.264287 2:-1.8258212 3:0.95246144 4:0.90267091 
1 0 1:5.060459 2:-2.0382803 3:0.95146141 4:0.90267091 
1 0 1:4.8380947 2:-2.2236434 3:0.95073526 4:0.90267091 
1 0 1:4.5980669 2:-2.4002776 3:0.95157981 4:0.90267091 
1 0 1:4.3509796 2:-2.470873 3:0.95207773 4:0.90267091 
1 0 1:2.3719871 2:-0.121061 3:0.4950792 4:0.90267091 
1 0 1:6.0672126 2:-1.1824543 3:0.45158957 4:0.90267091 
1 0 1:5.9415318 2:-1.2568074 3:0.41985205 4:0.90267091 
1 0 1:5.4232006 2:-1.1029368 3:0.84611717 4:0.51088439 
1 0 1:5.2976174 2:-1.2558321 3:0.84611717 4:0.56379624 
1 0 1:5.1620427 2:-1.3557474 3:0.84611717 4:0.60844997 
1 0 1:4.2992663 2:-0.79174877 3:0.99999974 4:0.1471084 
1 0 1:4.2080195 2:-0.91246767 3:0.9998863 4:0.10142382 
1 0 1:4.1139782 2:-0.94041356 3:0.99991592 4:0.07094956 
1 0 1:4.0142703 2:-0.9970786 3:0.99999914 4:0.060522597 
1 0 1:3.9003749 2:-1.1389538 3:1 4:0.067013792 
1 0 1:3.7818652 2:-1.1850971 3:0.99999998 4:0.09426184 
1 0 1:3.6635825 2:-1.1828278 3:0.99999765 4:0.13766542 
1 0 1:4.7183248 2:-1.1641778 3:0 4:0 
1 0 1:4.5807857 2:-1.3753909 3:0 4:0 
1 0 1:4.4266651 2:-1.5412061 3:0 4:0 
1 0 1:4.2596593 2:-1.670058 3:0 4:0 
1 0 1:4.0855451 2:-1.7411417 3:0 4:0 
1 0 1:3.899733 2:-1.8581208 3:0 4:0 
1 0 1:3.705539 2:-1.9419398 3:0 4:0 
1 0 1:3.5175069 2:-1.8803211 3:0 4:0 
1 0 1:3.3389182 2:-1.7858879 3:0 4:0 
1 0 1:3.1697139 2:-1.692043 3:0 4:0 
1 0 1:2.999345 2:-1.7036886 3:0 4:0 
1 0 1:2.8341283 2:-1.6521671 3:0 4:0 
1 0 1:2.676733 2:-1.5739526 3:0 4:0 
1 0 1:2.5285884 2:-1.4814461 3:0 4:0 
1 0 1:2.3858146 2:-1.4277378 3:0 4:0 
1 1 1:2.2528741 2:-1.329405 3:0 4:0 
1 1 1:2.1278375 2:-1.2503665 3:0 4:0 
1 1 1:2.0160612 2:-1.1177632 3:0 4:0 
1 1 1:1.9182426 2:-0.97818542 3:0 4:0 
1 1 1:1.834832 2:-0.83410671 3:0 4:0 
1 1 1:1.7654731 2:-0.69358845 3:0 4:0 
1 1 1:1.7129866 2:-0.52486497 3:0 4:0 
1 1 1:1.6785427 2:-0.34443888 3:0 4:0 
0 1 1:1.6611582 2:-0.17384495 3:0 4:0 
0 1 1:1.6475276 2:-0.13630598 3:0 4:0 
0 1 1:1.6488375 2:0.013099105 3:0 4:0 
0 1 1:1.6678855 2:0.1904801 3:0 4:0 
0 1 1:1.6998712 2:0.31985678 3:0 4:0 
0 1 1:1.7316326 2:0.31761324 3:0 4:0 
0 1 1:1.7641931 2:0.32560579 3:0 4:0 
0 1 1:1.8039921 2:0.39799015 3:0 4:0 
0 1 1:1.8504617 2:0.46469516 3:0 4:0 
0 1 1:1.8969173 2:0.46455615 3:0 4:0 
0 1 1:1.9398554 2:0.42938172 3:0 4:0 
0 1 1:1.9785625 2:0.3870707 3:0 4:0 
0 1 1:2.0185833 2:0.40020755 3:0 4:0 
0 1 1:2.0588466 2:0.40263341 3:0 4:0 
0 1 1:2.0967028 2:0.37856197 3:0 4:0 
0 1 1:2.1312658 2:0.34562962 3:0 4:0 
0 1 1:2.1682388 2:0.36973017 3:0 4:0 
0 1 1:2.2069643 2:0.3872555 3:0 4:0 
0 1 1:2.236856 2:0.29891639 3:0 4:0 
0 1 1:2.2684706 2:0.31614641 3:0 4:0 
0 1 1:2.3056823 2:0.37211674 3:0 4:0 
0 1 1:2.3384098 2:0.32727472 3:0 4:0 
0 1 1:2.3710087 2:0.3259891 3:0 4:0 
0 1 1:2.4015198 2:0.30511173 3:0 4:0 
0 1 1:2.4278951 2:0.26375263 3:0 4:0 
0 1 1:2.4555327 2:0.27637542 3:0 4:0 
1 0 1:3.472173 2:-0.60589243 3:0 4:0.90267091 
1 0 1:3.3887103 2:-0.83462699 3:0 4:0.90267091 
1 0 1:3.2833491 2:-1.0536124 3:0 4:0.90267091 
1 0 1:3.1574824 2:-1.2586667 3:0 4:0.90267091 
1 0 1:3.0063483 2:-1.5113408 3:0 4:0.90267091 
1 0 1:2.8293391 2:-1.7700918 3:0 4:0.90267091 
1 0 1:5.2548615 2:-1.1165133 3:1 4:0 
1 0 1:4.9351734 2:-1.1360668 3:0 4:0 
1 0 1:4.8210692 2:-1.1410414 3:0 4:0 
1 0 1:4.7111989 2:-1.0987031 3:0 4:0 
1 0 1:4.6037095 2:-1.0748941 3:0 4:0 
1 0 1:4.492485 2:-1.1122447 3:0 4:0 
1 0 1:4.3803606 2:-1.1212445 3:0 4:0 
1 0 1:4.2738946 2:-1.0646604 3:0 4:0 
1 0 1:4.1757707 2:-0.98123846 3:0 4:0 
1 0 1:4.0866742 2:-0.89096534 3:0 4:0 
1 0 1:5.7646845 2:-1.1436409 3:1 4:0.90267091 
1 0 1:5.6315808 2:-1.3310371 3:1 4:0.90267091 
1 0 1:5.4799044 2:-1.5167639 3:1 4:0.90267091 
1 0 1:6.2637713 2:-1.205208 3:1 4:0.90267091 
1 0 1:6.1338594 2:-1.2991188 3:1 4:0.90267091 
1 0 1:5.9993389 2:-1.345205 3:1 4:0.90267091 
1 0 1:5.8550868 2:-1.4425214 3:1 4:0.90267091 
1 0 1:5.7050699 2:-1.5001689 3:1 4:0.90267091 
1 0 1:5.546682 2:-1.5838789 3:1 4:0.90267091 
1 0 1:5.3827088 2:-1.6397319 3:1 4:0.90267091 
1 0 1:5.2079206 2:-1.7478822 3:1 4:0.90267091 
1 0 1:5.0289579 2:-1.7896272 3:1 4:0.90267091 
1 0 1:4.8412833 2:-1.8767454 3:1 4:0.90267091 
1 0 1:4.660038 2:-1.8124532 3:1 4:0.90267091 
1 0 1:4.4845218 2:-1.7551618 3:1 4:0.90267091 
1 0 1:4.3174556 2:-1.6706617 3:1 4:0.90267091 
1 0 1:4.1595081 2:-1.5794757 3:1 4:0.90267091 
1 0 1:4.0063596 2:-1.5314844 3:1 4:0.90267091 
1 0 1:3.8640086 2:-1.4235101 3:1 4:0.90267091 
1 0 1:3.7256159 2:-1.383927 3:1 4:0.90267091 
1 0 1:3.5985269 2:-1.2708908 3:1 4:0.90267091 
1 0 1:3.4767245 2:-1.2180232 3:1 4:0.90267091 
1 0 1:3.3642565 2:-1.1246804 3:1 4:0.90267091 
1 0 1:3.2593983 2:-1.0485823 3:1 4:0.90267091 
1 0 1:3.1609924 2:-0.984059 3:1 4:0.90267091 
1 0 1:3.081427 2:-0.79565404 3:1 4:0.90267091 
1 0 1:3.0118055 2:-0.69621415 3:1 4:0.90267091 
1 0 1:2.958168 2:-0.53637572 3:1 4:0.90267091 
1 0 1:2.9181893 2:-0.39978693 3:1 4:0.90267091 
1 0 1:2.8776721 2:-0.40517175 3:1 4:0.90267091 
1 0 1:2.8478482 2:-0.2982386 3:1 4:0.90267091 
1 0 1:2.8289896 2:-0.18858689 3:1 4:0.90267091 
1 0 1:5.3953902 2:-0.88776992 3:1 4:0.90267091 
1 0 1:5.3009077 2:-0.94482475 3:1 4:0.90267091 
1 0 1:5.1010749 2:-0.97010537 3:0 4:0.90267091 
1 0 1:5.0039664 2:-0.97108463 3:0 4:0.90267091 
1 0 1:4.9033272 2:-1.0063929 3:0 4:0.90267091 
1 0 1:4.8074684 2:-0.95858716 3:0 4:0.90267091 
1 0 1:4.7145854 2:-0.92883037 3:0 4:0.90267091 
1 0 1:4.6249922 2:-0.89593179 3:0 4:0.90267091 
1 0 1:4.536128 2:-0.88864248 3:0 4:0.90267091 
1 0 1:4.4518184 2:-0.84309574 3:0 4:0.90267091 
1 0 1:3.7679837 2:-0.42010323 3:1 4:0.90267091 
1 0 1:3.7252267 2:-0.42757022 3:1 4:0.90267091 
1 0 1:3.6803955 2:-0.44831162 3:1 4:0.90267091 
1 0 1:3.6252794 2:-0.55116088 3:1 4:0.90267091 
1 0 1:3.5664118 2:-0.58867642 3:1 4:0.90267091 
1 0 1:5.5169894 2:-0.9161743 3:1 4:0.997989 
1 0 1:5.4153861 2:-1.0160326 3:1 4:0.99800495 
1 0 1:5.3073636 2:-1.0802256 3:1 4:0.99802125 
1 0 1:5.1882733 2:-1.1909026 3:1 4:0.99803829 
1 0 1:5.0614282 2:-1.2684511 3:1 4:0.99805505 
1 0 1:6.4231074 2:-1.2111466 3:0.84611717 4:0.92079076 
1 0 1:6.2885249 2:-1.3458248 3:0.84611717 4:0.92928668 
1 0 1:6.1401156 2:-1.4840933 3:0.84611717 4:0.93675769 
1 0 1:4.4412783 2:-0.74642028 3:0.32096971 4:0.89005873 
1 0 1:4.2526175 2:-0.8223299 3:0 4:0.90267091 
1 0 1:4.0714415 2:-0.91929351 3:0 4:0 
0.7401121742665264 0 1:2.8185719 2:-0.53697876 3:0 4:0 
1 0 1:2.7796532 2:-0.38918678 3:0 4:0.90267091 
1 0 1:2.7469769 2:-0.32676315 3:0 4:0.90267091 
1 0 1:4.0343844 2:-0.64968918 3:1 4:0.90267091 
1 0 1:3.964727 2:-0.69657382 3:1 4:0.90267091 
1 0 1:3.8834599 2:-0.81267141 3:1 4:0.90267091 
1 0 1:3.804255 2:-0.79204837 3:1 4:0.90267091 
1 0 1:3.7277324 2:-0.76522618 3:1 4:0.90267091 
1 0 1:3.648995 2:-0.78737455 3:1 4:0.90267091 
1 0 1:3.5721801 2:-0.7681489 3:1 4:0.90267091 
1 0 1:3.4966887 2:-0.75491402 3:1 4:0.90267091 
1 0 1:3.4229185 2:-0.73770166 3:1 4:0.90267091 
1 0 1:3.3500012 2:-0.72917344 3:1 4:0.90267091 
1 0 1:3.2824868 2:-0.67514359 3:1 4:0.90267091 
1 0 1:3.2210553 2:-0.61431518 3:1 4:0.90267091 
1 0 1:3.1679009 2:-0.53154392 3:1 4:0.90267091 
1 0 1:3.1136967 2:-0.54204154 3:1 4:0.90267091 
1 0 1:3.0618135 2:-0.51883246 3:1 4:0.90267091 
1 0 1:3.0153689 2:-0.46444582 3:1 4:0.90267091 
1 0 1:2.9683981 2:-0.46970865 3:1 4:0.90267091 
1 0 1:2.9313091 2:-0.3708891 3:1 4:0.90267091 
1 0 1:2.906436 2:-0.24873161 3:1 4:0.90267091 
1 0 1:2.8812106 2:-0.25225376 3:1 4:0.90267091 
1 0 1:2.8600222 2:-0.2118839 3:1 4:0.90267091 
1 0 1:4.5413265 2:-0.65577509 3:1 4:0.90267091 
1 0 1:4.4702593 2:-0.71067219 3:1 4:0.90267091 
1 0 1:4.3970975 2:-0.73161782 3:1 4:0.90267091 
1 0 1:4.3194968 2:-0.77600726 3:1 4:0.90267091 
1 0 1:4.232957 2:-0.86539732 3:1 4:0.90267091 
1 0 1:4.1411104 2:-0.91846632 3:1 4:0.90267091 
1 0 1:4.0455699 2:-0.95540511 3:1 4:0.90267091 
1 0 1:3.9451269 2:-1.0044298 3:1 4:0.90267091 
1 0 1:3.8357732 2:-1.0935373 3:1 4:0.90267091 
1 0 1:3.7243003 2:-1.1147293 3:1 4:0.90267091 
1 0 1:3.6131768 2:-1.1112351 3:1 4:0.90267091 
1 0 1:3.5042157 2:-1.0896107 3:1 4:0.90267091 
1 0 1:3.3988696 2:-1.0534608 3:1 4:0.90267091 
1 0 1:3.3040301 2:-0.94839551 3:1 4:0.90267091 
1 0 1:3.2058998 2:-0.98130216 3:1 4:0.90267091 
1 0 1:3.1206629 2:-0.85236927 3:1 4:0.90267091 
1 0 1:3.032832 2:-0.87830875 3:1 4:0.90267091 
1 0 1:2.9541388 2:-0.78693281 3:1 4:0.90267091 
1 0 1:2.8813269 2:-0.72811821 3:1 4:0.90267091 
1 0 1:2.8080156 2:-0.73311371 3:1 4:0.90267091 
1 0 1:2.7425152 2:-0.65500397 3:1 4:0.90267091 
1 0 1:2.6831927 2:-0.59322446 3:1 4:0.90267091 
1 0 1:2.6294414 2:-0.53751328 3:1 4:0.90267091 
1 0 1:2.5808 2:-0.48641393 3:1 4:0.90267091 
1 0 1:2.5370518 2:-0.43748175 3:1 4:0.90267091 
1 0 1:2.4981038 2:-0.38948 3:1 4:0.90267091 
1 0 1:2.4642509 2:-0.33852958 3:1 4:0.90267091 
1 0 1:2.4359478 2:-0.28303068 3:1 4:0.90267091 
1 0 1:2.4133648 2:-0.22582964 3:1 4:0.90267091 
1 0 1:2.4007053 2:-0.12659556 3:1 4:0.90267091 
1 0 1:2.3894222 2:-0.11283035 3:1 4:0.90267091 
1 0 1:2.3836295 2:-0.057927932 3:1 4:0.90267091 
1 0 1:2.4069973 2:-0.10704219 3:1 4:0.90267091 
1 0 1:2.3852653 2:-0.21732071 3:1 4:0.90267091 
1 0 1:2.3589258 2:-0.26339516 3:1 4:0.90267091 
1 0 1:2.3312734 2:-0.27652331 3:1 4:0.90267091 
1 0 1:2.2957969 2:-0.35476514 3:1 4:0.90267091 
1 0 1:2.2627084 2:-0.33088539 3:1 4:0.90267091 
1 0 1:2.2346524 2:-0.28056004 3:1 4:0.90267091 
1 0 1:2.1975263 2:-0.37126045 3:1 4:0.90267091 
1 0 1:2.1686853 2:-0.28841057 3:1 4:0.90267091 
1 0 1:2.1331355 2:-0.35549763 3:1 4:0.90267091 
1 0 1:2.0991965 2:-0.3393902 3:1 4:0.90267091 
1 0 1:2.0693857 2:-0.29810787 3:1 4:0.90267091 
1 0 1:2.0364004 2:-0.32985308 3:1 4:0.90267091 
1 0 1:1.9990727 2:-0.3732767 3:1 4:0.90267091 
1 0 1:1.9609074 2:-0.38165291 3:1 4:0.90267091 
1 0 1:1.9228252 2:-0.38082237 3:1 4:0.90267091 
1 0 1:1.8857373 2:-0.37087877 3:1 4:0.90267091 
1 0 1:1.8472297 2:-0.3850762 3:1 4:0.90267091 
1 0 1:1.8079098 2:-0.39319916 3:1 4:0.90267091 
1 0 1:1.7670049 2:-0.40904866 3:1 4:0.90267091 
1 0 1:1.7241848 2:-0.42820143 3:1 4:0.90267091 
1 0 1:1.6815199 2:-0.42664882 3:1 4:0.90267091 
1 0 1:1.6420289 2:-0.39490967 3:1 4:0.90267091 
1 0 1:1.6045883 2:-0.37440671 3:1 4:0.90267091 
1 0 1:1.5643883 2:-0.40199947 3:1 4:0.90267091 
1 0 1:1.5398981 2:-0.2449024 3:1 4:0.90267091 
1 0 1:1.5206854 2:-0.19212621 3:1 4:0.90267091 
1 0 1:1.5144808 2:-0.062046251 3:1 4:0.90267091 
1 0 1:1.5049794 2:-0.095013746 3:1 4:0.90267091 
1 0 1:1.505487 2:0.005075522 3:1 4:0.90267091 
1 0 1:1.4927401 2:-0.1274694 3:1 4:0.90267091 
1 0 1:1.4849317 2:-0.078083549 3:1 4:0.90267091 
1 0 1:1.4805383 2:-0.043934227 3:1 4:0.90267091 
1 0 1:1.4653746 2:-0.15163642 3:1 4:0.90267091 
1 0 1:1.4608649 2:-0.04509713 3:1 4:0.90267091 
1 0 1:1.4467509 2:-0.1411404 3:1 4:0.90267091 
1 0 1:1.4348393 2:-0.11911545 3:1 4:0.90267091 
1 0 1:1.4287478 2:-0.060915658 3:1 4:0.90267091 
1 0 1:1.4116249 2:-0.17122889 3:1 4:0.90267091 
1 0 1:1.4099685 2:-0.01656365 3:1 4:0.90267091 
1 0 1:1.3934764 2:-0.16492092 3:1 4:0.90267091 
1 0 1:1.3895826 2:-0.038938108 3:1 4:0.90267091 
1 0 1:1.3809249 2:-0.086576808 3:1 4:0.90267091 
1 0.9119706542733216 1:1.3758673 2:-0.050576273 3:1 4:0.90267091 
1 1 1:1.3718676 2:-0.039996855 3:1 4:0.90267091 
1 1 1:1.3667426 2:-0.051249899 3:1 4:0.90267091 
1 1 1:1.363438 2:-0.033046092 3:1 4:0.90267091 
1 1 1:1.3642872 2:0.0084922438 3:1 4:0.90267091 
1 1 1:1.3581502 2:-0.061370167 3:1 4:0.90267091 
1 1 1:1.3654155 2:0.072652704 3:1 4:0.90267091 
1 1 1:1.3626951 2:-0.027203583 3:1 4:0.90267091 
1 1 1:1.3618886 2:-0.008065167 3:1 4:0.90267091 
1 1 1:1.3649574 2:0.030687967 3:1 4:0.90267091 
1 1 1:1.3700391 2:0.050816719 3:1 4:0.90267091 
1 1 1:1.3776056 2:0.075665468 3:1 4:0.90267091 
1 1 1:1.3790127 2:0.014070881 3:1 4:0.90267091 
1 1 1:1.3828222 2:0.038094494 3:1 4:0.90267091 
1 1 1:1.3888142 2:0.059920671 3:1 4:0.90267091 
1 0 1:1.3966213 2:0.078070517 3:1 4:0.90267091 
1 0 1:1.4058962 2:0.092749194 3:1 4:0.90267091 
1 0 1:1.4163184 2:0.10422198 3:1 4:0.90267091 
1 0 1:1.4277211 2:0.11402664 3:1 4:0.90267091 
1 0 1:1.4401483 2:0.12427194 3:1 4:0.90267091 
1 0 1:1.4531039 2:0.12955656 3:1 4:0.90267091 
1 0 1:1.4659822 2:0.12878273 3:1 4:0.90267091 
1 0 1:1.4806054 2:0.14623162 3:1 4:0.90267091 
1 0 1:1.4980155 2:0.17410119 3:1 4:0.90267091 
1 0 1:1.5331769 2:0.13756913 3:1 4:0.90267091 
1 0 1:1.5486676 2:0.15490725 3:1 4:0.90267091 
1 0 1:1.5749376 2:0.0539367 3:1 4:0.90267091 
1 0 1:1.5835604 2:0.08622886 3:1 4:0.90267091 
1 0 1:1.5848413 2:0.012808103 3:1 4:0.90267091 
1 0 1:1.5907959 2:0.059546454 3:1 4:0.90267091 
1 0 1:1.5896147 2:-0.011811845 3:1 4:0.90267091 
1 0 1:1.5993336 2:0.097188619 3:1 4:0.90267091 
1 0 1:1.5952865 2:-0.040470445 3:1 4:0.90267091 
1 0 1:1.6029853 2:0.076987884 3:1 4:0.90267091 
1 0 1:1.6005584 2:-0.024269397 3:1 4:0.90267091 
1 0 1:1.5995858 2:-0.0097256113 3:1 4:0.90267091 
1 0 1:1.6035304 2:0.03944617 3:1 4:0.90267091 
1 0 1:1.6057717 2:0.022412165 3:1 4:0.90267091 
1 0 1:1.6007665 2:-0.05005164 3:1 4:0.90267091 
1 0 1:1.5978701 2:-0.028963887 3:1 4:0.90267091 
1 0 1:1.5957891 2:-0.020809961 3:1 4:0.90267091 
1 0 1:1.5951726 2:-0.006164954 3:1 4:0.90267091 
1 0 1:1.5974197 2:0.022471227 3:1 4:0.90267091 
1 0 1:1.6028209 2:0.054011367 3:1 4:0.90267091 
1 0 1:1.6122634 2:0.094425574 3:1 4:0.90267091 
1 0 1:1.6251058 2:0.12842375 3:1 4:0.90267091 
1 0 1:1.6355892 2:0.10483417 3:1 4:0.90267091 
1 0 1:1.6438502 2:0.082609613 3:1 4:0.90267091 
1 0 1:1.654935 2:0.11084787 3:1 4:0.90267091 
1 0 1:1.6707041 2:0.1576915 3:1 4:0.90267091 
1 0 1:2.529468 2:-0.10713681 3:0.84611717 4:0.90267091 
1 0 1:2.503788 2:-0.25680033 3:0.84611717 4:0.90267091 
1 0 1:2.4756826 2:-0.28105353 3:0.84611717 4:0.90267091 
1 0 1:2.4453299 2:-0.30352719 3:0.84611717 4:0.90267091 
1 0 1:2.4225077 2:-0.2282217 3:0.84611717 4:0.90267091 
1 0 1:2.4017553 2:-0.20752416 3:0.84611717 4:0.90267091 
1 0 1:2.3918631 2:-0.098921895 3:0.84611717 4:0.90267091 
1 0 1:2.6146294 2:-0.22946424 3:0.84611717 4:0.90267091 
1 0 1:2.5906765 2:-0.23952905 3:0.84611717 4:0.90267091 
1 0 1:2.5735531 2:-0.17123334 3:0.84611717 4:0.90267091 
1 0 1:5.0616316 2:-0.82615214 3:1 4:0.90267091 
1 0 1:4.9701538 2:-0.91477828 3:1 4:0.90267091 
1 0 1:4.8690122 2:-1.0114163 3:1 4:0.90267091 
1 0 1:4.7592389 2:-1.0977327 3:1 4:0.90267091 
1 0 1:4.6437535 2:-1.1548541 3:1 4:0.90267091 
1 0 1:5.7089389 2:-1.1508189 3:0.54009827 4:0.56137499 
1 0 1:5.5916882 2:-1.1725071 3:0.98336411 4:0.57923401 
1 0 1:5.4777093 2:-1.1397889 3:0.99999215 4:0.59587166 
1 0 1:5.3619133 2:-1.1579598 3:1 4:0.61032333 
1 0 1:5.2401517 2:-1.2176162 3:1 4:0.62100539 
1 0 1:5.1107369 2:-1.2941483 3:1 4:0.62877487 
1 0 1:4.9649707 2:-1.4576614 3:0.99999993 4:0.63370117 
1 0 1:4.3038334 2:-0.8949307 3:0.55353607 4:0.034924084 
1 0 1:4.2118859 2:-0.91947532 3:0.54214095 4:0.042341767 
1 0 1:4.1193882 2:-0.92497656 3:0.52944253 4:0.054321651 
1 0 1:4.0269626 2:-0.92425611 3:0.51856288 4:0.071954393 
1 0 1:3.9343971 2:-0.92565549 3:0.51134579 4:0.094924042 
1 0 1:3.8417412 2:-0.92655899 3:0.50756319 4:0.12441305 
1 0 1:3.7599385 2:-0.81802651 3:0.50360123 4:0.16108456 
1 0 1:3.6894695 2:-0.70468986 3:0.49528249 4:0.19838377 
1 0 1:3.9153944 2:-0.84068858 3:0 4:9.0738174e-007 
1 0 1:3.8320617 2:-0.83332696 3:1 4:4.435341e-014 
1 0 1:3.7456716 2:-0.86390113 3:1 4:0 
1 0 1:3.6553788 2:-0.90292751 3:1 4:0 
1 0 1:3.565885 2:-0.89493778 3:1 4:0 
1 0 1:3.4761625 2:-0.89722522 3:1 4:0 
1 0 1:3.3794716 2:-0.96690902 3:1 4:0 
1 0 1:3.2852667 2:-0.94204856 3:1 4:0 
1 0 1:3.1939044 2:-0.91362365 3:1 4:0 
1 0 1:3.0967897 2:-0.97114717 3:1 4:0 
1 0 1:2.9955936 2:-1.0119604 3:1 4:0 
1 0 1:2.8942929 2:-1.0130075 3:1 4:0 
1 0 1:2.8004828 2:-0.93810121 3:1 4:0 
1 0 1:2.71683 2:-0.8365272 3:1 4:0 
1 0 1:2.6391998 2:-0.77630274 3:0 4:0 
1 0 1:2.5578888 2:-0.81310943 3:0 4:0 
1 0 1:2.4819122 2:-0.75976655 3:0 4:0 
1 0 1:2.4114037 2:-0.70508468 3:0 4:0 
1 1 1:2.3427692 2:-0.68634487 3:0 4:0 
1 1 1:2.2859853 2:-0.56783922 3:0 4:0 
1 1 1:2.230108 2:-0.55877265 3:0 4:0 
1 0 1:2.1823658 2:-0.47742192 3:0 4:0.90267091 
1 0 1:2.145113 2:-0.3725281 3:0 4:0.90267091 
1 0 1:2.1044659 2:-0.40647086 3:0 4:0.90267091 
1 0 1:2.0740205 2:-0.30445417 3:0 4:0.90267091 
1 0 1:2.054394 2:-0.1962654 3:0 4:0.90267091 
1 0 1:2.0395228 2:-0.14871197 3:0 4:0.90267091 
1 0 1:2.025729 2:-0.13793798 3:0 4:0.90267091 
1 0 1:3.1028467 2:-0.32117145 3:1 4:0.90267091 
1 0 1:3.0531117 2:-0.49734914 3:1 4:0.90267091 
1 0 1:2.9945175 2:-0.58594261 3:1 4:0.90267091 
1 0 1:2.9313196 2:-0.63197884 3:1 4:0.90267091 
1 0 1:2.870778 2:-0.60541559 3:1 4:0.90267091 
1 0 1:2.8044818 2:-0.66296248 3:1 4:0.90267091 
1 0 1:2.7452423 2:-0.59239453 3:1 4:0.90267091 
1 0 1:2.6837592 2:-0.61483193 3:1 4:0.90267091 
1 0 1:2.6279429 2:-0.55816286 3:1 4:0.90267091 
1 0 1:5.8100985 2:-1.2115653 3:1 4:0 
1 0 1:5.5610128 2:-1.2530664 3:0 4:0.90267091 
1 0 1:5.4348364 2:-1.2617646 3:0 4:0.90267091 
1 0 1:5.311309 2:-1.2352741 3:0 4:0.90267091 
1 0 1:5.1910364 2:-1.2027254 3:0 4:0.90267091 
1 0 1:5.0711129 2:-1.1992355 3:0 4:0.90267091 
1 0 1:4.9543707 2:-1.1674213 3:0 4:0.90267091 
1 0 1:4.8459882 2:-1.0838256 3:0 4:0.90267091 
1 0 1:4.7479747 2:-0.98013508 3:0 4:0.90267091 
1 0 1:4.6588442 2:-0.89130459 3:0 4:0.90267091 
1 0 1:4.5689895 2:-0.89854744 3:0 4:0.90267091 
1 0 1:4.4848837 2:-0.84105796 3:0 4:0.90267091 
1 0 1:4.4075968 2:-0.77286845 3:0 4:0.90267091 
1 0 1:5.1775019 2:-1.2355949 3:0 4:0.11943155 
1 0 1:5.0471801 2:-1.3032179 3:0 4:0.12102098 
1 0 1:4.9148932 2:-1.322869 3:0 4:0.12118004 
1 0 1:4.77912 2:-1.3577328 3:0 4:0.08877602 
1 0 1:4.644106 2:-1.35014 3:0 4:0.054727528 
1 0 1:4.5103805 2:-1.3372547 3:0 4:0.042143342 
1 0 1:4.3775842 2:-1.3279627 3:0 4:0.048000901 
1 0 1:4.2451391 2:-1.3244509 3:0 4:0.074910491 
1 0 1:4.1191725 2:-1.2596666 3:0 4:0.11138364 
1 0 1:3.9997813 2:-1.193912 3:0 4:0.12410741 
1 0 1:3.8918053 2:-1.0797596 3:0 4:0.14935546 
1 0 1:3.793924 2:-0.9788135 3:0 4:0.18148646 
1 0 1:3.7025547 2:-0.91369252 3:0 4:0.22652382 
1 0 1:3.6157396 2:-0.86815087 3:0 4:0.25713449 
1 0 1:3.5341831 2:-0.8155654 3:0 4:0.28164407 
1 0 1:3.4565001 2:-0.77682939 3:0 4:0.29194265 
1 0 1:3.3825334 2:-0.73966752 3:0 4:0.30381545 
1 0 1:3.3115909 2:-0.70942475 3:0 4:0.31631056 
1 0 1:3.2446605 2:-0.66930416 3:0 4:0.32941307 
1 0 1:3.7769056 2:-0.58999329 3:1 4:0.3190802 
1 0 1:3.7082973 2:-0.68608306 3:1 4:0.30892653 
1 0 1:3.633934 2:-0.74363284 3:1 4:0.29963217 
1 0 1:3.5578185 2:-0.76115479 3:1 4:0.13075353 
1 0 1:3.4819094 2:-0.75909119 3:1 4:0.12438286 
1 0 1:3.4049964 2:-0.76912965 3:1 4:0.12731357 
1 0 1:3.3275196 2:-0.77476803 3:1 4:0.12856565 
1 0 1:3.2489899 2:-0.78529689 3:1 4:0.1176079 
1 0 1:3.1659345 2:-0.83055445 3:1 4:0.10666417 
1 0 1:3.0878176 2:-0.78116889 3:1 4:0.028760867 
1 0 1:3.0108866 2:-0.76931004 3:1 4:0.023577553 
1 0 1:2.934804 2:-0.76082587 3:1 4:0.023656684 
1 0 1:2.8583623 2:-0.76441679 3:1 4:0.024482359 
1 0 1:2.7859923 2:-0.72370062 3:1 4:0.028631378 
1 0 1:2.7148579 2:-0.71134403 3:1 4:0.034787465 
1 0 1:2.6417491 2:-0.73108749 3:1 4:0.042181072 
1 0 1:2.5728692 2:-0.68879935 3:1 4:0.049843187 
1 0 1:2.5091699 2:-0.63699276 3:1 4:0.057854597 
1 0 1:2.4500365 2:-0.59133441 3:1 4:0.071053932 
1 0 1:2.3956146 2:-0.54421851 3:1 4:0.07912895 
1 0 1:2.3451901 2:-0.50424479 3:1 4:0.069884225 
1 0 1:2.2967355 2:-0.48454604 3:1 4:0.051973437 
1 0 1:2.2519856 2:-0.44749945 3:1 4:0.035187791 
1 0 1:2.2077313 2:-0.44254265 3:1 4:0.021932103 
1 1 1:2.1695128 2:-0.38218464 3:1 4:0.010796249 
1 1 1:2.1390644 2:-0.30448428 3:1 4:0.0031617814 
1 1 1:2.1161352 2:-0.22929238 3:1 4:0.00030525815 
0 1 1:2.1005244 2:-0.1561079 3:1 4:3.6384332e-007 
0 1 1:2.0930033 2:-0.075210886 3:1 4:0 
0 1 1:2.0861582 2:-0.068450581 3:1 4:0 
0 1 1:2.0838684 2:-0.022898871 3:1 4:0 
0 1 1:2.0885929 2:0.047245917 3:1 4:0 
0 1 1:2.1008067 2:0.12213747 3:1 4:0 
0 1 1:2.1175887 2:0.16782055 3:1 4:0 
0 1 1:2.1398665 2:0.22277722 3:1 4:0 
0 1 1:2.1579786 2:0.18112139 3:1 4:0 
0 1 1:2.1818029 2:0.23824271 3:1 4:0 
0 1 1:2.2157967 2:0.33993841 3:1 4:0 
0 1 1:2.2430741 2:0.27277409 3:1 4:0 
0 1 1:2.2837544 2:0.4068026 3:1 4:0 
0 1 1:2.3211495 2:0.37395071 3:0 4:0 
0 1 1:2.3585204 2:0.37370904 3:0 4:0 
0 1 1:2.4000137 2:0.41493338 3:0 4:0 
0 1 1:2.4312262 2:0.31212544 3:0 4:0 
0 1 1:2.4644805 2:0.33254238 3:0 4:0 
1 0 1:4.3417236 2:-0.61864632 3:0.78175821 4:0.90267091 
1 0 1:4.2707071 2:-0.71016482 3:0.79337247 4:0.90267091 
1 0 1:4.1896375 2:-0.81069626 3:0.99840175 4:0.90267091 
1 0 1:4.1051525 2:-0.8448501 3:1 4:0.90267091 
1 0 1:4.0150359 2:-0.90116561 3:1 4:0.90267091 
1 0 1:3.9241296 2:-0.90906308 3:1 4:0.90267091 
1 0 1:2.6879995 2:-0.51338237 3:0.96042007 4:0.90267091 
1 0 1:2.6366613 2:-0.51338237 3:0.95727859 4:0.90267091 
1 0 1:2.5702321 2:-0.66429158 3:0.9567097 4:0.90267091 
1 0 1:2.4889461 2:-0.8128597 3:0.95940607 4:0.90267091 
1 0 1:2.3916528 2:-0.97293295 3:0.96377683 4:0.90267091 
1 0 1:2.2849123 2:-1.0674059 3:0.96670357 4:0.90267091 
1 0 1:2.164144 2:-1.2076828 3:0.96322498 4:0.90267091 
1 0 1:2.0365358 2:-1.2760819 3:0.95862297 4:0.20815393 
1 1 1:1.8948683 2:-1.416675 3:0.95387984 4:0.16090655 
1 1 1:1.7514508 2:-1.4341748 3:0.94783915 4:0.11475725 
1 1 1:1.6079789 2:-1.4347186 3:0.94111656 4:0.071525874 
1 0 1:4.5080462 2:-0.63268135 3:1 4:0.95132182 
1 0 1:4.4271585 2:-0.80887642 3:1 4:0.95176126 
1 0 1:4.3285456 2:-0.98612927 3:1 4:0.95214366 
1 0 1:4.2072994 2:-1.2124624 3:1 4:0.95249464 
1 0 1:4.0661005 2:-1.4119889 3:1 4:0.9528576 
1 0 1:3.9078217 2:-1.5827879 3:1 4:0.95327591 
1 0 1:3.7325656 2:-1.7525605 3:1 4:0.95376372 
1 0 1:3.5371902 2:-1.9537549 3:1 4:0.95430679 
1 0 1:3.3284096 2:-2.0878054 3:1 4:0.95488559 
1 0 1:3.1140917 2:-2.1431789 3:1 4:0.95549353 
1 0 1:3.862359 2:-0.47067961 3:1 4:0.90267091 
1 0 1:3.814599 2:-0.47759929 3:1 4:0.90267091 
1 0 1:3.7679446 2:-0.46654432 3:1 4:0.90267091 
1 0 1:3.7169792 2:-0.50965424 3:1 4:0.90267091 
1 0 1:3.6665438 2:-0.50435373 3:1 4:0.90267091 
1 0 1:3.6175301 2:-0.49013677 3:1 4:0.90267091 
1 0 1:3.5696896 2:-0.47840513 3:1 4:0.90267091 
1 0 1:3.5218329 2:-0.47856731 3:1 4:0.90267091 
1 0 1:3.4736186 2:-0.48214301 3:1 4:0.90267091 
1 0 1:3.4255121 2:-0.48106467 3:1 4:0.90267091 
1 0 1:3.3784988 2:-0.47013364 3:1 4:0.90267091 
1 0 1:3.3297911 2:-0.4870769 3:1 4:0.90267091 
1 0 1:3.2814293 2:-0.48361796 3:1 4:0.90267091 
1 0 1:3.234387 2:-0.47042277 3:1 4:0.90267091 
1 0 1:3.1896669 2:-0.44720067 3:1 4:0.90267091 
1 0 1:3.1434581 2:-0.46208788 3:1 4:0.90267091 
1 0 1:3.0968526 2:-0.46605544 3:1 4:0.90267091 
1 0 1:3.0531236 2:-0.43729028 3:1 4:0.90267091 
1 0 1:3.0102415 2:-0.42882069 3:1 4:0.90267091 
1 0 1:2.9656059 2:-0.44635615 3:1 4:0.90267091 
1 0 1:2.9234997 2:-0.42106211 3:1 4:0.90267091 
1 0 1:2.8827232 2:-0.40776446 3:1 4:0.90267091 
1 0 1:2.8436552 2:-0.39068059 3:1 4:0.90267091 
1 0 1:2.8094088 2:-0.34246407 3:1 4:0.90267091 
1 0 1:2.7690179 2:-0.40390869 3:1 4:0.90267091 
1 0 1:2.7347399 2:-0.34277996 3:1 4:0.90267091 
1 0 1:2.6947808 2:-0.39959071 3:1 4:0.90267091 
1 0 1:2.6594546 2:-0.35326273 3:1 4:0.90267091 
1 0 1:2.6208695 2:-0.38585028 3:1 4:0.90267091 
1 0 1:2.5941592 2:-0.2671031 3:1 4:0.90267091 
1 0 1:2.580465 2:-0.13694217 3:1 4:0.90267091 
1 0 1:4.0904596 2:-0.53139632 3:1 4:0.90267091 
1 0 1:4.0307775 2:-0.59682162 3:1 4:0.90267091 
1 0 1:3.9735966 2:-0.57180828 3:1 4:0.90267091 
1 0 1:3.9086804 2:-0.64916281 3:1 4:0.90267091 
1 0 1:3.8446313 2:-0.64049045 3:1 4:0.90267091 
1 0 1:3.7789559 2:-0.65675391 3:1 4:0.90267091 
1 0 1:3.7105403 2:-0.68415661 3:1 4:0.90267091 
1 0 1:3.6382363 2:-0.72303952 3:1 4:0.90267091 
1 0 1:3.5631341 2:-0.75102231 3:1 4:0.90267091 
1 0 1:3.4905139 2:-0.72620222 3:1 4:0.90267091 
1 0 1:3.4096053 2:-0.80908577 3:1 4:0.90267091 
1 0 1:3.3317244 2:-0.77880868 3:1 4:0.90267091 
1 0 1:3.2532396 2:-0.78484773 3:1 4:0.90267091 
1 0 1:3.1700976 2:-0.83142031 3:1 4:0.90267091 
1 0 1:3.0884001 2:-0.81697555 3:1 4:0.90267091 
1 0 1:3.0071199 2:-0.8128011 3:1 4:0.90267091 
1 0 1:2.9395786 2:-0.67541313 3:1 4:0.90267091 
1 0 1:2.8701021 2:-0.69476544 3:1 4:0.90267091 
1 0 1:2.8046322 2:-0.65469853 3:1 4:0.90267091 
1 0 1:2.7426106 2:-0.62021626 3:1 4:0.90267091 
1 0 1:2.6847955 2:-0.57815086 3:1 4:0.90267091 
1 0 1:2.6252578 2:-0.5953774 3:1 4:0.90267091 
1 0 1:2.5778731 2:-0.47384697 3:1 4:0.90267091 
1 0 1:2.5318827 2:-0.45990401 3:1 4:0.90267091 
1 0 1:2.488972 2:-0.42910649 3:1 4:0.90267091 
1 0 1:2.4551688 2:-0.33803231 3:1 4:0.90267091 
1 0 1:2.4232067 2:-0.31962096 3:1 4:0.90267091 
1 0 1:2.3989418 2:-0.24264875 3:1 4:0.90267091 
1 0 1:2.3865714 2:-0.12370431 3:1 4:0.90267091 
1 0 1:2.3715169 2:-0.15054495 3:1 4:0.90267091 
1 0 1:2.3662291 2:-0.052877903 3:1 4:0.90267091 
1 0 1:4.7270875 2:-0.82324846 3:0.99999997 4:0.90267091 
1 0 1:4.637858 2:-0.89229584 3:0.99999998 4:0.90267091 
1 0 1:4.5450245 2:-0.92833462 3:0.99997473 4:0.90267091 
1 0 1:4.4454464 2:-0.99578079 3:0.96978845 4:0.90267091 
1 0 1:4.3462914 2:-0.99154989 3:0.75273617 4:0.90267091 
1 0 1:4.241492 2:-1.0479943 3:0.72869222 4:0.90267091 
1 0 1:5.5538222 2:-0.98835832 3:1 4:0.82904366 
1 0 1:5.4385775 2:-1.1524464 3:1 4:0.83503348 
1 0 1:5.301211 2:-1.373665 3:1 4:0.8410223 
1 0 1:5.1466594 2:-1.5455166 3:1 4:0.84696327 
1 0 1:5.8852422 2:-1.1664972 3:1 4:0.89726285 
1 0 1:5.7500041 2:-1.3523815 3:1 4:0.89856004 
1 0 1:5.602222 2:-1.4778208 3:0.99999996 4:0.90032851 
1 0 1:5.4467655 2:-1.5545647 3:0.9967415 4:0.90259463 
1 0 1:5.2847551 2:-1.6201045 3:0.98555172 4:0.90489031 
1 0 1:4.566162 2:-0.79887084 3:0.99999996 4:0.91870625 
1 0 1:4.4765672 2:-0.89594826 3:0.99919558 4:0.91979201 
1 0 1:4.3666676 2:-1.0989955 3:0.93602152 4:0.92092471 
1 0 1:4.2446793 2:-1.2198827 3:0.80315302 4:0.92210732 
1 0 1:4.1095193 2:-1.3516006 3:0.84413949 4:0.92331408 
1 0 1:3.9618521 2:-1.4766719 3:0.9249839 4:0.92454025 
-0 1 1:-1.1108152 2:-0.53742545 3:0.43997921 4:0.90267091 
-1 1 1:-1.1471487 2:-0.36333483 3:0.4325734 4:0.90267091 
-1 1 1:-1.1684041 2:-0.21255361 3:0.42390577 4:0.90267091 
-1 1 1:-1.1788089 2:-0.10404852 3:0.41388545 4:0.90267091 
-1 1 1:-1.1854121 2:-0.066031819 3:0.40222533 4:0.90267091 
-1 1 1:-1.1705097 2:0.14902444 3:0.39093488 4:0.90267091 
-1 1 1:-1.1712015 2:-0.0069185014 3:0.38469774 4:0.90267091 
-1 1 1:-1.1597926 2:0.11408954 3:0.38713115 4:0.90267091 
-1 1 1:-1.171252 2:-0.11459448 3:0.39789817 4:0.90267091 
-1 1 1:-1.1760883 2:-0.048363405 3:0.41015326 4:0.90267091 
-1 1 1:-1.2084938 2:-0.32405464 3:0.41802137 4:0.90267091 
-1 1 1:-1.2501684 2:-0.41674641 3:0.41596307 4:0.90267091 
-1 1 1:-1.2790426 2:-0.28874129 3:0.40465822 4:0.90267091 
-1 1 1:-1.3090287 2:-0.29986119 3:0.38950887 4:0.90267091 
-1 1 1:-1.3427778 2:-0.33749089 3:0.37612425 4:0.90267091 
-1 1 1:-1.3761249 2:-0.33347131 3:0.36677175 4:0.90267091 
-1 1 1:-1.4013839 2:-0.25258947 3:0.35905007 4:0.90267091 
-1 1 1:-1.4328138 2:-0.31429931 3:0.34820442 4:0.90267091 
-0 1 1:-1.4753032 2:-0.42489392 3:0.33098067 4:0.90267091 
-1 1 1:-1.504358 2:-0.29054846 3:0.30616019 4:0.90267091 
-0 1 1:-1.5476857 2:-0.43327675 3:0.27406612 4:0.90267091 
-1 1 1:-1.5813987 2:-0.33712968 3:0.23880233 4:0.90267091 
-1 1 1:-1.6173903 2:-0.35991675 3:0.20796661 4:0.90267091 
-0 1 1:-1.6575072 2:-0.40116806 3:0.18616449 4:0.90267091 
-0 1 1:-1.6989729 2:-0.41465793 3:0.17196361 4:0.90267091 
-0 1 1:-1.7415938 2:-0.42620888 3:0.16107239 4:0.90267091 
-0 1 1:-1.7854847 2:-0.43890855 3:0.14986716 4:0.90267091 
-0 1 1:-1.8305667 2:-0.45081975 3:0.1376056 4:0.90267091 
-0 1 1:-1.8634303 2:-0.32863623 3:0.12431128 4:0.90267091 
-1 1 1:-1.8937319 2:-0.30301598 3:0.10836322 4:0.90267091 
-1 1 1:-1.9203342 2:-0.26602296 3:0.088335378 4:0.90267091 
-1 1 1:-1.9307127 2:-0.10378533 3:0.066551882 4:0.90267091 
-1 1 1:-1.9369895 2:-0.062767987 3:0.047527407 4:0.90267091 
-1 1 1:-1.9415311 2:-0.045415749 3:0.033320611 4:0.90267091 
-1 1 1:-1.9314715 2:0.10059576 3:0.02267985 4:0.90267091 
-1 1 1:-1.9265969 2:0.048745877 3:0.013888776 4:0.90267091 
-1 1 1:-1.9208895 2:0.057074453 3:0.0069387931 4:0.90267091 
-1 1 1:-1.9091358 2:0.1175371 3:0.0024762153 4:0.90267091 
-1 1 1:-1.9011682 2:0.079675886 3:0.00043117434 4:0.90267091 
-1 1 1:-1.8974383 2:0.037298546 3:3.2981806e-006 4:0.90267091 
-1 1 1:-1.897753 2:-0.0031465295 3:0 4:0.90267091 
-1 1 1:-1.9074995 2:-0.097465526 3:0 4:0.90267091 
-1 1 1:-1.926665 2:-0.19165498 3:0 4:0.90267091 
-0 1 1:-1.958685 2:-0.32019984 3:0 4:0.90267091 
-0 1 1:-1.9993467 2:-0.4066173 3:0 4:0.90267091 
-0 1 1:-2.0464358 2:-0.4708903 3:0 4:0.90267091 
-0 1 1:-2.1124322 2:-0.65996406 3:0 4:0.90267091 
-0 1 1:-2.1842627 2:-0.7183052 3:0 4:0.90267091 
-0 1 1:-2.26607 2:-0.81807341 3:0 4:0.90267091 
-0 1 1:-5.5912468 2:-1.2160266 3:0 4:0 
-0 1 1:-5.6974363 2:-1.061895 3:0 4:0 
-0 1 1:-5.7836651 2:-0.86228823 3:0 4:0.90267091 
-0 1 1:-5.8447933 2:-0.61128202 3:0 4:0.90267091 
-0 1 1:-5.8846341 2:-0.39840826 3:0 4:0.90267091 
-0 1 1:-5.9106761 2:-0.26041986 3:0 4:0.90267091 
-0 1 1:-5.9318888 2:-0.21212712 3:0 4:0.90267091 
-0 1 1:-5.9478557 2:-0.15966937 3:0 4:0.90267091 
-0 1 1:-5.9541862 2:-0.063304307 3:0 4:0.90267091 
-0 1 1:-5.9548694 2:-0.0068321453 3:0 4:0.90267091 
-0 1 1:-5.9488816 2:0.059878276 3:0 4:0.90267091 
-0 1 1:-5.9358776 2:0.13003924 3:0 4:0.90267091 
-0 1 1:-5.9157587 2:0.20118981 3:0 4:0.90267091 
-0 1 1:-3.2445029 2:-0.99178044 3:0.85050717 4:0.90267091 
-0 1 1:-3.3343477 2:-0.89844863 3:0.85276857 4:0.90267091 
-0 1 1:-3.4114578 2:-0.77110084 3:0.85702938 4:0.90267091 
-0 1 1:-3.4830974 2:-0.71639544 3:0.86255762 4:0.90267091 
-0 1 1:-3.54337 2:-0.60272692 3:0.86865413 4:0.90267091 
-1 0 1:5.2674629 2:-0.73941546 3:0 4:0.90267091 
-1 0 1:5.1916733 2:-0.7578954 3:1 4:0.90267091 
-1 0 1:5.1135418 2:-0.78131566 3:1 4:0.90267091 
-1 0 1:5.0339181 2:-0.79623705 3:1 4:0.90267091 
-1 0 1:4.9539409 2:-0.79977197 3:1 4:0.90267091 
-1 0 1:4.8724537 2:-0.81487192 3:1 4:0.90267091 
-1 0 1:4.7907136 2:-0.81740093 3:1 4:0.90267091 
-1 0 1:4.7057918 2:-0.8492177 3:1 4:0.90267091 
-1 0 1:4.6220515 2:-0.83740285 3:1 4:0.90267091 
-1 0 1:4.5332973 2:-0.88754236 3:1 4:0.90267091 
-1 0 1:4.4455368 2:-0.87760475 3:1 4:0.90267091 
-1 0 1:4.3508441 2:-0.94692756 3:1 4:0.90267091 
-1 0 1:4.2541048 2:-0.96739249 3:1 4:0.90267091 
-1 0 1:4.1536947 2:-1.0041009 3:1 4:0.90267091 
-1 0 1:4.0460011 2:-1.0769364 3:1 4:0.90267091 
-1 0 1:3.9374082 2:-1.0859288 3:1 4:0.90267091 
-1 0 1:3.8270254 2:-1.103828 3:1 4:0.90267091 
-1 0 1:3.7093687 2:-1.1765667 3:1 4:0.90267091 
-1 0 1:3.5866282 2:-1.227405 3:1 4:0.90267091 
-1 0 1:3.4607716 2:-1.2585664 3:1 4:0.90267091 
-1 0 1:3.3338207 2:-1.2695093 3:1 4:0.90267091 
-1 0 1:3.208147 2:-1.2567365 3:1 4:0.90267091 
-1 0 1:3.0853068 2:-1.2284018 3:1 4:0.90267091 
-1 0 1:2.9659269 2:-1.1937988 3:1 4:0.90267091 
-1 0 1:2.8477725 2:-1.1815448 3:1 4:0.90267091 
-1 0 1:2.7294977 2:-1.1827478 3:1 4:0.90267091 
-1 0 1:2.6102743 2:-1.1922342 3:1 4:0.90267091 
-1 0 1:2.4868716 2:-1.2340269 3:1 4:0.90267091 
-1 0 1:2.3586873 2:-1.2818433 3:1 4:0.90267091 
-0 1 1:-2.6038077 2:-0.77606871 3:0.99978706 4:0.90267091 
-0 1 1:-2.6658527 2:-0.62045054 3:0.99976249 4:0.90267091 
-0 1 1:-2.7055124 2:-0.39659694 3:0.99980126 4:0.90267091 
-0 1 1:-2.7533624 2:-0.47849963 3:0.99988547 4:0.90267091 
-0 1 1:-2.8040254 2:-0.50662999 3:0.99997722 4:0.90267091 
-0 1 1:-2.8648269 2:-0.60801484 3:0.99999911 4:0.90267091 
-0 1 1:-2.9294998 2:-0.64672883 3:0.99999999 4:0.90267091 
-0 1 1:-2.9925947 2:-0.63094934 3:1 4:0.90267091 
-0 1 1:-3.0500316 2:-0.57436911 3:1 4:0.90267091 
-0 1 1:-3.0997284 2:-0.49696774 3:1 4:0.90267091 
-0 1 1:-3.1425017 2:-0.42773333 3:1 4:0.90267091 
-0 1 1:-3.1796137 2:-0.37111962 3:1 4:0.90267091 
-0 1 1:-3.2082665 2:-0.28652802 3:1 4:0.90267091 
-0 1 1:-3.2275205 2:-0.1925399 3:0.99998667 4:0.90267091 
-0 1 1:-3.2386405 2:-0.11120071 3:0.98966042 4:0.90267091 
-0 1 1:-3.2446336 2:-0.059930637 3:0.98969431 4:0.90267091 
-0 1 1:-3.2482476 2:-0.036140324 3:0.99998325 4:0.90267091 
-0 1 1:-3.2520269 2:-0.037792959 3:1 4:0.90267091 
-0 1 1:-3.2586027 2:-0.065758268 3:1 4:0.90267091 
-0 1 1:-3.2696738 2:-0.11071015 3:1 4:0.90267091 
-0 1 1:-3.2882179 2:-0.18544097 3:0.99999996 4:0.90267091 
-0 1 1:-3.3165764 2:-0.28358579 3:0.99999958 4:0.90267091 
-0 1 1:-3.3566009 2:-0.40024435 3:0.99999966 4:0.90267091 
-0 1 1:-3.4068746 2:-0.50273689 3:0.99999919 4:0.90267091 
-0 1 1:-3.4727281 2:-0.65853535 3:0.9999815 4:0.90267091 
-0 1 1:-3.5634126 2:-0.90684469 3:0.99877291 4:0.90267091 
-0 1 1:-4.0114497 2:-1.0862719 3:0.83767919 4:0.90267091 
-0 1 1:-4.1097473 2:-0.98297552 3:0.83421829 4:0.90267091 
-0 1 1:-4.206959 2:-0.97211721 3:0.82820099 4:0.90267091 
-0 1 1:-4.3099695 2:-1.0301055 3:0.82286972 4:0.90267091 
-0 1 1:-4.4079814 2:-0.9801182 3:0.81949699 4:0.90267091 
-0 1 1:-4.5065656 2:-0.98584256 3:0.81720746 4:0.90267091 
-0 1 1:-4.5933892 2:-0.86823543 3:0.81600118 4:0.90267091 
-0 1 1:-4.6798152 2:-0.86426081 3:0.81672128 4:0.90267091 
-0 1 1:-4.7621583 2:-0.82343026 3:0.82009552 4:0.90267091 
-1 0 1:6.0104847 2:-1.7027555 3:1 4:0.90267091 
-1 0 1:5.8389193 2:-1.7156545 3:1 4:0.90267091 
-1 0 1:5.6679523 2:-1.7096691 3:1 4:0.90267091 
-1 0 1:5.4966722 2:-1.7128018 3:1 4:0.90267091 
-1 0 1:5.3251289 2:-1.715433 3:1 4:0.90267091 
-1 0 1:5.1493266 2:-1.7580224 3:1 4:0.90267091 
-1 0 1:4.9642072 2:-1.8511943 3:1 4:0.90267091 
-1 0 1:4.7706278 2:-1.9357935 3:1 4:0.90267091 
-1 1 1:0.24744197 2:-0.66998644 3:1 4:0.90267091 
-0 1 1:-4.6548649 2:-1.1561671 3:0.91284625 4:0.90267091 
-0 1 1:-4.7622193 2:-1.0735442 3:0.90708913 4:0.90267091 
-0 1 1:-4.8545741 2:-0.92354759 3:0.90291898 4:0.90267091 
-0 1 1:-4.9352202 2:-0.80646052 3:0.90108785 4:0.90267091 
-0 1 1:-5.0013473 2:-0.66127153 3:0.90116155 4:0.90267091 
-0 1 1:-5.0457847 2:-0.44437353 3:0.90256198 4:0.90267091 
-0 1 1:-5.0791949 2:-0.33410236 3:0.90475584 4:0.90267091 
-0 1 1:-5.1054798 2:-0.26284944 3:0.90700293 4:0.90267091 
-0 1 1:-5.1235807 2:-0.18100893 3:0.90828865 4:0.90267091 
-0 1 1:-5.1395862 2:-0.16005501 3:0.90856524 4:0.90267091 
-0 1 1:-5.1517086 2:-0.12122358 3:0.90793673 4:0.90267091 
-0 1 1:-5.1593393 2:-0.076307212 3:0.86848968 4:0.90267091 
-0 1 1:-5.1620421 2:-0.027028303 3:0.87651773 4:0.90267091 
-0 1 1:-5.1582287 2:0.038134495 3:0.88108642 4:0.90267091 
-0 1 1:-5.1468454 2:0.11383325 3:0.8818833 4:0.90267091 
-0 1 1:-5.1309062 2:0.15939203 3:0.88105617 4:0.90267091 
-0 1 1:-5.1113731 2:0.19533062 3:0.88027149 4:0.90267091 
-0 1 1:-5.087862 2:0.23511054 3:0.87767725 4:0.90267091 
-0 1 1:-5.0602716 2:0.27590407 3:0.87044451 4:0.90267091 
-0 1 1:-5.0314383 2:0.28833295 3:0.85960183 4:0.90267091 
-0 1 1:-5.0008275 2:0.30610874 3:0.84453233 4:0.90267091 
-0 1 1:-4.9710149 2:0.29812559 3:0.84160259 4:0.90267091 
-0 1 1:-4.93919 2:0.31824897 3:0.83868031 4:0.90267091 
-0 1 1:-4.9114525 2:0.2773753 3:0.83599468 4:0.90267091 
-0 1 1:-4.8809957 2:0.30456797 3:0.83508422 4:0.90267091 
-0 1 1:-4.8550259 2:0.25969825 3:0.83737 4:0.90267091 
-0 1 1:-4.8251411 2:0.29884736 3:0.84288066 4:0.90267091 
-0 1 1:-4.7971226 2:0.2801848 3:0.84897304 4:0.90267091 
-0 1 1:-4.7705169 2:0.26605775 3:0.85180775 4:0.90267091 
-0 1 1:-4.7450789 2:0.25437955 3:0.8487052 4:0.90267091 
-0 1 1:-4.721134 2:0.23944965 3:0.84597537 4:0.90267091 
-0 1 1:-4.6991453 2:0.21988689 3:0.84243643 4:0.90267091 
-0 1 1:-4.6794059 2:0.19739371 3:0.84302503 4:0.90267091 
-0 1 1:-4.6627108 2:0.16695122 3:0.84608666 4:0.90267091 
-0 1 1:-4.6529474 2:0.097633926 3:0.84857244 4:0.90267091 
-0 1 1:-4.6503402 2:0.026071316 3:0.84944461 4:0.90267091 
-0 1 1:-4.6525386 2:-0.021983108 3:0.84899808 4:0.90267091 
-0 1 1:-4.6606435 2:-0.081049259 3:0.84893742 4:0.90267091 
-0 1 1:-4.6784968 2:-0.17853291 3:0.85141433 4:0.90267091 
-0 1 1:-4.6959457 2:-0.17448954 3:0.85606091 4:0.90267091 
-0 1 1:-4.7199177 2:-0.23971926 3:0.85972994 4:0.90267091 
-0 1 1:-4.7466902 2:-0.26772571 3:0.85780419 4:0.90267091 
-0 1 1:-4.7826595 2:-0.35969254 3:0.84748078 4:0.90267091 
-0 1 1:-4.8248635 2:-0.42204067 3:0.82779108 4:0.90267091 
-0 1 1:-4.8819098 2:-0.57046292 3:0.80190451 4:0.90267091 
-0 1 1:-4.9470325 2:-0.65122675 3:0.77486288 4:0.90267091 
-0 1 1:-5.0257189 2:-0.78686403 3:0.75015082 4:0.90267091 
-0 1 1:-5.1056488 2:-0.79929927 3:0.73191508 4:0.90267091 
-0 1 1:-5.1919814 2:-0.86332534 3:0.7210818 4:0.90267091 
-0 1 1:-5.2776758 2:-0.8569439 3:0.71573962 4:0.90267091 
-0 1 1:-5.3633598 2:-0.85683986 3:0.71328456 4:0.90267091 
-0 1 1:-5.4488532 2:-0.85493489 3:0.71124371 4:0.90267091 
-0 1 1:-5.5333868 2:-0.84533564 3:0.70843074 4:0.90267091 
-0 1 1:-5.6192655 2:-0.85878675 3:0.70232101 4:0.90267091 
-0 1 1:-5.7027292 2:-0.83463723 3:0.6933679 4:0.90267091 
-0 1 1:-5.7888646 2:-0.8613537 3:0.68255509 4:0.90267091 
-0 1 1:-5.8712559 2:-0.82391305 3:0.67290864 4:0.90267091 
-0 1 1:-5.9573546 2:-0.86098693 3:0.6667236 4:0.90267091 
-0 1 1:-6.038554 2:-0.81199418 3:0.6639536 4:0.90267091 
-0 1 1:-6.1188145 2:-0.8026048 3:0.66274982 4:0.90267091 
-0 1 1:-6.1928014 2:-0.73986882 3:0.66124551 4:0.90267091 
-0 1 1:-6.2616678 2:-0.68866457 3:0.65806805 4:0.90267091 
-0 1 1:-3.0272854 2:-1.0022934 3:0.9927367 4:0.86529796 
-0 1 1:-3.1202339 2:-0.92948521 3:0.99253361 4:0.86782429 
-0 1 1:-3.2073638 2:-0.87129874 3:0.99224705 4:0.87018114 
-0 1 1:-3.2768003 2:-0.69436503 3:0.99195274 4:0.87237393 
-1 1 1:0.12965211 2:-0.41292086 3:1 4:0.90267091 
-1 1 1:-0.14015965 2:0.070943996 3:0.99155305 4:0.90267091 
-1 1 1:-0.199182 2:-0.59022348 3:0.99628333 4:0.90267091 
-0 1 1:-0.26911999 2:-0.69937989 3:0.99857948 4:0.90267091 
-0 1 1:-0.33704209 2:-0.679221 3:0.99939126 4:0.90267091 
-0 1 1:-0.40215018 2:-0.6510809 3:0.99959643 4:0.90267091 
-0 1 1:-0.46628082 2:-0.64130644 3:0.9991502 4:0.90267091 
-0 1 1:-0.53068208 2:-0.64401258 3:0.99415454 4:0.90267091 
-0 1 1:-0.59819401 2:-0.67511931 3:0.93799975 4:0.90267091 
-0 1 1:-0.65440068 2:-0.56206662 3:0.87159508 4:0.90267091 
-0 1 1:-0.70713886 2:-0.52738183 3:0.86441534 4:0.90267091 
-0 1 1:-0.77180371 2:-0.64664855 3:0.85315625 4:0.90267091 
-0 1 1:-0.84985833 2:-0.78054614 3:0.83729464 4:0.90267091 
-0 1 1:-0.91808957 2:-0.68231243 3:0.82268179 4:0.90267091 
-0 1 1:-0.98918731 2:-0.71097742 3:0.81647196 4:0.90267091 
-0 1 1:-1.1443245 2:-0.70744507 3:0.82938002 4:0.90267091 
-0 1 1:-1.3110381 2:-0.81204724 3:0.83151476 4:0.90267091 
-0 1 1:-1.3943419 2:-0.83303783 3:0.82564034 4:0.90267091 
-0 1 1:-1.8509484 2:-0.87781639 3:0.7408229 4:0.90267091 
-0 1 1:-1.9280521 2:-0.77103684 3:0.7279698 4:0.90267091 
-0 1 1:-1.9941669 2:-0.66114795 3:0.71792763 4:0.90267091 
-0 1 1:-2.0461255 2:-0.51958649 3:0.70521589 4:0.90267091 
-0 1 1:-2.092536 2:-0.46410494 3:0.68510416 4:0.90267091 
-0 1 1:-2.134384 2:-0.41847958 3:0.65757206 4:0.90267091 
-0 1 1:-2.1721717 2:-0.37787694 3:0.62825256 4:0.90267091 
-0 1 1:-2.2036764 2:-0.31504746 3:0.60263167 4:0.90267091 
-0 1 1:-2.21959 2:-0.15913537 3:0.58388934 4:0.90267091 
-0 1 1:-2.233431 2:-0.13841058 3:0.57298616 4:0.90267091 
-1 1 1:-2.2463026 2:-0.12871599 3:0.56753639 4:0.90267091 
-1 1 1:-2.2480083 2:-0.017056694 3:0.56479798 4:0.90267091 
-1 1 1:-2.2554635 2:-0.074551771 3:0.5614052 4:0.90267091 
-1 1 1:-2.2544809 2:0.0098257668 3:0.55551597 4:0.90267091 
-1 1 1:-2.2515888 2:0.028920884 3:0.5463944 4:0.90267091 
-1 1 1:-2.2481734 2:0.034154132 3:0.53457012 4:0.90267091 
-1 1 1:-2.2427776 2:0.053958016 3:0.52134977 4:0.90267091 
-1 1 1:-2.2351468 2:0.076308143 3:0.50807715 4:0.90267091 
-1 1 1:-2.2245751 2:0.10571611 3:0.49819786 4:0.90267091 
-1 1 1:-2.2145225 2:0.10052608 3:0.49594227 4:0.90267091 
-1 1 1:-2.1942508 2:0.20271722 3:0.50223228 4:0.90267091 
-1 1 1:-2.1822413 2:0.12009514 3:0.5129637 4:0.90267091 
-1 1 1:-2.1582598 2:0.23981554 3:0.51827581 4:0.90267091 
-1 1 1:-2.1356327 2:0.22627099 3:0.50861096 4:0.90267091 
-1 1 1:-2.1136867 2:0.2194599 3:0.48297627 4:0.90267091 
-1 1 1:-2.0945548 2:0.19131817 3:0.45079834 4:0.90267091 
-1 1 1:-2.0707535 2:0.23801316 3:0.42289835 4:0.90267091 
-1 1 1:-2.0518645 2:0.18889016 3:0.40522481 4:0.90267091 
-1 1 1:-2.0342159 2:0.17648584 3:0.39559553 4:0.90267091 
-1 1 1:-2.0236467 2:0.10569275 3:0.388531 4:0.90267091 
-1 1 1:-2.0151485 2:0.084981737 3:0.38191231 4:0.90267091 
-1 1 1:-2.0068755 2:0.082729707 3:0.37722795 4:0.90267091 
-1 1 1:-2.000659 2:0.062165262 3:0.37478919 4:0.90267091 
-1 1 1:-2.0039617 2:-0.033027513 3:0.37033582 4:0.90267091 
-1 1 1:-2.0130767 2:-0.09114983 3:0.36124297 4:0.90267091 
-1 1 1:-2.0224289 2:-0.093522048 3:0.34751207 4:0.90267091 
-1 1 1:-2.03078 2:-0.083511119 3:0.33162213 4:0.90267091 
-1 1 1:-2.0447961 2:-0.14016111 3:0.31561133 4:0.90267091 
-1 1 1:-2.0617941 2:-0.16997952 3:0.30045686 4:0.90267091 
-1 1 1:-2.079732 2:-0.17937939 3:0.2872663 4:0.90267091 
-1 1 1:-2.0973842 2:-0.17652125 3:0.27710847 4:0.90267091 
-1 1 1:-2.1145318 2:-0.17147634 3:0.26937452 4:0.90267091 
-1 1 1:-2.13202 2:-0.17488209 3:0.26193371 4:0.90267091 
-1 1 1:-2.1528784 2:-0.20858359 3:0.25183891 4:0.90267091 
-0 1 1:-2.1776576 2:-0.24779201 3:0.23833323 4:0.90267091 
-0 1 1:-2.2006694 2:-0.23011836 3:0.22317196 4:0.90267091 
-1 1 1:-2.2176531 2:-0.16983719 3:0.20774897 4:0.90267091 
-0 1 1:-2.238814 2:-0.21160862 3:0.19281962 4:0.90267091 
-0 1 1:-2.2635663 2:-0.24752346 3:0.17743623 4:0.90267091 
-1 1 1:-2.2825704 2:-0.19004078 3:0.16054855 4:0.90267091 
-1 1 1:-2.2991891 2:-0.16618725 3:0.14064055 4:0.90267091 
-0 1 1:-2.3187809 2:-0.19591806 3:0.11897692 4:0.90267091 
-0 1 1:-2.3397776 2:-0.20996691 3:0.098670146 4:0.90267091 
-1 1 1:-2.3542861 2:-0.14508435 3:0.083139383 4:0.90267091 
-0 1 1:-2.3742809 2:-0.19994865 3:0.074188195 4:0.90267091 
-0 1 1:-2.3992252 2:-0.24944251 3:0.071046688 4:0.90267091 
-0 1 1:-2.4199993 2:-0.2077414 3:0.070080574 4:0.90267091 
-0 1 1:-2.4503875 2:-0.30388143 3:0.068566239 4:0.90267091 
-0 1 1:-2.4907394 2:-0.4035192 3:0.065357997 4:0.90267091 
-0 1 1:-2.5391404 2:-0.48400975 3:0.059934072 4:0.90267091 
-0 1 1:-2.5887492 2:-0.49608818 3:0.050258127 4:0.90267091 
-0 1 1:-2.6454448 2:-0.56695674 3:0.033612073 4:0.90267091 
-0 1 1:-2.7050524 2:-0.59607578 3:0.016904911 4:0.90267091 
-0 1 1:-2.7642823 2:-0.59229887 3:0.0056442909 4:0.90267091 
-0 1 1:-2.8228173 2:-0.58534979 3:0.00054593514 4:0.90267091 
-0 1 1:-2.8824232 2:-0.59605955 3:3.3851255e-012 4:0.90267091 
-0 1 1:-2.9452644 2:-0.62841143 3:0 4:0.90267091 
-0 1 1:-3.0024097 2:-0.57145327 3:0 4:0.90267091 
-0 1 1:-3.0612845 2:-0.58874808 3:0 4:0.90267091 
-0 1 1:-3.1241043 2:-0.62819728 3:0 4:0.90267091 
-0 1 1:-3.180071 2:-0.55966706 3:0 4:0.90267091 
-0 1 1:-3.2412578 2:-0.61186821 3:0 4:0.90267091 
-0 1 1:-3.2993409 2:-0.58083104 3:0 4:0.90267091 
-0 1 1:-3.3559935 2:-0.56652583 3:0 4:0.90267091 
-0 1 1:-3.4162438 2:-0.60250322 3:0 4:0.90267091 
-0 1 1:-3.4782731 2:-0.62029273 3:0 4:0.90267091 
