svm_type c_svc
kernel_type linear
nr_class 3
total_sv 2126
rho -0.141189 4.5445 1.35529
label 1 2 3
probA -1.93426 -1.30909 -1.67705
probB -0.0223704 -0.0209368 -0.106401
nr_sv 488 895 743
SV
10 0 1:4.2296987 2:-0.99719049 
10 0 1:4.1120808 2:-1.1761787 
10 0 1:3.9798197 2:-1.3226105 
10 0 1:3.8354255 2:-1.4439428 
10 0 1:3.6699043 2:-1.6552114 
10 0 1:3.4895108 2:-1.8039353 
10 0 1:3.2943375 2:-1.9517327 
10 0 1:3.0794462 2:-2.1489131 
10 0 1:6.3142263 2:-1.8325707 
10 0 1:6.1168604 2:-1.9736592 
10 0 1:5.9038659 2:-2.1299454 
10 0 1:4.4574317 2:-1.0820665 
10 0 1:4.3256076 2:-1.3182411 
10 0 1:4.1782653 2:-1.4734233 
10 0 1:4.0049723 2:-1.7329299 
10 0 1:3.8123716 2:-1.9260069 
10 0 1:3.5989735 2:-2.1339813 
10 0 1:3.3654437 2:-2.3352978 
10 0 1:3.1131163 2:-2.523274 
10 0 1:2.8419459 2:-2.7117038 
10 0 1:3.3909663 2:-0.78652187 
10 0 1:3.3121744 2:-0.78791874 
10 0 1:3.2405963 2:-0.71578139 
10 0 1:3.1752675 2:-0.65328803 
10 0 1:3.1155804 2:-0.59687123 
10 0 1:4.443722 2:-1.1480168 
10 0 1:4.3163799 2:-1.2734214 
10 0 1:4.1815168 2:-1.3486309 
10 0 1:4.0304555 2:-1.5106129 
10 0 1:3.8702539 2:-1.6020165 
10 0 1:3.6965318 2:-1.7372207 
10 0 1:3.5151597 2:-1.8137209 
10 0 1:3.3232041 2:-1.9195557 
10 0 1:4.2966522 2:-1.0151518 
10 0 1:4.1780481 2:-1.1860407 
10 0 1:4.0497103 2:-1.2833787 
10 0 1:3.9124255 2:-1.3728478 
10 0 1:3.762461 2:-1.4996446 
10 0 1:3.5988341 2:-1.6362694 
10 0 1:6.246056 2:-1.6703836 
10 0 1:6.0638693 2:-1.8218672 
10 0 1:5.8660753 2:-1.9779397 
10 0 1:4.2487181 2:-1.0126908 
10 0 1:4.139881 2:-1.0883713 
10 0 1:4.0302252 2:-1.0965578 
10 0 1:3.9169356 2:-1.1328964 
10 0 1:3.2969571 2:-0.66711826 
10 0 1:3.2102699 2:-0.86687234 
10 0 1:3.0969196 2:-1.1335028 
10 0 1:2.9646263 2:-1.3229337 
10 0 1:2.8102458 2:-1.5438045 
10 0 1:2.6338538 2:-1.7639197 
10 0 1:2.4298613 2:-2.0399257 
10 0 1:2.206581 2:-2.2328021 
10 0 1:1.967197 2:-2.393841 
10 0 1:1.7143356 2:-2.5286133 
10 10 1:1.4456493 2:-2.6868627 
10 0 1:4.1493035 2:-0.93722298 
10 0 1:4.0508655 2:-0.98437969 
10 0 1:3.9424765 2:-1.0838906 
10 0 1:3.8244698 2:-1.1800663 
10 0 1:3.7033279 2:-1.211419 
10 0 1:3.5820689 2:-1.2125904 
10 0 1:3.4623328 2:-1.1973609 
10 0 1:3.3481409 2:-1.1419188 
10 0 1:3.2454762 2:-1.0266476 
10 0 1:3.1562697 2:-0.89206462 
10 0 1:3.0791817 2:-0.77087998 
10 0 1:3.0142565 2:-0.64925255 
10 0 1:2.9618909 2:-0.52365536 
10 0 1:3.4537165 2:-0.84668296 
10 0 1:3.3514699 2:-1.0224655 
10 0 1:3.2332123 2:-1.1825762 
10 0 1:3.1049033 2:-1.2830902 
10 0 1:2.9655594 2:-1.393439 
10 0 1:2.8150704 2:-1.5048904 
10 0 1:2.6536043 2:-1.6146605 
10 0 1:4.0085752 2:-0.99669906 
10 0 1:3.9004007 2:-1.0817444 
10 0 1:3.7842846 2:-1.1611616 
10 0 1:3.6602451 2:-1.2403947 
10 0 1:3.5287332 2:-1.3151185 
10 0 1:3.2187476 2:-0.60790182 
10 0 1:3.1378218 2:-0.80925799 
10 0 1:3.0575058 2:-0.80315949 
10 0 1:2.9706122 2:-0.86893604 
10 0 1:2.8792927 2:-0.91319511 
10 0 1:2.7886539 2:-0.906388 
10 0 1:2.687375 2:-1.012789 
10 0 1:2.5874837 2:-0.99891328 
10 0 1:2.4931289 2:-0.94354752 
10 0 1:2.4063902 2:-0.86738776 
10 0 1:2.3261393 2:-0.8025083 
10 0 1:2.2510138 2:-0.7512554 
10 0 1:2.1865706 2:-0.64443174 
10 0 1:2.1348656 2:-0.51705026 
10 10 1:2.0886804 2:-0.46185237 
10 10 1:2.0597605 2:-0.28919822 
10 10 1:2.0274173 2:-0.32343261 
10 10 1:2.0085342 2:-0.18883063 
0 10 1:2.0001047 2:-0.084295374 
0 10 1:1.9966096 2:-0.034951014 
0 10 1:2.0074999 2:0.10890364 
0 10 1:2.0269405 2:0.19440571 
0 10 1:2.0476406 2:0.20700115 
0 10 1:2.0781472 2:0.30506583 
0 10 1:2.1175518 2:0.39404568 
0 10 1:2.1661103 2:0.48558504 
0 10 1:2.2150369 2:0.48926658 
0 10 1:2.2628297 2:0.47792775 
10 0 1:2.57481 2:-0.43186479 
10 0 1:2.5106183 2:-0.64191672 
10 0 1:2.4293845 2:-0.81233868 
10 0 1:2.3398179 2:-0.89566522 
10 0 1:2.2400889 2:-0.99729 
10 0 1:2.130324 2:-1.0976498 
10 0 1:2.0101166 2:-1.2020737 
10 10 1:1.8787398 2:-1.3137678 
10 10 1:1.7366788 2:-1.4206101 
10 0 1:3.722551 2:-0.79590796 
10 0 1:3.6349417 2:-0.87609246 
10 0 1:3.5479042 2:-0.87037507 
10 0 1:3.452006 2:-0.95898208 
10 0 1:3.3563054 2:-0.95700621 
10 0 1:3.2636508 2:-0.92654587 
10 0 1:3.1675036 2:-0.96147225 
10 0 1:3.0706959 2:-0.96807663 
10 0 1:2.9766451 2:-0.94050847 
10 0 1:2.8841861 2:-0.92458984 
10 0 1:2.7856695 2:-0.98516618 
10 0 1:2.6884541 2:-0.97215352 
10 0 1:2.5908676 2:-0.97586517 
10 0 1:2.4842068 2:-1.0666076 
10 0 1:2.3812493 2:-1.0295751 
10 0 1:2.2736153 2:-1.0763399 
10 0 1:2.1598353 2:-1.1378002 
10 0 1:2.0490878 2:-1.1074746 
10 10 1:1.9450169 2:-1.0407096 
10 10 1:1.8412956 2:-1.0372131 
10 10 1:1.7536736 2:-0.87621958 
10 10 1:1.6798825 2:-0.73791156 
10 10 1:1.6154369 2:-0.64445591 
10 10 1:1.557553 2:-0.57883891 
10 10 1:1.5054729 2:-0.52080037 
10 10 1:1.4527789 2:-0.5269406 
10 10 1:1.399364 2:-0.53414914 
10 10 1:1.3636446 2:-0.35719311 
10 10 1:1.3224657 2:-0.41178926 
10 10 1:1.2985615 2:-0.23904186 
10 10 1:1.2617062 2:-0.36855339 
10 10 1:1.2422292 2:-0.19477024 
10 10 1:1.2343507 2:-0.078785011 
10 10 1:1.2314812 2:-0.028695181 
10 10 1:1.2318232 2:0.0034202207 
10 10 1:1.2345667 2:0.027435548 
0 10 1:1.2478783 2:0.1331161 
0 10 1:1.2795579 2:0.31679591 
0 10 1:1.3133365 2:0.3377859 
0 10 1:1.3637932 2:0.50456672 
0 10 1:1.4099266 2:0.46133374 
0 10 1:1.4705082 2:0.6058166 
0 10 1:1.5393866 2:0.68878408 
0 10 1:1.6094352 2:0.70048586 
0 10 1:1.6746141 2:0.65178868 
0 10 1:1.730529 2:0.55914897 
0 10 1:1.7796535 2:0.49124483 
0 10 1:1.8274394 2:0.4778596 
0 10 1:1.8785114 2:0.51071994 
0 10 1:1.9202763 2:0.41764839 
0 10 1:1.9697139 2:0.49437602 
0 10 1:2.0263938 2:0.5667997 
0 10 1:2.0700785 2:0.43684683 
0 10 1:2.121458 2:0.51379497 
0 10 1:2.1707263 2:0.49268277 
0 10 1:2.2248486 2:0.54122345 
10 0 1:2.5433221 2:-0.42352728 
10 0 1:2.4837558 2:-0.5956626 
10 0 1:2.4022793 2:-0.8147652 
10 0 1:2.3082479 2:-0.9403141 
10 0 1:2.1989882 2:-1.0925969 
10 0 1:2.0654958 2:-1.334924 
10 0 1:1.9210159 2:-1.4447986 
10 10 1:1.7556507 2:-1.6536522 
10 0 1:4.7069337 2:-1.1573352 
10 0 1:4.5840922 2:-1.2284158 
10 0 1:4.4541689 2:-1.2992327 
10 0 1:4.3249534 2:-1.2921546 
10 0 1:4.1972717 2:-1.276817 
10 0 1:4.0790817 2:-1.1819003 
10 0 1:3.9668563 2:-1.1222541 
10 0 1:3.8534531 2:-1.1340324 
10 0 1:3.7452396 2:-1.0821347 
10 0 1:3.6449077 2:-1.003319 
10 0 1:3.5521701 2:-0.92737597 
10 0 1:3.4632897 2:-0.88880416 
10 0 1:3.3807854 2:-0.82504261 
10 0 1:3.307777 2:-0.73008452 
10 0 1:3.2447608 2:-0.63016157 
10 0 1:4.2254848 2:-1.1594609 
10 0 1:4.0868693 2:-1.3861551 
10 0 1:3.9274003 2:-1.5946896 
10 0 1:4.925722 2:-1.2200424 
10 0 1:4.7976361 2:-1.2808591 
10 0 1:4.4527801 2:-1.0422095 
10 0 1:4.3454318 2:-1.0734832 
10 0 1:4.2358953 2:-1.0953651 
10 0 1:4.1223472 2:-1.1354808 
10 0 1:4.0054443 2:-1.1690292 
10 0 1:3.8846432 2:-1.2080112 
10 0 1:3.7609112 2:-1.2373202 
10 0 1:3.6342642 2:-1.2664696 
10 0 1:3.5066034 2:-1.2766075 
10 0 1:3.3737017 2:-1.3290178 
10 0 1:3.2350648 2:-1.3863688 
10 0 1:3.097391 2:-1.3767384 
10 0 1:2.9613713 2:-1.3601967 
10 0 1:2.818277 2:-1.4309429 
10 0 1:2.676241 2:-1.4203602 
10 0 1:2.5463429 2:-1.2989805 
10 0 1:2.4171331 2:-1.2920985 
10 0 1:2.2989833 2:-1.1814976 
10 0 1:2.183764 2:-1.152193 
10 0 1:2.0713968 2:-1.1236721 
10 10 1:1.9703713 2:-1.0102557 
10 10 1:1.8712416 2:-0.99129674 
10 10 1:1.7878236 2:-0.83418017 
10 10 1:1.7010648 2:-0.867588 
10 10 1:1.6349896 2:-0.66075134 
10 10 1:1.5627043 2:-0.72285296 
10 10 1:1.5173986 2:-0.45305718 
10 10 1:1.4646984 2:-0.52700196 
10 10 1:1.4373697 2:-0.2732871 
10 10 1:1.4018798 2:-0.3548992 
10 10 1:1.3896319 2:-0.12247926 
10 10 1:1.375173 2:-0.14458874 
10 10 1:1.3766484 2:0.014754027 
0 10 1:1.386059 2:0.094106122 
0 10 1:1.3986639 2:0.12604898 
0 10 1:1.4322689 2:0.33605008 
0 10 1:1.4558827 2:0.23613834 
0 10 1:1.4987058 2:0.42823 
0 10 1:1.5443326 2:0.45626894 
0 10 1:1.5916529 2:0.47320225 
0 10 1:1.6429956 2:0.51342736 
0 10 1:1.6920097 2:0.49014128 
0 10 1:1.7351098 2:0.43100106 
0 10 1:1.7825339 2:0.47424053 
0 10 1:1.8321337 2:0.49599833 
0 10 1:1.8811139 2:0.48980177 
0 10 1:1.9274279 2:0.46314032 
0 10 1:1.9661088 2:0.38680905 
0 10 1:2.0053225 2:0.3921365 
0 10 1:2.0475597 2:0.4223718 
0 10 1:2.0825518 2:0.34992177 
0 10 1:2.1169553 2:0.34403463 
0 10 1:2.1512274 2:0.34272056 
0 10 1:2.1836285 2:0.32401174 
0 10 1:2.215271 2:0.31642474 
0 0.008719016889796413 1:2.2525345 2:0.37263536 
10 0 1:3.7968148 2:-0.80861368 
10 0 1:3.7130661 2:-0.8374869 
10 0 1:3.6230354 2:-0.90030677 
10 0 1:3.5359307 2:-0.87104719 
10 0 1:3.4500401 2:-0.85890663 
10 0 1:3.8318211 2:-0.84942753 
10 0 1:3.7474655 2:-0.84355592 
10 0 1:3.6623269 2:-0.85138679 
10 0 1:3.5695694 2:-0.92757442 
10 0 1:3.4763169 2:-0.93252469 
10 0 1:3.3872088 2:-0.89108155 
10 0 1:3.3085518 2:-0.78657034 
10 0 1:3.2438952 2:-0.64656581 
10 0 1:3.0968321 2:-0.70433742 
10 0 1:3.0263294 2:-0.70502673 
10 0 1:2.9557038 2:-0.70625666 
10 0 1:2.8864454 2:-0.69258323 
10 0 1:2.8249869 2:-0.61458486 
10 0 1:2.7618191 2:-0.63167848 
10 0 1:2.7015554 2:-0.60263722 
10 0 1:2.6482962 2:-0.532592 
10 0 1:2.6011328 2:-0.47163359 
10 0 1:2.560287 2:-0.40845842 
10 0 1:2.4919114 2:-0.35017798 
10 0 1:2.4563277 2:-0.35583611 
10 0 1:2.3944517 2:-0.34603512 
10 0 1:2.4419214 2:-0.44669559 
10 0 1:2.3771494 2:-0.64771977 
10 0 1:2.3048457 2:-0.72303759 
10 0 1:5.1652946 2:-1.3715543 
10 0 1:5.0196457 2:-1.4564888 
10 0 1:4.86155 2:-1.5809568 
10 0 1:4.7034758 2:-1.5807419 
10 0 1:4.5515268 2:-1.5194906 
10 0 1:4.4131969 2:-1.3832985 
10 0 1:4.2821704 2:-1.3102651 
10 0 1:4.1546307 2:-1.2753969 
10 0 1:4.0242685 2:-1.3036228 
10 0 1:3.8991205 2:-1.25148 
10 0 1:3.7820769 2:-1.1704357 
10 0 1:3.6629329 2:-1.1914395 
10 0 1:3.5582421 2:-1.0469083 
10 0 1:3.4615301 2:-0.96711997 
10 0 1:3.374794 2:-0.86736118 
10 0 1:3.2994158 2:-0.75378146 
10 0 1:3.2319684 2:-0.67447445 
10 0 1:3.1716014 2:-0.60366967 
10 0 1:3.600949 2:-0.81509652 
10 0 1:3.5093731 2:-0.91575909 
10 0 1:3.4068522 2:-1.0252093 
10 0 1:3.2984205 2:-1.0843169 
10 0 1:3.1762177 2:-1.2220283 
10 0 1:3.056782 2:-1.194357 
10 0 1:2.9448045 2:-1.119775 
10 0 1:2.8361056 2:-1.0869893 
10 0 1:2.7281536 2:-1.0795197 
10 0 1:2.6237102 2:-1.044434 
10 0 1:2.520973 2:-1.0273717 
10 0 1:2.4303103 2:-0.90662676 
10 0 1:2.3531261 2:-0.77184263 
10 0 1:2.2801652 2:-0.72960872 
10 0 1:2.2188481 2:-0.61317081 
10 0 1:2.1689982 2:-0.49849957 
10 0 1:2.1204121 2:-0.48586082 
10 10 1:2.0852509 2:-0.3516115 
10 10 1:2.0612635 2:-0.23987413 
0 10 1:2.0456174 2:-0.15646102 
0 10 1:2.0332784 2:-0.12339003 
0 10 1:2.0309838 2:-0.022945883 
0 10 1:2.0381942 2:0.072104157 
0 10 1:2.0547086 2:0.16514343 
0 10 1:2.0803904 2:0.25681777 
0 10 1:2.1154972 2:0.35106852 
0 10 1:2.1616235 2:0.46126303 
0 10 1:2.2076279 2:0.46004361 
0 10 1:2.2624992 2:0.54871355 
9.891829801201697 0 1:2.4221977 2:-0.31869926 
10 0 1:2.361367 2:-0.30316257 
10 0 1:2.3272378 2:-0.34129118 
10 0 1:2.2944315 2:-0.32806368 
10 0 1:2.2650801 2:-0.29351404 
10 0 1:2.2369316 2:-0.28148484 
10 0 1:2.2028415 2:-0.34090031 
10 0 1:2.1787819 2:-0.24059687 
10 0 1:2.1458599 2:-0.32921925 
10 10 1:2.120882 2:-0.24977953 
10 10 1:2.0992375 2:-0.21644453 
10 10 1:2.0718631 2:-0.27374386 
10 10 1:2.0489816 2:-0.22881542 
10 10 1:2.0288567 2:-0.20124948 
10 10 1:2.0103266 2:-0.18530094 
10 10 1:1.9920655 2:-0.18261092 
10 10 1:1.9754581 2:-0.16607413 
0 10 1:1.9605682 2:-0.14889885 
0 10 1:1.9470796 2:-0.13488521 
0 10 1:1.9358649 2:-0.11214754 
0 10 1:1.929148 2:-0.067169434 
0 10 1:1.9189539 2:-0.10194054 
0 10 1:1.9077851 2:-0.11168752 
0 10 1:1.9023913 2:-0.053938019 
0 10 1:1.901053 2:-0.013383423 
0 10 1:1.890992 2:-0.10061016 
0 10 1:1.8912001 2:0.0020809665 
0 10 1:1.9032785 2:0.12078396 
0 10 1:1.9229217 2:0.19643218 
0 10 1:1.9381025 2:0.15180768 
0 10 1:1.9535342 2:0.15431732 
0 10 1:1.9714622 2:0.17927965 
0 10 1:1.99192 2:0.20457846 
0 10 1:2.0148375 2:0.22917451 
0 10 1:2.0370454 2:0.22207929 
0 10 1:2.0558637 2:0.1881828 
0 10 1:2.0781326 2:0.22268901 
0 10 1:2.1021634 2:0.24030826 
0 10 1:2.1286383 2:0.26474909 
0 10 1:2.139991 2:0.11352665 
0 10 1:2.1578472 2:0.17856198 
0 10 1:2.1621922 2:0.043449845 
0 10 1:2.16946 2:0.072678221 
0 10 1:2.1784175 2:0.089574938 
0 10 1:2.1883044 2:0.098869441 
0 0.750341005615926 1:2.14368 2:-0.18814516 
0 10 1:2.1255432 2:-0.18136832 
0 10 1:2.1063492 2:-0.19193952 
10 10 1:2.0820256 2:-0.24323625 
10 10 1:2.055585 2:-0.26440617 
10 10 1:2.0298967 2:-0.2568828 
10 10 1:2.0052875 2:-0.24609218 
10 10 1:1.9840046 2:-0.21282929 
10 10 1:1.9657877 2:-0.18216873 
0 10 1:1.9515862 2:-0.14201493 
0 10 1:1.9419438 2:-0.096423733 
0 10 1:1.9350586 2:-0.068852308 
0 10 1:1.9297438 2:-0.053148363 
0 10 1:1.9223796 2:-0.07364191 
0 10 1:1.9114179 2:-0.10961662 
0 10 1:1.9027136 2:-0.087043231 
0 10 1:1.896274 2:-0.064395468 
0 10 1:1.8927562 2:-0.035178891 
0 10 1:1.8920931 2:-0.0066308497 
0 10 1:1.8891781 2:-0.029149676 
0 10 1:1.8851059 2:-0.040722367 
0 10 1:1.8838711 2:-0.012347783 
0 10 1:1.8855201 2:0.016490544 
0 10 1:1.8900095 2:0.044894034 
0 10 1:1.897366 2:0.073564287 
0 10 1:1.9048029 2:0.074369242 
0 10 1:1.9087713 2:0.03968388 
0 10 1:1.9154825 2:0.06711257 
0 10 1:1.9250769 2:0.095943696 
0 10 1:1.9366424 2:0.11565534 
0 10 1:1.9498087 2:0.13166299 
0 10 1:1.9579167 2:0.081079323 
0 10 1:1.9634702 2:0.055535313 
0 10 1:1.9673216 2:0.03851373 
0 10 1:1.9718163 2:0.044946833 
0 10 1:1.9771943 2:0.053780267 
0 10 1:1.9875955 2:0.10401191 
0 10 1:1.9883943 2:0.0079880606 
0 10 1:1.9920892 2:0.036948958 
0 10 1:2.0005111 2:0.084218717 
0 10 1:1.9989147 2:-0.015963227 
0 10 1:2.0055591 2:0.066444009 
0 10 1:2.0048392 2:-0.0071989221 
0 10 1:2.0050193 2:0.0018001507 
0 10 1:2.0095215 2:0.045022942 
0 10 1:2.0101746 2:0.0065309556 
0 10 1:2.0121655 2:0.019908571 
0 10 1:2.0198391 2:0.076735934 
0 10 1:2.0316543 2:0.1181519 
0 10 1:2.0465332 2:0.14878902 
0 10 1:2.0639304 2:0.17397237 
0 10 1:2.0841016 2:0.20171216 
0 10 1:2.1077777 2:0.23676091 
0 10 1:2.1360376 2:0.28259906 
0 10 1:2.1713033 2:0.35265642 
0 10 1:2.2065688 2:0.35265529 
0 10 1:2.2468674 2:0.40298628 
10 0 1:2.8034441 2:-0.49835284 
10 0 1:2.7158626 2:-0.46701856 
10 0 1:2.6742057 2:-0.4165691 
10 0 1:2.6263004 2:-0.47905279 
10 0 1:2.5778715 2:-0.48428877 
10 0 1:2.5256483 2:-0.52223195 
10 0 1:5.9216212 2:-1.7922577 
10 0 1:5.7179432 2:-2.0367794 
10 0 1:5.4887594 2:-2.2918382 
10 0 1:5.2361482 2:-2.5261119 
10 0 1:4.9662682 2:-2.6988007 
10 0 1:4.6812066 2:-2.8506154 
10 0 1:4.3893202 2:-2.918864 
10 0 1:4.2743748 2:-1.0324066 
10 0 1:4.1591462 2:-1.1522859 
10 0 1:4.0311448 2:-1.2800141 
10 0 1:3.8851805 2:-1.459643 
10 0 1:3.727071 2:-1.5810948 
10 0 1:3.5596324 2:-1.6743858 
10 0 1:3.3853517 2:-1.7428078 
10 0 1:3.1999517 2:-1.8539999 
10 0 1:3.0059059 2:-1.9404577 
10 0 1:2.8044988 2:-2.0140705 
10 0 1:2.5964363 2:-2.0806253 
10 0 1:4.3585101 2:-1.0771873 
10 0 1:4.2469385 2:-1.115716 
10 0 1:4.1331167 2:-1.1382183 
10 0 1:4.0167161 2:-1.164006 
10 0 1:3.8965432 2:-1.201729 
10 0 1:3.7780466 2:-1.1849658 
10 0 1:3.66557 2:-1.1247661 
10 0 1:4.8051494 2:-1.1592275 
10 0 1:4.3349059 2:-1.0597347 
10 0 1:4.2183298 2:-1.1657611 
10 0 1:4.1018641 2:-1.1646572 
10 0 1:3.9834387 2:-1.1842537 
10 0 1:3.8636686 2:-1.1977011 
10 0 1:3.7493628 2:-1.143058 
10 0 1:3.6418185 2:-1.0754432 
10 0 1:3.5434791 2:-0.98339339 
10 0 1:3.4618065 2:-0.81672607 
10 0 1:3.392094 2:-0.69712489 
10 0 1:2.6406002 2:-0.59940373 
10 0 1:2.5634949 2:-0.7710528 
10 0 1:2.4761921 2:-0.87302809 
10 0 1:2.3789751 2:-0.97216987 
10 0 1:2.270614 2:-1.0836109 
10 0 1:2.1633582 2:-1.0725582 
10 0 1:2.0505932 2:-1.1276505 
10 10 1:1.9170183 2:-1.3357493 
10 0 1:4.6288375 2:-1.1216427 
-0 10 1:-1.0570727 2:-0.8134287 
-0 10 1:-1.1108152 2:-0.53742545 
-0 10 1:-1.1471487 2:-0.36333483 
-10 10 1:-1.1684041 2:-0.21255361 
-10 10 1:-1.1788089 2:-0.10404852 
-10 10 1:-1.1854121 2:-0.066031819 
-10 10 1:-1.1705097 2:0.14902444 
-10 10 1:-1.1712015 2:-0.0069185014 
-10 10 1:-1.1597926 2:0.11408954 
-10 10 1:-1.171252 2:-0.11459448 
-10 10 1:-1.1760883 2:-0.048363405 
-0 10 1:-1.2084938 2:-0.32405464 
-0 10 1:-1.2501684 2:-0.41674641 
-0 10 1:-1.2790426 2:-0.28874129 
-0 10 1:-1.3090287 2:-0.29986119 
-0 10 1:-1.3427778 2:-0.33749089 
-0 10 1:-1.3761249 2:-0.33347131 
-0 10 1:-1.4013839 2:-0.25258947 
-0 10 1:-1.4328138 2:-0.31429931 
-0 10 1:-1.4753032 2:-0.42489392 
-0 10 1:-1.504358 2:-0.29054846 
-0 10 1:-1.5476857 2:-0.43327675 
-0 10 1:-1.5813987 2:-0.33712968 
-0 10 1:-1.6173903 2:-0.35991675 
-0 10 1:-1.6575072 2:-0.40116806 
-0 10 1:-1.6989729 2:-0.41465793 
-0 10 1:-1.7415938 2:-0.42620888 
-0 10 1:-1.7854847 2:-0.43890855 
-0 10 1:-1.8305667 2:-0.45081975 
-0 10 1:-1.8634303 2:-0.32863623 
-0 10 1:-1.8937319 2:-0.30301598 
-0 10 1:-1.9203342 2:-0.26602296 
-0 10 1:-1.9307127 2:-0.10378533 
-0 10 1:-1.9369895 2:-0.062767987 
-0 10 1:-1.9415311 2:-0.045415749 
-10 10 1:-1.9314715 2:0.10059576 
-10 10 1:-1.9265969 2:0.048745877 
-10 10 1:-1.9208895 2:0.057074453 
-10 10 1:-1.9091358 2:0.1175371 
-10 10 1:-1.9011682 2:0.079675886 
-10 10 1:-1.8974383 2:0.037298546 
-10 10 1:-1.897753 2:-0.0031465295 
-0 10 1:-1.9074995 2:-0.097465526 
-0 10 1:-1.926665 2:-0.19165498 
-0 10 1:-1.958685 2:-0.32019984 
-0 10 1:-1.9993467 2:-0.4066173 
-0 10 1:-2.0464358 2:-0.4708903 
-0 10 1:-2.1124322 2:-0.65996406 
-0 10 1:-2.1842627 2:-0.7183052 
-0 10 1:-2.26607 2:-0.81807341 
-0 10 1:-2.3597229 2:-0.9365284 
-0 10 1:-5.6974363 2:-1.061895 
-0 10 1:-5.7836651 2:-0.86228823 
-0 10 1:-5.8447933 2:-0.61128202 
-0 10 1:-5.8846341 2:-0.39840826 
-0 10 1:-5.9106761 2:-0.26041986 
-0 10 1:-5.9318888 2:-0.21212712 
-0 10 1:-5.9478557 2:-0.15966937 
-0 10 1:-5.9541862 2:-0.063304307 
-0 10 1:-5.9548694 2:-0.0068321453 
-0 10 1:-5.9488816 2:0.059878276 
-0 10 1:-5.9358776 2:0.13003924 
-0 10 1:-5.9157587 2:0.20118981 
-10 0 1:5.6712132 2:-2.3265273 
-10 0 1:5.4303715 2:-2.4084167 
-10 0 1:5.179014 2:-2.5135751 
-0 10 1:-3.2445029 2:-0.99178044 
-0 10 1:-3.3343477 2:-0.89844863 
-0 10 1:-3.4114578 2:-0.77110084 
-0 10 1:-3.4830974 2:-0.71639544 
-0 10 1:-3.54337 2:-0.60272692 
-10 0 1:5.2674629 2:-0.73941546 
-10 0 1:5.1916733 2:-0.7578954 
-10 0 1:5.1135418 2:-0.78131566 
-10 0 1:5.0339181 2:-0.79623705 
-10 0 1:4.9539409 2:-0.79977197 
-10 0 1:4.8724537 2:-0.81487192 
-10 0 1:4.7907136 2:-0.81740093 
-10 0 1:4.7057918 2:-0.8492177 
-10 0 1:4.6220515 2:-0.83740285 
-10 0 1:4.5332973 2:-0.88754236 
-10 0 1:4.4455368 2:-0.87760475 
-10 0 1:4.3508441 2:-0.94692756 
-10 0 1:4.2541048 2:-0.96739249 
-10 0 1:4.1536947 2:-1.0041009 
-10 0 1:4.0460011 2:-1.0769364 
-10 0 1:3.9374082 2:-1.0859288 
-10 0 1:3.8270254 2:-1.103828 
-10 0 1:3.7093687 2:-1.1765667 
-10 0 1:3.5866282 2:-1.227405 
-10 0 1:3.4607716 2:-1.2585664 
-10 0 1:3.3338207 2:-1.2695093 
-10 0 1:3.208147 2:-1.2567365 
-10 0 1:3.0853068 2:-1.2284018 
-10 0 1:2.9659269 2:-1.1937988 
-10 0 1:2.8477725 2:-1.1815448 
-10 0 1:2.7294977 2:-1.1827478 
-10 0 1:2.6102743 2:-1.1922342 
-10 0 1:2.4868716 2:-1.2340269 
-10 0 1:2.3586873 2:-1.2818433 
-10 0 1:2.2263449 2:-1.3234236 
-10 0 1:2.0889601 2:-1.3738483 
-0 10 1:-2.6038077 2:-0.77606871 
-0 10 1:-2.6658527 2:-0.62045054 
-0 10 1:-2.7055124 2:-0.39659694 
-0 10 1:-2.7533624 2:-0.47849963 
-0 10 1:-2.8040254 2:-0.50662999 
-0 10 1:-2.8648269 2:-0.60801484 
-0 10 1:-2.9294998 2:-0.64672883 
-0 10 1:-2.9925947 2:-0.63094934 
-0 10 1:-3.0500316 2:-0.57436911 
-0 10 1:-3.0997284 2:-0.49696774 
-0 10 1:-3.1425017 2:-0.42773333 
-0 10 1:-3.1796137 2:-0.37111962 
-0 10 1:-3.2082665 2:-0.28652802 
-0 10 1:-3.2275205 2:-0.1925399 
-0 10 1:-3.2386405 2:-0.11120071 
-0 10 1:-3.2446336 2:-0.059930637 
-0 10 1:-3.2482476 2:-0.036140324 
-0 10 1:-3.2520269 2:-0.037792959 
-0 10 1:-3.2586027 2:-0.065758268 
-0 10 1:-3.2696738 2:-0.11071015 
-0 10 1:-3.2882179 2:-0.18544097 
-0 10 1:-3.3165764 2:-0.28358579 
-0 10 1:-3.3566009 2:-0.40024435 
-0 10 1:-3.4068746 2:-0.50273689 
-0 10 1:-3.4727281 2:-0.65853535 
-0 10 1:-3.5634126 2:-0.90684469 
-0 10 1:-4.1097473 2:-0.98297552 
-0 10 1:-4.206959 2:-0.97211721 
-0 10 1:-4.3099695 2:-1.0301055 
-0 10 1:-4.4079814 2:-0.9801182 
-0 10 1:-4.5065656 2:-0.98584256 
-0 10 1:-4.5933892 2:-0.86823543 
-0 10 1:-4.6798152 2:-0.86426081 
-0 10 1:-4.7621583 2:-0.82343026 
-10 0 1:6.0104847 2:-1.7027555 
-10 0 1:5.8389193 2:-1.7156545 
-10 0 1:5.6679523 2:-1.7096691 
-10 0 1:5.4966722 2:-1.7128018 
-10 0 1:5.3251289 2:-1.715433 
-10 0 1:5.1493266 2:-1.7580224 
-10 0 1:4.9642072 2:-1.8511943 
-10 0 1:4.7706278 2:-1.9357935 
-10 0 1:4.5689825 2:-2.0164531 
-10 0 1:4.3461782 2:-2.2280433 
-10 10 1:0.24744197 2:-0.66998644 
-0 10 1:-0.31077297 2:-0.76923801 
-0 10 1:-4.7622193 2:-1.0735442 
-0 10 1:-4.8545741 2:-0.92354759 
-0 10 1:-4.9352202 2:-0.80646052 
-0 10 1:-5.0013473 2:-0.66127153 
-0 10 1:-5.0457847 2:-0.44437353 
-0 10 1:-5.0791949 2:-0.33410236 
-0 10 1:-5.1054798 2:-0.26284944 
-0 10 1:-5.1235807 2:-0.18100893 
-0 10 1:-5.1395862 2:-0.16005501 
-0 10 1:-5.1517086 2:-0.12122358 
-0 10 1:-5.1593393 2:-0.076307212 
-0 10 1:-5.1620421 2:-0.027028303 
-0 10 1:-5.1582287 2:0.038134495 
-0 10 1:-5.1468454 2:0.11383325 
-0 10 1:-5.1309062 2:0.15939203 
-0 10 1:-5.1113731 2:0.19533062 
-0 10 1:-5.087862 2:0.23511054 
-0 10 1:-5.0602716 2:0.27590407 
-0 10 1:-5.0314383 2:0.28833295 
-0 10 1:-5.0008275 2:0.30610874 
-0 10 1:-4.9710149 2:0.29812559 
-0 10 1:-4.93919 2:0.31824897 
-0 10 1:-4.9114525 2:0.2773753 
-0 10 1:-4.8809957 2:0.30456797 
-0 10 1:-4.8550259 2:0.25969825 
-0 10 1:-4.8251411 2:0.29884736 
-0 10 1:-4.7971226 2:0.2801848 
-0 10 1:-4.7705169 2:0.26605775 
-0 10 1:-4.7450789 2:0.25437955 
-0 10 1:-4.721134 2:0.23944965 
-0 10 1:-4.6991453 2:0.21988689 
-0 10 1:-4.6794059 2:0.19739371 
-0 10 1:-4.6627108 2:0.16695122 
-0 10 1:-4.6529474 2:0.097633926 
-0 10 1:-4.6503402 2:0.026071316 
-0 10 1:-4.6525386 2:-0.021983108 
-0 10 1:-4.6606435 2:-0.081049259 
-0 10 1:-4.6784968 2:-0.17853291 
-0 10 1:-4.6959457 2:-0.17448954 
-0 10 1:-4.7199177 2:-0.23971926 
-0 10 1:-4.7466902 2:-0.26772571 
-0 10 1:-4.7826595 2:-0.35969254 
-0 10 1:-4.8248635 2:-0.42204067 
-0 10 1:-4.8819098 2:-0.57046292 
-0 10 1:-4.9470325 2:-0.65122675 
-0 10 1:-5.0257189 2:-0.78686403 
-0 10 1:-5.1056488 2:-0.79929927 
-0 10 1:-5.1919814 2:-0.86332534 
-0 10 1:-5.2776758 2:-0.8569439 
-0 10 1:-5.3633598 2:-0.85683986 
-0 10 1:-5.4488532 2:-0.85493489 
-0 10 1:-5.5333868 2:-0.84533564 
-0 10 1:-5.6192655 2:-0.85878675 
-0 10 1:-5.7027292 2:-0.83463723 
-0 10 1:-5.7888646 2:-0.8613537 
-0 10 1:-5.8712559 2:-0.82391305 
-0 10 1:-5.9573546 2:-0.86098693 
-0 10 1:-6.038554 2:-0.81199418 
-0 10 1:-6.1188145 2:-0.8026048 
-0 10 1:-6.1928014 2:-0.73986882 
-0 10 1:-6.2616678 2:-0.68866457 
-0 10 1:-3.1202339 2:-0.92948521 
-0 10 1:-3.2073638 2:-0.87129874 
-0 10 1:-3.2768003 2:-0.69436503 
-10 0 1:3.4256723 2:-1.7316172 
-10 0 1:3.2464496 2:-1.7922277 
-10 10 1:0.12965211 2:-0.41292086 
-10 10 1:-0.14015965 2:0.070943996 
-10 10 1:-0.199182 2:-0.59022348 
-0 10 1:-0.26911999 2:-0.69937989 
-0 10 1:-0.33704209 2:-0.679221 
-0 10 1:-0.40215018 2:-0.6510809 
-0 10 1:-0.46628082 2:-0.64130644 
-0 10 1:-0.53068208 2:-0.64401258 
-0 10 1:-0.59819401 2:-0.67511931 
-0 10 1:-0.65440068 2:-0.56206662 
-0 10 1:-0.70713886 2:-0.52738183 
-0 10 1:-0.77180371 2:-0.64664855 
-0 10 1:-0.84985833 2:-0.78054614 
-0 10 1:-0.91808957 2:-0.68231243 
-0 10 1:-0.98918731 2:-0.71097742 
-0 10 1:-1.07358 2:-0.84392701 
-0 10 1:-1.1443245 2:-0.70744507 
-0 10 1:-1.2298334 2:-0.85508854 
-0 10 1:-1.3110381 2:-0.81204724 
-0 10 1:-1.3943419 2:-0.83303783 
-0 10 1:-1.5802407 2:-0.92779323 
-0 10 1:-1.6703863 2:-0.90145561 
-0 10 1:-1.7631668 2:-0.92780445 
-0 10 1:-1.8509484 2:-0.87781639 
-0 10 1:-1.9280521 2:-0.77103684 
-0 10 1:-1.9941669 2:-0.66114795 
-0 10 1:-2.0461255 2:-0.51958649 
-0 10 1:-2.092536 2:-0.46410494 
-0 10 1:-2.134384 2:-0.41847958 
-0 10 1:-2.1721717 2:-0.37787694 
-0 10 1:-2.2036764 2:-0.31504746 
-0 10 1:-2.21959 2:-0.15913537 
-0 10 1:-2.233431 2:-0.13841058 
-0 10 1:-2.2463026 2:-0.12871599 
-0 10 1:-2.2480083 2:-0.017056694 
-0 10 1:-2.2554635 2:-0.074551771 
-0 10 1:-2.2544809 2:0.0098257668 
-0 10 1:-2.2515888 2:0.028920884 
-0 10 1:-2.2481734 2:0.034154132 
-0 10 1:-2.2427776 2:0.053958016 
-7.499274971444086 10 1:-2.2351468 2:0.076308143 
-10 10 1:-2.2245751 2:0.10571611 
-10 10 1:-2.2145225 2:0.10052608 
-10 10 1:-2.1942508 2:0.20271722 
-10 10 1:-2.1822413 2:0.12009514 
-10 10 1:-2.1582598 2:0.23981554 
-10 10 1:-2.1356327 2:0.22627099 
-10 10 1:-2.1136867 2:0.2194599 
-10 10 1:-2.0945548 2:0.19131817 
-10 10 1:-2.0707535 2:0.23801316 
-10 10 1:-2.0518645 2:0.18889016 
-10 10 1:-2.0342159 2:0.17648584 
-10 10 1:-2.0236467 2:0.10569275 
-10 10 1:-2.0151485 2:0.084981737 
-10 10 1:-2.0068755 2:0.082729707 
-10 10 1:-2.000659 2:0.062165262 
-0 10 1:-2.0039617 2:-0.033027513 
-0 10 1:-2.0130767 2:-0.09114983 
-0 10 1:-2.0224289 2:-0.093522048 
-0 10 1:-2.03078 2:-0.083511119 
-0 10 1:-2.0447961 2:-0.14016111 
-0 10 1:-2.0617941 2:-0.16997952 
-0 10 1:-2.079732 2:-0.17937939 
-0 10 1:-2.0973842 2:-0.17652125 
-0 10 1:-2.1145318 2:-0.17147634 
-0 10 1:-2.13202 2:-0.17488209 
-0 10 1:-2.1528784 2:-0.20858359 
-0 10 1:-2.1776576 2:-0.24779201 
-0 10 1:-2.2006694 2:-0.23011836 
-0 10 1:-2.2176531 2:-0.16983719 
-0 10 1:-2.238814 2:-0.21160862 
-0 10 1:-2.2635663 2:-0.24752346 
-0 10 1:-2.2825704 2:-0.19004078 
-0 10 1:-2.2991891 2:-0.16618725 
-0 10 1:-2.3187809 2:-0.19591806 
-0 10 1:-2.3397776 2:-0.20996691 
-0 10 1:-2.3542861 2:-0.14508435 
-0 10 1:-2.3742809 2:-0.19994865 
-0 10 1:-2.3992252 2:-0.24944251 
-0 10 1:-2.4199993 2:-0.2077414 
-0 10 1:-2.4503875 2:-0.30388143 
-0 10 1:-2.4907394 2:-0.4035192 
-0 10 1:-2.5391404 2:-0.48400975 
-0 10 1:-2.5887492 2:-0.49608818 
-0 10 1:-2.6454448 2:-0.56695674 
-0 10 1:-2.7050524 2:-0.59607578 
-0 10 1:-2.7642823 2:-0.59229887 
-0 10 1:-2.8228173 2:-0.58534979 
-0 10 1:-2.8824232 2:-0.59605955 
-0 10 1:-2.9452644 2:-0.62841143 
-0 10 1:-3.0024097 2:-0.57145327 
-0 10 1:-3.0612845 2:-0.58874808 
-0 10 1:-3.1241043 2:-0.62819728 
-0 10 1:-3.180071 2:-0.55966706 
-0 10 1:-3.2412578 2:-0.61186821 
-0 10 1:-3.2993409 2:-0.58083104 
-0 10 1:-3.3559935 2:-0.56652583 
-0 10 1:-3.4162438 2:-0.60250322 
-0 10 1:-3.4782731 2:-0.62029273 
-0 10 1:-3.5417313 2:-0.63458239 
-0 10 1:-3.6041038 2:-0.6237251 
-0 10 1:-3.6659112 2:-0.61807409 
-10 0 1:5.7488767 2:-1.0082933 
-10 0 1:5.6277319 2:-1.2114475 
-10 0 1:5.4893098 2:-1.384221 
-10 0 1:5.3364336 2:-1.528762 
-10 0 1:5.1676069 2:-1.6882668 
-10 0 1:4.9836776 2:-1.8392934 
-10 0 1:4.7804504 2:-2.0322719 
-10 0 1:4.5559308 2:-2.2451964 
-10 0 1:5.6515976 2:-2.1447771 
-10 0 1:5.4230579 2:-2.2853978 
-10 0 1:5.182486 2:-2.4057191 
-0 10 1:-3.3072976 2:-0.99821875 
-0 10 1:-3.3975197 2:-0.90222086 
-0 10 1:-3.4844808 2:-0.86961105 
-0 10 1:-3.5672738 2:-0.82792963 
-0 10 1:-3.6473502 2:-0.80076399 
-0 10 1:-3.7298682 2:-0.82518058 
-0 10 1:-3.8084926 2:-0.7862434 
-0 10 1:-3.8931296 2:-0.84636977 
-0 10 1:-3.9815797 2:-0.88450098 
-0 10 1:-4.0609898 2:-0.79410126 
-0 10 1:-4.139064 2:-0.78074237 
-0 10 1:-4.2098714 2:-0.70807331 
-0 10 1:-4.2681813 2:-0.58309913 
-0 10 1:-4.3202198 2:-0.52038553 
-0 10 1:-4.3656342 2:-0.45414417 
-0 10 1:-4.4060319 2:-0.40397669 
-0 10 1:-4.4425306 2:-0.36498734 
-0 10 1:-4.4783655 2:-0.35834865 
-0 10 1:-4.5130967 2:-0.34731177 
-0 10 1:-4.5454921 2:-0.32395456 
-0 10 1:-4.5788876 2:-0.33395492 
-0 10 1:-4.6121491 2:-0.33261485 
-0 10 1:-4.6375425 2:-0.25393405 
-10 0 1:5.4885791 2:-0.91353044 
-10 0 1:5.3935153 2:-0.95063772 
-10 0 1:5.2880189 2:-1.0549641 
-10 0 1:5.171703 2:-1.1631594 
-10 0 1:5.045343 2:-1.2635993 
-10 0 1:4.9019639 2:-1.433791 
-10 0 1:4.7491178 2:-1.5284613 
-10 0 1:4.5873797 2:-1.6173815 
-10 0 1:4.4119689 2:-1.7541073 
-10 0 1:4.2296249 2:-1.8234399 
-10 0 1:4.0351393 2:-1.944856 
-10 0 1:3.8325607 2:-2.0257859 
-10 10 1:0.18620383 2:-0.39235976 
-0 10 1:0.10799903 2:-0.78204799 
-0 10 1:-0.24392931 2:-0.83478841 
-10 10 1:-0.27713717 2:-0.33207862 
-0 10 1:-0.36037859 2:-0.83241424 
-10 10 1:-0.41530203 2:-0.54923442 
-0 10 1:-0.47488376 2:-0.59581723 
-0 10 1:-0.55812759 2:-0.83243831 
-0 10 1:-0.61003822 2:-0.51910635 
-10 0 1:3.7993711 2:-1.1756446 
-10 0 1:3.6740253 2:-1.2534578 
-10 0 1:3.5468416 2:-1.271837 
-10 0 1:3.4086951 2:-1.3814658 
-10 0 1:3.2688663 2:-1.3982875 
-10 0 1:3.1232182 2:-1.4564816 
-10 0 1:2.9698825 2:-1.5333562 
-10 0 1:2.8131271 2:-1.5675546 
-10 0 1:2.6543213 2:-1.5880573 
-10 0 1:1.8825697 2:-1.3611776 
-10 0 1:1.7519648 2:-1.3060486 
-10 0 1:1.6408382 2:-1.1112665 
-10 0 1:1.5222218 2:-1.1861641 
-10 0 1:1.4200733 2:-1.0214848 
-10 0 1:1.3076199 2:-1.1245345 
-0 10 1:-0.44307764 2:-0.83883854 
-0 10 1:-3.0250342 2:-0.99615833 
-0 10 1:-3.2340022 2:-1.0023502 
-0 10 1:-3.6506144 2:-0.9753566 
-0 10 1:-3.7369413 2:-0.86326959 
-0 10 1:-3.817107 2:-0.80165648 
-0 10 1:-3.8918633 2:-0.74756336 
-0 10 1:-3.9562941 2:-0.64430779 
-10 10 1:5.7562854 2:-0.27582309 
-10 10 1:5.7184553 2:-0.37830139 
-10 10 1:5.6763514 2:-0.4210389 
-10 10 1:5.6331551 2:-0.4319628 
-10 10 1:5.5873664 2:-0.4578877 
-10 10 1:5.5375031 2:-0.49863302 
-10 10 1:5.4830332 2:-0.5446991 
-10 0 1:5.4237048 2:-0.59328336 
-10 0 1:5.3606984 2:-0.63006405 
-10 0 1:5.2947902 2:-0.65908241 
-10 0 1:5.2258289 2:-0.68961261 
-10 0 1:5.1536556 2:-0.72173266 
-10 0 1:5.0741485 2:-0.79507184 
-10 0 1:4.9916672 2:-0.82481284 
-10 0 1:4.9080131 2:-0.83654056 
-10 0 1:4.8225907 2:-0.8542237 
-10 0 1:4.7370434 2:-0.85547352 
-10 0 1:4.6537311 2:-0.83312259 
-10 0 1:4.5658748 2:-0.8785629 
-10 0 1:4.4786186 2:-0.87256266 
-10 0 1:4.391723 2:-0.86895548 
-10 0 1:4.3045979 2:-0.87125085 
-10 0 1:4.2169797 2:-0.87618226 
-10 0 1:4.1269215 2:-0.90058202 
-10 0 1:4.0335844 2:-0.93337088 
-10 0 1:3.9372728 2:-0.96311664 
-10 0 1:3.8385972 2:-0.98675605 
-10 0 1:3.7386364 2:-0.99960718 
-10 0 1:3.6307574 2:-1.0787909 
-10 0 1:3.5210958 2:-1.0966153 
-10 0 1:3.4123538 2:-1.0874206 
-10 0 1:3.2945618 2:-1.17792 
-10 0 1:3.181193 2:-1.1336874 
-10 0 1:3.0563282 2:-1.2486487 
-10 0 1:2.9343368 2:-1.2199131 
-10 0 1:2.8060354 2:-1.2830142 
-10 0 1:2.6746894 2:-1.3134608 
-10 0 1:2.5451935 2:-1.2949585 
-10 0 1:2.4076376 2:-1.375559 
-10 0 1:2.2677451 2:-1.3989255 
-10 0 1:2.1341212 2:-1.3362386 
-10 0 1:2.0049511 2:-1.2917011 
-10 0 1:1.8722117 2:-1.3273936 
-10 0 1:1.7433808 2:-1.2883097 
-10 0 1:1.620245 2:-1.2313573 
-10 0 1:1.5055053 2:-1.1473971 
-10 0 1:1.3877846 2:-1.1772073 
-10 0 1:1.2801676 2:-1.0761695 
-10 0 1:1.1848265 2:-0.9534111 
-10 0 1:1.1027755 2:-0.82050998 
-10 10 1:1.0261745 2:-0.76601018 
-10 10 1:0.95065802 2:-0.75516499 
-10 10 1:0.88799597 2:-0.62662041 
-10 10 1:0.83937657 2:-0.48619401 
-10 10 1:0.80639109 2:-0.32985482 
-0 10 1:-3.3517737 2:-0.88914007 
-0 10 1:-6.5154434 2:-1.1273344 
-0 10 1:-6.6224824 2:-1.0703897 
-0 10 1:-6.7212215 2:-0.98739163 
-0 10 1:-6.8169271 2:-0.95705598 
-10 0 1:3.3900885 2:-1.3864472 
-10 0 1:3.249561 2:-1.4052752 
-10 0 1:3.1039779 2:-1.4558315 
-10 0 1:2.9444231 2:-1.5955476 
-10 0 1:2.7818611 2:-1.6256201 
-10 0 1:1.8401301 2:-1.3257014 
-10 0 1:1.7195967 2:-1.2053338 
-10 10 1:0.25487707 2:-0.54584885 
-10 10 1:0.21026905 2:-0.44608016 
-10 10 1:0.17674654 2:-0.33522517 
-10 10 1:0.15960491 2:-0.17141624 
-10 10 1:0.1628645 2:0.03259589 
-10 10 1:0.17793272 2:0.15068215 
-10 10 1:0.13176725 2:-0.46165463 
-10 10 1:0.087699073 2:-0.44068181 
-10 10 1:0.056756287 2:-0.30942787 
-10 10 1:0.060229102 2:0.034728158 
-10 10 1:0.093390092 2:0.3316099 
-10 10 1:0.12952652 2:0.36136431 
-10 10 1:5.8150467 2:-0.46918777 
-10 10 1:5.7588314 2:-0.56215299 
-10 0 1:5.6949623 2:-0.63869066 
-10 0 1:5.6235422 2:-0.71420105 
-10 0 1:5.5406191 2:-0.82923078 
-10 0 1:5.4493508 2:-0.9126832 
-10 0 1:5.3519431 2:-0.97407681 
-10 0 1:5.24268 2:-1.0926307 
-10 0 1:5.1241435 2:-1.1853654 
-10 0 1:4.991863 2:-1.3228052 
-10 0 1:4.8515776 2:-1.4028537 
-10 0 1:4.7071366 2:-1.44441 
-10 0 1:4.5680242 2:-1.3911243 
-10 0 1:4.4282877 2:-1.3973643 
-10 0 1:4.2935655 2:-1.3472225 
-10 0 1:4.1655984 2:-1.2796705 
-10 0 1:4.0324211 2:-1.3317738 
-10 0 1:3.8985258 2:-1.3389529 
-10 0 1:3.7636512 2:-1.3487453 
-10 0 1:3.6255241 2:-1.3812717 
-10 0 1:3.4917289 2:-1.3379513 
-10 0 1:3.3467061 2:-1.4502287 
-10 0 1:3.2016425 2:-1.4506355 
-10 0 1:3.0439014 2:-1.5774111 
-10 0 1:2.8882651 2:-1.5563632 
-10 0 1:2.7297343 2:-1.5853073 
-10 0 1:2.5768231 2:-1.5291124 
-10 0 1:2.4331514 2:-1.4367172 
-10 0 1:2.28179 2:-1.5136139 
-0 10 1:-5.9056245 2:-1.0080029 
-0 10 1:-5.9964962 2:-0.90871723 
-0 10 1:-6.0769312 2:-0.8043504 
-0 10 1:-6.1452185 2:-0.68287217 
-0 10 1:-6.2079479 2:-0.62729459 
-0 10 1:-6.2653138 2:-0.57365871 
-0 10 1:-6.3227926 2:-0.57478807 
-0 10 1:-6.3791517 2:-0.56359062 
-0 10 1:-6.4301285 2:-0.5097684 
-0 10 1:-5.573619 2:-1.0372361 
-0 10 1:-5.673569 2:-0.99950003 
-0 10 1:-5.7678829 2:-0.94313885 
-0 10 1:-5.8528787 2:-0.84995869 
-0 10 1:-5.9334249 2:-0.80546153 
-0 10 1:-6.0083122 2:-0.74887346 
-0 10 1:-6.0876213 2:-0.79309084 
-0 10 1:-6.1656854 2:-0.78064041 
-0 10 1:-6.2531624 2:-0.87477051 
-0 10 1:-6.3462965 2:-0.93134109 
-0 10 1:-6.4500887 2:-1.0379222 
-0 10 1:-6.5591162 2:-1.0902744 
-0 10 1:-6.6723707 2:-1.1325449 
-0 10 1:-6.7876079 2:-1.1523728 
-0 10 1:-6.8996483 2:-1.1204038 
-0 10 1:-7.0095457 2:-1.098974 
-0 10 1:-7.1176576 2:-1.081119 
-0 10 1:-7.2190202 2:-1.0136255 
-0 10 1:-7.3130032 2:-0.93983043 
-0 10 1:-7.4023273 2:-0.89324069 
-0 10 1:-7.4890003 2:-0.86673058 
-0 10 1:-7.5746177 2:-0.85617386 
-0 10 1:-7.6598325 2:-0.85214798 
-0 10 1:-7.7451475 2:-0.85314936 
-0 10 1:-7.8280651 2:-0.82917636 
-0 10 1:-7.9142946 2:-0.86229539 
-0 10 1:-7.9985612 2:-0.84266561 
-0 10 1:-8.0854855 2:-0.86924328 
-0 10 1:-8.1713584 2:-0.85872885 
-0 10 1:-8.2593365 2:-0.87978068 
-0 10 1:-8.3479792 2:-0.88642684 
-0 10 1:-8.435765 2:-0.87785879 
-0 10 1:-8.5207556 2:-0.84990524 
-0 10 1:-8.6015675 2:-0.80811968 
-0 10 1:-8.6751855 2:-0.73617969 
-0 10 1:-8.7471577 2:-0.71972189 
-0 10 1:-8.8202539 2:-0.73096236 
-0 10 1:-8.8972533 2:-0.76999375 
-0 10 1:-8.9817092 2:-0.84455934 
-0 10 1:-9.0765547 2:-0.94845452 
-0 10 1:-9.1785813 2:-1.0202659 
-0 10 1:-9.2800815 2:-1.0150027 
-0 10 1:-9.3803943 2:-1.0031278 
-0 10 1:-9.4754451 2:-0.95050764 
-0 10 1:-9.5632627 2:-0.87817592 
-0 10 1:-9.6429381 2:-0.79675396 
-0 10 1:-9.713359 2:-0.70420921 
-0 10 1:-9.7772893 2:-0.63930292 
-0 10 1:-9.8348437 2:-0.57554368 
-0 10 1:-9.8893551 2:-0.54511444 
-0 10 1:-9.9425216 2:-0.53166507 
-0 10 1:-9.9948138 2:-0.52292182 
-0 10 1:-10.046753 2:-0.51939292 
-0 10 1:-10.099021 2:-0.52267741 
-0 10 1:-10.145639 2:-0.46617747 
-0 10 1:-10.189908 2:-0.442699 
-0 10 1:-10.231387 2:-0.4147831 
-0 10 1:-10.265852 2:-0.34465611 
-0 10 1:-10.294424 2:-0.28571162 
-0 10 1:-10.327937 2:-0.33513837 
-0 10 1:-10.352176 2:-0.24238734 
-0 10 1:-10.365321 2:-0.13145317 
-0 10 1:-10.367323 2:-0.020011116 
-10 0 1:3.7473864 2:-1.8001387 
-10 0 1:4.66206 2:-1.3557606 
-10 0 1:4.5236233 2:-1.3843666 
-10 0 1:4.3848989 2:-1.3872449 
-10 0 1:4.2462598 2:-1.3863908 
-10 0 1:4.1070235 2:-1.3923627 
-10 0 1:3.9638401 2:-1.4318344 
-10 0 1:3.8167203 2:-1.4711975 
-10 0 1:3.6642847 2:-1.5243566 
-10 0 1:3.4983195 2:-1.6596512 
-10 0 1:3.321072 2:-1.7724749 
-0 10 1:-1.1016821 2:-0.88431334 
-0 10 1:-1.1814996 2:-0.79817497 
-0 10 1:-1.2552299 2:-0.73730358 
-0 10 1:-1.3253225 2:-0.70092574 
-0 10 1:-1.3953931 2:-0.7007064 
-0 10 1:-1.4646888 2:-0.69295697 
-0 10 1:-1.5338895 2:-0.69200655 
-0 10 1:-1.6024967 2:-0.68607173 
-0 10 1:-1.6732322 2:-0.70735516 
-0 10 1:-1.730273 2:-0.57040798 
-0 10 1:-1.7839573 2:-0.53684334 
-0 10 1:-1.8334823 2:-0.49524971 
-0 10 1:-1.8702385 2:-0.36756234 
-0 10 1:-1.9115572 2:-0.41318669 
-0 10 1:-1.965127 2:-0.53569773 
-0 10 1:-2.0311558 2:-0.66028851 
-0 10 1:-2.1093706 2:-0.78214807 
-0 10 1:-2.2052621 2:-0.95891513 
-0 10 1:-2.5131902 2:-0.95324872 
-0 10 1:-2.6033298 2:-0.90139632 
-0 10 1:-2.6867401 2:-0.83410269 
-0 10 1:-2.7566408 2:-0.69900656 
-0 10 1:-2.8253851 2:-0.68744351 
-0 10 1:-2.896619 2:-0.71233869 
-0 10 1:-2.9682486 2:-0.71629657 
-0 10 1:-3.0261901 2:-0.57941476 
-0 10 1:-3.078473 2:-0.52282835 
-0 10 1:-3.1126019 2:-0.34128963 
-0 10 1:-3.1435097 2:-0.30907762 
-0 10 1:-3.1729808 2:-0.29471078 
-10 0 1:3.3524413 2:-0.97598722 
-10 0 1:3.2584873 2:-0.93954019 
-10 0 1:3.1535901 2:-1.0489726 
-10 0 1:3.0475201 2:-1.0606993 
-10 0 1:2.9322948 2:-1.1522533 
-10 0 1:2.7965808 2:-1.3571403 
-10 0 1:2.6548669 2:-1.4171387 
-10 0 1:2.5073096 2:-1.4755729 
-0 10 1:-0.69275844 2:-0.85436394 
-0 10 1:-0.77181729 2:-0.79058841 
-0 10 1:-0.83834731 2:-0.66530024 
-10 0 1:2.225538 2:-0.79307652 
-10 0 1:2.1456019 2:-0.79936113 
-10 0 1:2.0497582 2:-0.9584374 
-10 0 1:1.9403372 2:-1.0942102 
-10 0 1:1.8255081 2:-1.1482905 
-10 0 1:1.7008971 2:-1.2461102 
-10 10 1:0.1511277 2:-0.44080465 
-10 10 1:-0.10707116 2:-0.039481797 
-0 10 1:-0.37897631 2:-0.64990181 
-10 10 1:-0.41646615 2:-0.37489844 
-10 10 1:-0.45500211 2:-0.38535955 
-10 10 1:-0.49640503 2:-0.41402918 
-10 10 1:2.4646184 2:-0.61029875 
-10 10 1:2.4046227 2:-0.59995724 
-10 0 1:2.3285411 2:-0.76081639 
-10 10 1:2.254881 2:-0.73660019 
-10 0 1:2.1694409 2:-0.85440112 
-10 0 1:2.0803128 2:-0.89128122 
-10 0 1:1.9683385 2:-1.119743 
-10 0 1:1.8472448 2:-1.2109375 
-0 10 1:-1.0634572 2:-0.90082623 
-0 10 1:-1.1125676 2:-0.49110334 
-0 10 1:-2.5898516 2:-0.95609225 
-0 10 1:-2.6796962 2:-0.89844574 
-0 10 1:-2.7675747 2:-0.87878556 
-0 10 1:-2.8559284 2:-0.88353703 
-0 10 1:-2.9445718 2:-0.88643419 
-0 10 1:-3.0314222 2:-0.86850364 
-0 10 1:-3.1137718 2:-0.82349562 
-0 10 1:-3.1914903 2:-0.77718483 
-0 10 1:-3.2712188 2:-0.79728546 
-0 10 1:-3.3544448 2:-0.83225972 
-0 10 1:-3.4356627 2:-0.81217971 
-0 10 1:-3.5031554 2:-0.67492653 
-0 10 1:-3.560587 2:-0.57431621 
-0 10 1:-3.613634 2:-0.53046933 
-0 10 1:-3.6557325 2:-0.42098513 
-0 10 1:-3.7028444 2:-0.47111958 
-0 10 1:-3.7393894 2:-0.36545015 
-0 10 1:-3.7761909 2:-0.36801484 
-0 10 1:-3.8141166 2:-0.37925629 
-0 10 1:-3.8538602 2:-0.3974367 
-0 10 1:-3.896986 2:-0.4312573 
-0 10 1:-3.9440353 2:-0.47049353 
-0 10 1:-3.9988711 2:-0.54835755 
-0 10 1:-4.064776 2:-0.65904939 
-0 10 1:-4.1414974 2:-0.76721375 
-0 10 1:-4.2292968 2:-0.87799422 
-0 10 1:-4.3297725 2:-1.0047571 
-0 10 1:-5.5401571 2:-0.50529792 
-0 10 1:-5.5964695 2:-0.56312497 
-0 10 1:-5.6637119 2:-0.67242342 
-0 10 1:-5.7412635 2:-0.77551591 
-0 10 1:-5.8200578 2:-0.78794277 
-0 10 1:-5.9029231 2:-0.82865347 
-0 10 1:-5.9916198 2:-0.88696694 
-0 10 1:-6.0816254 2:-0.9000562 
-0 10 1:-6.1788729 2:-0.97247528 
-0 10 1:-6.2846173 2:-1.0574435 
-0 10 1:-6.3972061 2:-1.125888 
-10 10 1:5.21245 2:-0.30254962 
-10 10 1:5.1821845 2:-0.30265533 
-10 10 1:5.1458138 2:-0.36370649 
-10 10 1:5.1085344 2:-0.37279469 
-10 10 1:5.0638075 2:-0.44726819 
-10 10 1:5.0179083 2:-0.45899275 
-10 10 1:4.9708138 2:-0.4709442 
-10 10 1:4.9174198 2:-0.53394033 
-10 10 1:4.8614541 2:-0.55965727 
-10 10 1:4.802866 2:-0.58588071 
-10 0 1:4.7403403 2:-0.62525726 
-10 0 1:4.6747534 2:-0.65586878 
-10 0 1:4.6046407 2:-0.7011274 
-10 0 1:4.5305827 2:-0.74057941 
-10 0 1:4.4538889 2:-0.76693869 
-10 0 1:4.3783828 2:-0.75506039 
-10 0 1:4.2998667 2:-0.78516079 
-10 0 1:4.2211501 2:-0.78716673 
-10 0 1:4.1441418 2:-0.77008297 
-10 0 1:4.0632215 2:-0.80920284 
-10 0 1:3.9860234 2:-0.77198079 
-10 0 1:3.9054464 2:-0.80577031 
-10 0 1:3.8257156 2:-0.79730735 
-10 0 1:3.7487989 2:-0.76916712 
-10 0 1:3.6658581 2:-0.82940871 
-10 0 1:3.5848087 2:-0.8104932 
-10 0 1:3.5049427 2:-0.79866014 
-10 0 1:3.4247642 2:-0.80178537 
-10 0 1:3.3386505 2:-0.86113693 
-10 0 1:3.2496193 2:-0.89031188 
-10 0 1:3.1586743 2:-0.90944986 
-10 0 1:3.0654051 2:-0.93269245 
-10 0 1:2.9694993 2:-0.9590582 
-10 0 1:2.8704998 2:-0.98999426 
-10 0 1:2.7692153 2:-1.0128457 
-10 0 1:2.6661984 2:-1.0301684 
-10 0 1:2.561628 2:-1.0457043 
-10 0 1:2.4516407 2:-1.0998729 
-10 0 1:2.3387574 2:-1.1288328 
-10 0 1:2.2241357 2:-1.1462169 
-10 0 1:2.108187 2:-1.1594872 
-10 0 1:1.9906188 2:-1.1756818 
-10 0 1:1.8701197 2:-1.2049914 
-10 0 1:1.7442284 2:-1.2589132 
-0 10 1:-7.5319198 2:-1.2173114 
-0 10 1:-7.6366168 2:-1.0469702 
-0 10 1:-2.6773611 2:-0.95664414 
-0 10 1:-2.7607887 2:-0.83427654 
-0 10 1:-2.8327366 2:-0.71947845 
-0 10 1:-2.8959792 2:-0.63242574 
-0 10 1:-2.9506194 2:-0.54640261 
-10 0 1:6.4749231 2:-1.1748114 
-10 0 1:6.344137 2:-1.3078612 
-10 0 1:6.2018546 2:-1.4228237 
-10 0 1:6.0545674 2:-1.472872 
-10 0 1:5.9030835 2:-1.5148389 
-10 0 1:5.7458958 2:-1.5718776 
-10 0 1:5.5854217 2:-1.6047411 
-10 0 1:5.4194061 2:-1.660156 
-10 0 1:5.2462955 2:-1.7311053 
-10 0 1:5.0615762 2:-1.8471931 
-10 0 1:4.8732965 2:-1.8827975 
-10 0 1:4.6831581 2:-1.9013835 
-10 0 1:4.4889234 2:-1.9423467 
-10 0 1:4.293796 2:-1.9512748 
-10 0 1:4.0986802 2:-1.9511582 
-10 0 1:3.9056744 2:-1.9300576 
-10 0 1:3.7134292 2:-1.9224523 
-10 0 1:3.5225388 2:-1.9089039 
-2.392554829757724 0 1:3.3337549 2:-1.8878382 
-0 10 1:-1.2866747 2:-0.9071903 
-0 10 1:-1.3656661 2:-0.78991376 
-0 10 1:-1.4400675 2:-0.74401446 
-0 10 1:-1.5091435 2:-0.69075968 
-0 10 1:-1.5731997 2:-0.640562 
-0 10 1:-1.6323269 2:-0.59127214 
-0 10 1:-1.685711 2:-0.53384148 
-0 10 1:-1.7352813 2:-0.49570307 
-0 10 1:-1.7849225 2:-0.49641175 
-0 10 1:-1.8361734 2:-0.51250923 
-0 10 1:-1.8891645 2:-0.52991026 
-0 10 1:-1.9386493 2:-0.49484785 
-0 10 1:-1.9823517 2:-0.43702441 
-0 10 1:-2.0225928 2:-0.40241067 
-0 10 1:-2.0599756 2:-0.37382827 
-0 10 1:-2.0948242 2:-0.34848599 
-0 10 1:-2.1276621 2:-0.32837905 
-0 10 1:-2.1469997 2:-0.1933761 
-0 10 1:-2.1646568 2:-0.17657054 
-0 10 1:-2.1812959 2:-0.16639108 
-0 10 1:-2.1942927 2:-0.12996822 
-0 10 1:-2.1948675 2:-0.0057479227 
-0 10 1:-2.2024761 2:-0.07608632 
-0 10 1:-2.208953 2:-0.064768835 
-0 10 1:-2.2251836 2:-0.16230621 
-0 10 1:-2.2412129 2:-0.16029301 
-0 10 1:-2.2638601 2:-0.2264717 
-10 0 1:3.5603483 2:-1.052217 
-10 0 1:3.4548015 2:-1.0554679 
-10 0 1:3.3424272 2:-1.1237431 
-10 0 1:3.2200819 2:-1.2234532 
-10 0 1:3.0884266 2:-1.3165535 
-10 0 1:2.9441304 2:-1.4429614 
-10 0 1:2.7868213 2:-1.5730911 
-0 10 1:-2.3736553 2:-0.94438644 
-0 10 1:-2.4677416 2:-0.94086371 
-0 10 1:-2.5644127 2:-0.96671098 
-0 6.52626377284276 1:-2.6626528 2:-0.98240043 
-0 10 1:-2.7612889 2:-0.98636113 
-0 10 1:-2.8597275 2:-0.98438642 
-0 10 1:-2.9564866 2:-0.96759054 
-0 10 1:-3.0495032 2:-0.93016644 
-0 10 1:-3.1365223 2:-0.87019011 
-0 10 1:-3.2212034 2:-0.84681132 
-0 10 1:-3.3033766 2:-0.82173256 
-0 10 1:-3.3814387 2:-0.78062053 
-0 10 1:-3.4538803 2:-0.72441569 
-0 10 1:-3.5207402 2:-0.66859945 
-0 10 1:-3.5822152 2:-0.61474947 
-0 10 1:-3.6374726 2:-0.55257403 
-0 10 1:-3.684804 2:-0.4733147 
-0 10 1:-3.7235572 2:-0.38753166 
-0 10 1:-3.7534934 2:-0.29936252 
-10 0 1:8.0281504 2:-1.8340373 
-10 0 1:7.8243148 2:-2.0383559 
-10 0 1:7.6013197 2:-2.2299511 
-10 0 1:7.3590899 2:-2.4222981 
-10 0 1:7.0976492 2:-2.6144071 
-10 0 1:6.816601 2:-2.8104826 
-0 10 1:-2.4912145 2:-0.90441132 
-0 10 1:-2.5826952 2:-0.91480759 
-0 10 1:-2.6738922 2:-0.91196992 
-0 10 1:-2.7556407 2:-0.81748455 
-0 10 1:-2.8330954 2:-0.77454734 
-0 10 1:-2.9046031 2:-0.71507646 
-0 10 1:-2.9686049 2:-0.6400186 
-0 10 1:-3.0175993 2:-0.48994407 
-0 10 1:-3.060046 2:-0.42446684 
-0 10 1:-3.100062 2:-0.40015937 
-0 10 1:-3.1378259 2:-0.37763903 
-0 10 1:-3.177894 2:-0.40068146 
-0 10 1:-3.2203781 2:-0.42484129 
-0 10 1:-3.272313 2:-0.51934833 
-0 10 1:-3.3378779 2:-0.65564891 
-0 10 1:-3.4010194 2:-0.63141498 
-0 10 1:-3.4712048 2:-0.70185404 
-0 10 1:-3.5456912 2:-0.74486426 
-0 10 1:-3.6235574 2:-0.77866167 
-0 10 1:-3.705956 2:-0.82398654 
-0 10 1:-3.79446 2:-0.88503998 
-0 10 1:-3.8794627 2:-0.85002738 
-0 10 1:-3.9707389 2:-0.91276138 
-0 10 1:-4.0559318 2:-0.85192931 
-0 10 1:-4.1409039 2:-0.84972037 
-0 10 1:-4.2258381 2:-0.84934266 
-0 10 1:-4.3113072 2:-0.85469034 
-0 10 1:-4.3958613 2:-0.84554106 
-0 10 1:-4.4736602 2:-0.77798925 
-0 10 1:-4.5509581 2:-0.77297876 
-0 10 1:-4.6287214 2:-0.77763295 
-0 10 1:-4.7070429 2:-0.78321504 
-0 10 1:-4.7873295 2:-0.80286597 
-0 10 1:-4.8654474 2:-0.78117943 
-0 10 1:-4.9454003 2:-0.79952952 
-0 10 1:-5.0239657 2:-0.78565357 
-0 10 1:-5.1006548 2:-0.76689081 
-0 10 1:-5.1695449 2:-0.68890065 
-0 10 1:-5.2334607 2:-0.63915811 
-0 10 1:-4.8426752 2:-0.94638831 
-0 10 1:-4.9187768 2:-0.76101587 
-0 10 1:-4.978858 2:-0.60081236 
-0 10 1:-5.0293123 2:-0.50454287 
-0 10 1:-5.0689623 2:-0.39649972 
-0 10 1:-5.0970363 2:-0.28073997 
-0 10 1:-5.1171766 2:-0.20140262 
-0 10 1:-5.126497 2:-0.093204232 
-0 10 1:-5.1326946 2:-0.061975746 
-0 10 1:-5.1214409 2:0.11253666 
-0 10 1:-5.1383392 2:-0.16898311 
-0 10 1:-5.1552715 2:-0.16932299 
-0 10 1:-5.1710931 2:-0.15821641 
-0 10 1:-5.1851455 2:-0.14052372 
-0 10 1:-5.1845311 2:0.0061438901 
-0 10 1:-5.1791162 2:0.054149562 
-0 10 1:-5.1735445 2:0.055716815 
-0 10 1:-5.1621466 2:0.11397918 
-0 10 1:-5.1515052 2:0.10641394 
-0 10 1:-5.13297 2:0.18535166 
-0 10 1:-5.1056063 2:0.27363726 
-0 10 1:-5.0815741 2:0.24032168 
-10 0 1:3.9195205 2:-0.85960041 
-10 0 1:3.8263801 2:-0.93140442 
-10 0 1:3.7223325 2:-1.0404757 
-10 0 1:3.6036898 2:-1.1864277 
-10 0 1:3.4728431 2:-1.3084671 
-10 0 1:3.3293419 2:-1.4350117 
-10 0 1:3.1749779 2:-1.5436399 
-10 0 1:3.0094766 2:-1.6550135 
-0 10 1:-6.9812994 2:-1.1420995 
-0 10 1:-7.0844307 2:-1.0313135 
-0 10 1:-7.1772442 2:-0.9281344 
-0 10 1:-7.2617098 2:-0.84465693 
-0 10 1:-7.3392592 2:-0.77549326 
-0 10 1:-7.4084912 2:-0.69232 
-0 10 1:-7.4681991 2:-0.59707875 
-0 10 1:-7.5200824 2:-0.51883383 
-0 10 1:-7.5627319 2:-0.42649509 
-0 10 1:-7.5949069 2:-0.32174912 
-0 10 1:-7.6231623 2:-0.28255408 
-0 -10 1:-4.9187412 2:-0.4165094 
-0 -10 1:-4.9579856 2:-0.3924442 
-0 -10 1:-4.9970523 2:-0.3906675 
-0 -10 1:-5.0349731 2:-0.3792078 
-0 -10 1:-3.6034151 2:-0.60045047 
-0 -10 1:-3.654271 2:-0.50855955 
-0 -10 1:-3.7026075 2:-0.4833648 
-0 -10 1:-3.7485405 2:-0.45932963 
-0 -10 1:-3.7828317 2:-0.34291196 
-0 -10 1:-3.8142879 2:-0.31456189 
-0 -10 1:-5.076463 2:-1.0178064 
-0 -10 1:-5.1560796 2:-0.79616608 
-0 -10 1:-5.2194821 2:-0.63402521 
-0 -10 1:-5.2657483 2:-0.46266242 
-0 -10 1:-3.2270839 2:-0.30213635 
-0 -10 1:-3.2636308 2:-0.36546912 
-0 -10 1:-3.3061527 2:-0.42521848 
-0 -10 1:-3.3474181 2:-0.41265399 
-0 -10 1:-3.3856767 2:-0.38258591 
-0 -10 1:-3.4241956 2:-0.38518918 
-0 -10 1:-3.4644281 2:-0.40232499 
-0 -10 1:-3.5022516 2:-0.37823524 
-0 -10 1:-3.5393138 2:-0.37062249 
-0 -10 1:-3.5785086 2:-0.39194745 
-0 -10 1:-3.6141586 2:-0.35649992 
-0 -10 1:-3.6489539 2:-0.3479534 
-0 -10 1:-3.6877915 2:-0.38837619 
-0 -10 1:-3.7525457 2:-0.33955131 
-0 -10 1:-3.788027 2:-0.35481341 
-0 -10 1:-3.8197566 2:-0.3172953 
-0 -10 1:-3.8527015 2:-0.32944907 
-0 -10 1:-1.4313744 2:-0.20217839 
-0 -10 1:-1.4918776 2:-0.27394972 
-0 -10 1:-1.5145185 2:-0.22640881 
-0 -10 1:-1.5655576 2:-0.24821404 
-0 -10 1:-1.5963467 2:-0.30789159 
-0 -10 1:-1.6294102 2:-0.33063442 
-0 -10 1:-1.6607142 2:-0.31304022 
-0 -10 1:-1.6855321 2:-0.24817956 
-0 -10 1:-1.7088993 2:-0.23367217 
-0 -10 1:-1.7312624 2:-0.22363076 
-0 -10 1:-4.8515198 2:-0.89361496 
-0 -10 1:-4.9372325 2:-0.85712703 
-0 -10 1:-5.0251266 2:-0.87894114 
-0 -10 1:-5.1026518 2:-0.77525177 
-0 -10 1:-5.176775 2:-0.74123284 
-0 -10 1:-5.2353947 2:-0.58619689 
-0 -10 1:-5.2872736 2:-0.51878848 
-0 -10 1:-4.8352969 2:-0.42912794 
-0 -10 1:-4.8761052 2:-0.40808215 
-0 -10 1:-4.9223999 2:-0.46294722 
-0 -10 1:-4.9625938 2:-0.40193962 
-0 -10 1:-5.0045989 2:-0.42005098 
-0 -10 1:-5.0467693 2:-0.42170353 
-0 -10 1:-5.0845183 2:-0.37748994 
-0 -10 1:-5.1223599 2:-0.37841604 
-0 -10 1:-0.37261135 2:-0.16325878 
-0 -10 1:-0.4049117 2:-0.32300351 
-0 -10 1:-6.3280165 2:-0.6634872 
-0 -10 1:-6.386786 2:-0.58769446 
-0 -10 1:-6.4467868 2:-0.60000818 
-0 -10 1:-6.5060228 2:-0.59236014 
-0 -10 1:-6.5577638 2:-0.51740985 
-0 -10 1:-6.6035728 2:-0.45809006 
-0 -10 1:-5.705201 2:-0.42982777 
-0 -10 1:-3.3439028 2:-0.67102485 
-0 -10 1:-3.3992372 2:-0.55334408 
-0 -10 1:-3.4523851 2:-0.5314792 
-0 -10 1:-3.4919947 2:-0.39609659 
-0 -10 1:-3.5286694 2:-0.36674673 
-0 -10 1:-3.55912 2:-0.30450536 
-0 -10 1:-3.7008724 2:-0.3216758 
-0 -10 1:-3.7387856 2:-0.37913213 
-0 -10 1:-3.7807262 2:-0.41940607 
-0 -10 1:-3.8235334 2:-0.42807142 
-0 -10 1:-3.8656819 2:-0.42148479 
-0 -10 1:-3.9083652 2:-0.4268331 
-0 -10 1:-3.9518782 2:-0.43513019 
-0 -10 1:-3.9961351 2:-0.44256911 
-0 -10 1:-4.0389638 2:-0.42828746 
-0 -10 1:-4.0800002 2:-0.41036347 
-0 -10 1:-4.1243129 2:-0.44312725 
-0 -10 1:-4.1693378 2:-0.45024902 
-0 -10 1:-4.2075668 2:-0.3822895 
-0 -10 1:-4.2491135 2:-0.41546706 
-0 -10 1:-4.2887912 2:-0.39677742 
-0 -10 1:-4.3315739 2:-0.42782736 
-0 -10 1:-4.3684596 2:-0.3688565 
-0 -10 1:-4.4057722 2:-0.37312589 
-0 -10 1:-4.4445892 2:-0.38817017 
-0 -10 1:-3.7100088 2:-0.32774693 
-0 -10 1:-3.7539567 2:-0.43947941 
-0 -10 1:-3.7988161 2:-0.44859386 
-0 -10 1:-3.840917 2:-0.42100935 
-0 -10 1:-3.8799788 2:-0.39061768 
-0 -10 1:-3.9193031 2:-0.39324285 
-0 -10 1:-3.9569274 2:-0.37624344 
-0 -10 1:-3.9959451 2:-0.39017678 
-0 -10 1:-4.0328324 2:-0.36887284 
-0 -10 1:-4.0676263 2:-0.34793908 
-0 -10 1:-4.1030917 2:-0.35465413 
-0 -10 1:-4.138752 2:-0.35660305 
-0 -10 1:-4.1331222 2:-0.39296585 
-0 -10 1:-4.1803755 2:-0.47253266 
-0 -10 1:-4.2258136 2:-0.45438082 
-0 -10 1:-4.2725659 2:-0.46752282 
-0 -10 1:-4.3068158 2:-0.34249933 
-0 -10 1:-3.726605 2:-0.60693808 
-0 -10 1:-3.7847905 2:-0.58185495 
-0 -10 1:-3.8373644 2:-0.52573893 
-0 -10 1:-3.8778945 2:-0.40530061 
-0 -10 1:-3.9137736 2:-0.35879128 
-0 -10 1:-3.7499923 2:-0.31426911 
-0 -10 1:-3.791602 2:-0.41609726 
-0 -10 1:-3.8439428 2:-0.52340736 
-0 -10 1:-3.9023013 2:-0.58358591 
-0 -10 1:-3.9687796 2:-0.66478234 
-0 -10 1:-4.0462259 2:-0.77446269 
-0 -10 1:-4.131652 2:-0.85426125 
-0 -10 1:-4.2184095 2:-0.86757506 
-0 -10 1:-4.3080383 2:-0.89628807 
-0 -10 1:-4.3934774 2:-0.85439128 
-0 -10 1:-4.471513 2:-0.78035537 
-0 -10 1:-4.5494886 2:-0.77975683 
-0 -10 1:-4.616629 2:-0.67140404 
-0 -10 1:-4.6833102 2:-0.66681134 
-0 -10 1:-4.7405892 2:-0.57279035 
-0 -10 1:-4.7939582 2:-0.53368993 
-0 -10 1:-4.8450603 2:-0.51102108 
-0 -10 1:-4.8878911 2:-0.42830815 
-0 -10 1:-4.927296 2:-0.39404841 
-0 -10 1:-2.6678574 2:-0.28579267 
-0 -10 1:-2.7143054 2:-0.4644797 
-0 -10 1:-2.7738099 2:-0.59504552 
-0 -10 1:-2.8428753 2:-0.69065343 
-0 -10 1:-2.918759 2:-0.75883771 
-0 -10 1:-2.9919111 2:-0.73152061 
-0 -10 1:-3.0693591 2:-0.77448015 
-0 -10 1:-3.1502449 2:-0.80885813 
-0 -10 1:-3.2288824 2:-0.78637457 
-0 -10 1:-3.3028769 2:-0.73994528 
-0 -10 1:-3.3841495 2:-0.81272557 
-0 -10 1:-3.4572674 2:-0.73117893 
-0 -10 1:-3.5333805 2:-0.76113177 
-0 -10 1:-3.5938338 2:-0.60453269 
-0 -10 1:-3.6524454 2:-0.58611642 
-0 -10 1:-3.7050576 2:-0.52612155 
-0 -10 1:-3.7466715 2:-0.41613896 
-0 -10 1:-3.7834727 2:-0.36801226 
-0 -10 1:-3.8159115 2:-0.32438753 
-0 -10 1:-5.2235383 2:-1.2736692 
-0 -10 1:-5.3401059 2:-1.1656768 
-0 -10 1:-5.4401798 2:-1.000739 
-0 -10 1:-5.5255484 2:-0.85368572 
-0 -10 1:-5.5958624 2:-0.70314011 
-0 -10 1:-5.649645 2:-0.53782583 
-0 -10 1:-4.2936326 2:-0.37621071 
-0 -10 1:-4.3475483 2:-0.53915701 
-0 -10 1:-4.4094155 2:-0.61867278 
-0 -10 1:-4.485188 2:-0.7577249 
-0 -10 1:-4.5600516 2:-0.74863609 
-0 -10 1:-4.6383074 2:-0.78255737 
-0 -10 1:-4.7199826 2:-0.81675234 
-0 -10 1:-4.8124761 2:-0.92493473 
-0 -10 1:-4.9177909 2:-1.0531484 
-0 -10 1:-5.0302721 2:-1.1248121 
-0 -10 1:-5.1425778 2:-1.123057 
-0 -10 1:-5.2742146 2:-1.3163673 
-0 -10 1:-5.4144315 2:-1.402169 
-0 -10 1:-5.4561796 2:-0.41748184 
-0 -10 1:-5.4974551 2:-0.41275494 
-0 -10 1:-5.5453546 2:-0.47899444 
-0 -10 1:-5.6019247 2:-0.56570111 
-0 -10 1:-5.6626058 2:-0.6068108 
-0 -10 1:-5.7221455 2:-0.59539772 
-0 -10 1:-5.7832943 2:-0.61148728 
-0 -10 1:-5.8483334 2:-0.65039171 
-0 -10 1:-5.9182382 2:-0.69904747 
-0 -10 1:-5.9867635 2:-0.68525273 
-0 -10 1:-6.062463 2:-0.75699536 
-0 -10 1:-6.1417159 2:-0.79252936 
-0 -10 1:-4.0134681 2:-0.57173978 
-0 -10 1:-4.0646417 2:-0.51173649 
-0 -10 1:-4.1042488 2:-0.39607036 
-0 -10 1:-4.1375542 2:-0.33305409 
-0 -2.816311949229095 1:-3.7307026 2:-0.30963743 
-0 -10 1:-3.7758783 2:-0.45175708 
-0 -10 1:-3.8221218 2:-0.46243508 
-0 -10 1:-3.8740374 2:-0.51915581 
-0 -10 1:-3.9289297 2:-0.54892315 
-0 -10 1:-3.9781134 2:-0.49183655 
-0 -10 1:-4.0201625 2:-0.42049112 
-0 -10 1:-4.0607681 2:-0.40605648 
-0 -10 1:-4.099015 2:-0.38246836 
-0 -10 1:-4.1355289 2:-0.36513969 
-0 -10 1:-3.9687738 2:-0.36631351 
-0 -10 1:-4.0094122 2:-0.40638427 
-0 -10 1:-4.054813 2:-0.45400729 
-0 -10 1:-4.0997178 2:-0.44904882 
-0 -10 1:-4.1445373 2:-0.44819497 
-0 -10 1:-4.1879861 2:-0.43448774 
-0 -10 1:-4.2358675 2:-0.47881433 
-0 -10 1:-4.2793747 2:-0.4350712 
-0 -10 1:-4.3257686 2:-0.46393897 
-0 -10 1:-4.3667766 2:-0.41008051 
-0 -10 1:-4.4079812 2:-0.41204592 
-0 -10 1:-4.4489364 2:-0.4095515 
-0 -10 1:-4.4891651 2:-0.40228736 
-0 -10 1:-4.5244809 2:-0.3531585 
-0 -10 1:-5.1576124 2:-0.39498019 
-0 -10 1:-5.19984 2:-0.42227511 
-0 -10 1:-5.2440338 2:-0.44193819 
-0 -10 1:-5.2924793 2:-0.48445492 
-0 -10 1:-5.3424474 2:-0.49968175 
-0 -10 1:-5.3955129 2:-0.5306541 
-0 -10 1:-5.4530703 2:-0.57557405 
-0 -10 1:-5.5118666 2:-0.58796347 
-0 -10 1:-5.5735859 2:-0.61719323 
-0 -10 1:-5.6407072 2:-0.67121277 
-0 -10 1:-5.7116191 2:-0.70911898 
-0 -10 1:-5.7789263 2:-0.67307169 
-0 -10 1:-5.8375524 2:-0.58626146 
-0 -10 1:-5.8848543 2:-0.47301867 
-0 -10 1:0.77775521 2:-0.28635878 
-0 -10 1:0.74517105 2:-0.32584159 
-0 -10 1:0.7228365 2:-0.22334553 
-0 -10 1:0.71068286 2:-0.12153642 
-2.846980284739407 -0 1:1.4663217 2:0.37414438 
-10 -0 1:1.4956707 2:0.29349022 
-10 -0 1:1.5270373 2:0.3136664 
-10 -0 1:1.5625772 2:0.35539831 
-10 -0 1:1.6019744 2:0.39397292 
-10 -0 1:1.6364397 2:0.34465285 
-10 -0 1:1.6698198 2:0.33380086 
-10 -0 1:1.7088902 2:0.39070374 
-10 -0 1:1.7551347 2:0.46244477 
-10 -0 1:1.7931558 2:0.38021134 
-10 -0 1:1.8433549 2:0.50199132 
-10 -0 1:1.8921428 2:0.48787832 
-10 -0 1:1.9421502 2:0.50007423 
-10 -0 1:1.9971077 2:0.54957548 
-10 -0 1:2.0547491 2:0.57641403 
-10 -0 1:2.1160136 2:0.61264479 
-10 -0 1:2.1689195 2:0.52905901 
-10 -0 1:2.2207502 2:0.51830719 
-10 -0 1:2.2669353 2:0.4618507 
-10 -0 1:2.3199834 2:0.53048069 
-10 -0 1:2.3641325 2:0.44149081 
-10 -0 1:2.4059431 2:0.41810619 
-10 -0 1:2.4397592 2:0.33816163 
-10 -0 1:2.4603518 2:0.20592554 
-10 -0 1:2.4759576 2:0.15605841 
-10 -0 1:2.4855622 2:0.096045357 
-10 -0 1:2.4882779 2:0.027157161 
-10 -10 1:2.482829 2:-0.054488563 
-10 -10 1:2.466132 2:-0.16696985 
-10 -10 1:2.4457365 2:-0.20395516 
-10 -10 1:2.4234637 2:-0.22272827 
-10 -10 1:2.3992385 2:-0.24225237 
-10 -10 1:2.3739889 2:-0.25249525 
-10 -10 1:2.3503885 2:-0.23600452 
-10 -10 1:2.3273048 2:-0.23083694 
-10 -10 1:2.2952961 2:-0.32008682 
-10 -10 1:2.2671322 2:-0.28163933 
-10 -10 1:2.2427399 2:-0.24392276 
-10 -10 1:2.211487 2:-0.31252855 
-10 -10 1:2.1725621 2:-0.38924928 
-10 -10 1:2.129999 2:-0.42563099 
-10 -10 1:2.0861535 2:-0.4384549 
-10 -10 1:2.038691 2:-0.47462513 
-10 -10 1:1.9875594 2:-0.51131647 
-10 -10 1:1.9318132 2:-0.55746169 
-10 -10 1:1.877688 2:-0.54125162 
-10 -10 1:1.8264013 2:-0.51286749 
-10 -10 1:1.7858251 2:-0.40576142 
-10 -10 1:1.755529 2:-0.30296138 
-10 -10 1:1.7336883 2:-0.21840686 
-10 -10 1:1.7201336 2:-0.13554689 
-10 -10 1:1.7100505 2:-0.10083126 
-10 -10 1:1.7013216 2:-0.087289349 
-10 -0 1:1.7045911 2:0.032695292 
-10 -0 1:1.7125699 2:0.079787744 
-10 -0 1:1.7127499 2:0.0018006444 
-10 -0 1:1.7214663 2:0.087163701 
-10 -10 1:1.714483 2:-0.069833108 
-10 -0 1:1.7136209 2:-0.0086211491 
-10 -10 1:1.7074047 2:-0.062162057 
-10 -10 1:1.6945929 2:-0.12811787 
-10 -10 1:1.6839077 2:-0.10685208 
-10 -10 1:1.6724079 2:-0.11499737 
-10 -10 1:1.6543903 2:-0.1801769 
-10 -10 1:1.6330955 2:-0.21294772 
-10 -10 1:1.615028 2:-0.18067487 
-10 -10 1:1.6034549 2:-0.11573075 
-10 -0 1:1.599431 2:-0.040239258 
-10 -0 1:1.6019073 2:0.024762661 
-10 -0 1:1.6096577 2:0.077504678 
-10 -0 1:1.6099935 2:0.0033572505 
-10 -0 1:1.607869 2:-0.021244892 
-10 -0 1:1.605075 2:-0.027939971 
-10 -0 1:1.6039899 2:-0.010851162 
-10 -10 1:1.596612 2:-0.073778971 
-10 -10 1:1.5880117 2:-0.086002535 
-10 -0 1:1.5906253 2:0.026136144 
-10 -10 1:1.5776733 2:-0.12951998 
-10 -0 1:1.5807728 2:0.030994764 
-10 -10 1:1.5713768 2:-0.0939603 
-10 -0 1:1.5687589 2:-0.026178879 
-10 -0 1:1.5666651 2:-0.020937905 
-10 -10 1:1.5536025 2:-0.13062591 
-10 -0 1:1.5505262 2:-0.03076259 
-10 -0 1:1.5498976 2:-0.0062862973 
-10 -10 1:1.5407964 2:-0.09101249 
-10 -0 1:1.5359679 2:-0.048284913 
-10 -0 1:1.5337084 2:-0.02259516 
-10 -0 1:1.532542 2:-0.011663136 
-10 -0 1:1.5316182 2:-0.0092381311 
-10 -0 1:1.5304111 2:-0.012071566 
-10 -0 1:1.5289644 2:-0.014467007 
-10 -0 1:1.527591 2:-0.01373388 
-10 -0 1:1.5276525 2:0.00061529789 
-10 -0 1:1.5274905 2:-0.0016203444 
-10 -0 1:1.5299498 2:0.024593191 
-10 -0 1:1.5372321 2:0.072823529 
-10 -0 1:1.5361041 2:-0.011280883 
-10 -0 1:1.5385135 2:0.024094191 
-10 -0 1:1.5458341 2:0.073206093 
-10 -0 1:1.5573749 2:0.11540826 
-10 -0 1:1.5610285 2:0.036535379 
-10 -0 1:1.5726296 2:0.11601186 
-10 -0 1:1.590549 2:0.17919375 
-10 -0 1:1.6137618 2:0.23212748 
-10 -0 1:1.6318953 2:0.18133573 
-10 -0 1:1.6558349 2:0.23939603 
-10 -0 1:1.6883417 2:0.32506738 
-10 -0 1:1.7180598 2:0.29718145 
-10 -0 1:1.7405262 2:0.22466418 
-10 -0 1:1.7692817 2:0.28755491 
-10 -0 1:1.7985338 2:0.29252069 
-10 -0 1:1.8199641 2:0.21430251 
-10 -0 1:1.8473512 2:0.27387104 
-10 -0 1:1.8771682 2:0.29817031 
-10 -0 1:1.8974682 2:0.20299965 
-10 -0 1:1.9230168 2:0.25548617 
-10 -0 1:1.951475 2:0.28458264 
-10 -0 1:1.9691198 2:0.17644796 
-10 -0 1:1.9937334 2:0.2461358 
-10 -0 1:2.0234754 2:0.29742 
-10 -0 1:2.0406639 2:0.17188526 
-10 -0 1:2.057155 2:0.16491036 
-10 -0 1:2.0734764 2:0.16321391 
-10 -0 1:2.0900042 2:0.16527843 
-10 -0 1:2.1053119 2:0.15307735 
-10 -0 1:2.1159001 2:0.10588176 
-10 -0 1:2.1222489 2:0.063487878 
-10 -0 1:2.1249131 2:0.026641832 
-10 -0 1:2.124527 2:-0.0038605116 
-10 -0 1:2.1225977 2:-0.019293703 
-10 -10 1:2.1146643 2:-0.079333722 
-10 -10 1:2.1022352 2:-0.12429129 
-10 -10 1:2.0951843 2:-0.070508345 
-10 -10 1:2.0833716 2:-0.11812738 
-10 -10 1:2.0727817 2:-0.10589915 
-10 -10 1:2.0599738 2:-0.12807869 
-10 -10 1:2.0518465 2:-0.081273173 
-10 -10 1:2.0345985 2:-0.17247959 
-10 -10 1:2.0205961 2:-0.1400241 
-10 -10 1:2.0084845 2:-0.12111627 
-10 -10 1:1.9962483 2:-0.12236151 
-10 -10 1:1.984595 2:-0.11653382 
-10 -10 1:1.9731782 2:-0.11416767 
-10 -10 1:1.9627215 2:-0.10456656 
-10 -10 1:1.9528998 2:-0.098217266 
-10 -10 1:1.9469516 2:-0.059482064 
-10 -10 1:1.9408178 2:-0.061338225 
-10 -10 1:1.9303649 2:-0.10452857 
-10 -10 1:1.9254406 2:-0.049243014 
-10 -0 1:1.925612 2:0.0017136575 
-10 -0 1:1.926697 2:0.010849817 
-10 -0 1:1.9276869 2:0.0098992787 
-10 -0 1:1.9310352 2:0.033483422 
-10 -0 1:1.9364045 2:0.053692985 
-10 -0 1:1.9441787 2:0.077741282 
-10 -0 1:1.9527104 2:0.08531716 
-10 -0 1:1.9561951 2:0.03484729 
-10 -0 1:1.9645271 2:0.083319392 
-10 -0 1:1.9814988 2:0.16971781 
-10 -0 1:1.9885053 2:0.070064347 
-10 -0 1:2.0073022 2:0.1879693 
-10 -0 1:2.0148567 2:0.075545091 
-10 -0 1:2.0345219 2:0.19665197 
-10 -0 1:2.043206 2:0.086840987 
-10 -0 1:2.0607992 2:0.17593229 
-10 -0 1:2.0751185 2:0.14319218 
-10 -0 1:2.0840628 2:0.089443558 
-10 -0 1:2.0951831 2:0.11120278 
-10 -0 1:2.1061702 2:0.10987108 
-10 -0 1:2.1050479 2:-0.011223329 
-10 -0 1:2.1028306 2:-0.022172354 
-10 -10 1:2.0995608 2:-0.032698122 
-10 -10 1:2.0954615 2:-0.040993066 
-10 -10 1:2.0889439 2:-0.065175999 
-10 -10 1:2.0790643 2:-0.098795855 
-10 -10 1:2.0645426 2:-0.14521722 
-10 -10 1:2.0430488 2:-0.21493758 
-10 -10 1:2.0168226 2:-0.26226215 
-10 -10 1:1.9901892 2:-0.26633413 
-10 -10 1:1.9646634 2:-0.25525807 
-10 -10 1:1.9350326 2:-0.29630831 
-10 -10 1:1.8977907 2:-0.37241848 
-10 -10 1:1.8659862 2:-0.3180451 
-10 -10 1:1.8231152 2:-0.42871032 
-10 -10 1:1.7803833 2:-0.42731881 
-10 -10 1:1.7371091 2:-0.43274216 
-10 -10 1:1.6900055 2:-0.4710361 
-10 -10 1:1.6479666 2:-0.42038893 
-10 -10 1:1.5995149 2:-0.48451648 
-10 -10 1:1.5566601 2:-0.42854847 
-10 -10 1:1.5146309 2:-0.4202921 
-10 -10 1:1.4715124 2:-0.43118482 
-10 -10 1:1.4408063 2:-0.30706133 
-10 -10 1:1.4037472 2:-0.37059057 
-10 -10 1:1.3718751 2:-0.31872148 
-7.912079737766332 -10 1:1.3486054 2:-0.23269676 
-0 -10 1:1.3313813 2:-0.17224098 
-0 -10 1:1.3142694 2:-0.1711186 
-0 -10 1:1.2947896 2:-0.19479779 
-0 -10 1:1.2802124 2:-0.14577283 
-0 -10 1:1.2702431 2:-0.099692675 
-0 -10 1:1.2634425 2:-0.068006389 
-0 -10 1:1.2362786 2:-0.10166313 
-0 -10 1:1.2223768 2:-0.13901881 
-0 -10 1:1.208684 2:-0.13692735 
-0 -10 1:1.1958682 2:-0.12815793 
-0 -10 1:1.1855219 2:-0.10346357 
-0 -10 1:1.1770513 2:-0.084706027 
-0 -10 1:1.1689965 2:-0.080547994 
-0 -10 1:1.1553871 2:-0.13609321 
-0 -10 1:1.1417193 2:-0.13667856 
-0 -10 1:1.1252065 2:-0.16512753 
-0 -10 1:1.1063671 2:-0.18839396 
-0 -10 1:1.0861512 2:-0.20215953 
-0 -10 1:1.0665091 2:-0.19642091 
-0 -10 1:1.0491753 2:-0.17333781 
-0 -10 1:1.0322651 2:-0.16910194 
-0 -10 1:1.0174003 2:-0.14864798 
-0 -10 1:0.99269512 2:-0.24705201 
-0 -10 1:0.96409572 2:-0.28599402 
-0 -10 1:0.95062815 2:-0.13467564 
-0 -10 1:0.91754462 2:-0.3308353 
-0 -10 1:0.9073065 2:-0.10238121 
-0 -10 1:0.8716875 2:-0.35619002 
-0 -10 1:0.8500057 2:-0.21681804 
-0 -10 1:0.83262888 2:-0.17376818 
-0 -10 1:0.8128868 2:-0.19742085 
-0 -10 1:0.78542411 2:-0.27462687 
-0 -10 1:0.74985312 2:-0.3557099 
-0 -10 1:0.71213073 2:-0.37722388 
-0 -10 1:0.6467864 2:-0.65344333 
-0 -10 1:0.58000677 2:-0.66779627 
-0 -10 1:0.51966518 2:-0.60341592 
-0 -10 1:0.43576566 2:-0.83899516 
-0 -10 1:0.37663107 2:-0.59134591 
-0 -10 1:0.27945737 2:-0.97173703 
-0 -10 1:0.23451936 2:-0.44938012 
-0 -10 1:0.10824945 2:-1.2626991 
-0 -10 1:-0.071386623 2:-2.2185432 
-0 -10 1:-0.17036354 2:-0.98976918 
-0 -10 1:-0.24126145 2:-0.70897909 
-0 -10 1:-0.29574956 2:-0.54488108 
-0 -10 1:-0.38923221 2:-0.93482649 
-0 -10 1:-0.45418913 2:-0.64956927 
-0 -10 1:-0.51101027 2:-0.56821136 
-0 -10 1:-0.57786126 2:-0.66850991 
-0 -10 1:-0.64911195 2:-0.71250687 
-0 -10 1:-0.72244085 2:-0.733289 
-0 -10 1:-0.79657295 2:-0.74132107 
-0 -10 1:-0.86865384 2:-0.72080884 
-0 -10 1:-0.93644459 2:-0.67790752 
-0 -10 1:-0.99624941 2:-0.59804818 
-0 -10 1:-1.0454968 2:-0.49247438 
-0 -10 1:-1.0847978 2:-0.39300952 
-0 -10 1:-1.1184892 2:-0.33691366 
-0 -10 1:-1.0864828 2:-0.29547887 
-0 -10 1:-3.4157447 2:-0.63970991 
-0 -10 1:-3.4598406 2:-0.44095912 
-0 -10 1:-2.6546112 2:-0.26054888 
-0 -10 1:-2.7133957 2:-0.33558158 
-0 -10 1:-2.7555804 2:-0.42184781 
-0 -10 1:-2.7944827 2:-0.38902306 
-0 -10 1:-2.8414887 2:-0.47005997 
-0 -10 1:-2.8874036 2:-0.45914912 
-0 -10 1:-2.9294293 2:-0.42025674 
-0 -10 1:-2.9751397 2:-0.45710373 
-0 -10 1:-3.0134714 2:-0.3833166 
-0 -10 1:-3.0525945 2:-0.39123109 
-0 -10 1:-3.0931668 2:-0.4057234 
-0 -10 1:-3.1299467 2:-0.36779848 
-0 -10 1:-3.1704683 2:-0.4052169 
-0 -10 1:-3.2075457 2:-0.37077311 
-0 -10 1:-3.2430293 2:-0.35483694 
-0 -10 1:-3.2824703 2:-0.39440925 
-0 -10 1:-3.3133645 2:-0.30894191 
-0 -10 1:-3.3448292 2:-0.31464756 
-0 -10 1:-2.6974861 2:-0.29689254 
-0 -10 1:-2.7320133 2:-0.34527209 
-0 -10 1:-2.7772913 2:-0.45277953 
-0 -10 1:-2.8285337 2:-0.51242442 
-0 -10 1:-2.8802486 2:-0.51714838 
-0 -10 1:-2.9347974 2:-0.54548793 
-0 -10 1:-2.9875188 2:-0.52721495 
-0 -10 1:-3.030805 2:-0.4328618 
-0 -10 1:-3.0779755 2:-0.47170516 
-0 -10 1:-3.1271215 2:-0.49145935 
-0 -10 1:-3.1680207 2:-0.40899262 
-0 -10 1:-3.1983158 2:-0.30295071 
-0 -10 1:-6.9089791 2:-0.92051952 
-0 -10 1:-6.9928206 2:-0.83841508 
-0 -10 1:-7.0727135 2:-0.79892865 
-0 -10 1:-7.1448401 2:-0.72126609 
-0 -10 1:-7.2072762 2:-0.62436157 
-0 -10 1:-7.2613405 2:-0.54064269 
-0 -10 1:-6.7530917 2:-1.7110935 
-0 -10 1:-6.9148522 2:-1.6176059 
-0 -10 1:-7.065803 2:-1.5095076 
-0 -10 1:-7.2036078 2:-1.3780484 
-0 -10 1:-7.3307425 2:-1.271347 
-0 -10 1:-7.4464744 2:-1.1573189 
-0 -10 1:-7.5490265 2:-1.0255208 
-0 -10 1:-7.6354978 2:-0.86471284 
-0 -10 1:-7.708226 2:-0.72728176 
-0 -10 1:-7.7724205 2:-0.64194583 
-0 -10 1:-7.8324875 2:-0.60066964 
-0 -10 1:-7.8923755 2:-0.59888023 
-0 -10 1:-7.9490043 2:-0.56628749 
-0 -10 1:-8.0024353 2:-0.53431033 
-0 -10 1:-8.2518698 2:-0.53451805 
-0 -10 1:-8.3092271 2:-0.57357262 
-0 -10 1:-8.3717454 2:-0.62518332 
-0 -10 1:-8.4391848 2:-0.67439396 
-0 -10 1:-8.5074685 2:-0.68283684 
-0 -10 1:-8.5743986 2:-0.66930159 
-0 -10 1:-8.6363181 2:-0.61919506 
-0 -10 1:-8.6922392 2:-0.5592111 
-0 -10 1:-8.1287591 2:-0.63644153 
-0 -10 1:-8.1996895 2:-0.70930411 
-0 -10 1:-8.2707985 2:-0.71109003 
-0 -10 1:-8.3444216 2:-0.73623135 
-0 -10 1:-8.4272479 2:-0.82826276 
-0 -10 1:-8.5204079 2:-0.93160001 
-0 -10 1:-8.6227423 2:-1.0233443 
-0 -10 1:-8.7356935 2:-1.1295114 
-0 -10 1:-8.8583468 2:-1.2265328 
-0 -10 1:-8.987096 2:-1.2874921 
-0 -10 1:-9.1181236 2:-1.3102759 
-0 -10 1:-9.2492186 2:-1.3109507 
-0 -10 1:-9.3827042 2:-1.3348555 
-0 -10 1:-9.5146284 2:-1.3192427 
-0 -10 1:-9.6441265 2:-1.2949807 
-0 -10 1:-9.7711134 2:-1.2698693 
-0 -10 1:-9.8952415 2:-1.2412809 
-0 -10 1:-10.01535 2:-1.201086 
-0 -10 1:-10.13374 2:-1.1839013 
-0 -10 1:-10.24743 2:-1.1368972 
-0 -10 1:-10.356133 2:-1.0870268 
-0 -10 1:-10.454672 2:-0.98539424 
-0 -10 1:-10.538554 2:-0.83882341 
-0 -10 1:-10.60317 2:-0.64615447 
-0 -10 1:-10.890751 2:-0.67829295 
-0 -10 1:-6.4808482 2:-0.50719707 
-0 -10 1:-6.5268784 2:-0.46030231 
-0 -10 1:-5.2618425 2:-0.40232849 
-0 -10 1:-5.3028353 2:-0.40992807 
-0 -10 1:-5.3463887 2:-0.43553443 
-0 -10 1:-5.424171 2:-0.40072478 
-0 -10 1:-5.6478478 2:-0.50956368 
-0 -10 1:-5.3179898 2:-1.3020772 
-0 -10 1:-5.4224515 2:-1.0446168 
-0 -10 1:-5.5082262 2:-0.85774714 
-0 -10 1:-5.5813615 2:-0.73135356 
-0 -10 1:-5.644056 2:-0.62694502 
-0 -10 1:-5.7051173 2:-0.61061271 
-0 -10 1:-5.7583843 2:-0.5326702 
-0 -10 1:-6.1634224 2:-0.42949279 
-0 -10 1:-6.5171172 2:-0.48028178 
-0 -10 1:-6.5736697 2:-0.56552548 
-0 -10 1:-6.6350335 2:-0.61363778 
-0 -10 1:-6.707425 2:-0.72391516 
-0 -10 1:-6.7851794 2:-0.77754381 
-0 -10 1:-6.8599138 2:-0.74734445 
-0 -10 1:-6.9268779 2:-0.66964049 
-0 -10 1:-7.1880006 2:-0.50464098 
-0 -10 1:-7.243103 2:-0.55102361 
-0 -10 1:-7.3007837 2:-0.57680775 
-0 -10 1:-7.3587643 2:-0.57980519 
-0 -10 1:-7.4136728 2:-0.54908569 
-0 -10 1:-3.2014422 2:-0.28461491 
-0 -10 1:-0.90423011 2:-0.65882799 
-0 -10 1:-0.96734694 2:-0.63116834 
-0 -10 1:-1.0255258 2:-0.58178824 
-0 -10 1:-1.0757885 2:-0.50262751 
-0 -10 1:-1.1102132 2:-0.34424709 
-0 -10 1:-0.53384673 2:-0.37441707 
-0 -10 1:-0.56197699 2:-0.28130256 
-0 -10 1:-0.57869308 2:-0.16716094 
-0 -10 1:-1.145348 2:-0.32780444 
-0 -10 1:-1.1929808 2:-0.47632773 
-0 -10 1:-1.2156694 2:-0.2268859 
-0 -10 1:-1.2498646 2:-0.34195231 
-0 -10 1:-1.2826266 2:-0.20825094 
-0 -10 1:-7.7240351 2:-0.87418276 
-0 -10 1:-7.7903971 2:-0.66362001 
-0 -10 1:-2.9976267 2:-0.4700733 
-0 -10 1:-3.041377 2:-0.43750262 
-0 -10 1:-3.0817629 2:-0.40385867 
-0 -10 1:-3.1167832 2:-0.35020297 
-0 -10 1:-3.1468762 2:-0.30093022 
-0 -10 1:-2.3711518 2:-0.26768527 
-0 -10 1:-2.4021024 2:-0.30950626 
-0 -10 1:-2.4356088 2:-0.33506395 
-0 -10 1:-2.4717174 2:-0.36108551 
-0 -10 1:-2.5114728 2:-0.39755404 
-0 -10 1:-2.5545766 2:-0.43103797 
-0 -10 1:-2.6008795 2:-0.46302867 
-0 -10 1:-2.652497 2:-0.51617543 
-0 -10 1:-2.7116621 2:-0.59165073 
-0 -10 1:-2.7747371 2:-0.63075074 
-0 -10 1:-2.8410345 2:-0.66297335 
-0 -10 1:-2.9072832 2:-0.66248722 
-0 -10 1:-2.9731442 2:-0.65860978 
-0 -10 1:-3.0370394 2:-0.63895269 
-0 -10 1:-3.0943163 2:-0.57276841 
-0 -10 1:-3.1467049 2:-0.52388647 
-0 -10 1:-3.1950017 2:-0.48296811 
-0 -10 1:-3.2435752 2:-0.48573405 
-0 -10 1:-3.296525 2:-0.52949889 
-0 -10 1:-3.3481598 2:-0.51634722 
-0 -10 1:-3.3901661 2:-0.42006369 
-0 -10 1:-3.4298622 2:-0.39696114 
-0 -10 1:-3.4690795 2:-0.39217216 
-0 -10 1:-3.5009172 2:-0.31837724 
-0 -10 1:-3.5326091 2:-0.31691882 
-0 -10 1:-3.8152639 2:-0.33386313 
-0 -10 1:-3.8499713 2:-0.34707372 
-0 -10 1:-3.8884427 2:-0.3847145 
-0 -10 1:-3.9340739 2:-0.45631155 
-0 -10 1:-3.9849068 2:-0.50832894 
-0 -10 1:-4.039972 2:-0.55065282 
-0 -10 1:-4.0962012 2:-0.56229153 
-0 -10 1:-4.1497852 2:-0.53584004 
-0 -10 1:-4.2024605 2:-0.52675281 
-0 -10 1:-4.2548699 2:-0.52409443 
-0 -10 1:-4.3008206 2:-0.45950669 
-0 -10 1:-4.3469689 2:-0.46148351 
-0 -10 1:-4.3940751 2:-0.47106114 
-0 -10 1:-4.438073 2:-0.43997962 
-0 -10 1:-4.4818731 2:-0.43800126 
-0 -10 1:-4.5241424 2:-0.42269232 
-0 -10 1:-3.5139362 2:-0.32075397 
-0 -10 1:-3.5499832 2:-0.36046939 
-0 -10 1:-3.5877478 2:-0.3776465 
-0 -10 1:-3.6186567 2:-0.30908909 
-0 -10 1:-3.6528812 2:-0.34224497 
-0 -10 1:-3.6899856 2:-0.37104425 
-0 -10 1:-3.7239787 2:-0.33993106 
-0 -10 1:-3.7631528 2:-0.39174038 
-0 -10 1:-3.8074507 2:-0.44297918 
-0 -10 1:-3.8507653 2:-0.4331465 
-0 -10 1:-3.9016912 2:-0.50925899 
-0 -10 1:-3.9458749 2:-0.44183668 
-0 -10 1:-3.9956478 2:-0.49772876 
-0 -10 1:-4.0382967 2:-0.4264886 
-0 -10 1:-4.0853899 2:-0.47093238 
-0 -10 1:-4.1270318 2:-0.41641886 
-0 -10 1:-4.1711691 2:-0.44137297 
-0 -10 1:-4.2139812 2:-0.42812147 
-0 -10 1:-4.2563737 2:-0.42392446 
-0 -10 1:-4.2995861 2:-0.43212435 
-0 -10 1:-3.4734371 2:-0.33550413 
-0 -10 1:-3.5174007 2:-0.4396359 
-0 -10 1:-3.5704525 2:-0.53051771 
-0 -10 1:-3.6256071 2:-0.55154652 
-0 -10 1:-3.6833661 2:-0.57759 
-0 -10 1:-3.7485607 2:-0.6519456 
-0 -10 1:-3.8226801 2:-0.74119435 
-0 -10 1:-3.8984139 2:-0.75733755 
-0 -10 1:-3.9702389 2:-0.71824967 
-0 -10 1:-4.0402925 2:-0.70053597 
-0 -10 1:-4.0983372 2:-0.58044782 
-0 -10 1:-4.1541986 2:-0.55861391 
-0 -10 1:-4.2043632 2:-0.5016455 
-0 -10 1:-4.2582498 2:-0.53886622 
-0 -10 1:-4.3087944 2:-0.50544563 
-0 -10 1:-4.354939 2:-0.4614459 
-0 -10 1:-5.289914 2:-0.56453335 
-0 -10 1:-5.3417735 2:-0.51859477 
-0 -10 1:-5.3876464 2:-0.45872946 
-0 -10 1:-5.4276376 2:-0.39991199 
-0 -10 1:-5.766794 2:-0.42172242 
-0 -10 1:-5.8089671 2:-0.42173182 
-0 -10 1:-6.2176149 2:-0.46558409 
-0 -10 1:-6.2690046 2:-0.51389693 
-0 -10 1:-6.3223802 2:-0.53375649 
-0 -10 1:-6.369451 2:-0.47070803 
-0 -10 1:-6.8049474 2:-0.4595389 
-0 -3.709951823613436 1:-6.8961288 2:-0.46347992 
-0 -10 1:-6.9429876 2:-0.46858727 
-0 -10 1:-3.8761971 2:-0.31786634 
-0 -10 1:-3.909367 2:-0.33169912 
-0 -10 1:-3.9476863 2:-0.38319283 
-0 -10 1:-4.1712425 2:-0.34117695 
-0 -10 1:-4.2081791 2:-0.36936609 
-0 -10 1:-4.2422282 2:-0.34049033 
-0 -10 1:-7.2927419 2:-0.55366954 
-0 -10 1:-7.3491575 2:-0.5641563 
-0 -10 1:-7.4093249 2:-0.60167387 
-0 -10 1:-7.4733198 2:-0.63994904 
-0 -10 1:-7.5419058 2:-0.6858592 
-0 -10 1:-7.6183083 2:-0.76402565 
-0 -10 1:-7.7028627 2:-0.84554354 
-0 -10 1:-7.7958442 2:-0.92981482 
-0 -10 1:-7.8954879 2:-0.99643749 
-0 -10 1:-7.9966598 2:-1.011719 
-0 -10 1:-8.0962671 2:-0.99607275 
-0 -10 1:-8.185624 2:-0.893569 
-0 -10 1:-8.2724915 2:-0.8686749 
-0 -10 1:-8.3540666 2:-0.81575101 
-0 -10 1:-8.4330629 2:-0.78996365 
-0 -10 1:-8.510581 2:-0.77518029 
-0 -10 1:-8.5871743 2:-0.7659337 
-0 -10 1:-8.6618868 2:-0.74712434 
-0 -10 1:-8.7353844 2:-0.7349767 
-0 -10 1:-8.8094991 2:-0.74114615 
-0 -10 1:-8.8845464 2:-0.75047304 
-0 -10 1:-8.961065 2:-0.76518631 
-0 -10 1:-9.0417198 2:-0.80654858 
-0 -10 1:-9.1244547 2:-0.82734843 
-0 -10 1:-9.2078647 2:-0.83409982 
-0 -10 1:-9.2918654 2:-0.84000744 
-0 -10 1:-9.3753035 2:-0.83438077 
-0 -10 1:-9.4567584 2:-0.81454905 
-0 -10 1:-9.5381644 2:-0.81406024 
-0 -10 1:-9.6222131 2:-0.8404864 
