svm_type c_svc
kernel_type linear
nr_class 3
total_sv 7100
rho -0.175019 0.655866 0.738864
label 1 2 3
probA -1.89917 -3.04683 -1.68679
probB 0.167289 1.45372 -0.131889
nr_sv 1704 3234 2162
SV
1 0 1:4.4457573 2:-0.75386169 
1 0 1:4.3647133 2:-0.81043933 
1 0 1:4.2796078 2:-0.85105502 
1 0 1:4.189585 2:-0.9002284 
1 0 1:4.1046591 2:-0.84925861 
1 0 1:4.024073 2:-0.80586176 
1 0 1:3.9438782 2:-0.80194776 
1 0 1:3.8712845 2:-0.72593674 
1 0 1:3.7952895 2:-0.75994981 
1 0 1:3.7257701 2:-0.69519445 
1 0 1:3.6589322 2:-0.66837851 
1 0 1:3.5912773 2:-0.67654898 
1 0 1:3.5278916 2:-0.63385751 
1 0 1:3.471128 2:-0.56763564 
1 0 1:3.4196784 2:-0.51449635 
1 0 1:3.3745932 2:-0.45085225 
1 0 1:4.3294177 2:-0.82714854 
1 0 1:4.2296987 2:-0.99719049 
1 0 1:4.1120808 2:-1.1761787 
1 0 1:3.9798197 2:-1.3226105 
1 0 1:3.8354255 2:-1.4439428 
1 0 1:3.6699043 2:-1.6552114 
1 0 1:3.4895108 2:-1.8039353 
1 0 1:3.2943375 2:-1.9517327 
1 0 1:3.0794462 2:-2.1489131 
1 0 1:6.8293812 2:-1.5152313 
1 0 1:6.6674656 2:-1.619156 
1 0 1:6.4974834 2:-1.6998216 
1 0 1:6.3142263 2:-1.8325707 
1 0 1:6.1168604 2:-1.9736592 
1 0 1:5.9038659 2:-2.1299454 
1 0 1:6.0404077 2:-1.2698402 
1 0 1:5.9126364 2:-1.2777128 
1 0 1:5.7821979 2:-1.3043855 
1 0 1:5.6572241 2:-1.2497375 
1 0 1:5.5366198 2:-1.206043 
1 0 1:5.4188804 2:-1.1773945 
1 0 1:5.3011733 2:-1.1770712 
1 0 1:5.1869181 2:-1.1425522 
1 0 1:5.07539 2:-1.1152801 
1 0 1:4.9664104 2:-1.0897962 
1 0 1:4.861493 2:-1.0491738 
1 0 1:4.7640158 2:-0.97477213 
1 0 1:4.6783785 2:-0.85637333 
1 0 1:4.5656384 2:-0.90114376 
1 0 1:4.4574317 2:-1.0820665 
1 0 1:4.3256076 2:-1.3182411 
1 0 1:4.1782653 2:-1.4734233 
1 0 1:4.0049723 2:-1.7329299 
1 0 1:3.8123716 2:-1.9260069 
1 0 1:3.5989735 2:-2.1339813 
1 0 1:3.3654437 2:-2.3352978 
1 0 1:3.1131163 2:-2.523274 
1 0 1:2.8419459 2:-2.7117038 
1 0 1:4.026715 2:-0.66538432 
1 0 1:3.9572127 2:-0.69502312 
1 0 1:3.8874162 2:-0.69796481 
1 0 1:3.8178568 2:-0.69559451 
1 0 1:3.7492605 2:-0.68596255 
1 0 1:3.6835392 2:-0.65721318 
1 0 1:3.6181542 2:-0.65385004 
1 0 1:3.5616899 2:-0.5646428 
1 0 1:3.5148089 2:-0.46881021 
1 0 1:3.3909663 2:-0.78652187 
1 0 1:3.3121744 2:-0.78791874 
1 0 1:3.2405963 2:-0.71578139 
1 0 1:3.1752675 2:-0.65328803 
1 0 1:3.1155804 2:-0.59687123 
1 0 1:3.0612988 2:-0.54281584 
1 0 1:3.0128215 2:-0.48477304 
1 0 1:2.9695541 2:-0.43267327 
1 0 1:2.934782 2:-0.34772134 
1 0 1:6.4984408 2:-1.4205785 
1 0 1:6.3447845 2:-1.5365632 
1 0 1:6.1807603 2:-1.6402426 
1 0 1:4.7127495 2:-0.84940566 
1 0 1:4.6227898 2:-0.89959709 
1 0 1:4.5326052 2:-0.9018456 
1 0 1:4.44418 2:-0.88425243 
1 0 1:4.3572789 2:-0.86901098 
1 0 1:4.2711009 2:-0.86178043 
1 0 1:4.1874812 2:-0.83619699 
1 0 1:4.1086727 2:-0.78808456 
1 0 1:4.0277766 2:-0.80896127 
1 0 1:3.9506471 2:-0.77129443 
1 0 1:3.8793529 2:-0.71294245 
1 0 1:3.8046848 2:-0.74668123 
1 0 1:3.7374504 2:-0.67234343 
1 0 1:3.6668534 2:-0.70596991 
1 0 1:3.6063709 2:-0.60482572 
1 0 1:3.5486347 2:-0.57736198 
1 0 1:4.6540374 2:-0.8412544 
1 0 1:4.5585237 2:-0.95513718 
1 0 1:4.443722 2:-1.1480168 
1 0 1:4.3163799 2:-1.2734214 
1 0 1:4.1815168 2:-1.3486309 
1 0 1:4.0304555 2:-1.5106129 
1 0 1:3.8702539 2:-1.6020165 
1 0 1:3.6965318 2:-1.7372207 
1 0 1:3.5151597 2:-1.8137209 
1 0 1:3.3232041 2:-1.9195557 
1 0 1:4.4907934 2:-0.7810275 
1 0 1:4.3981674 2:-0.92626006 
1 0 1:4.2966522 2:-1.0151518 
1 0 1:4.1780481 2:-1.1860407 
1 0 1:4.0497103 2:-1.2833787 
1 0 1:3.9124255 2:-1.3728478 
1 0 1:3.762461 2:-1.4996446 
1 0 1:3.5988341 2:-1.6362694 
1 0 1:6.5640108 2:-1.3349138 
1 0 1:6.4130944 2:-1.5091644 
1 0 1:6.246056 2:-1.6703836 
1 0 1:6.0638693 2:-1.8218672 
1 0 1:5.8660753 2:-1.9779397 
1 0 1:4.5413193 2:-0.87281046 
1 0 1:4.4479147 2:-0.93404584 
1 0 1:4.3499872 2:-0.979275 
1 0 1:4.2487181 2:-1.0126908 
1 0 1:4.139881 2:-1.0883713 
1 0 1:4.0302252 2:-1.0965578 
1 0 1:3.9169356 2:-1.1328964 
1 0 1:4.1118058 2:-0.64726975 
1 0 1:4.0467575 2:-0.65048251 
1 0 1:3.9847298 2:-0.62027729 
1 0 1:3.9237243 2:-0.61005513 
1 0 1:5.5077184 2:-1.048747 
1 0 1:5.3967311 2:-1.1098722 
1 0 1:5.2841458 2:-1.1258536 
1 0 1:5.1684849 2:-1.1566085 
1 0 1:5.0554787 2:-1.1300623 
1 0 1:4.9499224 2:-1.0555633 
1 0 1:4.849119 2:-1.0080335 
1 0 1:4.7492628 2:-0.99856282 
1 0 1:4.6553894 2:-0.93873402 
1 0 1:4.5665661 2:-0.88823299 
1 0 1:4.4821397 2:-0.84426386 
1 0 1:4.4016368 2:-0.80502866 
1 0 1:4.3290282 2:-0.7260862 
1 0 1:3.363669 2:-0.51183664 
1 0 1:3.2969571 2:-0.66711826 
1 0 1:3.2102699 2:-0.86687234 
1 0 1:3.0969196 2:-1.1335028 
1 0 1:2.9646263 2:-1.3229337 
1 0 1:2.8102458 2:-1.5438045 
1 0 1:2.6338538 2:-1.7639197 
1 0 1:2.4298613 2:-2.0399257 
1 0 1:2.206581 2:-2.2328021 
1 0 1:1.967197 2:-2.393841 
1 1 1:1.7143356 2:-2.5286133 
1 1 1:1.4456493 2:-2.6868627 
1 0 1:4.9720551 2:-0.91638919 
1 0 1:4.876124 2:-0.95931083 
1 0 1:4.7814535 2:-0.94670479 
1 0 1:4.6902095 2:-0.91244003 
1 0 1:4.6012904 2:-0.88919103 
1 0 1:4.514364 2:-0.86926421 
1 0 1:4.4261056 2:-0.88258423 
1 0 1:4.3351851 2:-0.90920504 
1 0 1:4.2430258 2:-0.92159254 
1 0 1:4.1493035 2:-0.93722298 
1 0 1:4.0508655 2:-0.98437969 
1 0 1:3.9424765 2:-1.0838906 
1 0 1:3.8244698 2:-1.1800663 
1 0 1:3.7033279 2:-1.211419 
1 0 1:3.5820689 2:-1.2125904 
1 0 1:3.4623328 2:-1.1973609 
1 0 1:3.3481409 2:-1.1419188 
1 0 1:3.2454762 2:-1.0266476 
1 0 1:3.1562697 2:-0.89206462 
1 0 1:3.0791817 2:-0.77087998 
1 0 1:3.0142565 2:-0.64925255 
1 0 1:2.9618909 2:-0.52365536 
1 0 1:2.9230394 2:-0.3885156 
1 0 1:3.5383848 2:-0.66933189 
1 0 1:3.4537165 2:-0.84668296 
1 0 1:3.3514699 2:-1.0224655 
1 0 1:3.2332123 2:-1.1825762 
1 0 1:3.1049033 2:-1.2830902 
1 0 1:2.9655594 2:-1.393439 
1 0 1:2.8150704 2:-1.5048904 
1 0 1:2.6536043 2:-1.6146605 
1 0 1:4.3873109 2:-0.73762396 
1 0 1:4.3142449 2:-0.73065962 
1 0 1:4.2418966 2:-0.7234832 
1 0 1:4.1648508 2:-0.77045833 
1 0 1:4.0836587 2:-0.8119206 
1 0 1:4.0067379 2:-0.76920775 
1 0 1:3.9357066 2:-0.71031369 
1 0 1:3.8708293 2:-0.64877246 
1 0 1:3.8111336 2:-0.59695724 
1 0 1:4.1954159 2:-0.7421008 
1 0 1:4.1082451 2:-0.87170834 
1 0 1:4.0085752 2:-0.99669906 
1 0 1:3.9004007 2:-1.0817444 
1 0 1:3.7842846 2:-1.1611616 
1 0 1:3.6602451 2:-1.2403947 
1 0 1:3.5287332 2:-1.3151185 
1 0 1:4.1051086 2:-0.6413335 
1 0 1:4.0419386 2:-0.63169947 
1 0 1:3.9738428 2:-0.68095757 
1 0 1:3.9080175 2:-0.65825352 
1 0 1:3.8410125 2:-0.67005018 
1 0 1:3.7716839 2:-0.6932858 
1 0 1:3.7082764 2:-0.63407451 
1 0 1:3.4800223 2:-0.46554511 
1 0 1:3.3926098 2:-0.45110053 
1 0 1:3.2795378 2:-0.55391918 
1 0 1:3.2187476 2:-0.60790182 
1 0 1:3.1378218 2:-0.80925799 
1 0 1:3.0575058 2:-0.80315949 
1 0 1:2.9706122 2:-0.86893604 
1 0 1:2.8792927 2:-0.91319511 
1 0 1:2.7886539 2:-0.906388 
1 0 1:2.687375 2:-1.012789 
1 0 1:2.5874837 2:-0.99891328 
1 0 1:2.4931289 2:-0.94354752 
1 0 1:2.4063902 2:-0.86738776 
1 0 1:2.3261393 2:-0.8025083 
1 0 1:2.2510138 2:-0.7512554 
1 0 1:2.1865706 2:-0.64443174 
1 0 1:2.1348656 2:-0.51705026 
1 0 1:2.0886804 2:-0.46185237 
1 0 1:2.0597605 2:-0.28919822 
1 0 1:2.0274173 2:-0.32343261 
1 0 1:2.0085342 2:-0.18883063 
1 0 1:2.0001047 2:-0.084295374 
1 0 1:2.57481 2:-0.43186479 
1 0 1:2.5106183 2:-0.64191672 
1 0 1:2.4293845 2:-0.81233868 
1 0 1:2.3398179 2:-0.89566522 
1 0 1:2.2400889 2:-0.99729 
1 0 1:2.130324 2:-1.0976498 
1 0 1:2.0101166 2:-1.2020737 
1 0 1:1.8787398 2:-1.3137678 
1 1 1:1.7366788 2:-1.4206101 
1 0 1:3.6323785 2:-0.56522414 
1 0 1:3.5763204 2:-0.56058134 
1 0 1:3.5267859 2:-0.49534516 
1 0 1:3.4751127 2:-0.51673142 
1 0 1:3.4303429 2:-0.44769854 
1 0 1:3.3839761 2:-0.46366765 
1 0 1:4.0193983 2:-0.66175438 
1 0 1:3.9532407 2:-0.66157578 
1 0 1:3.878951 2:-0.74289641 
1 0 1:3.8021418 2:-0.7680928 
1 0 1:3.722551 2:-0.79590796 
1 0 1:3.6349417 2:-0.87609246 
1 0 1:3.5479042 2:-0.87037507 
1 0 1:3.452006 2:-0.95898208 
1 0 1:3.3563054 2:-0.95700621 
1 0 1:3.2636508 2:-0.92654587 
1 0 1:3.1675036 2:-0.96147225 
1 0 1:3.0706959 2:-0.96807663 
1 0 1:2.9766451 2:-0.94050847 
1 0 1:2.8841861 2:-0.92458984 
1 0 1:2.7856695 2:-0.98516618 
1 0 1:2.6884541 2:-0.97215352 
1 0 1:2.5908676 2:-0.97586517 
1 0 1:2.4842068 2:-1.0666076 
1 0 1:2.3812493 2:-1.0295751 
1 0 1:2.2736153 2:-1.0763399 
1 0 1:2.1598353 2:-1.1378002 
1 0 1:2.0490878 2:-1.1074746 
1 0 1:1.9450169 2:-1.0407096 
1 0.8030104586031313 1:1.8412956 2:-1.0372131 
1 1 1:1.7536736 2:-0.87621958 
1 1 1:1.6798825 2:-0.73791156 
1 1 1:1.6154369 2:-0.64445591 
1 1 1:1.557553 2:-0.57883891 
1 1 1:1.5054729 2:-0.52080037 
1 1 1:1.4527789 2:-0.5269406 
1 1 1:1.399364 2:-0.53414914 
1 1 1:1.3636446 2:-0.35719311 
1 1 1:1.3224657 2:-0.41178926 
1 1 1:1.2985615 2:-0.23904186 
1 1 1:1.2617062 2:-0.36855339 
1 1 1:1.2422292 2:-0.19477024 
1 1 1:1.2343507 2:-0.078785011 
1 1 1:1.2314812 2:-0.028695181 
1 1 1:1.2318232 2:0.0034202207 
1 1 1:1.2345667 2:0.027435548 
1 1 1:1.2478783 2:0.1331161 
0 1 1:1.2795579 2:0.31679591 
0 1 1:1.3133365 2:0.3377859 
0 1 1:1.3637932 2:0.50456672 
0 1 1:1.4099266 2:0.46133374 
0 1 1:1.4705082 2:0.6058166 
0 1 1:1.5393866 2:0.68878408 
0 1 1:1.6094352 2:0.70048586 
0 1 1:1.6746141 2:0.65178868 
0 1 1:1.730529 2:0.55914897 
0 1 1:1.7796535 2:0.49124483 
0 1 1:1.8274394 2:0.4778596 
0 1 1:1.8785114 2:0.51071994 
0 0.01870386299439961 1:1.9202763 2:0.41764839 
1 0 1:2.5856748 2:-0.27525696 
1 0 1:2.5433221 2:-0.42352728 
1 0 1:2.4837558 2:-0.5956626 
1 0 1:2.4022793 2:-0.8147652 
1 0 1:2.3082479 2:-0.9403141 
1 0 1:2.1989882 2:-1.0925969 
1 0 1:2.0654958 2:-1.334924 
1 0 1:1.9210159 2:-1.4447986 
1 1 1:1.7556507 2:-1.6536522 
1 0 1:4.9259937 2:-0.95027229 
1 0 1:4.8226673 2:-1.0332648 
1 0 1:4.7069337 2:-1.1573352 
1 0 1:4.5840922 2:-1.2284158 
1 0 1:4.4541689 2:-1.2992327 
1 0 1:4.3249534 2:-1.2921546 
1 0 1:4.1972717 2:-1.276817 
1 0 1:4.0790817 2:-1.1819003 
1 0 1:3.9668563 2:-1.1222541 
1 0 1:3.8534531 2:-1.1340324 
1 0 1:3.7452396 2:-1.0821347 
1 0 1:3.6449077 2:-1.003319 
1 0 1:3.5521701 2:-0.92737597 
1 0 1:3.4632897 2:-0.88880416 
1 0 1:3.3807854 2:-0.82504261 
1 0 1:3.307777 2:-0.73008452 
1 0 1:3.2447608 2:-0.63016157 
1 0 1:3.1916923 2:-0.53068529 
1 0 1:3.1486035 2:-0.4308881 
1 0 1:4.4364332 2:-0.76941651 
1 0 1:4.3414309 2:-0.95002304 
1 0 1:4.2254848 2:-1.1594609 
1 0 1:4.0868693 2:-1.3861551 
1 0 1:3.9274003 2:-1.5946896 
1 0 1:5.271499 2:-0.97656211 
1 0 1:5.1634014 2:-1.080976 
1 0 1:5.0477262 2:-1.1567515 
1 0 1:4.925722 2:-1.2200424 
1 0 1:4.7976361 2:-1.2808591 
1 0 1:5.0578233 2:-0.96315463 
1 0 1:4.9587098 2:-0.99113498 
1 0 1:4.8606144 2:-0.98095343 
1 0 1:4.7606233 2:-0.99991101 
1 0 1:4.6590732 2:-1.0155009 
1 0 1:4.5570011 2:-1.0207214 
1 0 1:4.4527801 2:-1.0422095 
1 0 1:4.3454318 2:-1.0734832 
1 0 1:4.2358953 2:-1.0953651 
1 0 1:4.1223472 2:-1.1354808 
1 0 1:4.0054443 2:-1.1690292 
1 0 1:3.8846432 2:-1.2080112 
1 0 1:3.7609112 2:-1.2373202 
1 0 1:3.6342642 2:-1.2664696 
1 0 1:3.5066034 2:-1.2766075 
1 0 1:3.3737017 2:-1.3290178 
1 0 1:3.2350648 2:-1.3863688 
1 0 1:3.097391 2:-1.3767384 
1 0 1:2.9613713 2:-1.3601967 
1 0 1:2.818277 2:-1.4309429 
1 0 1:2.676241 2:-1.4203602 
1 0 1:2.5463429 2:-1.2989805 
1 0 1:2.4171331 2:-1.2920985 
1 0 1:2.2989833 2:-1.1814976 
1 0 1:2.183764 2:-1.152193 
1 0 1:2.0713968 2:-1.1236721 
1 0 1:1.9703713 2:-1.0102557 
1 0 1:1.8712416 2:-0.99129674 
1 1 1:1.7878236 2:-0.83418017 
1 1 1:1.7010648 2:-0.867588 
1 1 1:1.6349896 2:-0.66075134 
1 1 1:1.5627043 2:-0.72285296 
1 1 1:1.5173986 2:-0.45305718 
1 1 1:1.4646984 2:-0.52700196 
1 1 1:1.4373697 2:-0.2732871 
1 1 1:1.4018798 2:-0.3548992 
1 1 1:1.3896319 2:-0.12247926 
1 1 1:1.375173 2:-0.14458874 
1 1 1:1.3766484 2:0.014754027 
1 1 1:1.386059 2:0.094106122 
1 1 1:1.3986639 2:0.12604898 
0 1 1:1.4322689 2:0.33605008 
0 1 1:1.4558827 2:0.23613834 
0 1 1:1.4987058 2:0.42823 
0 1 1:1.5443326 2:0.45626894 
0 1 1:1.5916529 2:0.47320225 
0 1 1:1.6429956 2:0.51342736 
0 1 1:1.6920097 2:0.49014128 
0 1 1:1.7351098 2:0.43100106 
0 1 1:1.7825339 2:0.47424053 
0 1 1:1.8321337 2:0.49599833 
0 1 1:1.8811139 2:0.48980177 
1 0 1:3.8776762 2:-0.72095634 
1 0 1:3.7968148 2:-0.80861368 
1 0 1:3.7130661 2:-0.8374869 
1 0 1:3.6230354 2:-0.90030677 
1 0 1:3.5359307 2:-0.87104719 
1 0 1:3.4500401 2:-0.85890663 
1 0 1:4.6551629 2:-0.81410553 
1 0 1:4.5734132 2:-0.81749658 
1 0 1:4.4916859 2:-0.81727263 
1 0 1:4.4088761 2:-0.82809811 
1 0 1:4.3267697 2:-0.82106389 
1 0 1:4.2426683 2:-0.84101426 
1 0 1:4.159216 2:-0.83452306 
1 0 1:4.0772247 2:-0.81991319 
1 0 1:3.9962486 2:-0.80976051 
1 0 1:3.9167639 2:-0.79484751 
1 0 1:3.8318211 2:-0.84942753 
1 0 1:3.7474655 2:-0.84355592 
1 0 1:3.6623269 2:-0.85138679 
1 0 1:3.5695694 2:-0.92757442 
1 0 1:3.4763169 2:-0.93252469 
1 0 1:3.3872088 2:-0.89108155 
1 0 1:3.3085518 2:-0.78657034 
1 0 1:3.2438952 2:-0.64656581 
1 0 1:3.199231 2:-0.44664215 
1 0 1:4.0953453 2:-0.64753375 
1 0 1:4.0335689 2:-0.61776432 
1 0 1:3.9682461 2:-0.65322765 
1 0 1:3.9044598 2:-0.63786295 
1 0 1:3.844511 2:-0.59948769 
1 0 1:3.788898 2:-0.55613048 
1 0 1:3.4532427 2:-0.45618939 
1 0 1:3.223406 2:-0.47887833 
1 0 1:3.1672658 2:-0.56140192 
1 0 1:3.0968321 2:-0.70433742 
1 0 1:3.0263294 2:-0.70502673 
1 0 1:2.9557038 2:-0.70625666 
1 0 1:2.8864454 2:-0.69258323 
1 0 1:2.8249869 2:-0.61458486 
1 0 1:2.7618191 2:-0.63167848 
1 0 1:2.7015554 2:-0.60263722 
1 0 1:2.6482962 2:-0.532592 
1 0 1:2.6011328 2:-0.47163359 
1 0 1:2.560287 2:-0.40845842 
1 0 1:2.5269292 2:-0.33357819 
1 0 1:2.4919114 2:-0.35017798 
1 0 1:2.4563277 2:-0.35583611 
1 0 1:2.4290552 2:-0.27272556 
1 0 1:2.3944517 2:-0.34603512 
1 0 1:2.3705329 2:-0.23918791 
1 0 1:2.3453286 2:-0.25204294 
1 0 1:2.3224061 2:-0.22922452 
1 0 1:2.3047269 2:-0.17679258 
1 0 1:2.2919025 2:-0.1282443 
1 0 1:2.516737 2:-0.21694154 
1 0 1:2.486591 2:-0.30146071 
1 0 1:2.4419214 2:-0.44669559 
1 0 1:2.3771494 2:-0.64771977 
1 0 1:2.3048457 2:-0.72303759 
1 0 1:5.4301712 2:-1.1276039 
1 0 1:5.30245 2:-1.2772119 
1 0 1:5.1652946 2:-1.3715543 
1 0 1:5.0196457 2:-1.4564888 
1 0 1:4.86155 2:-1.5809568 
1 0 1:4.7034758 2:-1.5807419 
1 0 1:4.5515268 2:-1.5194906 
1 0 1:4.4131969 2:-1.3832985 
1 0 1:4.2821704 2:-1.3102651 
1 0 1:4.1546307 2:-1.2753969 
1 0 1:4.0242685 2:-1.3036228 
1 0 1:3.8991205 2:-1.25148 
1 0 1:3.7820769 2:-1.1704357 
1 0 1:3.6629329 2:-1.1914395 
1 0 1:3.5582421 2:-1.0469083 
1 0 1:3.4615301 2:-0.96711997 
1 0 1:3.374794 2:-0.86736118 
1 0 1:3.2994158 2:-0.75378146 
1 0 1:3.2319684 2:-0.67447445 
1 0 1:3.1716014 2:-0.60366967 
1 0 1:3.1158866 2:-0.55714835 
1 0 1:3.066919 2:-0.48967598 
1 0 1:3.0248502 2:-0.42068823 
1 0 1:2.9856662 2:-0.39183953 
1 0 1:2.9539141 2:-0.3175214 
1 0 1:3.7497246 2:-0.59359828 
1 0 1:3.6824587 2:-0.67265895 
1 0 1:3.600949 2:-0.81509652 
1 0 1:3.5093731 2:-0.91575909 
1 0 1:3.4068522 2:-1.0252093 
1 0 1:3.2984205 2:-1.0843169 
1 0 1:3.1762177 2:-1.2220283 
1 0 1:3.056782 2:-1.194357 
1 0 1:2.9448045 2:-1.119775 
1 0 1:2.8361056 2:-1.0869893 
1 0 1:2.7281536 2:-1.0795197 
1 0 1:2.6237102 2:-1.044434 
1 0 1:2.520973 2:-1.0273717 
1 0 1:2.4303103 2:-0.90662676 
1 0 1:2.3531261 2:-0.77184263 
1 0 1:2.2801652 2:-0.72960872 
1 0 1:2.2188481 2:-0.61317081 
1 0 1:2.1689982 2:-0.49849957 
1 0 1:2.1204121 2:-0.48586082 
1 0 1:2.0852509 2:-0.3516115 
1 0 1:2.0612635 2:-0.23987413 
1 0 1:2.0456174 2:-0.15646102 
1 0 1:2.0332784 2:-0.12339003 
1 0 1:2.79304 2:-0.26478204 
1 0 1:2.7657337 2:-0.27306313 
1 0 1:2.6925792 2:-0.26891833 
1 0 1:2.6666693 2:-0.25909849 
1 0 1:2.6424655 2:-0.24203826 
1 0 1:2.613516 2:-0.28949552 
1 0 1:2.5900541 2:-0.23461875 
1 0 1:2.5685356 2:-0.21518498 
1 0 1:2.5434904 2:-0.25045221 
1 0 1:2.5159531 2:-0.27537304 
1 0 1:2.4861494 2:-0.29803705 
1 0 1:2.4540677 2:-0.32081701 
1 0 1:2.4221977 2:-0.31869926 
1 0 1:2.3916832 2:-0.30514529 
1 0 1:2.361367 2:-0.30316257 
1 0 1:2.3272378 2:-0.34129118 
1 0 1:2.2944315 2:-0.32806368 
1 0 1:2.2650801 2:-0.29351404 
1 0 1:2.2369316 2:-0.28148484 
1 0 1:2.2028415 2:-0.34090031 
1 0 1:2.1787819 2:-0.24059687 
1 0 1:2.1458599 2:-0.32921925 
1 0 1:2.120882 2:-0.24977953 
1 0 1:2.0992375 2:-0.21644453 
1 0 1:2.0718631 2:-0.27374386 
1 0 1:2.0489816 2:-0.22881542 
1 0 1:2.0288567 2:-0.20124948 
1 0 1:2.0103266 2:-0.18530094 
1 0 1:1.9920655 2:-0.18261092 
1 0 1:1.9754581 2:-0.16607413 
1 0 1:1.9605682 2:-0.14889885 
1 0 1:1.9470796 2:-0.13488521 
1 0 1:1.9358649 2:-0.11214754 
1 0 1:1.929148 2:-0.067169434 
1 0 1:1.9189539 2:-0.10194054 
1 0 1:1.9077851 2:-0.11168752 
1 0 1:1.9023913 2:-0.053938019 
1 0 1:1.901053 2:-0.013383423 
1 1 1:1.890992 2:-0.10061016 
0 1 1:1.8912001 2:0.0020809665 
0 0.4314230455930848 1:1.9032785 2:0.12078396 
1 0 1:2.2157555 2:-0.15770542 
1 0 1:2.1994896 2:-0.16265886 
1 0 1:2.184249 2:-0.15240591 
1 0 1:2.1624945 2:-0.21754472 
1 0 1:2.14368 2:-0.18814516 
1 0 1:2.1255432 2:-0.18136832 
1 0 1:2.1063492 2:-0.19193952 
1 0 1:2.0820256 2:-0.24323625 
1 0 1:2.055585 2:-0.26440617 
1 0 1:2.0298967 2:-0.2568828 
1 0 1:2.0052875 2:-0.24609218 
1 0 1:1.9840046 2:-0.21282929 
1 0 1:1.9657877 2:-0.18216873 
1 0 1:1.9515862 2:-0.14201493 
1 0 1:1.9419438 2:-0.096423733 
1 0 1:1.9350586 2:-0.068852308 
1 0 1:1.9297438 2:-0.053148363 
1 0 1:1.9223796 2:-0.07364191 
1 0 1:1.9114179 2:-0.10961662 
1 0 1:1.9027136 2:-0.087043231 
1 0 1:1.896274 2:-0.064395468 
1 1 1:1.8927562 2:-0.035178891 
0 1 1:1.8920931 2:-0.0066308497 
1 1 1:1.8891781 2:-0.029149676 
1 1 1:1.8851059 2:-0.040722367 
1 1 1:1.8838711 2:-0.012347783 
0 1 1:1.8855201 2:0.016490544 
0 1 1:1.8900095 2:0.044894034 
0 1 1:1.897366 2:0.073564287 
1 0 1:2.9439979 2:-0.32295453 
1 0 1:2.8987198 2:-0.45278089 
1 0 1:2.8532794 2:-0.45440406 
1 0 1:2.8034441 2:-0.49835284 
1 0 1:2.7625644 2:-0.40879687 
1 0 1:2.7158626 2:-0.46701856 
1 0 1:2.6742057 2:-0.4165691 
1 0 1:2.6263004 2:-0.47905279 
1 0 1:2.5778715 2:-0.48428877 
1 0 1:2.5256483 2:-0.52223195 
1 0 1:6.2548893 2:-1.2887748 
1 0 1:6.100847 2:-1.5404232 
1 0 1:5.9216212 2:-1.7922577 
1 0 1:5.7179432 2:-2.0367794 
1 0 1:5.4887594 2:-2.2918382 
1 0 1:5.2361482 2:-2.5261119 
1 0 1:4.9662682 2:-2.6988007 
1 0 1:4.6812066 2:-2.8506154 
1 0 1:4.3893202 2:-2.918864 
1 0 1:4.3776155 2:-0.87871004 
1 0 1:4.2743748 2:-1.0324066 
1 0 1:4.1591462 2:-1.1522859 
1 0 1:4.0311448 2:-1.2800141 
1 0 1:3.8851805 2:-1.459643 
1 0 1:3.727071 2:-1.5810948 
1 0 1:3.5596324 2:-1.6743858 
1 0 1:3.3853517 2:-1.7428078 
1 0 1:3.1999517 2:-1.8539999 
1 0 1:3.0059059 2:-1.9404577 
1 0 1:2.8044988 2:-2.0140705 
1 0 1:2.5964363 2:-2.0806253 
1 0 1:4.1789487 2:-0.67214823 
1 0 1:4.1094537 2:-0.6949503 
1 0 1:4.0317863 2:-0.77667343 
1 0 1:3.9539319 2:-0.77854443 
1 0 1:3.8746511 2:-0.792808 
1 0 1:3.795686 2:-0.7896505 
1 0 1:3.7189981 2:-0.76687941 
1 0 1:3.6458017 2:-0.73196445 
1 0 1:3.5758685 2:-0.69933208 
1 0 1:3.5129868 2:-0.62881615 
1 0 1:3.4648123 2:-0.48174534 
1 0 1:4.6633144 2:-0.8459449 
1 0 1:4.5683108 2:-0.95003553 
1 0 1:4.4662289 2:-1.0208197 
1 0 1:4.3585101 2:-1.0771873 
1 0 1:4.2469385 2:-1.115716 
1 0 1:4.1331167 2:-1.1382183 
1 0 1:4.0167161 2:-1.164006 
1 0 1:3.8965432 2:-1.201729 
1 0 1:3.7780466 2:-1.1849658 
1 0 1:3.66557 2:-1.1247661 
1 0 1:5.9115262 2:-1.1637972 
1 0 1:5.7951274 2:-1.1639882 
1 0 1:5.6858864 2:-1.09241 
1 0 1:5.1363281 2:-1.0302367 
1 0 1:5.0357005 2:-1.0062766 
1 0 1:4.935099 2:-1.0060149 
1 0 1:4.8301062 2:-1.049928 
1 0 1:4.7281265 2:-1.0197972 
1 0 1:4.6260626 2:-1.0206383 
1 0 1:4.5339482 2:-0.92114424 
1 0 1:4.444105 2:-0.89843234 
1 0 1:4.3639911 2:-0.80113883 
1 0 1:4.2916061 2:-0.72385005 
1 0 1:5.1372681 2:-0.97962093 
1 0 1:5.0323907 2:-1.0487738 
1 0 1:4.9210721 2:-1.1131856 
1 0 1:4.8051494 2:-1.1592275 
1 0 1:4.6990734 2:-1.0607597 
1 0 1:4.6128351 2:-0.86238295 
1 0 1:4.5400401 2:-0.85940664 
1 0 1:4.4408794 2:-0.99160711 
1 0 1:4.3349059 2:-1.0597347 
1 0 1:4.2183298 2:-1.1657611 
1 0 1:4.1018641 2:-1.1646572 
1 0 1:3.9834387 2:-1.1842537 
1 0 1:3.8636686 2:-1.1977011 
1 0 1:3.7493628 2:-1.143058 
1 0 1:3.6418185 2:-1.0754432 
1 0 1:3.5434791 2:-0.98339339 
1 0 1:3.4618065 2:-0.81672607 
1 0 1:3.392094 2:-0.69712489 
1 0 1:3.3321211 2:-0.59972988 
1 0 1:3.2799334 2:-0.52187654 
1 0 1:3.2374736 2:-0.42459804 
1 0 1:3.2043108 2:-0.40840512 
1 0 1:3.1626646 2:-0.41646176 
1 0 1:3.1209293 2:-0.41735321 
1 0 1:3.0788781 2:-0.42051159 
1 0 1:3.0358238 2:-0.43054317 
1 0 1:2.9948219 2:-0.41001844 
1 0 1:2.9572997 2:-0.37522286 
1 0 1:2.9193857 2:-0.37914003 
1 0 1:2.884553 2:-0.34832692 
1 0 1:2.8530048 2:-0.31548141 
1 0 1:2.7005406 2:-0.37883226 
1 0 1:2.6406002 2:-0.59940373 
1 0 1:2.5634949 2:-0.7710528 
1 0 1:2.4761921 2:-0.87302809 
1 0 1:2.3789751 2:-0.97216987 
1 0 1:2.270614 2:-1.0836109 
1 0 1:2.1633582 2:-1.0725582 
1 0 1:2.0505932 2:-1.1276505 
1 0 1:1.9170183 2:-1.3357493 
1 0 1:5.2770334 2:-1.0295705 
1 0 1:5.172988 2:-1.040453 
1 0 1:5.0693745 2:-1.0361352 
1 0 1:4.9592388 2:-1.1013573 
1 0 1:4.849836 2:-1.0940283 
1 0 1:4.7410017 2:-1.0883421 
1 0 1:4.6288375 2:-1.1216427 
1 0 1:4.525518 2:-1.0331945 
1 0 1:4.4298725 2:-0.95645555 
1 0 1:4.337226 2:-0.92646453 
1 0 1:4.2496953 2:-0.8753076 
1 0 1:4.1602939 2:-0.89401381 
1 0 1:4.0786779 2:-0.81615951 
1 0 1:4.0057566 2:-0.72921298 
1 0 1:3.9365793 2:-0.69177289 
1 0 1:3.8788348 2:-0.5774455 
1 0 1:3.4787064 2:-0.47713728 
1 0 1:3.4322378 2:-0.46468677 
1 0 1:3.3822592 2:-0.49978619 
1 0 1:3.3349509 2:-0.47308299 
1 0 1:3.2914692 2:-0.43481701 
1 0 1:3.2506997 2:-0.4076941 
1 0 1:4.0054806 2:-0.73030731 
1 0 1:5.5125383 2:-1.0601557 
1 0 1:5.4065011 2:-1.0603719 
1 0 1:5.2969518 2:-1.0954933 
1 0 1:5.1873462 2:-1.0960555 
1 0 1:5.0828611 2:-1.0448518 
1 0 1:4.990759 2:-0.92102075 
1 0 1:4.6576493 2:-0.81110597 
1 0 1:4.5067694 2:-0.76919363 
1 0 1:4.4336873 2:-0.73082113 
1 0 1:4.2934712 2:-0.70822984 
1 0 1:4.2228836 2:-0.70587522 
1 0 1:6.752797 2:-1.495184 
1 0 1:6.5833544 2:-1.6944251 
1 0 1:6.3975046 2:-1.8584982 
1 0 1:4.151549 2:-0.6600864 
1 0 1:4.0857143 2:-0.65834624 
1 0 1:4.0220055 2:-0.63708844 
1 0 1:3.9571508 2:-0.64854697 
1 0 1:3.8977391 2:-0.59411728 
1 0 1:3.8410149 2:-0.56724142 
1 0 1:3.7817739 2:-0.59240983 
1 0 1:3.7252705 2:-0.56503408 
1 0 1:3.6718791 2:-0.53391389 
1 0 1:3.6157189 2:-0.56160288 
1 0 1:3.5610176 2:-0.5470124 
1 0 1:3.5067177 2:-0.54299891 
1 0 1:3.4551237 2:-0.51594039 
1 0 1:3.4101328 2:-0.44990875 
1 0 1:4.5223923 2:-0.77428402 
1 0 1:4.4413516 2:-0.81040657 
1 0 1:4.3545772 2:-0.86774415 
1 0 1:4.2576741 2:-0.96903089 
1 0 1:4.1583576 2:-0.99316493 
1 0 1:4.0487 2:-1.0965765 
1 0 1:3.940221 2:-1.08479 
1 0 1:6.5994837 2:-1.3550655 
1 0 1:6.4576082 2:-1.4187553 
1 0 1:6.3118671 2:-1.4574113 
1 0 1:6.1686724 2:-1.4319466 
1 0 1:6.0231223 2:-1.4555007 
1 0 1:5.8857242 2:-1.3739817 
1 0 1:5.7536838 2:-1.3204038 
1 0 1:5.633938 2:-1.197458 
1 0 1:5.5245499 2:-1.0938805 
1 0 1:5.4174605 2:-1.0708947 
1 0 1:5.3112218 2:-1.0623863 
1 0 1:5.2084511 2:-1.0277073 
1 0 1:5.1087015 2:-0.9974957 
1 0 1:5.0117439 2:-0.96957654 
1 0 1:4.9188376 2:-0.92906254 
1 0 1:5.0369312 2:-0.98895643 
1 0 1:4.9451199 2:-0.91811291 
1 0 1:4.6593654 2:-0.80979684 
1 0 1:4.5615057 2:-0.97859687 
1 0 1:4.4465263 2:-1.1497941 
1 0 1:4.3166513 2:-1.2987493 
1 0 1:4.168909 2:-1.4774228 
1 0 1:4.0029939 2:-1.6591518 
1 0 1:3.8215715 2:-1.8142233 
1 0 1:3.6247369 2:-1.9683462 
1 0 1:3.4079337 2:-2.1680317 
1 0 1:4.8670947 2:-1.0003177 
1 0 1:4.7600636 2:-1.0703111 
1 0 1:4.6505968 2:-1.0946679 
1 0 1:4.5427132 2:-1.0788359 
1 0 1:4.4365476 2:-1.0616568 
1 0 1:4.327487 2:-1.0906055 
1 0 1:4.2108186 2:-1.1666846 
1 0 1:4.0930861 2:-1.1773249 
1 0 1:3.9794862 2:-1.1359986 
1 0 1:3.8697469 2:-1.0973928 
1 0 1:3.7638476 2:-1.0589933 
1 0 1:3.6598171 2:-1.0403053 
1 0 1:3.5671102 2:-0.92706835 
1 0 1:3.4878983 2:-0.79211915 
1 0 1:3.4212315 2:-0.6666687 
1 0 1:3.3653265 2:-0.5590491 
1 0 1:3.3147813 2:-0.50545204 
1 0 1:3.2710629 2:-0.4371839 
1 0 1:4.947861 2:-0.95617107 
1 0 1:4.8460104 2:-1.0185056 
1 0 1:4.7377583 2:-1.0825215 
1 0 1:4.6293561 2:-1.0840212 
1 0 1:4.5143635 2:-1.149926 
1 0 1:4.3940804 2:-1.2028311 
1 0 1:4.2721848 2:-1.2189559 
1 0 1:4.1492734 2:-1.229114 
1 0 1:4.0240032 2:-1.2527027 
1 0 1:3.8936604 2:-1.3034276 
1 0 1:3.7591115 2:-1.3454889 
1 0 1:3.6230715 2:-1.3603998 
1 0 1:3.4910392 2:-1.3203236 
1 0 1:3.3589829 2:-1.3205623 
1 0 1:3.2427066 2:-1.1627633 
1 0 1:3.1285332 2:-1.141734 
1 0 1:3.0246724 2:-1.0386079 
1 0 1:2.9160131 2:-1.0865933 
1 0 1:2.8189074 2:-0.97105705 
1 0 1:2.7297984 2:-0.89109037 
1 0 1:2.6446973 2:-0.85101053 
1 0 1:2.5734135 2:-0.71283815 
1 0 1:2.5112077 2:-0.6220582 
1 0 1:2.4543337 2:-0.56873964 
1 0 1:2.4102529 2:-0.44080766 
1 0 1:2.3778829 2:-0.32369996 
1 0 1:2.3452988 2:-0.32584173 
1 0 1:2.3247686 2:-0.2053021 
1 0 1:3.4576333 2:-0.47756806 
1 0 1:5.400268 2:-1.0950584 
1 0 1:5.2846165 2:-1.1565149 
1 0 1:5.1627207 2:-1.2189582 
1 0 1:5.0351409 2:-1.2757978 
1 0 1:4.9063535 2:-1.2878745 
1 0 1:4.7711981 2:-1.3515534 
1 0 1:4.6388114 2:-1.3238674 
1 0 1:4.5042306 2:-1.3458085 
1 0 1:4.3741738 2:-1.3005679 
1 0 1:4.2465629 2:-1.2761091 
1 0 1:4.1214621 2:-1.251008 
1 0 1:3.9990115 2:-1.224506 
1 0 1:3.881456 2:-1.1755545 
1 0 1:3.7731668 2:-1.0828918 
1 0 1:3.6780709 2:-0.95095956 
1 0 1:3.5938726 2:-0.84198283 
1 0 1:3.5144362 2:-0.794364 
1 0 1:3.4362456 2:-0.78190618 
1 0 1:3.3627399 2:-0.73505656 
1 0 1:3.2983735 2:-0.64366444 
1 0 1:3.2441924 2:-0.54181027 
1 0 1:3.1940995 2:-0.50092953 
1 0 1:3.1540518 2:-0.40047697 
1 0 1:3.5515604 2:-0.57832626 
1 0 1:3.4875699 2:-0.63990456 
1 0 1:3.4086481 2:-0.78921785 
1 0 1:3.3208353 2:-0.87812855 
1 0 1:3.2267247 2:-0.9411057 
1 0 1:3.1166366 2:-1.1008812 
1 0 1:3.0046627 2:-1.1197387 
1 0 1:2.8978742 2:-1.0678854 
1 0 1:2.7909682 2:-1.0690596 
1 0 1:2.6949633 2:-0.9600494 
1 0 1:2.6035376 2:-0.91425617 
1 0 1:2.5065261 2:-0.97011538 
1 0 1:2.4183386 2:-0.88187522 
1 0 1:2.3417381 2:-0.76600501 
1 0 1:2.2684244 2:-0.7331373 
1 0 1:2.2015227 2:-0.6690162 
1 0 1:2.1456482 2:-0.55874566 
1 0 1:2.1044493 2:-0.41198866 
1 0 1:2.0814993 2:-0.22949953 
1 0 1:2.068319 2:-0.13180392 
1 0 1:4.9635918 2:-0.88407819 
1 0 1:4.8771435 2:-0.86448291 
1 0 1:4.789003 2:-0.88140574 
1 0 1:4.6990962 2:-0.89906714 
1 0 1:4.6047988 2:-0.94297463 
1 0 1:4.5058476 2:-0.98951157 
1 0 1:4.4058263 2:-1.0002129 
1 0 1:4.3042949 2:-1.0153144 
1 0 1:4.1986843 2:-1.0561056 
1 0 1:4.0871854 2:-1.1149896 
1 0 1:3.971114 2:-1.1607139 
1 0 1:3.85052 2:-1.2059398 
1 0 1:3.7344041 2:-1.1611591 
1 0 1:3.6297838 2:-1.0462026 
1 0 1:3.5251663 2:-1.0461753 
1 0 1:3.4309706 2:-0.94195731 
1 0 1:3.3421238 2:-0.88846783 
1 0 1:3.2565766 2:-0.85547197 
1 0 1:3.1790506 2:-0.77526002 
1 0 1:3.1057709 2:-0.73279719 
1 0 1:3.0366052 2:-0.69165642 
1 0 1:2.9733655 2:-0.63239714 
1 0 1:2.9167805 2:-0.56584955 
1 0 1:2.8658179 2:-0.50962689 
1 0 1:2.8216711 2:-0.44146804 
1 0 1:2.7840753 2:-0.37595744 
1 0 1:2.7533134 2:-0.30761917 
1 0 1:3.3326853 2:-0.49995372 
1 0 1:3.2798621 2:-0.52823187 
1 0 1:3.2233158 2:-0.5654628 
1 0 1:3.1629787 2:-0.60337064 
1 0 1:3.1105579 2:-0.52420784 
1 0 1:3.0526698 2:-0.57888173 
1 0 1:2.9999459 2:-0.52723888 
1 0 1:2.9483631 2:-0.51582749 
1 0 1:2.8945024 2:-0.53860734 
1 0 1:2.8484402 2:-0.46062249 
1 0 1:2.795074 2:-0.53366159 
1 0 1:2.7536282 2:-0.41445829 
1 0 1:2.7155699 2:-0.38058314 
1 0 1:2.6836009 2:-0.3196895 
1 0 1:2.5957912 2:-0.3159171 
1 0 1:2.5559237 2:-0.39867532 
1 0 1:2.5023285 2:-0.53595244 
1 0 1:2.4507495 2:-0.5157895 
1 0 1:2.4038717 2:-0.46877761 
1 0 1:2.3690125 2:-0.34859228 
1 0 1:2.3418275 2:-0.27184992 
1 0 1:2.3184076 2:-0.23419882 
1 0 1:2.304799 2:-0.13608664 
1 0 1:3.1260254 2:-0.480606 
1 0 1:3.0569061 2:-0.69119378 
1 0 1:2.9838111 2:-0.73094968 
1 0 1:2.8902298 2:-0.93581297 
1 0 1:2.7847796 2:-1.0545016 
1 0 1:2.6627772 2:-1.2200239 
1 0 1:2.5150603 2:-1.4771697 
1 0 1:2.3577176 2:-1.5734268 
1 0 1:4.989835 2:-1.1618007 
1 0 1:4.8451729 2:-1.4466211 
1 0 1:4.6699904 2:-1.7518255 
1 0 1:4.4630741 2:-2.0691624 
1 0 1:4.2267742 2:-2.3629991 
1 0 1:3.9597537 2:-2.6702053 
1 0 1:3.6691982 2:-2.9055543 
1 0 1:3.3536944 2:-3.1550382 
1 0 1:6.1661085 2:-1.280094 
1 0 1:6.0283449 2:-1.3776366 
1 0 1:5.8810803 2:-1.4726457 
1 0 1:5.1015613 2:-1.0626822 
1 0 1:4.9710832 2:-1.3047806 
1 0 1:4.8189637 2:-1.5211948 
1 0 1:4.6452123 2:-1.737514 
1 0 1:4.4520543 2:-1.9315799 
1 0 1:4.24311 2:-2.0894431 
1 0 1:4.0240154 2:-2.1909465 
1 0 1:3.795061 2:-2.2895434 
1 0 1:1.9163756 2:-0.24012828 
1 0 1:1.8923627 2:-0.24012828 
1 1 1:1.8631071 2:-0.2925559 
1 1 1:1.8425075 2:-0.2059965 
1 1 1:1.8302088 2:-0.1229871 
1 1 1:1.8282148 2:-0.019940108 
0 1 1:1.8427243 2:0.14509498 
0 1 1:1.8653296 2:0.22605333 
0 1 1:1.9011418 2:0.35812223 
1 0 1:5.9682441 2:-1.4490822 
1 0 1:5.7896301 2:-1.78614 
1 0 1:5.580534 2:-2.0909608 
1 0 1:6.4315028 2:-1.3768691 
1 0 1:6.2851515 2:-1.4635132 
1 0 1:4.8015575 2:-0.84067 
1 0 1:4.7087645 2:-0.92792917 
1 0 1:6.626379 2:-1.4163214 
1 0 1:6.4832799 2:-1.4309918 
1 0 1:6.3463089 2:-1.3697092 
1 0 1:5.7667963 2:-1.3550133 
1 0 1:4.3423643 2:-0.82264135 
1 0 1:4.2452429 2:-0.97121406 
1 0 1:4.1406358 2:-1.0460709 
1 0 1:4.021248 2:-1.1938781 
1 0 1:3.89034 2:-1.3090806 
1 0 1:3.7487563 2:-1.4158364 
1 0 1:3.5977084 2:-1.510479 
1 0 1:5.0629132 2:-0.92617512 
1 0 1:4.9644442 2:-0.9846896 
1 0 1:4.8543822 2:-1.1006204 
1 0 1:4.7276385 2:-1.2674362 
1 0 1:4.5845295 2:-1.4310907 
1 0 1:4.4253415 2:-1.5918796 
1 0 1:4.2511521 2:-1.7418937 
1 0 1:4.0630159 2:-1.8813624 
1 0 1:3.8587436 2:-2.0427233 
1 0 1:4.1668152 2:-0.65500441 
1 0 1:4.1015598 2:-0.65255395 
1 0 1:4.0368513 2:-0.64708555 
1 0 1:3.9733421 2:-0.63509204 
1 0 1:3.913379 2:-0.59963101 
1 0 1:3.5302348 2:-0.50049182 
1 0 1:3.4767976 2:-0.5343719 
1 0 1:3.4214675 2:-0.55330085 
1 0 1:3.3631087 2:-0.58358756 
1 0 1:3.3018281 2:-0.61280624 
1 0 1:3.2362605 2:-0.65567576 
1 0 1:3.1715538 2:-0.64706766 
1 0 1:3.1088322 2:-0.62721569 
1 0 1:3.0541364 2:-0.54695769 
1 0 1:3.0128926 2:-0.41243799 
1 0 1:2.9781508 2:-0.3474184 
1 0 1:2.8129712 2:-0.35513745 
1 0 1:2.7641014 2:-0.48869799 
1 0 1:2.700639 2:-0.63462331 
1 0 1:2.6247452 2:-0.75893811 
1 0 1:2.5271489 2:-0.97596328 
1 0 1:2.4238076 2:-1.0334134 
1 0 1:2.3085644 2:-1.1524313 
1 0 1:2.186841 2:-1.2172342 
1 0 1:2.0673462 2:-1.1949484 
1 0 1:1.9395137 2:-1.2783247 
1 1 1:1.8129238 2:-1.2658989 
1 1 1:1.689671 2:-1.2325282 
1 1 1:1.5589396 2:-1.3073136 
1 1 1:1.438115 2:-1.2082463 
1 1 1:1.3305107 2:-1.0760432 
1 1 1:1.2343996 2:-0.96111113 
1 1 1:1.146243 2:-0.88156552 
1 1 1:1.0665156 2:-0.79727425 
1 1 1:0.98325532 2:-0.8326028 
1 1 1:0.90742906 2:-0.75826265 
1 1 1:0.84576871 2:-0.61660351 
1 1 1:0.80162898 2:-0.44139724 
1 1 1:0.75097458 2:-0.50654405 
1 1 1:0.70631321 2:-0.4466137 
1 1 1:0.68260909 2:-0.2370412 
1 1 1:0.67284453 2:-0.097645576 
1 1 1:0.64528158 2:-0.27562947 
1 1 1:0.63466233 2:-0.10619256 
1 1 1:0.64030845 2:0.056461251 
1 1 1:0.66064374 2:0.20335285 
1 1 1:0.65914194 2:-0.015017974 
1 1 1:0.67407341 2:0.14931476 
1 1 1:0.70501958 2:0.3094616 
0 1 1:0.75106374 2:0.46044162 
1 1 1:0.7811229 2:0.30059167 
0 1 1:0.82152043 2:0.40397522 
0 1 1:0.87531648 2:0.53796056 
0 1 1:0.93542277 2:0.60106292 
0 1 1:0.99065492 2:0.55232149 
0 1 1:1.0250594 2:0.34404504 
0 1 1:1.0578546 2:0.32795138 
0 1 1:1.0939275 2:0.36072946 
0 1 1:1.1341348 2:0.40207254 
0 1 1:1.1746244 2:0.40489633 
0 1 1:1.2149229 2:0.40298464 
0 1 1:1.2478809 2:0.32958018 
0 1 1:1.276385 2:0.28504118 
0 1 1:1.3053329 2:0.28947917 
0 1 1:1.3345117 2:0.29178772 
0 1 1:1.3639004 2:0.29388688 
0 1 1:1.3936624 2:0.29762059 
0 1 1:1.4257017 2:0.32039274 
0 1 1:1.4472953 2:0.21593629 
0 1 1:1.4708363 2:0.2354094 
0 1 1:1.4972073 2:0.26371012 
0 1 1:1.526197 2:0.28989742 
0 1 1:1.5576188 2:0.31421813 
0 1 1:1.5818623 2:0.24243482 
0 1 1:1.6052391 2:0.23376784 
0 1 1:1.6311579 2:0.25918808 
0 1 1:1.6594583 2:0.28300432 
0 1 1:1.6901041 2:0.30645717 
0 1 1:1.7166737 2:0.26569654 
0 1 1:1.7399532 2:0.23279435 
0 1 1:1.7658347 2:0.25881593 
0 1 1:1.7942814 2:0.28446621 
0 1 1:1.8250249 2:0.30743498 
0 1 1:1.8534066 2:0.28381714 
0 1 1:1.8780966 2:0.24689971 
0 1 1:1.9055018 2:0.27405209 
1 0 1:2.6951015 2:-0.24433868 
1 0 1:2.6699647 2:-0.25136855 
1 0 1:2.6463627 2:-0.23601968 
1 0 1:2.6160325 2:-0.30330252 
1 0 1:2.5856957 2:-0.30336775 
1 0 1:2.5567054 2:-0.28990256 
1 0 1:2.530274 2:-0.26431406 
1 0 1:2.4991672 2:-0.31106824 
1 0 1:2.4738679 2:-0.25299286 
1 0 1:2.4526635 2:-0.21204389 
1 0 1:2.4246567 2:-0.280068 
1 0 1:2.4025335 2:-0.22123211 
1 0 1:2.3850252 2:-0.17508319 
1 0 1:2.3600557 2:-0.24969522 
1 0 1:2.3411021 2:-0.18953582 
1 0 1:2.3272254 2:-0.13876719 
1 0 1:2.3052174 2:-0.2200798 
1 0 1:2.2893846 2:-0.15832774 
1 0 1:2.2602605 2:-0.18959482 
1 0 1:2.2475439 2:-0.12716627 
1 0 1:2.2245997 2:-0.16327826 
1 0 1:2.2138571 2:-0.10742569 
1 0 1:2.1961841 2:-0.1292599 
1 0 1:2.1267092 2:-0.075301892 
1 0 1:2.1351668 2:-0.093585248 
1 0 1:2.1239156 2:-0.11251188 
1 0 1:2.1115856 2:-0.12329962 
1 0 1:2.0995162 2:-0.12069436 
1 0 1:2.088235 2:-0.11281212 
1 0 1:2.0780576 2:-0.10177364 
1 0 1:2.0700129 2:-0.080447199 
1 0 1:2.0529912 2:-0.17021679 
1 0 1:2.0390932 2:-0.13897961 
1 0 1:2.0313285 2:-0.07764711 
1 0 1:2.0143766 2:-0.1695188 
1 0 1:2.0041986 2:-0.10178073 
1 0 1:1.9881674 2:-0.16031181 
1 0 1:1.9800484 2:-0.081190107 
1 0 1:1.9595759 2:-0.20472521 
1 0 1:1.9448135 2:-0.14762334 
1 0 1:1.9312105 2:-0.13603063 
1 0 1:1.9163099 2:-0.14900597 
1 0 1:1.8976714 2:-0.18638456 
1 1 1:1.8772758 2:-0.2039557 
1 1 1:1.8573246 2:-0.1995128 
1 1 1:1.8351271 2:-0.22197477 
1 1 1:1.8140517 2:-0.21075368 
1 1 1:1.7965867 2:-0.1746498 
1 1 1:1.7823584 2:-0.14228342 
1 1 1:1.7716697 2:-0.10688701 
1 1 1:1.7654271 2:-0.062425844 
1 1 1:1.7637729 2:-0.016542401 
1 1 1:1.7545727 2:-0.092001963 
1 1 1:1.7444571 2:-0.10115552 
1 1 1:1.740508 2:-0.039491666 
1 1 1:1.7291279 2:-0.11380015 
1 1 1:1.720855 2:-0.082729496 
1 1 1:1.7092416 2:-0.11613427 
1 1 1:1.7038316 2:-0.054099604 
1 1 1:1.6867546 2:-0.17077043 
1 1 1:1.6752821 2:-0.11472431 
1 1 1:1.6665554 2:-0.087267125 
1 1 1:1.6586962 2:-0.078592565 
1 1 1:1.6507401 2:-0.079560066 
1 1 1:1.6417548 2:-0.089853982 
1 1 1:1.6334439 2:-0.083108264 
1 1 1:1.625799 2:-0.076449432 
1 1 1:1.6197588 2:-0.060402227 
1 1 1:1.6164865 2:-0.032723004 
1 1 1:1.6166754 2:0.0018890453 
1 1 1:1.6156518 2:-0.010236062 
1 1 1:1.6097633 2:-0.058884763 
1 1 1:1.6103186 2:0.0055529119 
1 1 1:1.6168437 2:0.065250917 
1 1 1:1.617577 2:0.007333615 
1 1 1:1.6179375 2:0.0036047631 
1 1 1:1.6242095 2:0.062720084 
0 1 1:1.6362555 2:0.12045969 
1 1 1:1.6377836 2:0.015280727 
1 1 1:1.6437531 2:0.059695214 
0 1 1:1.6553405 2:0.11587463 
0 1 1:1.6687798 2:0.13439271 
0 1 1:1.6759394 2:0.071595682 
0 1 1:1.6910128 2:0.1507338 
0 1 1:1.7134179 2:0.22405116 
0 1 1:1.7400441 2:0.26626224 
0 1 1:1.7685541 2:0.28509966 
0 1 1:1.798376 2:0.2982194 
0 1 1:1.8261795 2:0.27803506 
0 1 1:1.8555852 2:0.29405661 
0 1 1:1.8866414 2:0.31056234 
1 0 1:4.8787985 2:-0.90685192 
1 0 1:4.7793696 2:-0.9942891 
1 0 1:4.6763842 2:-1.0298537 
1 0 1:4.573608 2:-1.0277622 
1 0 1:4.4665364 2:-1.0707161 
1 0 1:4.3590101 2:-1.0752627 
1 0 1:4.2510642 2:-1.0794596 
1 0 1:4.1372409 2:-1.1382328 
1 0 1:4.0247357 2:-1.1250517 
1 0 1:3.9119433 2:-1.127924 
1 0 1:3.7965688 2:-1.1537449 
1 0 1:3.6771241 2:-1.1944477 
1 0 1:3.5531831 2:-1.2394096 
1 0 1:3.4284464 2:-1.2473669 
1 0 1:3.3064379 2:-1.2200855 
1 0 1:3.1925533 2:-1.1388455 
1 0 1:3.0885022 2:-1.0405112 
1 0 1:2.9921562 2:-0.96346013 
1 0 1:2.89375 2:-0.98406154 
1 0 1:2.7964422 2:-0.97307801 
1 0 1:2.7044263 2:-0.92015915 
1 0 1:2.6217779 2:-0.826484 
1 0 1:2.5495115 2:-0.72266409 
1 0 1:2.4838284 2:-0.65683093 
1 0 1:2.4229906 2:-0.60837801 
1 0 1:2.3721858 2:-0.50804794 
1 0 1:2.3315883 2:-0.40597536 
1 0 1:2.3012573 2:-0.3033099 
1 0 1:2.2760475 2:-0.25209807 
1 0 1:2.2566095 2:-0.19437947 
1 0 1:5.7455866 2:-1.1437376 
1 0 1:5.6078643 2:-1.3772234 
1 0 1:5.4468692 2:-1.6099513 
1 0 1:5.264287 2:-1.8258212 
1 0 1:5.060459 2:-2.0382803 
1 0 1:4.8380947 2:-2.2236434 
1 0 1:4.5980669 2:-2.4002776 
1 0 1:4.3509796 2:-2.470873 
1 0 1:5.9415318 2:-1.2568074 
1 0 1:5.4232006 2:-1.1029368 
1 0 1:5.2976174 2:-1.2558321 
1 0 1:5.1620427 2:-1.3557474 
1 0 1:4.2992663 2:-0.79174877 
1 0 1:4.2080195 2:-0.91246767 
1 0 1:4.1139782 2:-0.94041356 
1 0 1:4.0142703 2:-0.9970786 
1 0 1:3.9003749 2:-1.1389538 
1 0 1:3.7818652 2:-1.1850971 
1 0 1:3.6635825 2:-1.1828278 
1 0 1:4.8347426 2:-0.89409403 
1 0 1:4.7183248 2:-1.1641778 
1 0 1:4.5807857 2:-1.3753909 
1 0 1:4.4266651 2:-1.5412061 
1 0 1:4.2596593 2:-1.670058 
1 0 1:4.0855451 2:-1.7411417 
1 0 1:3.899733 2:-1.8581208 
1 0 1:3.705539 2:-1.9419398 
1 0 1:3.5175069 2:-1.8803211 
1 0 1:3.3389182 2:-1.7858879 
1 0 1:3.1697139 2:-1.692043 
1 0 1:2.999345 2:-1.7036886 
1 0 1:2.8341283 2:-1.6521671 
1 0 1:2.676733 2:-1.5739526 
1 0 1:2.5285884 2:-1.4814461 
1 0 1:2.3858146 2:-1.4277378 
1 0 1:2.2528741 2:-1.329405 
1 0 1:2.1278375 2:-1.2503665 
1 0 1:2.0160612 2:-1.1177632 
1 0 1:1.9182426 2:-0.97818542 
1 1 1:1.834832 2:-0.83410671 
1 1 1:1.7654731 2:-0.69358845 
1 1 1:1.7129866 2:-0.52486497 
1 1 1:1.6785427 2:-0.34443888 
1 1 1:1.6611582 2:-0.17384495 
1 1 1:1.6475276 2:-0.13630598 
1 1 1:1.6488375 2:0.013099105 
0 1 1:1.6678855 2:0.1904801 
0 1 1:1.6998712 2:0.31985678 
0 1 1:1.7316326 2:0.31761324 
0 1 1:1.7641931 2:0.32560579 
0 1 1:1.8039921 2:0.39799015 
0 1 1:1.8504617 2:0.46469516 
0 1 1:1.8969173 2:0.46455615 
1 0 1:3.472173 2:-0.60589243 
1 0 1:3.3887103 2:-0.83462699 
1 0 1:3.2833491 2:-1.0536124 
1 0 1:3.1574824 2:-1.2586667 
1 0 1:3.0063483 2:-1.5113408 
1 0 1:2.8293391 2:-1.7700918 
1 0 1:5.3665129 2:-1.0423882 
1 0 1:5.2548615 2:-1.1165133 
1 0 1:5.04878 2:-1.059533 
1 0 1:4.9351734 2:-1.1360668 
1 0 1:4.8210692 2:-1.1410414 
1 0 1:4.7111989 2:-1.0987031 
1 0 1:4.6037095 2:-1.0748941 
1 0 1:4.492485 2:-1.1122447 
1 0 1:4.3803606 2:-1.1212445 
1 0 1:4.2738946 2:-1.0646604 
1 0 1:4.1757707 2:-0.98123846 
1 0 1:4.0866742 2:-0.89096534 
1 0 1:4.0033468 2:-0.83327408 
1 0 1:3.9248926 2:-0.78454197 
1 0 1:3.854312 2:-0.70580579 
1 0 1:3.7931922 2:-0.61119814 
1 0 1:5.7646845 2:-1.1436409 
1 0 1:5.6315808 2:-1.3310371 
1 0 1:5.4799044 2:-1.5167639 
1 0 1:4.4342034 2:-0.72980013 
1 0 1:6.1338594 2:-1.2991188 
1 0 1:5.9993389 2:-1.345205 
1 0 1:5.8550868 2:-1.4425214 
1 0 1:5.7050699 2:-1.5001689 
1 0 1:5.546682 2:-1.5838789 
1 0 1:5.3827088 2:-1.6397319 
1 0 1:5.2079206 2:-1.7478822 
1 0 1:5.0289579 2:-1.7896272 
1 0 1:4.8412833 2:-1.8767454 
1 0 1:4.660038 2:-1.8124532 
1 0 1:4.4845218 2:-1.7551618 
1 0 1:4.3174556 2:-1.6706617 
1 0 1:4.1595081 2:-1.5794757 
1 0 1:4.0063596 2:-1.5314844 
1 0 1:3.8640086 2:-1.4235101 
1 0 1:3.7256159 2:-1.383927 
1 0 1:3.5985269 2:-1.2708908 
1 0 1:3.4767245 2:-1.2180232 
1 0 1:3.3642565 2:-1.1246804 
1 0 1:3.2593983 2:-1.0485823 
1 0 1:3.1609924 2:-0.984059 
1 0 1:3.081427 2:-0.79565404 
1 0 1:3.0118055 2:-0.69621415 
1 0 1:2.958168 2:-0.53637572 
1 0 1:2.9181893 2:-0.39978693 
1 0 1:2.8776721 2:-0.40517175 
1 0 1:2.8478482 2:-0.2982386 
1 0 1:5.1010749 2:-0.97010537 
1 0 1:5.0039664 2:-0.97108463 
1 0 1:4.9033272 2:-1.0063929 
1 0 1:4.8074684 2:-0.95858716 
1 0 1:4.7145854 2:-0.92883037 
1 0 1:4.6249922 2:-0.89593179 
1 0 1:4.536128 2:-0.88864248 
1 0 1:4.4518184 2:-0.84309574 
1 0 1:4.3771855 2:-0.74632914 
1 0 1:3.6252794 2:-0.55116088 
1 0 1:3.5664118 2:-0.58867642 
1 0 1:5.4153861 2:-1.0160326 
1 0 1:5.3073636 2:-1.0802256 
1 0 1:5.1882733 2:-1.1909026 
1 0 1:5.0614282 2:-1.2684511 
1 0 1:6.2885249 2:-1.3458248 
1 0 1:6.1401156 2:-1.4840933 
1 0 1:4.4412783 2:-0.74642028 
1 0 1:4.4964543 2:-0.78608178 
1 0 1:4.4163177 2:-0.80136597 
1 0 1:4.3348505 2:-0.81467161 
1 0 1:4.2526175 2:-0.8223299 
1 0 1:4.1633709 2:-0.89246632 
1 0 1:4.0714415 2:-0.91929351 
1 0 1:3.9870152 2:-0.84426341 
1 0 1:3.9099618 2:-0.77053403 
1 0 1:3.8420825 2:-0.67879254 
1 0 1:3.7772746 2:-0.64807987 
1 0 1:3.7160572 2:-0.61217409 
1 0 1:3.65323 2:-0.62827133 
1 0 1:3.5960104 2:-0.57219624 
1 0 1:3.5432713 2:-0.52739095 
1 0 1:3.4924746 2:-0.50796727 
1 0 1:3.2240053 2:-0.39758311 
1 0 1:3.1821182 2:-0.41887167 
1 0 1:3.1381011 2:-0.44017126 
1 0 1:3.0913603 2:-0.46740747 
1 0 1:3.0386159 2:-0.5274443 
1 0 1:2.9828853 2:-0.55730555 
1 0 1:2.9270576 2:-0.55827669 
1 0 1:2.8722698 2:-0.54787846 
1 0 1:2.8185719 2:-0.53697876 
1 0 1:2.7796532 2:-0.38918678 
1 0 1:2.7469769 2:-0.32676315 
1 0 1:4.0343844 2:-0.64968918 
1 0 1:3.964727 2:-0.69657382 
1 0 1:3.8834599 2:-0.81267141 
1 0 1:3.804255 2:-0.79204837 
1 0 1:3.7277324 2:-0.76522618 
1 0 1:3.648995 2:-0.78737455 
1 0 1:3.5721801 2:-0.7681489 
1 0 1:3.4966887 2:-0.75491402 
1 0 1:3.4229185 2:-0.73770166 
1 0 1:3.3500012 2:-0.72917344 
1 0 1:3.2824868 2:-0.67514359 
1 0 1:3.2210553 2:-0.61431518 
1 0 1:3.1679009 2:-0.53154392 
1 0 1:3.1136967 2:-0.54204154 
1 0 1:3.0618135 2:-0.51883246 
1 0 1:3.0153689 2:-0.46444582 
1 0 1:2.9683981 2:-0.46970865 
1 0 1:2.9313091 2:-0.3708891 
1 0 1:4.3970975 2:-0.73161782 
1 0 1:4.3194968 2:-0.77600726 
1 0 1:4.232957 2:-0.86539732 
1 0 1:4.1411104 2:-0.91846632 
1 0 1:4.0455699 2:-0.95540511 
1 0 1:3.9451269 2:-1.0044298 
1 0 1:3.8357732 2:-1.0935373 
1 0 1:3.7243003 2:-1.1147293 
1 0 1:3.6131768 2:-1.1112351 
1 0 1:3.5042157 2:-1.0896107 
1 0 1:3.3988696 2:-1.0534608 
1 0 1:3.3040301 2:-0.94839551 
1 0 1:3.2058998 2:-0.98130216 
1 0 1:3.1206629 2:-0.85236927 
1 0 1:3.032832 2:-0.87830875 
1 0 1:2.9541388 2:-0.78693281 
1 0 1:2.8813269 2:-0.72811821 
1 0 1:2.8080156 2:-0.73311371 
1 0 1:2.7425152 2:-0.65500397 
1 0 1:2.6831927 2:-0.59322446 
1 0 1:2.6294414 2:-0.53751328 
1 0 1:2.5808 2:-0.48641393 
1 0 1:2.5370518 2:-0.43748175 
1 0 1:2.4981038 2:-0.38948 
1 0 1:2.4642509 2:-0.33852958 
1 0 1:2.4359478 2:-0.28303068 
1 0 1:2.4133648 2:-0.22582964 
1 0 1:2.3852653 2:-0.21732071 
1 0 1:2.3589258 2:-0.26339516 
1 0 1:2.3312734 2:-0.27652331 
1 0 1:2.2957969 2:-0.35476514 
1 0 1:2.2627084 2:-0.33088539 
1 0 1:2.2346524 2:-0.28056004 
1 0 1:2.1975263 2:-0.37126045 
1 0 1:2.1686853 2:-0.28841057 
1 0 1:2.1331355 2:-0.35549763 
1 0 1:2.0991965 2:-0.3393902 
1 0 1:2.0693857 2:-0.29810787 
1 0 1:2.0364004 2:-0.32985308 
1 0 1:1.9990727 2:-0.3732767 
1 0 1:1.9609074 2:-0.38165291 
1 0 1:1.9228252 2:-0.38082237 
1 0 1:1.8857373 2:-0.37087877 
1 1 1:1.8472297 2:-0.3850762 
1 1 1:1.8079098 2:-0.39319916 
1 1 1:1.7670049 2:-0.40904866 
1 1 1:1.7241848 2:-0.42820143 
1 1 1:1.6815199 2:-0.42664882 
1 1 1:1.6420289 2:-0.39490967 
1 1 1:1.6045883 2:-0.37440671 
1 1 1:1.5643883 2:-0.40199947 
1 1 1:1.5398981 2:-0.2449024 
1 1 1:1.5206854 2:-0.19212621 
1 1 1:1.5144808 2:-0.062046251 
1 1 1:1.5049794 2:-0.095013746 
1 1 1:1.505487 2:0.005075522 
1 1 1:1.4927401 2:-0.1274694 
1 1 1:1.4849317 2:-0.078083549 
1 1 1:1.4805383 2:-0.043934227 
1 1 1:1.4653746 2:-0.15163642 
1 1 1:1.4608649 2:-0.04509713 
1 1 1:1.4467509 2:-0.1411404 
1 1 1:1.4348393 2:-0.11911545 
1 1 1:1.4287478 2:-0.060915658 
1 1 1:1.4116249 2:-0.17122889 
1 1 1:1.4099685 2:-0.01656365 
1 1 1:1.3934764 2:-0.16492092 
1 1 1:1.3895826 2:-0.038938108 
1 1 1:1.3809249 2:-0.086576808 
1 1 1:1.3758673 2:-0.050576273 
1 1 1:1.3718676 2:-0.039996855 
1 1 1:1.3667426 2:-0.051249899 
1 1 1:1.363438 2:-0.033046092 
1 1 1:1.3642872 2:0.0084922438 
1 1 1:1.3581502 2:-0.061370167 
1 1 1:1.3654155 2:0.072652704 
1 1 1:1.3626951 2:-0.027203583 
1 1 1:1.3618886 2:-0.008065167 
1 1 1:1.3649574 2:0.030687967 
1 1 1:1.3700391 2:0.050816719 
1 1 1:1.3776056 2:0.075665468 
1 1 1:1.3790127 2:0.014070881 
1 1 1:1.3828222 2:0.038094494 
1 1 1:1.3888142 2:0.059920671 
1 1 1:1.3966213 2:0.078070517 
1 1 1:1.4058962 2:0.092749194 
1 1 1:1.4163184 2:0.10422198 
1 1 1:1.4277211 2:0.11402664 
0 1 1:1.4401483 2:0.12427194 
0 1 1:1.4531039 2:0.12955656 
0 1 1:1.4659822 2:0.12878273 
0 1 1:1.4806054 2:0.14623162 
0 1 1:1.4980155 2:0.17410119 
0 1 1:1.51942 2:0.21404488 
0 1 1:1.5331769 2:0.13756913 
0 1 1:1.5486676 2:0.15490725 
0 1 1:1.5695439 2:0.2087628 
1 1 1:1.5749376 2:0.0539367 
0 1 1:1.5835604 2:0.08622886 
1 1 1:1.5848413 2:0.012808103 
1 1 1:1.5907959 2:0.059546454 
1 1 1:1.5896147 2:-0.011811845 
0 1 1:1.5993336 2:0.097188619 
1 1 1:1.5952865 2:-0.040470445 
0 1 1:1.6029853 2:0.076987884 
1 1 1:1.6005584 2:-0.024269397 
1 1 1:1.5995858 2:-0.0097256113 
1 1 1:1.6035304 2:0.03944617 
1 1 1:1.6057717 2:0.022412165 
1 1 1:1.6007665 2:-0.05005164 
1 1 1:1.5978701 2:-0.028963887 
1 1 1:1.5957891 2:-0.020809961 
1 1 1:1.5951726 2:-0.006164954 
1 1 1:1.5974197 2:0.022471227 
1 1 1:1.6028209 2:0.054011367 
0 1 1:1.6122634 2:0.094425574 
0 1 1:1.6251058 2:0.12842375 
0 1 1:1.6355892 2:0.10483417 
0 1 1:1.6438502 2:0.082609613 
0 1 1:1.654935 2:0.11084787 
0 1 1:1.6707041 2:0.1576915 
0 1 1:1.6922168 2:0.21512637 
0 1 1:1.7226696 2:0.3045281 
0 1 1:1.7605456 2:0.37875988 
0 1 1:1.8048268 2:0.44281242 
0 1 1:1.8496352 2:0.44808405 
0 1 1:1.8934613 2:0.43826071 
1 0 1:2.503788 2:-0.25680033 
1 0 1:2.4756826 2:-0.28105353 
1 0 1:2.4453299 2:-0.30352719 
1 0 1:2.4225077 2:-0.2282217 
1 0 1:2.4017553 2:-0.20752416 
1 0 1:2.6146294 2:-0.22946424 
1 0 1:2.5906765 2:-0.23952905 
1 0 1:4.9701538 2:-0.91477828 
1 0 1:4.8690122 2:-1.0114163 
1 0 1:4.7592389 2:-1.0977327 
1 0 1:4.6437535 2:-1.1548541 
1 0 1:5.8240208 2:-1.1242962 
1 0 1:5.7089389 2:-1.1508189 
1 0 1:5.5916882 2:-1.1725071 
1 0 1:5.4777093 2:-1.1397889 
1 0 1:5.3619133 2:-1.1579598 
1 0 1:5.2401517 2:-1.2176162 
1 0 1:5.1107369 2:-1.2941483 
1 0 1:4.9649707 2:-1.4576614 
1 0 1:5.1506653 2:-0.93154243 
1 0 1:5.0579238 2:-0.92741418 
1 0 1:4.9637785 2:-0.94145332 
1 0 1:4.8686777 2:-0.95100788 
1 0 1:4.7855629 2:-0.83114806 
1 0 1:4.5558064 2:-0.78999246 
1 0 1:4.475355 2:-0.80451431 
1 0 1:4.3933265 2:-0.82028519 
1 0 1:4.3038334 2:-0.8949307 
1 0 1:4.2118859 2:-0.91947532 
1 0 1:4.1193882 2:-0.92497656 
1 0 1:4.0269626 2:-0.92425611 
1 0 1:3.9343971 2:-0.92565549 
1 0 1:3.8417412 2:-0.92655899 
1 0 1:3.7599385 2:-0.81802651 
1 0 1:3.6894695 2:-0.70468986 
1 0 1:3.6302084 2:-0.59261157 
1 0 1:4.388571 2:-0.72674203 
1 0 1:4.3152032 2:-0.73367772 
1 0 1:4.2369306 2:-0.7827264 
1 0 1:4.1596547 2:-0.77275879 
1 0 1:4.0823961 2:-0.77258602 
1 0 1:3.9994632 2:-0.82932868 
1 0 1:3.9153944 2:-0.84068858 
1 0 1:3.8320617 2:-0.83332696 
1 0 1:3.7456716 2:-0.86390113 
1 0 1:3.6553788 2:-0.90292751 
1 0 1:3.565885 2:-0.89493778 
1 0 1:3.4761625 2:-0.89722522 
1 0 1:3.3794716 2:-0.96690902 
1 0 1:3.2852667 2:-0.94204856 
1 0 1:3.1939044 2:-0.91362365 
1 0 1:3.0967897 2:-0.97114717 
1 0 1:2.9955936 2:-1.0119604 
1 0 1:2.8942929 2:-1.0130075 
1 0 1:2.8004828 2:-0.93810121 
1 0 1:2.71683 2:-0.8365272 
1 0 1:2.6391998 2:-0.77630274 
1 0 1:2.5578888 2:-0.81310943 
1 0 1:2.4819122 2:-0.75976655 
1 0 1:2.4114037 2:-0.70508468 
1 0 1:2.3427692 2:-0.68634487 
1 0 1:2.2859853 2:-0.56783922 
1 0 1:2.230108 2:-0.55877265 
1 0 1:2.1823658 2:-0.47742192 
1 0 1:2.145113 2:-0.3725281 
1 0 1:2.1044659 2:-0.40647086 
1 0 1:2.0740205 2:-0.30445417 
1 0 1:2.054394 2:-0.1962654 
1 0 1:2.0395228 2:-0.14871197 
1 0 1:2.025729 2:-0.13793798 
1 0 1:3.0531117 2:-0.49734914 
1 0 1:2.9945175 2:-0.58594261 
1 0 1:2.9313196 2:-0.63197884 
1 0 1:2.870778 2:-0.60541559 
1 0 1:2.8044818 2:-0.66296248 
1 0 1:2.7452423 2:-0.59239453 
1 0 1:2.6837592 2:-0.61483193 
1 0 1:2.6279429 2:-0.55816286 
1 0 1:5.931255 2:-1.1896134 
1 0 1:5.8100985 2:-1.2115653 
1 0 1:5.6863195 2:-1.23779 
1 0 1:5.5610128 2:-1.2530664 
1 0 1:5.4348364 2:-1.2617646 
1 0 1:5.311309 2:-1.2352741 
1 0 1:5.1910364 2:-1.2027254 
1 0 1:5.0711129 2:-1.1992355 
1 0 1:4.9543707 2:-1.1674213 
1 0 1:4.8459882 2:-1.0838256 
1 0 1:4.7479747 2:-0.98013508 
1 0 1:4.6588442 2:-0.89130459 
1 0 1:4.5689895 2:-0.89854744 
1 0 1:4.4848837 2:-0.84105796 
1 0 1:4.4075968 2:-0.77286845 
1 0 1:4.3336961 2:-0.73900737 
1 0 1:5.4130454 2:-1.0245165 
1 0 1:5.3010614 2:-1.1198397 
1 0 1:5.1775019 2:-1.2355949 
1 0 1:5.0471801 2:-1.3032179 
1 0 1:4.9148932 2:-1.322869 
1 0 1:4.77912 2:-1.3577328 
1 0 1:4.644106 2:-1.35014 
1 0 1:4.5103805 2:-1.3372547 
1 0 1:4.3775842 2:-1.3279627 
1 0 1:4.2451391 2:-1.3244509 
1 0 1:4.1191725 2:-1.2596666 
1 0 1:3.9997813 2:-1.193912 
1 0 1:3.8918053 2:-1.0797596 
1 0 1:3.793924 2:-0.9788135 
1 0 1:3.7025547 2:-0.91369252 
1 0 1:3.6157396 2:-0.86815087 
1 0 1:3.5341831 2:-0.8155654 
1 0 1:3.4565001 2:-0.77682939 
1 0 1:3.3825334 2:-0.73966752 
1 0 1:3.3115909 2:-0.70942475 
1 0 1:3.2446605 2:-0.66930416 
1 0 1:3.1889701 2:-0.55690361 
1 0 1:3.1443815 2:-0.44588673 
1 0 1:3.1085124 2:-0.35869028 
0.5075146802005947 0 1:3.0742004 2:-0.34312046 
1 0 1:3.0380764 2:-0.34850371 
1 0 1:3.7769056 2:-0.58999329 
1 0 1:3.7082973 2:-0.68608306 
1 0 1:3.633934 2:-0.74363284 
1 0 1:3.5578185 2:-0.76115479 
1 0 1:3.4819094 2:-0.75909119 
1 0 1:3.4049964 2:-0.76912965 
1 0 1:3.3275196 2:-0.77476803 
1 0 1:3.2489899 2:-0.78529689 
1 0 1:3.1659345 2:-0.83055445 
1 0 1:3.0878176 2:-0.78116889 
1 0 1:3.0108866 2:-0.76931004 
1 0 1:2.934804 2:-0.76082587 
1 0 1:2.8583623 2:-0.76441679 
1 0 1:2.7859923 2:-0.72370062 
1 0 1:2.7148579 2:-0.71134403 
1 0 1:2.6417491 2:-0.73108749 
1 0 1:2.5728692 2:-0.68879935 
1 0 1:2.5091699 2:-0.63699276 
1 0 1:2.4500365 2:-0.59133441 
1 0 1:2.3956146 2:-0.54421851 
1 0 1:2.3451901 2:-0.50424479 
1 0 1:2.2967355 2:-0.48454604 
1 0 1:2.2519856 2:-0.44749945 
1 0 1:2.2077313 2:-0.44254265 
1 0 1:2.1695128 2:-0.38218464 
1 0 1:2.1390644 2:-0.30448428 
1 0 1:2.1161352 2:-0.22929238 
1 0 1:2.1005244 2:-0.1561079 
1 0 1:2.0930033 2:-0.075210886 
1 0 1:2.0861582 2:-0.068450581 
1 0 1:4.2707071 2:-0.71016482 
1 0 1:4.1896375 2:-0.81069626 
1 0 1:4.1051525 2:-0.8448501 
1 0 1:4.0150359 2:-0.90116561 
1 0 1:3.9241296 2:-0.90906308 
1 0 1:2.6879995 2:-0.51338237 
1 0 1:2.6366613 2:-0.51338237 
1 0 1:2.5702321 2:-0.66429158 
1 0 1:2.4889461 2:-0.8128597 
1 0 1:2.3916528 2:-0.97293295 
1 0 1:2.2849123 2:-1.0674059 
1 0 1:2.164144 2:-1.2076828 
1 0 1:2.0365358 2:-1.2760819 
1 0 1:1.8948683 2:-1.416675 
1 1 1:1.7514508 2:-1.4341748 
1 1 1:1.6079789 2:-1.4347186 
1 0 1:4.4271585 2:-0.80887642 
1 0 1:4.3285456 2:-0.98612927 
1 0 1:4.2072994 2:-1.2124624 
1 0 1:4.0661005 2:-1.4119889 
1 0 1:3.9078217 2:-1.5827879 
1 0 1:3.7325656 2:-1.7525605 
1 0 1:3.5371902 2:-1.9537549 
1 0 1:3.3284096 2:-2.0878054 
1 0 1:3.1140917 2:-2.1431789 
1 0 1:3.8869754 2:-0.62561648 
1 0 1:3.8304422 2:-0.56533161 
1 0 1:3.7730208 2:-0.57421415 
1 0 1:3.7183758 2:-0.54644984 
1 0 1:3.5218329 2:-0.47856731 
1 0 1:3.4736186 2:-0.48214301 
1 0 1:3.4255121 2:-0.48106467 
1 0 1:3.3784988 2:-0.47013364 
1 0 1:3.3297911 2:-0.4870769 
1 0 1:3.2814293 2:-0.48361796 
1 0 1:3.234387 2:-0.47042277 
1 0 1:3.1896669 2:-0.44720067 
1 0 1:3.1434581 2:-0.46208788 
1 0 1:3.0968526 2:-0.46605544 
1 0 1:3.0531236 2:-0.43729028 
1 0 1:3.0102415 2:-0.42882069 
1 0 1:2.9656059 2:-0.44635615 
1 0 1:2.9234997 2:-0.42106211 
1 0 1:2.8827232 2:-0.40776446 
1 0 1:2.8436552 2:-0.39068059 
1 0 1:2.8094088 2:-0.34246407 
1 0 1:2.7690179 2:-0.40390869 
1 0 1:2.7347399 2:-0.34277996 
1 0 1:2.6947808 2:-0.39959071 
1 0 1:2.6594546 2:-0.35326273 
1 0 1:2.6208695 2:-0.38585028 
1 0 1:2.5941592 2:-0.2671031 
1 0 1:3.9086804 2:-0.64916281 
1 0 1:3.8446313 2:-0.64049045 
1 0 1:3.7789559 2:-0.65675391 
1 0 1:3.7105403 2:-0.68415661 
1 0 1:3.6382363 2:-0.72303952 
1 0 1:3.5631341 2:-0.75102231 
1 0 1:3.4905139 2:-0.72620222 
1 0 1:3.4096053 2:-0.80908577 
1 0 1:3.3317244 2:-0.77880868 
1 0 1:3.2532396 2:-0.78484773 
1 0 1:3.1700976 2:-0.83142031 
1 0 1:3.0884001 2:-0.81697555 
1 0 1:3.0071199 2:-0.8128011 
1 0 1:2.9395786 2:-0.67541313 
1 0 1:2.8701021 2:-0.69476544 
1 0 1:2.8046322 2:-0.65469853 
1 0 1:2.7426106 2:-0.62021626 
1 0 1:2.6847955 2:-0.57815086 
1 0 1:2.6252578 2:-0.5953774 
1 0 1:2.5778731 2:-0.47384697 
1 0 1:2.5318827 2:-0.45990401 
1 0 1:2.488972 2:-0.42910649 
1 0 1:2.4551688 2:-0.33803231 
1 0 1:2.4232067 2:-0.31962096 
1 0 1:2.3989418 2:-0.24264875 
1 0 1:2.3715169 2:-0.15054495 
1 0 1:4.7270875 2:-0.82324846 
1 0 1:4.637858 2:-0.89229584 
1 0 1:4.5450245 2:-0.92833462 
1 0 1:4.4454464 2:-0.99578079 
1 0 1:4.3462914 2:-0.99154989 
1 0 1:4.241492 2:-1.0479943 
1 0 1:5.4385775 2:-1.1524464 
1 0 1:5.301211 2:-1.373665 
1 0 1:5.1466594 2:-1.5455166 
1 0 1:5.8852422 2:-1.1664972 
1 0 1:5.7500041 2:-1.3523815 
1 0 1:5.602222 2:-1.4778208 
1 0 1:5.4467655 2:-1.5545647 
1 0 1:5.2847551 2:-1.6201045 
1 0 1:4.566162 2:-0.79887084 
1 0 1:4.4765672 2:-0.89594826 
1 0 1:4.3666676 2:-1.0989955 
1 0 1:4.2446793 2:-1.2198827 
1 0 1:4.1095193 2:-1.3516006 
1 0 1:3.9618521 2:-1.4766719 
-0 1 1:-1.0570727 2:-0.8134287 
-0 1 1:-1.1108152 2:-0.53742545 
-1 1 1:-1.1471487 2:-0.36333483 
-1 1 1:-1.1684041 2:-0.21255361 
-1 1 1:-1.1788089 2:-0.10404852 
-1 1 1:-1.1854121 2:-0.066031819 
-1 1 1:-1.1705097 2:0.14902444 
-1 1 1:-1.1712015 2:-0.0069185014 
-1 1 1:-1.1597926 2:0.11408954 
-1 1 1:-1.171252 2:-0.11459448 
-1 1 1:-1.1760883 2:-0.048363405 
-1 1 1:-1.2084938 2:-0.32405464 
-0 1 1:-1.2501684 2:-0.41674641 
-1 1 1:-1.2790426 2:-0.28874129 
-1 1 1:-1.3090287 2:-0.29986119 
-1 1 1:-1.3427778 2:-0.33749089 
-1 1 1:-1.3761249 2:-0.33347131 
-1 1 1:-1.4013839 2:-0.25258947 
-1 1 1:-1.4328138 2:-0.31429931 
-0 1 1:-1.4753032 2:-0.42489392 
-1 1 1:-1.504358 2:-0.29054846 
-0 1 1:-1.5476857 2:-0.43327675 
-0 1 1:-1.5813987 2:-0.33712968 
-0 1 1:-1.6173903 2:-0.35991675 
-0 1 1:-1.6575072 2:-0.40116806 
-0 1 1:-1.6989729 2:-0.41465793 
-0 1 1:-1.7415938 2:-0.42620888 
-0 1 1:-1.7854847 2:-0.43890855 
-0 1 1:-1.8305667 2:-0.45081975 
-0 1 1:-1.8634303 2:-0.32863623 
-0 1 1:-1.8937319 2:-0.30301598 
-0 1 1:-1.9203342 2:-0.26602296 
-1 1 1:-1.9307127 2:-0.10378533 
-1 1 1:-1.9369895 2:-0.062767987 
-1 1 1:-1.9415311 2:-0.045415749 
-1 1 1:-1.9314715 2:0.10059576 
-1 1 1:-1.9265969 2:0.048745877 
-1 1 1:-1.9208895 2:0.057074453 
-1 1 1:-1.9091358 2:0.1175371 
-1 1 1:-1.9011682 2:0.079675886 
-1 1 1:-1.8974383 2:0.037298546 
-1 1 1:-1.897753 2:-0.0031465295 
-1 1 1:-1.9074995 2:-0.097465526 
-1 1 1:-1.926665 2:-0.19165498 
-0 1 1:-1.958685 2:-0.32019984 
-0 1 1:-1.9993467 2:-0.4066173 
-0 1 1:-2.0464358 2:-0.4708903 
-0 1 1:-2.1124322 2:-0.65996406 
-0 1 1:-2.1842627 2:-0.7183052 
-0 1 1:-2.26607 2:-0.81807341 
-0 1 1:-2.3597229 2:-0.9365284 
-0 1 1:-5.5912468 2:-1.2160266 
-0 1 1:-5.6974363 2:-1.061895 
-0 1 1:-5.7836651 2:-0.86228823 
-0 1 1:-5.8447933 2:-0.61128202 
-0 1 1:-5.8846341 2:-0.39840826 
-0 1 1:-5.9106761 2:-0.26041986 
-0 1 1:-5.9318888 2:-0.21212712 
-0 1 1:-5.9478557 2:-0.15966937 
-0 1 1:-5.9541862 2:-0.063304307 
-0 1 1:-5.9548694 2:-0.0068321453 
-0 1 1:-5.9488816 2:0.059878276 
-0 1 1:-5.9358776 2:0.13003924 
-0 1 1:-5.9157587 2:0.20118981 
-1 0 1:5.6712132 2:-2.3265273 
-0 1 1:-3.2445029 2:-0.99178044 
-0 1 1:-3.3343477 2:-0.89844863 
-0 1 1:-3.4114578 2:-0.77110084 
-0 1 1:-3.4830974 2:-0.71639544 
-0 1 1:-3.54337 2:-0.60272692 
-1 0 1:5.2674629 2:-0.73941546 
-1 0 1:5.1916733 2:-0.7578954 
-1 0 1:5.1135418 2:-0.78131566 
-1 0 1:5.0339181 2:-0.79623705 
-1 0 1:4.9539409 2:-0.79977197 
-1 0 1:4.8724537 2:-0.81487192 
-1 0 1:4.7907136 2:-0.81740093 
-1 0 1:4.7057918 2:-0.8492177 
-1 0 1:4.6220515 2:-0.83740285 
-1 0 1:4.5332973 2:-0.88754236 
-1 0 1:4.4455368 2:-0.87760475 
-1 0 1:4.3508441 2:-0.94692756 
-1 0 1:4.2541048 2:-0.96739249 
-1 0 1:4.1536947 2:-1.0041009 
-1 0 1:4.0460011 2:-1.0769364 
-1 0 1:3.9374082 2:-1.0859288 
-1 0 1:3.8270254 2:-1.103828 
-1 0 1:3.7093687 2:-1.1765667 
-1 0 1:3.5866282 2:-1.227405 
-1 0 1:3.4607716 2:-1.2585664 
-1 0 1:3.3338207 2:-1.2695093 
-1 0 1:3.208147 2:-1.2567365 
-1 0 1:3.0853068 2:-1.2284018 
-1 0 1:2.9659269 2:-1.1937988 
-1 0 1:2.8477725 2:-1.1815448 
-1 0 1:2.7294977 2:-1.1827478 
-1 0 1:2.6102743 2:-1.1922342 
-1 0 1:2.4868716 2:-1.2340269 
-1 0 1:2.3586873 2:-1.2818433 
-1 0 1:2.2263449 2:-1.3234236 
-0 1 1:-2.6038077 2:-0.77606871 
-0 1 1:-2.6658527 2:-0.62045054 
-0 1 1:-2.7055124 2:-0.39659694 
-0 1 1:-2.7533624 2:-0.47849963 
-0 1 1:-2.8040254 2:-0.50662999 
-0 1 1:-2.8648269 2:-0.60801484 
-0 1 1:-2.9294998 2:-0.64672883 
-0 1 1:-2.9925947 2:-0.63094934 
-0 1 1:-3.0500316 2:-0.57436911 
-0 1 1:-3.0997284 2:-0.49696774 
-0 1 1:-3.1425017 2:-0.42773333 
-0 1 1:-3.1796137 2:-0.37111962 
-0 1 1:-3.2082665 2:-0.28652802 
-0 1 1:-3.2275205 2:-0.1925399 
-0 1 1:-3.2386405 2:-0.11120071 
-0 1 1:-3.2446336 2:-0.059930637 
-0 1 1:-3.2482476 2:-0.036140324 
-0 1 1:-3.2520269 2:-0.037792959 
-0 1 1:-3.2586027 2:-0.065758268 
-0 1 1:-3.2696738 2:-0.11071015 
-0 1 1:-3.2882179 2:-0.18544097 
-0 1 1:-3.3165764 2:-0.28358579 
-0 1 1:-3.3566009 2:-0.40024435 
-0 1 1:-3.4068746 2:-0.50273689 
-0 1 1:-3.4727281 2:-0.65853535 
-0 1 1:-3.5634126 2:-0.90684469 
-0 1 1:-4.0114497 2:-1.0862719 
-0 1 1:-4.1097473 2:-0.98297552 
-0 1 1:-4.206959 2:-0.97211721 
-0 1 1:-4.3099695 2:-1.0301055 
-0 1 1:-4.4079814 2:-0.9801182 
-0 1 1:-4.5065656 2:-0.98584256 
-0 1 1:-4.5933892 2:-0.86823543 
-0 1 1:-4.6798152 2:-0.86426081 
-0 1 1:-4.7621583 2:-0.82343026 
-1 0 1:6.0104847 2:-1.7027555 
-1 0 1:5.8389193 2:-1.7156545 
-1 0 1:5.6679523 2:-1.7096691 
-1 0 1:5.4966722 2:-1.7128018 
-1 0 1:5.3251289 2:-1.715433 
-1 0 1:5.1493266 2:-1.7580224 
-1 0 1:4.9642072 2:-1.8511943 
-1 0 1:4.7706278 2:-1.9357935 
-1 0 1:4.5689825 2:-2.0164531 
-1 1 1:0.24744197 2:-0.66998644 
-0 1 1:-4.6548649 2:-1.1561671 
-0 1 1:-4.7622193 2:-1.0735442 
-0 1 1:-4.8545741 2:-0.92354759 
-0 1 1:-4.9352202 2:-0.80646052 
-0 1 1:-5.0013473 2:-0.66127153 
-0 1 1:-5.0457847 2:-0.44437353 
-0 1 1:-5.0791949 2:-0.33410236 
-0 1 1:-5.1054798 2:-0.26284944 
-0 1 1:-5.1235807 2:-0.18100893 
-0 1 1:-5.1395862 2:-0.16005501 
-0 1 1:-5.1517086 2:-0.12122358 
-0 1 1:-5.1593393 2:-0.076307212 
-0 1 1:-5.1620421 2:-0.027028303 
-0 1 1:-5.1582287 2:0.038134495 
-0 1 1:-5.1468454 2:0.11383325 
-0 1 1:-5.1309062 2:0.15939203 
-0 1 1:-5.1113731 2:0.19533062 
-0 1 1:-5.087862 2:0.23511054 
-0 1 1:-5.0602716 2:0.27590407 
-0 1 1:-5.0314383 2:0.28833295 
-0 1 1:-5.0008275 2:0.30610874 
-0 1 1:-4.9710149 2:0.29812559 
-0 1 1:-4.93919 2:0.31824897 
-0 1 1:-4.9114525 2:0.2773753 
-0 1 1:-4.8809957 2:0.30456797 
-0 1 1:-4.8550259 2:0.25969825 
-0 1 1:-4.8251411 2:0.29884736 
-0 1 1:-4.7971226 2:0.2801848 
-0 1 1:-4.7705169 2:0.26605775 
-0 1 1:-4.7450789 2:0.25437955 
-0 1 1:-4.721134 2:0.23944965 
-0 1 1:-4.6991453 2:0.21988689 
-0 1 1:-4.6794059 2:0.19739371 
-0 1 1:-4.6627108 2:0.16695122 
-0 1 1:-4.6529474 2:0.097633926 
-0 1 1:-4.6503402 2:0.026071316 
-0 1 1:-4.6525386 2:-0.021983108 
-0 1 1:-4.6606435 2:-0.081049259 
-0 1 1:-4.6784968 2:-0.17853291 
-0 1 1:-4.6959457 2:-0.17448954 
-0 1 1:-4.7199177 2:-0.23971926 
-0 1 1:-4.7466902 2:-0.26772571 
-0 1 1:-4.7826595 2:-0.35969254 
-0 1 1:-4.8248635 2:-0.42204067 
-0 1 1:-4.8819098 2:-0.57046292 
-0 1 1:-4.9470325 2:-0.65122675 
-0 1 1:-5.0257189 2:-0.78686403 
-0 1 1:-5.1056488 2:-0.79929927 
-0 1 1:-5.1919814 2:-0.86332534 
-0 1 1:-5.2776758 2:-0.8569439 
-0 1 1:-5.3633598 2:-0.85683986 
-0 1 1:-5.4488532 2:-0.85493489 
-0 1 1:-5.5333868 2:-0.84533564 
-0 1 1:-5.6192655 2:-0.85878675 
-0 1 1:-5.7027292 2:-0.83463723 
-0 1 1:-5.7888646 2:-0.8613537 
-0 1 1:-5.8712559 2:-0.82391305 
-0 1 1:-5.9573546 2:-0.86098693 
-0 1 1:-6.038554 2:-0.81199418 
-0 1 1:-6.1188145 2:-0.8026048 
-0 1 1:-6.1928014 2:-0.73986882 
-0 1 1:-6.2616678 2:-0.68866457 
-0 1 1:-3.0272854 2:-1.0022934 
-0 1 1:-3.1202339 2:-0.92948521 
-0 1 1:-3.2073638 2:-0.87129874 
-0 1 1:-3.2768003 2:-0.69436503 
-1 1 1:0.12965211 2:-0.41292086 
-1 1 1:-0.14015965 2:0.070943996 
-1 1 1:-0.199182 2:-0.59022348 
-0 1 1:-0.26911999 2:-0.69937989 
-0 1 1:-0.33704209 2:-0.679221 
-0 1 1:-0.40215018 2:-0.6510809 
-0 1 1:-0.46628082 2:-0.64130644 
-0 1 1:-0.53068208 2:-0.64401258 
-0 1 1:-0.59819401 2:-0.67511931 
-1 1 1:-0.65440068 2:-0.56206662 
-1 1 1:-0.70713886 2:-0.52738183 
-0 1 1:-0.77180371 2:-0.64664855 
-0 1 1:-0.84985833 2:-0.78054614 
-0 1 1:-0.91808957 2:-0.68231243 
-0 1 1:-0.98918731 2:-0.71097742 
-0 1 1:-1.1443245 2:-0.70744507 
-0 1 1:-1.3110381 2:-0.81204724 
-0 1 1:-1.3943419 2:-0.83303783 
-0 1 1:-1.8509484 2:-0.87781639 
-0 1 1:-1.9280521 2:-0.77103684 
-0 1 1:-1.9941669 2:-0.66114795 
-0 1 1:-2.0461255 2:-0.51958649 
-0 1 1:-2.092536 2:-0.46410494 
-0 1 1:-2.134384 2:-0.41847958 
-0 1 1:-2.1721717 2:-0.37787694 
-0 1 1:-2.2036764 2:-0.31504746 
-0 1 1:-2.21959 2:-0.15913537 
-0 1 1:-2.233431 2:-0.13841058 
-0 1 1:-2.2463026 2:-0.12871599 
-1 1 1:-2.2480083 2:-0.017056694 
-1 1 1:-2.2554635 2:-0.074551771 
-1 1 1:-2.2544809 2:0.0098257668 
-1 1 1:-2.2515888 2:0.028920884 
-1 1 1:-2.2481734 2:0.034154132 
-1 1 1:-2.2427776 2:0.053958016 
-1 1 1:-2.2351468 2:0.076308143 
-1 1 1:-2.2245751 2:0.10571611 
-1 1 1:-2.2145225 2:0.10052608 
-1 1 1:-2.1942508 2:0.20271722 
-1 1 1:-2.1822413 2:0.12009514 
-1 1 1:-2.1582598 2:0.23981554 
-1 1 1:-2.1356327 2:0.22627099 
-1 1 1:-2.1136867 2:0.2194599 
-1 1 1:-2.0945548 2:0.19131817 
-1 1 1:-2.0707535 2:0.23801316 
-1 1 1:-2.0518645 2:0.18889016 
-1 1 1:-2.0342159 2:0.17648584 
-1 1 1:-2.0236467 2:0.10569275 
-1 1 1:-2.0151485 2:0.084981737 
-1 1 1:-2.0068755 2:0.082729707 
-1 1 1:-2.000659 2:0.062165262 
-1 1 1:-2.0039617 2:-0.033027513 
-1 1 1:-2.0130767 2:-0.09114983 
-1 1 1:-2.0224289 2:-0.093522048 
-1 1 1:-2.03078 2:-0.083511119 
-1 1 1:-2.0447961 2:-0.14016111 
-0 1 1:-2.0617941 2:-0.16997952 
-0 1 1:-2.079732 2:-0.17937939 
-0 1 1:-2.0973842 2:-0.17652125 
-0 1 1:-2.1145318 2:-0.17147634 
-0 1 1:-2.13202 2:-0.17488209 
-0 1 1:-2.1528784 2:-0.20858359 
-0 1 1:-2.1776576 2:-0.24779201 
-0 1 1:-2.2006694 2:-0.23011836 
-0 1 1:-2.2176531 2:-0.16983719 
-0 1 1:-2.238814 2:-0.21160862 
-0 1 1:-2.2635663 2:-0.24752346 
-0 1 1:-2.2825704 2:-0.19004078 
-0 1 1:-2.2991891 2:-0.16618725 
-0 1 1:-2.3187809 2:-0.19591806 
-0 1 1:-2.3397776 2:-0.20996691 
-0 1 1:-2.3542861 2:-0.14508435 
-0 1 1:-2.3742809 2:-0.19994865 
-0 1 1:-2.3992252 2:-0.24944251 
-0 1 1:-2.4199993 2:-0.2077414 
-0 1 1:-2.4503875 2:-0.30388143 
-0 1 1:-2.4907394 2:-0.4035192 
-0 1 1:-2.5391404 2:-0.48400975 
-0 1 1:-2.5887492 2:-0.49608818 
-0 1 1:-2.6454448 2:-0.56695674 
-0 1 1:-2.7050524 2:-0.59607578 
-0 1 1:-2.7642823 2:-0.59229887 
-0 1 1:-2.8228173 2:-0.58534979 
-0 1 1:-2.8824232 2:-0.59605955 
-0 1 1:-2.9452644 2:-0.62841143 
-0 1 1:-3.0024097 2:-0.57145327 
-0 1 1:-3.0612845 2:-0.58874808 
-0 1 1:-3.1241043 2:-0.62819728 
-0 1 1:-3.180071 2:-0.55966706 
-0 1 1:-3.2412578 2:-0.61186821 
-0 1 1:-3.2993409 2:-0.58083104 
-0 1 1:-3.3559935 2:-0.56652583 
-0 1 1:-3.4162438 2:-0.60250322 
-0 1 1:-3.4782731 2:-0.62029273 
-0 1 1:-3.5417313 2:-0.63458239 
-0 1 1:-3.6041038 2:-0.6237251 
-0 1 1:-3.6659112 2:-0.61807409 
-1 0 1:5.7488767 2:-1.0082933 
-1 0 1:5.6277319 2:-1.2114475 
-1 0 1:5.4893098 2:-1.384221 
-1 0 1:5.3364336 2:-1.528762 
-1 0 1:5.1676069 2:-1.6882668 
-1 0 1:4.9836776 2:-1.8392934 
-1 0 1:4.7804504 2:-2.0322719 
-1 0 1:5.6515976 2:-2.1447771 
-1 0 1:5.4230579 2:-2.2853978 
-0 1 1:-3.3072976 2:-0.99821875 
-0 1 1:-3.3975197 2:-0.90222086 
-0 1 1:-3.4844808 2:-0.86961105 
-0 1 1:-3.5672738 2:-0.82792963 
-0 1 1:-3.6473502 2:-0.80076399 
-0 1 1:-3.7298682 2:-0.82518058 
-0 1 1:-3.8084926 2:-0.7862434 
-0 1 1:-3.8931296 2:-0.84636977 
-0 1 1:-3.9815797 2:-0.88450098 
-0 1 1:-4.0609898 2:-0.79410126 
-0 1 1:-4.139064 2:-0.78074237 
-0 1 1:-4.2098714 2:-0.70807331 
-0 1 1:-4.2681813 2:-0.58309913 
-0 1 1:-4.3202198 2:-0.52038553 
-0 1 1:-4.3656342 2:-0.45414417 
-0 1 1:-4.4060319 2:-0.40397669 
-0 1 1:-4.4425306 2:-0.36498734 
-0 1 1:-4.4783655 2:-0.35834865 
-0 1 1:-4.5130967 2:-0.34731177 
-0 1 1:-4.5454921 2:-0.32395456 
-0 1 1:-4.5788876 2:-0.33395492 
-0 1 1:-4.6121491 2:-0.33261485 
-0 1 1:-4.6375425 2:-0.25393405 
-1 0 1:5.4885791 2:-0.91353044 
-1 0 1:5.3935153 2:-0.95063772 
-1 0 1:5.2880189 2:-1.0549641 
-1 0 1:5.171703 2:-1.1631594 
-1 0 1:5.045343 2:-1.2635993 
-1 0 1:4.9019639 2:-1.433791 
-1 0 1:4.7491178 2:-1.5284613 
-1 0 1:4.5873797 2:-1.6173815 
-1 0 1:4.4119689 2:-1.7541073 
-1 0 1:4.2296249 2:-1.8234399 
-1 1 1:0.18620383 2:-0.39235976 
-0.7112001039783247 0 1:0.10799903 2:-0.78204799 
-1 1 1:-0.27713717 2:-0.33207862 
-1 1 1:-0.41530203 2:-0.54923442 
-1 1 1:-0.47488376 2:-0.59581723 
-1 1 1:-0.61003822 2:-0.51910635 
-1 0 1:3.7993711 2:-1.1756446 
-1 0 1:3.6740253 2:-1.2534578 
-1 0 1:3.5468416 2:-1.271837 
-1 0 1:3.4086951 2:-1.3814658 
-1 0 1:3.2688663 2:-1.3982875 
-1 0 1:3.1232182 2:-1.4564816 
-1 0 1:2.9698825 2:-1.5333562 
-1 0 1:1.6408382 2:-1.1112665 
-1 0 1:1.4200733 2:-1.0214848 
-0 1 1:-3.0250342 2:-0.99615833 
-0 1 1:-3.2340022 2:-1.0023502 
-0 1 1:-3.5530787 2:-1.0551286 
-0 1 1:-3.6506144 2:-0.9753566 
-0 1 1:-3.7369413 2:-0.86326959 
-0 1 1:-3.817107 2:-0.80165648 
-0 1 1:-3.8918633 2:-0.74756336 
-0 1 1:-3.9562941 2:-0.64430779 
-1 0 1:5.7562854 2:-0.27582309 
-1 0 1:5.7184553 2:-0.37830139 
-1 0 1:5.6763514 2:-0.4210389 
-1 0 1:5.6331551 2:-0.4319628 
-1 0 1:5.5873664 2:-0.4578877 
-1 0 1:5.5375031 2:-0.49863302 
-1 0 1:5.4830332 2:-0.5446991 
-1 0 1:5.4237048 2:-0.59328336 
-1 0 1:5.3606984 2:-0.63006405 
-1 0 1:5.2947902 2:-0.65908241 
-1 0 1:5.2258289 2:-0.68961261 
-1 0 1:5.1536556 2:-0.72173266 
-1 0 1:5.0741485 2:-0.79507184 
-1 0 1:4.9916672 2:-0.82481284 
-1 0 1:4.9080131 2:-0.83654056 
-1 0 1:4.8225907 2:-0.8542237 
-1 0 1:4.7370434 2:-0.85547352 
-1 0 1:4.6537311 2:-0.83312259 
-1 0 1:4.5658748 2:-0.8785629 
-1 0 1:4.4786186 2:-0.87256266 
-1 0 1:4.391723 2:-0.86895548 
-1 0 1:4.3045979 2:-0.87125085 
-1 0 1:4.2169797 2:-0.87618226 
-1 0 1:4.1269215 2:-0.90058202 
-1 0 1:4.0335844 2:-0.93337088 
-1 0 1:3.9372728 2:-0.96311664 
-1 0 1:3.8385972 2:-0.98675605 
-1 0 1:3.7386364 2:-0.99960718 
-1 0 1:3.6307574 2:-1.0787909 
-1 0 1:3.5210958 2:-1.0966153 
-1 0 1:3.4123538 2:-1.0874206 
-1 0 1:3.2945618 2:-1.17792 
-1 0 1:3.181193 2:-1.1336874 
-1 0 1:3.0563282 2:-1.2486487 
-1 0 1:2.9343368 2:-1.2199131 
-1 0 1:2.8060354 2:-1.2830142 
-1 0 1:2.6746894 2:-1.3134608 
-1 0 1:2.5451935 2:-1.2949585 
-1 0 1:2.4076376 2:-1.375559 
-1 0 1:2.1341212 2:-1.3362386 
-1 0 1:2.0049511 2:-1.2917011 
-1 0 1:1.5055053 2:-1.1473971 
-1 0 1:1.2801676 2:-1.0761695 
-1 0 1:1.1848265 2:-0.9534111 
-1 0 1:1.1027755 2:-0.82050998 
-1 0 1:1.0261745 2:-0.76601018 
-1 0 1:0.95065802 2:-0.75516499 
-1 1 1:0.88799597 2:-0.62662041 
-1 1 1:0.83937657 2:-0.48619401 
-1 1 1:0.80639109 2:-0.32985482 
-0 1 1:-3.3517737 2:-0.88914007 
-0 1 1:-6.5154434 2:-1.1273344 
-0 1 1:-6.6224824 2:-1.0703897 
-0 1 1:-6.7212215 2:-0.98739163 
-0 1 1:-6.8169271 2:-0.95705598 
-1 0 1:3.3900885 2:-1.3864472 
-1 0 1:3.249561 2:-1.4052752 
-1 0 1:3.1039779 2:-1.4558315 
-1 0 1:1.7195967 2:-1.2053338 
-1 1 1:0.25487707 2:-0.54584885 
-1 1 1:0.21026905 2:-0.44608016 
-1 1 1:0.17674654 2:-0.33522517 
-1 1 1:0.15960491 2:-0.17141624 
-1 1 1:0.1628645 2:0.03259589 
-1 1 1:0.17793272 2:0.15068215 
-1 1 1:0.13176725 2:-0.46165463 
-1 1 1:0.087699073 2:-0.44068181 
-1 1 1:0.056756287 2:-0.30942787 
-1 1 1:0.060229102 2:0.034728158 
-1 1 1:0.093390092 2:0.3316099 
-1 1 1:0.12952652 2:0.36136431 
-1 0 1:5.8150467 2:-0.46918777 
-1 0 1:5.7588314 2:-0.56215299 
-1 0 1:5.6949623 2:-0.63869066 
-1 0 1:5.6235422 2:-0.71420105 
-1 0 1:5.5406191 2:-0.82923078 
-1 0 1:5.4493508 2:-0.9126832 
-1 0 1:5.3519431 2:-0.97407681 
-1 0 1:5.24268 2:-1.0926307 
-1 0 1:5.1241435 2:-1.1853654 
-1 0 1:4.991863 2:-1.3228052 
-1 0 1:4.8515776 2:-1.4028537 
-1 0 1:4.7071366 2:-1.44441 
-1 0 1:4.5680242 2:-1.3911243 
-1 0 1:4.4282877 2:-1.3973643 
-1 0 1:4.2935655 2:-1.3472225 
-1 0 1:4.1655984 2:-1.2796705 
-1 0 1:4.0324211 2:-1.3317738 
-1 0 1:3.8985258 2:-1.3389529 
-1 0 1:3.7636512 2:-1.3487453 
-1 0 1:3.6255241 2:-1.3812717 
-1 0 1:3.4917289 2:-1.3379513 
-1 0 1:3.3467061 2:-1.4502287 
-1 0 1:3.2016425 2:-1.4506355 
-1 0 1:3.0439014 2:-1.5774111 
-1 0 1:2.8882651 2:-1.5563632 
-1 0 1:2.4331514 2:-1.4367172 
-0 1 1:-5.6893332 2:-1.2489054 
-0 1 1:-5.8048242 2:-1.1549103 
-0 1 1:-5.9056245 2:-1.0080029 
-0 1 1:-5.9964962 2:-0.90871723 
-0 1 1:-6.0769312 2:-0.8043504 
-0 1 1:-6.1452185 2:-0.68287217 
-0 1 1:-6.2079479 2:-0.62729459 
-0 1 1:-6.2653138 2:-0.57365871 
-0 1 1:-6.3227926 2:-0.57478807 
-0 1 1:-6.3791517 2:-0.56359062 
-0 1 1:-6.4301285 2:-0.5097684 
-0 1 1:-5.240027 2:-1.1970529 
-0 1 1:-5.3568548 2:-1.1682777 
-0 1 1:-5.4698954 2:-1.1304058 
-0 1 1:-5.573619 2:-1.0372361 
-0 1 1:-5.673569 2:-0.99950003 
-0 1 1:-5.7678829 2:-0.94313885 
-0 1 1:-5.8528787 2:-0.84995869 
-0 1 1:-5.9334249 2:-0.80546153 
-0 1 1:-6.0083122 2:-0.74887346 
-0 1 1:-6.0876213 2:-0.79309084 
-0 1 1:-6.1656854 2:-0.78064041 
-0 1 1:-6.2531624 2:-0.87477051 
-0 1 1:-6.3462965 2:-0.93134109 
-0 1 1:-6.4500887 2:-1.0379222 
-0 1 1:-6.5591162 2:-1.0902744 
-0 1 1:-6.6723707 2:-1.1325449 
-0 1 1:-6.7876079 2:-1.1523728 
-0 1 1:-6.8996483 2:-1.1204038 
-0 1 1:-7.0095457 2:-1.098974 
-0 1 1:-7.1176576 2:-1.081119 
-0 1 1:-7.2190202 2:-1.0136255 
-0 1 1:-7.3130032 2:-0.93983043 
-0 1 1:-7.4023273 2:-0.89324069 
-0 1 1:-7.4890003 2:-0.86673058 
-0 1 1:-7.5746177 2:-0.85617386 
-0 1 1:-7.6598325 2:-0.85214798 
-0 1 1:-7.7451475 2:-0.85314936 
-0 1 1:-7.8280651 2:-0.82917636 
-0 1 1:-7.9142946 2:-0.86229539 
-0 1 1:-7.9985612 2:-0.84266561 
-0 1 1:-8.0854855 2:-0.86924328 
-0 1 1:-8.1713584 2:-0.85872885 
-0 1 1:-8.2593365 2:-0.87978068 
-0 1 1:-8.3479792 2:-0.88642684 
-0 1 1:-8.435765 2:-0.87785879 
-0 1 1:-8.5207556 2:-0.84990524 
-0 1 1:-8.6015675 2:-0.80811968 
-0 1 1:-8.6751855 2:-0.73617969 
-0 1 1:-8.7471577 2:-0.71972189 
-0 1 1:-8.8202539 2:-0.73096236 
-0 1 1:-8.8972533 2:-0.76999375 
-0 1 1:-8.9817092 2:-0.84455934 
-0 1 1:-9.0765547 2:-0.94845452 
-0 1 1:-9.1785813 2:-1.0202659 
-0 1 1:-9.2800815 2:-1.0150027 
-0 1 1:-9.3803943 2:-1.0031278 
-0 1 1:-9.4754451 2:-0.95050764 
-0 1 1:-9.5632627 2:-0.87817592 
-0 1 1:-9.6429381 2:-0.79675396 
-0 1 1:-9.713359 2:-0.70420921 
-0 1 1:-9.7772893 2:-0.63930292 
-0 1 1:-9.8348437 2:-0.57554368 
-0 1 1:-9.8893551 2:-0.54511444 
-0 1 1:-9.9425216 2:-0.53166507 
-0 1 1:-9.9948138 2:-0.52292182 
-0 1 1:-10.046753 2:-0.51939292 
-0 1 1:-10.099021 2:-0.52267741 
-0 1 1:-10.145639 2:-0.46617747 
-0 1 1:-10.189908 2:-0.442699 
-0 1 1:-10.231387 2:-0.4147831 
-0 1 1:-10.265852 2:-0.34465611 
-0 1 1:-10.294424 2:-0.28571162 
-0 1 1:-10.327937 2:-0.33513837 
-0 1 1:-10.352176 2:-0.24238734 
-0 1 1:-10.365321 2:-0.13145317 
-0 1 1:-10.367323 2:-0.020011116 
-1 0 1:3.7473864 2:-1.8001387 
-1 0 1:4.66206 2:-1.3557606 
-1 0 1:4.5236233 2:-1.3843666 
-1 0 1:4.3848989 2:-1.3872449 
-1 0 1:4.2462598 2:-1.3863908 
-1 0 1:4.1070235 2:-1.3923627 
-1 0 1:3.9638401 2:-1.4318344 
-1 0 1:3.8167203 2:-1.4711975 
-1 0 1:3.6642847 2:-1.5243566 
-1 0 1:3.4983195 2:-1.6596512 
-0 1 1:-1.1814996 2:-0.79817497 
-0 1 1:-1.2552299 2:-0.73730358 
-0 1 1:-1.3253225 2:-0.70092574 
-0 1 1:-1.3953931 2:-0.7007064 
-0 1 1:-1.4646888 2:-0.69295697 
-0 1 1:-1.5338895 2:-0.69200655 
-0 1 1:-1.6024967 2:-0.68607173 
-0 1 1:-1.6732322 2:-0.70735516 
-0 1 1:-1.730273 2:-0.57040798 
-0 1 1:-1.7839573 2:-0.53684334 
-0 1 1:-1.8334823 2:-0.49524971 
-0 1 1:-1.8702385 2:-0.36756234 
-0 1 1:-1.9115572 2:-0.41318669 
-0 1 1:-1.965127 2:-0.53569773 
-0 1 1:-2.0311558 2:-0.66028851 
-0 1 1:-2.1093706 2:-0.78214807 
-0 1 1:-2.5131902 2:-0.95324872 
-0 1 1:-2.6033298 2:-0.90139632 
-0 1 1:-2.6867401 2:-0.83410269 
-0 1 1:-2.7566408 2:-0.69900656 
-0 1 1:-2.8253851 2:-0.68744351 
-0 1 1:-2.896619 2:-0.71233869 
-0 1 1:-2.9682486 2:-0.71629657 
-0 1 1:-3.0261901 2:-0.57941476 
-0 1 1:-3.078473 2:-0.52282835 
-0 1 1:-3.1126019 2:-0.34128963 
-0 1 1:-3.1435097 2:-0.30907762 
-0 1 1:-3.1729808 2:-0.29471078 
-1 0 1:3.3524413 2:-0.97598722 
-1 0 1:3.2584873 2:-0.93954019 
-1 0 1:3.1535901 2:-1.0489726 
-1 0 1:3.0475201 2:-1.0606993 
-1 0 1:2.9322948 2:-1.1522533 
-1 0 1:2.7965808 2:-1.3571403 
-1 0 1:2.6548669 2:-1.4171387 
-0 1 1:-0.77181729 2:-0.79058841 
-0 1 1:-0.83834731 2:-0.66530024 
-1 0 1:2.225538 2:-0.79307652 
-1 0 1:2.1456019 2:-0.79936113 
-1 0 1:2.0497582 2:-0.9584374 
-1 0 1:1.9403372 2:-1.0942102 
-1 0 1:1.8255081 2:-1.1482905 
-1 1 1:0.1511277 2:-0.44080465 
-1 1 1:-0.10707116 2:-0.039481797 
-0 1 1:-0.37897631 2:-0.64990181 
-1 1 1:-0.41646615 2:-0.37489844 
-1 1 1:-0.45500211 2:-0.38535955 
-1 1 1:-0.49640503 2:-0.41402918 
-1 0 1:2.4646184 2:-0.61029875 
-1 0 1:2.4046227 2:-0.59995724 
-1 0 1:2.3285411 2:-0.76081639 
-1 0 1:2.254881 2:-0.73660019 
-1 0 1:2.1694409 2:-0.85440112 
-1 0 1:2.0803128 2:-0.89128122 
-1 0 1:1.9683385 2:-1.119743 
-1 0 1:1.8472448 2:-1.2109375 
-0 1 1:-1.1125676 2:-0.49110334 
-0 1 1:-2.5898516 2:-0.95609225 
-0 1 1:-2.6796962 2:-0.89844574 
-0 1 1:-2.7675747 2:-0.87878556 
-0 1 1:-2.8559284 2:-0.88353703 
-0 1 1:-2.9445718 2:-0.88643419 
-0 1 1:-3.0314222 2:-0.86850364 
-0 1 1:-3.1137718 2:-0.82349562 
-0 1 1:-3.1914903 2:-0.77718483 
-0 1 1:-3.2712188 2:-0.79728546 
-0 1 1:-3.3544448 2:-0.83225972 
-0 1 1:-3.4356627 2:-0.81217971 
-0 1 1:-3.5031554 2:-0.67492653 
-0 1 1:-3.560587 2:-0.57431621 
-0 1 1:-3.613634 2:-0.53046933 
-0 1 1:-3.6557325 2:-0.42098513 
-0 1 1:-3.7028444 2:-0.47111958 
-0 1 1:-3.7393894 2:-0.36545015 
-0 1 1:-3.7761909 2:-0.36801484 
-0 1 1:-3.8141166 2:-0.37925629 
-0 1 1:-3.8538602 2:-0.3974367 
-0 1 1:-3.896986 2:-0.4312573 
-0 1 1:-3.9440353 2:-0.47049353 
-0 1 1:-3.9988711 2:-0.54835755 
-0 1 1:-4.064776 2:-0.65904939 
-0 1 1:-4.1414974 2:-0.76721375 
-0 1 1:-4.2292968 2:-0.87799422 
-0 1 1:-4.3297725 2:-1.0047571 
-0 1 1:-4.4444599 2:-1.1468744 
-0 1 1:-5.5401571 2:-0.50529792 
-0 1 1:-5.5964695 2:-0.56312497 
-0 1 1:-5.6637119 2:-0.67242342 
-0 1 1:-5.7412635 2:-0.77551591 
-0 1 1:-5.8200578 2:-0.78794277 
-0 1 1:-5.9029231 2:-0.82865347 
-0 1 1:-5.9916198 2:-0.88696694 
-0 1 1:-6.0816254 2:-0.9000562 
-0 1 1:-6.1788729 2:-0.97247528 
-0 1 1:-6.2846173 2:-1.0574435 
-0 1 1:-6.3972061 2:-1.125888 
-0 1 1:-6.519804 2:-1.2259791 
-1 0 1:5.21245 2:-0.30254962 
-1 0 1:5.1821845 2:-0.30265533 
-1 0 1:5.1458138 2:-0.36370649 
-1 0 1:5.1085344 2:-0.37279469 
-1 0 1:5.0638075 2:-0.44726819 
-1 0 1:5.0179083 2:-0.45899275 
-1 0 1:4.9708138 2:-0.4709442 
-1 0 1:4.9174198 2:-0.53394033 
-1 0 1:4.8614541 2:-0.55965727 
-1 0 1:4.802866 2:-0.58588071 
-1 0 1:4.7403403 2:-0.62525726 
-1 0 1:4.6747534 2:-0.65586878 
-1 0 1:4.6046407 2:-0.7011274 
-1 0 1:4.5305827 2:-0.74057941 
-1 0 1:4.4538889 2:-0.76693869 
-1 0 1:4.3783828 2:-0.75506039 
-1 0 1:4.2998667 2:-0.78516079 
-1 0 1:4.2211501 2:-0.78716673 
-1 0 1:4.1441418 2:-0.77008297 
-1 0 1:4.0632215 2:-0.80920284 
-1 0 1:3.9860234 2:-0.77198079 
-1 0 1:3.9054464 2:-0.80577031 
-1 0 1:3.8257156 2:-0.79730735 
-1 0 1:3.7487989 2:-0.76916712 
-1 0 1:3.6658581 2:-0.82940871 
-1 0 1:3.5848087 2:-0.8104932 
-1 0 1:3.5049427 2:-0.79866014 
-1 0 1:3.4247642 2:-0.80178537 
-1 0 1:3.3386505 2:-0.86113693 
-1 0 1:3.2496193 2:-0.89031188 
-1 0 1:3.1586743 2:-0.90944986 
-1 0 1:3.0654051 2:-0.93269245 
-1 0 1:2.9694993 2:-0.9590582 
-1 0 1:2.8704998 2:-0.98999426 
-1 0 1:2.7692153 2:-1.0128457 
-1 0 1:2.6661984 2:-1.0301684 
-1 0 1:2.561628 2:-1.0457043 
-1 0 1:2.4516407 2:-1.0998729 
-1 0 1:2.3387574 2:-1.1288328 
-1 0 1:2.2241357 2:-1.1462169 
-1 0 1:2.108187 2:-1.1594872 
-1 0 1:1.9906188 2:-1.1756818 
-1 0 1:1.8701197 2:-1.2049914 
-0 1 1:-7.2790727 2:-1.4222696 
-0 1 1:-7.4101887 2:-1.3111597 
-0 1 1:-7.5319198 2:-1.2173114 
-0 1 1:-7.6366168 2:-1.0469702 
-0 1 1:-2.6773611 2:-0.95664414 
-0 1 1:-2.7607887 2:-0.83427654 
-0 1 1:-2.8327366 2:-0.71947845 
-0 1 1:-2.8959792 2:-0.63242574 
-0 1 1:-2.9506194 2:-0.54640261 
-1 0 1:6.4749231 2:-1.1748114 
-1 0 1:6.344137 2:-1.3078612 
-1 0 1:6.2018546 2:-1.4228237 
-1 0 1:6.0545674 2:-1.472872 
-1 0 1:5.9030835 2:-1.5148389 
-1 0 1:5.7458958 2:-1.5718776 
-1 0 1:5.5854217 2:-1.6047411 
-1 0 1:5.4194061 2:-1.660156 
-1 0 1:5.2462955 2:-1.7311053 
-1 0 1:5.0615762 2:-1.8471931 
-1 0 1:4.8732965 2:-1.8827975 
-1 0 1:4.6831581 2:-1.9013835 
-1 0 1:4.4889234 2:-1.9423467 
-1 0 1:4.293796 2:-1.9512748 
-0 1 1:-1.3656661 2:-0.78991376 
-0 1 1:-1.4400675 2:-0.74401446 
-0 1 1:-1.5091435 2:-0.69075968 
-0 1 1:-1.5731997 2:-0.640562 
-0 1 1:-1.6323269 2:-0.59127214 
-0 1 1:-1.685711 2:-0.53384148 
-0 1 1:-1.7352813 2:-0.49570307 
-0 1 1:-1.7849225 2:-0.49641175 
-0 1 1:-1.8361734 2:-0.51250923 
-0 1 1:-1.8891645 2:-0.52991026 
-0 1 1:-1.9386493 2:-0.49484785 
-0 1 1:-1.9823517 2:-0.43702441 
-0 1 1:-2.0225928 2:-0.40241067 
-0 1 1:-2.0599756 2:-0.37382827 
-0 1 1:-2.0948242 2:-0.34848599 
-0 1 1:-2.1276621 2:-0.32837905 
-0 1 1:-2.1469997 2:-0.1933761 
-0 1 1:-2.1646568 2:-0.17657054 
-0 1 1:-2.1812959 2:-0.16639108 
-0 1 1:-2.1942927 2:-0.12996822 
-1 1 1:-2.1948675 2:-0.0057479227 
-1 1 1:-2.2024761 2:-0.07608632 
-1 1 1:-2.208953 2:-0.064768835 
-0 1 1:-2.2251836 2:-0.16230621 
-0 1 1:-2.2412129 2:-0.16029301 
-0 1 1:-2.2638601 2:-0.2264717 
-1 0 1:3.5603483 2:-1.052217 
-1 0 1:3.4548015 2:-1.0554679 
-1 0 1:3.3424272 2:-1.1237431 
-1 0 1:3.2200819 2:-1.2234532 
-1 0 1:3.0884266 2:-1.3165535 
-1 0 1:2.9441304 2:-1.4429614 
-0 1 1:-2.3736553 2:-0.94438644 
-0 1 1:-2.4677416 2:-0.94086371 
-0 1 1:-2.5644127 2:-0.96671098 
-0 0.5544175530143211 1:-2.7612889 2:-0.98636113 
-0 1 1:-2.8597275 2:-0.98438642 
-0 1 1:-2.9564866 2:-0.96759054 
-0 1 1:-3.0495032 2:-0.93016644 
-0 1 1:-3.1365223 2:-0.87019011 
-0 1 1:-3.2212034 2:-0.84681132 
-0 1 1:-3.3033766 2:-0.82173256 
-0 1 1:-3.3814387 2:-0.78062053 
-0 1 1:-3.4538803 2:-0.72441569 
-0 1 1:-3.5207402 2:-0.66859945 
-0 1 1:-3.5822152 2:-0.61474947 
-0 1 1:-3.6374726 2:-0.55257403 
-0 1 1:-3.684804 2:-0.4733147 
-0 1 1:-3.7235572 2:-0.38753166 
-0 1 1:-3.7534934 2:-0.29936252 
-1 0 1:8.0281504 2:-1.8340373 
-1 0 1:7.8243148 2:-2.0383559 
-1 0 1:7.6013197 2:-2.2299511 
-1 0 1:7.3590899 2:-2.4222981 
-1 0 1:7.0976492 2:-2.6144071 
-0 1 1:-2.4912145 2:-0.90441132 
-0 1 1:-2.5826952 2:-0.91480759 
-0 1 1:-2.6738922 2:-0.91196992 
-0 1 1:-2.7556407 2:-0.81748455 
-0 1 1:-2.8330954 2:-0.77454734 
-0 1 1:-2.9046031 2:-0.71507646 
-0 1 1:-2.9686049 2:-0.6400186 
-0 1 1:-3.0175993 2:-0.48994407 
-0 1 1:-3.060046 2:-0.42446684 
-0 1 1:-3.100062 2:-0.40015937 
-0 1 1:-3.1378259 2:-0.37763903 
-0 1 1:-3.177894 2:-0.40068146 
-0 1 1:-3.2203781 2:-0.42484129 
-0 1 1:-3.272313 2:-0.51934833 
-0 1 1:-3.3378779 2:-0.65564891 
-0 1 1:-3.4010194 2:-0.63141498 
-0 1 1:-3.4712048 2:-0.70185404 
-0 1 1:-3.5456912 2:-0.74486426 
-0 1 1:-3.6235574 2:-0.77866167 
-0 1 1:-3.705956 2:-0.82398654 
-0 1 1:-3.79446 2:-0.88503998 
-0 1 1:-3.8794627 2:-0.85002738 
-0 1 1:-3.9707389 2:-0.91276138 
-0 1 1:-4.0559318 2:-0.85192931 
-0 1 1:-4.1409039 2:-0.84972037 
-0 1 1:-4.2258381 2:-0.84934266 
-0 1 1:-4.3113072 2:-0.85469034 
-0 1 1:-4.3958613 2:-0.84554106 
-0 1 1:-4.4736602 2:-0.77798925 
-0 1 1:-4.5509581 2:-0.77297876 
-0 1 1:-4.6287214 2:-0.77763295 
-0 1 1:-4.7070429 2:-0.78321504 
-0 1 1:-4.7873295 2:-0.80286597 
-0 1 1:-4.8654474 2:-0.78117943 
-0 1 1:-4.9454003 2:-0.79952952 
-0 1 1:-5.0239657 2:-0.78565357 
-0 1 1:-5.1006548 2:-0.76689081 
-0 1 1:-5.1695449 2:-0.68890065 
-0 1 1:-5.2334607 2:-0.63915811 
-0 1 1:-4.7480364 2:-1.1591504 
-0 1 1:-4.8426752 2:-0.94638831 
-0 1 1:-4.9187768 2:-0.76101587 
-0 1 1:-4.978858 2:-0.60081236 
-0 1 1:-5.0293123 2:-0.50454287 
-0 1 1:-5.0689623 2:-0.39649972 
-0 1 1:-5.0970363 2:-0.28073997 
-0 1 1:-5.1171766 2:-0.20140262 
-0 1 1:-5.126497 2:-0.093204232 
-0 1 1:-5.1326946 2:-0.061975746 
-0 1 1:-5.1214409 2:0.11253666 
-0 1 1:-5.1383392 2:-0.16898311 
-0 1 1:-5.1552715 2:-0.16932299 
-0 1 1:-5.1710931 2:-0.15821641 
-0 1 1:-5.1851455 2:-0.14052372 
-0 1 1:-5.1845311 2:0.0061438901 
-0 1 1:-5.1791162 2:0.054149562 
-0 1 1:-5.1735445 2:0.055716815 
-0 1 1:-5.1621466 2:0.11397918 
-0 1 1:-5.1515052 2:0.10641394 
-0 1 1:-5.13297 2:0.18535166 
-0 1 1:-5.1056063 2:0.27363726 
-0 1 1:-5.0815741 2:0.24032168 
-1 0 1:3.9195205 2:-0.85960041 
-1 0 1:3.8263801 2:-0.93140442 
-1 0 1:3.7223325 2:-1.0404757 
-1 0 1:3.6036898 2:-1.1864277 
-1 0 1:3.4728431 2:-1.3084671 
-1 0 1:3.3293419 2:-1.4350117 
-1 0 1:3.1749779 2:-1.5436399 
-0 1 1:-6.7408379 2:-1.3682752 
-0 1 1:-6.8670894 2:-1.2625155 
-0 1 1:-6.9812994 2:-1.1420995 
-0 1 1:-7.0844307 2:-1.0313135 
-0 1 1:-7.1772442 2:-0.9281344 
-0 1 1:-7.2617098 2:-0.84465693 
-0 1 1:-7.3392592 2:-0.77549326 
-0 1 1:-7.4084912 2:-0.69232 
-0 1 1:-7.4681991 2:-0.59707875 
-0 1 1:-7.5200824 2:-0.51883383 
-0 1 1:-7.5627319 2:-0.42649509 
-0 1 1:-7.5949069 2:-0.32174912 
-0 1 1:-7.6231623 2:-0.28255408 
-1 0 1:7.7036788 2:-0.68488768 
-1 0 1:7.6135576 2:-0.90121212 
-1 0 1:7.5105813 2:-1.0297637 
-1 0 1:7.4004469 2:-1.1013434 
-1 0 1:7.2834881 2:-1.1695877 
-1 0 1:7.157683 2:-1.2580514 
-1 0 1:7.0233735 2:-1.3430948 
-1 0 1:6.8782303 2:-1.451432 
-1 0 1:6.7212241 2:-1.570062 
-1 0 1:6.5526679 2:-1.6855619 
-1 0 1:6.373125 2:-1.7954293 
-1 0 1:6.1857497 2:-1.8737533 
-1 0 1:5.995161 2:-1.9058867 
-1 0 1:5.8008854 2:-1.9427565 
-1 0 1:5.603047 2:-1.9783835 
-1 0 1:5.4016674 2:-2.0137965 
-1 0 1:5.1941986 2:-2.0746878 
-1 0 1:4.9831852 2:-2.1101333 
-0 1 1:-3.2184687 2:-1.0272693 
-0 1 1:-3.3148744 2:-0.96405767 
-0 1 1:-3.4051088 2:-0.90234378 
-0 1 1:-3.4826306 2:-0.77521811 
-0 1 1:-3.5588723 2:-0.76241677 
-0 1 1:-3.6337488 2:-0.74876474 
-0 1 1:-3.697146 2:-0.63397201 
-0 1 1:-3.7594912 2:-0.62345163 
-0 1 1:-3.8176798 2:-0.58188655 
-0 1 1:-3.8703815 2:-0.52701736 
-0 1 1:-3.9214712 2:-0.51089687 
-0 1 1:-3.9634995 2:-0.42028273 
-0 1 1:-3.994415 2:-0.30915524 
-1 0 1:6.2007935 2:-1.9671111 
-1 0 1:5.9987873 2:-2.020062 
-1 0 1:5.7924617 2:-2.0632558 
-1 0 1:5.5826788 2:-2.0978298 
-1 0 1:5.3641471 2:-2.185317 
-1 1 1:0.45386284 2:-0.61483437 
-1 1 1:0.27866168 2:-0.68576387 
-1 1 1:0.24053948 2:-0.381222 
-1 1 1:0.086172593 2:-0.67223282 
-0 1 1:-0.62276956 2:-0.67463625 
-0 1 1:-0.6834661 2:-0.60696545 
-1 1 1:-0.73738059 2:-0.53914487 
-1 1 1:-0.78984374 2:-0.5246315 
-1 1 1:-0.80152797 2:-0.11684233 
-1 1 1:-0.81968259 2:-0.18154613 
-1 1 1:-0.837873 2:-0.18190412 
-1 1 1:-0.8386053 2:-0.0073230298 
-1 1 1:-0.86672853 2:-0.28123229 
-1 1 1:-0.87436621 2:-0.076376836 
-1 1 1:-0.91550708 2:-0.41140863 
-1 1 1:-0.96050162 2:-0.4499454 
-0 1 1:-1.0288418 2:-0.68340175 
-0 1 1:-1.1101568 2:-0.81315053 
-0 1 1:-1.1859313 2:-0.7577442 
-0 1 1:-1.2697485 2:-0.83817236 
-0 1 1:-1.331745 2:-0.61996483 
-0 1 1:-1.3922345 2:-0.60489492 
-0 1 1:-1.4498251 2:-0.57590669 
-0 1 1:-1.4867023 2:-0.368772 
-0 1 1:-1.5196858 2:-0.32983484 
-1 1 1:-1.5473802 2:-0.27694378 
-1 1 1:-1.5676795 2:-0.20299339 
-1 1 1:-1.571088 2:-0.034084981 
-1 1 1:-1.5760676 2:-0.049796028 
-1 1 1:-1.5648581 2:0.11209541 
-1 0 1:5.2205777 2:-0.61430452 
-1 0 1:5.1475836 2:-0.72994076 
-1 0 1:5.0669785 2:-0.80605061 
-1 0 1:4.9639835 2:-1.0299503 
-1 0 1:4.8472712 2:-1.1671228 
-1 0 1:4.7137713 2:-1.3349987 
-1 0 1:4.5703864 2:-1.4338497 
-1 0 1:4.4110701 2:-1.5931625 
-1 0 1:4.2412898 2:-1.6978029 
-1 0 1:4.0547596 2:-1.8653021 
-0 1 1:-2.3767509 2:-0.93988629 
-0 1 1:-2.4585538 2:-0.81802932 
-0 1 1:-2.5299941 2:-0.71440314 
-0 1 1:-2.593112 2:-0.63117859 
-0 1 1:-2.6536808 2:-0.60568802 
-0 1 1:-2.7084113 2:-0.54730538 
-0 1 1:-2.7548136 2:-0.46402302 
-0 1 1:-2.7968692 2:-0.42055567 
-0 1 1:-2.830792 2:-0.33922834 
-0 1 1:-2.8501025 2:-0.19310512 
-0 1 1:-2.8607201 2:-0.10617606 
-0 1 1:-2.8657701 2:-0.050499595 
-0 1 1:-2.8694318 2:-0.036617187 
-0 1 1:-2.8765192 2:-0.070873623 
-0 1 1:-2.8913867 2:-0.14867557 
-0 1 1:-2.9152123 2:-0.23825545 
-0 1 1:-2.9431342 2:-0.2792192 
-0 1 1:-2.976568 2:-0.33433843 
-0 1 1:-3.0156569 2:-0.39088825 
-0 1 1:-3.0612017 2:-0.45544804 
-0 1 1:-3.1133378 2:-0.52136161 
-0 1 1:-3.1723682 2:-0.59030361 
-0 1 1:-3.2368064 2:-0.64438185 
-0 1 1:-3.301382 2:-0.64575658 
-0 1 1:-3.3700913 2:-0.68709312 
-0 1 1:-3.4435798 2:-0.73488479 
-0 1 1:-3.5239024 2:-0.80322538 
-0 1 1:-3.6103138 2:-0.86411419 
-0 1 1:-3.7022012 2:-0.91887476 
-0 1 1:-3.7966589 2:-0.94457621 
-0 1 1:-3.8889449 2:-0.92286001 
-0 1 1:-3.976421 2:-0.8747609 
-0 1 1:-4.0576191 2:-0.81198116 
-0 1 1:-4.1349849 2:-0.77365845 
-0 1 1:-4.1732128 2:-0.38227917 
-0 1 1:-4.207398 2:-0.34185182 
-0 1 1:-4.2473824 2:-0.39984397 
-0 1 1:-4.2819763 2:-0.34593838 
-0 1 1:-4.320519 2:-0.38542773 
-0 1 1:-4.359409 2:-0.38889926 
-0 1 1:-4.3965101 2:-0.37101146 
-0 1 1:-4.4356631 2:-0.39152958 
-0 1 1:-4.4768351 2:-0.41171995 
-0 1 1:-4.5152576 2:-0.38422517 
-0 1 1:-4.5562832 2:-0.41025669 
-0 1 1:-4.599904 2:-0.43620746 
-1 0 1:3.8260311 2:-1.1418991 
-1 0 1:3.7087506 2:-1.1728045 
-1 0 1:3.588181 2:-1.2056958 
-1 0 1:3.4605907 2:-1.2759035 
-1 0 1:3.3221606 2:-1.384301 
-1 0 1:3.172238 2:-1.4992257 
-1 0 1:3.0130777 2:-1.5916033 
-0 1 1:-2.4379997 2:-0.88264719 
-0 1 1:-2.5192594 2:-0.81259698 
-0 1 1:-2.5962628 2:-0.77003354 
-0 1 1:-2.6703868 2:-0.74123955 
-0 1 1:-2.7308986 2:-0.60511833 
-0 1 1:-2.7889211 2:-0.58022478 
-0 1 1:-2.8370799 2:-0.48158813 
-0 1 1:-2.882466 2:-0.45386094 
-0 1 1:-2.9167611 2:-0.34295085 
-0 1 1:-2.9529822 2:-0.3622112 
-0 1 1:-2.9915418 2:-0.38559592 
-0 1 1:-3.0225048 2:-0.30963077 
-0 1 1:-3.0541166 2:-0.31611739 
-0 1 1:-3.0854741 2:-0.31357487 
-0 1 1:-3.1159466 2:-0.30472509 
-0 1 1:-3.1412786 2:-0.25331983 
-0 1 1:-3.1637495 2:-0.22470885 
-0 1 1:-3.1850309 2:-0.21281423 
-0 1 1:-3.2050359 2:-0.20005017 
-0 1 1:-3.2230561 2:-0.18020228 
-0 1 1:-3.2378587 2:-0.14802552 
-0 1 1:-3.2489312 2:-0.11072499 
-0 1 1:-3.2566614 2:-0.077302299 
-0 1 1:-3.2622977 2:-0.056363036 
-0 1 1:-3.2670024 2:-0.047047028 
-1 1 1:4.3929731 2:-0.25122135 
-1 1 1:4.3635072 2:-0.29465911 
-1 0 1:4.3281169 2:-0.3539036 
-1 0 1:4.290515 2:-0.37601876 
-1 0 1:4.2519868 2:-0.38528229 
-1 0 1:4.2106098 2:-0.41376935 
-1 0 1:4.1654662 2:-0.45143631 
-1 0 1:4.1170534 2:-0.48412757 
-1 0 1:4.066211 2:-0.50842434 
-1 0 1:4.0126401 2:-0.53570875 
-1 0 1:3.9541839 2:-0.5845622 
-1 0 1:3.8921349 2:-0.62048985 
-1 0 1:3.8297961 2:-0.62338785 
-1 0 1:3.7614137 2:-0.68382456 
-1 0 1:3.6978441 2:-0.63569625 
-1 0 1:3.628071 2:-0.69773101 
-1 0 1:3.5613561 2:-0.66714854 
-1 0 1:3.4962953 2:-0.65060812 
-1 0 1:3.426727 2:-0.69568249 
-1 0 1:3.357107 2:-0.69620027 
-1 0 1:3.2877826 2:-0.69324369 
-1 0 1:3.2184003 2:-0.69382312 
-1 0 1:3.1489552 2:-0.6944516 
-1 0 1:3.0798663 2:-0.69088917 
-1 0 1:3.0118747 2:-0.67991579 
-1 0 1:2.9376443 2:-0.74230344 
-1 0 1:2.8665004 2:-0.71143924 
-1 0 1:2.8003579 2:-0.66142552 
-1 0 1:2.725818 2:-0.74539892 
-1 0 1:2.6552231 2:-0.70594845 
-1 0 1:2.5754984 2:-0.79724677 
-1 0 1:2.4986884 2:-0.76810083 
-1 0 1:2.4216466 2:-0.77041754 
-1 0 1:2.341221 2:-0.80425646 
-1 0 1:2.2548175 2:-0.86403436 
-1 0 1:2.1638819 2:-0.90935607 
-1 0 1:2.070971 2:-0.92910929 
-1 0 1:1.9760775 2:-0.94893519 
-1 0 1:1.8812427 2:-0.94834809 
-1 0 1:1.7856194 2:-0.95623248 
-1 0 1:1.6783637 2:-1.0725571 
-1 0 1:1.5791178 2:-0.99245937 
-1 0 1:1.4661189 2:-1.1299889 
-1 0 1:1.3621299 2:-1.0398895 
-0 1 1:-8.2254141 2:-1.4139393 
-0 1 1:-8.3484956 2:-1.2308152 
-0 1 1:-8.4535444 2:-1.050488 
-0 1 1:-8.5384907 2:-0.84946257 
-0 1 1:-8.6071508 2:-0.68660119 
-0 1 1:-8.6599784 2:-0.52827574 
-0 1 1:-3.1036758 2:-0.91820113 
-0 1 1:-3.1751255 2:-0.71449643 
-0 1 1:-3.2341083 2:-0.58982805 
-0 1 1:-3.2797267 2:-0.45618463 
-0 1 1:-3.313184 2:-0.33457238 
-1 0 1:7.3085876 2:-1.6218477 
-1 0 1:7.1483124 2:-1.6027528 
-1 0 1:6.9889397 2:-1.5937263 
-1 0 1:6.8267648 2:-1.6217489 
-1 0 1:6.6631251 2:-1.6363973 
-1 0 1:6.4982396 2:-1.6488549 
-1 0 1:6.3307064 2:-1.6753319 
-1 0 1:6.1572803 2:-1.7342609 
-1 0 1:5.9773669 2:-1.7991341 
-1 0 1:5.7904695 2:-1.8689743 
-1 0 1:5.5996146 2:-1.9085487 
-1 0 1:5.4040854 2:-1.9552927 
-1 0 1:5.2023413 2:-2.0174407 
-1 0 1:4.995193 2:-2.0714829 
-1 0 1:4.7859883 2:-2.0920475 
-0 1 1:-3.2677553 2:-1.0090605 
-0 1 1:-3.3548846 2:-0.87129273 
-0 1 1:-3.4314193 2:-0.76534689 
-0 1 1:-3.4992329 2:-0.67813597 
-0 1 1:-3.5615452 2:-0.62312282 
-1 0 1:3.4078085 2:-0.49824775 
-1 0 1:3.3487933 2:-0.59015222 
-1 0 1:3.2886159 2:-0.60177374 
-1 0 1:3.2253595 2:-0.63256424 
-1 0 1:3.1570344 2:-0.68325073 
-1 0 1:3.08381 2:-0.73224375 
-1 0 1:3.0084057 2:-0.75404324 
-1 0 1:2.9288336 2:-0.79572088 
-1 0 1:2.8456389 2:-0.83194711 
-1 0 1:2.7561286 2:-0.89510307 
-1 0 1:2.6639376 2:-0.92191033 
-1 0 1:2.5683528 2:-0.95584766 
-1 0 1:2.4677555 2:-1.0059734 
-1 0 1:2.3641404 2:-1.0361505 
-1 0 1:2.2602458 2:-1.0389458 
-1 0 1:2.1560707 2:-1.0417512 
-1 0 1:2.0501996 2:-1.0587115 
-1 0 1:1.9457717 2:-1.0442782 
-1 0 1:1.8306476 2:-1.1512413 
-1 0 1:1.7156245 2:-1.1502312 
-0 1 1:-2.6960646 2:-0.92514275 
-0 1 1:-2.7812817 2:-0.8521706 
-0 1 1:-2.856364 2:-0.7508229 
-0 1 1:-2.9230461 2:-0.66682101 
-0 1 1:-2.9877533 2:-0.64707215 
-0 1 1:-3.0559769 2:-0.68223659 
-0 1 1:-3.1346115 2:-0.78634556 
-0 1 1:-3.2295247 2:-0.94913169 
-0 1 1:-3.3310895 2:-1.0156484 
-0 1 1:-6.2449846 2:-1.2344258 
-0 1 1:-6.3598226 2:-1.1483795 
-0 1 1:-6.4628038 2:-1.029812 
-0 1 1:-6.5612038 2:-0.98400039 
-0 1 1:-6.6474559 2:-0.86252095 
-0 1 1:-6.7229934 2:-0.75537485 
-0 1 1:-6.7872775 2:-0.64284141 
-0 1 1:-6.840706 2:-0.53428514 
-0 1 1:-6.8802521 2:-0.3954607 
-0 1 1:-6.9100752 2:-0.29823064 
-0 1 1:-6.9300429 2:-0.1996771 
-0 1 1:-6.9401879 2:-0.10145056 
-0 1 1:-6.9400828 2:0.0010510173 
-0 1 1:-6.9274083 2:0.12674568 
-0 1 1:-6.9073344 2:0.20073824 
-0 1 1:-6.8856222 2:0.21712209 
-0 1 1:-6.8720087 2:0.13613575 
-0 1 1:-6.8636724 2:0.083362471 
-0 1 1:-6.8543178 2:0.093546221 
-0 1 1:-6.8539685 2:0.0034928883 
-0 1 1:-6.8581328 2:-0.041643063 
-0 1 1:-6.8719578 2:-0.1382503 
-0 1 1:-6.8909985 2:-0.19040646 
-0 1 1:-6.916994 2:-0.25995536 
-0 1 1:-6.9516695 2:-0.34675432 
-0 1 1:-6.9915451 2:-0.39875647 
-0 1 1:-7.0348292 2:-0.43284104 
-0 1 1:-7.0831495 2:-0.4832033 
-0 1 1:-7.1385504 2:-0.55400845 
-0 1 1:-7.2026189 2:-0.64068538 
-0 1 1:-7.2706542 2:-0.68035249 
-0 1 1:-7.3390159 2:-0.68361689 
-0 1 1:-7.4051771 2:-0.66161218 
-0 1 1:-7.4703937 2:-0.65216617 
-0 1 1:-7.5346483 2:-0.64254574 
-0 1 1:-7.597797 2:-0.63148726 
-0 1 1:-7.6593655 2:-0.61568558 
-0 1 1:-7.7199106 2:-0.60545018 
-0 1 1:-7.7822579 2:-0.62347346 
-0 1 1:-7.8411319 2:-0.58874029 
-0 1 1:-7.8900855 2:-0.48953597 
-0 1 1:-7.9258096 2:-0.35724094 
-0 1 1:-7.9586901 2:-0.32880429 
-0 1 1:-7.993959 2:-0.3526889 
-0 1 1:-8.0366698 2:-0.42710886 
-0 1 1:-8.0882688 2:-0.51598997 
-0 1 1:-8.1499038 2:-0.6163499 
-0 1 1:-8.2198104 2:-0.69906553 
-0 1 1:-8.2958315 2:-0.76021083 
-0 1 1:-8.3774286 2:-0.81597177 
-0 1 1:-8.4605795 2:-0.83150909 
-0 1 1:-8.5467931 2:-0.86213591 
-0 1 1:-8.6333692 2:-0.86576042 
-0 1 1:-8.7161492 2:-0.82779984 
-0 1 1:-8.7931463 2:-0.76997092 
-0 1 1:-8.867018 2:-0.73871731 
-0 1 1:-8.9399396 2:-0.72921645 
-0 1 1:-9.0115746 2:-0.71634958 
-0 1 1:-9.0815226 2:-0.6994806 
-0 1 1:-9.1454668 2:-0.63944144 
-0 1 1:-9.2006582 2:-0.55191369 
-0 1 1:-9.2442146 2:-0.43556478 
-0 1 1:-9.2790606 2:-0.3484599 
-0 1 1:-9.3011723 2:-0.22111706 
-0 1 1:-9.3137148 2:-0.12542455 
-0 1 1:-9.3164427 2:-0.027278855 
-0 1 1:-9.3089056 2:0.075370838 
-0 1 1:-9.2891996 2:0.19706032 
-0 1 1:-9.2594431 2:0.29756458 
-0 1 1:-9.278304 2:-0.18860893 
-0 1 1:-9.2891345 2:-0.10830515 
-0 1 1:-9.2940412 2:-0.049067275 
-0 1 1:-9.2870699 2:0.069713332 
-0 1 1:-9.2747442 2:0.12325687 
-1 0 1:5.181069 2:-0.37420697 
-1 0 1:5.1374869 2:-0.43582148 
-1 0 1:5.0905395 2:-0.46947354 
-1 0 1:5.0384884 2:-0.52051078 
-1 0 1:4.9795574 2:-0.58930995 
-1 0 1:4.9120581 2:-0.67499304 
-1 0 1:4.8367163 2:-0.75341831 
-1 0 1:4.7536073 2:-0.83108995 
-1 0 1:4.6606488 2:-0.92958482 
-1 0 1:4.5574621 2:-1.0318668 
-1 0 1:4.4445733 2:-1.128888 
-1 0 1:4.327156 2:-1.174173 
-1 0 1:4.2081746 2:-1.1898138 
-1 0 1:4.0909071 2:-1.1726757 
-1 0 1:3.9858585 2:-1.0504856 
-1 0 1:3.875456 2:-1.1040251 
-1 0 1:3.769173 2:-1.0628303 
-1 0 1:3.6493435 2:-1.1982951 
-1 0 1:3.5227888 2:-1.2655466 
-1 0 1:3.3881882 2:-1.3460066 
-1 0 1:3.2405234 2:-1.4766479 
-1 0 1:3.0909989 2:-1.4952446 
-1 0 1:2.9415222 2:-1.4947676 
-0 1 1:-4.0564474 2:-1.0559623 
-0 1 1:-4.1537581 2:-0.97310723 
-0 1 1:-4.2344953 2:-0.80737158 
-0 1 1:-4.3051589 2:-0.70663581 
-0 1 1:-4.3655542 2:-0.60395288 
-0 1 1:-4.4168652 2:-0.51311015 
-0 1 1:-4.460173 2:-0.43307812 
-0 1 1:-4.4994759 2:-0.39302921 
-0 1 1:-4.5382575 2:-0.38781608 
-0 1 1:-4.5761475 2:-0.37889982 
-0 1 1:-4.6129109 2:-0.36763388 
-0 1 1:-4.6485056 2:-0.35594658 
-1 0 1:0.076582531 2:-0.73306583 
-1 1 1:-0.33883827 2:-0.64056167 
-0 1 1:-0.4042947 2:-0.65456433 
-1 1 1:-0.46467044 2:-0.60375741 
-1 1 1:-0.51662828 2:-0.51957837 
-1 1 1:-0.55980955 2:-0.43181275 
-1 1 1:-0.59318898 2:-0.33379426 
-1 1 1:-0.58978792 2:0.034010602 
-1 1 1:-0.58925936 2:0.0052855678 
-1 1 1:-0.60392718 2:-0.14667818 
-1 1 1:-0.59171284 2:0.12214341 
-1 1 1:-0.60033592 2:-0.086230786 
-1 1 1:-0.60250238 2:-0.02166466 
-1 1 1:-0.62648367 2:-0.23981283 
-1 1 1:-0.62172342 2:0.047602431 
-1 1 1:-0.61783982 2:0.038836016 
-0 1 1:-3.9641559 2:-0.81799333 
-0 1 1:-4.017089 2:-0.52933015 
-0 1 1:-4.0601725 2:-0.43083539 
-0 1 1:-4.0935137 2:-0.33341211 
-0 1 1:-4.1296168 2:-0.3610313 
-0 1 1:-4.1690181 2:-0.39401217 
-0 1 1:-4.2107061 2:-0.41688037 
-0 1 1:-4.2491308 2:-0.38424691 
-1 0 1:6.3473411 2:-0.77523923 
-1 0 1:6.2660019 2:-0.81339201 
-1 0 1:6.1853148 2:-0.80687113 
-1 0 1:6.1015655 2:-0.83749318 
-1 0 1:6.0181669 2:-0.83398599 
-1 0 1:5.9304165 2:-0.87750417 
-1 0 1:5.8344923 2:-0.95924194 
-1 0 1:5.7350854 2:-0.99406861 
-1 0 1:5.6346993 2:-1.0038616 
-1 0 1:5.5328067 2:-1.0189254 
-1 0 1:5.4285472 2:-1.0425959 
-1 0 1:5.328812 2:-0.99735163 
-1 0 1:5.2361481 2:-0.92663938 
-1 0 1:5.1464438 2:-0.8970425 
-1 0 1:5.065214 2:-0.81229811 
-1 0 1:4.9965004 2:-0.68713635 
-1 0 1:4.9341317 2:-0.62368686 
-1 0 1:4.8854238 2:-0.48707856 
-1 0 1:4.8467757 2:-0.38648141 
-1 0 1:4.8095378 2:-0.3723789 
-1 1 1:4.7840706 2:-0.25467164 
-1 1 1:4.7679002 2:-0.16170375 
-1 1 1:4.7545904 2:-0.1330982 
-1 1 1:4.7458602 2:-0.087302036 
-1 1 1:4.7420322 2:-0.038280717 
-1 1 1:4.7420151 2:-0.00017029917 
-1 1 1:4.7413854 2:-0.0062968158 
-1 1 1:4.7364463 2:-0.049390989 
-1 1 1:4.7262725 2:-0.10173874 
-1 1 1:4.7118861 2:-0.14386322 
-1 1 1:4.6922753 2:-0.19610841 
-1 1 1:4.6769348 2:-0.15340553 
-1 1 1:4.6617999 2:-0.15134884 
-1 1 1:4.6446067 2:-0.17193161 
-1 1 1:4.6267098 2:-0.17896938 
-1 1 1:4.6069282 2:-0.1978153 
-1 1 1:4.5802334 2:-0.26694851 
-1 0 1:4.5500037 2:-0.30229641 
-1 0 1:4.5155943 2:-0.34409468 
-1 0 1:4.4764878 2:-0.39106532 
-1 0 1:4.4313087 2:-0.4517902 
-1 0 1:4.3852051 2:-0.46103679 
-1 0 1:4.3313426 2:-0.53862451 
-1 0 1:4.2798154 2:-0.51527162 
-1 0 1:4.2243681 2:-0.5544734 
-1 0 1:4.169601 2:-0.54767112 
-1 0 1:4.115529 2:-0.54071975 
-1 0 1:4.055316 2:-0.60213023 
-1 0 1:3.9971432 2:-0.58172802 
-1 0 1:3.9393732 2:-0.5777003 
-1 0 1:3.869218 2:-0.70155186 
-1 0 1:3.7961529 2:-0.73065054 
-1 0 1:3.7140178 2:-0.82135157 
-1 0 1:3.6275743 2:-0.86443456 
-1 0 1:3.5342083 2:-0.93366025 
-1 0 1:3.4391717 2:-0.95036564 
-1 0 1:3.3326872 2:-1.0648455 
-1 0 1:3.2271402 2:-1.0554692 
-1 0 1:3.1055619 2:-1.2157838 
-1 0 1:2.9872004 2:-1.1836145 
-1 0 1:2.8603456 2:-1.2685484 
-1 0 1:2.7302195 2:-1.3012603 
-1 0 1:2.6027807 2:-1.2743888 
-1 0 1:2.4737427 2:-1.2903796 
-1 0 1:2.3410659 2:-1.3267679 
-1 0 1:2.2151566 2:-1.2590933 
-1 0 1:2.0968585 2:-1.1829804 
-1 0 1:1.9852036 2:-1.1165492 
-1 0 1:1.8680903 2:-1.1711336 
-1 0 1:1.7561655 2:-1.1192477 
-1 0 1:1.6528696 2:-1.0329587 
-1 0 1:1.5589166 2:-0.93952971 
-1 0 1:1.4744952 2:-0.84421473 
-1 0 1:1.3904 2:-0.84095175 
-1 0 1:1.3099725 2:-0.80427469 
-1 0 1:1.2416474 2:-0.68325077 
-1 1 1:1.185401 2:-0.56246424 
-1 1 1:1.1423179 2:-0.43083156 
-1 1 1:1.1114662 2:-0.30851654 
-1 1 1:1.0749912 2:-0.36475007 
-1 1 1:1.0513693 2:-0.23621913 
-1 1 1:1.0402869 2:-0.11082369 
-1 1 1:1.0422369 2:0.019499753 
-1 1 1:1.0465414 2:0.043044933 
-1 1 1:1.0509368 2:0.043954431 
-1 1 1:1.0683607 2:0.17423901 
-1 1 1:1.0982319 2:0.29871134 
-1 1 1:1.1401223 2:0.41890437 
-1 1 1:1.1710896 2:0.30967287 
-1 1 1:1.2052847 2:0.34195099 
-1 1 1:1.2337719 2:0.28487188 
-1 1 1:1.2454858 2:0.1171391 
-1 1 1:1.2347268 2:-0.10758946 
-1 1 1:1.2211777 2:-0.13549173 
-1 1 1:1.2055414 2:-0.15636234 
-1 1 1:1.1823913 2:-0.23150118 
-1 1 1:1.1441364 2:-0.38254948 
-1 1 1:1.093689 2:-0.50447402 
-1 1 1:1.0355679 2:-0.58121051 
-1 0 1:0.96922381 2:-0.66344107 
-1 0 1:0.89248973 2:-0.76734083 
-1 0 1:0.80521725 2:-0.87272483 
-0 1 1:-4.5312011 2:-1.0369396 
-0 1 1:-4.6163468 2:-0.85145708 
-0 1 1:-4.6832161 2:-0.66869376 
-0 1 1:-4.7306571 2:-0.4744096 
-0 1 1:-4.7610429 2:-0.30385814 
-0 1 1:-4.7804605 2:-0.1941759 
-0 1 1:-4.7943698 2:-0.13909338 
-0 1 1:-4.8077746 2:-0.13404725 
-0 1 1:-4.8234883 2:-0.15713696 
-0 1 1:-4.841933 2:-0.1844478 
-0 1 1:-4.8595328 2:-0.1759972 
-0 1 1:-4.8705216 2:-0.10988805 
-0 1 1:-4.8781301 2:-0.076085714 
-0 1 1:-4.8869869 2:-0.088567845 
-0 1 1:-4.8979522 2:-0.10965268 
-0 1 1:-4.9160932 2:-0.18141009 
-0 1 1:-4.9409181 2:-0.24824941 
-0 1 1:-4.9741463 2:-0.33228129 
-0 1 1:-5.0174476 2:-0.43301346 
-0 1 1:-5.0722894 2:-0.54841783 
-0 1 1:-5.1404205 2:-0.68131131 
-0 1 1:-5.2192412 2:-0.78820652 
-0 1 1:-5.3031133 2:-0.83872116 
-0 1 1:-5.3856799 2:-0.82566579 
-0 1 1:-5.4595544 2:-0.73874523 
-0 1 1:-5.519664 2:-0.60109578 
-0 1 1:-5.560454 2:-0.40789997 
-0 1 1:-5.5890778 2:-0.28623832 
-0 1 1:-5.6104067 2:-0.21328902 
-0 1 1:-5.6346262 2:-0.24219463 
-0 1 1:-5.6611055 2:-0.26479288 
-0 1 1:-5.6895095 2:-0.28404019 
-0 1 1:-5.7199707 2:-0.30461235 
-0 1 1:-5.7529229 2:-0.32952139 
-0 1 1:-5.7879734 2:-0.35050581 
-0 1 1:-5.8252289 2:-0.37255441 
-0 1 1:-5.8680916 2:-0.42862769 
-0 1 1:-5.9167684 2:-0.48676756 
-0 1 1:-5.9607394 2:-0.43970967 
-0 1 1:-6.0045408 2:-0.43801433 
-0 1 1:-6.0363222 2:-0.31781411 
-0 1 1:-6.0649917 2:-0.28669437 
-0 1 1:-6.0822482 2:-0.17256576 
-0 1 1:-6.096192 2:-0.13943757 
-0 1 1:-6.1000453 2:-0.038533099 
-0 1 1:-6.0982571 2:0.017881653 
-0 1 1:-6.0885968 2:0.096603168 
-0 1 1:-6.0747468 2:0.13850036 
-0 1 1:-6.0667532 2:0.079935894 
-0 1 1:-6.0669973 2:-0.0024410327 
-0 1 1:-6.0829258 2:-0.15928496 
-0 1 1:-6.1215413 2:-0.3861554 
-0 1 1:-6.179871 2:-0.58329699 
-0 1 1:-6.2552179 2:-0.75346911 
-0 1 1:-6.3377444 2:-0.82526462 
-0 1 1:-6.4213531 2:-0.83608729 
-0 1 1:-6.5048204 2:-0.8346732 
-0 1 1:-6.5862281 2:-0.81407649 
-0 1 1:-6.6663685 2:-0.80140436 
-0 1 1:-6.7448204 2:-0.78451894 
-0 1 1:-6.8214663 2:-0.76645861 
-0 1 1:-6.8934605 2:-0.71994224 
-0 1 1:-6.9632656 2:-0.6980513 
-0 1 1:-7.0321095 2:-0.68843882 
-0 1 1:-7.0979902 2:-0.65880698 
-0 1 1:-7.1603607 2:-0.6237046 
-0 1 1:-7.222529 2:-0.62168328 
-0 1 1:-7.2784868 2:-0.5595777 
-0 1 1:-7.3340422 2:-0.55555448 
-0 1 1:-7.385935 2:-0.51892747 
-0 1 1:-7.4341478 2:-0.48212776 
-0 1 1:-7.4804623 2:-0.46314568 
-0 1 1:-7.5242085 2:-0.4374617 
-0 1 1:-7.5662367 2:-0.42028164 
-0 1 1:-7.603989 2:-0.37752296 
-0 1 1:-7.6326508 2:-0.2866186 
-0 1 1:-7.64896 2:-0.16309171 
-0 1 1:-7.6542356 2:-0.052755761 
-0 1 1:-7.6503622 2:0.038734018 
-0 1 1:-7.6385822 2:0.11779976 
-0 1 1:-7.6310489 2:0.075333093 
-0 1 1:-7.6315406 2:-0.0049172119 
-0 1 1:-7.6401752 2:-0.086346412 
-0 1 1:-7.6541732 2:-0.1399796 
-0 1 1:-7.6676465 2:-0.13473294 
-0 1 1:-7.680013 2:-0.1236655 
-0 1 1:-7.6941696 2:-0.14156545 
-0 1 1:-7.7061051 2:-0.11935511 
-0 1 1:-7.7193337 2:-0.13228657 
-0 1 1:-7.732148 2:-0.12814256 
-0 1 1:-7.7448028 2:-0.12654767 
-0 1 1:-7.7597255 2:-0.14922702 
-0 1 1:-7.7762647 2:-0.16539235 
-0 1 1:-7.791662 2:-0.15397285 
-0 1 1:-7.8088256 2:-0.17163584 
-0 1 1:-7.8275023 2:-0.18676736 
-0 1 1:-7.8467615 2:-0.19259197 
-0 1 1:-7.8671554 2:-0.20393883 
-0 1 1:-7.887888 2:-0.20732622 
-0 1 1:-7.9106795 2:-0.22791452 
-0 1 1:-7.9416112 2:-0.30931696 
-0 1 1:-7.9814779 2:-0.39866757 
-0 1 1:-8.0257747 2:-0.44296762 
-0 1 1:-8.0709581 2:-0.45183399 
-0 1 1:-8.1148444 2:-0.43886322 
-0 1 1:-8.149462 2:-0.34617582 
-0 1 1:-8.1735452 2:-0.2408318 
-0 1 1:-8.1910806 2:-0.17535445 
-0 1 1:-8.2038427 2:-0.12762041 
-0 1 1:-8.2147348 2:-0.10892182 
-0 1 1:-8.2261359 2:-0.11401085 
-0 1 1:-8.2369937 2:-0.10857778 
-0 1 1:-8.2468272 2:-0.098334652 
-0 1 1:-8.2569417 2:-0.10114509 
-0 1 1:-8.2659227 2:-0.089809926 
-0 1 1:-8.2735173 2:-0.075945969 
-0 1 1:-8.2798447 2:-0.063273948 
-1 0 1:8.2268132 2:-1.8577858 
-1 0 1:8.0186475 2:-2.0816574 
-1 0 1:7.7917755 2:-2.2687201 
-1 0 1:7.5447424 2:-2.4703304 
-1 0 1:7.2742537 2:-2.7048871 
-1 1 1:6.3145706 2:0.69143008 
-1 1 1:6.3826879 2:0.68117322 
-1 1 1:6.4443642 2:0.61676218 
-1 1 1:6.4982573 2:0.53893168 
-1 1 1:6.5392202 2:0.40962834 
-1 1 1:6.5682616 2:0.29041478 
-1 1 1:6.5860769 2:0.17815231 
-1 1 1:6.5928487 2:0.067718629 
