svm_type c_svc
kernel_type rbf
gamma 0.0625
nr_class 4
total_sv 7013
rho 12.4859 -0.40442 0.083776 -0.0897578 0.579948 -5.6566
label 1 2 3 4
probA -2.25077 -3.65508 -3.5024 -2.06463 -3.30219 -2.03425
probB 0.283375 -0.123001 -0.376487 0.0345926 -0.00497394 -0.385423
nr_sv 1376 1605 2138 1894
SV
8 0 0 1:0.71166062 2:-0.20365018 
8 0 0 1:0.69746857 2:-0.2175339 
8 0 0 1:0.68317202 2:-0.21913562 
8 0 0 1:0.66925559 2:-0.2133093 
8 0 0 1:0.65586071 2:-0.20531498 
8 0 0 1:0.64313618 2:-0.19503996 
8 0 0 1:0.63083988 2:-0.18847603 
8 0 0 1:0.61893112 2:-0.18253594 
8 0 0 1:0.60743093 2:-0.17627335 
8 0 0 1:0.59633596 2:-0.17006231 
8 0 0 1:0.58564219 2:-0.16391271 
8 0 0 1:0.57535077 2:-0.1577455 
8 0 0 1:0.70584133 2:-0.2077955 
8 0 0 1:0.68963046 2:-0.24847805 
8 0 0 1:0.67055226 2:-0.29242816 
8 0 0 1:0.64898889 2:-0.33052046 
8 0 0 1:0.62505962 2:-0.36678478 
8 0 0 1:0.598511 2:-0.40693371 
8 0 0 1:0.56918537 2:-0.44949952 
8 0 0 1:0.53712701 2:-0.49138633 
8 0 0 1:0.50226978 2:-0.53428696 
8 0 0 1:1.1600595 2:-0.29334902 
8 0 0 1:1.137863 2:-0.3402244 
8 0 0 1:1.1132373 2:-0.3774605 
8 0 0 1:1.0867715 2:-0.40566334 
8 0 0 1:1.0588115 2:-0.42856842 
8 0 0 1:1.029225 2:-0.45349747 
8 0 0 1:0.99705174 2:-0.49314743 
8 0 0 1:0.96208185 2:-0.53601393 
8 0 0 1:1.0242434 2:-0.26928715 
8 0 0 1:1.0051719 2:-0.29232625 
8 0 0 1:0.98466377 2:-0.31434581 
8 0 0 1:0.96350789 2:-0.32427453 
8 0 0 1:0.94256867 2:-0.32095359 
8 0 0 1:0.92221772 2:-0.3119367 
8 0 0 1:0.90240848 2:-0.30363353 
8 0 0 1:0.88299884 2:-0.29750827 
8 0 0 1:0.86402388 2:-0.29084582 
8 0 0 1:0.84553722 2:-0.2833611 
8 0 0 1:0.8274187 2:-0.27771828 
8 0 0 1:0.80948082 2:-0.27494942 
8 0 0 1:0.79240784 2:-0.26169236 
8 0 0 1:0.77660447 2:-0.24223207 
8 0 0 1:0.76255088 2:-0.21541156 
8 0 0 1:0.74418062 2:-0.22650103 
8 0 0 1:0.72628791 2:-0.27425699 
8 0 0 1:0.70521316 2:-0.3230311 
8 0 0 1:0.68075889 2:-0.37483187 
8 0 0 1:0.65303568 2:-0.42493764 
8 0 0 1:0.62164829 2:-0.4811019 
8 0 0 1:0.58677928 2:-0.5344675 
8 0 0 1:0.54876554 2:-0.58266972 
8 0 0 1:0.50752609 2:-0.63211282 
8 0 0 1:0.46290281 2:-0.68397976 
8 0 0 1:0.67754436 2:-0.19854425 
8 0 0 1:0.66731182 2:-0.21687042 
8 0 0 1:0.65645857 2:-0.23243572 
8 0 0 1:0.64509824 2:-0.24610688 
8 0 0 1:0.63368936 2:-0.25252614 
8 0 0 1:0.62229666 2:-0.25739514 
8 0 0 1:0.61110724 2:-0.25887194 
8 0 0 1:0.60045737 2:-0.25460908 
8 0 0 1:0.58992802 2:-0.25602847 
8 0 0 1:0.58071363 2:-0.23877544 
8 0 0 1:0.57268682 2:-0.22239309 
8 0 0 1:0.56565069 2:-0.20815504 
8 0 0 1:0.5525883 2:-0.20021859 
8 0 0 1:0.5400835 2:-0.19167191 
8 0 0 1:0.5284571 2:-0.17820799 
8 0 0 1:0.51775966 2:-0.16396897 
8 0 0 1:0.50798879 2:-0.14976651 
8 0 0 1:0.49915477 2:-0.13540676 
4.640763737329702 0 0 1:0.49132101 2:-0.12007486 
8 0 0 1:1.1035759 2:-0.28997785 
8 0 0 1:1.08261 2:-0.3213632 
8 0 0 1:1.0594849 2:-0.35445731 
8 0 0 1:1.0344274 2:-0.38407859 
8 0 0 1:1.0076717 2:-0.41010735 
8 0 0 1:0.75365498 2:-0.22494699 
8 0 0 1:0.738977 2:-0.22498225 
8 0 0 1:0.72459232 2:-0.22048653 
8 0 0 1:0.71042625 2:-0.21713561 
8 0 0 1:0.69633113 2:-0.21604805 
8 0 0 1:0.68255315 2:-0.21118711 
8 0 0 1:0.66938816 2:-0.20179124 
8 0 0 1:0.65658148 2:-0.19629909 
8 0 0 1:0.64413513 2:-0.19077601 
8 0 0 1:0.63207239 2:-0.18489623 
8 0 0 1:0.62035222 2:-0.17964523 
8 0 0 1:0.60902376 2:-0.17364105 
8 0 0 1:0.59789893 2:-0.17051995 
8 0 0 1:0.74278002 2:-0.24442859 
8 0 0 1:0.72445408 2:-0.28089753 
8 0 0 1:0.70377478 2:-0.3169697 
8 0 0 1:0.68136272 2:-0.34352908 
8 0 0 1:0.65716082 2:-0.37096359 
8 0 0 1:0.63098144 2:-0.40127401 
8 0 0 1:0.6027742 2:-0.43235699 
8 0 0 1:0.57318555 2:-0.45353087 
8 0 0 1:0.54158642 2:-0.48434735 
8 0 0 1:0.71715852 2:-0.227617 
8 0 0 1:0.70019605 2:-0.25999848 
8 0 0 1:0.68117275 2:-0.2915867 
8 0 0 1:0.66035733 2:-0.31905607 
8 0 0 1:0.63792091 2:-0.3439025 
8 0 0 1:0.61346169 2:-0.37490772 
8 0 0 1:0.58684089 2:-0.40804017 
8 0 0 1:0.99712093 2:-0.2679099 
8 0 0 1:0.97966149 2:-0.26761611 
8 0 0 1:1.0917045 2:-0.29108848 
8 0 0 1:1.0700108 2:-0.33251801 
8 0 0 1:1.0454442 2:-0.37655455 
8 0 0 1:1.0181796 2:-0.41790813 
8 0 0 1:0.98832805 2:-0.45756015 
8 0 0 1:0.95603308 2:-0.49501316 
8 0 0 1:0.74010013 2:-0.214993 
8 0 0 1:0.72506615 2:-0.23043893 
8 0 0 1:0.7091624 2:-0.24377055 
8 0 0 1:0.69226753 2:-0.25896242 
8 0 0 1:0.67488487 2:-0.26643902 
8 0 0 1:0.65684353 2:-0.27653539 
8 0 0 1:0.63853456 2:-0.2806374 
8 0 0 1:0.89781675 2:-0.26234687 
8 0 0 1:0.87961847 2:-0.27894089 
8 0 0 1:0.86105298 2:-0.28456935 
8 0 0 1:0.84239341 2:-0.28601151 
8 0 0 1:0.82414192 2:-0.27975643 
8 0 0 1:0.80690273 2:-0.26424006 
8 0 0 1:0.79016027 2:-0.25662615 
8 0 0 1:0.77411773 2:-0.245898 
8 0 0 1:0.75897114 2:-0.23216494 
8 0 0 1:0.74443272 2:-0.22284289 
8 0 0 1:0.7304572 2:-0.21421502 
8 0 0 1:0.71718858 2:-0.20337973 
8 0 0 1:0.53730421 2:-0.16690516 
8 0 0 1:0.52282723 2:-0.22190111 
8 0 0 1:0.50489445 2:-0.27487142 
8 0 0 1:0.48349145 2:-0.32806227 
8 0 0 1:0.45818424 2:-0.38790564 
8 0 0 1:0.42900436 2:-0.4472654 
8 0 0 1:0.39611979 2:-0.5040503 
8 8 0 1:0.35975998 2:-0.5573185 
8 8 0 1:0.32060116 2:-0.60022115 
8 8 0 1:0.27885814 2:-0.63983165 
8 8 0 1:0.23494664 2:-0.67306965 
8 0 0 1:0.81021766 2:-0.22922402 
8 0 0 1:0.79479475 2:-0.23640037 
8 0 0 1:0.77949541 2:-0.23450626 
8 0 0 1:0.76464201 2:-0.22767107 
8 0 0 1:0.75004863 2:-0.2236854 
8 0 0 1:0.73566339 2:-0.22049501 
8 0 0 1:0.72130651 2:-0.2200604 
8 0 0 1:0.70669441 2:-0.22397237 
8 0 0 1:0.6917704 2:-0.22875333 
8 0 0 1:0.67646088 2:-0.23466229 
8 0 0 1:0.66017101 2:-0.24968899 
8 0 0 1:0.64248584 2:-0.27107589 
8 0 0 1:0.62355289 2:-0.29020175 
8 0 0 1:0.60377188 2:-0.30320073 
8 0 0 1:0.5836912 2:-0.30779405 
8 0 0 1:0.56418414 2:-0.29900175 
8 0 0 1:0.5458272 2:-0.28137266 
8 0 0 1:0.52919674 2:-0.25490951 
8 0 0 1:0.51469236 2:-0.2223213 
8 0 0 1:0.50212566 2:-0.19262072 
8 0 0 1:0.49154612 2:-0.16216185 
8 0 0 1:0.48292654 2:-0.13211976 
8 0 0 1:0.57669433 2:-0.1682856 
8 0 0 1:0.5627351 2:-0.2139652 
8 0 0 1:0.54604014 2:-0.25589816 
8 0 0 1:0.52703445 2:-0.29131665 
8 0 0 1:0.5063401 2:-0.3172003 
8 0 0 1:0.48368456 2:-0.34726118 
8 0 0 1:0.4589274 2:-0.37947453 
8 0 0 1:0.43217984 2:-0.40998303 
8 0 0 1:0.67887612 2:-0.19247404 
8 0 0 1:0.66585985 2:-0.19951172 
8 0 0 1:0.65324979 2:-0.19328535 
8 0 0 1:0.64153824 2:-0.17951315 
8 0 0 1:0.6693696 2:-0.21924343 
8 0 0 1:0.65335231 2:-0.24551089 
8 0 0 1:0.63588604 2:-0.26772081 
8 0 0 1:0.61702037 2:-0.28917049 
8 0 0 1:0.59655283 2:-0.31372376 
8 0 0 1:0.57505393 2:-0.32953226 
8 0 0 1:0.52423141 2:-0.16187056 
8 0 0 1:0.51167973 2:-0.19239056 
8 0 0 1:0.49827885 2:-0.20540689 
8 0 0 1:0.48428649 2:-0.21447311 
8 0 0 1:0.46956592 2:-0.22563493 
8 0 0 1:0.45415831 2:-0.23616588 
8 0 0 1:0.43815126 2:-0.24535386 
8 0 0 1:0.42206738 2:-0.2465316 
8 0 0 1:0.40664035 2:-0.23646359 
8 0 0 1:0.39242446 2:-0.2178993 
8 0 0 1:0.37940363 2:-0.1995815 
8 0 0 1:0.36728071 2:-0.18581857 
8 0 0 1:0.35653626 2:-0.16468949 
8 0 0 1:0.34777428 2:-0.13430246 
8 0 0 1:0.34082177 2:-0.10656726 
8 0 0 1:0.33525913 2:-0.085263394 
8 0 0 1:0.33080025 2:-0.068345122 
8 0 0 1:0.32749946 2:-0.050594026 
8 0 0 1:0.4196457 2:-0.10462043 
8 0 0 1:0.40933927 2:-0.1579756 
8 0 0 1:0.39621268 2:-0.20120269 
8 0 0 1:0.38168691 2:-0.22264913 
8 0 0 1:0.36552585 2:-0.24771459 
8 0 0 1:0.34738443 2:-0.27806924 
8 0 0 1:0.32762816 2:-0.30282164 
8 8 0 1:0.30597545 2:-0.33188984 
8 8 0 1:0.28245606 2:-0.36050219 
8 0 0 1:0.63241461 2:-0.18145435 
8 0 0 1:0.6198834 2:-0.19207677 
8 0 0 1:0.60666908 2:-0.20254736 
8 0 0 1:0.59274306 2:-0.21345628 
8 0 0 1:0.57812232 2:-0.22410466 
8 0 0 1:0.56282325 2:-0.23450215 
8 0 0 1:0.54731948 2:-0.23763986 
8 0 0 1:0.53179792 2:-0.23791233 
8 0 0 1:0.51628737 2:-0.2377438 
8 0 0 1:0.50080613 2:-0.23729442 
8 0 0 1:0.48530132 2:-0.23765562 
8 0 0 1:0.46978681 2:-0.23780435 
8 0 0 1:0.45429978 2:-0.23738314 
8 0 0 1:0.43835945 2:-0.2443313 
8 0 0 1:0.4219878 2:-0.25094248 
8 0 0 1:0.40521925 2:-0.25702616 
8 0 0 1:0.38811678 2:-0.26214444 
8 0 0 1:0.37052415 2:-0.26965749 
8 0 0 1:0.35241472 2:-0.27757905 
8 0 0 1:0.33406619 2:-0.28124376 
8 0 0 1:0.31631886 2:-0.27202876 
8 0 0 1:0.30005309 2:-0.24931964 
8 0 0 1:0.28606067 2:-0.21447392 
8 0 0 1:0.27413552 2:-0.18278714 
8 0 0 1:0.26365914 2:-0.16058069 
8 0 0 1:0.25406825 2:-0.14700787 
8 8 0 1:0.2450165 2:-0.13874408 
8 8 0 1:0.23638177 2:-0.13235189 
8 8 0 1:0.22852211 2:-0.12047189 
8 8 0 1:0.22181708 2:-0.10277383 
8 8 0 1:0.21597753 2:-0.089507857 
8 8 0 1:0.21066714 2:-0.081396951 
8 8 0 1:0.20608109 2:-0.070294385 
8 8 0 1:0.20282015 2:-0.049983236 
8 8 0 1:0.20080179 2:-0.030937125 
8 8 6.260303799132242 1:0.19968536 2:-0.017112464 
8 0 8 1:0.19974829 2:0.00096455437 
8 0 0 1:0.20097376 2:0.018783849 
8 0 0 1:0.41453471 2:-0.11070752 
8 0 0 1:0.40457763 2:-0.15262079 
8 0 0 1:0.39185283 2:-0.19504408 
8 0 0 1:0.37643475 2:-0.23632633 
8 0 0 1:0.35807983 2:-0.28134191 
8 0 0 1:0.33694008 2:-0.32402731 
8 8 0 1:0.31285 2:-0.36924952 
8 8 0 1:0.28605366 2:-0.41073075 
8 0 0 1:0.80307057 2:-0.23464246 
8 0 0 1:0.78600072 2:-0.26164449 
8 0 0 1:0.76727437 2:-0.28703493 
8 0 0 1:0.74719516 2:-0.30777162 
8 0 0 1:0.72608573 2:-0.32356254 
8 0 0 1:0.70474757 2:-0.32706843 
8 0 0 1:0.68428629 2:-0.31362781 
8 0 0 1:0.66487669 2:-0.29750778 
8 0 0 1:0.6462909 2:-0.2848806 
8 0 0 1:0.62817829 2:-0.27762766 
8 0 0 1:0.61062655 2:-0.26903084 
8 0 0 1:0.59411336 2:-0.25311198 
8 0 0 1:0.5786464 2:-0.23707549 
8 0 0 1:0.564372 2:-0.21879619 
8 0 0 1:0.55114689 2:-0.20271281 
8 0 0 1:0.5393267 2:-0.18117827 
8 0 0 1:0.52903997 2:-0.15767365 
8 0 0 1:0.52025777 2:-0.13461241 
8 0 0 1:0.70742117 2:-0.24073486 
8 0 0 1:0.6885994 2:-0.28849757 
8 0 0 1:0.66621633 2:-0.34308479 
8 0 0 1:0.64032613 2:-0.39684154 
8 0 0 1:0.85942345 2:-0.24098762 
8 0 0 1:0.84194826 2:-0.26785744 
8 0 0 1:0.82312024 2:-0.28859349 
8 0 0 1:0.80318785 2:-0.30552112 
8 0 0 1:0.78224019 2:-0.32108286 
8 0 0 1:1.1372291 2:-0.268421 
8 0 0 1:1.118308 2:-0.29002076 
8 0 0 1:1.0982683 2:-0.30716605 
8 0 0 1:1.0784312 2:-0.30405994 
8 0 0 1:1.059288 2:-0.29342423 
8 0 0 1:1.0408484 2:-0.28264058 
8 0 0 1:1.0237706 2:-0.2617661 
8 0 0 1:0.82448882 2:-0.23710667 
8 0 0 1:0.808265 2:-0.24867658 
8 0 0 1:0.79205607 2:-0.24844843 
8 0 0 1:0.77567976 2:-0.25101389 
8 0 0 1:0.75921419 2:-0.25238211 
8 0 0 1:0.7425868 2:-0.25486245 
8 0 0 1:0.72556479 2:-0.26091111 
8 0 0 1:0.70800917 2:-0.2690903 
8 0 0 1:0.69002993 2:-0.27558344 
8 0 0 1:0.67156762 2:-0.28298786 
8 0 0 1:0.65270426 2:-0.28913516 
8 0 0 1:0.63318018 2:-0.2992625 
8 0 0 1:0.61309626 2:-0.30784363 
8 0 0 1:0.59240485 2:-0.31715534 
8 0 0 1:0.57127046 2:-0.3239451 
8 0 0 1:0.5496365 2:-0.33160249 
8 0 0 1:0.52738743 2:-0.34103083 
8 0 0 1:0.50495249 2:-0.34387984 
8 0 0 1:0.48233369 2:-0.34669799 
8 0 0 1:0.4593383 2:-0.35247029 
8 0 0 1:0.43644015 2:-0.35097988 
8 0 0 1:0.41466454 2:-0.3337736 
8 0 0 1:0.3941922 2:-0.31379741 
8 0 0 1:0.37476752 2:-0.29773889 
8 0 0 1:0.35591284 2:-0.2890021 
8 0 0 1:0.33784353 2:-0.27696404 
8 0 0 1:0.32092877 2:-0.25926717 
8 0 0 1:0.3052727 2:-0.23997429 
8 0 0 1:0.29086017 2:-0.22091325 
8 0 0 1:0.27765557 2:-0.20239841 
8 0 0 1:0.26561341 2:-0.18458066 
8 8 0 1:0.25511102 2:-0.16097931 
8 7.539656174743223 0 1:0.24629513 2:-0.1351288 
8 0 0 1:0.23913712 2:-0.10971699 
8 0 0 1:0.23335831 2:-0.088576843 
8 0 0 1:0.22888552 2:-0.06855832 
8 0 0 1:0.22592784 2:-0.045334912 
8 0 0 1:0.22439632 2:-0.023474949 
8 0 0 1:0.22436136 2:-0.0005359734 
8 0 0 1:0.22567549 2:0.020142814 
8 0 0 1:0.63196494 2:-0.18043289 
8 0 0 1:0.6186719 2:-0.20375396 
8 0 0 1:0.60462944 2:-0.21524092 
8 0 0 1:0.59030381 2:-0.21958146 
8 0 0 1:0.57624449 2:-0.21549933 
8 0 0 1:0.56172162 2:-0.22260471 
8 0 0 1:1.1506258 2:-0.26977378 
8 0 0 1:1.1325037 2:-0.27777401 
8 0 0 1:1.1145279 2:-0.27552943 
8 0 0 1:0.7185656 2:-0.20902917 
8 0 0 1:0.7048866 2:-0.20966997 
8 0 0 1:0.6914487 2:-0.20597442 
8 0 0 1:0.67801548 2:-0.20590259 
8 0 0 1:0.6646865 2:-0.20430489 
8 0 0 1:0.65133395 2:-0.20466614 
8 0 0 1:0.63798401 2:-0.20462606 
8 0 0 1:0.62458347 2:-0.20540181 
8 0 0 1:0.61098338 2:-0.20846035 
8 0 0 1:0.5967605 2:-0.2180065 
8 0 0 1:0.581871 2:-0.22822428 
8 0 0 1:0.56669974 2:-0.23254306 
8 0 0 1:0.5521524 2:-0.2229797 
8 0 0 1:0.53918541 2:-0.19875635 
8 0 0 1:0.52894663 2:-0.15693872 
8 0 0 1:0.51588312 2:-0.1461731 
8 0 0 1:0.50481129 2:-0.16970752 
8 0 0 1:0.49311302 2:-0.17930967 
8 0 0 1:0.48160455 2:-0.17640027 
8 0 0 1:0.47055302 2:-0.1693964 
8 0 0 1:0.46000643 2:-0.16165671 
8 0 0 1:0.44992485 2:-0.15452924 
8 0 0 1:0.44039287 2:-0.14610495 
8 0 0 1:0.43176784 2:-0.13220318 
8 0 0 1:0.42406406 2:-0.11808259 
8 0 0 1:0.41729748 2:-0.10371721 
8 0 0 1:0.41145407 2:-0.089566997 
8 0 0 1:0.40589498 2:-0.085209041 
8 0 0 1:0.40049704 2:-0.082738944 
8 0 0 1:0.39529998 2:-0.079659853 
8 0 0 1:0.39041493 2:-0.074877364 
8 0 0 1:0.39752523 2:-0.1191004 
8 0 0 1:0.38742231 2:-0.15485625 
8 0 0 1:0.3754881 2:-0.18292599 
8 0 0 1:0.90344788 2:-0.24761145 
8 0 0 1:0.88510784 2:-0.28111371 
8 0 0 1:0.86445697 2:-0.31653383 
8 0 0 1:0.84197114 2:-0.34465984 
8 0 0 1:0.81795731 2:-0.36808088 
8 0 0 1:0.79239378 2:-0.39183444 
8 0 0 1:0.76672788 2:-0.39340358 
8 0 0 1:0.7419987 2:-0.37904553 
8 0 0 1:0.71940978 2:-0.34624006 
8 0 0 1:0.69789945 2:-0.32970743 
8 0 0 1:0.67713179 2:-0.318324 
8 0 0 1:0.6561777 2:-0.32118156 
8 0 0 1:0.63583204 2:-0.31185562 
8 0 0 1:0.61620549 2:-0.30083312 
8 0 0 1:0.59735579 2:-0.28892586 
8 0 0 1:0.57993622 2:-0.26700488 
8 0 0 1:0.56426972 2:-0.24013406 
8 0 0 1:0.55037333 2:-0.21300197 
8 0 0 1:0.53808712 2:-0.18832149 
8 0 0 1:0.52687683 2:-0.17182975 
8 0 0 1:0.51670232 2:-0.15595355 
8 0 0 1:0.50762406 2:-0.13915037 
8 0 0 1:0.60021961 2:-0.17209771 
8 0 0 1:0.58712456 2:-0.20071913 
8 0 0 1:0.57209239 2:-0.23041112 
8 0 0 1:0.55557032 2:-0.25324809 
8 0 0 1:0.53730813 2:-0.27992048 
8 0 0 1:0.51790845 2:-0.29735577 
8 0 0 1:0.49857527 2:-0.29633651 
8 0 0 1:0.48035472 2:-0.27928217 
8 0 0 1:0.4626515 2:-0.27135259 
8 0 0 1:0.44492629 2:-0.27168968 
8 0 0 1:0.42732743 2:-0.26975304 
8 0 0 1:0.41112332 2:-0.24837456 
8 0 0 1:0.39643526 2:-0.22513665 
8 0 0 1:0.38346945 2:-0.19873813 
8 0 0 1:0.37193593 2:-0.17678427 
8 0 0 1:0.36183654 2:-0.15480224 
8 0 0 1:0.35324954 2:-0.13162034 
8 0 0 1:0.34596081 2:-0.11172067 
8 0 0 1:0.34020788 2:-0.088180131 
8 0 0 1:0.3358381 2:-0.066979532 
8 0 0 1:0.33286176 2:-0.045620846 
8 0 0 1:0.39995066 2:-0.076696113 
8 0 0 1:0.39478962 2:-0.079107786 
8 0 0 1:0.38964414 2:-0.078869199 
8 0 0 1:0.38453557 2:-0.078303467 
8 0 0 1:0.37948313 2:-0.07744318 
8 0 0 1:0.37444319 2:-0.077251428 
8 0 0 1:0.36944029 2:-0.07668393 
8 0 0 1:0.36447834 2:-0.076056021 
8 0 0 1:0.35954457 2:-0.075624244 
8 0 0 1:0.35472493 2:-0.073874711 
8 0 0 1:0.35020551 2:-0.069273076 
8 0 0 1:0.34592523 2:-0.065607678 
8 0 0 1:0.34184288 2:-0.062573754 
8 0 0 1:0.33801863 2:-0.058617498 
8 0 0 1:0.33449195 2:-0.054056574 
8 0 0 1:0.33116235 2:-0.051035634 
8 0 0 1:0.32804176 2:-0.047831944 
8 0 0 1:0.32504971 2:-0.045861813 
8 0 0 1:0.32240084 2:-0.040601457 
8 0 0 1:0.32003833 2:-0.036212239 
8 0 0 1:0.31782055 2:-0.033993837 
8 0 0 1:0.34641867 2:-0.051560343 
8 0 0 1:0.34285774 2:-0.054581508 
8 0 0 1:0.33897888 2:-0.059454602 
8 0 0 1:0.3347656 2:-0.064580676 
8 0 0 1:0.33065023 2:-0.06307974 
8 0 0 1:0.32670932 2:-0.060405878 
8 0 0 1:0.32337579 2:-0.051095814 
8 0 0 1:0.32062155 2:-0.042216705 
7.992497891249662 0 0 1:0.31849547 2:-0.032588238 
8 0 0 1:0.46505574 2:-0.11698382 
8 0 0 1:0.45716352 2:-0.12097081 
8 0 0 1:0.45003422 2:-0.10927699 
8 0 0 1:0.4430066 2:-0.10771842 
8 0 0 1:0.43567812 2:-0.11233007 
8 0 0 1:0.42827936 2:-0.11340715 
8 0 0 1:0.42037201 2:-0.12120284 
8 0 0 1:0.41156665 2:-0.13496748 
8 0 0 1:1.3899625 2:-0.25333537 
8 0 0 1:1.3727247 2:-0.26421881 
8 0 0 1:1.3552607 2:-0.26768645 
8 0 0 1:1.3376881 2:-0.26934951 
8 0 0 1:1.3199227 2:-0.27230647 
8 0 0 1:1.3027361 2:-0.26343338 
8 0 0 1:1.0194507 2:-0.32389986 
8 0 0 1:0.99414243 2:-0.38792128 
8 0 0 1:0.9650003 2:-0.44668682 
8 0 0 1:0.93188173 2:-0.50763702 
8 0 0 1:0.89460522 2:-0.57136951 
8 0 0 1:0.85361683 2:-0.62826465 
8 0 0 1:0.80919015 2:-0.68096628 
8 0 0 1:0.76271398 2:-0.71238068 
8 0 0 1:0.71506227 2:-0.73039914 
8 0 0 1:1.0630072 2:-0.27559471 
8 0 0 1:1.0447559 2:-0.27975255 
8 0 0 1:1.0265089 2:-0.27968847 
8 0 0 1:1.0089554 2:-0.269057 
8 0 0 1:0.7136044 2:-0.21437824 
8 0 0 1:0.69681314 2:-0.25737423 
8 0 0 1:0.67783068 2:-0.29096062 
8 0 0 1:0.65682353 2:-0.32199487 
8 0 0 1:0.63336776 2:-0.35952701 
8 0 0 1:0.60770766 2:-0.39331455 
8 0 0 1:0.58035636 2:-0.41923717 
8 0 0 1:0.55173357 2:-0.43872634 
8 0 0 1:0.52187244 2:-0.45770745 
8 0 0 1:0.49048582 2:-0.48109002 
8 0 0 1:0.45770955 2:-0.50239047 
8 0 0 1:0.42363559 2:-0.52228118 
8 0 0 1:0.65740241 2:-0.18947286 
8 0 0 1:0.64440166 2:-0.19927372 
8 0 0 1:0.63155261 2:-0.1969486 
8 0 0 1:0.61891141 2:-0.19376268 
8 0 0 1:0.60631889 2:-0.19301654 
8 0 0 1:0.59407622 2:-0.18765395 
8 0 0 1:0.58266748 2:-0.17487167 
8 0 0 1:0.74435713 2:-0.23671786 
8 0 0 1:0.72784411 2:-0.25310941 
8 0 0 1:0.71037924 2:-0.26769921 
8 0 0 1:0.69225147 2:-0.27786004 
8 0 0 1:0.67374221 2:-0.2837075 
8 0 0 1:0.65481871 2:-0.29005693 
8 0 0 1:0.63528905 2:-0.29934814 
8 0 0 1:0.61599104 2:-0.29579732 
8 0 0 1:0.59771287 2:-0.28016534 
8 0 0 1:1.410109 2:-0.28090588 
8 0 0 1:1.3892581 2:-0.31960083 
8 0 0 1:1.3654425 2:-0.36504209 
8 0 0 1:1.3386051 2:-0.41136041 
8 0 0 1:1.0008149 2:-0.26097354 
8 0 0 1:0.98242815 2:-0.28183047 
8 0 0 1:0.96338442 2:-0.29189979 
8 0 0 1:0.94451259 2:-0.28926489 
8 0 0 1:0.92689481 2:-0.27004302 
8 0 0 1:0.83731314 2:-0.25369097 
8 0 0 1:0.82079854 2:-0.25313366 
8 0 0 1:0.80425881 2:-0.2535188 
8 0 0 1:0.78742708 2:-0.25799446 
8 0 0 1:0.77047146 2:-0.25989359 
8 0 0 1:0.7541486 2:-0.25019461 
8 0 0 1:0.73881568 2:-0.23502099 
8 0 0 1:0.72452347 2:-0.21906908 
8 0 0 1:0.71126511 2:-0.20322243 
8 0 0 1:0.83745654 2:-0.2385138 
8 0 0 1:0.82027742 2:-0.26331922 
8 0 0 1:0.80196666 2:-0.28066486 
8 0 0 1:0.78332871 2:-0.28568012 
8 0 0 1:0.76605179 2:-0.26481831 
8 0 0 1:0.75190576 2:-0.21682851 
8 0 0 1:0.7401112 2:-0.21428531 
8 0 0 1:0.72382642 2:-0.2496109 
8 0 0 1:0.70622843 2:-0.26973968 
8 0 0 1:0.68765258 2:-0.28472828 
8 0 0 1:0.668587 2:-0.29223465 
8 0 0 1:0.64918488 2:-0.29739322 
8 0 0 1:0.62982339 2:-0.29677036 
8 0 0 1:0.61108686 2:-0.28719107 
8 0 0 1:0.59349751 2:-0.26960725 
8 0 0 1:0.57771936 2:-0.24184536 
8 0 0 1:0.56427739 2:-0.2060368 
8 0 0 1:0.55264595 2:-0.17828524 
8 0 0 1:0.54268342 2:-0.15270435 
8 0 0 1:0.43968801 2:-0.10271607 
8 0 0 1:0.43039063 2:-0.14250903 
8 0 0 1:0.41808751 2:-0.18858057 
8 0 0 1:0.40358241 2:-0.22233233 
8 0 0 1:0.38745954 2:-0.24712929 
8 0 0 1:0.37077666 2:-0.255713 
8 0 0 1:0.35318619 2:-0.2696244 
8 0 0 1:0.33406652 2:-0.29306374 
8 8 0 1:0.31313086 2:-0.32089905 
8 0 0 1:0.87665859 2:-0.24828651 
8 0 0 1:0.86009751 2:-0.25384619 
8 0 0 1:0.84318862 2:-0.25917725 
8 0 0 1:0.82594624 2:-0.26428882 
8 0 0 1:0.80833289 2:-0.26997521 
8 0 0 1:0.79049717 2:-0.27338356 
8 0 0 1:0.77240878 2:-0.27725644 
8 0 0 1:0.75451526 2:-0.27426947 
8 0 0 1:0.73757099 2:-0.25971961 
8 0 0 1:0.7218639 2:-0.24075616 
8 0 0 1:0.70702149 2:-0.22750261 
8 0 0 1:0.69239157 2:-0.22424538 
8 0 0 1:0.6781256 2:-0.21866699 
8 0 0 1:0.66479287 2:-0.20436236 
8 0 0 1:0.65266103 2:-0.18595517 
8 0 0 1:0.65267276 2:-0.18431162 
8 0 0 1:0.8986659 2:-0.2591855 
8 0 0 1:0.88118983 2:-0.26787094 
8 0 0 1:0.86342699 2:-0.27226649 
8 0 0 1:0.84555731 2:-0.27390406 
8 0 0 1:0.8285666 2:-0.26043144 
8 0 0 1:0.81339251 2:-0.23258642 
8 0 0 1:1.1251799 2:-0.31687652 
8 0 0 1:1.1008726 2:-0.37257879 
8 0 0 1:1.0733414 2:-0.42199483 
8 0 0 1:1.0431186 2:-0.46325109 
8 0 0 1:0.70965427 2:-0.22130975 
8 0 0 1:0.694254 2:-0.23605329 
8 0 0 1:0.67765254 2:-0.25446509 
8 0 0 1:0.66021354 2:-0.26730267 
8 0 0 1:0.64220512 2:-0.27603069 
8 0 0 1:1.1186519 2:-0.29336132 
8 0 0 1:1.0979067 2:-0.31797955 
8 0 0 1:1.0756796 2:-0.34069438 
8 0 0 1:1.0525171 2:-0.35503212 
8 0 0 1:1.028952 2:-0.36120213 
8 0 0 1:1.005316 2:-0.36228971 
8 0 0 1:0.98189075 2:-0.3590597 
8 0 0 1:0.95918052 2:-0.3480994 
8 0 0 1:0.93792523 2:-0.32579832 
8 0 0 1:0.91842177 2:-0.29894641 
8 0 0 1:0.90036815 2:-0.27672346 
8 0 0 1:0.88293331 2:-0.26723906 
8 0 0 1:0.86575534 2:-0.26330166 
8 0 0 1:0.84905556 2:-0.25597207 
8 0 0 1:0.83281486 2:-0.2489353 
8 0 0 1:0.81695944 2:-0.24302974 
8 0 0 1:0.80167516 2:-0.23427542 
8 0 0 1:0.82123707 2:-0.24227247 
8 0 0 1:0.8063705 2:-0.22787285 
8 0 0 1:0.74359971 2:-0.24509217 
8 0 0 1:0.72493878 2:-0.28603228 
8 0 0 1:0.7036576 2:-0.32619521 
8 0 0 1:0.67967912 2:-0.36753893 
8 0 0 1:0.65297958 2:-0.40924712 
8 0 0 1:0.62347402 2:-0.45225735 
8 0 0 1:0.59078288 2:-0.50108549 
8 0 0 1:0.55578874 2:-0.53638554 
8 0 0 1:1.2654801 2:-0.29513898 
8 0 0 1:1.242682 2:-0.34944673 
8 0 0 1:1.2175467 2:-0.38527072 
8 0 0 1:0.79325057 2:-0.2506368 
8 0 0 1:0.77568663 2:-0.2692178 
8 0 0 1:0.75781465 2:-0.27393938 
8 0 0 1:0.74049539 2:-0.26546734 
8 0 0 1:0.72332424 2:-0.26319703 
8 0 0 1:0.70551341 2:-0.27300219 
8 0 0 1:0.68635022 2:-0.29373077 
8 0 0 1:0.66696103 2:-0.29719501 
8 0 0 1:0.64833807 2:-0.28545032 
8 0 0 1:0.63046677 2:-0.2739289 
8 0 0 1:0.61319293 2:-0.26477109 
8 0 0 1:0.59652074 2:-0.25554928 
8 0 0 1:0.58162639 2:-0.22829856 
8 0 0 1:0.56872212 2:-0.19779498 
8 0 0 1:0.55758272 2:-0.17074321 
8 0 0 1:0.80661448 2:-0.234223 
8 0 0 1:0.78978408 2:-0.25797423 
8 0 0 1:0.77237361 2:-0.26686543 
8 0 0 1:0.75442308 2:-0.27514329 
8 0 0 1:0.73565134 2:-0.28773071 
8 0 0 1:0.71621109 2:-0.29797766 
8 0 0 1:0.69635438 2:-0.30436101 
8 0 0 1:0.67624355 2:-0.30825625 
8 0 0 1:0.65565824 2:-0.31552895 
8 0 0 1:0.63452533 2:-0.32392248 
8 0 0 1:0.61286751 2:-0.33196818 
8 0 0 1:0.59068773 2:-0.33996873 
8 0 0 1:0.56860512 2:-0.33847936 
8 0 0 1:0.54772776 2:-0.32000538 
8 0 0 1:0.52832302 2:-0.29743341 
8 0 0 1:0.51016611 2:-0.27830676 
8 0 0 1:0.49256281 2:-0.26982095 
8 0 0 1:0.47549828 2:-0.26156294 
8 0 0 1:0.45952169 2:-0.24488713 
8 0 0 1:0.44475913 2:-0.22627853 
8 0 0 1:0.43133811 2:-0.20571568 
8 0 0 1:0.41946354 2:-0.18201183 
8 0 0 1:0.40908684 2:-0.15905267 
8 0 0 1:0.40032173 2:-0.13435039 
8 0 0 1:0.39296214 2:-0.11280694 
8 0 0 1:0.38704861 2:-0.09064169 
8 0 0 1:0.382459 2:-0.070349033 
8 0 0 1:0.94474955 2:-0.25682715 
8 0 0 1:0.92815983 2:-0.25428504 
8 0 0 1:0.89812384 2:-0.25612097 
8 0 0 1:0.88024687 2:-0.27401583 
8 0 0 1:0.8612478 2:-0.2912153 
8 0 0 1:0.84135532 2:-0.30490938 
8 0 0 1:0.8208168 2:-0.31481163 
8 0 0 1:0.79963611 2:-0.32465494 
8 0 0 1:0.7778185 2:-0.33441734 
8 0 0 1:0.7558205 2:-0.33718251 
8 0 0 1:0.73426188 2:-0.33044765 
8 0 0 1:0.71318848 2:-0.32301043 
8 0 0 1:0.69238742 2:-0.31883594 
8 0 0 1:0.67196633 2:-0.31301168 
8 0 0 1:0.65198645 2:-0.30624898 
8 0 0 1:0.63282993 2:-0.2936287 
8 0 0 1:0.6152079 2:-0.2701081 
8 0 0 1:0.59972703 2:-0.23728882 
8 0 0 1:0.58600527 2:-0.21032525 
8 0 0 1:0.57303049 2:-0.19887582 
8 0 0 1:0.56023801 2:-0.19608139 
8 0 0 1:0.54817115 2:-0.18495927 
8 0 0 1:0.53754218 2:-0.16291947 
8 0 0 1:0.52840803 2:-0.14000708 
8 0 0 1:0.56812921 2:-0.16700038 
8 0 0 1:0.55562173 2:-0.19171313 
8 0 0 1:0.54133117 2:-0.21904373 
8 0 0 1:0.52546037 2:-0.24326568 
8 0 0 1:0.50809919 2:-0.26610987 
8 0 0 1:0.48976709 2:-0.28099202 
8 0 0 1:0.47182187 2:-0.27506189 
8 0 0 1:0.4550232 2:-0.2574879 
8 0 0 1:0.43931054 2:-0.24084147 
8 0 0 1:0.42390661 2:-0.23610951 
8 0 0 1:0.40872768 2:-0.23266057 
8 0 0 1:0.39436258 2:-0.2201864 
8 0 0 1:0.38130123 2:-0.20020272 
8 0 0 1:0.36961364 2:-0.17914575 
8 0 0 1:0.35908635 2:-0.16136093 
8 0 0 1:0.34995569 2:-0.13995365 
8 0 0 1:0.3429146 2:-0.1079249 
8 0 0 1:0.33860431 2:-0.066067471 
8 0 0 1:0.76589903 2:-0.22195946 
8 0 0 1:0.75058576 2:-0.23471982 
8 0 0 1:0.73446034 2:-0.24716832 
8 0 0 1:0.71814449 2:-0.25008727 
8 0 0 1:0.70159201 2:-0.25371413 
8 0 0 1:0.68438355 2:-0.26376902 
8 0 0 1:0.66614784 2:-0.2795146 
8 0 0 1:0.64694585 2:-0.29432563 
8 0 0 1:0.62741837 2:-0.29931465 
8 0 0 1:0.60867803 2:-0.28724951 
8 0 0 1:0.59112514 2:-0.26904835 
8 0 0 1:0.57454717 2:-0.254105 
8 0 0 1:0.55895427 2:-0.23900593 
8 0 0 1:0.5443421 2:-0.22397343 
8 0 0 1:0.53070578 2:-0.20901568 
8 0 0 1:0.51811802 2:-0.19294353 
8 0 0 1:0.5061521 2:-0.18341207 
8 0 0 1:0.49485399 2:-0.17317588 
8 0 0 1:0.48455237 2:-0.15790193 
8 0 0 1:0.47537749 2:-0.14063134 
8 0 0 1:0.46708379 2:-0.1271247 
8 0 0 1:0.45991174 2:-0.10993225 
8 0 0 1:0.52507072 2:-0.14445517 
8 0 0 1:0.51559701 2:-0.14521184 
8 0 0 1:0.50649795 2:-0.13946924 
8 0 0 1:0.49756861 2:-0.13686771 
8 0 0 1:0.4888359 2:-0.1338539 
8 0 0 1:0.48029973 2:-0.13084126 
8 0 0 1:0.47183866 2:-0.12969021 
8 0 0 1:0.46358022 2:-0.12658425 
8 0 0 1:0.4556313 2:-0.12183997 
8 0 0 1:0.44853351 2:-0.10879393 
8 0 0 1:0.41616138 2:-0.10786679 
8 0 0 1:0.40788693 2:-0.1268296 
8 0 0 1:0.39920479 2:-0.13307879 
8 0 0 1:0.39173011 2:-0.11457085 
8 0 0 1:0.38603592 2:-0.087279893 
8 0 0 1:0.3815088 2:-0.069391022 
8 0 0 1:0.50898758 2:-0.12782624 
8 0 0 1:0.49820254 2:-0.16531182 
8 0 0 1:0.48562251 2:-0.19282502 
8 0 0 1:0.47108478 2:-0.22283231 
8 0 0 1:0.45381583 2:-0.2646962 
8 0 0 1:0.43342208 2:-0.31259281 
8 0 0 1:0.4096414 2:-0.36450718 
8 0 0 1:0.38420467 2:-0.38989084 
8 0 0 1:0.81363798 2:-0.29054742 
8 0 0 1:0.78996576 2:-0.36284465 
8 0 0 1:0.76141159 2:-0.43767463 
8 0 0 1:0.72837941 2:-0.50631291 
8 0 0 1:0.6899884 2:-0.58845235 
8 0 0 1:0.64635459 2:-0.66881336 
8 0 0 1:0.59847447 2:-0.73390021 
8 0 0 1:0.54753437 2:-0.78080319 
8 0 0 1:1.4430863 2:-0.26726474 
8 0 0 1:1.4224036 2:-0.31702133 
8 0 0 1:1.3984583 2:-0.3670306 
8 0 0 1:1.3712489 2:-0.41706149 
8 0 0 1:1.0451027 2:-0.26815904 
8 0 0 1:1.0259685 2:-0.29328672 
8 0 0 1:1.0052003 2:-0.31833229 
8 0 0 1:0.98282654 2:-0.34294205 
8 0 0 1:0.95882385 2:-0.36791019 
8 0 0 1:0.83171319 2:-0.26568424 
8 0 0 1:0.810355 2:-0.32737557 
8 0 0 1:0.78545124 2:-0.38172155 
8 0 0 1:0.75712653 2:-0.43415746 
8 0 0 1:0.72572435 2:-0.4813285 
8 0 0 1:0.6918453 2:-0.51929363 
8 0 0 1:0.6563487 2:-0.5440872 
8 0 0 1:0.61890287 2:-0.57396481 
8 0 0 1:0.31283298 2:-0.13640234 
8 0 0 1:0.30840622 2:-0.13054244 
8 0 0 1:0.30403531 2:-0.13003076 
8 0 0 1:0.3004902 2:-0.11762059 
8 0 0 1:0.29838237 2:-0.095064193 
8 0 0 1:0.29829394 2:-0.062419457 
8 0 0 1:0.30042536 2:-0.025251441 
8 0 0 1:0.99638203 2:-0.28425286 
8 0 0 1:0.97290609 2:-0.35983603 
8 0 0 1:0.94380754 2:-0.44601885 
8 0 0 1:0.90940524 2:-0.52731394 
8 0 0 1:1.0907133 2:-0.26831324 
8 0 0 1:1.0707226 2:-0.30641411 
8 0 0 1:1.0485324 2:-0.34012905 
8 0 0 1:1.024744 2:-0.36462529 
8 0 0 1:0.76744345 2:-0.23668525 
8 0 0 1:1.1450821 2:-0.27323112 
8 0 0 1:1.1250967 2:-0.30633373 
8 0 0 1:1.103322 2:-0.33376087 
8 0 0 1:1.0801845 2:-0.35464789 
8 0 0 1:1.0567113 2:-0.35979393 
8 0 0 1:1.0344485 2:-0.34124222 
8 0 0 1:1.0144978 2:-0.30580054 
8 0 0 1:0.99637655 2:-0.27776068 
8 0 0 1:0.97900965 2:-0.26619751 
8 0 0 1:0.96217724 2:-0.26619612 
8 0 0 1:0.94018889 2:-0.3370346 
8 0 0 1:0.70775006 2:-0.20764103 
8 0 0 1:0.692102 2:-0.23985141 
8 0 0 1:0.67462206 2:-0.26793028 
8 0 0 1:0.65546447 2:-0.29364489 
8 0 0 1:0.63427415 2:-0.32480245 
8 0 0 1:0.61125152 2:-0.35288785 
8 0 0 1:0.58664922 2:-0.37710084 
8 0 0 1:0.80922725 2:-0.24659631 
8 0 0 1:0.79107463 2:-0.27824107 
8 0 0 1:0.77036561 2:-0.31742513 
8 0 0 1:0.74727512 2:-0.35392804 
8 0 0 1:0.72145977 2:-0.39569418 
8 0 0 1:0.69307696 2:-0.435048 
8 0 0 1:0.66249852 2:-0.46870243 
8 0 0 1:0.62923709 2:-0.50982676 
8 0 0 1:0.54824179 2:-0.1478246 
8 0 0 1:0.53810512 2:-0.15537353 
8 0 0 1:0.52721112 2:-0.1669819 
8 0 0 1:0.51676731 2:-0.1600813 
8 0 0 1:0.50686695 2:-0.15175139 
8 0 0 1:0.49815205 2:-0.13358083 
8 0 0 1:0.45067114 2:-0.1223519 
8 0 0 1:0.44043301 2:-0.15692875 
8 0 0 1:0.42763133 2:-0.19622251 
8 0 0 1:0.41233918 2:-0.23439605 
8 0 0 1:0.39517057 2:-0.26315816 
8 0 0 1:0.37637477 2:-0.28809953 
8 0 0 1:0.35682024 2:-0.29972931 
8 0 0 1:0.33687986 2:-0.30564357 
8 0 0 1:0.31671137 2:-0.30913994 
8 8 0 1:0.29607677 2:-0.31628442 
8 8 0 1:0.27567774 2:-0.31267365 
8 8 0 1:0.25438113 2:-0.32643163 
8 8 0 1:0.23519912 2:-0.29401933 
8 8 0 1:0.21775091 2:-0.26744389 
8 8 0 1:0.20208783 2:-0.24008165 
8 8 8 1:0.18729599 2:-0.22672734 
8 8 8 1:0.17335299 2:-0.2137166 
8 8 8 1:0.16049766 2:-0.19704473 
8 8 8 1:0.14905145 2:-0.17544596 
8 8 8 1:0.13892675 2:-0.15519013 
8 8 8 1:0.1301157 2:-0.13505459 
8 8 8 1:0.1225904 2:-0.11534681 
8 8 8 1:0.11644068 2:-0.094262112 
8 8 8 1:0.11162785 2:-0.073770436 
8 8 8 1:0.10822635 2:-0.052137786 
8 8 8 1:0.10597761 2:-0.034468283 
8 8 8 1:0.10480471 2:-0.017978178 
8 8 8 1:0.10472255 2:-0.001259293 
8 8 8 1:0.10576814 2:0.016026685 
8 8 8 1:0.10792948 2:0.033128663 
8 8 8 1:0.11121091 2:0.050297343 
8 8 8 1:0.11560005 2:0.067276239 
8 8 8 1:0.12110138 2:0.084323673 
0 8 8 1:0.12749027 2:0.097927989 
0 8 8 1:0.13499694 2:0.11506123 
0 8 8 1:0.14289818 2:0.1211093 
0 0 8 1:0.15233543 2:0.14465279 
0 0 8 1:0.16035316 2:0.12289482 
0 0 8 1:0.16722572 2:0.1053417 
0 0 8 1:0.17309244 2:0.089924329 
0 0 8 1:0.17911954 2:0.092382566 
0 0 8 1:0.1853207 2:0.095050589 
0 0 8 1:0.19141877 2:0.093470321 
0 0 8 1:0.19728807 2:0.089963952 
8 0 0 1:0.32214477 2:-0.035134339 
8 0 0 1:0.31972548 2:-0.037082591 
8 0 0 1:0.31729818 2:-0.037205386 
8 0 0 1:0.31463048 2:-0.040890091 
8 0 0 1:0.31171592 2:-0.044673971 
8 0 0 1:0.30870866 2:-0.046094907 
8 0 0 1:0.3054012 2:-0.050696253 
8 0 0 1:0.30201182 2:-0.051951979 
8 0 0 1:0.29871945 2:-0.050465062 
8 0 0 1:0.29568269 2:-0.046546984 
8 0 0 1:0.29314919 2:-0.038833219 
8 0 0 1:0.29097408 2:-0.033339836 
8 0 0 1:0.28920197 2:-0.027162646 
8 0 0 1:0.28794063 2:-0.019333706 
8 0 0 1:0.28698648 2:-0.014625011 
8 0 0 1:0.28598058 2:-0.015418308 
8 0 0 1:0.2847634 2:-0.018656719 
8 0 0 1:0.28347989 2:-0.019673561 
8 0 0 1:0.28209912 2:-0.021164202 
8 0 0 1:0.28053986 2:-0.023900128 
8 0 0 1:0.27888959 2:-0.02529524 
8 0 0 1:0.27716678 2:-0.026406915 
8 0 0 1:0.27530991 2:-0.028461872 
8 0 0 1:0.27344518 2:-0.028582383 
8 0 0 1:0.27168956 2:-0.026909834 
8 0 0 1:0.27006234 2:-0.024941783 
8 0 0 1:0.2686327 2:-0.021913393 
8 0 0 1:0.26729143 2:-0.020558852 
8 0 0 1:0.26621064 2:-0.016566137 
8 0 0 1:0.26526649 2:-0.014471845 
8 0 0 1:0.26446865 2:-0.012229161 
8 0 0 1:0.263883 2:-0.0089767989 
8 0 0 1:0.26336279 2:-0.0079737082 
8 0 0 1:0.26296461 2:-0.0061031942 
8 0 0 1:0.26273104 2:-0.0035801304 
8 0 0 1:0.79506436 2:-0.22982678 
8 0 0 1:0.77897325 2:-0.24664236 
8 0 0 1:0.76227548 2:-0.2559412 
8 0 0 1:0.7453055 2:-0.2601137 
8 0 0 1:0.72805261 2:-0.26444995 
8 0 0 1:0.71048347 2:-0.26929754 
8 0 0 1:0.69261677 2:-0.2738585 
8 0 0 1:0.67441686 2:-0.27896574 
8 0 0 1:0.65612316 2:-0.28040348 
8 0 0 1:0.63762058 2:-0.28360507 
8 0 0 1:0.618596 2:-0.29160634 
8 0 0 1:0.59894587 2:-0.30119461 
8 0 0 1:0.57903916 2:-0.30512744 
8 0 0 1:0.5588992 2:-0.30870259 
8 0 0 1:0.53910187 2:-0.30345095 
8 0 0 1:0.52049067 2:-0.28527002 
8 0 0 1:0.50333516 2:-0.26295732 
8 0 0 1:0.48727755 2:-0.246129 
8 0 0 1:0.47152464 2:-0.24145849 
8 0 0 1:0.45594859 2:-0.23874772 
8 0 0 1:0.44110351 2:-0.22754347 
8 0 0 1:0.42753785 2:-0.20793264 
8 0 0 1:0.41536387 2:-0.1866011 
8 0 0 1:0.40454934 2:-0.16576382 
8 0 0 1:0.39509162 2:-0.1449667 
8 0 0 1:0.38698852 2:-0.12420324 
8 0 0 1:0.38021717 2:-0.10379025 
8 0 0 1:0.3747948 2:-0.083113428 
8 0 0 1:0.37072662 2:-0.062356549 
8 0 0 1:0.93648897 2:-0.28627597 
8 0 0 1:0.91406896 2:-0.3436509 
8 0 0 1:0.88790156 2:-0.40109047 
8 0 0 1:0.85821385 2:-0.45504932 
8 0 0 1:0.82497831 2:-0.50943008 
8 0 0 1:0.78846092 2:-0.55973368 
8 0 0 1:0.74956823 2:-0.59614217 
8 0 0 1:0.70909275 2:-0.62040282 
8 0 0 1:1.0083277 2:-0.27380744 
8 0 0 1:0.98888228 2:-0.29805735 
8 0 0 1:0.96849451 2:-0.312501 
8 0 0 1:0.90244551 2:-0.25148167 
8 0 0 1:0.88412158 2:-0.28086681 
8 0 0 1:0.86399655 2:-0.30847391 
8 0 0 1:0.84186559 2:-0.33922031 
8 0 0 1:0.68613384 2:-0.22438538 
8 0 0 1:0.67068493 2:-0.23679887 
8 0 0 1:0.65412674 2:-0.25380164 
8 0 0 1:0.63597663 2:-0.2782026 
8 0 0 1:0.61664057 2:-0.29638056 
8 0 0 1:0.59692472 2:-0.30220197 
8 0 0 1:0.78775584 2:-0.22775886 
8 0 0 1:0.76909816 2:-0.28598258 
8 0 0 1:0.74683404 2:-0.34126145 
8 0 0 1:0.72175187 2:-0.38445631 
8 0 0 1:0.69443467 2:-0.41871436 
8 0 0 1:0.66593999 2:-0.43676281 
8 0 0 1:0.63539974 2:-0.46811691 
8 0 0 1:0.60411881 2:-0.47946992 
8 0 0 1:0.5736564 2:-0.46692383 
8 0 0 1:0.54439782 2:-0.44847166 
8 0 0 1:0.51629796 2:-0.43071097 
8 0 0 1:0.48895523 2:-0.41910585 
8 0 0 1:0.4622448 2:-0.40941398 
8 0 0 1:0.43666757 2:-0.39204437 
8 0 0 1:0.41250433 2:-0.37037104 
8 0 0 1:0.38916083 2:-0.35780605 
8 0 0 1:0.3673507 2:-0.33430285 
8 0 0 1:0.34676406 2:-0.31554929 
8 0 0 1:0.32836885 2:-0.28195943 
8 0 0 1:0.31234112 2:-0.24567086 
8 0 0 1:0.29886654 2:-0.20653658 
8 0 0 1:0.28785503 2:-0.16878304 
8 0 0 1:0.27955064 2:-0.12728855 
8 0 0 1:0.2738514 2:-0.087357259 
8 0 0 1:0.27021331 2:-0.05576412 
8 0 0 1:0.26852055 2:-0.025946386 
8 0 0 1:0.5656947 2:-0.15258623 
8 0 0 1:0.55218929 2:-0.20700918 
8 0 0 1:0.53501285 2:-0.26327816 
8 0 0 1:0.51442164 2:-0.31561928 
8 0 0 1:0.48999732 2:-0.37437291 
8 0 0 1:0.46147163 2:-0.43723797 
8 0 0 1:0.87466315 2:-0.25917969 
8 0 0 1:0.85661539 2:-0.27663379 
8 0 0 1:0.82273085 2:-0.26310474 
8 0 0 1:0.804253 2:-0.28322601 
8 0 0 1:0.78565556 2:-0.28505911 
8 0 0 1:0.76765454 2:-0.2759173 
8 0 0 1:0.74999736 2:-0.270647 
8 0 0 1:0.73206703 2:-0.27483367 
8 0 0 1:0.71395342 2:-0.2776431 
8 0 0 1:0.69670606 2:-0.26436531 
8 0 0 1:0.68066996 2:-0.24579926 
8 0 0 1:0.66590478 2:-0.22631867 
8 0 0 1:0.65225122 2:-0.20927994 
8 0 0 1:0.63975027 2:-0.19161304 
8 0 0 1:0.62832574 2:-0.17511361 
8 0 0 1:0.93962635 2:-0.28522186 
8 0 0 1:0.9179171 2:-0.33275661 
8 0 0 1:0.89318541 2:-0.37908409 
8 0 0 1:1.2810224 2:-0.27492798 
8 0 0 1:1.2614576 2:-0.29988631 
8 0 0 1:1.2406236 2:-0.31934156 
8 0 0 1:1.219201 2:-0.32836187 
8 0 0 1:1.1976344 2:-0.33057065 
8 0 0 1:1.1762701 2:-0.32746834 
8 0 0 1:1.155069 2:-0.32496878 
8 0 0 1:1.1344507 2:-0.31603412 
8 0 0 1:1.1140443 2:-0.3127871 
8 0 0 1:1.0947481 2:-0.29576913 
8 0 0 1:1.0404882 2:-0.27778117 
8 0 0 1:1.0207256 2:-0.30291874 
8 0 0 1:0.9997769 2:-0.3210985 
8 0 0 1:0.97765218 2:-0.33912474 
8 0 0 1:0.95429537 2:-0.35801019 
8 0 0 1:0.92973516 2:-0.37645571 
8 0 0 1:0.9040386 2:-0.3938734 
8 0 0 1:0.87712204 2:-0.4125735 
8 0 0 1:0.84886781 2:-0.43307723 
8 0 0 1:0.81926917 2:-0.45368402 
8 0 0 1:0.78909151 2:-0.46255923 
8 0 0 1:0.75937731 2:-0.45545537 
8 0 0 1:0.73086381 2:-0.4370512 
8 0 0 1:0.70370495 2:-0.41628738 
8 0 0 1:0.67775286 2:-0.39779024 
8 0 0 1:0.65302819 2:-0.37897651 
8 0 0 1:0.6295298 2:-0.36018022 
8 0 0 1:0.60729462 2:-0.34081793 
8 0 0 1:0.58634117 2:-0.32117172 
8 0 0 1:0.56666035 2:-0.3016651 
8 0 0 1:0.54828905 2:-0.28159288 
8 0 0 1:0.53103041 2:-0.26453817 
8 0 0 1:0.51531854 2:-0.24082946 
8 0 0 1:0.50182326 2:-0.20685384 
8 0 0 1:0.49090494 2:-0.16735467 
8 0 0 1:0.48219659 2:-0.13348036 
7.534831339508181 0 0 1:0.86372443 2:-0.23818153 
8 0 0 1:0.83148649 2:-0.23980864 
8 0 0 1:0.81535911 2:-0.24719848 
8 0 0 1:0.79925728 2:-0.24680665 
8 0 0 1:0.78357204 2:-0.24042135 
8 0 0 1:0.7683241 2:-0.23371836 
8 0 0 1:0.75369829 2:-0.22418248 
8 0 0 1:0.73929479 2:-0.220775 
8 0 0 1:0.72566263 2:-0.20895194 
8 0 0 1:0.88264054 2:-0.25446965 
8 0 0 1:0.86487112 2:-0.27236734 
8 0 0 1:0.84572581 2:-0.29345687 
8 0 0 1:0.82505259 2:-0.31687633 
8 0 0 1:1.4740624 2:-0.25283907 
8 0 0 1:1.4598272 2:-0.27438571 
8 0 0 1:1.4399822 2:-0.30418138 
8 0 0 1:1.4186503 2:-0.32697289 
8 0 0 1:1.3959489 2:-0.34796435 
8 0 0 1:1.3722889 2:-0.36265707 
8 0 0 1:1.3484959 2:-0.3646959 
8 0 0 1:1.3252049 2:-0.35700129 
8 0 0 1:1.3023769 2:-0.34990401 
8 0 0 1:1.2799505 2:-0.34374921 
8 0 0 1:1.2579468 2:-0.33727043 
8 0 0 1:1.2363659 2:-0.33078892 
8 0 0 1:1.2150944 2:-0.32604701 
8 0 0 1:1.194223 2:-0.31991395 
8 0 0 1:1.173925 2:-0.311125 
8 0 0 1:1.1543457 2:-0.30010897 
8 0 0 1:1.1354531 2:-0.28958277 
8 0 0 1:1.1172472 2:-0.27905847 
8 0 0 1:1.4246105 2:-0.2617329 
8 0 0 1:1.4061023 2:-0.28369054 
8 0 0 1:1.3864445 2:-0.30131266 
8 0 0 1:1.0470367 2:-0.3007083 
8 0 0 1:1.0248529 2:-0.34003127 
8 0 0 1:1.0006809 2:-0.37050501 
8 0 0 1:1.795288 2:-0.12409647 
8 0 0 1:1.7867654 2:-0.13063249 
4.847089002641459 0 0 1:1.7783024 2:-0.1297206 
8 0 0 1:1.6355828 2:-0.19606566 
8 0 0 1:1.6208493 2:-0.22583423 
8 0 0 1:1.6042901 2:-0.25381631 
8 0 0 1:1.5857755 2:-0.28379038 
8 0 0 1:1.5655281 2:-0.31034831 
8 0 0 1:0.70652863 2:-0.20580751 
8 0 0 1:0.6929419 2:-0.2082557 
8 0 0 1:0.67872601 2:-0.21789919 
8 0 0 1:0.66390567 2:-0.22716422 
8 0 0 1:0.64986947 2:-0.21514509 
8 0 0 1:0.63743707 2:-0.19056228 
8 0 0 1:0.49530541 2:-0.12570571 
8 0 0 1:0.48644285 2:-0.13584417 
8 0 0 1:0.47716063 2:-0.14227664 
8 0 0 1:0.46803948 2:-0.13980779 
8 0 0 1:0.45970149 2:-0.12780356 
8 0 0 1:0.45272999 2:-0.10685826 
8 0 0 1:0.63319411 2:-0.19730344 
8 0 0 1:0.62009506 2:-0.20078058 
8 0 0 1:0.60724686 2:-0.19693541 
8 0 0 1:0.59465547 2:-0.1929993 
8 0 0 1:0.58215343 2:-0.19162959 
8 0 0 1:0.56972418 2:-0.19051393 
8 0 0 1:0.55763247 2:-0.18534008 
8 0 0 1:0.54610287 2:-0.17672418 
8 0 0 1:0.5352849 2:-0.16581648 
8 0 0 1:0.52516693 2:-0.15508697 
8 0 0 1:0.51604261 2:-0.13985633 
8 0 0 1:0.50762094 2:-0.12908625 
8 0 0 1:0.49934214 2:-0.12689633 
8 0 0 1:0.49128227 2:-0.12354061 
8 0 0 1:0.69004268 2:-0.21119198 
8 0 0 1:0.67515438 2:-0.22820593 
8 0 0 1:0.65946564 2:-0.24047493 
8 0 0 1:0.64275063 2:-0.25620542 
8 0 0 1:0.62526464 2:-0.26802294 
8 0 0 1:0.60727533 2:-0.27573783 
8 0 0 1:0.58894218 2:-0.28100817 
8 0 0 1:0.5711105 2:-0.2733217 
8 0 0 1:0.5542411 2:-0.25857193 
8 0 0 1:0.53813151 2:-0.2469256 
8 0 0 1:0.52279607 2:-0.23505965 
8 0 0 1:0.50824032 2:-0.22310864 
8 0 0 1:0.49458348 2:-0.20933022 
8 0 0 1:0.481567 2:-0.19951485 
8 0 0 1:0.46933207 2:-0.18753544 
8 0 0 1:0.45785055 2:-0.17598718 
8 0 0 1:0.4472981 2:-0.16174671 
8 0 0 1:0.4375938 2:-0.1487461 
8 0 0 1:0.42875441 2:-0.13548902 
8 0 0 1:0.42078168 2:-0.12220504 
8 0 0 1:0.41365107 2:-0.10929702 
8 0 0 1:0.40735974 2:-0.09643264 
8 0 0 1:0.40192849 2:-0.083249529 
8 0 0 1:0.37961093 2:-0.078634555 
8 0 0 1:0.37435441 2:-0.080571233 
8 0 0 1:0.36912921 2:-0.080091131 
8 0 0 1:0.36385653 2:-0.080818986 
8 0 0 1:0.35856302 2:-0.081138182 
8 0 0 1:0.35324149 2:-0.081567813 
8 0 0 1:0.34787675 2:-0.082229947 
8 0 0 1:0.34250418 2:-0.082350033 
8 0 0 1:0.33712718 2:-0.082418054 
8 0 0 1:0.33161574 2:-0.084478529 
8 0 0 1:0.32600387 2:-0.086018079 
8 0 0 1:0.31996932 2:-0.092496802 
8 0 0 1:0.31378988 2:-0.09471762 
8 0 0 1:0.30775248 2:-0.092540417 
8 0 0 1:0.30148898 2:-0.096006118 
8 0 0 1:0.2951177 2:-0.097658163 
8 0 0 1:0.28845551 2:-0.10211721 
8 0 0 1:0.28148716 2:-0.10680995 
8 0 0 1:0.27445595 2:-0.10777343 
8 0 0 1:0.2676061 2:-0.10499357 
8 0 0 1:0.2611612 2:-0.098786602 
8 0 0 1:0.255531 2:-0.086299039 
8 0 0 1:0.25105187 2:-0.068655527 
8 0 0 1:0.2482554 2:-0.042863952 
8 0 0 1:0.24673191 2:-0.0233518 
8 0 0 1:0.24592568 2:-0.012357823 
8 0 0 1:0.24493746 2:-0.015147342 
8 0 0 1:0.24369451 2:-0.019051656 
8 0 0 1:0.24238761 2:-0.02003203 
8 0 0 1:0.2410036 2:-0.021213865 
8 0 0 1:0.23946321 2:-0.023610989 
8 0 0 1:0.23784008 2:-0.024879083 
8 0 0 1:0.23615684 2:-0.025800563 
8 0 0 1:0.23433269 2:-0.027960191 
8 0 0 1:0.2324996 2:-0.02809743 
8 0 0 1:0.23071257 2:-0.027391292 
8 0 0 1:0.22912934 2:-0.024267654 
8 0 0 1:0.22769538 2:-0.021979552 
8 0 0 1:0.2264299 2:-0.019397134 
8 0 0 1:0.22542581 2:-0.015390491 
8 0 0 1:0.22453068 2:-0.013720516 
8 0 0 1:0.22371314 2:-0.012531083 
8 0 0 1:0.22307621 2:-0.0097627378 
8 0 0 1:0.22252204 2:-0.0084943295 
8 0 0 1:0.22210568 2:-0.0063818044 
8 0 0 1:0.22191574 2:-0.0029113679 
8 0 0 1:0.22200854 2:0.0014223144 
8 0 0 1:0.22235668 2:0.0053362312 
8 0 0 1:0.22259461 2:0.0036470398 
8 0 0 1:0.22275646 2:0.0024807933 
8 0 0 1:0.22295298 2:0.0030123047 
8 0 0 1:0.22368033 2:0.011148625 
8 0 0 1:0.22458317 2:0.013838684 
8 0 0 1:0.22561937 2:0.015882726 
8 0 0 1:0.22677089 2:0.017650309 
8 0 0 1:0.22815643 2:0.021237355 
8 0 0 1:0.26132619 2:0.00090464615 
8 0 0 1:0.26132773 2:2.3506567e-005 
8 0 0 1:0.26121457 2:-0.0017344426 
8 0 0 1:0.2609816 2:-0.0035709634 
8 0 0 1:0.26070327 2:-0.0042661377 
8 0 0 1:0.26057583 2:-0.0019534481 
8 0 0 1:0.81001734 2:-0.23128716 
8 0 0 1:0.79355114 2:-0.25239186 
8 0 0 1:0.77586422 2:-0.27110268 
8 0 0 1:0.75713942 2:-0.28701128 
8 0 0 1:0.9677367 2:-0.26194818 
8 0 0 1:0.949298 2:-0.28262598 
8 0 0 1:0.93045615 2:-0.28880542 
8 0 0 1:0.9115524 2:-0.28975411 
8 0 0 1:0.89280116 2:-0.28741656 
8 0 0 1:0.87396759 2:-0.28867852 
8 0 0 1:0.85426835 2:-0.30194742 
8 0 0 1:0.83294439 2:-0.32685075 
8 0 0 1:0.80924379 2:-0.36327981 
8 0 0 1:0.82450715 2:-0.23250866 
8 0 0 1:0.80900537 2:-0.23760929 
8 0 0 1:0.79376562 2:-0.23359276 
8 0 0 1:0.71583136 2:-0.21029256 
8 0 0 1:0.70157283 2:-0.21855287 
8 0 0 1:0.68671057 2:-0.22780675 
8 0 0 1:0.67165607 2:-0.23075342 
8 0 0 1:0.65661639 2:-0.23052625 
8 0 0 1:0.64153402 2:-0.23118046 
8 0 0 1:0.62640168 2:-0.23194653 
8 0 0 1:0.61304877 2:-0.20467175 
8 0 0 1:0.60150451 2:-0.17694881 
8 0 0 1:0.67815789 2:-0.1929116 
8 0 0 1:0.66518058 2:-0.19891449 
8 0 0 1:0.65190832 2:-0.20343551 
8 0 0 1:0.63835682 2:-0.20771564 
8 0 0 1:0.62453584 2:-0.21184612 
8 0 0 1:0.61043948 2:-0.21606717 
8 0 0 1:0.59603376 2:-0.22080903 
8 0 0 1:0.58131259 2:-0.22564416 
8 0 0 1:0.56628405 2:-0.23035537 
8 0 0 1:0.55098553 2:-0.23449373 
8 0 0 1:0.53562545 2:-0.23543728 
8 0 0 1:0.52033204 2:-0.23441539 
8 0 0 1:0.50460834 2:-0.24101087 
8 0 0 1:0.48832693 2:-0.24955924 
8 0 0 1:0.47186446 2:-0.25233466 
8 0 0 1:0.45652136 2:-0.23517708 
8 0 0 1:0.44263944 2:-0.21278019 
8 0 0 1:0.42977705 2:-0.19715308 
8 0 0 1:0.41712148 2:-0.19398291 
8 0 0 1:0.40457907 2:-0.19224836 
8 0 0 1:0.39287604 2:-0.17938246 
8 0 0 1:0.38206629 2:-0.16569054 
8 0 0 1:0.37239825 2:-0.14819045 
8 0 0 1:0.36364376 2:-0.13418764 
8 0 0 1:0.35589603 2:-0.11875612 
8 0 0 1:0.34894147 2:-0.10659869 
8 0 0 1:0.34314184 2:-0.088895859 
8 0 0 1:0.33836627 2:-0.073199281 
8 0 0 1:0.33474716 2:-0.055473314 
8 0 0 1:0.33210187 2:-0.040546613 
8 0 0 1:0.488327 2:-0.14151571 
8 0 0 1:0.47798606 2:-0.15850451 
8 0 0 1:0.46747638 2:-0.16109113 
8 0 0 1:0.45736851 2:-0.15493204 
8 0 0 1:0.44743527 2:-0.15225546 
8 0 0 1:0.43766341 2:-0.14978179 
8 0 0 1:0.42806772 2:-0.14708141 
8 0 0 1:1.0227013 2:-0.26953307 
8 0 0 1:1.0046051 2:-0.27737723 
8 0 0 1:0.98600199 2:-0.28514525 
8 0 0 1:0.96684115 2:-0.29369488 
8 0 0 1:0.94705901 2:-0.30321798 
8 0 0 1:0.92674538 2:-0.31136465 
8 0 0 1:0.90614381 2:-0.31577826 
8 0 0 1:0.88564138 2:-0.31425855 
8 0 0 1:0.86554205 2:-0.3080798 
8 0 0 1:0.84586253 2:-0.30164514 
8 0 0 1:0.82636757 2:-0.29881615 
8 0 0 1:0.80753682 2:-0.2886353 
8 0 0 1:0.78999187 2:-0.26892668 
8 0 0 1:0.77391765 2:-0.2463835 
8 0 0 1:0.75911419 2:-0.22690564 
8 0 0 1:0.74482479 2:-0.21902604 
8 0 0 1:0.73103842 2:-0.21131559 
8 0 0 1:1.1227115 2:-0.27624342 
8 0 0 1:1.1037963 2:-0.28992969 
8 0 0 1:1.0846626 2:-0.29327932 
8 0 0 1:0.88245068 2:-0.25054512 
8 0 0 1:0.86397184 2:-0.2832413 
8 0 0 1:0.84392708 2:-0.30724345 
8 0 0 1:0.82282199 2:-0.323496 
8 0 0 1:0.80123219 2:-0.33092557 
8 0 0 1:0.77908979 2:-0.33939578 
8 0 0 1:0.75712009 2:-0.3367487 
8 0 0 1:0.7353477 2:-0.33372442 
8 0 0 1:0.71365164 2:-0.33255436 
8 0 0 1:0.69187702 2:-0.33375852 
8 0 0 1:0.67107633 2:-0.31883024 
8 0 0 1:0.65183913 2:-0.29486517 
8 0 0 1:0.63440276 2:-0.2672624 
8 0 0 1:0.61854441 2:-0.24307477 
8 0 0 1:0.60368109 2:-0.22782304 
8 0 0 1:0.58951758 2:-0.21709647 
8 0 0 1:0.57620101 2:-0.20411453 
8 0 0 1:0.56349986 2:-0.1946816 
8 0 0 1:0.55141768 2:-0.18519409 
8 0 0 1:0.53989891 2:-0.17655816 
8 0 0 1:0.5290512 2:-0.16627224 
8 0 0 1:0.51998492 2:-0.13896682 
8 0 0 1:0.60458067 2:-0.17088332 
8 0 0 1:0.59248471 2:-0.18540527 
8 0 0 1:0.58009407 2:-0.18992205 
8 0 0 1:0.56773388 2:-0.18945542 
8 0 0 1:0.55516932 2:-0.19258793 
8 0 0 1:0.54235574 2:-0.19640492 
8 0 0 1:0.52918496 2:-0.20187987 
8 0 0 1:0.51617137 2:-0.19947072 
8 0 0 1:0.5033736 2:-0.19616243 
8 0 0 1:0.49075777 2:-0.19337389 
8 0 0 1:0.47833714 2:-0.19038167 
8 0 0 1:0.46614498 2:-0.18687984 
8 0 0 1:0.45407411 2:-0.18502084 
8 0 0 1:0.44201999 2:-0.18476393 
8 0 0 1:0.43036834 2:-0.17859491 
8 0 0 1:0.41929576 2:-0.16971905 
8 0 0 1:0.40901649 2:-0.15755938 
8 0 0 1:0.39941994 2:-0.14709454 
8 0 0 1:0.39055895 2:-0.13582021 
8 0 0 1:0.38231044 2:-0.12643204 
8 0 0 1:0.37425718 2:-0.12343924 
8 0 0 1:0.36655701 2:-0.11802722 
8 0 0 1:0.35969321 2:-0.1052074 
8 0 0 1:0.35382791 2:-0.089902682 
8 0 0 1:0.34902206 2:-0.073663323 
8 0 0 1:0.34523339 2:-0.058072331 
8 0 0 1:0.68310248 2:-0.19872952 
8 0 0 1:0.66900103 2:-0.21614514 
8 0 0 1:0.6546418 2:-0.22009641 
8 0 0 1:0.63944643 2:-0.23291266 
8 0 0 1:0.43816835 2:-0.14110466 
8 0 0 1:0.42948553 2:-0.17270519 
8 0 0 1:0.41855051 2:-0.2134581 
8 0 0 1:0.40553396 2:-0.25297374 
8 0 0 1:0.39002842 2:-0.29971639 
8 0 0 1:0.3724154 2:-0.34177589 
8 0 0 1:0.35421097 2:-0.36127076 
8 8 0 1:0.33291148 2:-0.41855149 
8 8 0 1:0.31027884 2:-0.45014766 
8 8 0 1:0.28641012 2:-0.48017013 
8 8 0 1:0.26198424 2:-0.499647 
8 0 0 1:0.7053921 2:-0.24872846 
8 0 0 1:0.68579329 2:-0.30040801 
8 0 0 1:0.66294364 2:-0.3502365 
8 0 0 1:0.63710147 2:-0.39610539 
8 0 0 1:0.6082884 2:-0.44164291 
8 0 0 1:0.57584726 2:-0.49725362 
8 0 0 1:0.54180464 2:-0.52180067 
8 0 0 1:0.5066168 2:-0.53935473 
8 0 0 1:0.43316746 2:-0.096747646 
8 0 0 1:0.60462389 2:-0.17182528 
8 0 0 1:0.59302115 2:-0.17784516 
8 0 0 1:0.58091423 2:-0.1855733 
8 0 0 1:0.56854077 2:-0.18965883 
8 0 0 1:0.55586643 2:-0.19427069 
8 0 0 1:0.54324508 2:-0.19345829 
8 0 0 1:0.53044809 2:-0.19615061 
8 0 0 1:0.51691299 2:-0.20746428 
8 0 0 1:0.50318756 2:-0.21038149 
8 0 0 1:0.49033657 2:-0.19697828 
8 0 0 1:0.47869581 2:-0.17842819 
8 0 0 1:0.46778495 2:-0.16724023 
8 0 0 1:0.45723455 2:-0.16171512 
8 0 0 1:0.44698682 2:-0.15707576 
8 0 0 1:0.43725402 2:-0.14918316 
8 0 0 1:0.42817739 2:-0.13912545 
8 0 0 1:0.41996004 2:-0.12595441 
8 0 0 1:0.41234464 2:-0.11672786 
8 0 0 1:0.40545595 2:-0.10558886 
8 0 0 1:0.39960633 2:-0.089662218 
8 0 0 1:0.75592565 2:-0.22439656 
8 0 0 1:0.74071791 2:-0.23310227 
8 0 0 1:0.72471531 2:-0.24528568 
8 0 0 1:0.70813414 2:-0.25415403 
8 0 0 1:0.69144331 2:-0.25583493 
8 0 0 1:0.88633983 2:-0.29178465 
8 0 0 1:0.86420729 2:-0.33924476 
8 0 0 1:0.83907026 2:-0.38529702 
8 0 0 1:0.95939197 2:-0.29136914 
8 0 0 1:0.93735203 2:-0.33782533 
8 0 0 1:0.91318685 2:-0.37040061 
8 0 0 1:0.88754145 2:-0.39308934 
8 0 0 1:0.86151114 2:-0.3989892 
8 0 0 1:0.72958612 2:-0.23107511 
8 0 0 1:0.71215148 2:-0.26723593 
8 0 0 1:0.69229646 2:-0.30433509 
8 0 0 1:0.67009817 2:-0.34025244 
8 0 0 1:0.64584207 2:-0.37179428 
-0 8 0 1:0.11933167 2:-0.55109286 
-8 0 0 1:0.92449239 2:-0.57616621 
-0 8 0 1:0.12140698 2:-0.60761755 
-0 8 0 1:0.082888487 2:-0.59040635 
-0 8 0 1:0.044970793 2:-0.58119744 
-0 8 0 1:0.0077478073 2:-0.57054905 
-0 8 0 1:0.13482511 2:-0.93348789 
-0 8 0 1:0.07218595 2:-0.96012485 
-8 0 0 1:0.85863194 2:-0.18326551 
-8 0 0 1:0.84626221 2:-0.18960157 
-8 0 0 1:0.83348097 2:-0.19590923 
-8 0 0 1:0.82055024 2:-0.19820056 
-8 0 0 1:0.80744579 2:-0.20086323 
-8 0 0 1:0.79425121 2:-0.20224475 
-8 0 0 1:0.7808532 2:-0.20536308 
-8 0 0 1:0.76712721 2:-0.21039007 
-8 0 0 1:0.75324259 2:-0.21282164 
-8 0 0 1:0.73905122 2:-0.21752342 
-8 0 0 1:0.72435244 2:-0.22530103 
-8 0 0 1:0.70926118 2:-0.23131688 
-8 0 0 1:0.69342604 2:-0.24271898 
-8 0 0 1:0.67677603 2:-0.2552092 
-8 0 0 1:0.65958149 2:-0.26355562 
-8 0 0 1:0.64183292 2:-0.27204774 
-8 0 0 1:0.62347442 2:-0.28139665 
-8 0 0 1:0.60443507 2:-0.29183265 
-8 0 0 1:0.58464244 2:-0.30337884 
-8 0 0 1:0.56418568 2:-0.31355853 
-8 0 0 1:0.54346425 2:-0.3176154 
-8 0 0 1:0.52294101 2:-0.31457745 
-8 0 0 1:0.50280845 2:-0.3085893 
-8 0 0 1:0.48321445 2:-0.30033434 
-8 0 0 1:0.46389335 2:-0.29615119 
-8 0 0 1:0.44450216 2:-0.29722568 
-8 0 0 1:0.4249093 2:-0.30031677 
-8 0 0 1:0.40497018 2:-0.30562416 
-8 0 0 1:0.38429778 2:-0.31686396 
-8 0 0 1:0.36293668 2:-0.32742013 
-8 0 0 1:0.34083854 2:-0.33871726 
-8 0 0 1:0.31778614 2:-0.3533443 
-8 0 0 1:0.29396202 2:-0.36517296 
-0 8 0 1:0.097610161 2:-0.42954602 
-0 8 0 1:0.070485155 2:-0.41576853 
-0 8 0 1:0.044686754 2:-0.39543452 
-0 8 0 1:0.020623736 2:-0.36883478 
-0 8 0 1:-0.0018891248 2:-0.34507418 
-0 8 8 1:-0.022705607 2:-0.31907232 
-8 0 0 1:0.97991169 2:-0.42550222 
-8 0 0 1:0.95191815 2:-0.4290813 
-8 0 0 1:0.92402717 2:-0.42750935 
-8 0 0 1:0.89606838 2:-0.4285486 
-8 0 0 1:0.86802474 2:-0.42984924 
-8 0 0 1:0.83919916 2:-0.44183471 
-8 0 0 1:0.80926696 2:-0.45879694 
-8 0 0 1:0.77792699 2:-0.48037493 
-8 0 0 1:0.74471736 2:-0.50903285 
-0 8 0 1:0.093605699 2:-0.34314167 
-0 8 0 1:0.10154306 2:-0.72338165 
-0 8 0 1:0.053784093 2:-0.73204316 
-8 0 0 1:0.55885698 2:-0.42893363 
-8 0 0 1:0.52969011 2:-0.44706592 
-8 0 0 1:0.50010242 2:-0.45351633 
-0 8 0 1:0.10695655 2:-0.38828941 
-8 0 0 1:0.93697034 2:-0.25696708 
-8 0 0 1:0.91756063 2:-0.29750941 
-8 0 0 1:0.89504931 2:-0.34505063 
-8 0 0 1:0.8698596 2:-0.38610458 
-8 0 0 1:0.84251664 2:-0.41910932 
-8 0 0 1:0.81271325 2:-0.45682233 
-8 0 0 1:0.77945887 2:-0.50971885 
-8 0 0 1:0.92129588 2:-0.53244727 
-8 0 0 1:0.88410023 2:-0.57013 
-0 8 0 1:0.10220986 2:-0.81200967 
-8 0 0 1:0.89471329 2:-0.22396942 
-8 0 0 1:0.87902148 2:-0.24052199 
-8 0 0 1:0.86194632 2:-0.26172591 
-8 0 0 1:0.84308185 2:-0.28915211 
-8 0 0 1:0.82213798 2:-0.3210249 
-8 0 0 1:0.79909854 2:-0.35314549 
-8 0 0 1:0.774152 2:-0.38237733 
-8 0 0 1:0.74757203 2:-0.40741426 
-8 0 0 1:0.71930409 2:-0.43328719 
-8 0 0 1:0.68931594 2:-0.45965452 
-8 0 0 1:0.65769932 2:-0.48461537 
-8 0 0 1:0.62487234 2:-0.50316761 
-0 8 0 1:0.11160983 2:-0.48147933 
-0 8 0 1:0.080800898 2:-0.47223519 
-0 8 0 1:0.050889563 2:-0.45847703 
-0 8 0 1:0.035154612 2:-0.4440354 
-0 8 0 1:0.020121425 2:-0.43161226 
-0 8 0 1:0.0055881736 2:-0.42262018 
-0 8 0 1:-0.008334496 2:-0.41217044 
-0 8 0 1:-0.021537381 2:-0.40040571 
-8 0 0 1:0.61917058 2:-0.2968086 
-8 0 0 1:0.59897761 2:-0.30951525 
-8 0 0 1:0.57788325 2:-0.32333146 
-8 0 0 1:0.55581438 2:-0.33826885 
-8 0 0 1:0.53272559 2:-0.35390192 
-8 0 0 1:0.50890368 2:-0.36513917 
-8 0 0 1:0.48424085 2:-0.37802863 
-8 0 0 1:0.458833 2:-0.38944813 
-8 0 0 1:0.43300839 2:-0.39583625 
-8 0 0 1:0.40655383 2:-0.40549202 
-8 0 0 1:0.37997971 2:-0.40732467 
-8 0 0 1:0.32907398 2:-0.38211963 
-8 0 0 1:0.30665732 2:-0.34359965 
-8 0 0 1:0.28619302 2:-0.31367411 
-8 0 0 1:0.26697003 2:-0.29464754 
-8 0 0 1:0.24880144 2:-0.27848569 
-8 0 0 1:0.23123323 2:-0.26928329 
-8 0 0 1:0.21335135 2:-0.27409097 
-8 0 0 1:0.1947757 2:-0.28472518 
-8 0 0 1:0.17554355 2:-0.29478791 
-0 8 0 1:0.090368516 2:-0.34394175 
-0 8 0 1:0.067771255 2:-0.34636785 
-0 8 0 1:0.045058776 2:-0.34813391 
-0 8 0 1:0.023447916 2:-0.33124843 
-0 8 0 1:0.0026528153 2:-0.31874457 
-0 8 8 1:-0.016593425 2:-0.29500385 
-0 8 8 1:-0.034998014 2:-0.28210312 
-0 8 8 1:-0.053229789 2:-0.27945426 
-0 8 8 1:-0.071933313 2:-0.28668516 
-0 8 0 1:0.098383287 2:-0.70380113 
-0 8 0 1:0.051991998 2:-0.7110796 
-0 8 0 1:0.0052792469 2:-0.71600692 
-0 8 0 1:0.083839884 2:-0.6511689 
-8 0 0 1:0.55286113 2:-0.34016833 
-8 0 0 1:0.52984439 2:-0.35279753 
-8 0 0 1:0.50573466 2:-0.36955079 
-8 0 0 1:0.48022798 2:-0.39096311 
-8 0 0 1:0.45360951 2:-0.40800436 
-8 0 0 1:0.42663153 2:-0.41351495 
-8 0 0 1:0.39982635 2:-0.4108663 
-8 0 0 1:0.32240506 2:-0.3648725 
-8 0 0 1:0.30095073 2:-0.32884923 
-8 0 0 1:0.28031281 2:-0.31633524 
-8 0 0 1:0.25849475 2:-0.33442432 
-0 8 0 1:0.10435836 2:-0.33151869 
-0 8 0 1:0.084604249 2:-0.30278839 
-0 8 0 1:0.066659038 2:-0.27506185 
-0 8 0 1:0.050870544 2:-0.24200397 
-0 8 0 1:0.042753372 2:-0.21929327 
-8 8 8 1:0.035548677 2:-0.2040224 
-8 8 8 1:0.028971268 2:-0.19364186 
-8 8 8 1:0.023062148 2:-0.18301777 
-8 8 8 1:0.01800824 2:-0.17000264 
-8 8 8 1:0.013936013 2:-0.15574882 
-8 8 8 1:0.01095311 2:-0.14076911 
-0 8 0 1:0.09711671 2:-0.55832701 
-0 8 0 1:0.058818535 2:-0.58702942 
-8 0 0 1:0.94810425 2:-0.11716142 
-8 0 0 1:0.93893878 2:-0.14048705 
-8 0 0 1:0.92843678 2:-0.16097329 
-8 0 0 1:0.9165245 2:-0.18258999 
-8 0 0 1:0.90330588 2:-0.20261328 
-8 0 0 1:0.88850867 2:-0.22680967 
-8 0 0 1:0.87232405 2:-0.24807571 
-8 0 0 1:0.85479574 2:-0.26867169 
-8 0 0 1:0.83538532 2:-0.29752035 
-8 0 0 1:0.81387839 2:-0.32965529 
-8 0 0 1:0.7908719 2:-0.35264052 
-8 0 0 1:0.76753684 2:-0.35767673 
-8 0 0 1:0.74458303 2:-0.35183296 
-8 0 0 1:0.72193958 2:-0.34707589 
-8 0 0 1:0.70012548 2:-0.33436369 
-8 0 0 1:0.6788672 2:-0.32584413 
-8 0 0 1:0.65749791 2:-0.32754558 
-8 0 0 1:0.63564486 2:-0.33496069 
-8 0 0 1:0.61345246 2:-0.34016218 
-8 0 0 1:0.59125031 2:-0.34031172 
-8 0 0 1:0.56894455 2:-0.34189982 
-8 0 0 1:0.54585141 2:-0.35396859 
-8 0 0 1:0.52170356 2:-0.37013498 
-8 0 0 1:0.49650327 2:-0.38626673 
-8 0 0 1:0.47078653 2:-0.39418282 
-8 0 0 1:0.44514706 2:-0.39299844 
-8 0 0 1:0.42032492 2:-0.38047063 
-8 0 0 1:0.39621483 2:-0.36955618 
-8 0 0 1:0.37232773 2:-0.36613836 
-8 0 0 1:0.34815758 2:-0.3704769 
-8 0 0 1:0.32346786 2:-0.37844088 
-0 8 0 1:0.090008831 2:-0.51144465 
-0 8 0 1:0.055250019 2:-0.53277851 
-0 8 0 1:0.01939934 2:-0.54951451 
-0 8 0 1:-0.016878589 2:-0.55606333 
-0 8 0 1:-0.053297027 2:-0.55821704 
-0 8 0 1:-0.090390242 2:-0.56855994 
-0 8 0 1:0.089257664 2:-0.548666 
-0 8 0 1:0.052346113 2:-0.56577541 
-0 8 0 1:0.014296963 2:-0.58321239 
-8 0 0 1:0.61076329 2:-0.45313539 
-0 8 0 1:0.12350487 2:-0.94001628 
-0 8 0 1:0.06031505 2:-0.96856523 
-8 0 0 1:0.76005462 2:-0.34005756 
-8 0 0 1:0.7374354 2:-0.34670438 
-8 0 0 1:0.71482443 2:-0.34657807 
-8 0 0 1:0.69230052 2:-0.34524355 
-8 0 0 1:0.66973497 2:-0.34588178 
-8 0 0 1:0.6464945 2:-0.3562268 
-8 0 0 1:0.62245694 2:-0.36844459 
-8 0 0 1:0.59726199 2:-0.38618494 
-8 0 0 1:0.57048929 2:-0.41036844 
-8 0 0 1:0.54177437 2:-0.4401385 
-1.015181970729008 0 0 1:0.51147599 2:-0.46440961 
-0 8 0 1:0.11585416 2:-0.44496555 
-0 8 0 1:0.086594827 2:-0.44848329 
-0 8 0 1:0.057957956 2:-0.4389422 
-8 0 0 1:0.54640015 2:-0.23484547 
-8 0 0 1:0.53048676 2:-0.24391837 
-8 0 0 1:0.51393625 2:-0.25368413 
-8 0 0 1:0.49653252 2:-0.26676201 
-8 0 0 1:0.47722621 2:-0.29592466 
-8 0 0 1:0.45563225 2:-0.33098932 
-8 0 0 1:0.43278865 2:-0.35014378 
-8 0 0 1:0.40862279 2:-0.37041107 
-8 0 0 1:0.38372166 2:-0.38168122 
-0 8 0 1:0.11365808 2:-0.49229201 
-0 8 0 1:0.084597073 2:-0.44544324 
-0 8 0 1:0.058500997 2:-0.39999723 
-0 8 0 1:0.034950216 2:-0.36098328 
-0 8 0 1:0.01298581 2:-0.33666752 
-8 0 0 1:0.36285001 2:-0.19371493 
-8 0 0 1:0.34914845 2:-0.2100158 
-8 0 0 1:0.33369881 2:-0.23681007 
-8 0 0 1:0.31598856 2:-0.27146041 
-8 0 0 1:0.29706929 2:-0.28999198 
-8 0 0 1:0.27667993 2:-0.31252552 
-8 0 0 1:0.25443643 2:-0.34094543 
-0 1.87162752387204 0 1:0.11142286 2:-0.35008338 
-0 8 0 1:0.089232685 2:-0.34012807 
-0 8 0 1:0.068308747 2:-0.32071938 
-0 8 0 1:0.048867475 2:-0.29799326 
-8 0 0 1:0.40206584 2:-0.14562714 
-8 0 0 1:0.39148275 2:-0.16221617 
-8 0 0 1:0.37991096 2:-0.17737095 
-8 0 0 1:0.36740319 2:-0.19171744 
-8 0 0 1:0.35395551 2:-0.20612418 
-8 0 0 1:0.33900763 2:-0.2291192 
-8 0 0 1:0.32141099 2:-0.26971904 
-8 0 0 1:0.30043994 2:-0.32144141 
-8 0 0 1:0.27751279 2:-0.3514244 
-0 8 0 1:0.090724227 2:-0.38524176 
-0 8 0 1:0.067921644 2:-0.349515 
-0 8 0 1:0.046268896 2:-0.33189049 
-0 8 0 1:0.025437812 2:-0.31929612 
-0 8 0 1:0.0044228829 2:-0.32211408 
-0 8 0 1:0.12697576 2:-0.9002512 
-8 0 0 1:0.84976577 2:-0.071523594 
-8 0 0 1:0.84461238 2:-0.078990347 
-8 0 0 1:0.83890554 2:-0.087473739 
-8 0 0 1:0.83251428 2:-0.097964479 
-8 0 0 1:0.82554839 2:-0.10677224 
-8 0 0 1:0.81800046 2:-0.11569357 
-8 0 0 1:0.81001261 2:-0.12243678 
-8 0 0 1:0.80149169 2:-0.13060756 
-8 0 0 1:0.79251983 2:-0.13751955 
-8 0 0 1:0.78300288 2:-0.14587451 
-8 0 0 1:0.77277848 2:-0.1567182 
-8 0 0 1:0.7620679 2:-0.16417043 
-8 0 0 1:0.75063649 2:-0.17521911 
-8 0 0 1:0.73859949 2:-0.18450159 
-8 0 0 1:0.72607509 2:-0.19197232 
-8 0 0 1:0.71349141 2:-0.19288104 
-8 0 0 1:0.70086599 2:-0.19352073 
-8 0 0 1:0.68815285 2:-0.1948654 
-8 0 0 1:0.67525664 2:-0.19767142 
-8 0 0 1:0.66240973 2:-0.19691567 
-8 0 0 1:0.64954185 2:-0.19723726 
-8 0 0 1:0.63665107 2:-0.1975881 
-8 0 0 1:0.6236874 2:-0.19870548 
-8 0 0 1:0.61066313 2:-0.19963432 
-8 0 0 1:0.59759481 2:-0.20030948 
-8 0 0 1:0.58447106 2:-0.20115913 
-8 0 0 1:0.57127931 2:-0.20220148 
-8 0 0 1:0.55785178 2:-0.20581534 
-8 0 0 1:0.54399978 2:-0.21232161 
-8 0 0 1:0.52973999 2:-0.21857221 
-8 0 0 1:0.51502068 2:-0.2256157 
-8 0 0 1:0.49984786 2:-0.23256705 
-8 0 0 1:0.48421508 2:-0.23961721 
-8 0 0 1:0.46805933 2:-0.24763309 
-8 0 0 1:0.45149154 2:-0.25394904 
-8 0 0 1:0.43450744 2:-0.26032994 
-8 0 0 1:0.4170866 2:-0.26702438 
-8 0 0 1:0.39936844 2:-0.27158167 
-8 0 0 1:0.38128344 2:-0.27720444 
-8 0 0 1:0.36285786 2:-0.28242489 
-8 0 0 1:0.34415734 2:-0.28663909 
-8 0 0 1:0.32496634 2:-0.2941572 
-8 0 0 1:0.30510866 2:-0.30437583 
-8 0 0 1:0.2836738 2:-0.32855086 
-8 0 0 1:0.26142259 2:-0.34106358 
-0 8 0 1:0.088191515 2:-0.41907265 
-0 8 0 1:0.060071755 2:-0.43101599 
-0 8 0 1:0.031081074 2:-0.44436535 
-0 8 0 1:0.00086533979 2:-0.46314282 
-0 8 0 1:-0.030806243 2:-0.48545786 
-0 8 0 1:-0.064510351 2:-0.51661215 
-0 8 0 1:0.10706252 2:-0.63692343 
-8 0 0 1:1.0556226 2:-0.29492311 
-8 0 0 1:1.0342767 2:-0.32718723 
-8 0 0 1:1.0112679 2:-0.35267614 
-8 0 0 1:0.98734706 2:-0.36665535 
-8 0 0 1:0.96250505 2:-0.38077507 
-8 0 0 1:0.93693881 2:-0.39187605 
-8 0 0 1:0.91079988 2:-0.40065403 
-8 0 0 1:0.88376978 2:-0.41431376 
-8 0 0 1:0.85529704 2:-0.43642656 
-8 0 0 1:0.82550658 2:-0.4566242 
-8 0 0 1:0.79475312 2:-0.47138504 
-8 0 0 1:0.76346238 2:-0.47962027 
-8 0 0 1:0.73193664 2:-0.48322242 
-8 0 0 1:0.70028852 2:-0.48509823 
-8 0 0 1:0.66858696 2:-0.48591738 
-8 0 0 1:0.63714419 2:-0.48195067 
-8 0 0 1:0.6058128 2:-0.48024342 
-8 0 0 1:0.57464375 2:-0.47775508 
-8 0 0 1:0.54360341 2:-0.47578233 
-0 8 0 1:0.096675313 2:-0.42653666 
-0 8 0 1:0.069285241 2:-0.41983142 
-8 0 0 1:0.58055668 2:-0.26296796 
-8 0 0 1:0.5632849 2:-0.26473952 
-8 0 0 1:0.54487894 2:-0.28212419 
-8 0 0 1:0.5247939 2:-0.30786079 
-8 0 0 1:0.50314961 2:-0.3317608 
-8 0 0 1:0.47950042 2:-0.36249174 
-8 0 0 1:0.45380753 2:-0.39381731 
-8 0 0 1:0.42616645 2:-0.42367877 
-0 8 0 1:0.089933125 2:-0.40624458 
-0 8 0 1:0.063885761 2:-0.39925059 
-0 8 0 1:0.037962922 2:-0.39734187 
-0 8 0 1:0.012247588 2:-0.39416126 
-8 0 0 1:1.3085849 2:-0.46014578 
-8 0 0 1:1.2754183 2:-0.50837318 
-8 0 0 1:1.2391682 2:-0.55563718 
-8 0 0 1:1.199627 2:-0.60608193 
-8 0 0 1:0.28947615 2:-0.36257632 
-0 8 0 1:0.10007386 2:-0.42440351 
-8 0 0 1:0.63893377 2:-0.21058935 
-8 0 0 1:0.62357819 2:-0.23536835 
-8 0 0 1:0.60652074 2:-0.26145436 
-8 0 0 1:0.58748609 2:-0.29176059 
-8 0 0 1:0.56623779 2:-0.32569118 
-8 0 0 1:0.54284173 2:-0.35861175 
-8 0 0 1:0.51749273 2:-0.38854608 
-8 0 0 1:0.49027768 2:-0.41714871 
-0 8 0 1:0.12127775 2:-0.64642394 
-0 8 0 1:0.079053487 2:-0.64720798 
-0 8 0 1:0.036676277 2:-0.64955232 
-0 8 0 1:-0.0058839237 2:-0.65235717 
-0 8 0 1:-0.048945783 2:-0.66004654 
-0 8 0 1:-0.091928206 2:-0.65882894 
-8 0 0 1:1.2556705 2:-0.17098206 
-8 0 0 1:1.2411061 2:-0.22324082 
-8 0 0 1:1.2242745 2:-0.25799325 
-8 0 0 1:1.2061628 2:-0.27761282 
-8 0 0 1:1.1871438 2:-0.29152197 
-8 0 0 1:1.1667646 2:-0.31236944 
-8 0 0 1:1.1449165 2:-0.33488421 
-8 0 0 1:1.1212715 2:-0.36242817 
-8 0 0 1:1.0956779 2:-0.39229537 
-8 0 0 1:1.0681967 2:-0.42122742 
-8 0 0 1:1.0389182 2:-0.44877683 
-8 0 0 1:1.0083676 2:-0.46827538 
-8 0 0 1:0.97729203 2:-0.47632285 
-8 0 0 1:0.94557604 2:-0.48613854 
-8 0 0 1:0.91322673 2:-0.49584598 
-8 0 0 1:0.88023561 2:-0.50568365 
-8 0 0 1:0.84661023 2:-0.51540533 
-8 0 0 1:0.81236902 2:-0.52484489 
-8 0 0 1:0.7774981 2:-0.53449687 
-8 0 0 1:1.0111224 2:-0.49043286 
-8 0 0 1:0.97822698 2:-0.50421693 
-8 0 0 1:0.94452653 2:-0.51655617 
-8 0 0 1:0.91006259 2:-0.5282587 
-8 0 0 1:0.8747801 2:-0.54080543 
-8 0 0 1:0.83867402 2:-0.55342923 
-0 8 0 1:0.10082739 2:-0.30328639 
-0 8 0 1:0.083686443 2:-0.26273413 
-8 0 0 1:0.85081956 2:-0.15856529 
-8 0 0 1:0.83924791 2:-0.17736866 
-8 0 0 1:0.82572465 2:-0.20728285 
-8 0 0 1:0.80935921 2:-0.2508473 
-8 0 0 1:0.79005566 2:-0.29588228 
-8 0 0 1:0.76853475 2:-0.32986962 
-8 0 0 1:0.74498468 2:-0.36097244 
-8 0 0 1:0.71917985 2:-0.39553305 
-8 0 0 1:0.69125243 2:-0.42806777 
-8 0 0 1:0.66124085 2:-0.46001367 
-8 0 0 1:0.62913201 2:-0.4921601 
-0 8 0 1:0.12915317 2:-0.72269475 
-0 8 0 1:0.081469185 2:-0.73089387 
-0 8 0 1:0.032533988 2:-0.75007228 
-8 0 0 1:0.62376337 2:-0.28267278 
-8 0 0 1:0.60481421 2:-0.29045017 
-8 0 0 1:0.58507039 2:-0.30263066 
-8 0 0 1:0.56406861 2:-0.32191251 
-8 0 0 1:0.54133937 2:-0.34839093 
-8 0 0 1:0.51691287 2:-0.3744061 
-8 0 0 1:0.49126967 2:-0.3930557 
-8 0 0 1:0.46456318 2:-0.4093535 
-8 0 0 1:0.4370633 2:-0.42151454 
-0 8 0 1:0.11334352 2:-0.43477922 
-0 8 0 1:0.084323285 2:-0.44481831 
-0 8 0 1:0.055323604 2:-0.4445033 
-0 8 0 1:0.026512067 2:-0.44161946 
-8 0 0 1:0.71588141 2:-0.066536707 
-8 0 0 1:0.71103973 2:-0.074212648 
-8 0 0 1:0.70549242 2:-0.085028413 
-8 0 0 1:0.69947428 2:-0.092245272 
-8 0 0 1:0.69323704 2:-0.095603687 
-8 0 0 1:0.68651189 2:-0.10308224 
-8 0 0 1:0.67913296 2:-0.11310313 
-8 0 0 1:0.67113921 2:-0.12252717 
-8 0 0 1:0.66265065 2:-0.13011162 
-8 0 0 1:0.65390223 2:-0.13409455 
-8 0 0 1:0.64466403 2:-0.141602 
-8 0 0 1:0.6346491 2:-0.15350757 
-8 0 0 1:0.62410338 2:-0.16164328 
-8 0 0 1:0.61333066 2:-0.16512289 
-8 0 0 1:0.60250058 2:-0.16600209 
-8 0 0 1:0.59161832 2:-0.16680183 
-8 0 0 1:0.5806538 2:-0.16806276 
-8 0 0 1:0.56962353 2:-0.16907056 
-8 0 0 1:0.55854782 2:-0.16976697 
-8 0 0 1:0.54737631 2:-0.17123541 
-8 0 0 1:0.53612224 2:-0.17250102 
-8 0 0 1:0.52483901 2:-0.17294781 
-8 0 0 1:0.5134646 2:-0.17434552 
-8 0 0 1:0.50202836 2:-0.17529312 
-8 0 0 1:0.49055353 2:-0.17588476 
-8 0 0 1:0.47896501 2:-0.17762723 
-8 0 0 1:0.46756633 2:-0.17471754 
-8 0 0 1:0.45620686 2:-0.17411645 
-8 0 0 1:0.44459084 2:-0.17804885 
-8 0 0 1:0.43234139 2:-0.1877579 
-8 0 0 1:0.42001216 2:-0.18898075 
-8 0 0 1:0.40758139 2:-0.19053733 
-8 0 0 1:0.3948 2:-0.19591145 
-8 0 0 1:0.38144351 2:-0.20472648 
-8 0 0 1:0.36729922 2:-0.21680179 
-8 0 0 1:0.35264864 2:-0.22456216 
-8 0 0 1:0.33781083 2:-0.2274321 
-8 0 0 1:0.32256355 2:-0.23370827 
-8 0 0 1:0.30694589 2:-0.23938547 
-8 0 0 1:0.29080972 2:-0.24733309 
-8 0 0 1:0.2742087 2:-0.25445821 
-8 0 0 1:0.25764891 2:-0.25382629 
-8 0 0 1:0.23956374 2:-0.27720712 
-8 0 0 1:0.2211646 2:-0.28201971 
-8 0 0 1:0.20252262 2:-0.28574182 
-8 0 0 1:0.1831686 2:-0.29665576 
-0 8 0 1:0.096487146 2:-0.34944109 
-0 8 0 1:0.072981753 2:-0.36028758 
-0 8 0 1:0.047785984 2:-0.38619744 
-0 8 0 1:0.020503355 2:-0.41818456 
-0 8 0 1:-0.008625609 2:-0.44648493 
-0 8 0 1:-0.039733513 2:-0.47681787 
-0 8 0 1:-0.073141556 2:-0.51207411 
-0 8 0 1:-0.10854487 2:-0.54265735 
-0 8 0 1:0.092294192 2:-0.79016616 
-0 8 0 1:0.04038081 2:-0.79572151 
-8 0 0 1:1.1913287 2:-0.401866 
-8 0 0 1:1.1652324 2:-0.40000037 
-8 0 0 1:1.1391166 2:-0.40029979 
-8 0 0 1:1.1128145 2:-0.40315414 
-8 0 0 1:1.0861807 2:-0.40823992 
-8 0 0 1:1.0591189 2:-0.41480015 
-8 0 0 1:1.0317757 2:-0.41911222 
-8 0 0 1:1.0036512 2:-0.4310898 
-8 0 0 1:0.97438028 2:-0.44866002 
-8 0 0 1:0.94391792 2:-0.46692307 
-8 0 0 1:0.91275549 2:-0.47765365 
-8 0 0 1:0.88073667 2:-0.49078027 
-8 0 0 1:0.84785489 2:-0.50400768 
-8 0 0 1:0.81433211 2:-0.51383278 
-8 0 0 1:0.78027231 2:-0.52206411 
-8 0 0 1:0.74568627 2:-0.53013028 
-8 0 0 1:0.54260498 2:-0.45937141 
-8 0 0 1:0.51526644 2:-0.41904152 
-8 0 0 1:0.48930934 2:-0.39786702 
-8 0 0 1:0.46402018 2:-0.38762906 
-8 0 0 1:0.43859099 2:-0.38977515 
-8 0 0 1:0.41237737 2:-0.40179907 
-8 0 0 1:0.38564137 2:-0.40980582 
-0 8 0 1:0.10210511 2:-0.43446236 
-0 8 0 1:0.074219953 2:-0.42742 
-0 8 0 1:0.046741654 2:-0.42118376 
-0 8 0 1:0.019732364 2:-0.41399486 
-0 8 0 1:-0.0068094982 2:-0.40683018 
-8 0 0 1:0.5551527 2:-0.13063107 
-8 0 0 1:0.54597218 2:-0.14071781 
-8 0 0 1:0.5361598 2:-0.15040288 
-8 0 0 1:0.52569169 2:-0.16045383 
-8 0 0 1:0.51458175 2:-0.17029173 
-8 0 0 1:0.50281766 2:-0.18031835 
-8 0 0 1:0.4904088 2:-0.19020142 
-8 0 0 1:0.47734554 2:-0.20023197 
-8 0 0 1:0.46367336 2:-0.20956537 
-8 0 0 1:0.44942067 2:-0.21846326 
-8 0 0 1:0.43443275 2:-0.22973299 
-8 0 0 1:0.4185968 2:-0.24273125 
-8 0 0 1:0.40211006 2:-0.25270665 
-8 0 0 1:0.38547903 2:-0.25491828 
-8 0 0 1:0.36867563 2:-0.25756021 
-8 0 0 1:0.35163447 2:-0.26120478 
-8 0 0 1:0.33445043 2:-0.26339465 
-8 0 0 1:0.31692441 2:-0.26863651 
-8 0 0 1:0.29867948 2:-0.27965593 
-8 0 0 1:0.27905224 2:-0.30084373 
-8 0 0 1:0.25779818 2:-0.32577944 
-0 8 0 1:0.10269616 2:-0.44720327 
-0 8 0 1:0.072404434 2:-0.46430759 
-0 8 0 1:0.041466238 2:-0.47421661 
-0 8 0 1:0.010345549 2:-0.47701384 
-0 8 0 1:-0.020490349 2:-0.4726486 
-0 8 0 1:-0.050659152 2:-0.46242346 
-8 0 0 1:0.84423758 2:-0.097959774 
-8 0 0 1:0.83737929 2:-0.10512298 
-8 0 0 1:0.82982236 2:-0.1158315 
-8 0 0 1:0.82135928 2:-0.1297211 
-8 0 0 1:0.81175927 2:-0.14714763 
-8 0 0 1:0.80072421 2:-0.16914397 
-8 0 0 1:0.78834571 2:-0.18973596 
-8 0 0 1:0.7746148 2:-0.21046566 
-8 0 0 1:0.75953404 2:-0.23115594 
-8 0 0 1:0.74292225 2:-0.25462327 
-8 0 0 1:0.72459598 2:-0.28090269 
-8 0 0 1:0.70529255 2:-0.29588045 
-8 0 0 1:0.68579693 2:-0.29882633 
-8 0 0 1:0.66696608 2:-0.28863684 
-8 0 0 1:0.64931966 2:-0.27048191 
-8 0 0 1:0.63187418 2:-0.26740213 
-8 0 0 1:0.61410463 2:-0.27236934 
-8 0 0 1:0.59500901 2:-0.29269504 
-8 0 0 1:0.57431167 2:-0.31724623 
-8 0 0 1:0.55205935 2:-0.34108054 
-8 0 0 1:0.52840605 2:-0.3625548 
-8 0 0 1:0.50400427 2:-0.37402725 
-8 0 0 1:0.47937561 2:-0.37750489 
-8 0 0 1:0.45417206 2:-0.38631662 
-8 0 0 1:0.42733787 2:-0.41131102 
-0 8 0 1:0.092760247 2:-0.33902951 
-0 8 0 1:0.070418087 2:-0.3424577 
-0 8 0 1:0.088458276 2:-0.93534379 
-0 8 0 1:0.026568234 2:-0.94864245 
-8 0 0 1:1.0346474 2:-0.1914657 
-8 0 0 1:1.0214032 2:-0.20300622 
-8 0 0 1:1.0079662 2:-0.20596016 
-8 0 0 1:0.9946077 2:-0.20475759 
-8 0 0 1:0.98103107 2:-0.20810084 
-8 0 0 1:0.96652247 2:-0.22238579 
-8 0 0 1:0.9508909 2:-0.23959865 
-8 0 0 1:0.93487843 2:-0.24543713 
-8 0 0 1:0.91853916 2:-0.25044621 
-8 0 0 1:0.9016941 2:-0.25819886 
-8 0 0 1:0.88487635 2:-0.25778029 
-8 0 0 1:0.8686432 2:-0.2488195 
-8 0 0 1:0.85339319 2:-0.23375021 
-8 0 0 1:0.83890133 2:-0.2221293 
-8 0 0 1:0.82566709 2:-0.2028527 
-8 0 0 1:0.81409391 2:-0.17739227 
-8 0 0 1:0.80429572 2:-0.15018537 
-8 0 0 1:0.79638428 2:-0.12126551 
-8 0 0 1:0.78966598 2:-0.10297722 
-8 0 0 1:0.78400808 2:-0.086723479 
-8 0 0 1:0.77979143 2:-0.064632196 
-8 0 0 1:0.77686885 2:-0.044796972 
-8 0 0 1:0.77502396 2:-0.028278196 
-8 0 0 1:0.77366215 2:-0.020873733 
-8 0 0 1:0.77302566 2:-0.009756013 
-8 0 0 1:0.77301162 2:-0.00021525733 
-8 0 0 1:0.77292972 2:-0.0012553233 
-8 0 0 1:0.77214293 2:-0.012059824 
-8 0 0 1:0.77036915 2:-0.027188297 
-8 0 0 1:0.76772529 2:-0.04052472 
-8 0 0 1:0.76492957 2:-0.042852362 
-8 0 0 1:0.76235557 2:-0.039453926 
-8 0 0 1:0.75969106 2:-0.040841295 
-8 0 0 1:0.75717063 2:-0.038632826 
-8 0 0 1:0.75412673 2:-0.046656477 
-8 0 0 1:0.75062444 2:-0.053682658 
-8 0 0 1:0.74661235 2:-0.061496821 
-8 0 0 1:0.74179204 2:-0.073884965 
-8 0 0 1:0.73599924 2:-0.088791421 
-8 0 0 1:0.72951427 2:-0.099400746 
-8 0 0 1:0.7224599 2:-0.10812849 
-8 0 0 1:0.71469641 2:-0.11899767 
-8 0 0 1:0.70612152 2:-0.13143474 
-8 0 0 1:0.69742724 2:-0.13326481 
-8 0 0 1:0.68874554 2:-0.13307193 
-8 0 0 1:0.67969724 2:-0.13869122 
-8 0 0 1:0.67053008 2:-0.14051306 
-8 0 0 1:0.6611184 2:-0.14426091 
-8 0 0 1:0.65169539 2:-0.14443477 
-8 0 0 1:0.64182754 2:-0.15125298 
-8 0 0 1:0.63081749 2:-0.16876067 
-8 0 0 1:0.6187204 2:-0.18542255 
-8 0 0 1:0.60545713 2:-0.20329774 
-8 0 0 1:0.59123918 2:-0.21793079 
-8 0 0 1:0.57620325 2:-0.2304688 
-8 0 0 1:0.56030448 2:-0.2436943 
-8 0 0 1:0.54340668 2:-0.25900729 
-8 0 0 1:0.52556553 2:-0.27346682 
-8 0 0 1:0.50643996 2:-0.29315426 
-8 0 0 1:0.48669268 2:-0.30268367 
-8 0 0 1:0.46626444 2:-0.31312138 
-8 0 0 1:0.44529733 2:-0.32138107 
-8 0 0 1:0.42423074 2:-0.32290599 
-8 0 0 1:0.40306361 2:-0.32444695 
-8 0 0 1:0.38195108 2:-0.32361016 
-8 0 0 1:0.36151356 2:-0.31326358 
-8 0 0 1:0.3419233 2:-0.30027687 
-8 0 0 1:0.32301277 2:-0.28985824 
-8 0 0 1:0.30454368 2:-0.28309172 
-8 0 0 1:0.28670718 2:-0.27339549 
-8 0 0 1:0.27003815 2:-0.2555007 
-8 0 0 1:0.25441158 2:-0.23952212 
-8 0 0 1:0.23984954 2:-0.22320506 
-8 0 0 1:0.22642501 2:-0.20576941 
-8 0 0 1:0.21395879 2:-0.1910806 
-8 0 0 1:0.20308809 2:-0.16662468 
-8 0 0 1:0.19382092 2:-0.14204583 
-8 0 0 1:0.18624377 2:-0.11614156 
-8 0 0 1:0.18003193 2:-0.09521441 
-8 0 0 1:0.17535353 2:-0.071709862 
-8 0 0 1:0.17213395 2:-0.049349276 
-8 0 0 1:0.17022449 2:-0.029267991 
-8 0 0 1:0.16951852 2:-0.010820989 
-8 0 0 1:0.17004046 2:0.0080002882 
-8 0 0 1:0.17188356 2:0.028250748 
-8 0 0 1:0.17496316 2:0.047203691 
-8 0 0 1:0.17919542 2:0.064871553 
-8 0 0 1:0.1846662 2:0.083855374 
-8 0 0 1:0.19110664 2:0.098718213 
-8 0 0 1:0.19707009 2:0.091406998 
-8 0 0 1:0.2010118 2:0.060418093 
-8 0 0 1:0.20241892 2:0.021568016 
-8 0 0 1:0.20173344 2:-0.010506893 
-8 0 0 1:0.19962031 2:-0.032389813 
-8 0 0 1:0.19664473 2:-0.045609202 
-8 0 0 1:0.19274879 2:-0.059716447 
-8 0 0 1:0.18624913 2:-0.099626008 
-8 0 0 1:0.17839962 2:-0.12031621 
-8 0 0 1:0.16895616 2:-0.14474819 
-8 0 0 1:0.1578896 2:-0.16962675 
-8 0 0 1:0.14492187 2:-0.19876762 
-8 0 0 1:0.12990687 2:-0.23014792 
-0 8 0 1:0.092225813 2:-0.31191412 
-0 8 0 1:0.068280046 2:-0.36703758 
-0 8 0 1:0.040814098 2:-0.42099445 
-0 8 0 1:0.010031337 2:-0.47183412 
-0 8 0 1:-0.024150969 2:-0.52394191 
-0 8 0 1:-0.061397094 2:-0.57090372 
-8 0 0 1:1.3407881 2:-0.46690005 
-8 0 0 1:1.3070732 2:-0.51677611 
-8 0 0 1:1.2700846 2:-0.56695693 
-0 3.460590337600972 0 1:0.14176354 2:-0.88506611 
-8 0 0 1:1.029292 2:0.17268686 
-8 0 0 1:1.0403944 2:0.17017668 
-8 0 0 1:1.0504491 2:0.15411733 
-8 0 0 1:1.0592371 2:0.1347009 
-8 0 0 1:1.0659187 2:0.10241393 
-8 0 0 1:1.0706606 2:0.072684197 
-8 0 0 1:1.0735495 2:0.044280655 
-8 0 0 1:1.0746163 2:0.016351298 
-8 0 0 1:1.0739567 2:-0.01011075 
-8 0 0 1:1.0713082 2:-0.04059479 
-8 0 0 1:1.0667304 2:-0.070168552 
-8 0 0 1:1.0605291 2:-0.095052619 
-8 0 0 1:1.0533867 2:-0.10947703 
-8 0 0 1:1.0458562 2:-0.11542746 
-8 0 0 1:1.0380985 2:-0.11890934 
-8 0 0 1:1.0299807 2:-0.12442802 
-8 0 0 1:1.0216062 2:-0.12836297 
-8 0 0 1:1.0129604 2:-0.13252144 
-8 0 0 1:1.0040649 2:-0.13634962 
-8 0 0 1:0.99491173 2:-0.14029851 
-8 0 0 1:0.98549992 2:-0.14426298 
-8 0 0 1:0.97573255 2:-0.14971296 
-8 0 0 1:0.96581178 2:-0.1520642 
-8 0 0 1:0.95564423 2:-0.15584693 
-8 0 0 1:0.9452434 2:-0.15942247 
-8 0 0 1:0.93460265 2:-0.16310012 
-8 0 0 1:0.92372253 2:-0.16676902 
-8 0 0 1:0.91261056 2:-0.17032285 
-8 0 0 1:0.90133756 2:-0.17279103 
-8 0 0 1:0.89026401 2:-0.16973386 
-8 0 0 1:0.87904726 2:-0.17192887 
-8 0 0 1:0.86746404 2:-0.17754619 
-8 0 0 1:0.85570098 2:-0.18030251 
-8 0 0 1:0.84368369 2:-0.18419955 
-8 0 0 1:0.83163729 2:-0.18464567 
-8 0 0 1:0.81943571 2:-0.18702421 
-8 0 0 1:0.80709614 2:-0.18913931 
-8 0 0 1:0.79442547 2:-0.19421432 
-8 0 0 1:0.78175421 2:-0.19422339 
-8 0 0 1:0.76973619 2:-0.18421068 
-8 0 0 1:0.75862533 2:-0.17030583 
-8 0 0 1:0.74817985 2:-0.16010687 
-8 0 0 1:0.73768169 2:-0.16091437 
-8 0 0 1:0.72685981 2:-0.16587639 
-8 0 0 1:0.71612319 2:-0.16456961 
-8 0 0 1:0.70587349 2:-0.15710605 
-8 0 0 1:0.69634025 2:-0.14612411 
-8 0 0 1:0.68785703 2:-0.13002983 
-8 0 0 1:0.68027357 2:-0.11623819 
-8 0 0 1:0.67331917 2:-0.10659614 
-8 0 0 1:0.66688096 2:-0.098684039 
-8 0 0 1:0.66121621 2:-0.08682856 
-8 0 0 1:0.65631607 2:-0.075108704 
-8 0 0 1:0.6519491 2:-0.06693631 
-8 0 0 1:0.64827269 2:-0.056351543 
-8 0 0 1:0.64561303 2:-0.040766894 
-8 0 0 1:0.64411545 2:-0.022954677 
-8 0 0 1:0.64356157 2:-0.0084899215 
-8 0 0 1:0.64351605 2:-0.00069766166 
-8 0 0 1:0.6435651 2:0.00075188995 
-8 0 0 1:0.6433697 2:-0.0029951678 
-8 0 0 1:0.64243594 2:-0.014312492 
-8 0 0 1:0.64089149 2:-0.023673182 
-8 0 0 1:0.6383163 2:-0.039472211 
-8 0 0 1:0.63404232 2:-0.065510861 
-8 0 0 1:0.62782891 2:-0.095238355 
-8 0 0 1:0.61994107 2:-0.12090388 
-8 0 0 1:0.61090242 2:-0.13854326 
-8 0 0 1:0.60119564 2:-0.14878422 
-8 0 0 1:0.59121669 2:-0.15295603 
-8 0 0 1:0.58122061 2:-0.15321851 
-8 0 0 1:0.57124462 2:-0.15291077 
-8 0 0 1:0.56090701 2:-0.15845351 
-8 0 0 1:0.55023956 2:-0.16350924 
-8 0 0 1:0.53956304 2:-0.16364825 
-8 0 0 1:0.52898843 2:-0.16208626 
-8 0 0 1:0.51823422 2:-0.16483911 
-8 0 0 1:0.50734743 2:-0.16687138 
-8 0 0 1:0.49615676 2:-0.17152901 
-8 0 0 1:0.48482311 2:-0.17372071 
-8 0 0 1:0.47332655 2:-0.1762178 
-8 0 0 1:0.46161244 2:-0.17955243 
-8 0 0 1:0.44972852 2:-0.1821551 
-8 0 0 1:0.43809003 2:-0.17839329 
-8 0 0 1:0.42706247 2:-0.16902889 
-8 0 0 1:0.41708563 2:-0.15292368 
-8 0 0 1:0.40862414 2:-0.12969663 
-8 0 0 1:0.40171249 2:-0.10594088 
-8 0 0 1:0.39645585 2:-0.08057308 
-8 0 0 1:0.3928855 2:-0.054725948 
-8 0 0 1:0.39093898 2:-0.029835993 
-8 0 0 1:0.39064107 2:-0.0045662415 
-8 0 0 1:0.39217724 2:0.023546126 
-8 0 0 1:0.39531333 2:0.048069576 
-8 0 0 1:0.39925193 2:0.060370365 
-8 0 0 1:0.40335362 2:0.062870184 
-8 0 0 1:0.4073225 2:0.060834428 
-8 0 0 1:0.41123985 2:0.060044708 
-8 0 0 1:0.41523088 2:0.061173902 
-8 0 0 1:0.41920808 2:0.060962075 
-8 0 0 1:0.42319778 2:0.061153637 
-8 0 0 1:0.42721591 2:0.061589366 
-8 0 0 1:0.43146373 2:0.06510997 
-8 0 0 1:0.43602217 2:0.069871223 
-8 0 0 1:0.44041954 2:0.067402257 
-8 0 0 1:0.4445536 2:0.063366285 
-8 0 0 1:0.4487505 2:0.064329506 
-8 0 0 1:0.4530035 2:0.065189429 
-8 0 0 1:0.4572737 2:0.065453194 
-8 0 0 1:0.46136783 2:0.06275425 
-8 0 0 1:0.46534023 2:0.060888461 
-8 0 0 1:0.46933825 2:0.061281016 
-8 0 0 1:0.47346919 2:0.063318525 
-8 0 0 1:0.47764356 2:0.063984286 
-8 0 0 1:0.48164547 2:0.061340689 
-8 0 0 1:0.48547102 2:0.058637479 
-8 0 0 1:0.48928705 2:0.058491717 
-8 0 0 1:0.49349812 2:0.064546652 
-8 0 0 1:0.49788201 2:0.06719564 
-8 0 0 1:0.50193975 2:0.062196645 
-8 0 0 1:0.50583373 2:0.059686381 
-8 0 0 1:0.50977899 2:0.060472438 
-8 0 0 1:0.51417238 2:0.067341272 
-8 0 0 1:0.5184702 2:0.065876484 
-8 0 0 1:0.52139346 2:0.044807197 
-8 0 0 1:0.52202272 2:0.0096452238 
-8 0 0 1:0.51940619 2:-0.040105817 
-8 0 0 1:0.51288129 2:-0.10001278 
-8 0 0 1:0.50270296 2:-0.15601207 
-8 0 0 1:0.48918149 2:-0.20725538 
-8 0 0 1:0.47247711 2:-0.25604255 
-8 0 0 1:0.45165686 2:-0.31913003 
-8 0 0 1:0.42775362 2:-0.36638578 
-0 8 0 1:0.12284242 2:-0.74036365 
-0 8 0 1:0.071282882 2:-0.79029784 
-0 8 0 1:0.016487773 2:-0.83989224 
-8 0 0 1:0.93317736 2:-0.39310596 
-8 0 0 1:0.90588873 2:-0.4182765 
-8 0 0 1:0.87701169 2:-0.44262346 
-8 0 0 1:0.84642812 2:-0.46878109 
-8 0 0 1:0.81400607 2:-0.49696086 
-8 0 0 1:0.7796548 2:-0.52653178 
-0 8 0 1:0.091154722 2:-0.85044887 
-8 0 0 1:0.89700503 2:-0.075602478 
-8 0 0 1:0.89133585 2:-0.08689652 
-8 0 0 1:0.88500899 2:-0.096977237 
-8 0 0 1:0.87804348 2:-0.1067664 
-8 0 0 1:0.87044735 2:-0.11643251 
-8 0 0 1:0.86175821 2:-0.13318604 
-8 0 0 1:0.85147443 2:-0.15762846 
-8 0 0 1:0.83986399 2:-0.17796319 
-8 0 0 1:0.82667554 2:-0.20215097 
-8 0 0 1:0.81183778 2:-0.22743113 
-8 0 0 1:0.79552015 2:-0.25011447 
-8 0 0 1:0.77775171 2:-0.2723524 
-8 0 0 1:0.75758797 2:-0.30906712 
-8 0 0 1:0.7356637 2:-0.33605228 
-8 0 0 1:0.71202367 2:-0.36235135 
-8 0 0 1:0.68663896 2:-0.3890935 
-8 0 0 1:0.65945162 2:-0.41672404 
-8 0 0 1:0.63043554 2:-0.44475465 
-8 0 0 1:0.59976033 2:-0.47018549 
-8 0 0 1:0.99960178 2:-0.38537643 
-8 0 0 1:0.97375899 2:-0.39611498 
-8 0 0 1:0.94674198 2:-0.41411306 
-8 0 0 1:0.91783695 2:-0.44305257 
-8 0 0 1:0.88718889 2:-0.46976948 
-8 0 0 1:0.85429781 2:-0.50415008 
-8 0 0 1:0.81905007 2:-0.54027273 
-0 8 0 1:0.11783168 2:-0.61643818 
-8 0 0 1:0.75044554 2:-0.26054173 
-8 0 0 1:0.73147038 2:-0.29084865 
-8 0 0 1:0.71045254 2:-0.32215871 
-8 0 0 1:0.68733306 2:-0.35437241 
-8 0 0 1:0.66166496 2:-0.39343726 
-8 0 0 1:0.63361416 2:-0.42995896 
-8 0 0 1:0.60334547 2:-0.46395458 
-0 8 0 1:0.11704198 2:-0.66148858 
-0 8 0 1:0.075279796 2:-0.64012525 
-0 8 0 1:0.034090726 2:-0.63134067 
-0 8 0 1:-0.0070112896 2:-0.6300063 
-8 0 0 1:0.84006867 2:-0.54825591 
-8 0 0 1:0.82535638 2:-0.50635291 
-8 0 0 1:0.81237404 2:-0.47692393 
-8 0 0 1:0.80069311 2:-0.45302904 
-8 0 0 1:0.78991915 2:-0.43460615 
-8 0 0 1:0.77978144 2:-0.42011179 
-8 0 0 1:0.7700368 2:-0.40933323 
-8 0 0 1:0.76050287 2:-0.40149507 
-8 0 0 1:0.75052236 2:-0.40397117 
-8 0 0 1:0.72296752 2:-0.42235694 
-8 0 0 1:0.69370866 2:-0.44847596 
-8 0 0 1:0.66171507 2:-0.49039364 
-8 0 0 1:0.62964966 2:-0.49149431 
-0 8 0 1:0.11575484 2:-0.57965416 
-0 8 0 1:0.076922552 2:-0.59521623 
-0 8 0 1:0.037183531 2:-0.60911451 
-0 8 0 1:-0.0030836518 2:-0.61721009 
-0 8 0 1:-0.043840953 2:-0.62472257 
-8 0 0 1:0.91392733 2:-0.40253375 
-8 0 0 1:0.88300914 2:-0.47390996 
-8 0 0 1:0.84666153 2:-0.55713142 
-8 0 0 1:0.56089858 2:-0.39470254 
-8 0 0 1:0.53471409 2:-0.40135234 
-8 0 0 1:0.50825899 2:-0.40550035 
-8 0 0 1:0.48157888 2:-0.40894926 
-8 0 0 1:0.45492286 2:-0.40857993 
-0 8 0 1:0.11559872 2:-0.68458134 
-0 8 0 1:0.071868607 2:-0.67028949 
-0 8 0 1:0.030202173 2:-0.63865764 
-8 0 0 1:1.3074084 2:-0.21470033 
-8 0 0 1:1.2933294 2:-0.21580172 
-8 0 0 1:1.278722 2:-0.22389991 
-8 0 0 1:1.262498 2:-0.24867976 
-8 0 0 1:1.2442387 2:-0.27987623 
-8 0 0 1:1.2245162 2:-0.30230388 
-8 0 0 1:1.2033318 2:-0.32471117 
-8 0 0 1:1.1806278 2:-0.34800423 
-8 0 0 1:1.155935 2:-0.3784882 
-8 0 0 1:1.1290041 2:-0.41279303 
-8 0 0 1:1.0998779 2:-0.44644297 
-8 0 0 1:1.0685587 2:-0.48005622 
-8 0 0 1:1.035584 2:-0.50543203 
-8 0 0 1:1.0021988 2:-0.51172371 
-8 0 0 1:0.9686624 2:-0.51404144 
-8 0 0 1:0.93472155 2:-0.52024078 
-8 0 0 1:0.90034493 2:-0.52692036 
-8 0 0 1:0.86568883 2:-0.53120414 
-8 0 0 1:0.83179447 2:-0.51952829 
-8 0 0 1:0.79887247 2:-0.50462418 
-8 0 0 1:0.7666456 2:-0.49396918 
-8 0 0 1:0.73464359 2:-0.49052266 
-8 0 0 1:0.70192154 2:-0.50155928 
-0 8 0 1:0.10748399 2:-0.61041114 
-0 8 0 1:0.06944954 2:-0.58298701 
-8 0 0 1:0.60886301 2:-0.0097231199 
-8 0 0 1:0.60672886 2:-0.032712008 
-8 0 0 1:0.60310383 2:-0.05556399 
-8 0 0 1:0.5979606 2:-0.078834652 
-8 0 0 1:0.59129723 2:-0.10213531 
-8 0 0 1:0.58313404 2:-0.12512428 
-8 0 0 1:0.57308648 2:-0.15400777 
-8 0 0 1:0.5613555 2:-0.17981083 
-8 0 0 1:0.54792401 2:-0.20587613 
-8 0 0 1:0.53294307 2:-0.22962593 
-8 0 0 1:0.51680252 2:-0.24740014 
-8 0 0 1:0.49978458 2:-0.26084884 
-8 0 0 1:0.48243737 2:-0.26589578 
-8 0 0 1:0.46514225 2:-0.26509726 
-8 0 0 1:0.44829619 2:-0.25821427 
-8 0 0 1:0.43208456 2:-0.24848964 
-8 0 0 1:0.41641907 2:-0.24011866 
-8 0 0 1:0.40133472 2:-0.23121084 
-8 0 0 1:0.38687157 2:-0.22168926 
-8 0 0 1:0.37297731 2:-0.2129694 
-8 0 0 1:0.35962353 2:-0.20468502 
-8 0 0 1:0.34758108 2:-0.18458509 
-8 0 0 1:0.3368915 2:-0.16384846 
-8 0 0 1:0.32736301 2:-0.14605157 
-8 0 0 1:0.318703 2:-0.13273948 
-8 0 0 1:0.31072284 2:-0.12231885 
-8 0 0 1:0.30242066 2:-0.12725471 
-8 0 0 1:0.29272594 2:-0.14859939 
-8 0 0 1:0.28059825 2:-0.18589156 
-8 0 0 1:0.2676654 2:-0.19823312 
-8 0 0 1:0.25391405 2:-0.21077884 
-8 0 0 1:0.23955172 2:-0.22014397 
-8 0 0 1:0.22473768 2:-0.22706754 
-8 0 0 1:0.2093151 2:-0.23639541 
-8 0 0 1:0.19302126 2:-0.24974977 
-8 0 0 1:0.17600279 2:-0.26085683 
-8 0 0 1:0.1578684 2:-0.27796159 
-0 8 0 1:0.089977034 2:-0.38337713 
-0 8 0 1:0.062707409 2:-0.41798524 
-0 8 0 1:0.033138633 2:-0.45322631 
-8 0 0 1:0.8063239 2:-0.15367973 
-8 0 0 1:0.79617338 2:-0.15558592 
-8 0 0 1:0.78542921 2:-0.16468526 
-8 0 0 1:0.77357644 2:-0.18167765 
-8 0 0 1:0.76063408 2:-0.19837875 
-8 0 0 1:0.74659772 2:-0.21514747 
-8 0 0 1:0.73149897 2:-0.23143177 
-8 0 0 1:0.71510895 2:-0.25122398 
-8 0 0 1:0.69674043 2:-0.28155033 
-8 0 0 1:0.67667896 2:-0.3074995 
-8 0 0 1:0.6552144 2:-0.32900604 
-8 0 0 1:0.63296096 2:-0.34109786 
-8 0 0 1:0.61007532 2:-0.35078804 
-8 0 0 1:0.58725912 2:-0.34972373 
-8 0 0 1:0.56497307 2:-0.34159758 
-8 0 0 1:0.54370981 2:-0.32592056 
-8 0 0 1:0.52422931 2:-0.29859443 
-8 0 0 1:0.50736708 2:-0.25846209 
-8 0 0 1:0.49271916 2:-0.22452144 
-8 0 0 1:0.4798316 2:-0.19753882 
-8 0 0 1:0.46761507 2:-0.1872534 
-8 0 0 1:0.45428097 2:-0.20438336 
-8 0 0 1:0.43854287 2:-0.24123144 
-8 0 0 1:0.42070218 2:-0.27345986 
-8 0 0 1:0.40133378 2:-0.29687619 
-8 0 0 1:0.3806614 2:-0.31686365 
-8 0 0 1:0.35898441 2:-0.33226192 
-8 0 0 1:0.33683024 2:-0.33957626 
-8 0 0 1:0.31512273 2:-0.3327299 
-8 0 0 1:0.29454112 2:-0.31547221 
-8 0 0 1:0.27486835 2:-0.30154164 
-8 0 0 1:0.26472061 2:-0.29832141 
-8 0 0 1:0.25501519 2:-0.29098643 
-8 0 0 1:0.24658003 2:-0.27121894 
-8 0 0 1:0.23938688 2:-0.25278307 
-8 0 0 1:0.23300369 2:-0.24198167 
-8 0 0 1:0.22689659 2:-0.24018655 
-8 0 0 1:0.22045236 2:-0.24829693 
-8 0 0 1:0.21338187 2:-0.26088115 
-8 0 0 1:0.20565451 2:-0.27370758 
-8 0 0 1:0.94736178 2:-0.3239198 
-8 0 0 1:0.9253174 2:-0.33789334 
-8 0 0 1:0.90261516 2:-0.34797688 
-8 0 0 1:0.87897304 2:-0.36238341 
-8 0 0 1:0.85459412 2:-0.37367685 
-8 0 0 1:0.82924665 2:-0.38852271 
-8 0 0 1:0.80220362 2:-0.41451204 
-8 0 0 1:0.77376956 2:-0.43583344 
-8 0 0 1:0.74362193 2:-0.46209894 
-8 0 0 1:0.71208021 2:-0.4834674 
-8 0 0 1:0.67961554 2:-0.49761421 
-0 8 0 1:0.11966906 2:-0.50331343 
-0 8 0 1:0.086559083 2:-0.50750547 
-0 8 0 1:0.053525253 2:-0.50633821 
-0 8 0 1:0.020375679 2:-0.50811231 
-0 8 0 1:-0.012640696 2:-0.50607067 
-0 8 0 1:-0.044902302 2:-0.49450166 
-8 0 0 1:0.81775277 2:-0.36959828 
-8 0 0 1:0.79101403 2:-0.40984779 
-8 0 0 1:0.76169344 2:-0.44942226 
-8 0 0 1:0.72972914 2:-0.48994459 
-0 8 0 1:0.089032715 2:-0.55991337 
-0 8 0 1:0.054702034 2:-0.52621619 
-8 0 0 1:1.1207174 2:-0.30069296 
-8 0 0 1:1.097594 2:-0.35443137 
-8 0 0 1:1.0703204 2:-0.41804685 
-8 0 0 1:1.0391304 2:-0.47807572 
-8 0 0 1:1.0038907 2:-0.54015009 
-8 0 0 1:0.57657471 2:-0.31192235 
-8 0 0 1:0.55548748 2:-0.32322228 
-8 0 0 1:0.53418997 2:-0.32644546 
-8 0 0 1:0.51317543 2:-0.32210809 
-8 0 0 1:0.49188423 2:-0.32634871 
-8 0 0 1:0.46948622 2:-0.34331372 
-8 0 0 1:0.44510042 2:-0.37378235 
-8 0 0 1:0.41977971 2:-0.38811254 
-8 0 0 1:0.3935994 2:-0.40128829 
-0 8 0 1:0.10546921 2:-0.33595391 
-0 8 0 1:0.0860388 2:-0.29782677 
-0 8 0 1:0.068184231 2:-0.27367249 
-0 8 0 1:0.051756266 2:-0.25180569 
-0 8 0 1:0.03659123 2:-0.23244768 
-0 8 8 1:0.021686752 2:-0.2284539 
-0 8 8 1:0.0066830352 2:-0.229975 
-8 0 0 1:0.88330608 2:-0.22632638 
-8 0 0 1:0.86723279 2:-0.2463694 
-8 0 0 1:0.84986265 2:-0.26624712 
-8 0 0 1:0.83117188 2:-0.28648966 
-8 0 0 1:0.81067875 2:-0.31411616 
-8 0 0 1:0.78765198 2:-0.35295129 
-8 0 0 1:0.76316015 2:-0.37540755 
-8 0 0 1:0.73753198 2:-0.39282514 
-8 0 0 1:0.71093216 2:-0.40771855 
-8 0 0 1:0.68241524 2:-0.43710363 
-8 0 0 1:0.65102091 2:-0.48120813 
-0 8 0 1:0.11821126 2:-0.69952713 
-0 8 0 1:0.074712652 2:-0.66674102 
-0 8 0 1:0.03301296 2:-0.63916741 
-8 0 0 1:0.98158066 2:-0.081950897 
-8 0 0 1:0.97486713 2:-0.10290405 
-8 0 0 1:0.96746349 2:-0.11348209 
-8 0 0 1:0.95979032 2:-0.11761337 
-8 0 0 1:0.95170772 2:-0.12388903 
-8 0 0 1:0.94288205 2:-0.13527872 
-8 0 0 1:0.93315829 2:-0.14904441 
-8 0 0 1:0.92280722 2:-0.1586599 
-8 0 0 1:0.91192285 2:-0.16683424 
-8 0 0 1:0.90028528 2:-0.17837908 
-8 0 0 1:0.88798923 2:-0.18847222 
-8 0 0 1:0.87505293 2:-0.19828603 
-8 0 0 1:0.86145768 2:-0.20838618 
-8 0 0 1:0.84777244 2:-0.20976546 
-8 0 0 1:0.83435715 2:-0.20562793 
-8 0 0 1:0.82092856 2:-0.20583167 
-8 0 0 1:0.80714306 2:-0.2113022 
-8 0 0 1:0.79333574 2:-0.21163694 
-8 0 0 1:0.77903352 2:-0.21922247 
-8 0 0 1:0.76376756 2:-0.2339947 
-8 0 0 1:0.74706756 2:-0.25597543 
-8 0 0 1:0.72847788 2:-0.28494014 
-8 0 0 1:0.70759924 2:-0.32002508 
-8 0 0 1:0.68441921 2:-0.35530047 
-8 0 0 1:0.65875462 2:-0.39338347 
-8 0 0 1:0.63070492 2:-0.429942 
-8 0 0 1:0.60025669 2:-0.46670646 
-0 8 0 1:0.12883123 2:-0.707335 
-0 8 0 1:0.081540345 2:-0.72486844 
-0 8 0 1:0.11872369 2:-0.64609482 
-8 0 0 1:0.83740099 2:-0.29451579 
-8 0 0 1:0.81706349 2:-0.31173044 
-8 0 0 1:0.79556903 2:-0.32946423 
-8 0 0 1:0.77293247 2:-0.34697022 
-8 0 0 1:0.74913219 2:-0.36480758 
-8 0 0 1:0.72448053 2:-0.37785741 
-8 0 0 1:0.69863895 2:-0.39609637 
-8 0 0 1:0.67144152 2:-0.41687867 
-8 0 0 1:0.64307354 2:-0.43482063 
-8 0 0 1:0.61360363 2:-0.45171101 
-8 0 0 1:0.58299049 2:-0.46923416 
-0 8 0 1:0.092102586 2:-0.25218892 
-8 8 0 1:0.07704128 2:-0.23085771 
-8 8 0 1:0.063762677 2:-0.2035327 
-8 8 0 1:0.051422745 2:-0.18914486 
-8 8 8 1:0.041875371 2:-0.14634089 
-8 8 8 1:0.033051992 2:-0.1352436 
-8 8 8 1:0.025605817 2:-0.11413399 
-8 8 8 1:0.020060949 2:-0.084991021 
-8 8 8 1:0.013747049 2:-0.096778627 
-8 8 8 1:0.0072358135 2:-0.09980336 
-8 8 8 1:-0.00030410126 2:-0.11557082 
-8 8 8 1:-0.0076246519 2:-0.11220844 
-8 8 8 1:-0.014119195 2:-0.099547501 
-8 8 8 1:-0.020235441 2:-0.093749022 
-8 8 8 1:-0.025898135 2:-0.086797023 
-8 8 8 1:-0.031388356 2:-0.084153393 
-8 8 8 1:-0.03723771 2:-0.089658131 
-8 8 8 1:-0.043626345 2:-0.097924165 
-8 8 8 1:-0.049354731 2:-0.087803949 
-8 8 8 1:-0.054419025 2:-0.077624828 
-8 0 0 1:0.86465443 2:-0.43731909 
-8 0 0 1:0.83136927 2:-0.51019058 
-0 8 0 1:0.12684611 2:-1.0975184 
-0 8 0 1:0.055420789 2:-1.094798 
-0 8 0 1:-0.01421815 2:-1.0674165 
-8 0 0 1:0.8468451 2:-0.25872415 
-8 0 0 1:0.82832836 2:-0.28382218 
-8 0 0 1:0.80814959 2:-0.30929757 
-8 0 0 1:0.78550195 2:-0.34713999 
-8 0 0 1:0.76085531 2:-0.37778047 
-8 0 0 1:0.73367934 2:-0.4165497 
-8 0 0 1:0.70341504 2:-0.46388723 
-8 0 0 1:0.67076926 2:-0.50039022 
-0 8 0 1:0.096586375 2:-0.5561226 
-8 0 0 1:0.57154159 2:-0.15081511 
-8 0 0 1:0.56112405 2:-0.1596787 
-8 0 0 1:0.54932584 2:-0.1808413 
-8 0 0 1:0.53595471 2:-0.204951 
-8 0 0 1:0.52137472 2:-0.22348024 
-8 0 0 1:0.50563457 2:-0.24126296 
-8 0 0 1:0.48845963 2:-0.26325519 
-8 0 0 1:0.46867911 2:-0.30319326 
-8 0 0 1:0.44522 2:-0.35957816 
-8 0 0 1:0.41761874 2:-0.42306836 
-0 8 0 1:0.12771482 2:-0.74435946 
-0 8 0 1:0.079112866 2:-0.74496445 
-0 8 0 1:0.030866968 2:-0.7395068 
-0 8 0 1:-0.016803986 2:-0.73069412 
-0 8 0 1:-0.063809743 2:-0.72049809 
-0 8 0 1:-0.11013513 2:-0.71006947 
-8 0 0 1:0.80303913 2:-0.33741945 
-8 0 0 1:0.77987191 2:-0.35510412 
-8 0 0 1:0.75543659 2:-0.37454137 
-8 0 0 1:0.72984587 2:-0.39225131 
-8 0 0 1:0.70290477 2:-0.4129496 
-8 0 0 1:0.6747246 2:-0.43194198 
-8 0 0 1:0.64532474 2:-0.45063711 
-8 0 0 1:0.61470227 2:-0.46937731 
-8 0 0 1:0.58319678 2:-0.48291195 
-8 0 0 1:0.13802462 2:-0.27716408 
-8 0 0 1:0.12306631 2:-0.22927888 
-8 0 0 1:0.11045357 2:-0.19332645 
-8 8 0 1:0.10024527 2:-0.15647147 
-8 8 0 1:0.09150142 2:-0.13402465 
-8 8 0 1:0.083656879 2:-0.12024009 
-8 8 8 1:0.077303132 2:-0.097389412 
-8 8 8 1:0.071157227 2:-0.094203623 
-8 8 8 1:0.064721839 2:-0.098640777 
-8 8 8 1:0.058107 2:-0.10139139 
-8 8 8 1:0.051650012 2:-0.098971863 
-8 8 8 1:0.044613892 2:-0.10784872 
-8 8 8 1:0.038088624 2:-0.10001846 
-8 8 8 1:0.032814776 2:-0.080836848 
-8 8 8 1:0.027806748 2:-0.076762388 
-8 8 8 1:0.022081652 2:-0.08775353 
-8 8 8 1:0.01653234 2:-0.085059119 
-8 8 8 1:0.0086713775 2:-0.1204918 
-8 8 8 1:-0.00027989795 2:-0.13720398 
-8 8 8 1:-0.010482902 2:-0.15639031 
-0 8 8 1:-0.022316028 2:-0.1813766 
-0 8 8 1:-0.035594274 2:-0.20352722 
-8 0 0 1:1.3654917 2:-0.3211614 
-8 0 0 1:1.3432041 2:-0.34162135 
-8 0 0 1:1.3196478 2:-0.36106762 
-8 0 0 1:1.2950627 2:-0.37683833 
-8 0 0 1:1.269427 2:-0.39294071 
-8 0 0 1:1.2423178 2:-0.41552602 
-8 0 0 1:1.214034 2:-0.43353047 
-8 0 0 1:1.1855323 2:-0.43687047 
-8 0 0 1:1.1572487 2:-0.43352641 
-8 0 0 1:1.1298406 2:-0.4201081 
-8 0 0 1:1.1036605 2:-0.40128531 
-8 0 0 1:1.0788748 2:-0.37991198 
-8 0 0 1:1.0555244 2:-0.35791136 
-8 0 0 1:1.03318 2:-0.34249188 
-8 0 0 1:1.011824 2:-0.32734207 
-8 0 0 1:0.99154264 2:-0.31087037 
-8 0 0 1:0.97233443 2:-0.29442097 
-8 0 0 1:0.95421885 2:-0.27767319 
-8 0 0 1:0.93706791 2:-0.26288735 
-8 0 0 1:0.9209951 2:-0.2463619 
-8 0 0 1:0.90673889 2:-0.21851742 
-8 0 0 1:0.89390449 2:-0.19672402 
-8 0 0 1:0.88193353 2:-0.18348925 
-8 0 0 1:0.86918819 2:-0.19535891 
-8 0 0 1:0.85576976 2:-0.20567591 
-8 0 0 1:0.84183905 2:-0.21352815 
-8 0 0 1:0.82746927 2:-0.22025801 
-8 0 0 1:0.81239907 2:-0.23099411 
-8 0 0 1:0.79659803 2:-0.24219625 
-8 0 0 1:0.78010862 2:-0.25274745 
-8 0 0 1:0.76308075 2:-0.26100098 
-8 0 0 1:0.74523909 2:-0.27347463 
-8 0 0 1:0.72567274 2:-0.29991041 
-8 0 0 1:0.70373735 2:-0.33622291 
-8 0 0 1:0.67882341 2:-0.38187749 
-8 0 0 1:0.65174911 2:-0.41499139 
-8 0 0 1:0.62298111 2:-0.44095209 
-8 0 0 1:0.59229433 2:-0.47036298 
-0 8 0 1:0.10850843 2:-0.65771646 
-0 8 0 1:0.066348146 2:-0.64622737 
-0 8 0 1:0.024812727 2:-0.63664944 
-8 0 0 1:0.97458736 2:-0.3999578 
-8 0 0 1:0.94645286 2:-0.43124191 
-8 0 0 1:0.91600914 2:-0.46663734 
-8 0 0 1:0.88242169 2:-0.51482403 
-8 0 0 1:0.84570011 2:-0.56286368 
-0 8 0 1:0.11955084 2:-0.52765498 
-0 8 0 1:0.086069578 2:-0.51319642 
-8 0 0 1:1.543622 2:-0.33577389 
-8 0 0 1:1.5201984 2:-0.35903434 
-8 0 0 1:1.4955859 2:-0.37725697 
-8 0 0 1:1.469689 2:-0.39694413 
-8 0 0 1:1.4421777 2:-0.42168947 
-8 0 0 1:1.4129508 2:-0.44798665 
-8 0 0 1:1.3823883 2:-0.46845755 
-8 0 0 1:1.3504867 2:-0.48898445 
-8 0 0 1:1.3170639 2:-0.51229913 
-8 0 0 1:1.2827511 2:-0.52594281 
-8 0 0 1:1.2482336 2:-0.52907938 
-8 0 0 1:1.213863 2:-0.5268281 
-8 0 0 1:1.1803496 2:-0.51368901 
-8 0 0 1:1.1483516 2:-0.49046064 
-8 0 0 1:1.1179743 2:-0.46562034 
-8 0 0 1:1.0891784 2:-0.44137874 
-8 0 0 1:1.0615821 2:-0.42299326 
-8 0 0 1:1.0348119 2:-0.41032956 
-8 0 0 1:1.0080849 2:-0.40966781 
-8 0 0 1:0.98016194 2:-0.4279999 
-8 0 0 1:0.95014534 2:-0.46009061 
-8 0 0 1:0.91786497 2:-0.49478928 
-8 0 0 1:0.88308642 2:-0.53308104 
-8 0 0 1:0.74886461 2:-0.079369637 
-8 0 0 1:0.7430215 2:-0.089562474 
-8 0 0 1:0.7365166 2:-0.099706309 
-8 0 0 1:0.72934744 2:-0.10988784 
-8 0 0 1:0.72148769 2:-0.12047332 
-8 0 0 1:0.71287377 2:-0.13203304 
-8 0 0 1:0.70388866 2:-0.13772247 
-8 0 0 1:0.69473465 2:-0.14031149 
-8 0 0 1:0.6852803 2:-0.14491502 
-8 0 0 1:0.67552564 2:-0.14951828 
-8 0 0 1:0.66485889 2:-0.16349842 
-8 0 0 1:0.6539976 2:-0.1664805 
-8 0 0 1:0.64350813 2:-0.16078125 
-8 0 0 1:0.63407815 2:-0.1445414 
-8 0 0 1:0.62493028 2:-0.14021738 
-8 0 0 1:0.6154325 2:-0.14558072 
-8 0 0 1:0.60496916 2:-0.16038073 
-8 0 0 1:0.59296383 2:-0.18401606 
-8 0 0 1:0.57958749 2:-0.20503085 
-8 0 0 1:0.56485682 2:-0.22578982 
-8 0 0 1:0.54895734 2:-0.24370514 
-8 0 0 1:0.53196155 2:-0.26050913 
-8 0 0 1:0.51397947 2:-0.27562705 
-8 0 0 1:0.4949809 2:-0.29120761 
-8 0 0 1:0.47411594 2:-0.31981532 
-8 0 0 1:0.45141468 2:-0.34796188 
-8 0 0 1:0.42709793 2:-0.37272403 
-8 0 0 1:0.40038618 2:-0.40943425 
-0 8 0 1:0.11582494 2:-0.65211203 
-0 8 0 1:0.072528666 2:-0.66363964 
-0 8 0 1:0.029084924 2:-0.66589999 
-8 0 0 1:0.42178312 2:0.0092246254 
-8 0 0 1:0.42149172 2:-0.0044664981 
-8 0 0 1:0.42001154 2:-0.022688053 
-8 0 0 1:0.4161889 2:-0.058592923 
-8 0 0 1:0.40957482 2:-0.10137972 
-8 0 0 1:0.40031161 2:-0.14198534 
-8 0 0 1:0.38811873 2:-0.18689083 
-8 0 0 1:0.37262006 2:-0.23756158 
-8 0 0 1:0.35471128 2:-0.27450334 
-8 0 0 1:0.33535991 2:-0.29661538 
-8 0 0 1:0.31393598 2:-0.32838318 
-0 8 0 1:0.11534027 2:-0.51291887 
-0 8 0 1:0.1027333 2:-0.53083016 
-8 0 0 1:0.73736108 2:-0.30315989 
-8 0 0 1:0.71643993 2:-0.32067665 
-8 0 0 1:0.69434399 2:-0.33868365 
-8 0 0 1:0.67114647 2:-0.35556855 
-8 0 0 1:0.64684662 2:-0.3724649 
-8 0 0 1:0.62139821 2:-0.39006988 
-8 0 0 1:0.59466289 2:-0.40979548 
-8 0 0 1:0.56608895 2:-0.43797757 
-8 0 0 1:0.5353417 2:-0.47128979 
-0 8 0 1:0.098036767 2:-0.36572055 
-0 8 0 1:0.075557083 2:-0.34456565 
-8 0 0 1:0.78278662 2:-0.40553204 
-8 0 0 1:0.75333847 2:-0.45137724 
-8 0 0 1:0.72048606 2:-0.50355754 
-0 8 0 1:0.10602268 2:-1.0628245 
-0 8 0 1:0.036382967 2:-1.0674284 
-0 8 0 1:-0.032849598 2:-1.0611877 
-8 0 0 1:0.41869219 2:-0.14370693 
-8 0 0 1:0.40949633 2:-0.14095287 
-8 0 0 1:0.40064785 2:-0.13562838 
-8 0 0 1:0.39163155 2:-0.1382006 
-8 0 0 1:0.38149576 2:-0.15536012 
-8 0 0 1:0.36961841 2:-0.18205448 
-8 0 0 1:0.35501453 2:-0.22384627 
-8 0 0 1:0.33702344 2:-0.27576512 
-8 0 0 1:0.315767 2:-0.32581593 
-8 0 0 1:0.29308448 2:-0.34767468 
-0 8 0 1:0.10486896 2:-0.43097149 
-0 8 0 1:0.077560073 2:-0.41858697 
-0 8 0 1:0.049727644 2:-0.42661182 
-0 8 0 1:0.020680489 2:-0.44523099 
-8 0 0 1:0.66667546 2:-0.038766021 
-8 0 0 1:0.66385248 2:-0.043270356 
-8 0 0 1:0.66075867 2:-0.0474214 
-8 0 0 1:0.65735735 2:-0.052135051 
-8 0 0 1:0.65367384 2:-0.056460284 
-8 0 0 1:0.6496766 2:-0.061269279 
-8 0 0 1:0.64538556 2:-0.065772403 
-8 0 0 1:0.64071379 2:-0.071608381 
-8 0 0 1:0.63590077 2:-0.073773232 
-8 0 0 1:0.63081874 2:-0.077896763 
-8 0 0 1:0.62546861 2:-0.082006148 
-8 0 0 1:0.61984965 2:-0.08612668 
-8 0 0 1:0.61387221 2:-0.091621429 
-8 0 0 1:0.60782528 2:-0.092686436 
-8 0 0 1:0.60182414 2:-0.091984769 
-8 0 0 1:0.59591698 2:-0.090544132 
-8 0 0 1:0.59004717 2:-0.089971715 
-8 0 0 1:0.58426358 2:-0.08865012 
-8 0 0 1:0.57853005 2:-0.087882734 
-8 0 0 1:0.57285942 2:-0.086918668 
-8 0 0 1:0.56725408 2:-0.085917901 
-8 0 0 1:0.56170012 2:-0.085130412 
-8 0 0 1:0.55623321 2:-0.083796085 
-8 0 0 1:0.55081161 2:-0.083101578 
-8 0 0 1:0.54555194 2:-0.080619442 
-8 0 0 1:0.54024305 2:-0.081374032 
-8 0 0 1:0.53497995 2:-0.080672117 
-8 0 0 1:0.5297552 2:-0.080084225 
-8 0 0 1:0.52457193 2:-0.079448559 
-8 0 0 1:0.51945533 2:-0.078426549 
-8 0 0 1:0.51436169 2:-0.078074622 
-8 0 0 1:0.50933794 2:-0.077003417 
-8 0 0 1:0.50443708 2:-0.075119729 
-8 0 0 1:0.499435 2:-0.07667128 
-8 0 0 1:0.49446896 2:-0.07611872 
-8 0 0 1:0.48951606 2:-0.075917418 
-8 0 0 1:0.48462411 2:-0.074983155 
-8 0 0 1:0.47981121 2:-0.073771601 
-8 0 0 1:0.47491439 2:-0.075057695 
-8 0 0 1:0.47002376 2:-0.074962974 
-8 0 0 1:0.46510788 2:-0.075350037 
-8 0 0 1:0.46022692 2:-0.074814641 
-8 0 0 1:0.45530267 2:-0.075478249 
-8 0 0 1:0.4504276 2:-0.074724438 
-8 0 0 1:0.44552036 2:-0.075217545 
-8 0 0 1:0.44037639 2:-0.07884618 
-8 0 0 1:0.43527623 2:-0.078174509 
-8 0 0 1:0.43042641 2:-0.074337457 
-8 0 0 1:0.42563582 2:-0.073429425 
-8 0 0 1:0.42090022 2:-0.072586663 
-8 0 0 1:0.41609822 2:-0.073604414 
-8 0 0 1:0.41144691 2:-0.071294777 
-8 0 0 1:0.40695489 2:-0.068853117 
-8 0 0 1:0.40246161 2:-0.068872345 
-8 0 0 1:0.39794228 2:-0.069271651 
-8 0 0 1:0.39352252 2:-0.067745518 
-8 0 0 1:0.38935665 2:-0.063853893 
-8 0 0 1:0.38525297 2:-0.062900679 
-8 0 0 1:0.3808743 2:-0.067115713 
-8 0 0 1:0.37650297 2:-0.067003215 
-8 0 0 1:0.37211511 2:-0.067256461 
-8 0 0 1:0.36772416 2:-0.067303988 
-8 0 0 1:0.36334015 2:-0.067197445 
-8 0 0 1:0.3589457 2:-0.067357631 
-8 0 0 1:0.35460661 2:-0.06650899 
-8 0 0 1:0.35034404 2:-0.065336158 
-8 0 0 1:0.34544563 2:-0.075082136 
-8 0 0 1:0.33869387 2:-0.10349014 
-8 0 0 1:0.32888574 2:-0.15033764 
-8 0 0 1:0.31498223 2:-0.21311119 
-8 0 0 1:0.29629721 2:-0.2864016 
-8 0 0 1:0.27316448 2:-0.35457536 
-0 8 0 1:0.087657037 2:-0.70446202 
-0 8 0 1:0.038919419 2:-0.74704382 
-0 8 0 1:-0.011231347 2:-0.76870436 
-0 8 0 1:-0.061506243 2:-0.77060701 
-0 8 0 1:-0.11178218 2:-0.77062293 
-0 8 0 1:-0.16248682 2:-0.77719412 
-0 8 6.14473808588835 1:-0.21338327 2:-0.78013409 
-8 0 0 1:1.0658185 2:-0.28883892 
-8 0 0 1:1.0471628 2:-0.28595269 
-8 0 0 1:1.0283428 2:-0.2884701 
-8 0 0 1:1.0091485 2:-0.29420877 
-8 0 0 1:0.98994624 2:-0.2943291 
-8 0 0 1:0.97070942 2:-0.29485943 
-8 0 0 1:0.95148785 2:-0.29462566 
-8 0 0 1:0.93225948 2:-0.29472998 
-8 0 0 1:0.91311794 2:-0.29339896 
-8 0 0 1:0.89400221 2:-0.29300348 
-8 0 0 1:0.87471531 2:-0.29562713 
-8 0 0 1:0.85517368 2:-0.29953153 
-8 0 0 1:0.83587336 2:-0.29583276 
-8 0 0 1:0.81755567 2:-0.28077105 
-8 0 0 1:0.80054441 2:-0.26074639 
-8 0 0 1:0.78467094 2:-0.24330644 
-8 0 0 1:0.76944648 2:-0.23335858 
-8 0 0 1:0.75448195 2:-0.22937437 
-8 0 0 1:0.73944897 2:-0.23042348 
-8 0 0 1:0.72447048 2:-0.22958836 
-8 0 0 1:0.70957303 2:-0.22834624 
-8 0 0 1:0.6945875 2:-0.22969613 
-8 0 0 1:0.67942331 2:-0.2324348 
-8 0 0 1:0.66357805 2:-0.24287396 
-8 0 0 1:0.64627593 2:-0.2652047 
-8 0 0 1:0.62717664 2:-0.29275141 
-8 0 0 1:0.60621294 2:-0.32132886 
-8 0 0 1:0.58341499 2:-0.34944401 
-8 0 0 1:0.55927878 2:-0.36995657 
-8 0 0 1:0.53426869 2:-0.38335146 
-8 0 0 1:0.50805485 2:-0.40180229 
-8 0 0 1:0.48022474 2:-0.4265763 
-0 8 0 1:0.11996063 2:-0.62284978 
-0 8 0 1:0.080582483 2:-0.60358312 
-0 8 0 1:0.043265806 2:-0.57198512 
-0 8 0 1:0.007687305 2:-0.5453426 
-8 0 0 1:0.62260572 2:-0.25813217 
-8 0 0 1:0.60355967 2:-0.29193531 
-8 0 0 1:0.58284799 2:-0.31746592 
-8 0 0 1:0.56124617 2:-0.33110986 
-8 0 0 1:0.53888523 2:-0.34274554 
-8 0 0 1:0.51558472 2:-0.35714725 
-8 0 0 1:0.49144625 2:-0.36999131 
-8 0 0 1:0.46727293 2:-0.37052536 
-8 0 0 1:0.44293768 2:-0.37300762 
-8 0 0 1:0.4177972 2:-0.3853499 
-8 0 0 1:0.39101746 2:-0.41047642 
-8 0 0 1:0.23860903 2:-0.33212877 
-8 0 0 1:0.21816382 2:-0.31338158 
-8 0 0 1:0.19881223 2:-0.29661859 
-8 0 0 1:0.18099279 2:-0.27313397 
-8 0 0 1:0.16546903 2:-0.23794628 
-8 0 0 1:0.15182082 2:-0.20919785 
-8 0 0 1:0.13969409 2:-0.18587699 
-8 0 0 1:0.1287797 2:-0.16729431 
-8 0 0 1:0.11902523 2:-0.14951526 
-8 0 0 1:0.11023157 2:-0.13478806 
-8 0 0 1:0.10269041 2:-0.11558986 
-8 8 0 1:0.095770224 2:-0.10607177 
-8 8 0 1:0.089230912 2:-0.10023372 
-8 8 0 1:0.082001353 2:-0.11081373 
-8 8 8 1:0.074652507 2:-0.11264215 
-8 8 8 1:0.067887176 2:-0.10369811 
-8 8 8 1:0.061378999 2:-0.09975648 
-8 8 8 1:0.054983451 2:-0.098030125 
-8 8 8 1:0.049358842 2:-0.08621327 
-8 8 8 1:0.045058965 2:-0.065907952 
-8 8 8 1:0.044841604 2:-0.05647407 
-8 8 8 1:0.044153322 2:-0.065857961 
-8 8 8 1:0.04282175 2:-0.077752694 
-8 8 8 1:0.040604203 2:-0.0930915 
-8 8 8 1:0.037814344 2:-0.10311936 
-8 8 8 1:0.035261897 2:-0.10040635 
-8 8 8 1:0.033394429 2:-0.091138138 
-8 8 8 1:0.032165995 2:-0.083336631 
-8 8 8 1:0.030294165 2:-0.096053389 
-8 8 8 1:0.027292617 2:-0.11594763 
-0 8 0 1:0.1097603 2:-0.53879151 
-0 8 0 1:0.074282644 2:-0.54379688 
-0 8 0 1:0.038493341 2:-0.54857375 
-8 0 0 1:1.1324323 2:-0.054675245 
-8 0 0 1:1.1285028 2:-0.06023098 
-8 0 0 1:1.124178 2:-0.066289396 
-8 0 0 1:1.1189453 2:-0.08020617 
-8 0 0 1:1.1128573 2:-0.093315958 
-8 0 0 1:1.105567 2:-0.11174466 
-8 0 0 1:1.0969417 2:-0.13220741 
-8 0 0 1:1.0875277 2:-0.1442967 
-8 0 0 1:1.0774276 2:-0.15481402 
-8 0 0 1:1.0664379 2:-0.16844743 
-8 0 0 1:1.0540474 2:-0.18992008 
-8 0 0 1:1.0408026 2:-0.20301495 
-8 0 0 1:1.0272655 2:-0.20749512 
-8 0 0 1:1.0141764 2:-0.20062836 
-8 0 0 1:1.0014433 2:-0.195171 
-8 0 0 1:0.98891823 2:-0.19198257 
-8 0 0 1:0.9766115 2:-0.18863599 
-8 0 0 1:0.9646234 2:-0.18375201 
-8 0 0 1:0.95307266 2:-0.17704815 
-8 0 0 1:0.94160112 2:-0.17583434 
-8 0 0 1:0.92969959 2:-0.1824251 
-8 0 0 1:0.91750743 2:-0.18687978 
-8 0 0 1:0.90545538 2:-0.18473222 
-8 0 0 1:0.89391383 2:-0.17690741 
-8 0 0 1:0.88260606 2:-0.17332406 
-8 0 0 1:0.87132288 2:-0.17294699 
-8 0 0 1:0.8600236 2:-0.17319391 
-8 0 0 1:0.84887882 2:-0.17082568 
-8 0 0 1:0.83844284 2:-0.15996136 
-8 0 0 1:0.82860017 2:-0.15086719 
-8 0 0 1:0.81940031 2:-0.14101428 
-8 0 0 1:0.81057416 2:-0.13528604 
-8 0 0 1:0.80235691 2:-0.12595291 
-8 0 0 1:0.79505611 2:-0.11190567 
-8 0 0 1:0.78858618 2:-0.09917036 
-8 0 0 1:0.78296247 2:-0.086199361 
-8 0 0 1:0.77753874 2:-0.083134281 
-8 0 0 1:0.77221676 2:-0.081574645 
-8 0 0 1:0.76644294 2:-0.088500369 
-8 0 0 1:0.76024441 2:-0.095010188 
-8 0 0 1:0.7536912 2:-0.10044677 
-8 0 0 1:0.7468164 2:-0.1053761 
-8 0 0 1:0.73961371 2:-0.11040178 
-8 0 0 1:0.73202774 2:-0.1162768 
-8 0 0 1:0.72441369 2:-0.11670718 
-8 0 0 1:0.71703793 2:-0.11305462 
-8 0 0 1:0.70973994 2:-0.11186261 
-8 0 0 1:0.70250855 2:-0.1108419 
-8 0 0 1:0.69523737 2:-0.11145164 
-8 0 0 1:0.68761898 2:-0.11677364 
-8 0 0 1:0.67845299 2:-0.14049507 
-8 0 0 1:0.66691012 2:-0.17692765 
-8 0 0 1:0.65274301 2:-0.2171516 
-8 0 0 1:0.63588981 2:-0.25832367 
-8 0 0 1:0.61756226 2:-0.28092227 
