svm_type c_svc
kernel_type rbf
gamma 0.0625
nr_class 4
total_sv 6580
rho 10.5223 -0.360019 -0.0305888 0.943892 0.0215772 -5.6566
label 1 2 3 4
probA -2.30737 -3.72931 -3.43576 -3.64056 -3.44135 -2.03425
probB 0.260024 -0.323932 -0.194251 -0.554349 0.391279 -0.385423
nr_sv 1344 1391 1955 1890
SV
8 0 0 1:0.69746857 2:-0.2175339 3:0.31523385 
8 0 0 1:0.68317202 2:-0.21913562 3:0.23448503 
8 0 0 1:0.66925559 2:-0.2133093 3:0.16513061 
8 0 0 1:0.65586071 2:-0.20531498 3:0.15904493 
8 0 0 1:0.68963046 2:-0.24847805 3:0.0028318071 
8 0 0 1:0.67055226 2:-0.29242816 3:0.0017410101 
8 0 0 1:0.64898889 2:-0.33052046 3:0.001302318 
8 0 0 1:0.62505962 2:-0.36678478 3:0.0016804403 
8 0 0 1:0.598511 2:-0.40693371 3:0.0043657151 
8 0 0 1:0.56918537 2:-0.44949952 3:0.018657395 
8 0 0 1:0.53712701 2:-0.49138633 3:0.058184691 
8 0 0 1:0.50226978 2:-0.53428696 3:0.078773255 
8 0 0 1:1.1600595 2:-0.29334902 3:0.44534987 
8 0 0 1:1.137863 2:-0.3402244 3:0.42817801 
8 0 0 1:1.1132373 2:-0.3774605 3:0.4124921 
8 0 0 1:1.0867715 2:-0.40566334 3:0.39860283 
8 0 0 1:1.0588115 2:-0.42856842 3:0.39046696 
8 0 0 1:1.029225 2:-0.45349747 3:0.39055011 
8 0 0 1:0.99705174 2:-0.49314743 3:0.39619144 
8 0 0 1:0.96208185 2:-0.53601393 3:0.40297402 
8 0 0 1:1.0242434 2:-0.26928715 3:0.66419243 
8 0 0 1:1.0051719 2:-0.29232625 3:0.67483451 
8 0 0 1:0.98466377 2:-0.31434581 3:0.91431681 
8 0 0 1:0.96350789 2:-0.32427453 3:0.91271933 
8 0 0 1:0.94256867 2:-0.32095359 3:0.91191461 
8 0 0 1:0.92221772 2:-0.3119367 3:0.91305565 
8 0 0 1:0.90240848 2:-0.30363353 3:0.92134671 
8 0 0 1:0.88299884 2:-0.29750827 3:0.9377648 
8 0 0 1:0.86402388 2:-0.29084582 3:0.96181586 
8 0 0 1:0.84553722 2:-0.2833611 3:0.97825081 
8 0 0 1:0.8274187 2:-0.27771828 3:0.97871897 
8 0 0 1:0.80948082 2:-0.27494942 3:0.97160645 
8 0 0 1:0.79240784 2:-0.26169236 3:0.96711687 
8 0 0 1:0.77660447 2:-0.24223207 3:0.97098963 
8 0 0 1:0.76255088 2:-0.21541156 3:0.98411276 
8 0 0 1:0.74999247 2:-0.19249366 3:0.99349496 
8 0 0 1:0.73915806 2:-0.16606835 3:0.99658508 
8 0 0 1:0.74418062 2:-0.22650103 3:0.66369243 
8 0 0 1:0.72628791 2:-0.27425699 3:0.7528527 
8 0 0 1:0.70521316 2:-0.3230311 3:0.83420583 
8 0 0 1:0.68075889 2:-0.37483187 3:0.87420416 
8 0 0 1:0.65303568 2:-0.42493764 3:0.88078326 
8 0 0 1:0.62164829 2:-0.4811019 3:0.88545199 
8 0 0 1:0.58677928 2:-0.5344675 3:0.9036065 
8 0 0 1:0.54876554 2:-0.58266972 3:0.93494841 
8 0 0 1:0.50752609 2:-0.63211282 3:0.9678545 
8 0 0 1:0.46290281 2:-0.68397976 3:0.98827477 
8 0 0 1:0.66731182 2:-0.21687042 3:0.039054599 
8 0 0 1:0.65645857 2:-0.23243572 3:0.030606424 
8 0 0 1:0.64509824 2:-0.24610688 3:0.027414031 
8 0 0 1:0.63368936 2:-0.25252614 3:0.029778948 
8 0 0 1:0.62229666 2:-0.25739514 3:0.03146971 
8 0 0 1:0.61110724 2:-0.25887194 3:0.03155949 
8 0 0 1:0.60045737 2:-0.25460908 3:0.030656406 
8 0 0 1:0.58992802 2:-0.25602847 3:0.030434811 
8 0 0 1:0.58071363 2:-0.23877544 3:0.036548336 
8 0 0 1:0.57268682 2:-0.22239309 3:0.048024586 
8 0 0 1:0.56565069 2:-0.20815504 3:0.059360616 
8 0 0 1:0.5525883 2:-0.20021859 3:0.068550325 
8 0 0 1:0.5400835 2:-0.19167191 3:0.074123348 
8 0 0 1:0.5284571 2:-0.17820799 3:0.077446569 
8 0 0 1:0.51775966 2:-0.16396897 3:0.079862083 
8 0 0 1:0.50798879 2:-0.14976651 3:0.083834294 
8 0 0 1:1.1035759 2:-0.28997785 3:0.052974032 
8 0 0 1:1.08261 2:-0.3213632 3:0.060241449 
8 0 0 1:1.0594849 2:-0.35445731 3:0.058122155 
8 0 0 1:1.0344274 2:-0.38407859 3:0.047119032 
8 0 0 1:1.0076717 2:-0.41010735 3:0.031591601 
8 0 0 1:0.77246069 2:-0.1707206 3:0.97252251 
8 0 0 1:0.7587267 2:-0.21051283 3:0.96713961 
8 0 0 1:0.74278002 2:-0.24442859 3:0.95647316 
8 0 0 1:0.72445408 2:-0.28089753 3:0.94552904 
8 0 0 1:0.70377478 2:-0.3169697 3:0.93440595 
8 0 0 1:0.68136272 2:-0.34352908 3:0.92490441 
8 0 0 1:0.65716082 2:-0.37096359 3:0.92221726 
8 0 0 1:0.63098144 2:-0.40127401 3:0.92689905 
8 0 0 1:0.6027742 2:-0.43235699 3:0.93305884 
8 0 0 1:0.57318555 2:-0.45353087 3:0.93366825 
8 0 0 1:0.54158642 2:-0.48434735 3:0.92676788 
8 0 0 1:0.71715852 2:-0.227617 3:0.43081635 
8 0 0 1:0.70019605 2:-0.25999848 3:0.45954497 
8 0 0 1:0.68117275 2:-0.2915867 3:0.46963702 
8 0 0 1:0.66035733 2:-0.31905607 3:0.45303586 
8 0 0 1:0.63792091 2:-0.3439025 3:0.41280651 
8 0 0 1:0.61346169 2:-0.37490772 3:0.35460958 
8 0 0 1:0.58684089 2:-0.40804017 3:0.28974952 
8 0 0 1:0.97966149 2:-0.26761611 3:0.53687926 
8 0 0 1:1.0917045 2:-0.29108848 3:0.56146915 
8 0 0 1:1.0700108 2:-0.33251801 3:0.55876164 
8 0 0 1:1.0454442 2:-0.37655455 3:0.54944116 
8 0 0 1:1.0181796 2:-0.41790813 3:0.52395829 
8 0 0 1:0.98832805 2:-0.45756015 3:0.48118903 
8 0 0 1:0.95603308 2:-0.49501316 3:0.44734913 
8 0 0 1:0.74010013 2:-0.214993 3:0.79115571 
8 0 0 1:0.72506615 2:-0.23043893 3:0.99579143 
8 0 0 1:0.7091624 2:-0.24377055 3:0.99999421 
8 0 0 1:0.69226753 2:-0.25896242 3:1 
8 0 0 1:0.67488487 2:-0.26643902 3:0.99999387 
8 0 0 1:0.65684353 2:-0.27653539 3:0.9989652 
8 0 0 1:0.63853456 2:-0.2806374 3:0.99138608 
8 0 0 1:0.91493243 2:-0.2447062 3:0.75504978 
8 0 0 1:0.89781675 2:-0.26234687 3:0.90484966 
8 0 0 1:0.87961847 2:-0.27894089 3:0.97633041 
8 0 0 1:0.86105298 2:-0.28456935 3:0.97435956 
8 0 0 1:0.84239341 2:-0.28601151 3:0.94442115 
8 0 0 1:0.82414192 2:-0.27975643 3:0.89469911 
8 0 0 1:0.80690273 2:-0.26424006 3:0.78380007 
8 0 0 1:0.79016027 2:-0.25662615 3:0.6048175 
8 0 0 1:0.77411773 2:-0.245898 3:0.48019068 
8 0 0 1:0.75897114 2:-0.23216494 3:0.4145764 
8 0 0 1:0.53730421 2:-0.16690516 3:0.085685648 
8 0 0 1:0.52282723 2:-0.22190111 3:0.098781307 
8 0 0 1:0.50489445 2:-0.27487142 3:0.12119141 
8 0 0 1:0.48349145 2:-0.32806227 3:0.16756888 
8 0 0 1:0.45818424 2:-0.38790564 3:0.21243739 
8 0 0 1:0.42900436 2:-0.4472654 3:0.20833564 
8 0 0 1:0.39611979 2:-0.5040503 3:0.17752862 
8 8 0 1:0.35975998 2:-0.5573185 3:0.18501372 
8 8 0 1:0.32060116 2:-0.60022115 3:0.27926489 
8 8 0 1:0.27885814 2:-0.63983165 3:0.46851789 
8 3.455676961571262 0 1:0.23494664 2:-0.67306965 3:0.63835697 
8 0 0 1:0.82517239 2:-0.21297855 3:0.92312168 
8 0 0 1:0.81021766 2:-0.22922402 3:0.91560641 
8 0 0 1:0.79479475 2:-0.23640037 3:0.90166633 
8 0 0 1:0.77949541 2:-0.23450626 3:0.88382973 
8 0 0 1:0.76464201 2:-0.22767107 3:0.8874405 
8 0 0 1:0.75004863 2:-0.2236854 3:0.90562077 
8 0 0 1:0.73566339 2:-0.22049501 3:0.9099395 
8 0 0 1:0.72130651 2:-0.2200604 3:0.89837707 
8 0 0 1:0.70669441 2:-0.22397237 3:0.8711411 
8 0 0 1:0.6917704 2:-0.22875333 3:0.83598574 
8 0 0 1:0.67646088 2:-0.23466229 3:0.8130748 
8 0 0 1:0.66017101 2:-0.24968899 3:0.7963993 
8 0 0 1:0.64248584 2:-0.27107589 3:0.74778289 
8 0 0 1:0.62355289 2:-0.29020175 3:0.64027432 
8 0 0 1:0.60377188 2:-0.30320073 3:0.51292275 
8 0 0 1:0.5836912 2:-0.30779405 3:0.43391943 
8 0 0 1:0.56418414 2:-0.29900175 3:0.41936303 
8 0 0 1:0.5458272 2:-0.28137266 3:0.46178423 
8 0 0 1:0.52919674 2:-0.25490951 3:0.54681486 
8 0 0 1:0.51469236 2:-0.2223213 3:0.63976613 
8 0 0 1:0.50212566 2:-0.19262072 3:0.69552811 
8 0 0 1:0.49154612 2:-0.16216185 3:0.70458968 
8 0 0 1:0.48292654 2:-0.13211976 3:0.67826785 
8 0 0 1:0.47635267 2:-0.10076342 3:0.64259639 
8 0 0 1:0.5627351 2:-0.2139652 3:0.071666898 
8 0 0 1:0.54604014 2:-0.25589816 3:0.074136634 
8 0 0 1:0.52703445 2:-0.29131665 3:0.054759539 
8 0 0 1:0.5063401 2:-0.3172003 3:0.03938079 
8 0 0 1:0.48368456 2:-0.34726118 3:0.042918795 
8 0 0 1:0.4589274 2:-0.37947453 3:0.067028335 
8 0 0 1:0.43217984 2:-0.40998303 3:0.10829293 
8 0 0 1:0.6693696 2:-0.21924343 3:0.37966318 
8 0 0 1:0.65335231 2:-0.24551089 3:0.34028364 
8 0 0 1:0.63588604 2:-0.26772081 3:0.28086853 
8 0 0 1:0.61702037 2:-0.28917049 3:0.21632248 
8 0 0 1:0.59655283 2:-0.31372376 3:0.21982222 
8 0 0 1:0.57505393 2:-0.32953226 3:0.34689222 
8 0 0 1:0.57504997 2:-0.1067106 3:0.97860557 
8 0 0 1:0.5673295 2:-0.11833836 3:0.96939312 
8 0 0 1:0.55992156 2:-0.1135479 3:0.96500884 
8 0 0 1:0.55298841 2:-0.10627043 3:0.9702119 
8 0 0 1:0.5470934 2:-0.090358007 3:0.97114426 
8 0 0 1:0.54338236 2:-0.10572878 3:0.82589884 
8 0 0 1:0.53479195 2:-0.13167272 3:0.90290496 
8 0 0 1:0.52423141 2:-0.16187056 3:0.96347957 
8 0 0 1:0.51167973 2:-0.19239056 3:0.98607471 
8 0 0 1:0.49827885 2:-0.20540689 3:0.99154676 
8 0 0 1:0.48428649 2:-0.21447311 3:0.99355716 
8 0 0 1:0.46956592 2:-0.22563493 3:0.99512972 
8 0 0 1:0.45415831 2:-0.23616588 3:0.99475107 
8 0 0 1:0.43815126 2:-0.24535386 3:0.98672335 
8 0 0 1:0.42206738 2:-0.2465316 3:0.94367714 
8 0 0 1:0.40664035 2:-0.23646359 3:0.87994119 
8 0 0 1:0.39242446 2:-0.2178993 3:0.86959273 
8 0 0 1:0.37940363 2:-0.1995815 3:0.90471089 
8 0 0 1:0.36728071 2:-0.18581857 3:0.95739707 
8 0 0 1:0.35653626 2:-0.16468949 3:0.98328498 
8 0 0 1:0.34777428 2:-0.13430246 3:0.99151127 
8 0 0 1:0.34082177 2:-0.10656726 3:0.99654907 
8 0 0 1:0.33525913 2:-0.085263394 3:0.99890405 
8 0 0 1:0.33080025 2:-0.068345122 3:0.99930092 
8 0 0 1:0.32749946 2:-0.050594026 3:0.99872986 
8 0 0 1:0.32581073 2:-0.025884714 3:0.99252882 
8 0 0 1:0.32588047 2:0.0010689995 3:0.96586084 
8 0 0 1:0.32730704 2:0.02186633 3:0.97026963 
8 0 0 1:0.4241184 2:-0.017514882 3:0.99998846 
8 0 0 1:0.42311194 2:-0.015426778 3:0.99998464 
8 0 0 1:0.42216818 2:-0.014465873 3:0.99998037 
8 0 0 1:0.42647121 2:-0.035760299 3:0.99974687 
8 0 0 1:0.4196457 2:-0.10462043 3:0.99983342 
8 0 0 1:0.40933927 2:-0.1579756 3:0.99993602 
8 0 0 1:0.39621268 2:-0.20120269 3:0.99999078 
8 0 0 1:0.38168691 2:-0.22264913 3:1 
8 0 0 1:0.36552585 2:-0.24771459 3:0.99999678 
8 0 0 1:0.34738443 2:-0.27806924 3:0.99997286 
8 0 0 1:0.32762816 2:-0.30282164 3:0.99993548 
8 0 0 1:0.30597545 2:-0.33188984 3:0.99996681 
8 0 0 1:0.28245606 2:-0.36050219 3:0.99999143 
8 0 0 1:0.6198834 2:-0.19207677 3:0.40048516 
8 0 0 1:0.60666908 2:-0.20254736 3:0.43260536 
8 0 0 1:0.59274306 2:-0.21345628 3:0.43930032 
8 0 0 1:0.57812232 2:-0.22410466 3:0.43510951 
8 0 0 1:0.56282325 2:-0.23450215 3:0.43277889 
8 0 0 1:0.54731948 2:-0.23763986 3:0.43283793 
8 0 0 1:0.53179792 2:-0.23791233 3:0.45771207 
8 0 0 1:0.51628737 2:-0.2377438 3:0.49424125 
8 0 0 1:0.50080613 2:-0.23729442 3:0.4810824 
8 0 0 1:0.48530132 2:-0.23765562 3:0.39576411 
8 0 0 1:0.46978681 2:-0.23780435 3:0.26558509 
8 0 0 1:0.45429978 2:-0.23738314 3:0.16032796 
8 0 0 1:0.43835945 2:-0.2443313 3:0.10785051 
8 0 0 1:0.4219878 2:-0.25094248 3:0.090967772 
8 0 0 1:0.40521925 2:-0.25702616 3:0.076957238 
8 0 0 1:0.38811678 2:-0.26214444 3:0.04901467 
8 0 0 1:0.37052415 2:-0.26965749 3:0.028579374 
8 8 0 1:0.35241472 2:-0.27757905 3:0.023231014 
8 8 0 1:0.33406619 2:-0.28124376 3:0.035360595 
8 8 0 1:0.31631886 2:-0.27202876 3:0.071818681 
8 0 0 1:0.30005309 2:-0.24931964 3:0.1302719 
8 0 0 1:0.28606067 2:-0.21447392 3:0.23151494 
8 0 0 1:0.27413552 2:-0.18278714 3:0.34877614 
8 0 0 1:0.26365914 2:-0.16058069 3:0.41030588 
8 0 0 1:0.25406825 2:-0.14700787 3:0.44879428 
8 0 0 1:0.2450165 2:-0.13874408 3:0.49090299 
8 0 0 1:0.23638177 2:-0.13235189 3:0.50835334 
8 0 0 1:0.22852211 2:-0.12047189 3:0.46576144 
8 0 0 1:0.22181708 2:-0.10277383 3:0.34717167 
8 0 0 1:0.21597753 2:-0.089507857 3:0.20101305 
8 8 0 1:0.21066714 2:-0.081396951 3:0.11099222 
8 8 0 1:0.20608109 2:-0.070294385 3:0.069329257 
8 8 0 1:0.20282015 2:-0.049983236 3:0.045565303 
8 8 8 1:0.20080179 2:-0.030937125 3:0.028361773 
8 8 8 1:0.19968536 2:-0.017112464 3:0.022565558 
8 8 8 1:0.19974829 2:0.00096455437 3:0.02448242 
8 8 8 1:0.20097376 2:0.018783849 3:0.024822209 
0 8 8 1:0.20392368 2:0.045215904 3:0.017520794 
0 8 8 1:0.20837546 2:0.068236401 3:0.0090106063 
0 0 8 1:0.21440257 2:0.092382727 3:0.005277821 
0 0 8 1:0.22163768 2:0.11089874 3:0.0040658708 
0 0 4.407821047843291 1:0.23020584 2:0.13133165 3:0.0031845778 
8 0 0 1:0.42175734 2:-0.064393908 3:0.91525931 
8 0 0 1:0.41453471 2:-0.11070752 3:0.92174628 
8 0 0 1:0.40457763 2:-0.15262079 3:0.92872601 
8 0 0 1:0.39185283 2:-0.19504408 3:0.93511789 
8 0 0 1:0.37643475 2:-0.23632633 3:0.93934531 
8 0 0 1:0.35807983 2:-0.28134191 3:0.93821544 
8 0 0 1:0.33694008 2:-0.32402731 3:0.93218919 
8 0 0 1:0.31285 2:-0.36924952 3:0.92155465 
8 0 0 1:0.28605366 2:-0.41073075 3:0.90066775 
8 0 0 1:0.78600072 2:-0.26164449 3:0.53070184 
8 0 0 1:0.76727437 2:-0.28703493 3:0.64707514 
8 0 0 1:0.74719516 2:-0.30777162 3:0.79563856 
8 0 0 1:0.72608573 2:-0.32356254 3:0.89502352 
8 0 0 1:0.70474757 2:-0.32706843 3:0.9109776 
8 0 0 1:0.68428629 2:-0.31362781 3:0.86991821 
8 0 0 1:0.66487669 2:-0.29750778 3:0.80368829 
8 0 0 1:0.6462909 2:-0.2848806 3:0.75469378 
8 0 0 1:0.62817829 2:-0.27762766 3:0.7121546 
8 0 0 1:0.61062655 2:-0.26903084 3:0.6556858 
8 0 0 1:0.59411336 2:-0.25311198 3:0.58332204 
8 0 0 1:0.5786464 2:-0.23707549 3:0.47511568 
8 0 0 1:0.564372 2:-0.21879619 3:0.31696533 
8 0 0 1:0.55114689 2:-0.20271281 3:0.16992037 
8 0 0 1:0.5393267 2:-0.18117827 3:0.096110811 
8 0 0 1:0.52903997 2:-0.15767365 3:0.072013103 
8 0 0 1:0.72312687 2:-0.19407526 3:0.88648305 
8 0 0 1:0.70742117 2:-0.24073486 3:0.89533744 
8 0 0 1:0.6885994 2:-0.28849757 3:0.88464764 
8 0 0 1:0.66621633 2:-0.34308479 3:0.85526433 
8 0 0 1:0.64032613 2:-0.39684154 3:0.81323748 
8 0 0 1:0.87514564 2:-0.21179504 3:0.99757544 
8 0 0 1:0.85942345 2:-0.24098762 3:0.99767981 
8 0 0 1:0.84194826 2:-0.26785744 3:0.9980908 
8 0 0 1:0.82312024 2:-0.28859349 3:0.99837934 
8 0 0 1:0.80318785 2:-0.30552112 3:0.9976154 
8 0 0 1:0.78224019 2:-0.32108286 3:0.99281915 
8 0 0 1:1.118308 2:-0.29002076 3:0.41254478 
8 0 0 1:1.0982683 2:-0.30716605 3:0.415985 
8 0 0 1:1.0784312 2:-0.30405994 3:0.42326525 
8 0 0 1:1.059288 2:-0.29342423 3:0.42570401 
8 0 0 1:1.0408484 2:-0.28264058 3:0.49898235 
8 0 0 1:0.82448882 2:-0.23710667 3:0.52675822 
8 0 0 1:0.808265 2:-0.24867658 3:0.53159468 
8 0 0 1:0.79205607 2:-0.24844843 3:0.54019362 
8 0 0 1:0.77567976 2:-0.25101389 3:0.54536979 
8 0 0 1:0.75921419 2:-0.25238211 3:0.54422306 
8 0 0 1:0.7425868 2:-0.25486245 3:0.53333193 
8 0 0 1:0.72556479 2:-0.26091111 3:0.50972001 
8 0 0 1:0.70800917 2:-0.2690903 3:0.47692351 
8 0 0 1:0.69002993 2:-0.27558344 3:0.44514625 
8 0 0 1:0.67156762 2:-0.28298786 3:0.42296876 
8 0 0 1:0.65270426 2:-0.28913516 3:0.4154273 
8 0 0 1:0.63318018 2:-0.2992625 3:0.42801031 
8 0 0 1:0.61309626 2:-0.30784363 3:0.45504507 
8 0 0 1:0.59240485 2:-0.31715534 3:0.48409139 
8 0 0 1:0.57127046 2:-0.3239451 3:0.50151601 
8 0 0 1:0.5496365 2:-0.33160249 3:0.5073674 
8 0 0 1:0.52738743 2:-0.34103083 3:0.51495459 
8 0 0 1:0.50495249 2:-0.34387984 3:0.53220733 
8 0 0 1:0.48233369 2:-0.34669799 3:0.55255619 
8 0 0 1:0.4593383 2:-0.35247029 3:0.56399846 
8 0 0 1:0.43644015 2:-0.35097988 3:0.56168555 
8 0 0 1:0.41466454 2:-0.3337736 3:0.55298734 
8 0 0 1:0.3941922 2:-0.31379741 3:0.54432475 
8 0 0 1:0.37476752 2:-0.29773889 3:0.53815409 
8 0 0 1:0.35591284 2:-0.2890021 3:0.5316381 
8 0 0 1:0.33784353 2:-0.27696404 3:0.5256582 
8 0 0 1:0.32092877 2:-0.25926717 3:0.52820275 
8 0 0 1:0.3052727 2:-0.23997429 3:0.53438074 
8 0 0 1:0.29086017 2:-0.22091325 3:0.53792012 
8 0 0 1:0.27765557 2:-0.20239841 3:0.53670551 
8 0 0 1:0.26561341 2:-0.18458066 3:0.52715594 
8 0 0 1:0.25511102 2:-0.16097931 3:0.52022419 
8 0 0 1:0.24629513 2:-0.1351288 3:0.51919991 
8 0 0 1:0.23913712 2:-0.10971699 3:0.51920754 
8 0 0 1:0.23335831 2:-0.088576843 3:0.52018071 
8 0 0 1:0.22888552 2:-0.06855832 3:0.52321553 
8 0 0 1:0.22592784 2:-0.045334912 3:0.53060529 
8 0 0 1:0.22439632 2:-0.023474949 3:0.5453624 
8 0 0 1:0.22436136 2:-0.0005359734 3:0.56815624 
8 0 0 1:0.22567549 2:0.020142814 3:0.59125892 
8 0 0 1:0.22836426 2:0.041213173 3:0.60675599 
8 0 0 1:0.6437365 2:-0.14538952 3:0.8682659 
8 0 0 1:0.63196494 2:-0.18043289 3:0.89845515 
8 0 0 1:0.6186719 2:-0.20375396 3:0.88692044 
8 0 0 1:0.60462944 2:-0.21524092 3:0.85262157 
8 0 0 1:0.59030381 2:-0.21958146 3:0.83438444 
8 0 0 1:0.57624449 2:-0.21549933 3:0.879365 
8 0 0 1:0.56172162 2:-0.22260471 3:0.96221893 
8 0 0 1:1.1325037 2:-0.27777401 3:0.6506915 
8 0 0 1:0.77212797 2:-0.19394284 3:0.81611887 
8 0 0 1:0.75885523 2:-0.20344289 3:0.88962952 
8 0 0 1:0.74554554 2:-0.20400914 3:0.91714058 
8 0 0 1:0.7322028 2:-0.20451579 3:0.92834146 
8 0 0 1:0.7185656 2:-0.20902917 3:0.93207144 
8 0 0 1:0.7048866 2:-0.20966997 3:0.93289995 
8 0 0 1:0.6914487 2:-0.20597442 3:0.93402451 
8 0 0 1:0.67801548 2:-0.20590259 3:0.93513631 
8 0 0 1:0.6646865 2:-0.20430489 3:0.93769995 
8 0 0 1:0.65133395 2:-0.20466614 3:0.94223234 
8 0 0 1:0.63798401 2:-0.20462606 3:0.9376602 
8 0 0 1:0.62458347 2:-0.20540181 3:0.90281698 
8 0 0 1:0.61098338 2:-0.20846035 3:0.82490585 
8 0 0 1:0.5967605 2:-0.2180065 3:0.74017136 
8 0 0 1:0.581871 2:-0.22822428 3:0.72123324 
8 0 0 1:0.56669974 2:-0.23254306 3:0.79696574 
8 0 0 1:0.5521524 2:-0.2229797 3:0.869987 
8 0 0 1:0.53918541 2:-0.19875635 3:0.86595218 
8 0 0 1:0.52894663 2:-0.15693872 3:0.75636284 
8 0 0 1:0.57018193 2:-0.10935769 3:0.87803493 
8 0 0 1:0.56289415 2:-0.11170604 3:0.84853759 
8 0 0 1:0.52541955 2:-0.11417561 3:0.79469232 
8 0 0 1:0.51588312 2:-0.1461731 3:0.76328397 
8 0 0 1:0.50481129 2:-0.16970752 3:0.73095773 
8 0 0 1:0.49311302 2:-0.17930967 3:0.72464222 
8 0 0 1:0.48160455 2:-0.17640027 3:0.73922003 
8 0 0 1:0.47055302 2:-0.1693964 3:0.7399283 
8 0 0 1:0.46000643 2:-0.16165671 3:0.70914044 
8 0 0 1:0.44992485 2:-0.15452924 3:0.66099257 
8 0 0 1:0.44039287 2:-0.14610495 3:0.62108617 
8 0 0 1:0.43176784 2:-0.13220318 3:0.60003447 
8 0 0 1:0.42406406 2:-0.11808259 3:0.59949582 
8 0 0 1:0.41729748 2:-0.10371721 3:0.6171264 
8 0 0 1:0.41145407 2:-0.089566997 3:0.65288047 
8 0 0 1:0.40589498 2:-0.085209041 3:0.70041793 
8 0 0 1:0.40049704 2:-0.082738944 3:0.75824764 
8 0 0 1:0.39529998 2:-0.079659853 3:0.82414598 
8 0 0 1:0.39041493 2:-0.074877364 3:0.87532635 
8 0 0 1:0.38596589 2:-0.068194397 3:0.91002574 
8 0 0 1:0.38202573 2:-0.060394266 3:0.92604016 
8 0 0 1:0.37863554 2:-0.051964338 3:0.90884474 
8 0 0 1:0.37578149 2:-0.043746429 3:0.85867007 
8 0 0 1:0.37363112 2:-0.032960725 3:0.81798403 
8 0 0 1:0.37243432 2:-0.018344361 3:0.83028867 
8 0 0 1:0.4177952 2:-0.018410801 3:0.95827286 
8 0 0 1:0.41600237 2:-0.027480213 3:0.96644318 
8 0 0 1:0.41371839 2:-0.035008653 3:0.97224584 
8 0 0 1:0.41026837 2:-0.052881358 3:0.97244774 
8 0 0 1:0.40529542 2:-0.07622484 3:0.9621596 
8 0 0 1:0.39752523 2:-0.1191004 3:0.92332442 
8 0 0 1:0.38742231 2:-0.15485625 3:0.81938227 
8 0 0 1:0.3754881 2:-0.18292599 3:0.66129569 
8 0 0 1:0.88510784 2:-0.28111371 3:0.00053841637 
8 0 0 1:0.86445697 2:-0.31653383 3:0.00056935766 
8 0 0 1:0.84197114 2:-0.34465984 3:7.0913891e-005 
8 0 0 1:0.81795731 2:-0.36808088 3:1.6451106e-006 
8 0 0 1:0.79239378 2:-0.39183444 3:4.7786661e-007 
8 0 0 1:0.76672788 2:-0.39340358 3:8.8866622e-007 
8 0 0 1:0.7419987 2:-0.37904553 3:1.7362458e-006 
8 0 0 1:0.71940978 2:-0.34624006 3:3.8698551e-006 
8 0 0 1:0.69789945 2:-0.32970743 3:7.694993e-006 
8 0 0 1:0.67713179 2:-0.318324 3:1.0853575e-005 
8 0 0 1:0.6561777 2:-0.32118156 3:1.2925866e-005 
8 0 0 1:0.63583204 2:-0.31185562 3:1.3140983e-005 
8 0 0 1:0.61620549 2:-0.30083312 3:8.7944876e-006 
8 0 0 1:0.59735579 2:-0.28892586 3:3.4037052e-006 
8 0 0 1:0.57993622 2:-0.26700488 3:8.0032241e-007 
8 0 0 1:0.56426972 2:-0.24013406 3:2.2933081e-007 
8 0 0 1:0.55037333 2:-0.21300197 3:3.019191e-007 
8 0 0 1:0.53808712 2:-0.18832149 3:1.6919436e-006 
8 0 0 1:0.52687683 2:-0.17182975 3:8.1151994e-007 
8 0 0 1:0.51670232 2:-0.15595355 3:4.1662307e-009 
8 0 0 1:0.58712456 2:-0.20071913 3:0.0023520382 
8 0 0 1:0.57209239 2:-0.23041112 3:9.4966151e-005 
8 0 0 1:0.55557032 2:-0.25324809 3:5.1195875e-006 
8 0 0 1:0.53730813 2:-0.27992048 3:8.9746085e-007 
8 0 0 1:0.51790845 2:-0.29735577 3:3.5593876e-007 
8 0 0 1:0.49857527 2:-0.29633651 3:2.1381155e-007 
8 0 0 1:0.48035472 2:-0.27928217 3:1.1736381e-007 
8 0 0 1:0.4626515 2:-0.27135259 3:7.1453663e-008 
8 0 0 1:0.44492629 2:-0.27168968 3:9.1244907e-008 
8 0 0 1:0.42732743 2:-0.26975304 3:3.6513157e-007 
8 0 0 1:0.41112332 2:-0.24837456 3:3.5513249e-006 
8 0 0 1:0.39643526 2:-0.22513665 3:1.8349711e-005 
8 0 0 1:0.38346945 2:-0.19873813 3:3.0290359e-005 
8 0 0 1:0.37193593 2:-0.17678427 3:5.0367958e-006 
8 0 0 1:0.36183654 2:-0.15480224 3:1.1587552e-007 
8 0 0 1:0.35324954 2:-0.13162034 3:4.6272258e-010 
8 0 0 1:0.34596081 2:-0.11172067 3:6.2266858e-013 
8 0 0 1:0.34020788 2:-0.088180131 3:2.220446e-015 
8 0 0 1:0.3358381 2:-0.066979532 3:0 
8 0 0 1:0.35954457 2:-0.075624244 3:3.3306691e-016 
8 0 0 1:0.35472493 2:-0.073874711 3:1.110223e-016 
8 0 0 1:0.35020551 2:-0.069273076 3:-1.110223e-016 
8 0 0 1:0.3347656 2:-0.064580676 3:-1.110223e-016 
8 0 0 1:0.33065023 2:-0.06307974 3:0 
8 0 0 1:0.32670932 2:-0.060405878 3:-1.110223e-016 
8 0 0 1:0.43567812 2:-0.11233007 3:0.1292591 
8 0 0 1:0.42827936 2:-0.11340715 3:0.1104712 
8 0 0 1:0.42037201 2:-0.12120284 3:0.11271081 
8 0 0 1:0.41156665 2:-0.13496748 3:0.15462222 
8 0 0 1:1.3727247 2:-0.26421881 3:0.023664901 
8 0 0 1:1.3552607 2:-0.26768645 3:0.031700691 
8 0 0 1:1.3376881 2:-0.26934951 3:0.037565433 
8 0 0 1:1.3199227 2:-0.27230647 3:0.037170602 
8 0 0 1:1.0405821 2:-0.26084719 3:0.80008382 
8 0 0 1:1.0194507 2:-0.32389986 3:0.83056161 
8 0 0 1:0.99414243 2:-0.38792128 3:0.86736406 
8 0 0 1:0.9650003 2:-0.44668682 3:0.90177979 
8 0 0 1:0.93188173 2:-0.50763702 3:0.92383071 
8 0 0 1:0.89460522 2:-0.57136951 3:0.94141662 
8 0 0 1:0.85361683 2:-0.62826465 3:0.96003381 
8 0 0 1:0.80919015 2:-0.68096628 3:0.97333915 
8 0 0 1:0.76271398 2:-0.71238068 3:0.97919919 
8 0 0 1:0.71506227 2:-0.73039914 3:0.97718251 
8 0 0 1:0.69681314 2:-0.25737423 3:0.14884995 
8 0 0 1:0.67783068 2:-0.29096062 3:0.1598661 
8 0 0 1:0.65682353 2:-0.32199487 3:0.17063139 
8 0 0 1:0.63336776 2:-0.35952701 3:0.17043172 
8 0 0 1:0.60770766 2:-0.39331455 3:0.15811438 
8 0 0 1:0.58035636 2:-0.41923717 3:0.14839772 
8 0 0 1:0.55173357 2:-0.43872634 3:0.16088715 
8 0 0 1:0.52187244 2:-0.45770745 3:0.19738393 
8 0 0 1:0.49048582 2:-0.48109002 3:0.2384471 
8 0 0 1:0.45770955 2:-0.50239047 3:0.26861079 
8 0 0 1:0.42363559 2:-0.52228118 3:0.28151613 
8 0 0 1:0.66976374 2:-0.17698677 3:0.65902142 
8 0 0 1:0.65740241 2:-0.18947286 3:0.6411793 
8 0 0 1:0.64440166 2:-0.19927372 3:0.64033519 
8 0 0 1:0.63155261 2:-0.1969486 3:0.67076295 
8 0 0 1:0.61891141 2:-0.19376268 3:0.69469386 
8 0 0 1:0.60631889 2:-0.19301654 3:0.7065851 
8 0 0 1:0.59407622 2:-0.18765395 3:0.70976103 
8 0 0 1:0.58266748 2:-0.17487167 3:0.70947068 
8 0 0 1:0.57266352 2:-0.15333941 3:0.69993419 
8 0 0 1:1.0748636 2:-0.25953877 3:0.84800183 
8 0 0 1:0.7737756 2:-0.18450963 3:0.94816498 
8 0 0 1:0.75980075 2:-0.21420455 3:0.93973838 
8 0 0 1:0.74435713 2:-0.23671786 3:0.91352236 
8 0 0 1:0.72784411 2:-0.25310941 3:0.86432076 
8 0 0 1:0.71037924 2:-0.26769921 3:0.79964529 
8 0 0 1:0.69225147 2:-0.27786004 3:0.73920283 
8 0 0 1:0.67374221 2:-0.2837075 3:0.68931939 
8 0 0 1:0.65481871 2:-0.29005693 3:0.64095314 
8 0 0 1:0.63528905 2:-0.29934814 3:0.58743552 
8 0 0 1:0.61599104 2:-0.29579732 3:0.14567398 
8 0 0 1:0.59771287 2:-0.28016534 3:0.10864688 
8 0 0 1:1.410109 2:-0.28090588 3:0.14401071 
8 0 0 1:1.3892581 2:-0.31960083 3:0.15041895 
8 0 0 1:1.3654425 2:-0.36504209 3:0.15100633 
8 0 0 1:1.3386051 2:-0.41136041 3:0.14735278 
8 0 0 1:0.98242815 2:-0.28183047 3:0.00055893255 
8 0 0 1:0.96338442 2:-0.29189979 3:0.00053432469 
8 0 0 1:0.94451259 2:-0.28926489 3:0.00064161026 
8 0 0 1:0.92689481 2:-0.27004302 3:0.0012075698 
8 0 0 1:0.83731314 2:-0.25369097 3:0.28041249 
8 0 0 1:0.82079854 2:-0.25313366 3:0.34099368 
8 0 0 1:0.80425881 2:-0.2535188 3:0.41561255 
8 0 0 1:0.78742708 2:-0.25799446 3:0.45570047 
8 0 0 1:0.77047146 2:-0.25989359 3:0.4754611 
8 0 0 1:0.7541486 2:-0.25019461 3:0.49931301 
8 0 0 1:0.73881568 2:-0.23502099 3:0.53684013 
8 0 0 1:0.72452347 2:-0.21906908 3:0.56056949 
8 0 0 1:0.71126511 2:-0.20322243 3:0.52178725 
8 0 0 1:0.82027742 2:-0.26331922 3:0.016775689 
8 0 0 1:0.80196666 2:-0.28066486 3:0.016706351 
8 0 0 1:0.78332871 2:-0.28568012 3:0.023258587 
8 0 0 1:0.76605179 2:-0.26481831 3:0.03402372 
8 0 0 1:0.72382642 2:-0.2496109 3:0.098292174 
8 0 0 1:0.70622843 2:-0.26973968 3:0.10114502 
8 0 0 1:0.68765258 2:-0.28472828 3:0.10107109 
8 0 0 1:0.668587 2:-0.29223465 3:0.097955356 
8 0 0 1:0.64918488 2:-0.29739322 3:0.092270255 
8 0 0 1:0.62982339 2:-0.29677036 3:0.087605164 
8 0 0 1:0.61108686 2:-0.28719107 3:0.085499484 
8 0 0 1:0.59349751 2:-0.26960725 3:0.9998897 
8 0 0 1:0.57771936 2:-0.24184536 3:0.9998669 
8 0 0 1:0.56427739 2:-0.2060368 3:0.99982002 
8 0 0 1:0.55264595 2:-0.17828524 3:0.99973654 
8 0 0 1:0.54268342 2:-0.15270435 3:0.99966559 
8 0 0 1:0.53436196 2:-0.1275502 3:0.99969078 
8 0 0 1:0.52755339 2:-0.10436086 3:0.9997833 
8 0 0 1:0.52196696 2:-0.085628021 3:0.99986798 
8 0 0 1:0.51757566 2:-0.067309258 3:0.99989572 
8 0 0 1:0.51358358 2:-0.061190088 3:0.99987913 
8 0 0 1:0.50951636 2:-0.062341915 3:0.99985279 
8 0 0 1:0.50555023 2:-0.060792231 3:0.99985981 
8 0 0 1:0.51555659 2:-0.10404488 3:0.70908189 
8 0 0 1:0.50872867 2:-0.10465746 3:0.72165582 
8 0 0 1:0.50178725 2:-0.10639725 3:0.78313156 
8 0 0 1:0.49463589 2:-0.10961512 3:0.9052674 
8 0 0 1:0.48775576 2:-0.10545774 3:0.9794029 
8 0 0 1:0.48143754 2:-0.096844732 3:0.99633706 
8 0 0 1:0.47550106 2:-0.090993609 3:0.99853263 
8 0 0 1:0.4700562 2:-0.083458209 3:0.99827431 
8 0 0 1:0.46510215 2:-0.075935028 3:0.99810367 
8 0 0 1:0.46073572 2:-0.066927955 3:0.9984407 
8 0 0 1:0.45726448 2:-0.053206691 3:0.99829141 
8 0 0 1:0.45474269 2:-0.038653702 3:0.99662363 
8 0 0 1:0.45052594 2:-0.036588126 3:0.98966206 
8 0 0 1:0.44638927 2:-0.063406244 3:0.98017365 
8 0 0 1:0.43968801 2:-0.10271607 3:0.97872026 
8 0 0 1:0.43039063 2:-0.14250903 3:0.98941741 
8 0 0 1:0.41808751 2:-0.18858057 3:0.99815204 
8 0 0 1:0.40358241 2:-0.22233233 3:0.99986495 
8 0 0 1:0.38745954 2:-0.24712929 3:0.99996902 
8 0 0 1:0.37077666 2:-0.255713 3:0.99996713 
8 0 0 1:0.35318619 2:-0.2696244 3:0.99997085 
8 0 0 1:0.33406652 2:-0.29306374 3:0.99999525 
8 0 0 1:0.31313086 2:-0.32089905 3:1 
8 0 0 1:0.9087242 2:-0.23658845 3:0.77898593 
8 0 0 1:0.89285697 2:-0.24321086 3:0.77726906 
8 0 0 1:0.87665859 2:-0.24828651 3:0.77254586 
8 0 0 1:0.86009751 2:-0.25384619 3:0.77085169 
8 0 0 1:0.84318862 2:-0.25917725 3:0.76739469 
8 0 0 1:0.82594624 2:-0.26428882 3:0.75712046 
8 0 0 1:0.80833289 2:-0.26997521 3:0.73307868 
8 0 0 1:0.79049717 2:-0.27338356 3:0.6829953 
8 0 0 1:0.77240878 2:-0.27725644 3:0.59621114 
8 0 0 1:0.75451526 2:-0.27426947 3:0.48140098 
8 0 0 1:0.73757099 2:-0.25971961 3:0.37715974 
8 0 0 1:0.7218639 2:-0.24075616 3:0.31610136 
8 0 0 1:0.70702149 2:-0.22750261 3:0.30109048 
8 0 0 1:0.69239157 2:-0.22424538 3:0.30297203 
8 0 0 1:0.6781256 2:-0.21866699 3:0.30088636 
8 0 0 1:0.66479287 2:-0.20436236 3:0.29372252 
8 0 0 1:0.8986659 2:-0.2591855 3:0.65428192 
8 0 0 1:0.88118983 2:-0.26787094 3:0.79015169 
8 0 0 1:0.86342699 2:-0.27226649 3:0.90848003 
8 0 0 1:0.84555731 2:-0.27390406 3:0.95036565 
8 0 0 1:0.8285666 2:-0.26043144 3:0.96099492 
8 0 0 1:0.81339251 2:-0.23258642 3:0.97286011 
8 0 0 1:0.80001492 2:-0.20504994 3:0.98264069 
8 0 0 1:0.78828662 2:-0.17976994 3:0.98843457 
8 0 0 1:0.79853586 2:-0.20678671 3:0.74971505 
8 0 0 1:1.1458531 2:-0.2619832 3:0.88853349 
8 0 0 1:1.1251799 2:-0.31687652 3:0.89163613 
8 0 0 1:1.1008726 2:-0.37257879 3:0.89026759 
8 0 0 1:1.0733414 2:-0.42199483 3:0.89142049 
8 0 0 1:1.0431186 2:-0.46325109 3:0.88603249 
8 0 0 1:0.70965427 2:-0.22130975 3:0.0085932863 
8 0 0 1:0.694254 2:-0.23605329 3:0.0082653972 
8 0 0 1:0.67765254 2:-0.25446509 3:0.0081365668 
8 0 0 1:0.66021354 2:-0.26730267 3:0.008858571 
8 0 0 1:0.64220512 2:-0.27603069 3:0.012193102 
8 0 0 1:1.1186519 2:-0.29336132 3:0.55415891 
8 0 0 1:1.0979067 2:-0.31797955 3:0.23458404 
8 0 0 1:1.0756796 2:-0.34069438 3:0.08186912 
8 0 0 1:1.0525171 2:-0.35503212 3:0.10287001 
8 0 0 1:1.028952 2:-0.36120213 3:0.08373405 
8 0 0 1:1.005316 2:-0.36228971 3:0.035469949 
8 0 0 1:0.98189075 2:-0.3590597 3:0.011648969 
8 0 0 1:0.95918052 2:-0.3480994 3:0.017306561 
8 0 0 1:0.93792523 2:-0.32579832 3:0.12230986 
8 0 0 1:0.91842177 2:-0.29894641 3:0.36643618 
8 0 0 1:0.90036815 2:-0.27672346 3:0.50399859 
8 0 0 1:0.88293331 2:-0.26723906 3:0.56080483 
8 0 0 1:0.86575534 2:-0.26330166 3:0.59368754 
8 0 0 1:0.84905556 2:-0.25597207 3:0.63240453 
8 0 0 1:0.83281486 2:-0.2489353 3:0.67795305 
8 0 0 1:0.81695944 2:-0.24302974 3:0.7280079 
8 0 0 1:0.80167516 2:-0.23427542 3:0.77366172 
8 0 0 1:0.78804626 2:-0.20890198 3:0.80550357 
6.808446692678935 0 0 1:0.75958968 2:-0.20673907 3:0.63015431 
8 0 0 1:0.74359971 2:-0.24509217 3:0.67679231 
8 0 0 1:0.72493878 2:-0.28603228 3:0.71781005 
8 0 0 1:0.7036576 2:-0.32619521 3:0.74505616 
8 0 0 1:0.67967912 2:-0.36753893 3:0.76268163 
8 0 0 1:0.65297958 2:-0.40924712 3:0.77728592 
8 0 0 1:0.62347402 2:-0.45225735 3:0.79074182 
8 0 0 1:0.59078288 2:-0.50108549 3:0.80297474 
8 0 0 1:0.55578874 2:-0.53638554 3:0.81292648 
8 0 0 1:1.2654801 2:-0.29513898 3:0.98015456 
8 0 0 1:1.242682 2:-0.34944673 3:0.9831805 
8 0 0 1:1.2175467 2:-0.38527072 3:0.98473741 
8 0 0 1:0.79325057 2:-0.2506368 3:0.1999942 
8 0 0 1:0.77568663 2:-0.2692178 3:0.15944484 
8 0 0 1:0.75781465 2:-0.27393938 3:0.13659468 
8 0 0 1:0.74049539 2:-0.26546734 3:0.12986012 
8 0 0 1:0.72332424 2:-0.26319703 3:0.12880372 
8 0 0 1:0.70551341 2:-0.27300219 3:0.120115 
8 0 0 1:0.68635022 2:-0.29373077 3:0.10792563 
8 0 0 1:0.66696103 2:-0.29719501 3:0.099126604 
8 0 0 1:0.64833807 2:-0.28545032 3:0.096286943 
8 0 0 1:0.63046677 2:-0.2739289 3:0.097422356 
8 0 0 1:0.61319293 2:-0.26477109 3:0.09929858 
8 0 0 1:0.59652074 2:-0.25554928 3:0.09858928 
8 0 0 1:0.58162639 2:-0.22829856 3:0.093910811 
8 0 0 1:0.56872212 2:-0.19779498 3:0.086570176 
8 0 0 1:0.55758272 2:-0.17074321 3:0.079629567 
8 0 0 1:0.78978408 2:-0.25797423 3:0.02101194 
8 0 0 1:0.77237361 2:-0.26686543 3:0.025648534 
8 0 0 1:0.75442308 2:-0.27514329 3:0.035084696 
8 0 0 1:0.73565134 2:-0.28773071 3:0.043411146 
8 0 0 1:0.71621109 2:-0.29797766 3:0.047608023 
8 0 0 1:0.69635438 2:-0.30436101 3:0.054943093 
8 0 0 1:0.67624355 2:-0.30825625 3:0.069918709 
8 0 0 1:0.65565824 2:-0.31552895 3:0.086646125 
8 0 0 1:0.63452533 2:-0.32392248 3:0.091298635 
8 0 0 1:0.61286751 2:-0.33196818 3:0.082747297 
8 0 0 1:0.59068773 2:-0.33996873 3:0.073735582 
8 0 0 1:0.56860512 2:-0.33847936 3:0.074078206 
8 0 0 1:0.54772776 2:-0.32000538 3:0.083039657 
8 0 0 1:0.52832302 2:-0.29743341 3:0.092897328 
8 0 0 1:0.51016611 2:-0.27830676 3:0.096445768 
8 0 0 1:0.49256281 2:-0.26982095 3:0.094936599 
8 0 0 1:0.47549828 2:-0.26156294 3:0.090581481 
8 0 0 1:0.45952169 2:-0.24488713 3:0.075992257 
8 0 0 1:0.44475913 2:-0.22627853 3:0.053123752 
8 0 0 1:0.43133811 2:-0.20571568 3:0.032543608 
8 0 0 1:0.41946354 2:-0.18201183 3:0.021686531 
8 0 0 1:0.40908684 2:-0.15905267 3:0.020148131 
8 0 0 1:0.40032173 2:-0.13435039 3:0.021611513 
8 0 0 1:0.39296214 2:-0.11280694 3:0.020176417 
8 0 0 1:0.38704861 2:-0.09064169 3:0.016068705 
8 0 0 1:0.89812384 2:-0.25612097 3:0.67503692 
8 0 0 1:0.88024687 2:-0.27401583 3:0.63129544 
8 0 0 1:0.8612478 2:-0.2912153 3:0.5954457 
8 0 0 1:0.84135532 2:-0.30490938 3:0.55618632 
8 0 0 1:0.8208168 2:-0.31481163 3:0.50548276 
8 0 0 1:0.79963611 2:-0.32465494 3:0.46921757 
8 0 0 1:0.7778185 2:-0.33441734 3:0.4576308 
8 0 0 1:0.7558205 2:-0.33718251 3:0.46566995 
8 0 0 1:0.73426188 2:-0.33044765 3:0.47855321 
8 0 0 1:0.71318848 2:-0.32301043 3:0.46897952 
8 0 0 1:0.69238742 2:-0.31883594 3:0.43002074 
8 0 0 1:0.67196633 2:-0.31301168 3:0.37545862 
8 0 0 1:0.65198645 2:-0.30624898 3:0.30504075 
8 0 0 1:0.63282993 2:-0.2936287 3:0.22817583 
8 0 0 1:0.6152079 2:-0.2701081 3:0.17684599 
8 0 0 1:0.59972703 2:-0.23728882 3:0.16049177 
8 0 0 1:0.58600527 2:-0.21032525 3:0.16640205 
8 0 0 1:0.57303049 2:-0.19887582 3:0.16231926 
8 0 0 1:0.56023801 2:-0.19608139 3:0.14041972 
8 0 0 1:0.54817115 2:-0.18495927 3:0.11980998 
8 0 0 1:0.53754218 2:-0.16291947 3:0.11867874 
8 0 0 1:0.56812921 2:-0.16700038 3:0.65082313 
8 0 0 1:0.55562173 2:-0.19171313 3:0.71777652 
8 0 0 1:0.54133117 2:-0.21904373 3:0.78034779 
8 0 0 1:0.52546037 2:-0.24326568 3:0.79773646 
8 0 0 1:0.50809919 2:-0.26610987 3:0.73755684 
8 0 0 1:0.48976709 2:-0.28099202 3:0.63764448 
8 0 0 1:0.47182187 2:-0.27506189 3:0.59398563 
8 0 0 1:0.4550232 2:-0.2574879 3:0.63319275 
8 0 0 1:0.43931054 2:-0.24084147 3:0.71908554 
8 0 0 1:0.42390661 2:-0.23610951 3:0.77863245 
8 0 0 1:0.40872768 2:-0.23266057 3:0.77729695 
8 0 0 1:0.39436258 2:-0.2201864 3:0.75583858 
8 0 0 1:0.38130123 2:-0.20020272 3:0.74418918 
8 0 0 1:0.36961364 2:-0.17914575 3:0.75006598 
8 0 0 1:0.35908635 2:-0.16136093 3:0.76584267 
8 0 0 1:0.34995569 2:-0.13995365 3:0.76958226 
8 0 0 1:0.3429146 2:-0.1079249 3:0.74653939 
8 0 0 1:0.33860431 2:-0.066067471 3:0.69699205 
8 0 0 1:0.33688984 2:-0.026279241 3:0.62353413 
8 0 0 1:0.82349272 2:-0.21429376 3:0.83853221 
8 0 0 1:0.80901453 2:-0.22191978 3:0.89343816 
8 0 0 1:0.79465124 2:-0.22015868 3:0.92376848 
8 0 0 1:0.78037981 2:-0.21875052 3:0.92777876 
8 0 0 1:0.76589903 2:-0.22195946 3:0.91185549 
8 0 0 1:0.75058576 2:-0.23471982 3:0.8932577 
8 0 0 1:0.73446034 2:-0.24716832 3:0.89281961 
8 0 0 1:0.71814449 2:-0.25008727 3:0.91351279 
8 0 0 1:0.70159201 2:-0.25371413 3:0.94036364 
8 0 0 1:0.68438355 2:-0.26376902 3:0.95873099 
8 0 0 1:0.66614784 2:-0.2795146 3:0.96081904 
8 0 0 1:0.64694585 2:-0.29432563 3:0.94488959 
8 0 0 1:0.62741837 2:-0.29931465 3:0.91533982 
8 0 0 1:0.60867803 2:-0.28724951 3:0.89955658 
8 0 0 1:0.59112514 2:-0.26904835 3:0.91675806 
8 0 0 1:0.57454717 2:-0.254105 3:0.94279722 
8 0 0 1:0.55895427 2:-0.23900593 3:0.96065136 
8 0 0 1:0.5443421 2:-0.22397343 3:0.96998629 
8 0 0 1:0.53070578 2:-0.20901568 3:0.97357985 
8 0 0 1:0.51811802 2:-0.19294353 3:0.97439655 
8 0 0 1:0.5061521 2:-0.18341207 3:0.97320957 
8 0 0 1:0.49485399 2:-0.17317588 3:0.96839617 
8 0 0 1:0.48455237 2:-0.15790193 3:0.9582293 
8 0 0 1:0.47537749 2:-0.14063134 3:0.94127967 
8 0 0 1:0.46708379 2:-0.1271247 3:0.91971275 
8 0 0 1:0.45991174 2:-0.10993225 3:0.89921733 
8 0 0 1:0.45373845 2:-0.094623365 3:0.87812519 
8 0 0 1:0.44860678 2:-0.078657575 3:0.84817586 
8 0 0 1:0.44449385 2:-0.063042433 3:0.8114462 
8 0 0 1:0.52507072 2:-0.14445517 3:0.4861941 
8 0 0 1:0.51559701 2:-0.14521184 3:0.46510887 
8 0 0 1:0.50649795 2:-0.13946924 3:0.45341816 
8 0 0 1:0.49756861 2:-0.13686771 3:0.44511616 
8 0 0 1:0.4888359 2:-0.1338539 3:0.44401881 
8 0 0 1:0.48029973 2:-0.13084126 3:0.45956824 
8 0 0 1:0.47183866 2:-0.12969021 3:0.48216589 
8 0 0 1:0.46358022 2:-0.12658425 3:0.48198595 
8 0 0 1:0.4556313 2:-0.12183997 3:0.47002438 
8 0 0 1:0.44853351 2:-0.10879393 3:0.46967722 
8 0 0 1:0.41616138 2:-0.10786679 3:0.55460173 
8 0 0 1:0.40788693 2:-0.1268296 3:0.53779103 
8 0 0 1:0.39920479 2:-0.13307879 3:0.51844682 
8 0 0 1:0.39173011 2:-0.11457085 3:0.51422084 
8 0 0 1:0.38603592 2:-0.087279893 3:0.53362317 
8 0 0 1:0.3815088 2:-0.069391022 3:0.56805714 
8 0 0 1:0.37785826 2:-0.055955023 3:0.57666707 
8 0 0 1:0.49820254 2:-0.16531182 3:0.047594864 
8 0 0 1:0.48562251 2:-0.19282502 3:0.041835176 
8 0 0 1:0.47108478 2:-0.22283231 3:0.041930312 
8 0 0 1:0.45381583 2:-0.2646962 3:0.040750187 
8 0 0 1:0.43342208 2:-0.31259281 3:0.033470444 
8 0 0 1:0.4096414 2:-0.36450718 3:0.032768583 
8 8 0 1:0.38420467 2:-0.38989084 3:0.082953399 
8 0 0 1:0.83259348 2:-0.21643412 3:0.91026045 
8 0 0 1:0.81363798 2:-0.29054742 3:0.90709471 
8 0 0 1:0.78996576 2:-0.36284465 3:0.90528736 
8 0 0 1:0.76141159 2:-0.43767463 3:0.90391611 
8 0 0 1:0.72837941 2:-0.50631291 3:0.90024563 
8 0 0 1:0.6899884 2:-0.58845235 3:0.896502 
8 0 0 1:0.64635459 2:-0.66881336 3:0.89493987 
8 0 0 1:0.59847447 2:-0.73390021 3:0.89599063 
8 0 0 1:0.54753437 2:-0.78080319 3:0.89958013 
8 0 0 1:1.4430863 2:-0.26726474 3:0.69561776 
8 0 0 1:1.4224036 2:-0.31702133 3:0.73335863 
8 0 0 1:1.3984583 2:-0.3670306 3:0.71538551 
8 0 0 1:1.3712489 2:-0.41706149 3:0.62704996 
8 0 0 1:1.0259685 2:-0.29328672 3:0.53728167 
8 0 0 1:1.0052003 2:-0.31833229 3:0.57940012 
8 0 0 1:0.98282654 2:-0.34294205 3:0.6487125 
8 0 0 1:0.95882385 2:-0.36791019 3:0.71675958 
8 0 0 1:0.8490466 2:-0.20307559 3:0.97120662 
8 0 0 1:0.83171319 2:-0.26568424 3:0.96241292 
8 0 0 1:0.810355 2:-0.32737557 3:0.95454593 
8 0 0 1:0.78545124 2:-0.38172155 3:0.95124858 
8 0 0 1:0.75712653 2:-0.43415746 3:0.94434093 
8 0 0 1:0.72572435 2:-0.4813285 3:0.92300102 
8 0 0 1:0.6918453 2:-0.51929363 3:0.91400644 
8 0 0 1:0.6563487 2:-0.5440872 3:0.91304922 
8 0 0 1:0.61890287 2:-0.57396481 3:0.87747215 
8 0 0 1:0.31283298 2:-0.13640234 3:0.98212374 
8 0 0 1:0.30840622 2:-0.13054244 3:0.95358481 
8 0 0 1:0.30403531 2:-0.13003076 3:0.84867231 
8 0 0 1:0.3004902 2:-0.11762059 3:0.75431902 
8 0 0 1:0.29838237 2:-0.095064193 3:0.80451661 
8 0 0 1:0.29829394 2:-0.062419457 3:0.90110378 
8 0 0 1:0.30042536 2:-0.025251441 3:0.93977369 
8 0 0 1:0.30428417 2:0.0057554316 3:0.90856299 
8 0 0 1:0.99638203 2:-0.28425286 3:0.63468987 
8 0 0 1:0.97290609 2:-0.35983603 3:0.72471559 
8 0 0 1:0.94380754 2:-0.44601885 3:0.81364311 
8 0 0 1:0.90940524 2:-0.52731394 3:0.88408491 
8 0 0 1:1.0707226 2:-0.30641411 3:0.19052332 
8 0 0 1:1.0485324 2:-0.34012905 3:0.18151797 
8 0 0 1:1.024744 2:-0.36462529 3:0.20230478 
8 0 0 1:0.78288494 2:-0.20910417 3:0.86892275 
8 0 0 1:0.76744345 2:-0.23668525 3:0.87079536 
8 0 0 1:1.1250967 2:-0.30633373 3:0.45127405 
8 0 0 1:1.103322 2:-0.33376087 3:0.4534407 
8 0 0 1:1.0801845 2:-0.35464789 3:0.4717106 
8 0 0 1:1.0567113 2:-0.35979393 3:0.47736613 
8 0 0 1:1.0344485 2:-0.34124222 3:0.47344561 
8 0 0 1:1.0144978 2:-0.30580054 3:0.46969067 
8 0 0 1:0.99637655 2:-0.27776068 3:0.46655311 
8 0 0 1:0.96217724 2:-0.26619612 3:0.91770488 
8 0 0 1:0.94018889 2:-0.3370346 3:0.88292181 
8 0 0 1:0.692102 2:-0.23985141 3:0.43860515 
8 0 0 1:0.67462206 2:-0.26793028 3:0.45081603 
8 0 0 1:0.65546447 2:-0.29364489 3:0.46257772 
8 0 0 1:0.63427415 2:-0.32480245 3:0.45135639 
8 0 0 1:0.61125152 2:-0.35288785 3:0.40302811 
8 0 0 1:0.58664922 2:-0.37710084 3:0.30662296 
8 0 0 1:0.84026969 2:-0.21437628 3:0.96552593 
8 0 0 1:0.82531535 2:-0.22921812 3:0.96748544 
8 0 0 1:0.80922725 2:-0.24659631 3:0.95421364 
8 0 0 1:0.79107463 2:-0.27824107 3:0.91754497 
8 0 0 1:0.77036561 2:-0.31742513 3:0.84796305 
8 0 0 1:0.74727512 2:-0.35392804 3:0.75385516 
8 0 0 1:0.72145977 2:-0.39569418 3:0.66822656 
8 0 0 1:0.69307696 2:-0.435048 3:0.61850576 
8 0 0 1:0.66249852 2:-0.46870243 3:0.61182467 
8 0 0 1:0.62923709 2:-0.50982676 3:0.63395359 
8 0 0 1:0.56694707 2:-0.13354194 3:0.941794 
8 0 0 1:0.55788596 2:-0.13888748 3:0.82740233 
8 0 0 1:0.54824179 2:-0.1478246 3:0.69683559 
8 0 0 1:0.53810512 2:-0.15537353 3:0.68941871 
8 0 0 1:0.52721112 2:-0.1669819 3:0.70001455 
8 0 0 1:0.51676731 2:-0.1600813 3:0.63960827 
8 0 0 1:0.50686695 2:-0.15175139 3:0.52810521 
8 0 0 1:0.49815205 2:-0.13358083 3:0.43431699 
8 0 0 1:0.45865346 2:-0.088891334 3:0.73613777 
8 0 0 1:0.45067114 2:-0.1223519 3:0.74095316 
8 0 0 1:0.44043301 2:-0.15692875 3:0.73890591 
8 0 0 1:0.42763133 2:-0.19622251 3:0.73039377 
8 0 0 1:0.41233918 2:-0.23439605 3:0.71697599 
8 0 0 1:0.39517057 2:-0.26315816 3:0.70645531 
8 0 0 1:0.37637477 2:-0.28809953 3:0.68768703 
8 0 0 1:0.35682024 2:-0.29972931 3:0.63705661 
8 0 0 1:0.33687986 2:-0.30564357 3:0.53195996 
8 0 0 1:0.31671137 2:-0.30913994 3:0.3699366 
8 0 0 1:0.29607677 2:-0.31628442 3:0.2066853 
8 8 0 1:0.27567774 2:-0.31267365 3:0.11381433 
8 8 0 1:0.25438113 2:-0.32643163 3:0.079237561 
8 8 0 1:0.23519912 2:-0.29401933 3:0.066540681 
8 8 0 1:0.21775091 2:-0.26744389 3:0.056922247 
8 8 0 1:0.20208783 2:-0.24008165 3:0.046573183 
8 8 8 1:0.18729599 2:-0.22672734 3:0.037001915 
8 8 8 1:0.17335299 2:-0.2137166 3:0.022511326 
8 8 8 1:0.16049766 2:-0.19704473 3:0.0097847592 
8 8 8 1:0.14905145 2:-0.17544596 3:0.0059993907 
8 8 8 1:0.13892675 2:-0.15519013 3:0.002048251 
8 8 8 1:0.1301157 2:-0.13505459 3:0.0067948718 
8 8 8 1:0.1225904 2:-0.11534681 3:0.023973314 
8 8 8 1:0.11644068 2:-0.094262112 3:0.045886453 
8 8 8 1:0.11162785 2:-0.073770436 3:0.064345388 
8 8 8 1:0.10822635 2:-0.052137786 3:0.091117423 
8 8 8 1:0.10597761 2:-0.034468283 3:0.14457878 
8 8 8 1:0.10480471 2:-0.017978178 3:0.22826633 
8 0 8 1:0.10472255 2:-0.001259293 3:0.28491452 
8 0 2.684857844591837 1:0.10576814 2:0.016026685 3:0.29451701 
8 0 8 1:0.10792948 2:0.033128663 3:0.27708447 
8 0 8 1:0.11121091 2:0.050297343 3:0.25518583 
8 0 8 1:0.11560005 2:0.067276239 3:0.21840718 
8 0 8 1:0.12110138 2:0.084323673 3:0.20493071 
0 0 8 1:0.12749027 2:0.097927989 3:0.19370154 
0 0 8 1:0.13499694 2:0.11506123 3:0.20483794 
8 0 0 1:0.42170151 2:-0.071522222 3:0.6122286 
8 0 0 1:0.41681017 2:-0.074973811 3:0.6117554 
8 0 0 1:0.41195962 2:-0.074348624 3:0.63505801 
8 0 0 1:0.40756376 2:-0.067379124 3:0.67400845 
8 0 0 1:0.40335544 2:-0.06450462 3:0.71871769 
8 0 0 1:0.39933687 2:-0.061596083 3:0.76281119 
8 0 0 1:0.3954592 2:-0.059436389 3:0.78908993 
8 0 0 1:0.3917477 2:-0.05688945 3:0.79346528 
8 0 0 1:0.38823175 2:-0.053891981 3:0.7932685 
8 0 0 1:0.38490739 2:-0.050955286 3:0.81057839 
8 0 0 1:0.38177689 2:-0.047984004 3:0.8594871 
8 0 0 1:0.37879379 2:-0.04572454 3:0.9053209 
8 0 0 1:0.37596584 2:-0.043346418 3:0.91730603 
8 0 0 1:0.37333381 2:-0.040343361 3:0.89735523 
8 0 0 1:0.37089335 2:-0.037407042 3:0.84580801 
8 0 0 1:0.36864643 2:-0.034440567 3:0.7755872 
8 0 0 1:0.36656522 2:-0.031900414 3:0.69886522 
8 0 0 1:0.30870866 2:-0.046094907 3:0.00013848779 
8 0 0 1:0.3054012 2:-0.050696253 3:7.1448537e-005 
8 0 0 1:0.30201182 2:-0.051951979 3:5.8755969e-005 
8 0 0 1:0.29871945 2:-0.050465062 3:9.3831139e-005 
8 0 0 1:0.29568269 2:-0.046546984 3:0.00024852461 
8 0 0 1:0.29314919 2:-0.038833219 3:0.00070684389 
8 0 0 1:0.29097408 2:-0.033339836 3:0.0019557237 
0.2659744234072485 0 0 1:0.27888959 2:-0.02529524 3:0.0086573819 
8 0 0 1:0.27716678 2:-0.026406915 3:0.0033804857 
8 0 0 1:0.27530991 2:-0.028461872 3:0.0031832058 
8 0 0 1:0.27344518 2:-0.028582383 3:0.0022710476 
8 0 0 1:0.27168956 2:-0.026909834 3:0.0009193196 
8 0 0 1:0.27006234 2:-0.024941783 3:0.00040046479 
8 0 0 1:0.2686327 2:-0.021913393 3:0.00024920593 
8 0 0 1:0.26729143 2:-0.020558852 3:0.00021523492 
8 0 0 1:0.77897325 2:-0.24664236 3:0.11003836 
8 0 0 1:0.76227548 2:-0.2559412 3:0.12905093 
8 0 0 1:0.7453055 2:-0.2601137 3:0.16219876 
8 0 0 1:0.72805261 2:-0.26444995 3:0.19927778 
8 0 0 1:0.71048347 2:-0.26929754 3:0.2327954 
8 0 0 1:0.69261677 2:-0.2738585 3:0.25975308 
8 0 0 1:0.67441686 2:-0.27896574 3:0.27247748 
8 0 0 1:0.65612316 2:-0.28040348 3:0.27265052 
8 0 0 1:0.63762058 2:-0.28360507 3:0.26692636 
8 0 0 1:0.618596 2:-0.29160634 3:0.25602982 
8 0 0 1:0.59894587 2:-0.30119461 3:0.23621627 
8 0 0 1:0.57903916 2:-0.30512744 3:0.21230987 
8 0 0 1:0.5588992 2:-0.30870259 3:0.18739772 
8 0 0 1:0.53910187 2:-0.30345095 3:0.15009594 
8 0 0 1:0.52049067 2:-0.28527002 3:0.10910558 
8 0 0 1:0.50333516 2:-0.26295732 3:0.077804449 
8 0 0 1:0.48727755 2:-0.246129 3:0.059493584 
8 0 0 1:0.47152464 2:-0.24145849 3:0.046926414 
8 0 0 1:0.45594859 2:-0.23874772 3:0.03404938 
8 0 0 1:0.44110351 2:-0.22754347 3:0.025410002 
8 0 0 1:0.42753785 2:-0.20793264 3:0.023085878 
8 0 0 1:0.41536387 2:-0.1866011 3:0.024429817 
8 0 0 1:0.40454934 2:-0.16576382 3:0.026286393 
8 0 0 1:0.39509162 2:-0.1449667 3:0.026148962 
8 0 0 1:0.38698852 2:-0.12420324 3:0.027756239 
8 0 0 1:0.38021717 2:-0.10379025 3:0.034954239 
8 0 0 1:0.3747948 2:-0.083113428 3:0.044664188 
8 0 0 1:0.93648897 2:-0.28627597 3:0.4719452 
8 0 0 1:0.91406896 2:-0.3436509 3:0.47771261 
8 0 0 1:0.88790156 2:-0.40109047 3:0.49393861 
8 0 0 1:0.85821385 2:-0.45504932 3:0.52100567 
8 0 0 1:0.82497831 2:-0.50943008 3:0.54791711 
8 0 0 1:0.78846092 2:-0.55973368 3:0.54906872 
8 0 0 1:0.74956823 2:-0.59614217 3:0.51069706 
8 0 0 1:0.70909275 2:-0.62040282 3:0.46150863 
8 0 0 1:1.0261911 2:-0.23822711 3:0.96983465 
8 0 0 1:1.0083277 2:-0.27380744 3:0.9850699 
8 0 0 1:0.98888228 2:-0.29805735 3:0.99144342 
8 0 0 1:0.96849451 2:-0.312501 3:0.99320194 
8 0 0 1:0.91885234 2:-0.22267653 3:0.99871974 
8 0 0 1:0.90244551 2:-0.25148167 3:0.99837854 
8 0 0 1:0.88412158 2:-0.28086681 3:0.9982045 
8 0 0 1:0.86399655 2:-0.30847391 3:0.99830671 
8 0 0 1:0.84186559 2:-0.33922031 3:0.99857404 
8 0 0 1:0.71358064 2:-0.15766968 3:0.99277596 
8 0 0 1:0.70077288 2:-0.19631568 3:0.99470261 
8 0 0 1:0.68613384 2:-0.22438538 3:0.99508206 
8 0 0 1:0.67068493 2:-0.23679887 3:0.99618833 
8 0 0 1:0.65412674 2:-0.25380164 3:0.83794094 
8 0 0 1:0.63597663 2:-0.2782026 3:0.711024 
8 0 0 1:0.61664057 2:-0.29638056 3:0.44587621 
8 0 0 1:0.59692472 2:-0.30220197 3:0.2978566 
8 0 0 1:0.91258693 2:-0.21371568 3:0.91626943 
8 0 0 1:0.89807176 2:-0.22248665 3:0.88919435 
8 0 0 1:0.76909816 2:-0.28598258 3:0.19687967 
8 0 0 1:0.74683404 2:-0.34126145 3:0.21703507 
8 0 0 1:0.72175187 2:-0.38445631 3:0.19320906 
8 0 0 1:0.69443467 2:-0.41871436 3:0.16836712 
8 0 0 1:0.66593999 2:-0.43676281 3:0.1504211 
8 0 0 1:0.63539974 2:-0.46811691 3:0.12988959 
8 0 0 1:0.60411881 2:-0.47946992 3:0.10963228 
8 0 0 1:0.5736564 2:-0.46692383 3:0.10139719 
8 0 0 1:0.54439782 2:-0.44847166 3:0.10549647 
8 0 0 1:0.51629796 2:-0.43071097 3:0.12376768 
8 0 0 1:0.48895523 2:-0.41910585 3:0.16343194 
8 0 0 1:0.4622448 2:-0.40941398 3:0.22520571 
8 0 0 1:0.43666757 2:-0.39204437 3:0.2899481 
8 0 0 1:0.41250433 2:-0.37037104 3:0.35787197 
8 0 0 1:0.38916083 2:-0.35780605 3:0.43904312 
8 0 0 1:0.3673507 2:-0.33430285 3:0.49672842 
8 0 0 1:0.34676406 2:-0.31554929 3:0.52261454 
8 0 0 1:0.32836885 2:-0.28195943 3:0.50232096 
8 0 0 1:0.31234112 2:-0.24567086 3:0.43602667 
8 0 0 1:0.29886654 2:-0.20653658 3:0.43306245 
8 0 0 1:0.28785503 2:-0.16878304 3:0.52319048 
8 0 0 1:0.27955064 2:-0.12728855 3:0.66389878 
8 0 0 1:0.2738514 2:-0.087357259 3:0.77035119 
8 0 0 1:0.27021331 2:-0.05576412 3:0.80480078 
8 0 0 1:0.26852055 2:-0.025946386 3:0.81923915 
8 0 0 1:0.26918588 2:0.010198097 3:0.84753408 
8 0 0 1:0.27195815 2:0.042492909 3:0.8667852 
8 0 0 1:0.5656947 2:-0.15258623 3:0.4748979 
8 0 0 1:0.55218929 2:-0.20700918 3:0.47589389 
8 0 0 1:0.53501285 2:-0.26327816 3:0.48558019 
8 0 0 1:0.51442164 2:-0.31561928 3:0.49293301 
8 0 0 1:0.48999732 2:-0.37437291 3:0.48935154 
8 0 0 1:0.46147163 2:-0.43723797 3:0.47506846 
8 0 0 1:0.8915722 2:-0.2414384 3:0.64831321 
8 0 0 1:0.87466315 2:-0.25917969 3:0.74970374 
8 0 0 1:0.85661539 2:-0.27663379 3:0.74201891 
8 0 0 1:0.82273085 2:-0.26310474 3:0.49689964 
8 0 0 1:0.804253 2:-0.28322601 3:0.51515166 
8 0 0 1:0.78565556 2:-0.28505911 3:0.50428203 
8 0 0 1:0.76765454 2:-0.2759173 3:0.46601291 
8 0 0 1:0.74999736 2:-0.270647 3:0.41886302 
8 0 0 1:0.73206703 2:-0.27483367 3:0.3914262 
8 0 0 1:0.71395342 2:-0.2776431 3:0.38896779 
8 0 0 1:0.69670606 2:-0.26436531 3:0.4021489 
8 0 0 1:0.68066996 2:-0.24579926 3:0.41212808 
8 0 0 1:0.66590478 2:-0.22631867 3:0.40467238 
8 0 0 1:0.65225122 2:-0.20927994 3:0.38881 
8 0 0 1:0.63975027 2:-0.19161304 3:0.37598001 
8 0 0 1:0.93962635 2:-0.28522186 3:0.36428795 
8 0 0 1:0.9179171 2:-0.33275661 3:0.32704016 
8 0 0 1:0.89318541 2:-0.37908409 3:0.29566333 
8 0 0 1:1.2614576 2:-0.29988631 3:0.45698518 
8 0 0 1:1.2406236 2:-0.31934156 3:0.44349175 
8 0 0 1:1.219201 2:-0.32836187 3:0.4049447 
8 0 0 1:1.1976344 2:-0.33057065 3:0.35392451 
8 0 0 1:1.1762701 2:-0.32746834 3:0.32659635 
8 0 0 1:1.155069 2:-0.32496878 3:0.32444646 
8 0 0 1:1.1344507 2:-0.31603412 3:0.3193398 
8 0 0 1:1.1140443 2:-0.3127871 3:0.29725297 
8 0 0 1:1.0947481 2:-0.29576913 3:0.2928435 
8 0 0 1:1.0207256 2:-0.30291874 3:0.13444993 
8 0 0 1:0.9997769 2:-0.3210985 3:0.12912693 
8 0 0 1:0.97765218 2:-0.33912474 3:0.12278104 
8 0 0 1:0.95429537 2:-0.35801019 3:0.12380676 
8 0 0 1:0.92973516 2:-0.37645571 3:0.12427578 
8 0 0 1:0.9040386 2:-0.3938734 3:0.12205076 
8 0 0 1:0.87712204 2:-0.4125735 3:0.11672419 
8 0 0 1:0.84886781 2:-0.43307723 3:0.1095474 
8 0 0 1:0.81926917 2:-0.45368402 3:0.10341571 
8 0 0 1:0.78909151 2:-0.46255923 3:0.09928634 
8 0 0 1:0.75937731 2:-0.45545537 3:0.09688326 
8 0 0 1:0.73086381 2:-0.4370512 3:0.093599275 
8 0 0 1:0.70370495 2:-0.41628738 3:0.08742784 
8 0 0 1:0.67775286 2:-0.39779024 3:0.079846706 
8 0 0 1:0.65302819 2:-0.37897651 3:0.073803496 
8 0 0 1:0.6295298 2:-0.36018022 3:0.070421379 
8 0 0 1:0.60729462 2:-0.34081793 3:0.067629424 
8 0 0 1:0.58634117 2:-0.32117172 3:0.063684184 
8 0 0 1:0.56666035 2:-0.3016651 3:0.058911756 
8 0 0 1:0.54828905 2:-0.28159288 3:0.054898716 
8 0 0 1:0.53103041 2:-0.26453817 3:0.055082275 
8 0 0 1:0.51531854 2:-0.24082946 3:0.062843139 
8 0 0 1:0.50182326 2:-0.20685384 3:0.076340855 
8 0 0 1:0.49090494 2:-0.16735467 3:0.089153747 
8 0 0 1:0.9055138 2:-0.24213749 3:0.71138103 
8 0 0 1:0.89041845 2:-0.23137946 3:0.86917829 
8 0 0 1:0.87590659 2:-0.22243587 3:0.88311573 
8 0 0 1:0.86169789 2:-0.21778911 3:0.88574578 
8 0 0 1:0.84713176 2:-0.22326771 3:0.87843405 
8 0 0 1:0.83148649 2:-0.23980864 3:0.83558824 
8 0 0 1:0.81535911 2:-0.24719848 3:0.71755185 
8 0 0 1:0.79925728 2:-0.24680665 3:0.61377249 
8 0 0 1:0.78357204 2:-0.24042135 3:0.56677982 
8 0 0 1:0.7683241 2:-0.23371836 3:0.56730534 
8 0 0 1:0.75369829 2:-0.22418248 3:0.59374693 
8 0 0 1:0.73929479 2:-0.220775 3:0.60906437 
8 0 0 1:0.72566263 2:-0.20895194 3:0.60073249 
8 0 0 1:0.58138086 2:-0.14595024 3:0.614924 
8 0 0 1:0.86487112 2:-0.27236734 3:0.086869845 
8 0 0 1:0.84572581 2:-0.29345687 3:1 
8 0 0 1:0.82505259 2:-0.31687633 3:1 
8 0 0 1:1.4598272 2:-0.27438571 3:0.41465756 
8 0 0 1:1.4399822 2:-0.30418138 3:0.33335364 
8 0 0 1:1.4186503 2:-0.32697289 3:0.31475197 
8 0 0 1:1.3959489 2:-0.34796435 3:0.37932695 
8 0 0 1:1.3722889 2:-0.36265707 3:0.47320187 
8 0 0 1:1.3484959 2:-0.3646959 3:0.55652585 
8 0 0 1:1.3252049 2:-0.35700129 3:0.59901008 
8 0 0 1:1.3023769 2:-0.34990401 3:0.5944249 
8 0 0 1:1.2799505 2:-0.34374921 3:0.5726672 
8 0 0 1:1.2579468 2:-0.33727043 3:0.55573409 
8 0 0 1:1.2363659 2:-0.33078892 3:0.55638167 
8 0 0 1:1.2150944 2:-0.32604701 3:0.61616296 
8 0 0 1:1.194223 2:-0.31991395 3:0.73946262 
8 0 0 1:1.173925 2:-0.311125 3:0.81270336 
8 0 0 1:1.1543457 2:-0.30010897 3:0.77022815 
8 0 0 1:1.1354531 2:-0.28958277 3:0.67290308 
8 0 0 1:1.1172472 2:-0.27905847 3:0.59829261 
5.393354896365059 0 0 1:1.4416861 2:-0.24012899 3:1 
8 0 0 1:1.4246105 2:-0.2617329 3:1 
8 0 0 1:1.4061023 2:-0.28369054 3:1 
8 0 0 1:1.3864445 2:-0.30131266 3:1 
8 0 0 1:1.0666551 2:-0.25692911 3:1 
8 0 0 1:1.0470367 2:-0.3007083 3:1 
8 0 0 1:1.0248529 2:-0.34003127 3:1 
8 0 0 1:1.0006809 2:-0.37050501 3:1 
8 0 0 1:1.8033841 2:-0.10910175 3:5.1889416e-005 
8 0 0 1:1.795288 2:-0.12409647 3:4.2348288e-005 
8 0 0 1:1.7867654 2:-0.13063249 3:2.3684455e-005 
8 0 0 1:1.7783024 2:-0.1297206 3:0.00012083646 
8 0 0 1:1.7697792 2:-0.13064305 3:8.7536907e-005 
8 0 0 1:1.7608878 2:-0.13628579 3:7.2587928e-005 
8 0 0 1:1.7518303 2:-0.13883138 3:0.00010651352 
4.377564135075041 0 0 1:1.74307 2:-0.13427793 3:0.00020591076 
8 0 0 1:1.6208493 2:-0.22583423 3:1 
8 0 0 1:1.6042901 2:-0.25381631 3:1 
8 0 0 1:1.5857755 2:-0.28379038 3:1 
8 0 0 1:1.5655281 2:-0.31034831 3:1 
8 0 0 1:0.67872601 2:-0.21789919 3:0.21563229 
8 0 0 1:0.66390567 2:-0.22716422 3:0.15987456 
8 0 0 1:0.64986947 2:-0.21514509 3:0.15325921 
8 0 0 1:0.49530541 2:-0.12570571 3:0.47702757 
8 0 0 1:0.48644285 2:-0.13584417 3:0.45070672 
8 0 0 1:0.47716063 2:-0.14227664 3:0.35399329 
8 0 0 1:0.46803948 2:-0.13980779 3:0.26526733 
8 0 0 1:0.45970149 2:-0.12780356 3:0.18582189 
8 0 0 1:0.63319411 2:-0.19730344 3:0.03193369 
8 0 0 1:0.62009506 2:-0.20078058 3:0.013008259 
8 0 0 1:0.60724686 2:-0.19693541 3:0.0041816768 
8 0 0 1:0.59465547 2:-0.1929993 3:0.0038779616 
8 0 0 1:0.58215343 2:-0.19162959 3:0.0086267993 
8 0 0 1:0.56972418 2:-0.19051393 3:0.015742068 
8 0 0 1:0.55763247 2:-0.18534008 3:0.020228988 
8 0 0 1:0.54610287 2:-0.17672418 3:0.020226396 
8 0 0 1:0.5352849 2:-0.16581648 3:0.014096329 
3.972055710719123 0 0 1:0.52516693 2:-0.15508697 3:0.0063001139 
8 0 0 1:0.69004268 2:-0.21119198 3:0.31190325 
8 0 0 1:0.67515438 2:-0.22820593 3:0.27651171 
8 0 0 1:0.65946564 2:-0.24047493 3:0.24532067 
8 0 0 1:0.64275063 2:-0.25620542 3:0.27978367 
8 0 0 1:0.62526464 2:-0.26802294 3:0.39026404 
8 0 0 1:0.60727533 2:-0.27573783 3:0.52143499 
8 0 0 1:0.58894218 2:-0.28100817 3:0.54504497 
8 0 0 1:0.5711105 2:-0.2733217 3:0.44413503 
8 0 0 1:0.5542411 2:-0.25857193 3:0.3290932 
8 0 0 1:0.53813151 2:-0.2469256 3:0.25877838 
8 0 0 1:0.52279607 2:-0.23505965 3:0.21762507 
8 0 0 1:0.50824032 2:-0.22310864 3:0.17675539 
8 0 0 1:0.49458348 2:-0.20933022 3:0.12550411 
8 0 0 1:0.481567 2:-0.19951485 3:0.079158049 
8 0 0 1:0.46933207 2:-0.18753544 3:0.049597289 
8 0 0 1:0.45785055 2:-0.17598718 3:0.03335017 
8 0 0 1:0.4472981 2:-0.16174671 3:0.023154149 
8 0 0 1:0.4375938 2:-0.1487461 3:0.016349802 
8 0 0 1:0.42875441 2:-0.13548902 3:0.014108355 
8 0 0 1:0.42078168 2:-0.12220504 3:0.018668269 
8 0 0 1:0.41365107 2:-0.10929702 3:0.033476881 
8 0 0 1:0.36912921 2:-0.080091131 3:0.033807061 
8 0 0 1:0.36385653 2:-0.080818986 3:0.014999155 
8 0 0 1:0.35856302 2:-0.081138182 3:0.003840927 
8 0 0 1:0.35324149 2:-0.081567813 3:0.00081870788 
8 0 0 1:0.34787675 2:-0.082229947 3:0.0003021446 
8 0 0 1:0.34250418 2:-0.082350033 3:0.00025348431 
8 0 0 1:0.33712718 2:-0.082418054 3:0.00038647537 
8 0 0 1:0.33161574 2:-0.084478529 3:0.00071173827 
8 0 0 1:0.32600387 2:-0.086018079 3:0.0019013761 
8 0 0 1:0.31996932 2:-0.092496802 3:0.0086806158 
8 0 0 1:0.31378988 2:-0.09471762 3:0.0372472 
8 0 0 1:0.30775248 2:-0.092540417 3:0.088001288 
8 0 0 1:0.30148898 2:-0.096006118 3:0.11931252 
8 0 0 1:0.2951177 2:-0.097658163 3:0.11295648 
8 0 0 1:0.28845551 2:-0.10211721 3:0.095939473 
8 0 0 1:0.28148716 2:-0.10680995 3:0.095259219 
8 0 0 1:0.27445595 2:-0.10777343 3:0.12008982 
8 0 0 1:0.2676061 2:-0.10499357 3:0.16824388 
8 0 0 1:0.2611612 2:-0.098786602 3:0.2158812 
8 0 0 1:0.255531 2:-0.086299039 3:0.24383412 
8 0 0 1:0.25105187 2:-0.068655527 3:0.24773962 
8 0 0 1:0.2482554 2:-0.042863952 3:0.22337922 
8 0 0 1:0.24673191 2:-0.0233518 3:0.17692037 
8 0 0 1:0.24592568 2:-0.012357823 3:0.13266351 
8 0 0 1:0.24493746 2:-0.015147342 3:0.10776308 
8 0 0 1:0.24369451 2:-0.019051656 3:0.10371709 
8 0 0 1:0.24238761 2:-0.02003203 3:0.11230119 
8 0 0 1:0.2410036 2:-0.021213865 3:0.12122234 
8 0 0 1:0.23946321 2:-0.023610989 3:0.12344847 
8 0 0 1:0.23784008 2:-0.024879083 3:0.12001604 
8 0 0 1:0.23615684 2:-0.025800563 3:0.11538759 
8 0 0 1:0.23433269 2:-0.027960191 3:0.11358302 
8 0 0 1:0.2324996 2:-0.02809743 3:0.11719298 
8 0 0 1:0.23071257 2:-0.027391292 3:0.11919946 
8 0 0 1:0.22912934 2:-0.024267654 3:0.11452944 
8 0 0 1:0.22769538 2:-0.021979552 3:0.10430922 
8 0 0 1:0.2264299 2:-0.019397134 3:0.090517853 
8 0 0 1:0.22542581 2:-0.015390491 3:0.076830656 
8 0 0 1:0.22453068 2:-0.013720516 3:0.066937722 
8 0 0 1:0.22371314 2:-0.012531083 3:0.061404759 
8 0 0 1:0.22307621 2:-0.0097627378 3:0.060679279 
8 0 0 1:0.22252204 2:-0.0084943295 3:0.06246264 
8 5.823585218506707 0 1:0.22210568 2:-0.0063818044 3:0.058651943 
8 8 0 1:0.22191574 2:-0.0029113679 3:0.045476474 
8 8 0 1:0.22200854 2:0.0014223144 3:0.032819285 
8 8 0 1:0.22235668 2:0.0053362312 3:0.027115436 
8 8 0 1:0.22259461 2:0.0036470398 3:0.028195274 
8 8 0 1:0.22275646 2:0.0024807933 3:0.033040281 
8 8 0 1:0.22295298 2:0.0030123047 3:0.036027619 
8 8 0 1:0.22368033 2:0.011148625 3:0.036844172 
8 0 0 1:0.81001734 2:-0.23128716 3:0.52053129 
8 0 0 1:0.79355114 2:-0.25239186 3:0.48302553 
8 0 0 1:0.77586422 2:-0.27110268 3:0.42446021 
8 0 0 1:0.75713942 2:-0.28701128 3:0.36110436 
8 0 0 1:0.949298 2:-0.28262598 3:0.559819 
8 0 0 1:0.93045615 2:-0.28880542 3:0.69061267 
8 0 0 1:0.9115524 2:-0.28975411 3:0.83682685 
8 0 0 1:0.89280116 2:-0.28741656 3:0.93894817 
8 0 0 1:0.87396759 2:-0.28867852 3:0.97869655 
8 0 0 1:0.85426835 2:-0.30194742 3:0.9884611 
8 0 0 1:0.83294439 2:-0.32685075 3:0.97960383 
8 0 0 1:0.80924379 2:-0.36327981 3:0.92847595 
8 0 0 1:0.70157283 2:-0.21855287 3:0.31052377 
8 0 0 1:0.68671057 2:-0.22780675 3:0.38399017 
8 0 0 1:0.67165607 2:-0.23075342 3:0.45254031 
8 0 0 1:0.65661639 2:-0.23052625 3:0.50694894 
8 0 0 1:0.64153402 2:-0.23118046 3:0.53633631 
8 0 0 1:0.62640168 2:-0.23194653 3:0.54872811 
8 0 0 1:0.61304877 2:-0.20467175 3:0.53697661 
8 0 0 1:0.60150451 2:-0.17694881 3:0.49252993 
8 0 0 1:0.66518058 2:-0.19891449 3:0.3452667 
8 0 0 1:0.65190832 2:-0.20343551 3:0.34316841 
8 0 0 1:0.63835682 2:-0.20771564 3:0.34118549 
8 0 0 1:0.62453584 2:-0.21184612 3:0.33943689 
8 0 0 1:0.61043948 2:-0.21606717 3:0.33311446 
8 0 0 1:0.59603376 2:-0.22080903 3:0.30912475 
8 0 0 1:0.58131259 2:-0.22564416 3:0.25316342 
8 0 0 1:0.56628405 2:-0.23035537 3:0.17695326 
8 0 0 1:0.55098553 2:-0.23449373 3:0.11737642 
8 0 0 1:0.53562545 2:-0.23543728 3:0.085518733 
8 0 0 1:0.52033204 2:-0.23441539 3:0.07202741 
8 0 0 1:0.50460834 2:-0.24101087 3:0.071506309 
8 0 0 1:0.48832693 2:-0.24955924 3:0.084255907 
8 0 0 1:0.47186446 2:-0.25233466 3:0.1067449 
8 0 0 1:0.45652136 2:-0.23517708 3:0.12746231 
8 0 0 1:0.44263944 2:-0.21278019 3:0.13570486 
8 0 0 1:0.42977705 2:-0.19715308 3:0.13315327 
8 0 0 1:0.41712148 2:-0.19398291 3:0.13111981 
8 0 0 1:0.40457907 2:-0.19224836 3:0.13018619 
8 0 0 1:0.39287604 2:-0.17938246 3:0.12668573 
8 0 0 1:0.38206629 2:-0.16569054 3:0.11920014 
8 0 0 1:0.37239825 2:-0.14819045 3:0.1003875 
8 0 0 1:0.36364376 2:-0.13418764 3:0.083741593 
8 0 0 1:0.35589603 2:-0.11875612 3:0.08840847 
8 0 0 1:0.34894147 2:-0.10659869 3:0.099244404 
8 0 0 1:0.34314184 2:-0.088895859 3:0.10289104 
8 0 0 1:0.33836627 2:-0.073199281 3:0.10242096 
8 0 0 1:0.50548271 2:-0.086353912 3:0.97020055 
8 0 0 1:0.49755958 2:-0.12144473 3:0.96428131 
8 0 0 1:0.488327 2:-0.14151571 3:0.95426763 
8 0 0 1:0.47798606 2:-0.15850451 3:0.93667289 
8 0 0 1:0.46747638 2:-0.16109113 3:0.91812132 
8 0 0 1:0.45736851 2:-0.15493204 3:0.90919727 
8 0 0 1:0.44743527 2:-0.15225546 3:0.90978268 
8 0 0 1:0.43766341 2:-0.14978179 3:0.92051913 
8 0 0 1:0.42806772 2:-0.14708141 3:0.94115411 
8 0 0 1:0.98600199 2:-0.28514525 3:0.069970389 
8 0 0 1:0.96684115 2:-0.29369488 3:0.1565716 
8 0 0 1:0.94705901 2:-0.30321798 3:0.13216283 
8 0 0 1:0.92674538 2:-0.31136465 3:0.11989585 
8 0 0 1:0.90614381 2:-0.31577826 3:0.13065501 
8 0 0 1:0.88564138 2:-0.31425855 3:0.15529503 
8 0 0 1:0.86554205 2:-0.3080798 3:0.17767903 
8 0 0 1:0.84586253 2:-0.30164514 3:0.19411402 
8 0 0 1:0.82636757 2:-0.29881615 3:0.20190894 
8 0 0 1:0.80753682 2:-0.2886353 3:0.19949716 
8 0 0 1:0.78999187 2:-0.26892668 3:0.17954616 
8 0 0 1:0.77391765 2:-0.2463835 3:0.14183518 
8 0 0 1:1.1037963 2:-0.28992969 3:0.48033674 
8 0 0 1:1.0846626 2:-0.29327932 3:0.45023534 
8 0 0 1:0.86397184 2:-0.2832413 3:0.077654855 
8 0 0 1:0.84392708 2:-0.30724345 3:0.15572837 
8 0 0 1:0.82282199 2:-0.323496 3:0.34778356 
8 0 0 1:0.80123219 2:-0.33092557 3:0.4988193 
8 0 0 1:0.77908979 2:-0.33939578 3:0.501019 
8 0 0 1:0.75712009 2:-0.3367487 3:0.53227284 
8 0 0 1:0.7353477 2:-0.33372442 3:0.63419701 
8 0 0 1:0.71365164 2:-0.33255436 3:0.82038979 
8 0 0 1:0.69187702 2:-0.33375852 3:0.9457907 
8 0 0 1:0.67107633 2:-0.31883024 3:0.96702395 
8 0 0 1:0.65183913 2:-0.29486517 3:0.94508069 
8 0 0 1:0.63440276 2:-0.2672624 3:0.88186397 
8 0 0 1:0.61854441 2:-0.24307477 3:0.78454119 
8 0 0 1:0.60368109 2:-0.22782304 3:0.67231565 
8 0 0 1:0.58951758 2:-0.21709647 3:0.59345628 
8 0 0 1:0.57620101 2:-0.20411453 3:0.55415057 
8 0 0 1:0.56349986 2:-0.1946816 3:0.51454309 
8 0 0 1:0.55141768 2:-0.18519409 3:0.40241649 
8 0 0 1:0.53989891 2:-0.17655816 3:0.21385026 
8 0 0 1:0.5290512 2:-0.16627224 3:0.093186645 
8 0 0 1:0.59248471 2:-0.18540527 3:0.42651424 
8 0 0 1:0.58009407 2:-0.18992205 3:0.43427492 
8 0 0 1:0.56773388 2:-0.18945542 3:0.4014619 
8 0 0 1:0.55516932 2:-0.19258793 3:0.34610092 
8 0 0 1:0.54235574 2:-0.19640492 3:0.34305357 
8 0 0 1:0.52918496 2:-0.20187987 3:0.42924217 
8 0 0 1:0.51617137 2:-0.19947072 3:0.52445813 
8 0 0 1:0.5033736 2:-0.19616243 3:0.58029824 
8 0 0 1:0.49075777 2:-0.19337389 3:0.60245656 
8 0 0 1:0.47833714 2:-0.19038167 3:0.60253536 
8 0 0 1:0.46614498 2:-0.18687984 3:0.59837933 
8 0 0 1:0.45407411 2:-0.18502084 3:0.59296589 
8 0 0 1:0.44201999 2:-0.18476393 3:0.55771714 
8 0 0 1:0.43036834 2:-0.17859491 3:0.44246067 
8 0 0 1:0.41929576 2:-0.16971905 3:0.19364016 
8 0 0 1:0.40901649 2:-0.15755938 3:0.017233511 
8 0 0 1:0.39941994 2:-0.14709454 3:0.00026237508 
8 0 0 1:0.39055895 2:-0.13582021 3:2.8269859e-006 
8 0 0 1:0.38231044 2:-0.12643204 3:7.737685e-008 
8 0 0 1:0.37425718 2:-0.12343924 3:1.7453975e-008 
8 0 0 1:0.36655701 2:-0.11802722 3:1.8646257e-008 
8 0 0 1:0.35969321 2:-0.1052074 3:9.3950179e-008 
8 0 0 1:0.35382791 2:-0.089902682 3:4.306927e-006 
8 0 0 1:0.34902206 2:-0.073663323 3:0.00035297495 
8 0 0 1:0.66900103 2:-0.21614514 3:0.3454791 
8 0 0 1:0.6546418 2:-0.22009641 3:0.34953387 
8 0 0 1:0.63944643 2:-0.23291266 3:0.33091157 
8 0 0 1:0.43816835 2:-0.14110466 3:0.99235523 
8 0 0 1:0.42948553 2:-0.17270519 3:0.99177623 
8 0 0 1:0.41855051 2:-0.2134581 3:0.99155773 
8 0 0 1:0.40553396 2:-0.25297374 3:0.99177428 
8 0 0 1:0.39002842 2:-0.29971639 3:0.99247271 
8 0 0 1:0.3724154 2:-0.34177589 3:0.99329778 
8 0 0 1:0.35421097 2:-0.36127076 3:0.99261277 
8 0 0 1:0.33291148 2:-0.41855149 3:0.99070756 
8 0 0 1:0.31027884 2:-0.45014766 3:0.99069841 
8 0 0 1:0.28641012 2:-0.48017013 3:0.99019559 
8 0 0 1:0.26198424 2:-0.499647 3:0.98933114 
8 0 0 1:0.7053921 2:-0.24872846 3:0.33600987 
8 0 0 1:0.68579329 2:-0.30040801 3:0.57468428 
8 0 0 1:0.66294364 2:-0.3502365 3:0.78753903 
8 0 0 1:0.63710147 2:-0.39610539 3:0.88578722 
8 0 0 1:0.6082884 2:-0.44164291 3:0.91377505 
8 0 0 1:0.57584726 2:-0.49725362 3:0.91929097 
8 0 0 1:0.54180464 2:-0.52180067 3:0.92176678 
8 0 0 1:0.5066168 2:-0.53935473 3:0.92156669 
8 0 0 1:0.50501438 2:-0.11352204 3:0.59108551 
8 0 0 1:0.49772037 2:-0.11180171 3:0.60784367 
8 0 0 1:0.49053381 2:-0.11015462 3:0.60468727 
8 0 0 1:0.48363085 2:-0.10580761 3:0.58059628 
8 0 0 1:0.47682225 2:-0.10436144 3:0.54884699 
5.141710096832873 0 0 1:0.46364697 2:-0.099971802 3:0.51161137 
8 0 0 1:0.43316746 2:-0.096747646 3:0.37389361 
8 0 0 1:0.58091423 2:-0.1855733 3:0.0013294054 
8 0 0 1:0.56854077 2:-0.18965883 3:0.00022514346 
8 0 0 1:0.55586643 2:-0.19427069 3:3.9307454e-005 
8 0 0 1:0.54324508 2:-0.19345829 3:1.490058e-005 
8 0 0 1:0.53044809 2:-0.19615061 3:2.7185386e-005 
8 0 0 1:0.51691299 2:-0.20746428 3:8.8551737e-005 
8 0 0 1:0.50318756 2:-0.21038149 3:0.00016962991 
8 0 0 1:0.49033657 2:-0.19697828 3:0.00020649754 
8 0 0 1:0.47869581 2:-0.17842819 3:0.00023749862 
8 0 0 1:0.46778495 2:-0.16724023 3:0.00034714993 
8 0 0 1:0.45723455 2:-0.16171512 3:0.00058303163 
8 0 0 1:0.44698682 2:-0.15707576 3:0.0007816279 
8 0 0 1:0.43725402 2:-0.14918316 3:0.001029984 
8 0 0 1:0.42817739 2:-0.13912545 3:0.001666805 
8 0 0 1:0.41996004 2:-0.12595441 3:0.0039813577 
8 0 0 1:0.41234464 2:-0.11672786 3:0.012059671 
8 0 0 1:0.40545595 2:-0.10558886 3:0.028957133 
8 0 0 1:0.74071791 2:-0.23310227 3:0.075587461 
8 0 0 1:0.72471531 2:-0.24528568 3:0.081494001 
8 0 0 1:0.70813414 2:-0.25415403 3:0.081734775 
8 0 0 1:0.69144331 2:-0.25583493 3:0.082597087 
8 0 0 1:0.90537605 2:-0.24556129 3:0.99987647 
8 0 0 1:0.88633983 2:-0.29178465 3:0.99993615 
8 0 0 1:0.86420729 2:-0.33924476 3:0.99998002 
8 0 0 1:0.83907026 2:-0.38529702 3:0.99999492 
8 0 0 1:0.97840108 2:-0.2420903 3:0.93572053 
8 0 0 1:0.95939197 2:-0.29136914 3:0.95793752 
8 0 0 1:0.93735203 2:-0.33782533 3:0.98906986 
8 0 0 1:0.91318685 2:-0.37040061 3:0.99748519 
8 0 0 1:0.88754145 2:-0.39308934 3:0.99762648 
8 0 0 1:0.86151114 2:-0.3989892 3:0.99543889 
8 0 0 1:0.74466161 2:-0.19468697 3:0.90245644 
8 0 0 1:0.72958612 2:-0.23107511 3:0.88287763 
8 0 0 1:0.71215148 2:-0.26723593 3:0.83504936 
8 0 0 1:0.69229646 2:-0.30433509 3:0.77178955 
8 0 0 1:0.67009817 2:-0.34025244 3:0.69410148 
8 0 0 1:0.64584207 2:-0.37179428 3:0.61551717 
-0 8 0 1:0.34424148 2:-0.63057043 3:0.0012355066 
-0 8 0 1:0.30348066 2:-0.62477653 3:0.00091342669 
-0 8 0 1:0.26404333 2:-0.60449016 3:0.00094570748 
-0 8 0 1:0.22683221 2:-0.57036725 3:0.0010308072 
-0 8 0 1:0.19095058 2:-0.54998892 3:0.0011901988 
-0 8 0 1:0.15528532 2:-0.54667246 3:0.0014449802 
-0 8 0 1:0.11933167 2:-0.55109286 3:0.0017221552 
-8 0 0 1:0.92449239 2:-0.57616621 3:0.40510774 
-8 0 0 1:0.88503103 2:-0.60485857 3:0.40589252 
-8 0 0 1:0.85863194 2:-0.18326551 3:0.3501335 
-8 0 0 1:0.84626221 2:-0.18960157 3:0.3066201 
-8 0 0 1:0.83348097 2:-0.19590923 3:0.29522267 
-8 0 0 1:0.82055024 2:-0.19820056 3:0.3012972 
-8 0 0 1:0.80744579 2:-0.20086323 3:0.3203777 
-8 0 0 1:0.79425121 2:-0.20224475 3:0.34902512 
-8 0 0 1:0.7808532 2:-0.20536308 3:0.38489016 
-8 0 0 1:0.76712721 2:-0.21039007 3:0.4276366 
-8 0 0 1:0.75324259 2:-0.21282164 3:0.47725652 
-8 0 0 1:0.73905122 2:-0.21752342 3:0.53225933 
-8 0 0 1:0.72435244 2:-0.22530103 3:0.57493172 
-8 0 0 1:0.70926118 2:-0.23131688 3:0.59866367 
-8 0 0 1:0.69342604 2:-0.24271898 3:0.61148218 
-8 0 0 1:0.67677603 2:-0.2552092 3:0.61531345 
-8 0 0 1:0.65958149 2:-0.26355562 3:0.615617 
-8 0 0 1:0.64183292 2:-0.27204774 3:0.61557449 
-8 0 0 1:0.62347442 2:-0.28139665 3:0.61666135 
-8 0 0 1:0.60443507 2:-0.29183265 3:0.62063628 
-8 0 0 1:0.58464244 2:-0.30337884 3:0.6210051 
-8 0 0 1:0.56418568 2:-0.31355853 3:0.60606063 
-8 0 0 1:0.54346425 2:-0.3176154 3:0.57034812 
-8 0 0 1:0.52294101 2:-0.31457745 3:0.51629707 
-8 0 0 1:0.50280845 2:-0.3085893 3:0.4668795 
-8 0 0 1:0.48321445 2:-0.30033434 3:0.44998668 
-8 0 0 1:0.46389335 2:-0.29615119 3:0.46282371 
-8 0 0 1:0.44450216 2:-0.29722568 3:0.48017782 
-8 0 0 1:0.4249093 2:-0.30031677 3:0.48872896 
-8 0 0 1:0.40497018 2:-0.30562416 3:0.48703039 
-8 0 0 1:0.38429778 2:-0.31686396 3:0.48182548 
-8 0 0 1:0.36293668 2:-0.32742013 3:0.47384347 
-8 0 0 1:0.34083854 2:-0.33871726 3:0.46658308 
-8 0 0 1:0.31778614 2:-0.3533443 3:0.47269914 
-8 0 0 1:0.29396202 2:-0.36517296 3:0.50110634 
-8 0 0 1:0.97991169 2:-0.42550222 3:0.015040431 
-8 0 0 1:0.95191815 2:-0.4290813 3:0.0050876907 
-8 0 0 1:0.92402717 2:-0.42750935 3:0.0017939603 
-8 0 0 1:0.89606838 2:-0.4285486 3:0.00099108524 
-8 0 0 1:0.86802474 2:-0.42984924 3:0.00098185409 
-8 0 0 1:0.83919916 2:-0.44183471 3:0.0013124507 
-8 0 0 1:0.80926696 2:-0.45879694 3:0.0014605165 
-8 0 0 1:0.77792699 2:-0.48037493 3:0.0013956395 
-8 0 0 1:0.74471736 2:-0.50903285 3:0.0015283754 
-8 0 0 1:0.70877816 2:-0.55087129 3:0.0018931838 
-8 0 0 1:0.66995294 2:-0.5951079 3:0.0022805727 
-0 8 0 1:0.34105197 2:-0.58039242 3:0.0014145091 
-0 8 0 1:0.30525805 2:-0.54864456 3:0.029579602 
-8 8 0 1:0.13854254 2:-0.35513225 3:0.040773938 
-8 8 8 1:0.11599248 2:-0.34564432 3:0.0037202159 
-0 8 8 1:0.093605699 2:-0.34314167 3:0.00055025781 
-8 0 0 1:0.55885698 2:-0.42893363 3:0.24269136 
-8 0 0 1:0.52969011 2:-0.44706592 3:0.26518395 
-8 0 0 1:0.50010242 2:-0.45351633 3:0.34803614 
-8 0 0 1:0.46916655 2:-0.47418096 3:0.4324425 
-8 0 0 1:0.93697034 2:-0.25696708 3:0.75018737 
-8 0 0 1:0.91756063 2:-0.29750941 3:0.74691236 
-8 0 0 1:0.89504931 2:-0.34505063 3:0.75392335 
-8 0 0 1:0.8698596 2:-0.38610458 3:0.77156339 
-8 0 0 1:0.84251664 2:-0.41910932 3:0.79315678 
-8 0 0 1:0.81271325 2:-0.45682233 3:0.79626537 
-8 0 0 1:0.77945887 2:-0.50971885 3:0.76577715 
-8 0 0 1:0.92129588 2:-0.53244727 3:0.43879453 
-8 0 0 1:0.88410023 2:-0.57013 3:0.44262118 
-8 0 0 1:0.89471329 2:-0.22396942 3:0.26578647 
-8 0 0 1:0.87902148 2:-0.24052199 3:0.31901356 
-8 0 0 1:0.86194632 2:-0.26172591 3:0.33665715 
-8 0 0 1:0.84308185 2:-0.28915211 3:0.32141928 
-8 0 0 1:0.82213798 2:-0.3210249 3:0.26093807 
-8 0 0 1:0.79909854 2:-0.35314549 3:0.16272534 
-8 0 0 1:0.774152 2:-0.38237733 3:0.078624694 
-8 0 0 1:0.74757203 2:-0.40741426 3:0.033867837 
-8 0 0 1:0.71930409 2:-0.43328719 3:0.017480085 
-8 0 0 1:0.68931594 2:-0.45965452 3:0.011176854 
-8 0 0 1:0.65769932 2:-0.48461537 3:0.0065884939 
-8 0 0 1:0.62487234 2:-0.50316761 3:0.0055146502 
-8 0 0 1:0.59157941 2:-0.51030968 3:0.0063927665 
-8 0 0 1:0.55827674 2:-0.510459 3:0.0059397751 
-8 0 0 1:0.52545412 2:-0.50310075 3:0.0051736866 
-8 0 0 1:0.49274075 2:-0.50142626 3:0.0093645891 
-8 0 0 1:0.45994318 2:-0.50271682 3:0.034234497 
-8 0 0 1:0.42786573 2:-0.49167906 3:0.091873625 
-2.407843850394618 0 0 1:0.39596028 2:-0.48904243 3:0.14516371 
-0 8 0 1:0.26909341 2:-0.48736825 3:0.039723164 
-0 8 0 1:0.23749458 2:-0.48434273 3:0.010319805 
-0 8 0 1:0.20614154 2:-0.48057518 3:0.0067439951 
-0 8 0 1:0.17463605 2:-0.48291207 3:0.016605182 
-0 8 0 1:0.14302185 2:-0.48457839 3:0.056036646 
-0 8 0 1:0.11160983 2:-0.48147933 3:0.093539637 
-0 8 0 1:0.080800898 2:-0.47223519 3:0.10526068 
-0 8 0 1:0.050889563 2:-0.45847703 3:0.11488823 
-0 8 0 1:0.035154612 2:-0.4440354 3:0.12180922 
-0 8 8 1:0.020121425 2:-0.43161226 3:0.12618 
-0 8 8 1:0.0055881736 2:-0.42262018 3:0.14885929 
-0 8 0 1:-0.008334496 2:-0.41217044 3:0.19621231 
-0 8 8 1:-0.021537381 2:-0.40040571 3:0.21857333 
-8 0 0 1:0.61917058 2:-0.2968086 3:0.98418924 
-8 0 0 1:0.59897761 2:-0.30951525 3:0.97405032 
-8 0 0 1:0.57788325 2:-0.32333146 3:0.94430011 
-8 0 0 1:0.55581438 2:-0.33826885 3:0.86227172 
-8 0 0 1:0.53272559 2:-0.35390192 3:0.77439997 
-8 0 0 1:0.50890368 2:-0.36513917 3:0.7669614 
-8 0 0 1:0.48424085 2:-0.37802863 3:0.81954723 
-8 0 0 1:0.458833 2:-0.38944813 3:0.88889592 
-8 0 0 1:0.30665732 2:-0.34359965 3:0.67972705 
-8 0 0 1:0.28619302 2:-0.31367411 3:0.70785615 
-8 0 0 1:0.26697003 2:-0.29464754 3:0.73300328 
-8 0 0 1:0.24880144 2:-0.27848569 3:0.75539426 
-8 0 0 1:0.23123323 2:-0.26928329 3:0.76626943 
-8 0 0 1:0.21335135 2:-0.27409097 3:0.76938276 
-8 0 0 1:0.40332196 2:-0.44232976 3:0.11227882 
-8 0 0 1:0.37278397 2:-0.46808244 3:0.11556121 
-0 8 0 1:0.20304659 2:-0.55303286 3:0.11469822 
-0 8 0 1:0.16569679 2:-0.57249286 3:0.11294062 
-0 8 0 1:0.12632256 2:-0.60352303 3:0.11231178 
-0 8 0 1:0.083839884 2:-0.6511689 3:0.076477766 
-8 0 0 1:0.55286113 2:-0.34016833 3:0.50322478 
-8 0 0 1:0.52984439 2:-0.35279753 3:0.58871829 
-8 0 0 1:0.50573466 2:-0.36955079 3:0.63902725 
-8 0 0 1:0.48022798 2:-0.39096311 3:0.70922061 
-8 0 0 1:0.45360951 2:-0.40800436 3:0.80032518 
-0.9549487677306461 0 0 1:0.042753372 2:-0.21929327 3:0.54753763 
-8 0 0 1:0.035548677 2:-0.2040224 3:0.44160817 
-8 0 0 1:0.028971268 2:-0.19364186 3:0.33380086 
-8 0 0 1:0.023062148 2:-0.18301777 3:0.3238623 
-8 0 0 1:0.01800824 2:-0.17000264 3:0.41114996 
-8 0 0 1:0.013936013 2:-0.15574882 3:0.5214811 
-8 0 0 1:0.01095311 2:-0.14076911 3:0.62171977 
-8 0 0 1:0.94810425 2:-0.11716142 3:0.99065771 
-8 0 0 1:0.93893878 2:-0.14048705 3:0.98836856 
-8 0 0 1:0.92843678 2:-0.16097329 3:0.99013064 
-8 0 0 1:0.9165245 2:-0.18258999 3:0.9912065 
-8 0 0 1:0.90330588 2:-0.20261328 3:0.98972897 
-8 0 0 1:0.88850867 2:-0.22680967 3:0.98497324 
-8 0 0 1:0.87232405 2:-0.24807571 3:0.97804121 
-8 0 0 1:0.85479574 2:-0.26867169 3:0.97386384 
-8 0 0 1:0.83538532 2:-0.29752035 3:0.97661049 
-8 0 0 1:0.81387839 2:-0.32965529 3:0.98438558 
-8 0 0 1:0.7908719 2:-0.35264052 3:0.99133676 
-8 0 0 1:0.76753684 2:-0.35767673 3:0.99473966 
-8 0 0 1:0.74458303 2:-0.35183296 3:0.99577395 
-8 0 0 1:0.72193958 2:-0.34707589 3:0.99480891 
-8 0 0 1:0.70012548 2:-0.33436369 3:0.9912739 
-8 0 0 1:0.6788672 2:-0.32584413 3:0.98703301 
-8 0 0 1:0.65749791 2:-0.32754558 3:0.98604299 
-8 0 0 1:0.63564486 2:-0.33496069 3:0.99052283 
-8 0 0 1:0.61345246 2:-0.34016218 3:0.99511496 
-8 0 0 1:0.59125031 2:-0.34031172 3:0.99710095 
-8 0 0 1:0.56894455 2:-0.34189982 3:0.99780008 
-8 0 0 1:0.54585141 2:-0.35396859 3:0.998288 
-8 0 0 1:0.52170356 2:-0.37013498 3:0.99902129 
-8 0 0 1:0.49650327 2:-0.38626673 3:0.9996743 
-8 0 0 1:0.61076329 2:-0.45313539 3:0.77578846 
-8 0 0 1:0.76005462 2:-0.34005756 3:0.98368824 
-8 0 0 1:0.7374354 2:-0.34670438 3:0.98427179 
-8 0 0 1:0.71482443 2:-0.34657807 3:0.99150379 
-8 0 0 1:0.69230052 2:-0.34524355 3:0.99456541 
-8 0 0 1:0.66973497 2:-0.34588178 3:0.99554669 
-8 0 0 1:0.6464945 2:-0.3562268 3:0.99646832 
-8 0 0 1:0.62245694 2:-0.36844459 3:0.99721844 
-8 0 0 1:0.59726199 2:-0.38618494 3:0.99767685 
-8 0 0 1:0.57048929 2:-0.41036844 3:0.99800731 
-0 7.382550186493558 0 1:0.057957956 2:-0.4389422 3:0.27308423 
-8 0 0 1:0.54640015 2:-0.23484547 3:0.99340284 
-8 0 0 1:0.53048676 2:-0.24391837 3:0.99913427 
-8 0 0 1:0.51393625 2:-0.25368413 3:0.99985607 
-8 0 0 1:0.49653252 2:-0.26676201 3:0.9999387 
-8 0 0 1:0.47722621 2:-0.29592466 3:0.99993855 
-8 0 0 1:0.45563225 2:-0.33098932 3:0.99989043 
-8 0 0 1:0.43278865 2:-0.35014378 3:0.99985303 
-8 0 0 1:0.36285001 2:-0.19371493 3:0.57040401 
-8 0 0 1:0.34914845 2:-0.2100158 3:0.62571314 
-8 0 0 1:0.33369881 2:-0.23681007 3:0.7616725 
-8 0 0 1:0.31598856 2:-0.27146041 3:0.88222935 
-8 0 0 1:0.29706929 2:-0.28999198 3:0.94588378 
-8 0 0 1:0.40206584 2:-0.14562714 3:0.22395182 
-8 0 0 1:0.39148275 2:-0.16221617 3:0.38604848 
-8 0 0 1:0.37991096 2:-0.17737095 3:0.53808144 
-8 0 0 1:0.36740319 2:-0.19171744 3:0.64332004 
-8 0 0 1:0.35395551 2:-0.20612418 3:0.71766878 
-8 0 0 1:0.33900763 2:-0.2291192 3:0.75453021 
-8 0 0 1:0.32141099 2:-0.26971904 3:0.75676988 
-8 0 0 1:0.30043994 2:-0.32144141 3:0.73181065 
-0 8 0 1:0.11585765 2:-0.42847512 3:0.17597831 
-0 8 0 1:0.090724227 2:-0.38524176 3:0.15336461 
-0 8 0 1:0.067921644 2:-0.349515 3:0.1848464 
-0 8 0 1:0.046268896 2:-0.33189049 3:0.25881899 
-8 0 0 1:0.84976577 2:-0.071523594 3:0.31547761 
-8 0 0 1:0.84461238 2:-0.078990347 3:0.26385243 
-8 0 0 1:0.83890554 2:-0.087473739 3:0.23484164 
-8 0 0 1:0.83251428 2:-0.097964479 3:0.26180273 
-8 0 0 1:0.82554839 2:-0.10677224 3:0.26926625 
-8 0 0 1:0.81800046 2:-0.11569357 3:0.24824124 
-8 0 0 1:0.81001261 2:-0.12243678 3:0.23442092 
-8 0 0 1:0.80149169 2:-0.13060756 3:0.23030215 
-8 0 0 1:0.79251983 2:-0.13751955 3:0.22609181 
-8 0 0 1:0.78300288 2:-0.14587451 3:0.20816781 
-8 0 0 1:0.77277848 2:-0.1567182 3:0.18156568 
-8 0 0 1:0.7620679 2:-0.16417043 3:0.16338823 
-8 0 0 1:0.75063649 2:-0.17521911 3:0.16396112 
-8 0 0 1:0.73859949 2:-0.18450159 3:0.18661534 
-8 0 0 1:0.72607509 2:-0.19197232 3:0.23684278 
-8 0 0 1:0.71349141 2:-0.19288104 3:0.29450583 
-8 0 0 1:0.70086599 2:-0.19352073 3:0.32657183 
-8 0 0 1:0.68815285 2:-0.1948654 3:0.33834655 
-8 0 0 1:0.67525664 2:-0.19767142 3:0.37117157 
-8 0 0 1:0.66240973 2:-0.19691567 3:0.43484245 
-8 0 0 1:0.64954185 2:-0.19723726 3:0.55257256 
-8 0 0 1:0.63665107 2:-0.1975881 3:0.73397728 
-8 0 0 1:0.6236874 2:-0.19870548 3:0.88493606 
-8 0 0 1:0.61066313 2:-0.19963432 3:0.94030015 
-8 0 0 1:0.59759481 2:-0.20030948 3:0.94316631 
-8 0 0 1:0.58447106 2:-0.20115913 3:0.94297319 
-8 0 0 1:0.57127931 2:-0.20220148 3:0.95418952 
-8 0 0 1:0.55785178 2:-0.20581534 3:0.96122873 
-8 0 0 1:0.54399978 2:-0.21232161 3:0.9586147 
-8 0 0 1:0.52973999 2:-0.21857221 3:0.94268382 
-8 0 0 1:0.51502068 2:-0.2256157 3:0.92017396 
-8 0 0 1:0.49984786 2:-0.23256705 3:0.9116929 
-8 0 0 1:0.48421508 2:-0.23961721 3:0.91217459 
-8 0 0 1:0.46805933 2:-0.24763309 3:0.90068733 
-8 0 0 1:0.45149154 2:-0.25394904 3:0.85715004 
-8 0 0 1:0.43450744 2:-0.26032994 3:0.77429643 
-8 0 0 1:0.4170866 2:-0.26702438 3:0.66353589 
-8 0 0 1:0.39936844 2:-0.27158167 3:0.5979485 
-8 0 0 1:0.38128344 2:-0.27720444 3:0.62731269 
-8 0 0 1:0.36285786 2:-0.28242489 3:0.69476302 
-8 0 0 1:0.34415734 2:-0.28663909 3:0.75643329 
-8 0 0 1:0.32496634 2:-0.2941572 3:0.79143354 
-8 0 0 1:0.30510866 2:-0.30437583 3:0.80534172 
-0 8 0 1:0.14861581 2:-0.63492515 3:0.20011596 
-0 8 0 1:0.10706252 2:-0.63692343 3:0.19545436 
-8 0 0 1:1.0556226 2:-0.29492311 3:0.74438637 
-8 0 0 1:1.0342767 2:-0.32718723 3:0.61259949 
-8 0 0 1:1.0112679 2:-0.35267614 3:0.51679934 
-8 0 0 1:0.98734706 2:-0.36665535 3:0.49234206 
-8 0 0 1:0.96250505 2:-0.38077507 3:0.53541344 
-8 0 0 1:0.93693881 2:-0.39187605 3:0.61787904 
-8 0 0 1:0.91079988 2:-0.40065403 3:0.71522285 
-8 0 0 1:0.88376978 2:-0.41431376 3:0.80197314 
-8 0 0 1:0.85529704 2:-0.43642656 3:0.85960074 
-8 0 0 1:0.82550658 2:-0.4566242 3:0.88381788 
-8 0 0 1:0.79475312 2:-0.47138504 3:0.90085972 
-8 0 0 1:0.76346238 2:-0.47962027 3:0.93047351 
-8 0 0 1:0.73193664 2:-0.48322242 3:0.95822809 
-8 0 0 1:0.58055668 2:-0.26296796 3:0.10745275 
-8 0 0 1:0.5632849 2:-0.26473952 3:0.13132846 
-8 0 0 1:0.54487894 2:-0.28212419 3:0.15537506 
-8 0 0 1:0.5247939 2:-0.30786079 3:0.14957911 
-8 0 0 1:0.50314961 2:-0.3317608 3:0.11827167 
-8 0 0 1:0.47950042 2:-0.36249174 3:0.091763032 
-8 0 0 1:0.45380753 2:-0.39381731 3:0.089102411 
-8 0 0 1:0.42616645 2:-0.42367877 3:0.098704418 
-8 0 0 1:0.39660972 2:-0.4530418 3:0.098627553 
-8 0 0 1:1.3085849 2:-0.46014578 3:0.1510229 
-8 0 0 1:1.2754183 2:-0.50837318 3:0.17077284 
-8 0 0 1:1.2391682 2:-0.55563718 3:0.21431784 
-8 0 0 1:1.199627 2:-0.60608193 3:0.27354038 
-8 0 0 1:1.1569086 2:-0.65478135 3:0.31952144 
-8 0 0 1:0.63893377 2:-0.21058935 3:0.34635105 
-8 0 0 1:0.62357819 2:-0.23536835 3:0.34783948 
-8 0 0 1:0.60652074 2:-0.26145436 3:0.33872699 
-8 0 0 1:0.58748609 2:-0.29176059 3:0.3281792 
-8 0 0 1:0.56623779 2:-0.32569118 3:0.3255188 
-8 0 0 1:0.54284173 2:-0.35861175 3:0.32714032 
-8 0 0 1:0.51749273 2:-0.38854608 3:0.32626149 
-8 0 0 1:0.49027768 2:-0.41714871 3:0.3159424 
-8 0 0 1:0.46118017 2:-0.44600289 3:0.29876099 
-8 0 0 1:0.43019904 2:-0.47487472 3:0.3097023 
-8 0 0 1:1.2556705 2:-0.17098206 3:0.98947065 
-8 0 0 1:1.2411061 2:-0.22324082 3:0.99051412 
-8 0 0 1:1.2242745 2:-0.25799325 3:0.99284652 
-8 0 0 1:1.2061628 2:-0.27761282 3:0.99511279 
-8 0 0 1:1.1871438 2:-0.29152197 3:0.99631931 
-8 0 0 1:1.1667646 2:-0.31236944 3:0.99676833 
-8 0 0 1:1.1449165 2:-0.33488421 3:0.99684253 
-8 0 0 1:1.1212715 2:-0.36242817 3:0.9968049 
-8 0 0 1:1.0956779 2:-0.39229537 3:0.99709686 
-8 0 0 1:1.0681967 2:-0.42122742 3:0.99753466 
-8 0 0 1:1.0389182 2:-0.44877683 3:0.99789171 
-8 0 0 1:1.0083676 2:-0.46827538 3:0.9984035 
-8 0 0 1:0.97729203 2:-0.47632285 3:0.99899922 
-8 0 0 1:0.94557604 2:-0.48613854 3:0.99936502 
-8 0 0 1:0.91322673 2:-0.49584598 3:0.99951669 
-8 0 0 1:0.88023561 2:-0.50568365 3:0.99958291 
-8 0 0 1:0.84661023 2:-0.51540533 3:0.99962306 
-8 0 0 1:1.0111224 2:-0.49043286 3:0.87142231 
-8 0 0 1:0.97822698 2:-0.50421693 3:0.84958556 
-8 0 0 1:0.94452653 2:-0.51655617 3:0.82653168 
-8 0 0 1:0.91006259 2:-0.5282587 3:0.83175464 
-8 0 0 1:0.8747801 2:-0.54080543 3:0.85077314 
-8 0 0 1:0.85081956 2:-0.15856529 3:0.64591957 
-8 0 0 1:0.83924791 2:-0.17736866 3:0.65440736 
-8 0 0 1:0.82572465 2:-0.20728285 3:0.70627159 
-8 0 0 1:0.80935921 2:-0.2508473 3:0.78654503 
-8 0 0 1:0.79005566 2:-0.29588228 3:0.84477607 
-8 0 0 1:0.76853475 2:-0.32986962 3:0.88017597 
-8 0 0 1:0.74498468 2:-0.36097244 3:0.906725 
-8 0 0 1:0.71917985 2:-0.39553305 3:0.91954544 
-8 0 0 1:0.69125243 2:-0.42806777 3:0.92961267 
-8 0 0 1:0.66124085 2:-0.46001367 3:0.9397798 
-8 0 0 1:0.62376337 2:-0.28267278 3:0.023735737 
-8 0 0 1:0.60481421 2:-0.29045017 3:0.061325833 
-8 0 0 1:0.58507039 2:-0.30263066 3:0.132406 
-8 0 0 1:0.56406861 2:-0.32191251 3:0.19170595 
-8 0 0 1:0.54133937 2:-0.34839093 3:0.22146575 
-8 0 0 1:0.51691287 2:-0.3744061 3:0.2403305 
-8 0 0 1:0.49126967 2:-0.3930557 3:0.26492917 
-8 0 0 1:0.46456318 2:-0.4093535 3:0.29213726 
-8 0 0 1:0.4370633 2:-0.42151454 3:0.31602786 
-8 0 0 1:0.40918476 2:-0.42731864 3:0.33658898 
-8 0 0 1:0.38156813 2:-0.42330403 3:0.35986498 
-8 0 0 1:0.35483843 2:-0.40970944 3:0.38938715 
-8 0 0 1:0.32818322 2:-0.40856747 3:0.42034205 
-8 0 0 1:0.71588141 2:-0.066536707 3:0.16124219 
-8 0 0 1:0.71103973 2:-0.074212648 3:0.2291421 
-8 0 0 1:0.70549242 2:-0.085028413 3:0.30091525 
-8 0 0 1:0.69947428 2:-0.092245272 3:0.32027047 
-8 0 0 1:0.69323704 2:-0.095603687 3:0.27174167 
-8 0 0 1:0.68651189 2:-0.10308224 3:0.22411986 
-8 0 0 1:0.67913296 2:-0.11310313 3:0.20493336 
-8 0 0 1:0.67113921 2:-0.12252717 3:0.22125516 
-8 0 0 1:0.66265065 2:-0.13011162 3:0.25743373 
-8 0 0 1:0.65390223 2:-0.13409455 3:0.28950147 
-8 0 0 1:0.64466403 2:-0.141602 3:0.30820475 
-8 0 0 1:0.6346491 2:-0.15350757 3:0.31277677 
-8 0 0 1:0.62410338 2:-0.16164328 3:0.30919449 
-8 0 0 1:0.61333066 2:-0.16512289 3:0.29837282 
-8 0 0 1:0.60250058 2:-0.16600209 3:0.28405833 
-8 0 0 1:0.59161832 2:-0.16680183 3:0.27739916 
-8 0 0 1:0.5806538 2:-0.16806276 3:0.29228923 
-8 0 0 1:0.56962353 2:-0.16907056 3:0.32550812 
-8 0 0 1:0.55854782 2:-0.16976697 3:0.35486011 
-8 0 0 1:0.54737631 2:-0.17123541 3:0.36417715 
-8 0 0 1:0.53612224 2:-0.17250102 3:0.35686068 
-8 0 0 1:0.52483901 2:-0.17294781 3:0.34720065 
-8 0 0 1:0.5134646 2:-0.17434552 3:0.36227581 
-8 0 0 1:0.50202836 2:-0.17529312 3:0.4025347 
-8 0 0 1:0.49055353 2:-0.17588476 3:0.44678631 
-8 0 0 1:0.47896501 2:-0.17762723 3:0.50596025 
-8 0 0 1:0.46756633 2:-0.17471754 3:0.5387466 
-8 0 0 1:0.45620686 2:-0.17411645 3:0.51327401 
-8 0 0 1:0.44459084 2:-0.17804885 3:0.45885818 
-8 0 0 1:0.43234139 2:-0.1877579 3:0.40969332 
-8 0 0 1:0.42001216 2:-0.18898075 3:0.38956292 
-8 0 0 1:0.40758139 2:-0.19053733 3:0.36567294 
-8 0 0 1:0.3948 2:-0.19591145 3:0.32554491 
-8 0 0 1:0.38144351 2:-0.20472648 3:0.29066759 
-8 0 0 1:0.36729922 2:-0.21680179 3:0.27266081 
-8 0 0 1:0.35264864 2:-0.22456216 3:0.25690709 
-8 0 0 1:0.33781083 2:-0.2274321 3:0.24016642 
-8 0 0 1:0.32256355 2:-0.23370827 3:0.25270245 
-8 0 0 1:0.30694589 2:-0.23938547 3:0.33899152 
-8 0 0 1:0.29080972 2:-0.24733309 3:0.50352398 
-8 0 0 1:0.2742087 2:-0.25445821 3:0.62484862 
-8 0 0 1:0.25764891 2:-0.25382629 3:0.61087827 
-8 0 0 1:0.23956374 2:-0.27720712 3:0.54847268 
-8 0 0 1:0.2211646 2:-0.28201971 3:0.52642209 
-8 0 0 1:0.20252262 2:-0.28574182 3:0.61956381 
-8 0 0 1:1.1913287 2:-0.401866 3:0.9849073 
-8 0 0 1:1.1652324 2:-0.40000037 3:0.98242242 
-8 0 0 1:1.1391166 2:-0.40029979 3:0.97671084 
-8 0 0 1:1.1128145 2:-0.40315414 3:0.97005509 
-8 0 0 1:1.0861807 2:-0.40823992 3:0.9652561 
-8 0 0 1:1.0591189 2:-0.41480015 3:0.96385289 
-8 0 0 1:1.0317757 2:-0.41911222 3:0.9660727 
-8 0 0 1:1.0036512 2:-0.4310898 3:0.97185042 
-8 0 0 1:0.97438028 2:-0.44866002 3:0.97663711 
-8 0 0 1:0.94391792 2:-0.46692307 3:0.97655385 
-8 0 0 1:0.91275549 2:-0.47765365 3:0.97330189 
-8 0 0 1:0.88073667 2:-0.49078027 3:0.96731113 
-8 0 0 1:0.84785489 2:-0.50400768 3:0.95463142 
-8 0 0 1:0.81433211 2:-0.51383278 3:0.93073502 
-8 0 0 1:0.5551527 2:-0.13063107 3:0.0022516527 
-8 0 0 1:0.54597218 2:-0.14071781 3:0.0023911295 
-8 0 0 1:0.5361598 2:-0.15040288 3:0.0035198012 
-8 0 0 1:0.52569169 2:-0.16045383 3:0.0062766298 
-8 0 0 1:0.51458175 2:-0.17029173 3:0.012363612 
-8 0 0 1:0.50281766 2:-0.18031835 3:0.031679471 
-8 0 0 1:0.4904088 2:-0.19020142 3:0.14560369 
-8 0 0 1:0.47734554 2:-0.20023197 3:0.72450322 
-8 0 0 1:0.46367336 2:-0.20956537 3:0.99542195 
-8 0 0 1:0.44942067 2:-0.21846326 3:0.99980118 
-8 0 0 1:0.43443275 2:-0.22973299 3:0.99991953 
-8 0 0 1:0.4185968 2:-0.24273125 3:0.99994454 
-8 0 0 1:0.40211006 2:-0.25270665 3:0.99995704 
-8 0 0 1:0.38547903 2:-0.25491828 3:0.99996168 
-8 0 0 1:0.36867563 2:-0.25756021 3:0.99996033 
-8 0 0 1:0.35163447 2:-0.26120478 3:0.99995416 
-8 0 0 1:0.33445043 2:-0.26339465 3:0.99994239 
-8 0 0 1:0.31692441 2:-0.26863651 3:0.99992422 
-8 0 0 1:0.29867948 2:-0.27965593 3:0.99990119 
-8 0 0 1:0.84423758 2:-0.097959774 3:0.48164462 
-8 0 0 1:0.83737929 2:-0.10512298 3:0.5308159 
-8 0 0 1:0.82982236 2:-0.1158315 3:0.59881353 
-8 0 0 1:0.82135928 2:-0.1297211 3:0.65852302 
-8 0 0 1:0.81175927 2:-0.14714763 3:0.6952552 
-8 0 0 1:0.80072421 2:-0.16914397 3:0.71161442 
-8 0 0 1:0.78834571 2:-0.18973596 3:0.72598631 
-8 0 0 1:0.7746148 2:-0.21046566 3:0.75517565 
-8 0 0 1:0.75953404 2:-0.23115594 3:0.78387388 
-8 0 0 1:0.74292225 2:-0.25462327 3:0.78942402 
-8 0 0 1:0.72459598 2:-0.28090269 3:0.78067492 
-8 0 0 1:0.70529255 2:-0.29588045 3:0.77024888 
-8 0 0 1:0.68579693 2:-0.29882633 3:0.78787341 
-8 0 0 1:0.66696608 2:-0.28863684 3:0.84814396 
-8 0 0 1:0.64931966 2:-0.27048191 3:0.89867107 
-8 0 0 1:0.63187418 2:-0.26740213 3:0.90531214 
-8 0 0 1:0.61410463 2:-0.27236934 3:0.88802787 
-8 0 0 1:0.59500901 2:-0.29269504 3:0.84785268 
-8 0 0 1:0.57431167 2:-0.31724623 3:0.77479642 
-8 0 0 1:0.55205935 2:-0.34108054 3:0.71396213 
-8 0 0 1:0.52840605 2:-0.3625548 3:0.69241013 
-8 0 0 1:0.50400427 2:-0.37402725 3:0.69677602 
-8 0 0 1:0.47937561 2:-0.37750489 3:0.72037033 
-8 0 0 1:0.45417206 2:-0.38631662 3:0.7437174 
-8 0 0 1:0.3578016 2:-0.40470284 3:0.30001987 
-8 0 0 1:0.25152086 2:-0.38385036 3:0.2820558 
-8 8 0 1:0.2281279 2:-0.35856419 3:0.08768839 
-8 8 0 1:0.20531061 2:-0.3497405 3:0.034713952 
-8 8 0 1:0.18201742 2:-0.35703493 3:0.02408504 
-8 8 0 1:0.15905451 2:-0.35197242 3:0.027629673 
-8 8 8 1:0.13678565 2:-0.34133416 3:0.040607287 
-8 8 8 1:0.11487875 2:-0.33578614 3:0.05566418 
-0 8 8 1:0.092760247 2:-0.33902951 3:0.063681876 
-0 8 8 1:0.070418087 2:-0.3424577 3:0.066509291 
-8 0 0 1:1.0346474 2:-0.1914657 3:0.02288396 
-8 0 0 1:1.0214032 2:-0.20300622 3:0.018587595 
-8 0 0 1:1.0079662 2:-0.20596016 3:0.0090137957 
-8 0 0 1:0.9946077 2:-0.20475759 3:0.0031607554 
-8 0 0 1:0.98103107 2:-0.20810084 3:0.00039677871 
-8 0 0 1:0.96652247 2:-0.22238579 3:6.4357215e-005 
-8 0 0 1:0.9508909 2:-0.23959865 3:3.2134777e-005 
-8 0 0 1:0.93487843 2:-0.24543713 3:1.6238934e-005 
-8 0 0 1:0.91853916 2:-0.25044621 3:5.7012626e-006 
-8 0 0 1:0.9016941 2:-0.25819886 3:9.3936273e-007 
-8 0 0 1:0.88487635 2:-0.25778029 3:9.2707487e-008 
-8 0 0 1:0.8686432 2:-0.2488195 3:3.192793e-008 
-8 0 0 1:0.85339319 2:-0.23375021 3:8.5065376e-008 
-8 0 0 1:0.83890133 2:-0.2221293 3:5.5185601e-007 
-8 0 0 1:0.82566709 2:-0.2028527 3:4.0534278e-006 
-8 0 0 1:0.81409391 2:-0.17739227 3:1.7711732e-005 
-8 0 0 1:0.80429572 2:-0.15018537 3:4.0737102e-005 
-8 0 0 1:0.79638428 2:-0.12126551 3:5.4543753e-005 
-8 0 0 1:0.78966598 2:-0.10297722 3:6.0186878e-005 
-8 0 0 1:0.78400808 2:-0.086723479 3:8.1762254e-005 
-8 0 0 1:0.77979143 2:-0.064632196 3:0.00013146186 
-8 0 0 1:0.77686885 2:-0.044796972 3:0.00018034995 
-8 0 0 1:0.77502396 2:-0.028278196 3:0.00020401574 
-8 0 0 1:0.77366215 2:-0.020873733 3:0.00018520891 
-8 0 0 1:0.77302566 2:-0.009756013 3:0.00019845214 
-8 0 0 1:0.77301162 2:-0.00021525733 3:0.00036337954 
-8 0 0 1:0.77292972 2:-0.0012553233 3:0.00059735154 
-8 0 0 1:0.77214293 2:-0.012059824 3:0.0012134526 
-8 0 0 1:0.77036915 2:-0.027188297 3:0.0051714053 
-8 0 0 1:0.76772529 2:-0.04052472 3:0.01229741 
-8 0 0 1:0.76492957 2:-0.042852362 3:0.01023518 
-8 0 0 1:0.76235557 2:-0.039453926 3:0.0030102924 
-8 0 0 1:0.75969106 2:-0.040841295 3:0.00058843128 
-8 0 0 1:0.75717063 2:-0.038632826 3:0.0005868645 
-8 0 0 1:0.75412673 2:-0.046656477 3:0.0014714718 
-8 0 0 1:0.75062444 2:-0.053682658 3:0.0028767877 
-8 0 0 1:0.74661235 2:-0.061496821 3:0.0042913974 
-8 0 0 1:0.74179204 2:-0.073884965 3:0.0056274701 
-8 0 0 1:0.73599924 2:-0.088791421 3:0.0063238171 
-8 0 0 1:0.72951427 2:-0.099400746 3:0.0061018334 
-8 0 0 1:0.7224599 2:-0.10812849 3:0.13257993 
-8 0 0 1:0.71469641 2:-0.11899767 3:0.097983573 
-8 0 0 1:0.70612152 2:-0.13143474 3:0.074270644 
-8 0 0 1:0.69742724 2:-0.13326481 3:0.077375675 
-8 0 0 1:0.68874554 2:-0.13307193 3:0.10199953 
-8 0 0 1:0.67969724 2:-0.13869122 3:0.11516648 
-8 0 0 1:0.67053008 2:-0.14051306 3:0.10610174 
-8 0 0 1:0.6611184 2:-0.14426091 3:0.098576614 
-8 0 0 1:0.65169539 2:-0.14443477 3:0.092916165 
-8 0 0 1:0.64182754 2:-0.15125298 3:0.083671687 
-8 0 0 1:0.63081749 2:-0.16876067 3:0.078098189 
-8 0 0 1:0.6187204 2:-0.18542255 3:0.075564849 
-8 0 0 1:0.60545713 2:-0.20329774 3:0.078968577 
-8 0 0 1:0.59123918 2:-0.21793079 3:0.092554898 
-8 0 0 1:0.57620325 2:-0.2304688 3:0.10467605 
-8 0 0 1:0.56030448 2:-0.2436943 3:0.11043419 
-8 0 0 1:0.54340668 2:-0.25900729 3:0.11786541 
-8 0 0 1:0.52556553 2:-0.27346682 3:0.12701304 
-8 0 0 1:0.50643996 2:-0.29315426 3:0.1397295 
-8 0 0 1:0.48669268 2:-0.30268367 3:0.16116165 
-8 0 0 1:0.46626444 2:-0.31312138 3:0.19221048 
-8 0 0 1:0.44529733 2:-0.32138107 3:0.2179619 
-8 0 0 1:0.42423074 2:-0.32290599 3:0.23662965 
-8 0 0 1:0.40306361 2:-0.32444695 3:0.25361037 
-8 0 0 1:0.38195108 2:-0.32361016 3:0.26944591 
-8 0 0 1:0.36151356 2:-0.31326358 3:0.28317573 
-8 0 0 1:0.3419233 2:-0.30027687 3:0.30270355 
-8 0 0 1:0.32301277 2:-0.28985824 3:0.34555289 
-8 0 0 1:0.30454368 2:-0.28309172 3:0.42532602 
-8 0 0 1:0.28670718 2:-0.27339549 3:0.5276146 
-8 0 0 1:0.27003815 2:-0.2555007 3:0.6231027 
-8 0 0 1:0.25441158 2:-0.23952212 3:0.68848363 
-8 0 0 1:0.23984954 2:-0.22320506 3:0.71157472 
-8 0 0 1:0.22642501 2:-0.20576941 3:0.69788532 
-8 0 0 1:0.21395879 2:-0.1910806 3:0.66653315 
-8 0 0 1:0.20308809 2:-0.16662468 3:0.64460193 
-8 0 0 1:0.19382092 2:-0.14204583 3:0.64156715 
-8 0 0 1:0.18624377 2:-0.11614156 3:0.64549708 
-8 0 0 1:0.18003193 2:-0.09521441 3:0.64541716 
-8 0 0 1:0.17535353 2:-0.071709862 3:0.62528984 
-8 0 0 1:0.17213395 2:-0.049349276 3:0.58885398 
-8 0 0 1:0.17022449 2:-0.029267991 3:0.56591251 
-8 0 0 1:0.16951852 2:-0.010820989 3:0.55975571 
-8 0 0 1:0.17004046 2:0.0080002882 3:0.5820566 
-8 0 0 1:0.17188356 2:0.028250748 3:0.6345093 
-8 0 0 1:0.17496316 2:0.047203691 3:0.67914495 
-8 0 0 1:0.17919542 2:0.064871553 3:0.71505839 
-8 0 0 1:0.1846662 2:0.083855374 3:0.74541107 
-8 0 0 1:0.19110664 2:0.098718213 3:0.76229639 
-8 0 0 1:0.19707009 2:0.091406998 3:0.78122837 
-8 0 0 1:0.2010118 2:0.060418093 3:0.80114048 
-8 0 0 1:0.20241892 2:0.021568016 3:0.79974116 
-8 0 0 1:0.20173344 2:-0.010506893 3:0.77255324 
-8 0 0 1:0.19962031 2:-0.032389813 3:0.73473393 
-8 0 0 1:0.19664473 2:-0.045609202 3:0.70080881 
-8 0 0 1:0.19274879 2:-0.059716447 3:0.68093534 
-8 0 0 1:0.18624913 2:-0.099626008 3:0.66666387 
-8 0 0 1:0.17839962 2:-0.12031621 3:0.64366998 
-8 0 0 1:0.16895616 2:-0.14474819 3:0.61052495 
-8 0 0 1:0.1578896 2:-0.16962675 3:0.57245334 
-8 0 0 1:0.14492187 2:-0.19876762 3:0.54670093 
-8 0 0 1:0.12990687 2:-0.23014792 3:0.56217335 
-8 0 0 1:1.3407881 2:-0.46690005 3:0.51337267 
-8 0 0 1:1.3070732 2:-0.51677611 3:0.45462324 
-8 0 0 1:1.2700846 2:-0.56695693 3:0.49035388 
-8 0 0 1:1.2295787 2:-0.62086999 3:0.60900427 
-8 0 0 1:1.029292 2:0.17268686 3:0.42347717 
-8 0 0 1:1.0403944 2:0.17017668 3:0.41431582 
-8 0 0 1:1.0504491 2:0.15411733 3:0.40520131 
-8 0 0 1:1.0592371 2:0.1347009 3:0.39568506 
-8 0 0 1:1.0659187 2:0.10241393 3:0.38418271 
-8 0 0 1:1.0706606 2:0.072684197 3:0.36879345 
-8 0 0 1:1.0735495 2:0.044280655 3:0.34449308 
-8 0 0 1:1.0746163 2:0.016351298 3:0.30915638 
-8 0 0 1:1.0739567 2:-0.01011075 3:0.26644775 
-8 0 0 1:1.0713082 2:-0.04059479 3:0.22557443 
-8 0 0 1:1.0667304 2:-0.070168552 3:0.19609946 
-8 0 0 1:1.0605291 2:-0.095052619 3:0.17920331 
-8 0 0 1:1.0533867 2:-0.10947703 3:0.17067982 
-8 0 0 1:1.0458562 2:-0.11542746 3:0.16252928 
-8 0 0 1:1.0380985 2:-0.11890934 3:0.14085544 
-8 0 0 1:1.0299807 2:-0.12442802 3:0.1023795 
-8 0 0 1:1.0216062 2:-0.12836297 3:0.061140764 
-8 0 0 1:1.0129604 2:-0.13252144 3:0.031425674 
-8 0 0 1:1.0040649 2:-0.13634962 3:0.015718819 
-8 0 0 1:0.99491173 2:-0.14029851 3:0.0079068539 
-8 0 0 1:0.98549992 2:-0.14426298 3:0.0039355105 
-8 0 0 1:0.97573255 2:-0.14971296 3:0.0017940203 
-8 0 0 1:0.96581178 2:-0.1520642 3:0.00074411184 
-8 0 0 1:0.95564423 2:-0.15584693 3:0.008535583 
-8 0 0 1:0.9452434 2:-0.15942247 3:0.0071903543 
-8 0 0 1:0.93460265 2:-0.16310012 3:0.008118791 
-8 0 0 1:0.92372253 2:-0.16676902 3:0.0093801258 
-8 0 0 1:0.91261056 2:-0.17032285 3:0.0085239093 
-8 0 0 1:0.90133756 2:-0.17279103 3:0.0058001537 
-8 0 0 1:0.89026401 2:-0.16973386 3:0.0036620751 
-8 0 0 1:0.87904726 2:-0.17192887 3:0.0028434816 
-8 0 0 1:0.86746404 2:-0.17754619 3:0.0031504034 
-8 0 0 1:0.85570098 2:-0.18030251 3:0.004814538 
-8 0 0 1:0.84368369 2:-0.18419955 3:0.0083424517 
-8 0 0 1:0.83163729 2:-0.18464567 3:0.013195938 
-8 0 0 1:0.81943571 2:-0.18702421 3:0.018101225 
-8 0 0 1:0.80709614 2:-0.18913931 3:0.02222155 
-8 0 0 1:0.79442547 2:-0.19421432 3:0.024706931 
-8 0 0 1:0.78175421 2:-0.19422339 3:0.023817087 
-8 0 0 1:0.76973619 2:-0.18421068 3:0.017500852 
-8 0 0 1:0.75862533 2:-0.17030583 3:0.0080992142 
-8 0 0 1:0.74817985 2:-0.16010687 3:0.0022291801 
-8 0 0 1:0.73768169 2:-0.16091437 3:0.00055072011 
-8 0 0 1:0.72685981 2:-0.16587639 3:0.00022525152 
-8 0 0 1:0.71612319 2:-0.16456961 3:0.00015644535 
-8 0 0 1:0.70587349 2:-0.15710605 3:0.0001540539 
-8 0 0 1:0.69634025 2:-0.14612411 3:0.00021084429 
-8 0 0 1:0.68785703 2:-0.13002983 3:0.00044262952 
-8 0 0 1:0.68027357 2:-0.11623819 3:0.0014924576 
-8 0 0 1:0.67331917 2:-0.10659614 3:0.0056175551 
-8 0 0 1:0.66688096 2:-0.098684039 3:0.014416136 
-8 0 0 1:0.66121621 2:-0.08682856 3:0.022243116 
-8 0 0 1:0.65631607 2:-0.075108704 3:0.022222813 
-8 0 0 1:0.6519491 2:-0.06693631 3:0.016573413 
-8 0 0 1:0.64827269 2:-0.056351543 3:0.81943135 
-8 0 0 1:0.64561303 2:-0.040766894 3:0.79366527 
-8 0 0 1:0.64411545 2:-0.022954677 3:0.77943953 
-8 0 0 1:0.64356157 2:-0.0084899215 3:0.76124202 
-8 0 0 1:0.64351605 2:-0.00069766166 3:0.71400812 
-8 0 0 1:0.6435651 2:0.00075188995 3:0.6130089 
-8 0 0 1:0.6433697 2:-0.0029951678 3:0.45116776 
-8 0 0 1:0.64243594 2:-0.014312492 3:0.28350691 
-8 0 0 1:0.64089149 2:-0.023673182 3:0.1751247 
-8 0 0 1:0.6383163 2:-0.039472211 3:0.13178372 
-8 0 0 1:0.63404232 2:-0.065510861 3:0.1427481 
-8 0 0 1:0.62782891 2:-0.095238355 3:0.20400108 
-8 0 0 1:0.61994107 2:-0.12090388 3:0.31245558 
-8 0 0 1:0.61090242 2:-0.13854326 3:0.42055627 
-8 0 0 1:0.60119564 2:-0.14878422 3:0.47515432 
-8 0 0 1:0.59121669 2:-0.15295603 3:0.47487706 
-8 0 0 1:0.58122061 2:-0.15321851 3:0.46239946 
-8 0 0 1:0.57124462 2:-0.15291077 3:0.49425684 
-8 0 0 1:0.56090701 2:-0.15845351 3:0.57655481 
-8 0 0 1:0.55023956 2:-0.16350924 3:0.65808191 
-8 0 0 1:0.53956304 2:-0.16364825 3:0.71079208 
-8 0 0 1:0.52898843 2:-0.16208626 3:0.73630559 
-8 0 0 1:0.51823422 2:-0.16483911 3:0.74897767 
-8 0 0 1:0.50734743 2:-0.16687138 3:0.75951765 
-8 0 0 1:0.49615676 2:-0.17152901 3:0.76778371 
-8 0 0 1:0.48482311 2:-0.17372071 3:0.77338013 
-8 0 0 1:0.47332655 2:-0.1762178 3:0.77481479 
-8 0 0 1:0.46161244 2:-0.17955243 3:0.77186839 
-8 0 0 1:0.44972852 2:-0.1821551 3:0.75251822 
-8 0 0 1:0.43809003 2:-0.17839329 3:0.7038273 
-8 0 0 1:0.42706247 2:-0.16902889 3:0.61916832 
-8 0 0 1:0.41708563 2:-0.15292368 3:0.50362112 
-8 0 0 1:0.40862414 2:-0.12969663 3:0.37646374 
-8 0 0 1:0.40171249 2:-0.10594088 3:0.25994184 
-8 0 0 1:0.39645585 2:-0.08057308 3:0.16172095 
-8 0 0 1:0.3928855 2:-0.054725948 3:0.092305091 
-8 0 0 1:0.39093898 2:-0.029835993 3:0.062877703 
-8 0 0 1:0.39064107 2:-0.0045662415 3:0.058601948 
-8 0 0 1:0.39217724 2:0.023546126 3:0.069170237 
-8 0 0 1:0.39531333 2:0.048069576 3:0.082784607 
-8 0 0 1:0.39925193 2:0.060370365 3:0.084134978 
-8 0 0 1:0.40335362 2:0.062870184 3:0.078773948 
-8 0 0 1:0.4073225 2:0.060834428 3:0.081431042 
-8 0 0 1:0.41123985 2:0.060044708 3:0.09449244 
-8 0 0 1:0.41523088 2:0.061173902 3:0.11363 
-8 0 0 1:0.41920808 2:0.060962075 3:0.13475119 
-8 0 0 1:0.42319778 2:0.061153637 3:0.15936346 
-8 0 0 1:0.42721591 2:0.061589366 3:0.20100911 
-8 0 0 1:0.43146373 2:0.06510997 3:0.27450827 
-8 0 0 1:0.43602217 2:0.069871223 3:0.36600558 
-8 0 0 1:0.44041954 2:0.067402257 3:0.43291017 
-8 0 0 1:0.4445536 2:0.063366285 3:0.45638525 
-8 0 0 1:0.4487505 2:0.064329506 3:0.45225789 
-8 0 0 1:0.4530035 2:0.065189429 3:0.44341342 
-8 0 0 1:0.4572737 2:0.065453194 3:0.44473843 
-8 0 0 1:0.46136783 2:0.06275425 3:0.45351862 
-8 0 0 1:0.46534023 2:0.060888461 3:0.45654484 
-8 0 0 1:0.46933825 2:0.061281016 3:0.44340961 
-8 0 0 1:0.47346919 2:0.063318525 3:0.40483321 
-8 0 0 1:0.47764356 2:0.063984286 3:0.33537989 
-8 0 0 1:0.48164547 2:0.061340689 3:0.23506472 
-8 0 0 1:0.48547102 2:0.058637479 3:0.12644919 
-8 0 0 1:0.48928705 2:0.058491717 3:0.056961908 
-8 0 0 1:0.49349812 2:0.064546652 3:0.029420232 
-8 0 0 1:0.49788201 2:0.06719564 3:0.020868143 
-8 0 0 1:0.50193975 2:0.062196645 3:0.020332617 
-8 0 0 1:0.50583373 2:0.059686381 3:0.024632214 
-8 0 0 1:0.50977899 2:0.060472438 3:0.034390232 
-8 0 0 1:0.51417238 2:0.067341272 3:0.052252313 
-8 0 0 1:0.5184702 2:0.065876484 3:0.068688563 
-8 0 0 1:0.52139346 2:0.044807197 3:0.069621277 
-8 0 0 1:0.52202272 2:0.0096452238 3:0.061329081 
-8 0 0 1:0.51940619 2:-0.040105817 3:0.068386333 
-8 0 0 1:0.51288129 2:-0.10001278 3:0.1141244 
-8 0 0 1:0.50270296 2:-0.15601207 3:0.20365483 
-8 0 0 1:0.48918149 2:-0.20725538 3:0.28965846 
-8 0 0 1:0.47247711 2:-0.25604255 3:0.34253737 
-8 0 0 1:0.45165686 2:-0.31913003 3:0.37549957 
-8 0 0 1:0.42775362 2:-0.36638578 3:0.41261619 
-8 0 0 1:0.40045162 2:-0.41848136 3:0.45963133 
-8 0 0 1:0.93317736 2:-0.39310596 3:0.75836181 
-8 0 0 1:0.90588873 2:-0.4182765 3:0.77650559 
-8 0 0 1:0.87701169 2:-0.44262346 3:0.78267681 
-8 0 0 1:0.84642812 2:-0.46878109 3:0.78555304 
-8 0 0 1:0.81400607 2:-0.49696086 3:0.78993491 
-8 0 0 1:0.7796548 2:-0.52653178 3:0.79378818 
-8 0 0 1:0.89700503 2:-0.075602478 3:0.7455978 
-8 0 0 1:0.89133585 2:-0.08689652 3:0.76999608 
-8 0 0 1:0.88500899 2:-0.096977237 3:0.75201399 
-8 0 0 1:0.87804348 2:-0.1067664 3:0.75205348 
-8 0 0 1:0.87044735 2:-0.11643251 3:0.80246407 
-8 0 0 1:0.86175821 2:-0.13318604 3:0.88975302 
-8 0 0 1:0.85147443 2:-0.15762846 3:0.92938348 
-8 0 0 1:0.83986399 2:-0.17796319 3:0.92653706 
-8 0 0 1:0.82667554 2:-0.20215097 3:0.90363055 
-8 0 0 1:0.81183778 2:-0.22743113 3:0.8886715 
-8 0 0 1:0.79552015 2:-0.25011447 3:0.92992394 
-8 0 0 1:0.77775171 2:-0.2723524 3:0.97565102 
-8 0 0 1:0.75758797 2:-0.30906712 3:0.98965667 
-8 0 0 1:0.7356637 2:-0.33605228 3:0.99124343 
-8 0 0 1:0.71202367 2:-0.36235135 3:0.98696227 
-8 0 0 1:0.68663896 2:-0.3890935 3:0.98447008 
-8 0 0 1:0.65945162 2:-0.41672404 3:0.9829746 
-8 0 0 1:0.63043554 2:-0.44475465 3:0.98053947 
-8 0 0 1:0.99960178 2:-0.38537643 3:0.24214552 
-8 0 0 1:0.97375899 2:-0.39611498 3:0.28720286 
-8 0 0 1:0.94674198 2:-0.41411306 3:0.3202014 
-8 0 0 1:0.91783695 2:-0.44305257 3:0.32716152 
-8 0 0 1:0.88718889 2:-0.46976948 3:0.31085938 
-8 0 0 1:0.85429781 2:-0.50415008 3:0.28426435 
-8 0 0 1:0.81905007 2:-0.54027273 3:0.25986296 
-8 0 0 1:0.78146906 2:-0.57603677 3:0.25238071 
-8 0 0 1:0.75044554 2:-0.26054173 3:0.86349786 
-8 0 0 1:0.73147038 2:-0.29084865 3:0.857918 
-8 0 0 1:0.71045254 2:-0.32215871 3:0.86478716 
-8 0 0 1:0.68733306 2:-0.35437241 3:0.88043498 
-8 0 0 1:0.66166496 2:-0.39343726 3:0.8815155 
-8 0 0 1:0.63361416 2:-0.42995896 3:0.84556995 
-8 0 0 1:0.60334547 2:-0.46395458 3:0.7984437 
-8 0 0 1:0.84006867 2:-0.54825591 3:0.70091176 
-8 0 0 1:0.82535638 2:-0.50635291 3:0.59913356 
-8 0 0 1:0.81237404 2:-0.47692393 3:0.49120509 
-8 0 0 1:0.80069311 2:-0.45302904 3:0.41911209 
-8 0 0 1:0.78991915 2:-0.43460615 3:0.41642305 
-8 0 0 1:0.77978144 2:-0.42011179 3:0.53693615 
-8 0 0 1:0.7700368 2:-0.40933323 3:0.73189839 
-8 0 0 1:0.76050287 2:-0.40149507 3:0.89149247 
-8 0 0 1:0.75052236 2:-0.40397117 3:0.96453264 
-8 0 0 1:0.72296752 2:-0.42235694 3:0.98545964 
-8 0 0 1:0.69370866 2:-0.44847596 3:0.99008325 
-8 0 0 1:0.49856805 2:-0.49580936 3:0.064341858 
-8 0 0 1:0.46733198 2:-0.47878233 3:0.25305296 
-8 0 0 1:0.91392733 2:-0.40253375 3:0.83439044 
-8 0 0 1:0.88300914 2:-0.47390996 3:0.78541103 
-8 0 0 1:0.56089858 2:-0.39470254 3:0.21844205 
-8 0 0 1:0.53471409 2:-0.40135234 3:0.19072066 
-8 0 0 1:0.50825899 2:-0.40550035 3:0.18238732 
-8 0 0 1:0.48157888 2:-0.40894926 3:0.17788879 
-8 0 0 1:0.45492286 2:-0.40857993 3:0.18129409 
-8 0 0 1:0.42591104 2:-0.44468939 3:0.19133155 
-8 0 0 1:0.39488401 2:-0.47557826 3:0.18129837 
-0 8 0 1:0.24735252 2:-0.61417868 3:0.090603879 
-0 8 0 1:0.20462244 2:-0.6549611 3:0.12031113 
-0 8 0 1:0.16026125 2:-0.67996247 3:0.14542031 
-0 8 0 1:0.11559872 2:-0.68458134 3:0.15052345 
-0 8 0 1:0.071868607 2:-0.67028949 3:0.12625787 
-0 8 0 1:0.030202173 2:-0.63865764 3:0.078327875 
-8 0 0 1:1.3074084 2:-0.21470033 3:0.33674882 
-8 0 0 1:1.2933294 2:-0.21580172 3:0.32309191 
-8 0 0 1:1.278722 2:-0.22389991 3:0.30858991 
-8 0 0 1:1.262498 2:-0.24867976 3:0.30114112 
-8 0 0 1:1.2442387 2:-0.27987623 3:0.29906756 
-8 0 0 1:1.2245162 2:-0.30230388 3:0.30048694 
-8 0 0 1:1.2033318 2:-0.32471117 3:0.30211727 
-8 0 0 1:1.1806278 2:-0.34800423 3:0.30778981 
-8 0 0 1:1.155935 2:-0.3784882 3:0.33916663 
-8 0 0 1:1.1290041 2:-0.41279303 3:0.42276415 
-8 0 0 1:1.0998779 2:-0.44644297 3:0.56548425 
-8 0 0 1:1.0685587 2:-0.48005622 3:0.69233133 
-8 0 0 1:1.035584 2:-0.50543203 3:0.67890547 
-8 0 0 1:1.0021988 2:-0.51172371 3:0.57634283 
