svm_type c_svc
kernel_type rbf
gamma 0.0625
nr_class 4
total_sv 6550
rho 2.28216 -2.61383 -1.81831 -7.69903 -2.54731 -4.8812
label 1 2 3 4
probA -2.38066 -3.02404 -3.20991 -2.1488 -2.79265 -2.1852
probB 0.27302 -0.180028 -0.228411 -0.116158 0.103909 -0.450154
nr_sv 1307 1443 1972 1828
SV
8 0 0 1:1.2775317 2:-0.26734545 3:0 
8 0 0 1:1.251508 2:-0.26023734 3:0 
8 0 0 1:1.289609 2:-0.30314322 3:0 
8 0 0 1:1.2539327 2:-0.35676235 3:0 
8 0 0 1:1.2136092 2:-0.40323497 3:0 
8 0 0 1:1.1688615 2:-0.44747743 3:0 
8 0 0 1:1.1192156 2:-0.49645912 3:0 
8 0 0 1:1.0643766 2:-0.54838941 3:0 
8 0 0 1:1.0044275 2:-0.59949132 3:0 
8 0 0 1:0.93924449 2:-0.65183009 3:0 
8 0 0 1:2.2050998 2:-0.293042 3:-2.3622 
8 0 0 1:2.1693113 2:-0.3578858 3:-2.173224 
8 0 0 1:2.1278039 2:-0.41507377 3:-2.045208 
8 0 0 1:2.0817537 2:-0.46050181 3:-1.959864 
8 0 0 1:2.0322628 2:-0.49490928 3:-1.88976 
8 0 0 1:1.9799774 2:-0.52285347 3:-1.856232 
8 0 0 1:1.9246507 2:-0.55326692 3:-1.868424 
8 0 0 1:1.8644868 2:-0.60163986 3:-1.917192 
8 0 0 1:1.7990931 2:-0.653937 3:-1.978152 
8 0 0 1:1.9153352 2:-0.32853033 3:0.073152 
8 0 0 1:1.8796714 2:-0.35663803 3:0.04572 
8 0 0 1:1.8413212 2:-0.38350189 3:-0.036576 
8 0 0 1:1.8017598 2:-0.39561493 3:-0.170688 
8 0 0 1:1.7626034 2:-0.39156338 3:-0.347472 
8 0 0 1:1.7245471 2:-0.38056278 3:-0.527304 
8 0 0 1:1.6875038 2:-0.3704329 3:-0.588264 
8 0 0 1:1.6512078 2:-0.36296008 3:-0.484632 
8 0 0 1:1.6157246 2:-0.35483191 3:-0.627888 
8 0 0 1:1.5811546 2:-0.34570054 3:-1.213104 
8 0 0 1:1.547273 2:-0.3388163 3:-1.79832 
8 0 0 1:1.5137291 2:-0.33543829 3:-2.078736 
8 0 0 1:1.4818027 2:-0.31926468 3:-1.85928 
8 0 0 1:1.4522504 2:-0.29552312 3:-1.408176 
8 0 0 1:1.3916178 2:-0.27633126 3:-0.88392 
8 0 0 1:1.3581584 2:-0.33459353 3:-1.045464 
8 0 0 1:1.3187486 2:-0.39409794 3:-1.243584 
8 0 0 1:1.2730191 2:-0.45729488 3:-1.408176 
8 0 0 1:1.2211767 2:-0.51842392 3:-1.499616 
8 0 0 1:1.1624823 2:-0.58694431 3:-1.542288 
8 0 0 1:1.0972773 2:-0.65205035 3:-1.606296 
8 0 0 1:1.0261916 2:-0.71085706 3:-1.7526 
8 0 0 1:0.94907379 2:-0.77117764 3:-1.987296 
8 0 0 1:0.86562826 2:-0.8344553 3:-2.279904 
8 0 0 1:1.2670079 2:-0.24222398 3:-1.261872 
8 0 0 1:1.2478731 2:-0.26458191 3:-1.085088 
8 0 0 1:1.2275775 2:-0.28357158 3:-0.905256 
8 0 0 1:1.2063337 2:-0.30025039 3:-0.844296 
8 0 0 1:1.1849991 2:-0.30808189 3:-0.947928 
8 0 0 1:1.1636947 2:-0.31402207 3:-1.078992 
8 0 0 1:1.1427705 2:-0.31582376 3:-1.182624 
8 0 0 1:1.1228553 2:-0.31062308 3:-1.246632 
8 0 0 1:1.1031654 2:-0.31235474 3:-1.286256 
8 0 0 1:1.0859345 2:-0.29130604 3:-1.484376 
8 0 0 1:1.0709243 2:-0.27131957 3:-1.883664 
8 0 0 1:1.0577668 2:-0.25394915 3:-2.389632 
8 0 0 1:1.0333401 2:-0.24426668 3:-2.913888 
8 0 0 1:1.0099561 2:-0.23383973 3:-3.313176 
8 0 0 1:0.98821477 2:-0.21741375 3:-3.477768 
8 0 0 1:0.96821056 2:-0.20004215 3:-3.377184 
8 0 0 1:0.94993904 2:-0.18271514 3:-3.057144 
8 0 0 1:0.93341942 2:-0.16519624 3:-2.57556 
8 0 0 1:0.91877029 2:-0.14649133 3:-2.286 
8 0 0 1:0.90566284 2:-0.1310745 3:-2.420112 
8 0 0 1:0.89466609 2:-0.10996746 3:-2.5146 
8 0 0 1:1.9343792 2:-0.46857587 3:4.581144 
8 0 0 1:1.8843461 2:-0.50033096 3:4.294632 
8 0 0 1:1.4367784 2:-0.25895711 3:1.4478 
8 0 0 1:1.4093348 2:-0.27443533 3:1.377696 
8 0 0 1:1.381887 2:-0.27447835 3:1.286256 
8 0 0 1:1.3549876 2:-0.26899357 3:1.207008 
8 0 0 1:1.3284971 2:-0.26490544 3:1.136904 
8 0 0 1:1.3021392 2:-0.26357862 3:1.143 
8 0 0 1:1.2763744 2:-0.25764827 3:1.24968 
8 0 0 1:1.2517559 2:-0.24618532 3:1.353312 
8 0 0 1:1.068745 2:-0.13118757 3:3.044952 
8 0 0 1:1.0606399 2:-0.081051558 3:3.913632 
8 0 0 1:1.0590564 2:-0.015834402 3:4.453128 
8 0 0 1:1.0641479 2:0.050915187 3:4.70916 
8 0 0 1:1.3889986 2:-0.29820288 3:-1.060704 
8 0 0 1:1.3547291 2:-0.34269499 3:-1.240536 
8 0 0 1:1.3160588 2:-0.38670303 3:-1.243584 
8 0 0 1:1.2741483 2:-0.41910547 3:-1.130808 
8 0 0 1:1.2288907 2:-0.45257558 3:-0.996696 
8 0 0 1:1.1799353 2:-0.48955429 3:-0.832104 
8 0 0 1:1.1271877 2:-0.52747552 3:-0.566928 
8 0 0 1:1.071857 2:-0.55330766 3:-0.195072 
8 0 0 1:1.0127666 2:-0.59090377 3:0.188976 
8 0 0 1:1.3410864 2:-0.27769274 3:-1.08204 
8 0 0 1:1.3093666 2:-0.31719815 3:-0.74676 
8 0 0 1:1.273793 2:-0.35573577 3:-0.381 
8 0 0 1:1.2348682 2:-0.3892484 3:-0.03048 
8 0 0 1:1.1929121 2:-0.41956105 3:0.268224 
8 0 0 1:1.1471734 2:-0.45738742 3:0.438912 
8 0 0 1:1.0973925 2:-0.497809 3:0.362712 
8 0 0 1:2.0770002 2:-0.30323042 3:-2.450592 
8 0 0 1:2.0414874 2:-0.35512794 3:-2.45364 
8 0 0 1:2.0009202 2:-0.40567197 3:-2.420112 
8 0 0 1:1.9549806 2:-0.45939655 3:-2.31648 
8 0 0 1:1.9039958 2:-0.50984791 3:-2.127504 
8 0 0 1:1.8481735 2:-0.55822339 3:-1.880616 
8 0 0 1:1.7877819 2:-0.60391605 3:-1.697736 
8 0 0 1:1.3558737 2:-0.28113549 3:0.70104 
8 0 0 1:1.3261337 2:-0.29740007 3:1.152144 
8 0 0 1:1.2945403 2:-0.31593415 3:1.167384 
8 0 0 1:1.2620347 2:-0.32505561 3:0.762 
8 0 0 1:1.2282974 2:-0.33737318 3:0.192024 
8 0 0 1:1.1940596 2:-0.34237762 3:-0.140208 
8 0 0 1:1.6789173 2:-0.32006318 3:0.006096 
8 0 0 1:1.6448865 2:-0.34030789 3:-0.658368 
8 0 0 1:1.6101691 2:-0.34717461 3:-1.225296 
8 0 0 1:1.5752757 2:-0.34893404 3:-1.383792 
8 0 0 1:1.5411454 2:-0.34130285 3:-1.118616 
8 0 0 1:1.5089081 2:-0.32237287 3:-0.630936 
8 0 0 1:1.4775997 2:-0.31308391 3:-0.201168 
8 0 0 1:1.4476002 2:-0.29999557 3:0.021336 
8 0 0 1:0.97768693 2:-0.27071935 3:0.987552 
8 0 0 1:0.94415261 2:-0.33534314 3:0.844296 
8 0 0 1:0.90412902 2:-0.40023597 3:0.664464 
8 0 0 1:0.85680453 2:-0.47324488 3:0.50292 
8 0 0 1:0.80223815 2:-0.54566379 3:0.41148 
8 0.1176734191955748 0 1:0.74074401 2:-0.61494137 3:0.359664 
8 8 0 1:0.67275116 2:-0.67992857 3:0.24384 
8 8 0 1:0.59952418 2:-0.73226981 3:-0.024384 
8 8 0 1:0.52146471 2:-0.78059461 3:-0.42672 
8 8 0.390813677642132 1:0.43935022 2:-0.82114497 3:-0.886968 
8 0 0 1:1.5922009 2:-0.19709507 3:3.82524 
8 0 0 1:1.5690557 2:-0.2314513 3:3.773424 
8 0 0 1:1.5430724 2:-0.25983383 3:3.166872 
8 0 0 1:1.515107 2:-0.27965331 3:2.298192 
8 0 0 1:1.4862662 2:-0.28840845 3:1.444752 
8 0 0 1:1.4576564 2:-0.28609764 3:0.637032 
8 0 0 1:1.3756905 2:-0.26900391 3:-1.63068 
8 0 0 1:1.3488432 2:-0.26847369 3:-1.770888 
8 0 0 1:1.3215185 2:-0.27324629 3:-1.514856 
8 0 0 1:1.2936106 2:-0.27907906 3:-1.106424 
8 0 0 1:1.2649818 2:-0.28628799 3:-0.77724 
8 0 0 1:1.2345198 2:-0.30462057 3:-0.573024 
8 0 0 1:1.2014485 2:-0.33071259 3:-0.377952 
8 0 0 1:1.1660439 2:-0.35404614 3:-0.073152 
8 0 0 1:1.1290534 2:-0.3699049 3:0.33528 
8 0 0 1:1.0915025 2:-0.37550874 3:0.734568 
8 0 0 1:1.0550243 2:-0.36478213 3:1.02108 
8 0 0 1:1.0206969 2:-0.34327464 3:1.130808 
8 0 0 1:0.98959791 2:-0.3109896 3:1.060704 
8 0 0 1:0.96247471 2:-0.27123199 3:0.859536 
8 0 0 1:0.93897499 2:-0.23499728 3:0.67056 
8 0 0 1:0.91919124 2:-0.19783746 3:0.667512 
8 0 0 1:1.0523146 2:-0.26103755 3:0.277368 
8 0 0 1:1.0210951 2:-0.31219576 3:0.283464 
8 0 0 1:0.98555443 2:-0.35540631 3:0.399288 
8 0 0 1:0.94685599 2:-0.38698437 3:0.505968 
8 0 0 1:0.90449013 2:-0.42365864 3:0.509016 
8 0 0 1:0.85819423 2:-0.46295893 3:0.402336 
8 0 0 1:0.80817631 2:-0.5001793 3:0.176784 
8 0 0 1:1.362973 2:-0.093671092 3:4.184904 
8 0 0 1:1.3526781 2:-0.10294875 3:4.413504 
8 0 0 1:1.3428731 2:-0.098050377 3:4.23672 
8 0 0 1:1.3331448 2:-0.097282452 3:3.82524 
8 0 0 1:1.2517212 2:-0.26747699 3:1.277112 
8 0 0 1:1.2217688 2:-0.29952329 3:1.271016 
8 0 0 1:1.1891069 2:-0.32661939 3:1.359408 
8 0 0 1:1.1538281 2:-0.352788 3:1.740408 
8 0 0 1:1.1155538 2:-0.38274299 3:2.258568 
8 0 0 1:1.0753509 2:-0.40202936 3:2.563368 
3.724525996079158 0 0 1:1.191208 2:-0.20434535 3:-1.627632 
8 0 0 1:0.98031274 2:-0.19748208 3:-0.54864 
8 0 0 1:0.95684109 2:-0.23471649 3:-0.758952 
8 0 0 1:0.93178145 2:-0.25059641 3:-0.801624 
8 0 0 1:0.90561573 2:-0.26165719 3:-0.850392 
8 0 0 1:0.87808827 2:-0.27527461 3:-0.874776 
8 0 0 1:0.84927604 2:-0.28812238 3:-0.704088 
8 0 0 1:0.81934286 2:-0.29933171 3:-0.265176 
8 0 0 1:0.78926601 2:-0.30076856 3:0.298704 
8 0 0 1:0.76041745 2:-0.28848558 3:0.6858 
8 0 0 1:0.73383374 2:-0.26583715 3:0.771144 
8 0 0 1:0.70948479 2:-0.24348943 3:0.59436 
8 0 0 1:0.68681493 2:-0.22669865 3:0.237744 
8 0 0 1:0.66672281 2:-0.20092118 3:-0.134112 
8 0 0 1:0.65033791 2:-0.163849 3:-0.390144 
8 0 0 1:0.6373367 2:-0.13001206 3:-0.499872 
8 0 0 1:0.62693457 2:-0.10402134 3:-0.50292 
8 0 0 1:0.61859647 2:-0.083381049 3:-0.438912 
8 0 0 1:0.61242399 2:-0.061724712 3:-0.356616 
8 0 0 1:0.60926606 2:-0.031579352 3:-0.307848 
8 0 0 1:0.76546444 2:-0.19273023 3:-4.002024 
8 0 0 1:0.74091771 2:-0.24546728 3:-3.93192 
8 0 0 1:0.71375452 2:-0.27163194 3:-3.727704 
8 0 0 1:0.68353334 2:-0.3022118 3:-3.532632 
8 0 0 1:0.64960889 2:-0.33924447 3:-3.441192 
8 0 0 1:0.61266465 2:-0.3694424 3:-3.514344 
8 0 0 1:0.57217409 2:-0.40490561 3:-3.77952 
8 0 0 1:0.52819283 2:-0.43981267 3:-4.090416 
8 0 0 1:1.1344712 2:-0.24710778 3:0.003048 
8 0 0 1:1.1084295 2:-0.26041666 3:0 
8 0 0 1:1.0810887 2:-0.27340768 3:0 
8 0 0 1:1.0524795 2:-0.28609263 3:-0.006096 
8 0 0 1:1.0234874 2:-0.28992063 3:-0.009144 
8 0 0 1:0.99446212 2:-0.29025304 3:-0.073152 
8 0 0 1:0.96545737 2:-0.29004744 3:-0.176784 
8 0 0 1:0.93650745 2:-0.28949919 3:-0.088392 
8 0 0 1:0.90751347 2:-0.28993985 3:0.256032 
8 0 0 1:0.87850134 2:-0.29012131 3:0.771144 
8 0 0 1:0.84954059 2:-0.28960744 3:1.258824 
8 0 0 1:0.81973217 2:-0.29808419 3:1.490472 
8 0 0 1:0.78911719 2:-0.30614983 3:1.527048 
8 0 0 1:0.75776 2:-0.31357191 3:1.520952 
8 0 0 1:0.72577838 2:-0.31981622 3:1.514856 
8 0 0 1:0.69288017 2:-0.32898214 3:1.517904 
8 0 0 1:0.65901552 2:-0.33864644 3:1.520952 
8 0 0 1:0.62470378 2:-0.34311738 3:1.524 
8 0 0 1:0.59151627 2:-0.33187508 3:1.560576 
8 0 0 1:0.56109928 2:-0.30416997 3:1.716024 
8 0 0 1:0.53493346 2:-0.26165818 3:2.097024 
8 0 0 1:0.51263343 2:-0.2230003 3:2.633472 
8 0 0 1:0.49304259 2:-0.19590844 3:3.051048 
8 0 0 1:0.47510763 2:-0.1793496 3:3.206496 
8 0 0 1:0.45818085 2:-0.16926778 3:3.112008 
8 0 0 1:0.44203392 2:-0.16146931 3:2.907792 
8 0 0 1:0.42733635 2:-0.14697571 3:2.718816 
8 0 0 1:0.41479794 2:-0.12538408 3:2.505456 
8 0 0 1:0.40387798 2:-0.10919959 3:2.24028 
8 0 0 1:0.39394755 2:-0.09930428 3:1.99644 
8 0 0 1:0.78868623 2:-0.078560567 3:-1.530096 
8 0 0 1:0.77517991 2:-0.13506318 3:-1.533144 
8 0 0 1:0.75656018 2:-0.18619736 3:-1.49352 
8 0 0 1:0.7327648 2:-0.23795377 3:-1.411224 
8 0 0 1:0.70393299 2:-0.28831812 3:-1.277112 
8 0 0 1:0.66960927 2:-0.34323712 3:-1.02108 
8 8 0 1:0.63007794 2:-0.39531332 3:-0.652272 
8 8 0 1:0.5850295 2:-0.45048441 3:-0.231648 
8 8 0 1:0.53492035 2:-0.50109152 3:0.13716 
8 0 0 1:1.4698213 2:-0.31920628 3:-1.243584 
8 0 0 1:1.4348031 2:-0.35018262 3:-1.624584 
8 0 0 1:1.3972549 2:-0.37548137 3:-1.932432 
8 0 0 1:1.3577803 2:-0.3947463 3:-2.154936 
8 0 0 1:1.317878 2:-0.39902348 3:-2.218944 
8 0 0 1:1.2796154 2:-0.38262593 3:-2.212848 
8 0 0 1:1.2433194 2:-0.36295949 3:-2.267712 
8 0 0 1:1.208564 2:-0.34755433 3:-2.459736 
8 0 0 1:1.1746934 2:-0.33870575 3:-2.709672 
8 0 0 1:1.1418716 2:-0.32821763 3:-2.767584 
8 0 0 1:1.110992 2:-0.30879661 3:-2.45364 
8 0 0 1:1.0820688 2:-0.2892321 3:-1.716024 
8 0 0 1:1.0553756 2:-0.26693136 3:-0.786384 
8 0 0 1:1.0306447 2:-0.24730963 3:-0.048768 
8 0 0 1:1.0085409 2:-0.22103749 3:0.356616 
8 0 0 1:1.3522472 2:-0.23677182 3:-2.365248 
8 0 0 1:1.3228776 2:-0.29369652 3:-2.551176 
8 0 0 1:1.2876809 2:-0.35196703 3:-2.447544 
8 0 0 1:1.2458245 2:-0.41856345 3:-2.170176 
8 0 0 1:1.1974099 2:-0.48414668 3:-1.877568 
8 0 0 1:1.976313 2:-0.30237487 3:0.926592 
8 0 0 1:1.9457718 2:-0.30541182 3:1.072896 
8 0 0 1:1.915541 2:-0.30230855 3:1.15824 
8 0 0 1:1.8864008 2:-0.29140188 3:1.182624 
8 0 0 1:1.8590408 2:-0.2736 3:1.152144 
8 0 0 1:1.6071219 2:-0.2940049 3:1.121664 
8 0 0 1:1.5744433 2:-0.32678607 3:1.365504 
8 0 0 1:1.5392348 2:-0.35208406 3:1.536192 
8 0 0 1:1.5019613 2:-0.37273577 3:1.359408 
8 0 0 1:1.4627892 2:-0.39172109 3:1.045464 
8 0 0 1:2.1593658 2:-0.29434283 3:2.029968 
8 0 0 1:2.1266184 2:-0.32747362 3:1.78308 
8 0 0 1:2.0912359 2:-0.35382532 3:1.475232 
8 0 0 1:2.0537616 2:-0.37474258 3:1.182624 
8 0 0 1:2.0166663 2:-0.37095312 3:1.027176 
8 0 0 1:1.9808686 2:-0.35797756 3:1.15824 
8 0 0 1:1.9463864 2:-0.3448215 3:1.453896 
8 0 0 1:1.914451 2:-0.31935464 3:1.560576 
8 0 0 1:1.8864383 2:-0.28012672 3:1.490472 
8 0 0 1:1.5114556 2:-0.30338543 3:-1.12776 
8 0 0 1:1.4811449 2:-0.30310709 3:-1.155192 
8 0 0 1:1.4505212 2:-0.30623694 3:-1.267968 
8 0 0 1:1.4197305 2:-0.30790618 3:-1.408176 
8 0 0 1:1.3886373 2:-0.31093219 3:-1.502664 
8 0 0 1:1.3568062 2:-0.31831156 3:-1.536192 
8 0 0 1:1.3239771 2:-0.32829016 3:-1.514856 
8 0 0 1:1.290356 2:-0.3362118 3:-1.444752 
8 0 0 1:1.2558314 2:-0.34524519 3:-1.313688 
8 0 0 1:1.220557 2:-0.3527449 3:-1.152144 
8 0 0 1:1.1840469 2:-0.36510024 3:-1.039368 
8 0 0 1:1.14649 2:-0.37556922 3:-1.008888 
8 0 0 1:1.1077971 2:-0.38692951 3:-1.039368 
8 0 0 1:1.0682758 2:-0.39521303 3:-1.085088 
8 0 0 1:1.0278203 2:-0.40455504 3:-1.094232 
8 0 0 1:0.98621449 2:-0.41605761 3:-1.060704 
8 0 0 1:0.94426115 2:-0.41953341 3:-1.088136 
8 0 0 1:0.901964 2:-0.42297155 3:-1.179576 
8 0 0 1:0.85896262 2:-0.43001375 3:-1.319784 
8 0 0 1:0.81614308 2:-0.42819545 3:-1.487424 
8 0 0 1:0.7754227 2:-0.40720379 3:-1.639824 
8 0 0 1:0.73713942 2:-0.38283283 3:-1.780032 
8 0 0 1:0.70081527 2:-0.36324144 3:-1.88976 
8 0 0 1:0.66555701 2:-0.35258257 3:-1.886712 
8 0 0 1:0.6317674 2:-0.33789613 3:-1.804416 
8 0 0 1:0.60013681 2:-0.31630595 3:-1.734312 
8 0 0 1:0.57085994 2:-0.29276863 3:-1.716024 
8 0 0 1:0.54390853 2:-0.26951417 3:-1.786128 
8 0 0 1:0.51921592 2:-0.24692606 3:-1.92024 
8 0 0 1:0.49669708 2:-0.22518841 3:-2.069592 
8 0 0 1:0.4770576 2:-0.19639476 3:-2.200656 
8 0 0 1:0.46057189 2:-0.16485713 3:-2.264664 
8 0 0 1:0.44718642 2:-0.13385473 3:-2.249424 
8 0 0 1:0.43638004 2:-0.10806375 3:-2.197608 
8 0 0 1:0.42801593 2:-0.08364115 3:-2.109216 
8 0 0 1:0.42248507 2:-0.055308593 3:-1.962912 
8 0 0 1:0.41962113 2:-0.028639437 3:-1.776984 
8 0 0 1:0.41955574 2:-0.00065388755 3:-1.61544 
8 0 6.741613052795431 1:0.42201316 2:0.024574234 3:-1.527048 
8 0 0 1:0.42704117 2:0.050280071 3:-1.511808 
8 0 0 1:0.43462955 2:0.075883848 3:-1.517904 
8 0 0 1:0.44443404 2:0.098044888 3:-1.490472 
8 0 0 1:0.45629071 2:0.11856665 3:-1.411224 
8 0 0 1:0.47052424 2:0.14233536 3:-1.350264 
0.6430556871738999 0 0 1:0.5142925 2:0.14005548 3:-1.908048 
8 0 0 1:1.1569165 2:-0.24857983 3:-0.813816 
8 0 0 1:1.1306571 2:-0.26259392 3:-0.713232 
8 0 0 1:1.1038681 2:-0.26788938 3:-0.74676 
8 0 0 1:1.0775772 2:-0.26290918 3:-1.05156 
8 0 0 1:1.0504194 2:-0.27157774 3:-1.594104 
8 0 0 1:2.1177818 2:-0.33888429 3:0 
8 0 0 1:2.0841672 2:-0.3361459 3:0 
8 0 0 1:1.1930301 2:-0.24964379 3:0 
8 0 0 1:1.1679711 2:-0.25059021 3:0 
8 0 0 1:1.1425389 2:-0.25432163 3:0 
8 0 0 1:1.1159421 2:-0.26596793 3:0 
8 0 0 1:1.0880988 2:-0.27843362 3:0 
8 0 0 1:1.0597285 2:-0.28370253 3:0 
8 0 0 1:1.032525 2:-0.27203523 3:0 
8 0 0 1:1.0082767 2:-0.24248275 3:0 
8 0 0 1:1.1480237 2:-0.06358727 3:5.715 
8 0 0 1:1.1403546 2:-0.076690369 3:5.705856 
8 0 0 1:1.1322847 2:-0.080699088 3:5.757672 
8 0 0 1:1.1233854 2:-0.088993126 3:5.766816 
8 0 0 1:0.94399712 2:-0.20704318 3:0 
8 0 0 1:0.92212134 2:-0.21875779 3:0 
8 0 0 1:0.90060051 2:-0.21520833 3:0 
8 0 0 1:0.87993415 2:-0.20666361 3:0 
8 0 0 1:0.86021203 2:-0.19722119 3:0 
8 0 0 1:0.84135946 2:-0.18852567 3:0 
8 0 0 1:0.82353466 2:-0.17824804 3:0 
8 0 0 1:0.80740587 2:-0.16128788 3:0 
8 0 0 1:0.79299979 2:-0.14406076 3:0 
8 0 0 1:0.78034629 2:-0.126535 3:0 
8 0 0 1:0.74337218 2:-0.14530249 3:0 
8 0 0 1:0.72447972 2:-0.18892463 3:0 
8 0 0 1:0.70216275 2:-0.22316971 3:0 
8 0 0 1:1.7196561 2:-0.26094366 3:3.922776 
8 0 0 1:1.6894475 2:-0.30208597 3:4.367784 
8 0 0 1:1.6551517 2:-0.34295873 3:4.69392 
8 0 0 1:1.6165345 2:-0.38617127 3:4.672584 
8 0 0 1:1.574486 2:-0.42048501 3:4.273296 
8 0 0 1:1.5295802 2:-0.44905867 3:3.70332 
8 0 0 1:1.4817764 2:-0.47803802 3:3.453384 
8 0 0 1:1.4337811 2:-0.47995236 3:3.453384 
8 0 0 1:1.3875376 2:-0.46243555 3:3.456432 
8 0 0 1:1.3452963 2:-0.42241287 3:3.453384 
8 0 0 1:1.305072 2:-0.40224306 3:3.456432 
8 0 0 1:1.2662365 2:-0.38835527 3:3.456432 
8 0 0 1:1.2270523 2:-0.39184151 3:3.45948 
8 0 0 1:1.1890059 2:-0.38046385 3:3.456432 
8 0 0 1:1.1523043 2:-0.36701641 3:3.422904 
8 0 0 1:1.1170553 2:-0.35248955 3:3.33756 
8 0 0 1:1.0844807 2:-0.32574595 3:3.218688 
8 0 0 1:1.0551844 2:-0.29296355 3:3.130296 
8 0 0 1:1.0291981 2:-0.25986241 3:3.048 
8 0 0 1:1.0062229 2:-0.22975222 3:2.919984 
8 0 0 1:0.98525968 2:-0.20963229 3:2.84988 
8 0 0 1:0.96623334 2:-0.19026333 3:2.843784 
8 0 0 1:0.949257 2:-0.16976346 3:2.886456 
8 0 0 1:0.93442621 2:-0.14830789 3:2.944368 
8 0 0 1:0.92135091 2:-0.130753 3:2.883408 
8 0 0 1:1.1928165 2:-0.036887604 3:3.959352 
8 0 0 1:1.1856866 2:-0.071299503 3:3.828288 
8 0 0 1:1.1750755 2:-0.10611087 3:3.651504 
8 0 0 1:1.1609686 2:-0.14106936 3:3.608832 
8 0 0 1:1.1434066 2:-0.17561984 3:3.575304 
8 0 0 1:1.1224107 2:-0.2099592 3:3.422904 
8 0 0 1:1.0979229 2:-0.24487734 3:3.09372 
8 0 0 1:1.0698128 2:-0.28110156 3:2.670048 
8 0 0 1:1.0389165 2:-0.30896267 3:2.404872 
8 0 0 1:1.0047662 2:-0.34150298 3:2.310384 
8 0 0 1:0.9684888 2:-0.36277404 3:2.282952 
8 0 0 1:0.93233575 2:-0.36153054 3:2.286 
8 0 0 1:0.89826332 2:-0.34072425 3:2.298192 
8 0 0 1:0.86515831 2:-0.33105016 3:2.313432 
8 0 0 1:0.83201217 2:-0.33146141 3:2.304288 
8 0 0 1:0.7991023 2:-0.32909871 3:2.261616 
8 0 0 1:0.7688006 2:-0.30301697 3:2.22504 
8 0 0 1:0.74133393 2:-0.27466671 3:0 
8 0 0 1:0.71708788 2:-0.24246051 3:0 
8 0 0 1:0.6955202 2:-0.2156768 3:0 
8 0 0 1:0.67663432 2:-0.18885873 3:0 
8 0 0 1:0.66057664 2:-0.16057682 3:0 
8 0 0 1:0.64694672 2:-0.13629921 3:0 
8 0 0 1:0.63618874 2:-0.10757976 3:0 
8 0 0 1:0.62801724 2:-0.081715029 3:0 
1.774697268148589 0 0 1:0.6224515 2:-0.055657433 3:0 
8 0 0 1:0.70963345 2:-0.094480679 3:0 
8 0 0 1:0.70020877 2:-0.094246742 3:0 
8 0 0 1:0.69085333 2:-0.093554394 3:0 
8 0 0 1:0.6815745 2:-0.092788346 3:0 
8 0 0 1:0.67234834 2:-0.092261578 3:0 
8 0 0 1:0.66333563 2:-0.090127148 3:0 
8 0 0 1:0.65488431 2:-0.084513153 3:0 
8 0 0 1:0.64688018 2:-0.080041367 3:0 
8 0 0 1:0.63924618 2:-0.07633998 3:0 
8 0 0 1:0.63209484 2:-0.071513348 3:0 
8 0 0 1:0.62549994 2:-0.06594902 3:0 
8 0 0 1:0.61927359 2:-0.062263474 3:0 
8 0 0 1:0.6134381 2:-0.058354972 3:0 
8 0 0 1:0.60784295 2:-0.055951412 3:0 
8 0 0 1:0.60288958 2:-0.049533777 3:0 
8 0 0 1:0.64114397 2:-0.066589439 3:0 
8 0 0 1:0.63389051 2:-0.072534615 3:0 
8 0 0 1:0.62601167 2:-0.078788425 3:0 
8 0 0 1:0.61831594 2:-0.076957283 3:0 
8 0 0 1:0.61094642 2:-0.073695172 3:0 
8 0 0 1:0.60471273 2:-0.062336893 3:0 
8 0 0 1:0.59956229 2:-0.05150438 3:0 
8 0 0 1:0.76962963 2:-0.16466032 3:0.268224 
8 0 0 1:2.5669952 2:-0.32234695 3:0.356616 
8 0 0 1:2.5343374 2:-0.32657747 3:0.359664 
8 0 0 1:2.5014768 2:-0.3286064 3:0.359664 
8 0 0 1:2.4682554 2:-0.3322139 3:0.359664 
8 0 0 1:2.4361165 2:-0.32138872 3:0.359664 
8 0 0 1:1.9063727 2:-0.39515782 3:-1.130808 
8 0 0 1:1.8590463 2:-0.47326396 3:-1.277112 
8 0 0 1:1.8045506 2:-0.54495793 3:-1.368552 
8 0 0 1:1.7426188 2:-0.61931716 3:-1.444752 
8 0 0 1:1.6729118 2:-0.69707081 3:-1.621536 
8 0 0 1:1.5962635 2:-0.76648287 3:-2.07264 
8 0 0 1:1.5131856 2:-0.83077886 3:-2.593848 
8 0 0 1:1.4262751 2:-0.86910442 3:-2.755392 
8 0 0 1:1.3371664 2:-0.89108695 3:-2.426208 
8 0 0 1:1.6870198 2:-0.28483976 3:1.057656 
8 0 0 1:1.6580277 2:-0.28992044 3:0.841248 
8 0 0 1:1.3030406 2:-0.31399656 3:-0.420624 
8 0 0 1:1.2675434 2:-0.35497195 3:-0.50292 
8 0 0 1:1.22826 2:-0.39283375 3:-0.633984 
8 0 0 1:1.1843977 2:-0.43862295 3:-0.73152 
8 0 0 1:1.1364133 2:-0.47984375 3:-0.758952 
8 0 0 1:1.0852664 2:-0.51146934 3:-0.789432 
8 0 0 1:1.0317418 2:-0.53524613 3:-0.932688 
8 0 0 1:0.97590147 2:-0.55840309 3:-1.17348 
8 0 0 1:0.91720849 2:-0.58692982 3:-1.380744 
8 0 0 1:0.85591685 2:-0.61291638 3:-1.481328 
8 0 0 1:0.79219855 2:-0.63718304 3:-1.499616 
8 0 0 1:1.1810034 2:-0.24027729 3:-0.57912 
8 0 0 1:1.1573643 2:-0.23639047 3:-0.783336 
8 0 0 1:1.1338163 2:-0.23548018 3:-0.789432 
8 0 0 1:1.1109225 2:-0.22893782 3:-0.588264 
8 0 0 1:1.0895882 2:-0.21334344 3:-0.3048 
8 0 0 1:2.0099949 2:-0.3166373 3:2.37744 
8 0 0 1:1.3919478 2:-0.28879579 3:0.798576 
8 0 0 1:1.3610685 2:-0.30879348 3:0.713232 
8 0 0 1:1.3284092 2:-0.32659303 3:0.62484 
8 0 0 1:1.2945103 2:-0.33898925 3:0.490728 
8 0 0 1:1.2598979 2:-0.34612315 3:0.344424 
8 0 0 1:1.224511 2:-0.35386946 3:0.271272 
8 0 0 1:1.1879905 2:-0.36520473 3:0.329184 
8 0 0 1:1.1519032 2:-0.36087273 3:0.484632 
8 0 0 1:1.1177231 2:-0.34180172 3:0.606552 
8 0 0 1:2.6369039 2:-0.34270517 3:-0.018288 
8 0 0 1:2.5979126 2:-0.38991301 3:-0.057912 
8 0 0 1:2.5533775 2:-0.44535134 3:-0.048768 
8 0 0 1:2.5031915 2:-0.50185969 3:-0.003048 
7.301378296482435 0 0 1:1.9320829 2:-0.25754558 3:2.292096 
8 0 0 1:1.9033627 2:-0.28720146 3:2.295144 
8 0 0 1:1.8715239 2:-0.31838772 3:2.221992 
8 0 0 1:1.8371406 2:-0.34383317 3:2.14884 
8 0 0 1:1.8015289 2:-0.35611775 3:2.127504 
8 0 0 1:1.7662385 2:-0.35290317 3:2.109216 
8 0 0 1:1.7332933 2:-0.32945249 3:2.033016 
8 0 0 1:1.7032957 2:-0.29997599 3:1.929384 
8 0 0 1:1.6755885 2:-0.27707165 3:1.901952 
8 0 0 1:1.6488891 2:-0.26699471 3:2.039112 
8 0 0 1:1.6231735 2:-0.25715562 3:2.286 
8 0 0 1:1.5983613 2:-0.24812187 3:2.462784 
8 0 0 1:1.5752067 2:-0.23154632 3:2.426208 
8 0 0 1:1.5657756 2:-0.30950298 3:0.347472 
8 0 0 1:1.5348933 2:-0.30882307 3:0.188976 
8 0 0 1:1.503964 2:-0.30929294 3:0.064008 
8 0 0 1:1.4724886 2:-0.31475324 3:0.006096 
8 0 0 1:1.4407816 2:-0.31707017 3:0 
8 0 0 1:1.4102579 2:-0.30523742 3:0.009144 
8 0 0 1:1.3815853 2:-0.2867256 3:0.01524 
8 0 0 1:1.5660437 2:-0.29098683 3:1.20396 
8 0 0 1:1.5339188 2:-0.32124945 3:1.536192 
8 0 0 1:1.4996777 2:-0.34241113 3:1.908048 
8 0 0 1:1.4648247 2:-0.34852975 3:2.30124 
8 0 0 1:1.4325169 2:-0.32307834 3:2.670048 
8 0 0 1:1.4060638 2:-0.26453079 3:2.94132 
8 0 0 1:1.3878442 2:-0.18219616 3:3.057144 
8 0 0 1:1.3535554 2:-0.3045253 3:-1.511808 
8 0 0 1:1.3206472 2:-0.32908241 3:-1.639824 
8 0 0 1:1.2859103 2:-0.3473685 3:-1.682496 
8 0 0 1:1.2502577 2:-0.35652627 3:-1.655064 
8 0 0 1:1.2139757 2:-0.36281973 3:-1.58496 
8 0 0 1:1.1777697 2:-0.36205984 3:-1.527048 
8 0 0 1:1.1427324 2:-0.35037311 3:-1.502664 
8 0 0 1:1.1098403 2:-0.32892084 3:-1.502664 
8 0 0 1:1.0803352 2:-0.29505134 3:-1.472184 
8 0 0 1:1.0551987 2:-0.25136489 3:-1.338072 
8 0 0 1:1.0334479 2:-0.21750799 3:-1.115568 
8 0 0 1:1.014818 2:-0.18629931 3:-0.920496 
8 0 0 1:0.93834215 2:-0.12980464 3:-2.798064 
8 0 0 1:0.92496911 2:-0.13373044 3:-2.75844 
8 0 0 1:0.91210326 2:-0.12865844 3:-2.624328 
8 0 0 1:0.90028821 2:-0.11815057 3:-2.371344 
8 0 0 1:0.88918699 2:-0.1110122 3:-2.02692 
8 0 0 1:0.87900509 2:-0.10181901 3:-1.688592 
8 0 0 1:0.86974101 2:-0.092640734 3:-1.453896 
8 0 0 1:0.8615758 2:-0.081652105 3:-1.450848 
8 0 0 1:0.83474794 2:-0.077355618 3:-1.761744 
8 0 0 1:0.82221658 2:-0.1253136 3:-1.453896 
8 0 0 1:0.80483048 2:-0.17386102 3:-1.362456 
8 0 0 1:0.78182365 2:-0.23006829 3:-1.399032 
8 0 0 1:0.7546991 2:-0.27124545 3:-1.50876 
8 0 0 1:0.72454933 2:-0.30149773 3:-1.69164 
8 0 0 1:0.69335235 2:-0.31196986 3:-1.877568 
8 0 0 1:0.66045817 2:-0.32894177 3:-1.944624 
8 0 0 1:0.62470439 2:-0.35753777 3:-1.743456 
8 0.1940994982802268 0 1:0.58555471 2:-0.39149684 3:-1.258824 
5.574193380488794 0 0 1:1.6696425 2:-0.29671725 3:0.573024 
8 0 0 1:1.6393516 2:-0.30290955 3:0.74676 
8 0 0 1:1.6083823 2:-0.30969235 3:0.832104 
8 0 0 1:1.5767627 2:-0.31619625 3:0.826008 
8 0 0 1:1.5445195 2:-0.32243236 3:0.710184 
8 0 0 1:1.5115825 2:-0.32936976 3:0.539496 
8 0 0 1:1.4782297 2:-0.33352795 3:0.438912 
8 0 0 1:1.4444044 2:-0.33825286 3:0.50292 
8 0 0 1:1.4109435 2:-0.33460876 3:0.73152 
8 0 0 1:1.3792578 2:-0.31685792 3:1.027176 
8 0 0 1:1.3498855 2:-0.29372252 3:1.28016 
8 0 0 1:1.3221302 2:-0.27755318 3:1.383792 
8 0 0 1:1.2947722 2:-0.27357936 3:1.313688 
8 0 0 1:1.2680949 2:-0.26677373 3:1.094232 
8 0 0 1:1.6805052 2:-0.3162063 3:0.429768 
8 0 0 1:1.647825 2:-0.32680254 3:0.377952 
8 0 0 1:1.6146085 2:-0.33216512 3:0.42672 
8 0 0 1:1.5811922 2:-0.33416295 3:0.661416 
8 0 0 1:1.5494195 2:-0.31772636 3:1.00584 
8 0 0 1:1.521044 2:-0.28375543 3:1.075944 
8 0 0 1:1.374084 2:-0.22790948 3:1.984248 
8 0 0 1:1.3518188 2:-0.22265277 3:2.31648 
8 0 0 1:1.3300876 2:-0.21731208 3:2.456688 
8 0 0 1:1.3085583 2:-0.21529242 3:2.410968 
8 0 0 1:1.2873487 2:-0.21209639 3:2.3622 
8 0 0 1:1.2681859 2:-0.19162799 3:2.365248 
8 0 0 1:2.1040863 2:-0.38658935 3:0.012192 
8 0 0 1:2.0586317 2:-0.45454612 3:-0.051816 
8 0 0 1:2.0071484 2:-0.5148337 3:-0.283464 
8 0 0 1:1.9506317 2:-0.56516633 3:-0.50292 
8 0 0 1:1.1705067 2:-0.17667103 3:2.40792 
8 0 0 1:1.152831 2:-0.17675704 3:2.459736 
8 0 0 1:1.1355515 2:-0.17279452 3:2.42316 
8 0 0 1:1.298255 2:-0.28798501 3:0.466344 
8 0 0 1:1.2672102 2:-0.3104474 3:0.557784 
8 0 0 1:1.2345993 2:-0.32610926 3:0.591312 
8 0 0 1:1.2009236 2:-0.33675744 3:0.65532 
8 0 0 1:2.0918791 2:-0.35790082 3:-0.82296 
8 0 0 1:2.0530856 2:-0.38793505 3:0.399288 
8 0 0 1:2.0115209 2:-0.41564714 3:2.404872 
8 0 0 1:1.968207 2:-0.43313919 3:4.364736 
8 0 0 1:1.879941 2:-0.44199344 3:5.1816 
8 0 0 1:1.8361357 2:-0.43805283 3:3.831336 
8 0 0 1:1.7936676 2:-0.42468127 3:2.203704 
8 0 0 1:1.7539202 2:-0.39747396 3:0.80772 
8 0 0 1:1.7174487 2:-0.36471463 3:-0.109728 
8 0 0 1:1.6836884 2:-0.33760262 3:-0.51816 
8 0 0 1:1.6510853 2:-0.32603166 3:-0.71628 
8 0 0 1:1.6189625 2:-0.32122802 3:-0.941832 
8 0 0 1:1.5877339 2:-0.31228593 3:-1.213104 
8 0 0 1:1.5573638 2:-0.30370106 3:-1.4478 
8 0 0 1:1.5277142 2:-0.29649628 3:-1.7526 
8 0 0 1:1.4991326 2:-0.28581602 3:-2.182368 
8 0 0 1:1.4736465 2:-0.25486042 3:-2.447544 
8 0 0 1:1.3905315 2:-0.29901244 3:-1.697736 
8 0 0 1:1.3556355 2:-0.34895939 3:-2.212848 
8 0 0 1:1.3158397 2:-0.39795816 3:-2.615184 
8 0 0 1:1.271 2:-0.4483975 3:-2.798064 
8 0 0 1:1.2210718 2:-0.49928149 3:-2.813304 
8 0 0 1:1.1658964 2:-0.55175396 3:-2.779776 
8 0 0 1:1.104764 2:-0.6113243 3:-2.828544 
8 0 0 1:1.0393249 2:-0.65439036 3:-3.03276 
8 0 0 1:2.3664478 2:-0.36006956 3:-0.633984 
8 0 0 1:2.3238153 2:-0.42632501 3:-0.877824 
8 0 0 1:2.2768123 2:-0.47003028 3:-1.011936 
8 0 0 1:1.4833786 2:-0.3057769 3:-1.725168 
8 0 0 1:1.450534 2:-0.32844571 3:-1.850136 
8 0 0 1:1.4171134 2:-0.33420604 3:-1.624584 
8 0 0 1:1.3847264 2:-0.32387016 3:-1.505712 
8 0 0 1:1.3526163 2:-0.32110038 3:-1.499616 
8 0 0 1:1.3193101 2:-0.33306267 3:-1.499616 
8 0 0 1:1.2834749 2:-0.35835154 3:-1.499616 
8 0 0 1:1.2472171 2:-0.36257791 3:-1.511808 
8 0 0 1:1.2123922 2:-0.34824939 3:-1.545336 
8 0 0 1:1.1789729 2:-0.33419326 3:-1.603248 
8 0 0 1:1.1466708 2:-0.32302073 3:-1.673352 
8 0 0 1:1.1154938 2:-0.31177012 3:-1.712976 
8 0 0 1:1.0876413 2:-0.27852425 3:-1.682496 
8 0 0 1:1.0635104 2:-0.24130988 3:-1.591056 
8 0 0 1:1.0426797 2:-0.20830671 3:-1.50876 
8 0 0 1:1.0251622 2:-0.17517515 3:-1.505712 
8 0 0 1:1.0103514 2:-0.14810788 3:-1.578864 
8 0 0 1:1.4768962 2:-0.31472856 3:0.216408 
8 0 0 1:1.4443386 2:-0.32557582 3:0.01524 
8 0 0 1:1.4107712 2:-0.33567481 3:-0.262128 
8 0 0 1:1.375668 2:-0.35103147 3:-0.484632 
8 0 0 1:1.3393147 2:-0.36353274 3:-0.600456 
8 0 0 1:1.3021827 2:-0.37132043 3:-0.740664 
8 0 0 1:1.2645754 2:-0.37607263 3:-0.96012 
8 0 0 1:1.2260809 2:-0.38494532 3:-1.194816 
8 0 0 1:1.1865624 2:-0.39518542 3:-1.32588 
8 0 0 1:1.1460622 2:-0.40500118 3:-1.267968 
8 0 0 1:1.1045861 2:-0.41476185 3:-1.155192 
8 0 0 1:1.0632916 2:-0.41294482 3:-1.121664 
8 0 0 1:1.0242509 2:-0.39040656 3:-1.139952 
8 0 0 1:0.98796404 2:-0.36286877 3:-1.149096 
8 0 0 1:0.95401062 2:-0.33953424 3:-1.109472 
8 0 0 1:0.92109246 2:-0.32918156 3:-1.054608 
8 0 0 1:0.88918178 2:-0.31910678 3:-1.00584 
8 0 0 1:0.85930555 2:-0.2987623 3:-0.856488 
8 0 0 1:0.83169957 2:-0.27605981 3:-0.591312 
8 0 0 1:0.80660226 2:-0.25097313 3:-0.3048 
8 0 0 1:0.78439682 2:-0.22205443 3:-0.112776 
8 0 0 1:0.76499239 2:-0.19404426 3:-0.073152 
8 0 0 1:0.74860164 2:-0.16390747 3:-0.088392 
8 0 0 1:0.7348392 2:-0.13762447 3:-0.067056 
8 0 0 1:0.72378091 2:-0.11058286 3:-0.027432 
8 0 0 1:1.6460616 2:-0.33429932 3:-1.15824 
8 0 0 1:1.6105334 2:-0.35528266 3:-1.277112 
8 0 0 1:1.5733344 2:-0.37198944 3:-1.301496 
8 0 0 1:1.5349274 2:-0.38407019 3:-1.121664 
8 0 0 1:1.4953195 2:-0.39607902 3:-0.96012 
8 0 0 1:1.4545206 2:-0.40798915 3:-0.957072 
8 0 0 1:1.4133843 2:-0.41136266 3:-1.106424 
8 0 0 1:1.3730697 2:-0.40314613 3:-1.231392 
8 0 0 1:1.3336625 2:-0.39407272 3:-1.078992 
8 0 0 1:1.2947645 2:-0.38897985 3:-0.71628 
8 0 0 1:1.256577 2:-0.38187425 3:-0.377952 
8 0 0 1:1.2192147 2:-0.37362376 3:-0.146304 
8 0 0 1:1.183392 2:-0.35822702 3:-0.036576 
8 0 0 1:1.1504388 2:-0.32953188 3:0.021336 
8 0 0 1:1.1214895 2:-0.28949236 3:0.04572 
8 0 0 1:1.0958299 2:-0.2565968 3:0.054864 
8 0 0 1:1.071567 2:-0.2426285 3:0.158496 
8 0 0 1:1.0476451 2:-0.2392193 3:0.341376 
8 0 0 1:1.02508 2:-0.22565031 3:0.527304 
8 0 0 1:1.0624016 2:-0.20374047 3:-0.682752 
8 0 0 1:1.0390126 2:-0.23389001 3:-0.73152 
8 0 0 1:1.0122893 2:-0.26723334 3:-0.789432 
8 0 0 1:0.98261088 2:-0.29678413 3:-0.80772 
8 0 0 1:0.95014548 2:-0.32465404 3:-0.734568 
8 0 0 1:0.91586445 2:-0.34281026 3:-0.612648 
8 0 0 1:0.8823069 2:-0.3355755 3:-0.554736 
8 0 0 1:0.85089338 2:-0.31413524 3:-0.618744 
8 0 0 1:0.82151072 2:-0.29382659 3:-0.786384 
8 0 0 1:0.79270536 2:-0.2880536 3:-0.9906 
8 0 0 1:0.76432077 2:-0.2838459 3:-1.12776 
8 0 0 1:0.73745803 2:-0.26862741 3:-1.18872 
8 0 0 1:0.7130333 2:-0.24424732 3:-1.228344 
8 0 0 1:0.69117751 2:-0.21855781 3:-1.28016 
8 0 0 1:0.67149148 2:-0.19686034 3:-1.35636 
8 0 0 1:0.65441714 2:-0.17074345 3:-1.383792 
8 0 0 1:0.6412503 2:-0.13166837 3:-1.28016 
8 0 0 1:0.63319007 2:-0.080602314 3:-1.03632 
8 0 0 1:0.629984 2:-0.032060674 3:-0.6858 
8 0 0 1:1.5907021 2:-0.23847232 3:2.142744 
8 0 0 1:1.5660752 2:-0.24626902 3:2.173224 
8 0 0 1:1.5399314 2:-0.26143839 3:2.157984 
8 0 0 1:1.5128572 2:-0.27074214 3:2.142744 
8 0 0 1:1.4859978 2:-0.26859359 3:2.139696 
8 0 0 1:1.4593102 2:-0.26687564 3:2.16408 
8 0 0 1:1.4322312 2:-0.27079054 3:2.200656 
8 0 0 1:1.4035954 2:-0.28635819 3:2.170176 
8 0 0 1:1.3734408 2:-0.30154535 3:1.99644 
8 0 0 1:1.3429302 2:-0.30510647 3:1.658112 
8 0 0 1:1.3119771 2:-0.30953124 3:1.207008 
8 0 0 1:1.2797972 2:-0.32179821 3:0.780288 
8 0 0 1:1.2456965 2:-0.34100781 3:0.47244 
8 0 0 1:1.2097887 2:-0.35907726 3:0.298704 
8 0 0 1:1.1732724 2:-0.36516387 3:0.237744 
8 0 0 1:1.1382279 2:-0.35044441 3:0.234696 
8 0 0 1:1.105404 2:-0.32823898 3:0.237744 
8 0 0 1:1.0744032 2:-0.3100081 3:0.237744 
8 0 0 1:1.0452445 2:-0.29158724 3:0.237744 
8 0 0 1:1.0179197 2:-0.27324759 3:0.237744 
8 0 0 1:0.99241981 2:-0.25499913 3:0.237744 
8 0 0 1:0.9688807 2:-0.23539111 3:0.237744 
8 0 0 1:0.94650442 2:-0.22376273 3:0.237744 
8 0 0 1:0.92537697 2:-0.21127458 3:0.234696 
8 0 0 1:0.90611293 2:-0.19264036 3:0.225552 
8 0 0 1:0.88895591 2:-0.17157024 3:0.219456 
8 0 0 1:0.88233829 2:-0.15822206 3:-0.316992 
8 0 0 1:0.86689501 2:-0.15443279 3:-0.448056 
8 0 0 1:0.85203053 2:-0.14864476 3:-0.478536 
8 0 0 1:0.83875767 2:-0.13272859 3:-0.478536 
8 0 0 1:0.77822178 2:-0.13159749 3:-0.448056 
8 0 0 1:0.76274857 2:-0.15473211 3:-0.338328 
8 0 0 1:0.74651295 2:-0.16235612 3:-0.192024 
8 0 0 1:0.73253531 2:-0.13977644 3:-0.131064 
8 0 0 1:0.72188716 2:-0.10648147 3:-0.204216 
8 0 0 1:0.71342146 2:-0.084657047 3:-0.374904 
8 0 0 1:0.70659494 2:-0.068265128 3:-0.496824 
8 0 0 1:0.93163874 2:-0.20168042 3:0.710184 
8 0 0 1:0.90811409 2:-0.23524653 3:1.002792 
8 0 0 1:0.88092855 2:-0.27185542 3:1.283208 
8 0 0 1:0.84863561 2:-0.32292937 3:1.338072 
8 0 0 1:0.81049929 2:-0.38136323 3:1.042416 
8 0 0 1:0.76602941 2:-0.44469876 3:0.481584 
8 0 0 1:0.71846273 2:-0.47566683 3:-0.204216 
8 0 0 1:1.521503 2:-0.35446785 3:-2.563368 
8 0 0 1:1.477236 2:-0.44267047 3:-2.932176 
8 0 0 1:1.4238397 2:-0.53396304 3:-3.3528 
8 0 0 1:1.3620695 2:-0.61770175 3:-3.700272 
8 0 0 1:1.2902783 2:-0.71791186 3:-3.94716 
8 0 0 1:1.2086831 2:-0.8159523 3:-4.096512 
8 0 0 1:1.1191473 2:-0.89535826 3:-4.096512 
8 0 0 1:1.0238893 2:-0.9525799 3:-3.971544 
8 0 0 1:2.6598947 2:-0.38676602 3:-0.542544 
8 0 0 1:2.615117 2:-0.44777733 3:-0.521208 
8 0 0 1:2.5642355 2:-0.50881502 3:-0.292608 
8 0 0 1:1.9185611 2:-0.3578098 3:-1.02108 
8 0 0 1:1.8797246 2:-0.3883654 3:-1.170432 
8 0 0 1:1.8378856 2:-0.4183893 3:-1.441704 
8 0 0 1:1.7930006 2:-0.44885043 3:-1.795272 
8 0 0 1:1.5553037 2:-0.32413478 3:-0.387096 
8 0 0 1:1.5153639 2:-0.3993982 3:-0.170688 
8 0 0 1:1.4687938 2:-0.46570029 3:0.06096 
8 0 0 1:1.4158266 2:-0.5296721 3:0.097536 
8 0 0 1:1.3571045 2:-0.58722077 3:-0.04572 
8 0 0 1:1.2937507 2:-0.63353822 3:-0.32004 
8 0 0 1:1.2273721 2:-0.66378639 3:-0.618744 
8 0 0 1:1.1573484 2:-0.70023706 3:-0.85344 
8 0 0 1:0.58499767 2:-0.16641086 3:1.048512 
8 0 0 1:0.57671964 2:-0.15926178 3:1.179576 
8 0 0 1:0.56854603 2:-0.15863752 3:1.423416 
8 0 0 1:0.56191668 2:-0.14349712 3:1.652016 
8 0 0 1:1.8632344 2:-0.34678849 3:0.054864 
8 0 0 1:1.8193344 2:-0.43899996 3:-0.0762 
8 0 0 1:1.7649201 2:-0.544143 3:-0.417576 
8 0 0 1:1.7005878 2:-0.64332301 3:-0.801624 
8 0 0 1:2.0396338 2:-0.32734216 3:0.131064 
8 0 0 1:2.0022513 2:-0.37382522 3:0.234696 
8 0 0 1:1.9607555 2:-0.41495744 3:0.280416 
8 0 0 1:1.9162713 2:-0.44484285 3:0.204216 
8 0 0 1:1.4351192 2:-0.288756 3:-1.581912 
8 0 0 1:2.1413036 2:-0.33334196 3:0.222504 
8 0 0 1:2.1039309 2:-0.37372716 3:0.27432 
8 0 0 1:2.0632121 2:-0.40718827 3:0.3048 
8 0 0 1:2.019945 2:-0.43267042 3:0.18288 
8 0 0 1:1.9760502 2:-0.43894859 3:-0.149352 
8 0 0 1:1.9344186 2:-0.41631551 3:-0.597408 
8 0 0 1:1.897111 2:-0.37307666 3:-1.014984 
8 0 0 1:1.8632241 2:-0.33886802 3:-1.292352 
8 0 0 1:1.7992714 2:-0.32475927 3:-1.520952 
8 0 0 1:1.7581532 2:-0.41118222 3:-1.73736 
8 0 0 1:1.2942307 2:-0.29261872 3:0.204216 
8 0 0 1:1.2615432 2:-0.32687494 3:0.04572 
8 0 0 1:1.2257186 2:-0.35824677 3:-0.268224 
8 0 0 1:1.1860927 2:-0.39625899 3:-0.448056 
8 0 0 1:1.1430404 2:-0.43052318 3:-0.316992 
8 0 0 1:1.097034 2:-0.46006303 3:0.176784 
8 0 0 1:1.513255 2:-0.3008475 3:-1.167384 
8 0 0 1:1.4793096 2:-0.3394541 3:-1.289304 
8 0 0 1:1.4405837 2:-0.38725866 3:-1.652016 
8 0 0 1:1.3974045 2:-0.43179221 3:-1.825752 
8 0 0 1:1.3491298 2:-0.4827469 3:-1.831848 
8 0 0 1:1.2960539 2:-0.53075855 3:-1.840992 
8 0 0 1:1.2388722 2:-0.57181696 3:-1.871472 
8 0 0 1:1.1766734 2:-0.62198865 3:-1.947672 
8 0 0 1:2.609438 2:-0.17358971 3:-3.45948 
8 0 0 1:2.5904228 2:-0.190152 3:-3.599688 
8 0 0 1:2.5692964 2:-0.21126414 3:-3.502152 
8 0 0 1:2.5468469 2:-0.22449492 3:-3.233928 
8 0 0 1:2.5223991 2:-0.24447821 3:-2.962656 
8 0 0 1:2.4968056 2:-0.25593487 3:-2.816352 
8 0 0 1:2.4710472 2:-0.25758407 3:-2.837688 
8 0 0 1:1.1201227 2:-0.12227054 3:4.087368 
8 0 0 1:1.1058199 2:-0.14302745 3:3.660648 
8 0 0 1:1.0916696 2:-0.14150298 3:3.255264 
8 0 0 1:1.0764831 2:-0.15186496 3:2.947416 
8 0 0 1:1.060191 2:-0.16292117 3:2.700528 
8 0 0 1:1.0432468 2:-0.16944272 3:2.538984 
8 0 0 1:1.0252122 2:-0.18034601 3:2.435352 
8 0 0 1:1.0062566 2:-0.18955571 3:2.319528 
8 0 0 1:0.98588479 2:-0.20371792 3:2.170176 
8 0 0 1:0.96635487 2:-0.19529919 3:2.029968 
8 0 0 1:0.86852671 2:-0.079164969 3:3.264408 
8 0 0 1:0.85768197 2:-0.10844743 3:3.331464 
8 0 0 1:0.84275503 2:-0.14926932 3:3.319272 
8 0 0 1:0.82360973 2:-0.19145308 3:3.172968 
8 0 0 1:0.79967058 2:-0.23939146 3:2.883408 
8 0 0 1:0.77107426 2:-0.28596318 3:2.52984 
8 0 0 1:0.73896897 2:-0.32105296 3:2.292096 
8 0 0 1:0.70382083 2:-0.35148143 3:2.090928 
8 0 0 1:0.66725385 2:-0.36566976 3:1.825752 
8 0 0 1:0.62996533 2:-0.37288515 3:1.6002 
8 0 0 1:0.59225026 2:-0.37715072 3:1.46304 
8 0 0 1:0.55366356 2:-0.38586699 3:1.43256 
8 0 0 1:0.51551738 2:-0.38146185 3:1.490472 
8 0 0 1:0.47569272 2:-0.39824659 3:1.524 
8 0 0 1:0.43982236 2:-0.35870359 3:1.527048 
8 0 0 1:0.40719421 2:-0.32628154 3:1.533144 
8 0 0 1:0.37790424 2:-0.29289962 3:1.533144 
8 0 0 1:0.35024351 2:-0.27660736 3:1.533144 
8 0 0 1:0.32417008 2:-0.26073426 3:1.533144 
8 0 0 1:0.30013063 2:-0.24039457 3:1.536192 
8 0 0 1:0.27872622 2:-0.21404408 3:1.524 
8 0 0 1:0.25979302 2:-0.18933196 3:2.4384 
8 0 0 1:0.24331636 2:-0.1647666 3:2.17932 
8 0 0 1:0.22924405 2:-0.14072311 3:1.93548 
8 0 0 1:0.21774407 2:-0.11499978 3:1.801368 
8 0 0 1:0.20874408 2:-0.089999932 3:1.7526 
8 0 0 1:0.20238327 2:-0.063608098 3:1.694688 
8 0 0 1:0.19817814 2:-0.042051306 3:1.496568 
8 6.542610593947021 0 1:0.1959848 2:-0.021933378 3:1.292352 
8 8 0 1:0.19583117 2:-0.0015363375 3:1.210056 
0 0 3.552333932786266 1:0.19778642 2:0.019552555 3:1.197864 
0 0 8 1:0.2079644 2:0.061362758 3:1.155192 
8 0 0 1:0.70834438 2:-0.055783939 3:-0.664464 
8 0 0 1:0.70305612 2:-0.05288263 3:-0.737616 
8 0 0 1:0.69813423 2:-0.049218901 3:-0.618744 
8 0 0 1:0.64476473 2:0.0056599792 3:3.721608 
8 0 0 1:0.64549571 2:0.0073097691 3:3.7338 
8 0 0 1:0.6466068 2:0.011110928 3:3.621024 
4.356041439730741 0 0 1:0.57728519 2:-0.056235786 3:3.066288 
8 0 0 1:0.57110025 2:-0.061849429 3:3.057144 
8 0 0 1:0.56476211 2:-0.063381415 3:3.048 
8 0 0 1:0.55860537 2:-0.061567375 3:3.105912 
8 0 0 1:0.55292664 2:-0.056787321 3:3.240024 
8 0 0 1:0.54818899 2:-0.047376527 3:3.343656 
8 0 0 1:0.54412153 2:-0.0406746 3:3.38328 
8 0 0 1:0.54080768 2:-0.033138429 3:3.316224 
8 0 0 1:0.59556539 2:0.10841813 3:4.462272 
8 0 0 1:0.60695587 2:0.11390483 3:5.068824 
8 0 0 1:0.61892835 2:0.11972481 3:5.57784 
5.023416342927507 0 0 1:0.67302595 2:0.14390119 3:5.15112 
8 0 0 1:1.45668 2:-0.30090368 3:0 
8 0 0 1:1.4254552 2:-0.31224826 3:0 
8 0 0 1:1.3937213 2:-0.31733871 3:0 
8 0 0 1:1.3614584 2:-0.32262894 3:0 
8 0 0 1:1.3286041 2:-0.32854299 3:0 
8 0 0 1:1.2951934 2:-0.33410737 3:0 
8 0 0 1:1.2611595 2:-0.3403382 3:0 
8 0 0 1:1.2269503 2:-0.34209225 3:0 
8 0 0 1:1.1923505 2:-0.34599819 3:0 
8 0 0 1:1.1567745 2:-0.35575973 3:0 
8 0 0 1:1.1200288 2:-0.36745742 3:0 
8 0 0 1:1.0828032 2:-0.37225547 3:0 
8 0 0 1:1.0451415 2:-0.37661716 3:0 
8 0 0 1:1.0081205 2:-0.37021016 3:0 
8 0 0 1:0.97331755 2:-0.34802943 3:0 
8 0 0 1:0.94123676 2:-0.32080793 3:0 
8 0 0 1:0.91120902 2:-0.30027738 3:0 
8 0 0 1:0.88175108 2:-0.29457935 3:0 
8 0 0 1:0.85262386 2:-0.29127221 3:0 
8 0 0 1:0.82486356 2:-0.27760304 3:0 
8 0 0 1:0.79949578 2:-0.25367782 3:0 
8 0 0 1:0.77673044 2:-0.22765335 3:0 
8 0 0 1:0.75650726 2:-0.20223186 3:0 
8 0 0 1:0.73882132 2:-0.17685937 3:0 
8 0 0 1:0.72366853 2:-0.15152795 3:0 
8 0 0 1:0.71100611 2:-0.12662411 3:0 
8 0 0 1:0.70086628 2:-0.10139838 3:0 
8 0 0 1:1.7512344 2:-0.34925668 3:-1.667256 
8 0 0 1:1.709309 2:-0.41925409 3:-1.575816 
8 0 0 1:1.6603759 2:-0.48933037 3:-1.648968 
8 0 0 1:1.6048599 2:-0.55516017 3:-1.78308 
8 0 0 1:1.5427094 2:-0.6215047 3:-1.792224 
8 0 0 1:1.4744219 2:-0.68287509 3:-1.551432 
8 0 0 1:1.4016926 2:-0.72729345 3:-1.118616 
8 0 0 1:1.3260034 2:-0.75689144 3:-0.734568 
8 0 0 1:1.8855729 2:-0.33404508 3:-1.505712 
8 0 0 1:1.8492099 2:-0.36362996 3:-1.642872 
8 0 0 1:1.8110847 2:-0.38125123 3:-1.764792 
8 0 0 1:1.6533074 2:-0.34265751 3:-1.420368 
8 0 0 1:1.6156735 2:-0.37633817 3:-1.4478 
8 0 0 1:1.5742887 2:-0.41384877 3:-1.520952 
8 0 0 1:1.259936 2:-0.094006312 3:3.7338 
8 0 0 1:1.2508799 2:-0.090561831 3:4.136136 
8 0 0 1:1.2421747 2:-0.087051785 3:4.23672 
8 0 0 1:1.2338306 2:-0.083440915 3:4.066032 
8 0 0 1:1.2258554 2:-0.07975161 3:3.758184 
8 0 0 1:1.3104453 2:-0.23950513 3:1.8288 
8 0 0 1:1.2830703 2:-0.27375016 3:1.594104 
8 0 0 1:1.2541808 2:-0.28889462 3:1.426464 
8 0 0 1:1.223217 2:-0.309638 3:1.237488 
8 0 0 1:1.1892763 2:-0.33940717 3:1.02108 
8 0 0 1:1.1531179 2:-0.36158428 3:0.780288 
8 0 0 1:1.1162492 2:-0.3686864 3:0.499872 
8 0 0 1:1.6221563 2:-0.26880198 3:1.185672 
8 0 0 1:1.5986799 2:-0.23476367 3:1.993392 
8 0 0 1:1.4788227 2:-0.16120162 3:3.115056 
8 0 0 1:1.4608278 2:-0.1799484 3:2.916936 
8 0 0 1:1.4382136 2:-0.34889875 3:0.371856 
8 0 0 1:1.3965797 2:-0.41633897 3:0.59436 
8 0 0 1:1.349676 2:-0.4690367 3:0.652272 
8 0 0 1:1.2985928 2:-0.51083152 3:0.554736 
8 0 0 1:1.2453078 2:-0.53285063 3:0.432816 
8 0 0 1:1.1881975 2:-0.57110263 3:0.301752 
8 0 0 1:1.1297022 2:-0.58495331 3:0.149352 
8 0 0 1:1.0727375 2:-0.56964707 3:0.04572 
8 0 0 1:1.0180239 2:-0.54713543 3:0.012192 
8 0 0 1:0.96547719 2:-0.52546739 3:0.009144 
8 0 0 1:0.91434628 2:-0.51130914 3:-0.04572 
8 0 0 1:0.86439777 2:-0.49948506 3:-0.115824 
8 0 0 1:0.81656836 2:-0.47829413 3:-0.009144 
8 0 0 1:0.77138309 2:-0.45185266 3:0.32004 
8 0 0 1:0.72773075 2:-0.43652338 3:0.74676 
8 0 0 1:0.68694581 2:-0.40784948 3:1.03632 
8 0 0 1:0.64844879 2:-0.38497013 3:1.03632 
8 0 0 1:0.61404974 2:-0.34399051 3:0.886968 
8 0 0 1:0.5840779 2:-0.29971845 3:0.789432 
8 0 0 1:0.55888043 2:-0.25197462 3:0.786384 
8 0 0 1:0.5382889 2:-0.20591531 3:0.841248 
8 0 0 1:0.5227597 2:-0.15529203 3:0.935736 
8 0 0 1:0.51210211 2:-0.10657586 3:1.078992 
8 0 0 1:1.0578491 2:-0.1861552 3:-1.441704 
8 0 0 1:1.032594 2:-0.2525512 3:-1.453896 
8 0 0 1:1.000474 2:-0.32119936 3:-1.50876 
8 0 0 1:0.96196848 2:-0.38505552 3:-1.487424 
8 0 0 1:0.91629498 2:-0.45673495 3:-1.350264 
8 0 0 1:0.86295195 2:-0.53343033 3:-1.118616 
8 0 0 1:1.6356201 2:-0.31619922 3:0.204216 
8 0 0 1:1.6018708 2:-0.33749322 3:0.164592 
8 0 0 1:1.5385067 2:-0.32098778 3:-0.323088 
8 0 0 1:1.5039531 2:-0.34553573 3:-0.460248 
8 0 0 1:1.4691759 2:-0.34777211 3:-0.460248 
8 0 0 1:1.435514 2:-0.3366191 3:-0.32004 
8 0 0 1:1.4024951 2:-0.33018934 3:-0.10668 
8 0 0 1:1.3689654 2:-0.33529707 3:0.054864 
8 0 0 1:1.3350929 2:-0.33872459 3:0.10668 
8 0 0 1:1.3028403 2:-0.32252568 3:0.082296 
8 0 0 1:1.2728528 2:-0.29987509 3:0.027432 
8 0 0 1:1.2452419 2:-0.27610878 3:-0.024384 
8 0 0 1:1.2197098 2:-0.25532152 3:-0.100584 
8 0 0 1:1.7571013 2:-0.34797067 3:-1.810512 
8 0 0 1:1.716505 2:-0.40596306 3:-1.624584 
8 0 0 1:1.6702567 2:-0.46248258 3:-1.50876 
8 0 0 1:2.3955119 2:-0.33541214 3:-1.429512 
8 0 0 1:2.3589257 2:-0.3658613 3:-0.978408 
8 0 0 1:2.3199661 2:-0.38959671 3:-0.499872 
8 0 0 1:2.2799059 2:-0.40060149 3:-0.094488 
8 0 0 1:2.2395763 2:-0.40329619 3:0.146304 
8 0 0 1:2.1996252 2:-0.39951137 3:0.201168 
8 0 0 1:2.159979 2:-0.39646191 3:0.158496 
8 0 0 1:2.1214228 2:-0.38556163 3:0.158496 
8 0 0 1:2.0832628 2:-0.38160026 3:0.256032 
8 0 0 1:2.0471789 2:-0.36083834 3:0.286512 
8 0 0 1:2.0100942 2:-0.26788347 3:-3.151632 
8 0 0 1:1.9796022 2:-0.30491988 3:-3.355848 
8 0 0 1:1.9457129 2:-0.33889303 3:-3.47472 
8 0 0 1:1.9087568 2:-0.36956086 3:-3.5052 
8 0 0 1:1.8695828 2:-0.39174017 3:-3.496056 
8 0 0 1:1.8282096 2:-0.41373219 3:-3.48996 
8 0 0 1:1.7845323 2:-0.43677243 3:-3.48996 
8 0 0 1:1.7386047 2:-0.45927597 3:-3.48996 
8 0 0 1:1.6905522 2:-0.48052555 3:-3.493008 
8 0 0 1:1.6402182 2:-0.50333966 3:-3.493008 
8 0 0 1:1.5873828 2:-0.52835422 3:-3.48996 
8 0 0 1:1.5320333 2:-0.5534945 3:-3.493008 
8 0 0 1:1.4756011 2:-0.56432226 3:-3.493008 
8 0 0 1:1.4200356 2:-0.55565556 3:-3.493008 
8 0 0 1:1.3667153 2:-0.53320246 3:-3.496056 
8 0 0 1:1.3159283 2:-0.50787061 3:-3.496056 
8 0 0 1:1.2673978 2:-0.48530409 3:-3.477768 
8 0 0 1:1.2211627 2:-0.46235134 3:-3.422904 
8 0 0 1:1.1772207 2:-0.43941986 3:-3.316224 
8 0 0 1:1.1356409 2:-0.41579787 3:-3.172968 
8 0 0 1:1.096458 2:-0.3918295 3:-3.01752 
8 0 0 1:1.0596548 2:-0.36803142 3:-2.86512 
8 0 0 1:1.0253005 2:-0.34354331 3:-2.706624 
8 0 0 1:0.99302686 2:-0.32273656 3:-2.563368 
8 0 0 1:0.96364567 2:-0.29381194 3:-2.465832 
8 0 0 1:0.9384095 2:-0.25236168 3:-2.435352 
8 0 0 1:0.91799223 2:-0.2041727 3:-2.444496 
8 0 0 1:0.90170763 2:-0.16284604 3:-2.447544 
8 0 0 1:0.88836661 2:-0.13341015 3:-2.383536 
8 0 0 1:0.87709016 2:-0.11276452 3:-2.267712 
8 0 0 1:0.86821637 2:-0.088737856 3:-2.157984 
8 0 0 1:1.5548797 2:-0.29256654 3:-1.609344 
8 0 0 1:1.5247215 2:-0.30158214 3:-1.545336 
8 0 0 1:1.4946111 2:-0.30110412 3:-1.350264 
8 0 0 1:1.4652797 2:-0.29331404 3:-1.100328 
8 0 0 1:1.4367661 2:-0.2851364 3:-0.862584 
8 0 0 1:1.6505378 2:-0.31045297 3:-1.313688 
8 0 0 1:1.617309 2:-0.33228815 3:-0.999744 
8 0 0 1:1.5815073 2:-0.35801738 3:-0.54864 
8 0 0 1:1.5428484 2:-0.38658912 3:-0.128016 
6.787416856483951 0 0 1:2.7298768 2:-0.33475056 3:-0.13716 
8 0 0 1:2.6927667 2:-0.37110129 3:0.393192 
8 0 0 1:2.652876 2:-0.39890693 3:0.893064 
8 0 0 1:2.6104244 2:-0.42451651 3:1.078992 
8 0 0 1:2.5661802 2:-0.44244162 3:0.874776 
8 0 0 1:2.5216873 2:-0.444929 3:0.341376 
8 0 0 1:2.4781332 2:-0.43554158 3:-0.301752 
8 0 0 1:2.4354449 2:-0.4268829 3:-0.691896 
8 0 0 1:2.3935075 2:-0.41937404 3:-0.829056 
8 0 0 1:2.3523605 2:-0.41146992 3:-0.829056 
8 0 0 1:2.3120042 2:-0.40356248 3:-0.691896 
8 0 0 1:2.2722265 2:-0.39777735 3:-0.5334 
8 0 0 1:2.233197 2:-0.39029502 3:-0.368808 
8 0 0 1:2.1952397 2:-0.37957251 3:-0.021336 
8 0 0 1:2.1586264 2:-0.36613294 3:0.515112 
8 0 0 1:2.1232973 2:-0.35329098 3:1.12776 
8 0 0 1:2.0892522 2:-0.34045133 3:1.621536 
8 0 0 1:2.0578133 2:-0.31438955 3:1.780032 
8 0 0 1:2.0293801 2:-0.28433113 3:1.746504 
8 0 0 1:2.6640216 2:-0.31931414 3:0.80772 
8 0 0 1:2.6294114 2:-0.34610245 3:0.423672 
8 0 0 1:2.5926512 2:-0.36760145 3:-0.155448 
8 0 0 1:1.9579586 2:-0.36686413 3:-1.664208 
8 0 0 1:1.9164748 2:-0.41483815 3:-1.688592 
8 0 0 1:1.8712732 2:-0.45201611 3:-1.667256 
8 0 0 1:3.1203823 2:-0.1380472 3:-3.112008 
8 0 0 1:3.1031318 2:-0.1725053 3:-2.8956 
7.786553117544273 0 0 1:3.0824599 2:-0.20671851 3:-2.4384 
8 0 0 1:3.0000225 2:-0.3096559 3:-1.938528 
8 0 0 1:2.9654001 2:-0.34622427 3:-2.121408 
8 0 0 1:2.9275376 2:-0.37862493 3:-2.459736 
6.964433816262045 0 0 1:1.9295578 2:-0.22888585 3:-6.605016 
8 0 0 1:1.9042637 2:-0.25294081 3:-6.501384 
8 0 0 1:1.8799404 2:-0.24323272 3:-6.044184 
8 0 0 1:1.2692176 2:-0.26583702 3:0 
8 0 0 1:1.2415036 2:-0.27714035 3:0 
8 0 0 1:1.2152559 2:-0.26247701 3:0 
8 0 0 1:0.89229038 2:-0.1735775 3:0 
8 0 0 1:0.87523383 2:-0.17056551 3:0 
8 0 0 1:0.8596418 2:-0.15592034 3:0 
8 0 0 1:1.1595778 2:-0.24495231 3:0 
8 0 0 1:1.1355516 2:-0.2402612 3:0 
8 0 0 1:1.1120057 2:-0.23545914 3:0 
8 0 0 1:1.0886269 2:-0.2337881 3:0 
8 0 0 1:1.0653842 2:-0.23242699 3:0 
8 0 0 1:1.0427727 2:-0.2261149 3:0 
8 0 0 1:1.0212124 2:-0.2156035 3:0 
8 0 0 1:1.0009828 2:-0.2022961 3:0 
8 0 0 1:1.474589 2:-0.12801389 3:5.12064 
7.751678633855215 0 0 1:1.4592072 2:-0.15381815 3:5.431536 
8 0 0 1:1.4236444 2:-0.18403793 3:5.663184 
8 0 0 1:1.4042942 2:-0.19350143 3:5.763768 
8 0 0 1:0.5637844 2:-0.11712746 3:0 
8 0 0 1:0.5518701 2:-0.11914296 3:0 
8 0 0 1:0.5394118 2:-0.124583 3:0 
8 0 0 1:0.52638099 2:-0.13030814 3:0 
8 0 0 1:0.51323263 2:-0.13148359 3:0 
8 0 0 1:0.50042342 2:-0.12809216 3:0 
8 8 0 1:0.48837145 2:-0.12051965 3:0 
8 8 0 1:0.47784297 2:-0.10528483 3:0 
8 8 0 1:0.46946699 2:-0.083759743 3:0 
8 0 0 1:0.46423759 2:-0.052294021 3:0 
8 0 0 1:0.46138867 2:-0.028489196 3:0 
8 0 0 1:0.45988102 2:-0.015076544 3:0 
8 0 0 1:0.45803304 2:-0.018479757 3:0 
8 0 0 1:0.45570874 2:-0.023243021 3:0 
8 0 0 1:0.45326483 2:-0.024439077 3:0 
8 0 0 1:0.45067674 2:-0.025880916 3:0 
8 0 0 1:0.4477962 2:-0.028805407 3:0 
8 0 0 1:0.44476095 2:-0.030352481 3:0 
8 8 0 1:0.44161328 2:-0.031476687 3:0 
8 8 0 1:0.43820214 2:-0.034111433 3:0 
8 8 0.9914863131778261 1:0.43477425 2:-0.034278865 3:0 
8 8 8 1:0.43143251 2:-0.033417377 3:0 
8 8 8 1:0.42847186 2:-0.029606538 3:0 
8 8 8 1:0.42579036 2:-0.026815054 3:0 
8 8 8 1:0.42342391 2:-0.023664503 3:0 
8 8 8 1:0.42154627 2:-0.018776399 3:0 
0.342236759204666 0 0 1:0.41580698 2:0.0065102021 3:6.272784 
8 0 0 1:0.41625192 2:0.0044493886 3:6.074664 
8 0 0 1:0.41655458 2:0.0030265678 3:5.80644 
8 0 0 1:0.41692208 2:0.0036750117 3:5.474208 
8 0 0 1:0.41828221 2:0.013601322 3:5.224272 
8 0 0 1:0.41997053 2:0.016883195 3:5.138928 
8 0 0 1:0.42190822 2:0.019376925 3:5.190744 
8 0 0 1:0.42406156 2:0.021533377 3:5.209032 
8 0 0 1:0.42665252 2:0.025909574 3:5.07492 
8 0 0 1:0.42960606 2:0.029535394 3:4.828032 
8 0 0 1:0.4327044 2:0.030983408 3:4.520184 
8 0 0 1:0.43617906 2:0.034746595 3:4.184904 
8 0 0 1:0.43992904 2:0.037499761 3:3.91668 
8 0 0 1:0.44385119 2:0.039221556 3:3.867912 
8 0 0 1:0.44772963 2:0.038784411 3:4.102608 
8 0 0 1:0.45195993 2:0.042302953 3:4.538472 
8 0 0 1:0.45667813 2:0.047182071 3:4.837176 
8 0 0 1:0.46183006 2:0.051519219 3:4.727448 
8 0 0 1:0.46750608 2:0.056760221 3:4.3434 
8 0 0 1:0.4872768 2:-0.0023832067 3:3.654552 
8 0 0 1:0.48793494 2:0.0065814236 3:3.773424 
4.765769016543066 0 0 1:0.4894189 2:0.014839545 3:3.575304 
8 0 0 1:1.4839406 2:-0.30791807 3:-1.130808 
8 0 0 1:1.4508661 2:-0.33074527 3:-0.780288 
8 0 0 1:1.4158507 2:-0.35015376 3:-0.478536 
8 0 0 1:1.7751873 2:-0.3448037 3:-0.67056 
8 0 0 1:1.739953 2:-0.35234261 3:-0.771144 
8 0 0 1:1.704603 2:-0.35350001 3:-0.996696 
8 0 0 1:1.6695382 2:-0.3506482 3:-1.252728 
8 0 0 1:1.6343194 2:-0.3521878 3:-1.255776 
8 0 0 1:1.5974818 2:-0.36837586 3:-1.002792 
8 0 0 1:1.557606 2:-0.39875791 3:-0.649224 
8 0 0 1:1.5132859 2:-0.44320137 3:-0.435864 
8 0 0 1:1.51284 2:-0.28988334 3:0.844296 
8 0 0 1:1.3386046 2:-0.25655692 3:-1.496568 
8 0 0 1:1.3119412 2:-0.2666345 3:-1.514856 
8 0 0 1:1.2841488 2:-0.27792423 3:-1.557528 
8 0 0 1:1.2559968 2:-0.28151917 3:-1.789176 
8 0 0 1:1.2278726 2:-0.28124203 3:-2.215896 
8 0 0 1:1.1996686 2:-0.28204016 3:-2.487168 
8 0 0 1:1.1713712 2:-0.28297476 3:-2.435352 
8 0 0 1:1.1464012 2:-0.24969953 3:-2.11836 
8 0 0 1:1.1248134 2:-0.21587755 3:-1.764792 
8 0 0 1:1.1064812 2:-0.18332281 3:-1.694688 
8 0 0 1:1.2438877 2:-0.24267568 3:1.258824 
8 0 0 1:1.2190686 2:-0.24819133 3:1.286256 
8 0 0 1:1.1937272 2:-0.25341308 3:1.261872 
8 0 0 1:1.167882 2:-0.25845226 3:1.167384 
8 0 0 1:1.1415218 2:-0.26360194 3:0.996696 
8 0 0 1:1.1145831 2:-0.26938701 3:0.82296 
8 0 0 1:1.0870545 2:-0.27528587 3:0.673608 
8 0 0 1:1.0589512 2:-0.28103356 3:0.597408 
8 0 0 1:1.0303429 2:-0.28608235 3:0.64008 
8 0 0 1:1.0016196 2:-0.28723348 3:0.74676 
8 0 0 1:0.97302092 2:-0.28598678 3:0.780288 
8 0 0 1:0.94361759 2:-0.29403326 3:0.65532 
8 0 0 1:0.91317137 2:-0.30446227 3:0.423672 
8 0 0 1:0.88238654 2:-0.30784829 3:0.188976 
8 0 0 1:0.85369493 2:-0.28691604 3:0.04572 
8 0 0 1:0.82773575 2:-0.25959183 3:0 
8 0 0 1:0.80368307 2:-0.24052676 3:-0.003048 
8 0 0 1:0.78001716 2:-0.23665914 3:0.003048 
8 0 0 1:0.75656286 2:-0.234543 3:0.009144 
8 0 0 1:0.7346782 2:-0.2188466 3:0.012192 
8 0 0 1:0.71446395 2:-0.20214246 3:-0.018288 
8 0 0 1:0.69638472 2:-0.18079235 3:-0.124968 
8 0 0 1:0.68001383 2:-0.16370892 3:-0.329184 
8 0 0 1:0.66552558 2:-0.14488247 3:-0.585216 
8 0 0 1:0.65252054 2:-0.1300504 3:-0.79248 
8 0 0 1:0.64167525 2:-0.10845295 3:-0.890016 
8 0 0 1:0.63274493 2:-0.089303123 3:-0.92964 
8 0 0 1:0.62597719 2:-0.067677443 3:-1.039368 
8 0 0 1:0.6210305 2:-0.049466868 3:-1.261872 
8 0 0 1:0.61794739 2:-0.030831089 3:-1.441704 
8 0 0 1:0.61677847 2:-0.011689224 3:-1.453896 
8 0 0 1:0.61752541 2:0.0074693827 3:-1.301496 
8 0 0 1:0.62019598 2:0.026705727 3:-1.103376 
8 0 0 1:0.93043641 2:-0.14816257 3:-1.26492 
8 0 0 1:0.91317149 2:-0.17264917 3:-1.405128 
8 0 0 1:0.89383394 2:-0.19337551 3:-1.499616 
8 0 0 1:0.87418082 2:-0.19653118 3:-1.56972 
8 0 0 1:0.85527911 2:-0.18901709 3:-1.652016 
8 0 0 1:0.83670395 2:-0.18575167 3:-1.703832 
8 0 0 1:0.81843057 2:-0.18273378 3:-1.700784 
8 0 0 1:0.80048664 2:-0.17943932 3:-1.636776 
8 0 0 1:1.9453345 2:-0.30940463 3:0.612648 
8 0 0 1:1.9124515 2:-0.32883035 3:0.73152 
8 0 0 1:1.8786114 2:-0.33840022 3:0.813816 
8 0 0 1:1.8438237 2:-0.3478772 3:0.874776 
8 0 0 1:1.8079929 2:-0.35830776 3:0.950976 
8 0 0 1:1.7710004 2:-0.36992593 3:1.011936 
8 0 0 1:1.7330139 2:-0.37986488 3:0.966216 
8 0 0 1:1.6944889 2:-0.38524948 3:0.859536 
8 0 0 1:1.6561494 2:-0.38339544 3:0.752856 
8 0 0 1:1.6185636 2:-0.37585736 3:0.719328 
8 0 0 1:1.5817629 2:-0.36800708 3:0.804672 
8 0 0 1:1.5453074 2:-0.36455571 3:0.923544 
8 0 0 1:1.5100939 2:-0.35213507 3:1.014984 
8 0 0 1:1.4772848 2:-0.32809055 3:1.045464 
8 0 0 1:1.447226 2:-0.30058787 3:1.014984 
8 0 0 1:1.4195435 2:-0.27682488 3:0.917448 
3.166617529680397 0 0 1:2.7566086 2:-0.13611776 3:-3.319272 
8 0 0 1:2.7401176 2:-0.1649101 3:-3.364992 
8 0 0 1:2.7205002 2:-0.1961733 3:-3.377184 
8 0 0 1:2.6980071 2:-0.22493108 3:-3.401568 
8 0 0 1:2.6741451 2:-0.23861999 3:-3.429 
8 0 0 1:2.6507733 2:-0.23371791 3:-3.304032 
8 0 0 1:2.6277544 2:-0.23018888 3:-2.962656 
8 0 0 1:2.0994705 2:-0.33701697 3:0.039624 
8 0 0 1:2.0640991 2:-0.35371422 3:0.082296 
8 0 0 1:2.028319 2:-0.35780077 3:0.124968 
8 0 0 1:1.6156273 2:-0.34555439 3:0 
8 0 0 1:1.5781436 2:-0.37483701 3:0 
8 0 0 1:1.5386771 2:-0.39466512 3:0 
8 0 0 1:1.4983042 2:-0.4037292 3:0 
8 0 0 1:1.4568979 2:-0.41406285 3:0 
8 0 0 1:1.4158146 2:-0.41083342 3:0 
8 0 0 1:1.3751002 2:-0.4071438 3:0 
8 0 0 1:1.3345286 2:-0.40571632 3:0 
8 0 0 1:1.29381 2:-0.40718539 3:0 
8 0 0 1:1.2549127 2:-0.38897289 3:0 
8 0 0 1:1.2189392 2:-0.35973551 3:0 
8 0 0 1:1.1863332 2:-0.32606013 3:0 
8 0 0 1:1.156678 2:-0.29655122 3:0 
8 0 0 1:1.1288836 2:-0.27794411 3:0 
8 0 0 1:1.1023979 2:-0.26485769 3:0 
8 0 0 1:1.0774959 2:-0.24901973 3:0 
8 0 0 1:1.0537447 2:-0.23751155 3:0 
8 0 0 1:1.0311511 2:-0.22593679 3:0 
8 0 0 1:1.009611 2:-0.21540095 3:0 
8 0 0 1:0.98932575 2:-0.20285213 3:0 
1.708679898172688 0 0 1:1.1079464 2:-0.22619443 3:0 
8 0 0 1:1.0847759 2:-0.23170491 3:0 
8 0 0 1:1.0616624 2:-0.23113562 3:0 
8 0 0 1:1.0381666 2:-0.23495727 3:0 
8 0 0 1:1.0142052 2:-0.239614 3:0 
8 0 0 1:0.98957588 2:-0.24629344 3:0 
8 0 0 1:0.96524046 2:-0.24335428 3:0 
8 0 0 1:0.94130864 2:-0.23931816 3:0 
8 0 0 1:0.91771702 2:-0.23591615 3:0 
8 0 0 1:0.89449046 2:-0.23226564 3:0 
8 0 0 1:0.87169112 2:-0.22799341 3:0 
8 0 0 1:0.84911858 2:-0.22572542 3:0 
8 0 0 1:0.82657738 2:-0.225412 3:0 
8 0 0 1:0.8047888 2:-0.2178858 3:0 
8 0 0 1:0.78408307 2:-0.20705724 3:0 
8 0 0 1:0.76486083 2:-0.19222245 3:0 
8 0 0 1:0.7469153 2:-0.17945534 3:0 
8 0 0 1:0.73034523 2:-0.16570065 3:0 
8 0 0 1:0.71492052 2:-0.15424708 3:0 
8 0 0 1:0.69986093 2:-0.15059587 3:0 
8 0 0 1:0.68546161 2:-0.14399321 3:0 
8 0 0 1:0.67262631 2:-0.12835303 3:0 
8 0 0 1:0.66165818 2:-0.10968127 3:0 
8 0 0 1:0.65267126 2:-0.089869254 3:0 
8 0 0 1:0.64558643 2:-0.070848244 3:0 
8 0 0 1:1.2510319 2:-0.26369707 3:0 
8 0 0 1:1.2241802 2:-0.26851762 3:0 
8 0 0 1:1.1957648 2:-0.28415345 3:0 
1.000121196225908 0 0 1:0.81937481 2:-0.17214769 3:-3.9624 
8 0 0 1:0.80313794 2:-0.21070033 3:-4.218432 
8 0 0 1:0.78268946 2:-0.26041889 3:-4.218432 
8 0 0 1:0.75834851 2:-0.30862797 3:-3.9624 
8 0 0 1:0.72935314 2:-0.36565399 3:-3.602736 
8 0 0 1:0.69641681 2:-0.41696659 3:-3.447288 
8 0 0 1:0.66237452 2:-0.44075033 3:-3.79476 
8 0 0 1:0.62254447 2:-0.51063282 3:-4.166616 
8 0 0 1:0.58022143 2:-0.54918015 3:-4.507992 
8 0 0 1:0.53558693 2:-0.58580756 3:-4.809744 
8 0 0 1:0.48991052 2:-0.60956934 3:-5.007864 
3.919419247599082 0 0 1:1.3494281 2:-0.2451207 3:1.362456 
8 0 0 1:1.3190832 2:-0.30344872 3:1.109472 
8 0 0 1:1.2824335 2:-0.36649777 3:0.762 
8 0 0 1:1.2397046 2:-0.42728853 3:0.417576 
8 0 0 1:1.1913797 2:-0.48324857 3:0.164592 
8 0 0 1:1.1374993 2:-0.53880435 3:0.03048 
8 0 0 1:1.0768344 2:-0.60664942 3:-0.04572 
8 0 0 1:1.0131747 2:-0.63659682 3:-0.13716 
8 0 0 1:0.94737341 2:-0.65801277 3:-0.28956 
8 0 0 1:1.1851172 2:-0.18480172 3:2.517648 
8 0 0 1:1.1672892 2:-0.17827939 3:2.648712 
8 0 0 1:1.1499764 2:-0.17312893 3:2.459736 
4.97691734823072 0 0 1:0.95822658 2:-0.14029731 3:-1.002792 
8 0 0 1:0.9443769 2:-0.13849689 3:-1.033272 
8 0 0 1:0.93073709 2:-0.13639808 3:-1.12776 
8 0 0 1:0.91729822 2:-0.13438864 3:-1.274064 
8 0 0 1:0.9043897 2:-0.12908529 3:-1.411224 
8 0 0 1:0.8916576 2:-0.12732095 3:-1.502664 
8 0 0 1:0.87921639 2:-0.12441208 3:-1.533144 
8 0 0 1:0.86701983 2:-0.1219656 3:-1.533144 
8 0 0 1:0.85551353 2:-0.11506303 3:-1.530096 
8 0 0 1:0.84448599 2:-0.11027534 3:-1.502664 
8 0 0 1:0.83346836 2:-0.11017637 3:-1.411224 
8 0 0 1:0.82182637 2:-0.11641987 3:-1.243584 
8 0 0 1:0.81002316 2:-0.11803213 3:-1.091184 
8 0 0 1:0.79934716 2:-0.10675997 3:-1.008888 
8 0 0 1:0.79084649 2:-0.085006691 3:-0.874776 
8 0 0 1:1.1306467 2:-0.20962685 3:1.938528 
8 0 0 1:1.1089496 2:-0.21697109 3:2.228088 
8 0 0 1:1.0863096 2:-0.22639942 3:2.46888 
8 0 0 1:1.0631712 2:-0.23138378 3:2.5908 
8 0 0 1:1.0394702 2:-0.23701024 3:2.517648 
8 0 0 1:1.0158683 2:-0.23601912 3:2.267712 
8 0 0 1:0.99193793 2:-0.23930375 3:1.947672 
8 0 0 1:0.96662729 2:-0.25310643 3:1.69164 
8 0 0 1:0.94096074 2:-0.25666542 3:1.560576 
8 0 0 1:0.91692939 2:-0.2403135 3:1.527048 
8 0 0 1:0.89516116 2:-0.21768239 3:1.505712 
8 0 0 1:0.87475785 2:-0.20403308 3:1.414272 
8 0 0 1:0.8550286 2:-0.19729245 3:1.228344 
8 0 0 1:0.83586536 2:-0.19163243 3:0.9906 
8 0 0 1:0.81766502 2:-0.18200345 3:0.762 
8 0 0 1:0.80069171 2:-0.16973305 3:0.545592 
8 0 0 1:0.78532527 2:-0.15366438 3:0.252984 
8 0 0 1:0.77108447 2:-0.14240799 3:-0.158496 
8 0 0 1:0.75820263 2:-0.1288184 3:-0.566928 
8 0 0 1:0.74726384 2:-0.10938791 3:-0.816864 
8 0 0 1:0.73860902 2:-0.086548188 3:-0.847344 
8 0 0 1:0.73169068 2:-0.069183393 3:-0.755904 
8 0 0 1:0.72656405 2:-0.051266303 3:-0.73152 
8 0 0 1:1.3851425 2:-0.28438477 3:0.377952 
8 0 0 1:1.3552176 2:-0.29924853 3:0.44196 
8 0 0 1:1.3242108 2:-0.31006791 3:0.405384 
8 0 0 1:1.292999 2:-0.31211862 3:0.246888 
8 0 0 1:1.6574555 2:-0.35597727 3:-1.606296 
8 0 0 1:1.6160676 2:-0.41387861 3:-1.773936 
8 0 0 1:1.5690614 2:-0.47006236 3:-2.02692 
8 0 0 1:1.794063 2:-0.35547035 3:-1.331976 
8 0 0 1:1.7528483 2:-0.4121469 3:-1.377696 
8 0 0 1:1.7076594 2:-0.45188874 3:-1.66116 
8 0 0 1:1.6597025 2:-0.479569 3:-2.02692 
8 0 0 1:1.6110258 2:-0.48676682 3:-2.261616 
8 0 0 1:1.364326 2:-0.28191163 3:-0.950976 
8 0 0 1:1.3317233 2:-0.32602784 3:-0.954024 
8 0 0 1:1.2945944 2:-0.37128881 3:-0.71628 
8 0 0 1:1.2530836 2:-0.41510798 3:-0.344424 
8 0 0 1:1.2077247 2:-0.45358902 3:-0.018288 
-0 8 0 1:0.29038354 2:-0.6669404 3:0 
-0 8 0 1:0.22315021 2:-0.67233329 3:0 
-8 0 0 1:1.6056417 2:-0.22358392 3:-0.56388 
-8 0 0 1:1.5825103 2:-0.23131391 3:-0.704088 
-8 0 0 1:1.5586094 2:-0.23900926 3:-0.80772 
-8 0 0 1:1.5344289 2:-0.24180468 3:-0.88392 
-8 0 0 1:1.5099236 2:-0.24505314 3:-0.941832 
-8 0 0 1:1.4852498 2:-0.2467386 3:-0.978408 
-8 0 0 1:1.4601955 2:-0.25054295 3:-0.993648 
-8 0 0 1:1.4345279 2:-0.25667589 3:-0.993648 
-8 0 0 1:1.4085636 2:-0.25964241 3:-0.978408 
-8 0 0 1:1.3820258 2:-0.26537857 3:-0.935736 
-8 0 0 1:1.3545391 2:-0.27486726 3:-0.865632 
-8 0 0 1:1.3263184 2:-0.28220659 3:-0.762 
-8 0 0 1:1.2967067 2:-0.29611715 3:-0.630936 
-8 0 0 1:1.2655712 2:-0.31135522 3:-0.496824 
-8 0 0 1:1.2334174 2:-0.32153785 3:-0.393192 
-8 0 0 1:1.2002276 2:-0.33189824 3:-0.332232 
-8 0 0 1:1.1658972 2:-0.34330391 3:-0.3048 
-8 0 0 1:1.1302936 2:-0.35603584 3:-0.301752 
-8 0 0 1:1.0932814 2:-0.37012218 3:-0.286512 
-8 0 0 1:1.0550272 2:-0.38254141 3:-0.249936 
-8 0 0 1:1.0162781 2:-0.38749079 3:-0.237744 
-8 0 0 1:0.9778997 2:-0.38378448 3:-0.249936 
-8 0 0 1:0.9402518 2:-0.37647894 3:-0.283464 
-8 0 0 1:0.90361101 2:-0.36640789 3:-0.323088 
-8 0 0 1:0.86748057 2:-0.36130445 3:-0.323088 
-8 0 0 1:0.83121904 2:-0.36261533 3:-0.313944 
-8 0 0 1:0.79458039 2:-0.36638646 3:-0.307848 
-8 0 0 1:0.75729424 2:-0.37286147 3:-0.3048 
-8 0 0 1:0.71863684 2:-0.38657403 3:-0.301752 
-8 0 0 1:0.67869158 2:-0.39945256 3:-0.3048 
-8 0 0 1:0.63736808 2:-0.41323506 3:-0.329184 
-0 8 0 1:0.2880308 2:-0.53477129 3:0.344424 
-0 8 0 1:0.083564229 2:-0.48243011 3:0.862584 
-0 8 0 1:0.038566386 2:-0.44997843 3:0.521208 
-0 8 0 1:-0.0035326634 2:-0.4209905 3:0.195072 
-0 8 8 1:-0.042459486 2:-0.38926822 3:-0.024384 
-8 0 0 1:1.8324349 2:-0.51911271 3:3.989832 
-8 0 0 1:1.7800869 2:-0.52347918 3:3.724656 
-8 0 0 1:1.7279308 2:-0.52156141 3:4.620768 
-8 0 0 1:1.6756479 2:-0.52282929 3:4.715256 
-8 0 0 1:1.6232063 2:-0.52441607 3:4.757928 
-8 0 0 1:1.5693024 2:-0.53903835 3:4.730496 
-8 0 0 1:1.5133292 2:-0.55973226 3:4.639056 
-8 0 0 1:1.4547235 2:-0.58605741 3:4.4958 
-8 0 0 1:1.3926215 2:-0.62102008 3:4.331208 
-8 0 0 1:1.3254152 2:-0.67206297 3:4.117848 
-0 8 0 1:0.36414384 2:-0.83009019 3:0.201168 
-0 8 0 1:0.27813808 2:-0.86005762 3:0.094488 
-0 8 0 1:0.18988552 2:-0.88252561 3:0.021336 
-0 8 0 1:0.10057625 2:-0.89309266 3:-0.134112 
-8 0 0 1:1.0450626 2:-0.52329903 3:-0.009144 
-8 0 0 1:0.99052051 2:-0.54542043 3:-0.630936 
-8 0 0 1:1.7521345 2:-0.31349983 3:-2.313432 
-8 0 0 1:1.7158384 2:-0.36296148 3:-2.292096 
-8 0 0 1:1.6737422 2:-0.42096177 3:-2.215896 
-8 0 0 1:1.6266374 2:-0.47104759 3:-2.060448 
-8 0 0 1:1.5755061 2:-0.51131337 3:-1.917192 
-8 0 0 1:1.5197738 2:-0.55732324 3:-1.847088 
-8 0 0 1:1.4575881 2:-0.62185699 3:-1.810512 
-8 0 0 1:1.7228233 2:-0.64958567 3:-1.652016 
-2.946248146659908 0 0 1:1.6532674 2:-0.6955586 3:-1.685544 
-8 0 0 1:1.6731139 2:-0.27324269 3:0 
-8 0 0 1:1.6437702 2:-0.29343683 3:0 
-8 0 0 1:1.6118396 2:-0.31930561 3:0 
-8 0 0 1:1.5765631 2:-0.35276558 3:0 
-8 0 0 1:1.537398 2:-0.39165038 3:0 
-8 0 0 1:1.4943143 2:-0.4308375 3:0 
-8 0 0 1:1.4476642 2:-0.46650035 3:0 
-8 0 0 1:1.3979597 2:-0.4970454 3:0 
-8 0 0 1:1.3450987 2:-0.52861038 3:0 
-8 0 0 1:1.2890208 2:-0.56077851 3:0 
-8 0 0 1:1.2298977 2:-0.59123075 3:0 
-8 0 0 1:1.1685113 2:-0.61386448 3:0 
-8 0 0 1:1.1062535 2:-0.62257781 3:0 
-0 8 0 1:0.32656942 2:-0.58915273 3:0 
-0 8 0 1:0.26745085 2:-0.59118564 3:0 
-0 8 0 1:0.20871037 2:-0.58740479 3:0 
-0 8 0 1:0.15109768 2:-0.57612693 3:0 
-0 8 0 1:0.095163483 2:-0.55934197 3:0 
-0 8 0 1:0.065739124 2:-0.54172318 3:0 
-0 8 0 1:0.037627065 2:-0.52656696 3:0 
-0 8 0 1:0.010449885 2:-0.51559662 3:0 
-0 8 0 1:-0.015585507 2:-0.50284793 3:0 
-0 8 0 1:-0.040274903 2:-0.48849497 3:0 
-8 0 0 1:1.157849 2:-0.36210649 3:-0.262128 
-8 0 0 1:1.1200881 2:-0.37760861 3:-0.390144 
-8 0 0 1:1.0806417 2:-0.39446438 3:-0.646176 
-8 0 0 1:1.0393729 2:-0.412688 3:-1.042416 
-8 0 0 1:0.99619685 2:-0.43176034 3:-1.72212 
-8 0 0 1:0.95164987 2:-0.44546979 3:-2.57556 
-8 0 0 1:0.90553038 2:-0.46119492 3:-2.8956 
-8 0 0 1:0.85801771 2:-0.47512672 3:-2.48412 
-8 0 0 1:0.43240613 2:-0.32852562 3:0.018288 
-8 0 0 1:0.39896703 2:-0.33439098 3:0.496824 
-8 0 0 1:0.36423056 2:-0.34736471 3:0.789432 
-8 0 0 1:0.32826644 2:-0.35964125 3:0.79248 
-0 8 0 1:0.084259911 2:-0.42472337 3:0.676656 
-0 8 0 1:0.043847602 2:-0.40412309 3:0.371856 
-0 8 0 1:0.0049607646 2:-0.38886838 3:0.143256 
-0 8 8 1:-0.031029705 2:-0.3599047 3:0.003048 
-0 8 8 1:-0.065446286 2:-0.3441658 3:-0.128016 
-0 8 8 1:-0.099539706 2:-0.3409342 3:-0.298704 
-0 8 8 1:-0.1345153 2:-0.3497559 3:-0.521208 
-0 8 0 1:0.309853 2:-0.69844129 3:0.19812 
-0 8 0 1:0.23622319 2:-0.7362981 3:0.16764 
-0 8 0 1:0.15678058 2:-0.79442606 3:0.192024 
-8 0 0 1:1.0338503 2:-0.41500536 3:2.523744 
-8 0 0 1:0.99080902 2:-0.43041298 3:2.337816 
-8 0 0 1:0.94572382 2:-0.45085197 3:0 
-8 0 0 1:0.89802632 2:-0.47697499 3:0 
-8 0 0 1:0.84824979 2:-0.49776532 3:0 
-0 8 0 1:0.27773271 2:-0.41986659 3:0 
-0 8 0 1:0.23559541 2:-0.42137304 3:0 
-0 8 0 1:0.19515013 2:-0.4044528 3:0 
-0 8 0 1:0.15820995 2:-0.36940184 3:0 
-0 8 0 1:0.1246524 2:-0.33557545 3:0 
-0 8 0 1:0.095127917 2:-0.29524484 3:0 
-0 8 0 1:0.079948805 2:-0.26753779 3:0 
-0 8 0 1:0.066476026 2:-0.24890733 3:0 
-0 8 8 1:0.054176271 2:-0.23624307 3:0 
-0 8 8 1:0.043126216 2:-0.22328168 3:0 
-0 8 8 1:0.03367541 2:-0.20740323 3:0 
-0 8 8 1:0.026060344 2:-0.19001356 3:0 
-0 8 8 1:0.020482316 2:-0.17173831 3:0 
-8 0 0 1:0.48103082 2:-0.47162002 3:-4.300728 
-8 0 0 1:0.42977319 2:-0.51257631 3:-4.40436 
-3.852010057890253 0 0 1:0.37403508 2:-0.55738115 3:-4.410456 
-8 0 0 1:1.7729549 2:-0.14293693 3:-0.722376 
-8 0 0 1:1.7558155 2:-0.1713942 3:-0.86868 
-8 0 0 1:1.7361768 2:-0.19638741 3:-0.874776 
-8 0 0 1:1.7139008 2:-0.22275979 3:-0.886968 
-8 0 0 1:1.689182 2:-0.2471882 3:-0.978408 
-8 0 0 1:1.6615112 2:-0.2767078 3:-1.12776 
-8 0 0 1:1.631246 2:-0.30265236 3:-1.225296 
-8 0 0 1:1.598468 2:-0.32777946 3:-1.194816 
-8 0 0 1:1.5621705 2:-0.36297483 3:-1.100328 
-8 0 0 1:1.5219526 2:-0.40217946 3:-1.03632 
-8 0 0 1:1.4789305 2:-0.43022143 3:-1.018032 
-8 0 0 1:1.4352939 2:-0.43636561 3:-1.018032 
-8 0 0 1:1.3923703 2:-0.42923621 3:-1.018032 
-8 0 0 1:1.350027 2:-0.42343259 3:-1.02108 
-8 0 0 1:1.3092346 2:-0.4079237 3:-1.024128 
-8 0 0 1:1.2694817 2:-0.39752984 3:-1.00584 
-8 0 0 1:1.2295211 2:-0.39960561 3:-0.954024 
-8 0 0 1:1.1886559 2:-0.40865204 3:-0.893064 
-8 0 0 1:1.1471561 2:-0.41499786 3:-0.871728 
-8 0 0 1:1.1056381 2:-0.4151803 3:-0.893064 
-8 0 0 1:1.0639263 2:-0.41711778 3:-0.969264 
-8 0 0 1:1.0207421 2:-0.43184168 3:-1.060704 
-8 0 0 1:0.97558566 2:-0.45156468 3:-1.11252 
-8 0 0 1:0.92846112 2:-0.47124541 3:-1.088136 
-8 0 0 1:0.88037082 2:-0.48090304 3:-0.963168 
-8 0 0 1:0.83242501 2:-0.4794581 3:-0.780288 
-8 0 0 1:0.78600759 2:-0.46417416 3:-0.618744 
-8 0 0 1:0.74092174 2:-0.45085855 3:-0.515112 
-8 0 0 1:0.69625286 2:-0.4466888 3:-0.44196 
-0 8 0 1:0.29040359 2:-0.5667781 3:0.256032 
-0 8 0 1:0.23071276 2:-0.59690831 3:0.161544 
-0 8 0 1:0.16831651 2:-0.62396248 3:0.006096 
-0 8 0 1:0.10331754 2:-0.64998979 3:-0.188976 
-0 8 0 1:0.036276765 2:-0.6704077 3:-0.384048 
-0 8 0 1:-0.031562961 2:-0.67839727 3:-0.56388 
-0 8 0 1:-0.099665441 2:-0.68102479 3:-0.70104 
-0 8 8 1:-0.16902975 2:-0.69364313 3:-0.79248 
-8 0 0 1:1.1421274 2:-0.55282517 3:-1.673352 
-8 0 0 1:1.4213021 2:-0.41487023 3:0.859536 
-8 0 0 1:1.3790042 2:-0.42297934 3:0.865632 
-8 0 0 1:1.3367217 2:-0.42282524 3:0.996696 
-8 0 0 1:1.294602 2:-0.42119713 3:1.075944 
-8 0 0 1:1.2524044 2:-0.42197577 3:1.08204 
-8 0 0 1:1.2089447 2:-0.43459669 3:1.115568 
-8 0 0 1:1.1639945 2:-0.4495024 3:1.170432 
-8 0 0 1:1.1168799 2:-0.47114562 3:1.139952 
-8 0 0 1:1.066815 2:-0.5006495 3:0.963168 
-8 0 0 1:1.0131181 2:-0.53696897 3:0.691896 
-8 0 0 1:0.9564601 2:-0.56657973 3:0.545592 
-8 0 0 1:0.89831737 2:-0.58142728 3:0.691896 
-0 8 0 1:0.16193233 2:-0.54714961 3:-0.643128 
-0 8 0 1:0.10838138 2:-0.53550949 3:-0.606552 
-8 0 0 1:1.0217683 2:-0.28651147 3:-2.1336 
-8 0 0 1:0.99201024 2:-0.29758042 3:-2.526792 
-8 0 0 1:0.96106078 2:-0.30949464 3:-2.691384 
-8 0 0 1:0.92851581 2:-0.32544965 3:-2.62128 
-8 0 0 1:0.89241301 2:-0.36102808 3:-2.48412 
-8 0 0 1:0.85203231 2:-0.40380697 3:-2.322576 
-8 0 0 1:0.80931477 2:-0.42717541 3:-2.127504 
-0 8 0 1:0.15819653 2:-0.54344076 3:-0.545592 
-0 8 0 1:0.10939686 2:-0.48799662 3:-0.271272 
-0 8 0 1:0.065356903 2:-0.4403996 3:-0.161544 
-0 8 0 1:0.024283465 2:-0.41073438 3:-0.240792 
-8 0 0 1:0.67852953 2:-0.23633221 3:0 
-8 0 0 1:0.6529076 2:-0.25621928 3:0 
-8 0 0 1:0.62401677 2:-0.28890828 3:0 
-8 0 0 1:0.5908986 2:-0.3311817 3:0 
-8 0 0 1:0.55551958 2:-0.35379021 3:0 
-8 0 0 1:0.51739146 2:-0.38128114 3:0 
-0 0.7706008017308642 0 1:0.29490772 2:-0.44807414 3:0 
-0 8 0 1:0.25107092 2:-0.43836799 3:0 
-0 8 0 1:0.20836074 2:-0.42710172 3:0 
-0 8 0 1:0.16686512 2:-0.41495624 3:0 
-0 8 0 1:0.12773736 2:-0.39127765 3:0 
-0 8 0 1:0.091382178 2:-0.36355178 3:0 
-8 0 0 1:0.75186312 2:-0.17766511 3:-0.01524 
-8 0 0 1:0.73207275 2:-0.19790373 3:-0.219456 
-8 0 0 1:0.71043349 2:-0.21639256 3:-0.399288 
-8 0 0 1:0.68704396 2:-0.23389528 3:-0.420624 
-8 0 0 1:0.66189681 2:-0.2514715 3:-0.249936 
-8 0 0 1:0.63394427 2:-0.27952543 3:0.064008 
-8 0 0 1:0.60103855 2:-0.32905723 3:0.484632 
-8 0 0 1:0.56182269 2:-0.39215852 3:0.856488 
-8 0 0 1:0.51894892 2:-0.42873777 3:1.139952 
-8 0 0 1:0.47377233 2:-0.45176588 3:1.3716 
-0 8 0 1:0.26892776 2:-0.54008386 3:0 
-0 8 0 1:0.2166538 2:-0.52273964 3:0 
-0 8 0 1:0.1696543 2:-0.46999495 3:0 
-0 8 0 1:0.12701347 2:-0.4264083 3:0 
-0 8 0 1:0.086522836 2:-0.40490639 3:0 
-0 8 0 1:0.047568708 2:-0.38954127 3:0 
-0 8 0 1:0.0082707911 2:-0.39297917 3:0 
-0 8 0 1:0.34727532 2:-1.0774851 3:-0.234696 
-0 8 0 1:0.23744467 2:-1.0983065 3:-0.268224 
-8 0 0 1:1.589062 2:-0.087258785 3:0.466344 
-8 0 0 1:1.5794252 2:-0.096368224 3:0.475488 
-8 0 0 1:1.5687534 2:-0.10671796 3:0.368808 
-8 0 0 1:1.5568017 2:-0.11951666 3:0.185928 
-8 0 0 1:1.5437755 2:-0.13026213 3:0.149352 
-8 0 0 1:1.5296609 2:-0.14114616 3:0.24384 
-8 0 0 1:1.5147236 2:-0.14937287 3:0.347472 
-8 0 0 1:1.4987895 2:-0.15934122 3:0.438912 
-8 0 0 1:1.4820121 2:-0.16777385 3:0.51816 
-8 0 0 1:1.4642154 2:-0.17796691 3:0.591312 
-8 0 0 1:1.4450958 2:-0.1911962 3:0.664464 
-8 0 0 1:1.425067 2:-0.20028793 3:0.719328 
-8 0 0 1:1.4036902 2:-0.21376732 3:0.694944 
-8 0 0 1:1.381181 2:-0.22509194 3:0.56388 
-8 0 0 1:1.3577604 2:-0.23420623 3:0.359664 
-8 0 0 1:1.3342289 2:-0.23531487 3:0.179832 
-8 0 0 1:1.3106194 2:-0.23609529 3:0.12192 
-8 0 0 1:1.2868458 2:-0.23773579 3:0.19812 
-8 0 0 1:1.2627299 2:-0.24115913 3:0.316992 
-8 0 0 1:1.2387062 2:-0.24023711 3:0.387096 
-8 0 0 1:1.2146433 2:-0.24062946 3:0.313944 
-8 0 0 1:1.1905375 2:-0.24105749 3:0.048768 
-8 0 0 1:1.1662954 2:-0.24242069 3:-0.463296 
-8 0 0 1:1.1419401 2:-0.24355387 3:-1.18872 
-8 0 0 1:1.1175023 2:-0.24437757 3:-1.853184 
-8 0 0 1:1.0929609 2:-0.24541413 3:-2.24028 
-8 0 0 1:1.0682923 2:-0.24668581 3:-2.31648 
-8 0 0 1:1.0431828 2:-0.25109471 3:-2.197608 
-8 0 0 1:1.0172796 2:-0.25903236 3:-2.11836 
-8 0 0 1:0.99061378 2:-0.26665809 3:-2.121408 
-8 0 0 1:0.96308867 2:-0.27525115 3:-2.106168 
-8 0 0 1:0.93471549 2:-0.2837318 3:-1.990344 
-8 0 0 1:0.90548219 2:-0.29233299 3:-1.73736 
-8 0 0 1:0.87527095 2:-0.30211237 3:-1.347216 
-8 0 0 1:0.84428917 2:-0.30981783 3:-0.877824 
-8 0 0 1:0.81252892 2:-0.31760253 3:-0.4572 
-8 0 0 1:0.77995194 2:-0.32576974 3:-0.109728 
-8 0 0 1:0.74681898 2:-0.33132963 3:0.088392 
-8 0 0 1:0.71300004 2:-0.33818942 3:-0.064008 
-8 0 0 1:0.6785442 2:-0.34455836 3:-0.591312 
-8 0 0 1:0.64357423 2:-0.34969969 3:-1.38684 
-8 0 0 1:0.60768705 2:-0.35887178 3:-2.22504 
-8 0 0 1:0.5705532 2:-0.37133852 3:-2.80416 
-0.8589810008744258 0 0 1:0.53047 2:-0.40083205 3:-3.096768 
-0 2.396419995778395 0 1:0.16491813 2:-0.51126864 3:-0.682752 
-0 8 0 1:0.11233418 2:-0.52583951 3:-0.188976 
-0 8 0 1:0.058121609 2:-0.54212572 3:-0.054864 
-0 8 0 1:0.0016181854 2:-0.56503424 3:-0.158496 
-0 8 0 1:-0.057607674 2:-0.59225859 3:-0.286512 
-0 8 8 1:-0.12063436 2:-0.63026682 3:-0.295656 
-8 0 0 1:1.9740143 2:-0.3598062 3:2.106168 
-8 0 0 1:1.9340974 2:-0.39916842 3:1.911096 
-8 0 0 1:1.891071 2:-0.43026489 3:1.880616 
-8 0 0 1:1.846339 2:-0.44731953 3:1.95072 
-8 0 0 1:1.7998844 2:-0.46454559 3:1.987296 
-8 0 0 1:1.7520756 2:-0.47808878 3:1.993392 
-8 0 0 1:1.7031958 2:-0.48879792 3:2.020824 
-8 0 0 1:1.6526495 2:-0.50546279 3:2.075688 
-8 0 0 1:1.5994055 2:-0.5324404 3:2.154936 
-8 0 0 1:1.5436973 2:-0.55708153 3:2.231136 
-8 0 0 1:1.4861883 2:-0.57508975 3:2.286 
-8 0 0 1:1.4276747 2:-0.58513673 3:2.31648 
-8 0 0 1:1.3687215 2:-0.58953136 3:2.380488 
-8 0 0 1:1.3095395 2:-0.59181984 3:2.459736 
-8 0 0 1:1.2502576 2:-0.5928192 3:2.410968 
-8 0 0 1:1.1914596 2:-0.58797981 3:2.231136 
-8 0 0 1:1.1328699 2:-0.58589698 3:1.975104 
-8 0 0 1:1.0745838 2:-0.5828612 3:1.758696 
-8 0 0 1:1.0165384 2:-0.58045445 3:1.73736 
-8 0 0 1:0.95865257 2:-0.57885806 3:1.819656 
-8 0 0 1:0.90111711 2:-0.57535457 3:1.908048 
-8 0 0 1:0.8437441 2:-0.57373013 3:1.9812 
-8 0 0 1:0.78642308 2:-0.57321016 3:2.005584 
-8 0 0 1:0.72983059 2:-0.56592486 3:2.002536 
-8 0 0 1:1.085641 2:-0.32082091 3:0.597408 
-8 0 0 1:1.0533428 2:-0.32298221 3:0.499872 
-8 0 0 1:1.0189236 2:-0.34419151 3:0.44196 
-8 0 0 1:0.9813646 2:-0.37559016 3:0.554736 
-8 0 0 1:0.94088978 2:-0.40474817 3:0.835152 
-8 0 0 1:0.89666579 2:-0.44223992 3:1.161288 
-8 0 0 1:0.84862008 2:-0.48045712 3:1.350264 
-8 0 0 1:0.79693127 2:-0.5168881 3:1.362456 
-8 0 0 1:0.74166017 2:-0.55271099 3:1.338072 
-0 8 0 1:0.16817494 2:-0.49561839 3:0.768096 
-8 0 0 1:2.4470537 2:-0.56137785 3:0.033528 
-8 0 0 1:2.3850322 2:-0.62021528 3:0.036576 
-8 0 0 1:2.3172445 2:-0.67787736 3:0.009144 
-8 0 0 1:2.2433025 2:-0.73941996 3:-0.021336 
-8 0 0 1:2.1634191 2:-0.79883324 3:-0.033528 
-0 8 0 1:0.18713812 2:-0.51777228 3:-0.41148 
-8 0 0 1:1.1948062 2:-0.256919 3:1.09728 
-8 0 0 1:1.1660912 2:-0.28714939 3:0.917448 
-8 0 0 1:1.1341938 2:-0.31897432 3:0.810768 
-8 0 0 1:1.098599 2:-0.35594792 3:0.798576 
-8 0 0 1:1.0588647 2:-0.39734324 3:0.829056 
-8 0 0 1:1.015114 2:-0.43750633 3:0.832104 
-8 0 0 1:0.96771141 2:-0.47402621 3:0.752856 
-8 0 0 1:0.91681927 2:-0.50892143 3:0.597408 
-8 0 0 1:0.86240691 2:-0.54412353 3:0.353568 
-0 8 0 1:0.14783002 2:-0.78959373 3:-0.536448 
-0 8 0 1:0.068584638 2:-0.79245383 3:-0.41148 
-0 8 0 1:-0.011002937 2:-0.79587575 3:-0.338328 
-0 8 0 1:-0.091528615 2:-0.80525678 3:0.323088 
-0 8 0 1:-0.17190575 2:-0.80377131 3:0.32004 
-8 0 0 1:2.3481038 2:-0.20859811 3:-2.916936 
-8 0 0 1:2.3208684 2:-0.27235381 3:-2.798064 
-8 0 0 1:2.2893933 2:-0.31475176 3:-2.648712 
-8 0 0 1:2.2555245 2:-0.33868764 3:-2.633472 
-8 0 0 1:2.2199588 2:-0.3556568 3:-2.700528 
-8 0 0 1:2.1818498 2:-0.38109072 3:-2.68224 
-8 0 0 1:2.1409939 2:-0.40855874 3:-2.46888 
-8 0 0 1:2.0967776 2:-0.44216237 3:-2.115312 
-8 0 0 1:2.0489176 2:-0.47860035 3:-1.840992 
-8 0 0 1:1.9975279 2:-0.51389746 3:-1.712976 
-8 0 0 1:1.9427771 2:-0.54750773 3:-1.679448 
-8 0 0 1:1.8856475 2:-0.57129596 3:-1.70688 
-8 0 0 1:1.8275361 2:-0.58111387 3:-1.78308 
-8 0 0 1:1.7682272 2:-0.59308902 3:-1.886712 
-8 0 0 1:1.707734 2:-0.6049321 3:-1.99644 
-8 0 0 1:1.6460406 2:-0.61693405 3:-2.139696 
-8 0 0 1:1.5831611 2:-0.6287945 3:-2.304288 
-8 0 0 1:1.5191301 2:-0.64031077 3:-2.474976 
-8 0 0 1:1.8907989 2:-0.59832809 3:-0.646176 
-8 0 0 1:1.8292845 2:-0.61514465 3:-0.6858 
-8 0 0 1:1.7662646 2:-0.63019853 3:-0.637032 
-8 0 0 1:1.701817 2:-0.64447562 3:-0.673608 
-8 0 0 1:1.6358388 2:-0.65978262 3:-0.740664 
-8 0 0 1:1.5683204 2:-0.67518366 3:-0.74676 
-8 0 0 1:1.4993729 2:-0.68947555 3:-0.737616 
-8 0 0 1:0.26954556 2:-0.50423369 3:-4.443984 
-8 0 0 1:0.22554815 2:-0.43997405 3:-4.507992 
-8 0 0 1:0.18854721 2:-0.3700094 3:-4.492752 
-8 0 0 1:0.15649365 2:-0.32053563 3:-4.376928 
-8 0 0 1:1.5910326 2:-0.19344965 3:-3.410712 
-8 0 0 1:1.5693936 2:-0.21638976 3:-3.441192 
-8 0 0 1:1.5441051 2:-0.25288507 3:-3.465576 
-8 0 0 1:1.5135017 2:-0.30603371 3:-3.553968 
-8 0 0 1:1.4774041 2:-0.36097638 3:-3.663696 
-8 0 0 1:1.43716 2:-0.40244094 3:-3.633216 
-8 0 0 1:1.3931213 2:-0.44038637 3:-3.41376 
-8 0 0 1:1.3448663 2:-0.48255032 3:-3.182112 
-8 0 0 1:1.292642 2:-0.52224268 3:-3.041904 
-8 0 0 1:1.2365204 2:-0.56121668 3:-3.005328 
-8 0 0 1:1.1764768 2:-0.60043532 3:-3.145536 
-8 0 0 1:1.1664375 2:-0.34486079 3:0.801624 
-8 0 0 1:1.1310026 2:-0.35434921 3:0.987552 
-8 0 0 1:1.0940816 2:-0.3692094 3:1.11252 
-8 0 0 1:1.0548083 2:-0.39273326 3:1.152144 
-8 0 0 1:1.0123046 2:-0.42503694 3:1.179576 
-8 0 0 1:0.96662707 2:-0.45677544 3:1.292352 
-8 0 0 1:0.91867428 2:-0.47952796 3:1.527048 
-8 0 0 1:0.86873315 2:-0.49941128 3:1.81356 
-8 0 0 1:0.81730837 2:-0.51424774 3:2.100072 
-8 0 0 1:0.7651755 2:-0.52132874 3:2.404872 
-8 0 0 1:0.71353241 2:-0.51643091 3:2.782824 
-8 0 0 1:0.66354786 2:-0.49984551 3:3.2766 
-8 0 0 1:1.3386982 2:-0.081174783 3:0.877824 
-8 0 0 1:1.3296443 2:-0.090539431 3:0.460248 
-8 0 0 1:1.3192708 2:-0.10373466 3:-0.012192 
-8 0 0 1:1.3080169 2:-0.11253923 3:-0.12192 
-8 0 0 1:1.2963533 2:-0.1166365 3:0.070104 
-8 0 0 1:1.2837772 2:-0.12576033 3:0.271272 
-8 0 0 1:1.2699786 2:-0.13798582 3:0.344424 
-8 0 0 1:1.2550303 2:-0.14948315 3:0.262128 
-8 0 0 1:1.2391567 2:-0.15873618 3:0.12192 
-8 0 0 1:1.2227972 2:-0.16359535 3:0.024384 
-8 0 0 1:1.2055217 2:-0.17275445 3:-0.009144 
-8 0 0 1:1.1867938 2:-0.18727923 3:-0.003048 
-8 0 0 1:1.1670733 2:-0.1972048 3:0.003048 
-8 0 0 1:1.1469283 2:-0.20144993 3:0.009144 
-8 0 0 1:1.1266761 2:-0.20252255 3:-0.024384 
-8 0 0 1:1.1063263 2:-0.20349823 3:-0.155448 
-8 0 0 1:1.0858226 2:-0.20503656 3:-0.384048 
-8 0 0 1:1.065196 2:-0.20626608 3:-0.615696 
-8 0 0 1:1.0444844 2:-0.2071157 3:-0.74676 
-8 0 0 1:1.0235937 2:-0.2089072 3:-0.768096 
-8 0 0 1:1.0025486 2:-0.21045125 3:-0.758952 
-8 0 0 1:0.98144895 2:-0.21099633 3:-0.795528 
-8 0 0 1:0.96017879 2:-0.21270154 3:-0.96012 
-8 0 0 1:0.93879303 2:-0.2138576 3:-1.213104 
-8 0 0 1:0.91733509 2:-0.21457941 3:-1.335024 
-8 0 0 1:0.89566457 2:-0.21670522 3:-1.246632 
-8 0 0 1:0.87434903 2:-0.2131554 3:-0.987552 
-8 0 0 1:0.85310682 2:-0.21242207 3:-0.71628 
-8 0 0 1:0.83138486 2:-0.2172196 3:-0.65532 
-8 0 0 1:0.8084784 2:-0.22906464 3:-0.73152 
-8 0 0 1:0.78542275 2:-0.23055652 3:-0.749808 
-8 0 0 1:0.76217719 2:-0.23245554 3:-0.646176 
-8 0 0 1:0.738276 2:-0.23901197 3:-0.499872 
-8 0 0 1:0.71329937 2:-0.2497663 3:-0.414528 
-8 0 0 1:0.68684955 2:-0.26449818 3:-0.39624 
-8 0 0 1:0.65945297 2:-0.27396583 3:-0.359664 
-8 0 0 1:0.63170625 2:-0.27746716 3:-0.28956 
-8 0 0 1:0.60319384 2:-0.28512409 3:-0.280416 
-8 0 0 1:0.57398881 2:-0.29205028 3:-0.445008 
-8 0 0 1:0.54381418 2:-0.30174637 3:-0.762 
-8 0 0 1:0.51277027 2:-0.31043902 3:-0.9906 
-0 8 0 1:0.13647588 2:-0.43955085 3:-0.588264 
-0 8 0 1:0.089359789 2:-0.47116088 3:-0.649224 
-0 8 0 1:0.038341273 2:-0.51018516 3:-0.813816 
-0 8 0 1:-0.016129889 2:-0.54471162 3:-1.024128 
-0 0 3.931572643792927 1:-0.20297891 2:-0.66204197 3:-1.55448 
-8 0 0 1:2.2277846 2:-0.49027652 3:-0.981456 
-8 0 0 1:2.1789846 2:-0.48800046 3:-0.844296 
-8 0 0 1:2.130148 2:-0.48836575 3:-0.694944 
-8 0 0 1:2.0809632 2:-0.49184806 3:-0.615696 
-8 0 0 1:2.0311579 2:-0.4980527 3:-0.612648 
-8 0 0 1:1.9805523 2:-0.50605618 3:-0.67056 
-8 0 0 1:1.9294206 2:-0.5113169 3:-0.813816 
-8 0 0 1:1.8768277 2:-0.52592956 3:-1.136904 
-8 0 0 1:1.8220911 2:-0.54736523 3:-1.697736 
-8 0 0 1:1.7651265 2:-0.56964614 3:-2.356104 
-8 0 0 1:1.7068528 2:-0.58273745 3:-2.80416 
-8 0 0 1:1.6469776 2:-0.59875193 3:-2.72796 
-8 0 0 1:1.5854886 2:-0.61488937 3:-2.090928 
-8 0 0 1:1.522801 2:-0.62687599 3:-1.252728 
-8 0 0 1:1.4591092 2:-0.63691822 3:-0.603504 
-8 0 0 1:1.3944333 2:-0.64675894 3:-0.265176 
-8 0 0 1:1.3284914 2:-0.65941918 3:-0.24384 
-8 0 0 1:0.96354825 2:-0.51123065 3:-2.16408 
-8 0 0 1:0.91500847 2:-0.48539777 3:-1.496568 
-8 0 0 1:0.86771773 2:-0.47290745 3:-0.905256 
-8 0 0 1:0.82016516 2:-0.47552568 3:-0.56388 
-8 0 0 1:1.0381356 2:-0.15936991 3:1.700784 
-8 0 0 1:1.020968 2:-0.17167573 3:1.804416 
-8 0 0 1:1.0026188 2:-0.18349152 3:1.84404 
-8 0 0 1:0.98304346 2:-0.19575368 3:1.862328 
-8 0 0 1:0.96226787 2:-0.20775591 3:1.8288 
-8 0 0 1:0.94026903 2:-0.21998838 3:1.624584 
-8 0 0 1:0.91706446 2:-0.23204573 3:1.139952 
-8 0 0 1:0.89263615 2:-0.24428301 3:0.359664 
-8 0 0 1:0.86706918 2:-0.25566976 3:-0.630936 
-8 0 0 1:0.84041666 2:-0.26652518 3:-1.618488 
-8 0 0 1:0.81238924 2:-0.28027424 3:-2.398776 
-8 0 0 1:0.78277602 2:-0.29613212 3:-2.898648 
-8 0 0 1:0.75194581 2:-0.30830211 3:-3.145536 
-8 0 0 1:0.72084578 2:-0.31100031 3:-3.203448 
-8 0 0 1:0.68942344 2:-0.31422346 3:-3.166872 
-8 0 0 1:0.65755645 2:-0.31866983 3:-3.06324 
-8 0 0 1:0.62542231 2:-0.32134148 3:-2.907792 
-8 0 0 1:0.59264865 2:-0.32773654 3:-2.746248 
-8 0 0 1:0.55853063 2:-0.34118023 3:-2.599944 
-8 0 0 1:1.5787243 2:-0.11951092 3:0.112776 
-8 0 0 1:1.5658993 2:-0.12825003 3:0.188976 
-8 0 0 1:1.5517678 2:-0.14131442 3:0.265176 
-8 0 0 1:1.5359418 2:-0.15825974 3:0.307848 
-8 0 0 1:1.5179898 2:-0.1795201 3:0.3048 
-8 0 0 1:1.4973543 2:-0.20635564 3:0.283464 
-8 0 0 1:1.4742065 2:-0.23147787 3:0.277368 
-8 0 0 1:1.4485297 2:-0.2567681 3:0.280416 
-8 0 0 1:1.4203287 2:-0.28201025 3:0.262128 
-8 0 0 1:1.3892646 2:-0.3106404 3:0.18288 
-8 0 0 1:1.3549945 2:-0.34270129 3:0.033528 
-8 0 0 1:1.3188971 2:-0.36097414 3:-0.124968 
-8 0 0 1:1.2824403 2:-0.36456812 3:-0.222504 
-8 0 0 1:1.2472266 2:-0.35213694 3:-0.283464 
-8 0 0 1:1.2142278 2:-0.32998793 3:-0.344424 
-8 0 0 1:1.1816047 2:-0.32623059 3:-0.356616 
-8 0 0 1:1.1483757 2:-0.33229059 3:-0.301752 
-8 0 0 1:1.1126669 2:-0.35708795 3:-0.210312 
-8 0 0 1:1.0739628 2:-0.3870404 3:-0.13716 
-8 0 0 1:1.032351 2:-0.41611825 3:-0.158496 
-8 0 0 1:0.9881193 2:-0.44231686 3:-0.222504 
-8 0 0 1:0.94248798 2:-0.45631325 3:-0.27432 
-8 0 0 1:0.89643238 2:-0.46055597 3:-0.399288 
-8 0 0 1:0.84930175 2:-0.47130628 3:-0.573024 
-0 8 0 1:0.23269386 2:-0.61410154 3:-0.545592 
-0 8 0 1:0.25578917 2:-0.41642767 3:0.082296 
-0 8 0 1:0.21482326 2:-0.40965909 3:-0.057912 
-0 8 0 1:0.17346166 2:-0.413616 3:-0.170688 
-0 8 0 1:0.13168182 2:-0.4177984 3:-0.207264 
-8 0 0 1:1.9347907 2:-0.23358816 3:1.405128 
-8 0 0 1:1.910024 2:-0.24766759 3:1.164336 
-8 0 0 1:1.8848968 2:-0.25127139 3:0.859536 
-8 0 0 1:1.8599164 2:-0.24980426 3:0.74676 
-8 0 0 1:1.8345281 2:-0.25388302 3:1.139952 
-8 0 0 1:1.807397 2:-0.27131067 3:1.694688 
-8 0 0 1:1.778166 2:-0.29231036 3:1.96596 
-8 0 0 1:1.7482227 2:-0.29943329 3:2.069592 
-8 0 0 1:1.7176682 2:-0.30554438 3:2.112264 
-8 0 0 1:1.686168 2:-0.3150026 3:2.17932 
-8 0 0 1:1.6547188 2:-0.31449196 3:2.252472 
-8 0 0 1:1.6243628 2:-0.30355979 3:2.139696 
-8 0 0 1:1.5958453 2:-0.28517525 3:1.880616 
-8 0 0 1:1.5687455 2:-0.27099775 3:1.58496 
-8 0 0 1:1.5439975 2:-0.24748029 3:1.283208 
-8 0 0 1:1.5223556 2:-0.21641857 3:1.042416 
-8 0 0 1:1.504033 2:-0.18322616 3:0.893064 
-8 0 0 1:1.4892386 2:-0.14794392 3:0.844296 
-8 0 0 1:1.4766754 2:-0.1256322 3:0.844296 
-8 0 0 1:1.4660951 2:-0.10580264 3:0.80772 
-8 0 0 1:1.45821 2:-0.07885128 3:0.707136 
-8 0 0 1:1.4527448 2:-0.054652306 3:0.600456 
-8 0 0 1:1.4492948 2:-0.034499399 3:0.54864 
-8 0 0 1:1.4467482 2:-0.025465954 3:0.582168 
-8 0 0 1:1.445558 2:-0.011902336 3:0.658368 
-8 0 0 1:1.4455317 2:-0.00026261394 3:0.755904 
-8 0 0 1:1.4453786 2:-0.0015314944 3:0.902208 
-8 0 0 1:1.4439073 2:-0.014712986 3:1.216152 
-8 0 0 1:1.4405903 2:-0.033169722 3:1.670304 
-8 0 0 1:1.4356463 2:-0.049440158 3:1.987296 
-8 0 0 1:1.4304183 2:-0.052279881 3:1.96596 
-8 0 0 1:1.4256049 2:-0.04813379 3:1.560576 
-8 0 0 1:1.4206223 2:-0.04982638 3:0.911352 
-8 0 0 1:1.4159091 2:-0.047132048 3:0.25908 
-8 0 0 1:1.410217 2:-0.056920901 3:-0.298704 
-8 0 0 1:1.4036677 2:-0.065492843 3:-0.728472 
-8 0 0 1:1.3961651 2:-0.075026122 3:-1.05156 
-8 0 0 1:1.3871511 2:-0.090139658 3:-1.307592 
-8 0 0 1:1.3763186 2:-0.10832553 3:-1.441704 
-8 0 0 1:1.3641917 2:-0.12126891 3:-1.423416 
-8 0 0 1:1.351 2:-0.13191675 3:-1.176528 
-8 0 0 1:1.3364823 2:-0.14517716 3:-0.691896 
-8 0 0 1:1.3204472 2:-0.16035038 3:-0.112776 
-8 0 0 1:1.3041889 2:-0.16258306 3:0.512064 
-8 0 0 1:1.2879542 2:-0.16234775 3:1.0668 
-8 0 0 1:1.2710338 2:-0.16920329 3:1.380744 
-8 0 0 1:1.2538912 2:-0.17142594 3:1.362456 
-8 0 0 1:1.2362914 2:-0.17599831 3:1.014984 
-8 0 0 1:1.2186704 2:-0.17621042 3:0.499872 
-8 0 0 1:1.2002175 2:-0.18452864 3:0.036576 
-8 0 0 1:1.1796287 2:-0.20588802 3:-0.240792 
-8 0 0 1:1.1570072 2:-0.22621551 3:-0.353568 
-8 0 0 1:1.1322048 2:-0.24802324 3:-0.377952 
-8 0 0 1:1.1056173 2:-0.26587556 3:-0.371856 
-8 0 0 1:1.0775001 2:-0.28117193 3:-0.356616 
-8 0 0 1:1.0477694 2:-0.29730705 3:-0.326136 
-8 0 0 1:1.0161705 2:-0.31598889 3:-0.3048 
-8 0 0 1:0.98280754 2:-0.33362952 3:-0.298704 
-8 0 0 1:0.94704272 2:-0.3576482 3:-0.292608 
-8 0 0 1:0.91011531 2:-0.36927407 3:-0.286512 
-8 0 0 1:0.8719145 2:-0.38200809 3:-0.35052 
-8 0 0 1:0.83270601 2:-0.3920849 3:-0.649224 
-8 0 0 1:0.79331148 2:-0.3939453 3:-1.094232 
-8 0 0 1:0.75372895 2:-0.39582528 3:-1.4478 
-8 0 0 1:0.71424851 2:-0.3948044 3:-1.55448 
-8 0 0 1:0.67603036 2:-0.38218157 3:-1.383792 
-8 0 0 1:0.63939658 2:-0.36633778 3:-1.170432 
-8 0 0 1:0.60403387 2:-0.35362705 3:-1.136904 
-8 0 0 1:0.36244513 2:-0.17329592 3:-1.877568 
-8 0 0 1:0.34827586 2:-0.1416927 3:-1.84404 
-8 0 0 1:0.3366597 2:-0.11616158 3:-1.810512 
-8 0 0 1:0.3279111 2:-0.087486031 3:-1.786128 
-8 0 0 1:0.32189049 2:-0.060206117 3:-1.734312 
-8 0 0 1:0.31831979 2:-0.035706949 3:-1.655064 
-8 0 0 1:0.31699963 2:-0.013201607 3:-1.572768 
-8 0 0 1:0.31797566 2:0.0097603515 3:-1.527048 
-8 0 0 1:0.32142226 2:0.034465912 3:-1.514856 
-8 0 0 1:0.32718111 2:0.057588504 3:-1.520952 
-8 0 0 1:0.33509544 2:0.079143295 3:-1.520952 
-8 0 0 1:0.34532579 2:0.10230356 3:-1.520952 
-8 0 0 1:0.35736941 2:0.12043622 3:-1.524 
-8 0 0 1:0.36852107 2:0.11151654 3:-1.472184 
-8 0 0 1:0.37589207 2:0.073710073 3:-1.359408 
-8 0 0 1:0.37852337 2:0.026312979 3:-1.277112 
-8 0 0 1:0.37724153 2:-0.01281841 3:-1.277112 
-8 0 0 1:0.37328997 2:-0.039515572 3:-1.362456 
-8 0 0 1:0.36772565 2:-0.055643227 3:-1.484376 
-8 0 0 1:0.36044025 2:-0.072854065 3:-1.524 
-8 0 0 1:0.34828587 2:-0.12154373 3:-1.4478 
-8 0 0 1:0.33360729 2:-0.14678578 3:-1.274064 
-8 0 0 1:0.31594802 2:-0.17659279 3:-1.008888 
-8 0 0 1:2.5072737 2:-0.56961806 3:0.009144 
-8 0 0 1:2.444227 2:-0.63046686 3:0.155448 
-8 0 0 1:2.3750582 2:-0.69168745 3:0.161544 
-8 0 0 1:2.2993121 2:-0.75746139 3:0.149352 
-8 0 0 1:2.2172551 2:-0.82056986 3:0.140208 
-0 8 0 1:0.26509782 2:-1.0797807 3:-0.36576 
-8 0 0 1:1.924776 2:0.21067797 3:-0.463296 
-8 0 0 1:1.9455376 2:0.20761555 3:-0.295656 
-8 0 0 1:1.9643399 2:0.18802315 3:-0.134112 
-8 0 0 1:1.9807734 2:0.16433509 3:-0.036576 
-8 0 0 1:1.9932679 2:0.12494499 3:0 
-8 0 0 1:2.0021354 2:0.08867472 3:0.039624 
-8 0 0 1:2.0075376 2:0.054022399 3:0.134112 
-8 0 0 1:2.0095325 2:0.019948584 3:0.295656 
-8 0 0 1:2.008299 2:-0.012335115 3:0.509016 
-8 0 0 1:2.0033464 2:-0.049525644 3:0.713232 
-8 0 0 1:1.9947858 2:-0.085605633 3:0.874776 
-8 0 0 1:1.9831894 2:-0.11596419 3:0.984504 
-8 0 0 1:1.9698332 2:-0.13356198 3:1.039368 
-8 0 0 1:1.9557511 2:-0.1408215 3:1.03632 
-8 0 0 1:1.9412441 2:-0.1450694 3:0.935736 
-8 0 0 1:1.9260639 2:-0.15180219 3:0.734568 
-8 0 0 1:1.9104036 2:-0.15660282 3:0.530352 
-8 0 0 1:1.894236 2:-0.16167616 3:0.41148 
-8 0 0 1:1.8776013 2:-0.16634654 3:0.41148 
-8 0 0 1:1.8604849 2:-0.17116418 3:0.481584 
-8 0 0 1:1.8428848 2:-0.17600084 3:0.573024 
-8 0 0 1:1.8246199 2:-0.18264981 3:0.713232 
-8 0 0 1:1.806068 2:-0.18551832 3:0.902208 
-8 0 0 1:1.7870547 2:-0.19013325 3:1.045464 
-8 0 0 1:1.7676052 2:-0.19449542 3:1.072896 
-8 0 0 1:1.7477069 2:-0.19898215 3:0.978408 
-8 0 0 1:1.7273611 2:-0.2034582 3:0.877824 
-8 0 0 1:1.7065817 2:-0.20779387 3:0.871728 
-8 0 0 1:1.6855012 2:-0.21080506 3:0.97536 
-8 0 0 1:1.6647937 2:-0.20707531 3:1.124712 
-8 0 0 1:1.6438184 2:-0.20975322 3:1.258824 
-8 0 0 1:1.6221577 2:-0.21660635 3:1.359408 
-8 0 0 1:1.6001608 2:-0.21996907 3:1.43256 
-8 0 0 1:1.5776885 2:-0.22472346 3:1.524 
-8 0 0 1:1.5551617 2:-0.22526772 3:1.685544 
-8 0 0 1:1.5323448 2:-0.22816954 3:1.944624 
-8 0 0 1:1.5092698 2:-0.23074996 3:2.295144 
-8 0 0 1:1.4855756 2:-0.23694147 3:2.642616 
-8 0 0 1:1.4618804 2:-0.23695254 3:2.859024 
-8 0 0 1:1.4394067 2:-0.22473703 3:2.862072 
-8 0 0 1:1.4186294 2:-0.20777311 3:2.645664 
-8 0 0 1:1.3990963 2:-0.19533038 3:2.295144 
-8 0 0 1:1.3794648 2:-0.19631553 3:1.941576 
-8 0 0 1:1.3592278 2:-0.2023692 3:1.688592 
-8 0 0 1:1.3391504 2:-0.20077493 3:1.55448 
-8 0 0 1:1.3199834 2:-0.19166939 3:1.517904 
-8 0 0 1:1.3021563 2:-0.17827141 3:1.55448 
-8 0 0 1:1.2862926 2:-0.1586364 3:1.667256 
-8 0 0 1:1.2721116 2:-0.1418106 3:1.929384 
-8 0 0 1:1.2591068 2:-0.1300473 3:2.3622 
-8 0 0 1:1.2470674 2:-0.12039453 3:2.855976 
-8 0 0 1:1.2364743 2:-0.10593084 3:3.240024 
-8 0 0 1:1.227311 2:-0.091632619 3:3.386328 
-8 0 0 1:1.2191448 2:-0.081662298 3:3.32232 
-8 0 0 1:1.2122699 2:-0.068748882 3:3.18516 
-8 0 0 1:1.2072964 2:-0.04973561 3:3.096768 
-8 0 0 1:1.2044959 2:-0.028004707 3:3.060192 
-8 0 0 1:1.2034601 2:-0.010357704 3:3.014472 
-8 0 0 1:1.203375 2:-0.00085114723 3:2.919984 
-8 0 0 1:1.2034667 2:0.00091730574 3:2.795016 
-8 0 0 1:1.2031013 2:-0.0036541047 3:2.703576 
-8 0 0 1:1.2013552 2:-0.01746124 3:2.703576 
-8 0 0 1:1.1984671 2:-0.028881282 3:2.795016 
-8 0 0 1:1.1936515 2:-0.048156098 3:2.913888 
-8 0 0 1:1.1856591 2:-0.07992325 3:3.011424 
-8 0 0 1:1.1740401 2:-0.11619079 3:3.054096 
-8 0 0 1:1.1592898 2:-0.14750273 3:3.051048 
-8 0 0 1:1.1423875 2:-0.16902277 3:3.054096 
-8 0 0 1:1.1242358 2:-0.18151675 3:3.081528 
-8 0 0 1:1.1055752 2:-0.18660636 3:3.13944 
-8 0 0 1:1.0868825 2:-0.18692658 3:3.218688 
-8 0 0 1:1.0682274 2:-0.18655114 3:3.325368 
-8 0 0 1:1.0488961 2:-0.19331329 3:3.432048 
-8 0 0 1:1.028948 2:-0.19948127 3:3.511296 
-8 0 0 1:1.0089829 2:-0.19965087 3:3.587496 
-8 0 0 1:0.98920837 2:-0.19774524 3:3.706368 
-8 0 0 1:0.969098 2:-0.20110371 3:3.925824 
-8 0 0 1:0.94873969 2:-0.20358309 3:4.258056 
-8 0 0 1:0.92781315 2:-0.2092654 3:4.61772 
-8 0 0 1:0.90661922 2:-0.21193926 3:4.910328 
-8 0 0 1:0.88512065 2:-0.21498571 3:5.084064 
-8 0 0 1:0.86321525 2:-0.21905396 3:5.126736 
-8 0 0 1:0.84099233 2:-0.22222922 3:5.032248 
-8 0 0 1:0.81922835 2:-0.21763982 3:4.828032 
-8 0 0 1:0.79860683 2:-0.20621525 3:4.581144 
-8 0 0 1:0.77995014 2:-0.18656689 3:4.395216 
-8 0 0 1:0.76412715 2:-0.15822988 3:4.35864 
-8 0 0 1:0.75120236 2:-0.12924788 3:4.4958 
-8 0 0 1:0.74137245 2:-0.098299157 3:4.751832 
-8 0 0 1:0.73469588 2:-0.066765657 3:5.020056 
-8 0 0 1:0.73105589 2:-0.036399912 3:5.24256 
-8 0 0 1:0.73049881 2:-0.0055708146 3:5.334 
-8 0 0 1:0.73337143 2:0.028726274 3:5.22732 
-8 0 0 1:0.73923592 2:0.058644883 3:4.901184 
-8 0 0 1:0.74660111 2:0.073651846 3:4.392168 
-8 0 0 1:0.75427127 2:0.076701624 3:3.864864 
-8 0 0 1:0.76169307 2:0.074218002 3:3.523488 
-8 0 0 1:0.76901852 2:0.073254544 3:3.401568 
-8 0 0 1:0.77648174 2:0.07463216 3:3.44424 
-8 0 0 1:0.78391911 2:0.074373732 3:3.56616 
-8 0 0 1:0.79137986 2:0.074607437 3:3.71856 
-8 0 0 1:0.79889376 2:0.075139027 3:3.938016 
-8 0 0 1:0.80683718 2:0.079434164 3:4.197096 
-8 0 0 1:0.81536147 2:0.085242892 3:4.416552 
-8 0 0 1:0.82358454 2:0.082230754 3:4.54152 
-8 0 0 1:0.83131523 2:0.077306867 3:4.581144 
-8 0 0 1:0.83916343 2:0.078481997 3:4.578096 
-8 0 0 1:0.84711654 2:0.079531104 3:4.572 
-8 0 0 1:0.85510183 2:0.079852896 3:4.572 
-8 0 0 1:0.86275785 2:0.076560185 3:4.568952 
-8 0 0 1:0.87018624 2:0.074283923 3:4.562856 
-8 0 0 1:0.87766252 2:0.07476284 3:4.553712 
-8 0 0 1:0.88538738 2:0.077248601 3:4.51104 
-8 0 0 1:0.89319346 2:0.078060829 3:4.383024 
-8 0 0 1:0.90067703 2:0.074835641 3:4.14528 
-8 0 0 1:0.9078308 2:0.071537724 3:3.806952 
-8 0 0 1:0.91496679 2:0.071359895 3:3.465576 
-8 0 0 1:0.92284148 2:0.078746915 3:3.2004 
-8 0 0 1:0.93103935 2:0.081978681 3:3.008376 
-8 0 0 1:0.93862734 2:0.075879906 3:2.840736 
-8 0 0 1:0.94590908 2:0.072817385 3:2.667 
-8 0 0 1:0.95328672 2:0.073776375 3:2.511552 
-8 0 0 1:0.96150235 2:0.082156351 3:2.410968 
-8 0 0 1:0.96953928 2:0.08036931 3:2.368296 
-8 0 0 1:0.97500576 2:0.05466478 3:2.340864 
-8 0 0 1:0.97618248 2:0.011767173 3:2.307336 
-8 0 0 1:0.97128957 2:-0.048929096 3:2.322576 
-8 0 0 1:0.95908801 2:-0.12201559 3:2.462784 
-8 0 0 1:0.94005454 2:-0.19033473 3:2.715768 
-8 0 0 1:0.91476938 2:-0.25285157 3:2.947416 
-8 0 0 1:0.88353219 2:-0.31237191 3:3.048 
-8 0 0 1:0.84459832 2:-0.38933864 3:3.008376 
-8 0 0 1:0.79989926 2:-0.44699065 3:2.94132 
-8 0 0 1:0.74884453 2:-0.51054726 3:2.950464 
-8 0 0 1:1.7450417 2:-0.47958927 3:-2.1336 
-8 0 0 1:1.6940119 2:-0.51029733 3:-2.371344 
-8 0 0 1:1.6400119 2:-0.54000062 3:-2.481072 
-8 0 0 1:1.5828206 2:-0.57191293 3:-2.5146 
-8 0 0 1:1.5221914 2:-0.60629225 3:-2.520696 
-8 0 0 1:1.6773994 2:-0.092235023 3:-2.642616 
-8 0 0 1:1.666798 2:-0.10601375 3:-2.645664 
-8 0 0 1:1.6549668 2:-0.11831223 3:-2.612136 
-8 0 0 1:1.6419413 2:-0.130255 3:-2.493264 
-8 0 0 1:1.6277365 2:-0.14204766 3:-2.40792 
-8 0 0 1:1.6114879 2:-0.16248697 3:-2.4384 
-8 0 0 1:1.5922572 2:-0.19230672 3:-2.398776 
-8 0 0 1:1.5705457 2:-0.2171151 3:-2.249424 
-8 0 0 1:1.5458833 2:-0.24662419 3:-2.01168 
-8 0 0 1:1.5181367 2:-0.27746598 3:-1.76784 
-8 0 0 1:1.4876227 2:-0.30513965 3:-1.703832 
-8 0 0 1:1.4543957 2:-0.33226993 3:-1.712976 
-8 0 0 1:1.4166895 2:-0.37706188 3:-1.66116 
-8 0 0 1:1.3756911 2:-0.40998379 3:-1.594104 
-8 0 0 1:1.3314843 2:-0.44206864 3:-1.551432 
-8 0 0 1:1.2840149 2:-0.47469408 3:-1.536192 
-8 0 0 1:1.2331745 2:-0.50840332 3:-1.499616 
-8 0 0 1:1.1789145 2:-0.54260067 3:-1.411224 
-8 0 0 1:1.1215518 2:-0.5736263 3:-1.338072 
-8 0 0 1:1.8692553 2:-0.47015925 3:0.03048 
-8 0 0 1:1.8209293 2:-0.48326028 3:-0.16764 
-8 0 0 1:1.7704075 2:-0.50521793 3:-0.28956 
-8 0 0 1:1.7163551 2:-0.54052414 3:-0.280416 
-8 0 0 1:1.6590432 2:-0.57311876 3:-0.188976 
-8 0 0 1:1.5975369 2:-0.6150631 3:-0.082296 
-8 0 0 1:1.5316236 2:-0.65913273 3:0.003048 
-8 0 0 1:1.4613471 2:-0.70276486 3:0.036576 
-8 0 0 1:1.4033332 2:-0.31786091 3:-1.572768 
-8 0 0 1:1.3678496 2:-0.35483535 3:-1.578864 
-8 0 0 1:1.3285463 2:-0.39303363 3:-1.655064 
-8 0 0 1:1.2853128 2:-0.43233434 3:-1.789176 
-8 0 0 1:1.2373135 2:-0.47999346 3:-1.792224 
-8 0 0 1:1.1848585 2:-0.52454993 3:-1.505712 
-8 0 0 1:1.128256 2:-0.56602459 3:-1.11252 
-8 0 0 1:1.5709284 2:-0.66887221 3:-1.911096 
-8 0 0 1:1.5434164 2:-0.61775055 3:-1.633728 
-8 0 0 1:1.5191394 2:-0.5818472 3:-1.258824 
-8 0 0 1:1.4972961 2:-0.55269543 3:-0.880872 
-8 0 0 1:1.4771488 2:-0.5302195 3:-0.551688 
-8 0 0 1:1.4581913 2:-0.51253638 3:-0.307848 
-8 0 0 1:1.4399688 2:-0.49938654 3:-0.085344 
-8 0 0 1:1.4221404 2:-0.48982399 3:0.16764 
-8 0 0 1:1.4034768 2:-0.49284483 3:0.496824 
-8 0 0 1:1.3519493 2:-0.51527547 3:0.862584 
-8 0 0 1:1.2972352 2:-0.54714068 3:1.109472 
-8 0 0 1:1.2374072 2:-0.59828024 3:1.161288 
-8 0 0 1:1.1774449 2:-0.59962305 3:1.11252 
-8 0 0 1:1.1163149 2:-0.61129952 3:1.085088 
-8 0 0 1:1.0543376 2:-0.61977276 3:1.133856 
-8 0 0 1:0.99281099 2:-0.61526651 3:1.139952 
-8 0 0 1:0.93232225 2:-0.60488741 3:0.920496 
-0 8 0 1:0.14384517 2:-0.72616381 3:-0.505968 
-0 8 0 1:0.069533203 2:-0.7431197 3:-0.3048 
-0 8 0 1:-0.0057664288 2:-0.75299631 3:-0.103632 
-0 8 0 1:-0.081982582 2:-0.76216153 3:-0.054864 
-8 0 0 1:1.7090441 2:-0.49109117 3:-2.017776 
-8 0 0 1:1.6512271 2:-0.57817016 3:-2.27076 
-8 0 0 1:1.0488803 2:-0.48153709 3:0.89916 
-8 0 0 1:0.99991535 2:-0.48964985 3:1.35636 
-8 0 0 1:0.95044431 2:-0.49471042 3:1.511808 
-8 0 0 1:0.9005525 2:-0.4989181 3:1.572768 
-8 0 0 1:0.85070575 2:-0.49846751 3:1.621536 
-8 0 0 1:0.79645364 2:-0.54252105 3:1.716024 
-8 0 0 1:0.7384331 2:-0.58020548 3:1.825752 
-8 0 0 1:2.4448537 2:-0.2619344 3:-2.990088 
-8 0 0 1:2.4185259 2:-0.26327809 3:-3.172968 
-8 0 0 1:2.3912101 2:-0.27315789 3:-3.300984 
-8 0 0 1:2.3608712 2:-0.3033893 3:-3.358896 
-8 0 0 1:2.3267263 2:-0.341449 3:-3.371088 
-8 0 0 1:2.2898452 2:-0.36881073 3:-3.36804 
-8 0 0 1:2.2502305 2:-0.39614763 3:-3.316224 
-8 0 0 1:2.2077739 2:-0.42456515 3:-3.15468 
-8 0 0 1:2.1615984 2:-0.4617556 3:-2.859024 
-8 0 0 1:2.1112376 2:-0.5036075 3:-2.487168 
-8 0 0 1:2.0567716 2:-0.54466042 3:-2.078736 
-8 0 0 1:1.9982047 2:-0.58566859 3:-1.728216 
-8 0 0 1:1.936542 2:-0.61662707 3:-1.70688 
-8 0 0 1:1.8741117 2:-0.62430292 3:-2.121408 
-8 0 0 1:1.8113987 2:-0.62713055 3:-2.810256 
-8 0 0 1:1.7479293 2:-0.63469375 3:-3.386328 
-8 0 0 1:1.683645 2:-0.64284284 3:-3.541776 
-8 0 0 1:1.6188381 2:-0.64806905 3:-3.377184 
-8 0 0 1:1.5554557 2:-0.63382451 3:-3.166872 
-8 0 0 1:1.4938915 2:-0.6156415 3:-3.087624 
-8 0 0 1:1.4336273 2:-0.6026424 3:-3.09372 
-8 0 0 1:1.3737835 2:-0.59843764 3:-3.09372 
-8 0 0 1:1.3125933 2:-0.61190232 3:-3.09372 
-8 0 0 1:1.1385738 2:-0.011862206 3:4.081272 
-8 0 0 1:1.134583 2:-0.03990865 3:4.32816 
-8 0 0 1:1.1278042 2:-0.067788068 3:4.596384 
-8 0 0 1:1.1181863 2:-0.096178275 3:4.70916 
-8 0 0 1:1.1057258 2:-0.12460508 3:4.70916 
-8 0 0 1:1.0904607 2:-0.15265162 3:4.84632 
-8 0 0 1:1.0716717 2:-0.18788948 3:5.169408 
-8 0 0 1:1.0497348 2:-0.21936921 3:5.413248 
-8 0 0 1:1.0246179 2:-0.25116888 3:5.44068 
-8 0 0 1:0.99660354 2:-0.28014363 3:5.251704 
-8 0 0 1:0.96642072 2:-0.30182818 3:4.96824 
-8 0 0 1:0.93459716 2:-0.31823559 3:4.715256 
-8 0 0 1:0.90215788 2:-0.32439285 3:4.413504 
-8 0 0 1:0.86981601 2:-0.32341866 3:4.224528 
-8 0 0 1:0.83831387 2:-0.31502141 3:4.300728 
-8 0 0 1:0.80799813 2:-0.30315736 3:4.565904 
-8 0 0 1:0.77870366 2:-0.29294477 3:4.77012 
-8 0 0 1:0.75049593 2:-0.28207723 3:4.581144 
-8 0 0 1:0.72344984 2:-0.2704609 3:4.087368 
-8 0 0 1:0.69746758 2:-0.25982267 3:3.584448 
-8 0 0 1:0.672496 2:-0.24971573 3:3.203448 
-8 0 0 1:0.64997662 2:-0.2251938 3:2.935224 
-8 0 0 1:0.62998711 2:-0.19989513 3:2.688336 
-8 0 0 1:0.61216882 2:-0.17818291 3:2.46888 
-8 0 0 1:0.5959746 2:-0.16194217 3:2.310384 
-8 0 0 1:0.5810517 2:-0.149229 3:2.182368 
-8 0 0 1:0.56552663 2:-0.15525075 3:2.07264 
-8 0 0 1:0.5473975 2:-0.18129125 3:2.036064 
-8 0 0 1:0.52471873 2:-0.22678771 3:2.075688 
-8 0 0 1:0.50053429 2:-0.24184441 3:2.191512 
-8 0 0 1:0.47481927 2:-0.25715019 3:2.310384 
-8 0 0 1:0.44796171 2:-0.26857564 3:2.252472 
-8 0 0 1:0.42025947 2:-0.27702239 3:1.99644 
-8 0 0 1:0.39141923 2:-0.2884024 3:1.61544 
-8 0 0 1:0.36094976 2:-0.30469472 3:1.18872 
-8 0 0 1:0.32912523 2:-0.31824533 3:0.786384 
-8 0 0 1:0.29521391 2:-0.33911314 3:0.481584 
-0 8 0 1:0.25748008 2:-0.37733833 3:0.1524 
-0 8 0 1:0.21502906 2:-0.42451014 3:0.027432 
-0 8 0 1:0.16825705 2:-0.4677201 3:0.195072 
-0 8 0 1:0.11726285 2:-0.50994199 3:0 
-0 8 0 1:0.061969245 2:-0.5529361 3:0 
-8 0 0 1:1.5078257 2:-0.18748927 3:0 
-8 0 0 1:1.4888442 2:-0.18981482 3:0 
-8 0 0 1:1.4687526 2:-0.20091601 3:0 
-8 0 0 1:1.4465879 2:-0.22164673 3:0 
-8 0 0 1:1.4223857 2:-0.24202208 3:0 
-8 0 0 1:1.3961377 2:-0.26247991 3:0 
-8 0 0 1:1.3679031 2:-0.28234675 3:0 
-8 0 0 1:1.3372537 2:-0.30649325 3:0 
-8 0 0 1:1.3029046 2:-0.3434914 3:0 
-8 0 0 1:1.2653897 2:-0.37514939 3:0 
-8 0 0 1:1.2252509 2:-0.40138736 3:0 
-8 0 0 1:1.183637 2:-0.41613939 3:0 
-8 0 0 1:1.1408408 2:-0.42796141 3:0 
-8 0 0 1:1.0981746 2:-0.42666296 3:0 
-8 0 0 1:1.0564996 2:-0.41674905 3:0 
-8 0 0 1:1.0167373 2:-0.39762308 3:0 
-8 0 0 1:0.98030882 2:-0.36428521 3:0 
-8 0 0 1:0.94877644 2:-0.31532375 3:0 
-8 0 0 1:0.92138483 2:-0.27391616 3:0 
-8 0 0 1:0.89728509 2:-0.24099736 3:0 
-8 0 0 1:0.87444018 2:-0.22844915 3:0 
-8 0 0 1:0.84950541 2:-0.2493477 3:0 
-8 0 0 1:0.82007517 2:-0.29430235 3:0 
-8 0 0 1:0.78671307 2:-0.33362102 3:0 
-8 0 0 1:0.75049417 2:-0.36218896 3:0 
-8 0 0 1:0.71183681 2:-0.38657365 3:0 
-8 0 0 1:0.67130085 2:-0.40535954 3:0 
-8 0 0 1:0.62987255 2:-0.41428303 3:0 
-8 0 0 1:0.5892795 2:-0.40593048 3:0 
-8 0 0 1:0.55079189 2:-0.38487609 3:0 
-8 0 0 1:0.51400381 2:-0.3678808 3:0 
-8 0 0 1:0.49502753 2:-0.36395213 3:0 
-8 0 0 1:0.47687841 2:-0.35500344 3:0 
-8 0 0 1:0.46110465 2:-0.3308871 3:0 
-8 0 0 1:0.44765346 2:-0.30839534 3:0 
-8 0 0 1:0.4357169 2:-0.29521763 3:0 
-8 0 0 1:0.42429663 2:-0.2930276 3:0 
-8 0 0 1:0.41224592 2:-0.30292226 3:0 
-8 0 0 1:0.39902409 2:-0.31827501 3:0 
-8 0 0 1:1.7715665 2:-0.39518215 3:-1.847088 
-8 0 0 1:1.7303435 2:-0.41222988 3:-1.88976 
-8 0 0 1:1.6878904 2:-0.4245318 3:-1.892808 
-8 0 0 1:1.6436796 2:-0.44210776 3:-1.834896 
-8 0 0 1:1.598091 2:-0.45588575 3:-1.72212 
-8 0 0 1:1.5506912 2:-0.4739977 3:-1.581912 
-8 0 0 1:1.5001208 2:-0.50570468 3:-1.469136 
-8 0 0 1:1.4469491 2:-0.53171679 3:-1.423416 
-8 0 0 1:1.390573 2:-0.56376071 3:-1.441704 
-8 0 0 1:1.33159 2:-0.58983023 3:-1.490472 
-8 0 0 1:1.2708811 2:-0.60708933 3:-1.524 
-8 0 0 1:1.5291977 2:-0.4509099 3:-1.633728 
-8 0 0 1:1.4791962 2:-0.5000143 3:-1.73736 
-8 0 0 1:1.4243667 2:-0.54829516 3:-1.76784 
-8 0 0 1:1.3645935 2:-0.5977324 3:-1.789176 
-8 0 0 1:2.0957415 2:-0.36684541 3:-0.77724 
-8 0 0 1:2.0525008 2:-0.43240627 3:-1.042416 
-8 0 0 1:2.0014991 2:-0.51001715 3:-1.121664 
-8 0 0 1:1.9431739 2:-0.58325238 3:-0.996696 
-8 0 0 1:1.8772756 2:-0.6589831 3:-0.856488 
-8 0 0 1:1.803836 2:-0.73439605 3:-0.826008 
-8 0 0 1:1.0781947 2:-0.38054526 3:0.2286 
-8 0 0 1:1.0387616 2:-0.39433118 3:0.1524 
-8 0 0 1:0.99893524 2:-0.39826346 3:0.384048 
-8 0 0 1:0.95963805 2:-0.39297188 3:0.74676 
-8 0 0 1:0.91982351 2:-0.39814543 3:1.088136 
-8 0 0 1:0.87793923 2:-0.41884274 3:1.210056 
-8 0 0 1:0.83233779 2:-0.45601447 3:1.05156 
-8 0 0 1:0.78498806 2:-0.4734973 3:0.987552 
-8 0 0 1:0.73603089 2:-0.48957171 3:1.09728 
-8 0 0 1:0.6854104 2:-0.50620485 3:1.2954 
-8 0 0 1:0.63167196 2:-0.53738438 3:1.472184 
-8 0 0 1:0.19722742 2:-0.40986377 3:1.450848 
-8 0 0 1:0.16089256 2:-0.36334866 3:1.289304 
-0 8 0 1:0.096784218 2:-0.30720294 3:0.658368 
-0 8 0 1:0.068425601 2:-0.28358617 3:0.627888 
-1.693680225063296 1.436290884213453 0 1:0.040554225 2:-0.27871376 3:0.932688 
-8 0 0 1:0.012497276 2:-0.2805695 3:1.252728 
-8 0 0 1:1.6517824 2:-0.27611819 3:-1.139952 
-8 0 0 1:1.6217253 2:-0.30057067 3:-1.484376 
-8 0 0 1:1.5892432 2:-0.32482148 3:-1.786128 
-8 0 0 1:1.5542914 2:-0.34951738 3:-1.880616 
-8 0 0 1:1.5159693 2:-0.38322171 3:-1.725168 
-8 0 0 1:1.4729092 2:-0.43060057 3:-1.563624 
-8 0 0 1:1.4271095 2:-0.45799721 3:-1.505712 
-8 0 0 1:1.3791848 2:-0.47924668 3:-1.520952 
