svm_type c_svc
kernel_type rbf
gamma 0.0625
nr_class 2
total_sv 9134
rho -0.882277
label 1 2
probA -3.09441
probB 0.881456
nr_sv 4605 4529
SV
8.208967562378994 1:0.012094634 2:0.08397878 3:0.24260855 4:0.48798394 
12 1:0.014891774 2:0.088336788 3:0.25117005 4:0.50339155 
12 1:0.017383272 2:0.090940767 3:0.25873521 4:0.5207666 
12 1:0.019346529 2:0.093353831 3:0.27033865 4:0.55030098 
12 1:0.02071672 2:0.096456249 3:0.28715067 4:0.59279999 
12 1:0.021591509 2:0.10056543 3:0.30767715 4:0.64292665 
12 1:0.022098798 2:0.10546238 3:0.33028955 4:0.69658032 
12 1:0.02237758 2:0.11081586 3:0.35318899 4:0.74949698 
12 1:0.022544343 2:0.11647083 3:0.37581442 4:0.8005751 
12 1:0.023248376 2:0.13008515 3:0.42317112 4:0.90250629 
12 1:0.023655321 2:0.13219278 3:0.42868545 4:0.91313336 
12 1:0.02412354 2:0.13334394 3:0.43081971 4:0.91655086 
12 1:0.024656026 2:0.13454954 3:0.43295223 4:0.9198641 
12 1:0.025243673 2:0.1354738 3:0.43400629 4:0.92084116 
12 1:0.02590003 2:0.13593162 3:0.43292615 4:0.91688363 
12 1:0.02662095 2:0.13527752 3:0.4275475 4:0.90343088 
12 1:0.027389164 2:0.13286009 3:0.41569053 4:0.87588048 
12 1:0.028079416 2:0.12787366 3:0.39625578 4:0.83322577 
12 1:0.028512722 2:0.12036815 3:0.3707094 4:0.77953645 
12 1:0.028520518 2:0.11132128 3:0.34300435 4:0.7235697 
12 1:0.027947611 2:0.10142285 3:0.31589962 4:0.67137791 
12 1:0.026690581 2:0.091277836 3:0.29119401 4:0.6264391 
12 1:0.024795332 2:0.082505587 3:0.27267473 4:0.59530277 
12 1:0.0058628889 2:0.014602222 3:0.035285336 4:0.06791223 
12 1:0.0062042297 2:0.014340267 3:0.032361893 4:0.060269108 
12 1:0.0065824324 2:0.014534644 3:0.031526789 4:0.057558865 
12 1:0.0069710122 2:0.015029229 3:0.032118048 4:0.058237471 
12 1:0.0073634222 2:0.015334063 3:0.032048503 4:0.057506742 
12 1:0.0077241503 2:0.01539355 3:0.031625628 4:0.056420383 
12 1:0.0080104827 2:0.015480361 3:0.032105873 4:0.057887018 
12 1:0.0081963007 2:0.016336832 3:0.03613762 4:0.067598663 
12 1:0.0083017867 2:0.018833727 3:0.04630408 4:0.090712845 
12 1:0.0083812024 2:0.022719077 3:0.061012819 4:0.12326243 
12 1:0.0069436887 2:0.04192214 3:0.11030438 4:0.21209042 
12 1:0.010449188 2:0.056603225 3:0.14466472 4:0.27463366 
12 1:0.015003064 2:0.07223128 3:0.17916297 4:0.33579814 
12 1:0.020610174 2:0.088465499 3:0.21280059 4:0.39361544 
12 1:0.027198939 2:0.1044987 3:0.24350296 4:0.44421173 
12 1:0.034537628 2:0.11848507 3:0.26677185 4:0.47939798 
12 1:0.042397908 2:0.13098288 3:0.28514707 4:0.50489046 
12 1:0.01014368 2:0.05327152 3:0.1444613 4:0.28371303 
12 1:0.013252246 2:0.059416838 3:0.15677979 4:0.30534111 
12 1:0.016129169 2:0.062744586 3:0.16324686 4:0.317636 
12 1:0.01843154 2:0.064574571 3:0.16860042 4:0.3305091 
12 1:0.020031206 2:0.065916507 3:0.17509825 4:0.34757645 
12 1:0.021042734 2:0.067713016 3:0.18386976 4:0.36951298 
12 1:0.021622259 2:0.069887078 3:0.19387504 4:0.39358615 
12 1:0.021937346 2:0.072416862 3:0.20448926 4:0.41815455 
12 1:0.022149466 2:0.075157877 3:0.21481105 4:0.44110898 
12 1:0.022345846 2:0.077693702 3:0.22370022 4:0.46036541 
12 1:0.022566575 2:0.079521595 3:0.22959757 4:0.47279449 
12 1:0.022785261 2:0.080649131 3:0.23314949 4:0.48028635 
12 1:0.022967907 2:0.081634483 3:0.23655589 4:0.48773213 
12 1:0.023119698 2:0.082896242 3:0.2410192 4:0.49748858 
12 1:0.023264269 2:0.08419031 3:0.24543573 4:0.50700053 
12 1:0.023416466 2:0.085340236 3:0.24919057 4:0.51496748 
12 1:0.023594765 2:0.086480738 3:0.25268604 4:0.52221066 
12 1:0.023805254 2:0.087353816 3:0.2550506 4:0.5268956 
12 1:0.024012511 2:0.086960305 3:0.25306301 4:0.52232063 
12 1:0.024107051 2:0.085001664 3:0.246545 4:0.50873706 
12 1:0.023946131 2:0.081413912 3:0.23591988 4:0.48746403 
12 1:0.023390311 2:0.076216099 3:0.22160593 4:0.45955982 
12 1:0.022328457 2:0.069795005 3:0.20508131 4:0.42818737 
12 1:0.020652386 2:0.062078485 3:0.18634255 4:0.39344458 
12 1:0.018331865 2:0.053540709 3:0.16655937 4:0.35738786 
12 1:0.011888663 2:0.062212555 3:0.17967465 4:0.36427495 
12 1:0.013275419 2:0.063408732 3:0.18275889 4:0.37132588 
12 1:0.014342996 2:0.064435501 3:0.1883059 4:0.38595419 
12 1:0.015019595 2:0.065806056 3:0.19726911 4:0.40940876 
12 1:0.019333561 2:0.09897874 3:0.31145942 4:0.6567756 
12 1:0.019875751 2:0.095126452 3:0.29733536 4:0.62650249 
12 1:0.020190082 2:0.089883938 3:0.27997243 4:0.59045556 
12 1:0.020208919 2:0.083457844 3:0.25996582 4:0.54973285 
12 1:0.019881396 2:0.076394128 3:0.239281 4:0.50854201 
12 1:0.019167289 2:0.068937886 3:0.21878393 4:0.46870542 
12 1:0.018034086 2:0.061886225 3:0.201394 4:0.43655741 
12 1:0.0097069769 2:0.027229681 3:0.08036534 4:0.16911395 
12 1:0.0093376855 2:0.02384549 3:0.070494808 4:0.14928564 
12 1:0.014050835 2:0.11006945 3:0.30423681 4:0.59655291 
12 1:0.020287879 2:0.13344055 3:0.35848937 4:0.69543433 
12 1:0.027351017 2:0.15262351 3:0.40016797 4:0.76998438 
12 1:0.034833204 2:0.16825524 3:0.43328442 4:0.82992075 
12 1:0.042353166 2:0.1802992 3:0.45835824 4:0.87653029 
12 1:0.049646317 2:0.18886218 3:0.47488304 4:0.90770889 
12 1:0.05649796 2:0.19457422 3:0.48499958 4:0.92777405 
12 1:0.021380594 2:0.022695572 3:0.058127938 4:0.12767769 
12 1:0.01948836 2:0.021941246 3:0.057469337 4:0.12607263 
12 1:0.017679122 2:0.021109652 3:0.057440832 4:0.12667266 
12 1:0.015934106 2:0.020261953 3:0.057398427 4:0.12734353 
12 1:0.014285044 2:0.019702429 3:0.057714973 4:0.12832268 
12 1:0.01273682 2:0.019189506 3:0.057896111 4:0.12885664 
12 1:0.011287616 2:0.018607087 3:0.057638904 4:0.12838306 
12 1:0.0099267127 2:0.017972774 3:0.057207829 4:0.12763188 
12 1:0.0057394626 2:0.016254012 3:0.040785377 4:0.07933356 
12 1:0.0061078327 2:0.016172153 3:0.040003295 4:0.077601258 
12 1:0.0063873952 2:0.016214513 3:0.04017137 4:0.078257964 
12 1:0.0065788516 2:0.016353284 3:0.040931509 4:0.080313527 
12 1:0.0066911101 2:0.016492461 3:0.041827457 4:0.082696097 
12 1:0.0067558979 2:0.016732942 3:0.042944501 4:0.085390576 
12 1:0.0068030324 2:0.017089365 3:0.044276463 4:0.088364327 
12 1:0.0068557061 2:0.017507317 3:0.045620804 4:0.091196169 
12 1:0.0069264526 2:0.017927283 3:0.046817658 4:0.093597578 
12 1:0.0070163165 2:0.018349394 3:0.047963907 4:0.095859858 
12 1:0.007122133 2:0.018784598 3:0.049144342 4:0.098201364 
12 1:0.0072387852 2:0.019206074 3:0.050290527 4:0.10049214 
12 1:0.0073600667 2:0.019545848 3:0.051179342 4:0.10226055 
12 1:0.0074726147 2:0.019572899 3:0.051060021 4:0.10193398 
12 1:0.0075436733 2:0.019103231 3:0.049513711 4:0.098775113 
12 1:0.0075352849 2:0.018217342 3:0.046985528 4:0.093839842 
12 1:0.0074134222 2:0.016950848 3:0.043665261 4:0.087556661 
12 1:0.0071801739 2:0.015527634 3:0.040044275 4:0.080730096 
12 1:0.0068307607 2:0.013911589 3:0.036062763 4:0.073284281 
12 1:0.0063548182 2:0.012151472 3:0.031973548 4:0.065821046 
12 1:0.014167311 2:0.10590469 3:0.30326438 4:0.60624639 
12 1:0.019552686 2:0.12356209 3:0.34385035 4:0.68041748 
12 1:0.025425348 2:0.13654375 3:0.37029121 4:0.72666772 
12 1:0.031210924 2:0.14429864 3:0.38432456 4:0.75128867 
12 1:0.036320322 2:0.14833575 3:0.39350486 4:0.77182763 
12 1:0.04035005 2:0.15117722 3:0.40626794 4:0.80562222 
12 1:0.043207531 2:0.15448338 3:0.42523985 4:0.85547692 
12 1:0.045075049 2:0.15881741 3:0.44858405 4:0.91437499 
12 1:0.046191041 2:0.16410481 3:0.4746097 4:0.97770572 
12 1:0.046792076 2:0.17031559 3:0.50257223 4:1.043562 
12 1:0.047106742 2:0.17697928 3:0.53018268 4:1.1067169 
12 1:0.047327858 2:0.18327466 3:0.55426916 4:1.1603113 
12 1:0.047615292 2:0.18915208 3:0.57451351 4:1.2036996 
12 1:0.048074502 2:0.19493283 3:0.5924484 4:1.2406212 
12 1:0.048781568 2:0.2004126 3:0.60750325 4:1.2700535 
12 1:0.049772356 2:0.2057679 3:0.62081803 4:1.2949228 
12 1:0.051075719 2:0.21142569 3:0.63402501 4:1.3188737 
12 1:0.052714473 2:0.21706979 3:0.6459989 4:1.3395018 
12 1:0.054702527 2:0.22193803 3:0.65395038 4:1.3507396 
12 1:0.056952404 2:0.2241352 3:0.65236235 4:1.3416338 
12 1:0.059251224 2:0.22154901 3:0.63553764 4:1.3012171 
12 1:0.061281356 2:0.21404272 3:0.60525517 4:1.2349187 
12 1:0.062652758 2:0.20190425 3:0.56461976 4:1.1507993 
12 1:0.062928841 2:0.18560715 3:0.51716384 4:1.0575989 
12 1:0.061820474 2:0.16707616 3:0.46871354 4:0.96673262 
12 1:0.059161659 2:0.14837355 3:0.42586448 4:0.89163445 
12 1:0.05508752 2:0.13361385 3:0.40005171 4:0.85440111 
12 1:0.050083864 2:0.12653019 3:0.39961931 4:0.86935124 
12 1:0.044881638 2:0.12667905 3:0.41777763 4:0.91817738 
12 1:0.040192962 2:0.13091877 3:0.44091733 4:0.97018863 
12 1:0.036532494 2:0.13595601 3:0.45756803 4:1.0013686 
12 1:0.034072066 2:0.13984317 3:0.46422613 4:1.0072209 
12 1:0.032663185 2:0.1413249 3:0.4606724 4:0.99070567 
12 1:0.03204629 2:0.14031889 3:0.44881807 4:0.95754384 
12 1:0.031927194 2:0.13701939 3:0.43066205 4:0.91285515 
12 1:0.032016177 2:0.13234698 3:0.41039113 4:0.86614861 
12 1:0.032048605 2:0.12705992 3:0.39127073 4:0.82468104 
12 1:0.031841102 2:0.12195722 3:0.37589216 4:0.79364593 
12 1:0.031345808 2:0.11697212 3:0.3624982 4:0.76792405 
12 1:0.030552549 2:0.11177065 3:0.34935203 4:0.74329667 
12 1:0.029451758 2:0.10631384 3:0.33624949 4:0.7192587 
12 1:0.028041588 2:0.10091454 3:0.32424079 4:0.69802031 
12 1:0.026333749 2:0.095522683 3:0.31290336 4:0.67847578 
12 1:0.024328009 2:0.08994711 3:0.30168147 4:0.65953109 
12 1:0.0063572741 2:0.016615853 3:0.041775648 4:0.081836657 
12 1:0.0065085752 2:0.016881541 3:0.042868605 4:0.084469768 
12 1:0.0066123803 2:0.018005844 3:0.04751192 4:0.095130608 
12 1:0.0086779051 2:0.059698249 3:0.16335465 4:0.31964711 
12 1:0.013412091 2:0.083095343 3:0.22058908 4:0.42589329 
12 1:0.019837156 2:0.10874888 3:0.27987005 4:0.53320065 
12 1:0.028094856 2:0.13621317 3:0.33961819 4:0.63830993 
12 1:0.038111087 2:0.16297735 3:0.3933206 4:0.72914083 
12 1:0.0494727 2:0.18535058 3:0.43234904 4:0.79046808 
12 1:0.061723925 2:0.20346055 3:0.45889762 4:0.82803514 
12 1:0.074493796 2:0.21826041 3:0.4765929 4:0.84949126 
12 1:0.1103607 2:0.073231446 3:0.12453281 4:0.26426478 
12 1:0.097544468 2:0.063575709 3:0.11788036 4:0.26045841 
12 1:0.08501107 2:0.054867913 3:0.1121847 4:0.25696142 
12 1:0.07291274 2:0.047283104 3:0.10794488 4:0.25489807 
12 1:0.061343468 2:0.040447304 3:0.10442984 4:0.25329108 
12 1:0.050499608 2:0.034867332 3:0.10233084 4:0.25289014 
12 1:0.040628668 2:0.030718634 3:0.10134579 4:0.25251015 
12 1:0.031825943 2:0.027400638 3:0.10066471 4:0.25161817 
12 1:0.024176989 2:0.025050916 3:0.10048928 4:0.25049208 
12 1:0.0063697846 2:0.02688355 3:0.069464799 4:0.13411353 
12 1:0.0076013707 2:0.028341229 3:0.072587772 4:0.140341 
12 1:0.0086131289 2:0.028859775 3:0.07382885 4:0.14352035 
12 1:0.0093834798 2:0.029007562 3:0.074541091 4:0.14598407 
12 1:0.0099436725 2:0.029181496 3:0.075618044 4:0.14925332 
12 1:0.010350648 2:0.029499906 3:0.077112985 4:0.15318988 
12 1:0.010652574 2:0.029892682 3:0.07872201 4:0.15714056 
12 1:0.010889503 2:0.030330276 3:0.080300574 4:0.1608004 
12 1:0.011099048 2:0.030864474 3:0.08195981 4:0.16438506 
12 1:0.011321505 2:0.031449606 3:0.083397374 4:0.16716481 
12 1:0.011569552 2:0.032074868 3:0.084798304 4:0.16973986 
12 1:0.011834386 2:0.032692313 3:0.086212051 4:0.1723936 
12 1:0.012081484 2:0.033089926 3:0.087192274 4:0.17438853 
12 1:0.012271369 2:0.03326808 3:0.087893372 4:0.17614724 
12 1:0.012398786 2:0.033447734 3:0.088818036 4:0.17850969 
12 1:0.012479458 2:0.0337158 3:0.090042299 4:0.18145895 
12 1:0.012524847 2:0.033905185 3:0.090960382 4:0.18369044 
12 1:0.012530435 2:0.033674417 3:0.090472929 4:0.18292597 
12 1:0.012468763 2:0.032793987 3:0.088020276 4:0.17814763 
12 1:0.012303628 2:0.031296714 3:0.083902894 4:0.17012217 
12 1:0.011985553 2:0.029052951 3:0.077899888 4:0.15852636 
12 1:0.011465526 2:0.026185765 3:0.070596467 4:0.14469763 
12 1:0.010681941 2:0.022581278 3:0.061861093 4:0.12852139 
12 1:0.0096258302 2:0.018756304 3:0.053140673 4:0.11277894 
12 1:0.0083662313 2:0.015256358 3:0.045529625 4:0.099186031 
12 1:0.009371864 2:0.042574637 3:0.10984715 4:0.21118941 
12 1:0.012234142 2:0.048406377 3:0.12116883 4:0.23052151 
12 1:0.015148178 2:0.052775579 3:0.12882479 4:0.24329581 
12 1:0.017821459 2:0.055240462 3:0.13251478 4:0.24964441 
12 1:0.02001963 2:0.056308053 3:0.13426469 4:0.25388953 
12 1:0.021616478 2:0.056413529 3:0.1351428 4:0.25780429 
12 1:0.022651682 2:0.056328185 3:0.13655118 4:0.26332066 
12 1:0.023293237 2:0.056412545 3:0.13832043 4:0.2690169 
12 1:0.023683528 2:0.056498885 3:0.13962907 4:0.27307407 
12 1:0.023940416 2:0.056535753 3:0.14015896 4:0.27481004 
12 1:0.024149657 2:0.056657374 3:0.14042113 4:0.27544091 
12 1:0.024327628 2:0.056797077 3:0.14070397 4:0.27604831 
12 1:0.024468736 2:0.056929555 3:0.14111471 4:0.27702421 
12 1:0.02456995 2:0.057211387 3:0.14221162 4:0.27957066 
12 1:0.024643078 2:0.05755899 3:0.14352871 4:0.28255223 
12 1:0.024697828 2:0.057998493 3:0.14515173 4:0.28615753 
12 1:0.024743656 2:0.058554849 3:0.14714834 4:0.29052413 
12 1:0.024799755 2:0.059159042 3:0.14913213 4:0.29471902 
12 1:0.024873971 2:0.059628645 3:0.15050552 4:0.2975046 
12 1:0.024926181 2:0.059223867 3:0.14905235 4:0.29441163 
12 1:0.024826089 2:0.056897441 3:0.14201195 4:0.28016962 
12 1:0.024417989 2:0.052830211 3:0.13067926 4:0.25796512 
12 1:0.023520017 2:0.046693232 3:0.11457441 4:0.22716355 
12 1:0.021996225 2:0.039091575 3:0.095923598 4:0.19249229 
12 1:0.019901187 2:0.031545035 3:0.078584145 4:0.16101852 
12 1:0.017370021 2:0.024513493 3:0.063220638 4:0.13349146 
12 1:0.014572913 2:0.018445719 3:0.050739957 4:0.11145563 
12 1:0.011720213 2:0.013774379 3:0.041840361 4:0.095918158 
12 1:0.0090921405 2:0.010972633 3:0.03692669 4:0.086954311 
12 1:0.0048912114 2:0.020553276 3:0.04889609 4:0.089919656 
12 1:0.006225549 2:0.023348694 3:0.053996812 4:0.098169903 
12 1:0.007589619 2:0.025486275 3:0.05734379 4:0.10316216 
12 1:0.0088612534 2:0.026437593 3:0.057787679 4:0.10291151 
12 1:0.0099297649 2:0.026456813 3:0.056523397 4:0.10012952 
12 1:0.010769299 2:0.026067468 3:0.054664693 4:0.096560974 
12 1:0.011309376 2:0.025518198 3:0.05399132 4:0.096728743 
12 1:0.011567415 2:0.025135645 3:0.054722168 4:0.10032698 
12 1:0.011591685 2:0.024931974 3:0.056401138 4:0.10599918 
12 1:0.011896996 2:0.025892727 3:0.061049416 4:0.11736706 
12 1:0.012068189 2:0.027044018 3:0.066288385 4:0.12980129 
12 1:0.01216132 2:0.028591681 3:0.072632637 4:0.14428419 
12 1:0.012236744 2:0.030453714 3:0.079533616 4:0.15947645 
12 1:0.012341166 2:0.032556172 3:0.086708985 4:0.17479961 
12 1:0.012508992 2:0.034686096 3:0.093394651 4:0.18863466 
12 1:0.01275651 2:0.03667025 3:0.099103725 4:0.20005694 
12 1:0.013089776 2:0.038522268 3:0.10400067 4:0.20952498 
12 1:0.013474678 2:0.039480949 3:0.1058259 4:0.21250954 
12 1:0.013898441 2:0.040279634 3:0.10709023 4:0.21433024 
12 1:0.014339532 2:0.040799157 3:0.1075045 4:0.21445555 
12 1:0.014751468 2:0.040692105 3:0.10618489 4:0.21122982 
12 1:0.01508199 2:0.039876521 3:0.10309261 4:0.20473025 
12 1:0.015274793 2:0.038412356 3:0.098576381 4:0.19576687 
12 1:0.015293699 2:0.036531133 3:0.093312864 4:0.18563889 
12 1:0.01511611 2:0.034375277 3:0.08772139 4:0.17515445 
12 1:0.014723109 2:0.031980119 3:0.081985148 4:0.1647382 
12 1:0.014222123 2:0.031137041 3:0.080950697 4:0.16366309 
12 1:0.013740104 2:0.031841234 3:0.084132281 4:0.17061324 
12 1:0.013449661 2:0.034410689 3:0.091883764 4:0.18586889 
12 1:0.013497225 2:0.038241192 3:0.10197478 4:0.20469797 
12 1:0.013987415 2:0.04313231 3:0.11390947 4:0.2263189 
12 1:0.015087554 2:0.049074118 3:0.12642277 4:0.24713351 
12 1:0.016904466 2:0.055881223 3:0.13926653 4:0.26706039 
12 1:0.019428815 2:0.062668285 3:0.15053066 4:0.28301593 
12 1:0.022504483 2:0.068403998 3:0.15845012 4:0.29264285 
12 1:0.02588744 2:0.072561664 3:0.16265085 4:0.29615499 
12 1:0.029196997 2:0.074599139 3:0.16359138 4:0.29617372 
12 1:0.031953721 2:0.075091202 3:0.16581716 4:0.3041316 
12 1:0.034006006 2:0.076582439 3:0.17491556 4:0.32900536 
12 1:0.035356461 2:0.078980059 3:0.18886283 4:0.36500477 
12 1:0.036104774 2:0.081648958 3:0.20406485 4:0.40335246 
12 1:0.036350415 2:0.08444913 3:0.21984671 4:0.44254317 
12 1:0.036246467 2:0.088156371 3:0.23808886 4:0.48604393 
12 1:0.035928345 2:0.091638241 3:0.25446533 4:0.52440961 
12 1:0.035515603 2:0.094327538 3:0.26675194 4:0.5527888 
12 1:0.035065264 2:0.095999182 3:0.27467408 4:0.57108995 
12 1:0.034590779 2:0.097007709 3:0.28000762 4:0.58359051 
12 1:0.034081961 2:0.09741147 3:0.28326671 4:0.59164769 
12 1:0.033524518 2:0.097608205 3:0.28607162 4:0.59891478 
12 1:0.03294153 2:0.097720097 3:0.28841826 4:0.60503603 
12 1:0.032364649 2:0.097579639 3:0.28947624 4:0.60805444 
12 1:0.031719237 2:0.095986603 3:0.28635538 4:0.60282558 
12 1:0.030928503 2:0.09328783 3:0.28051784 4:0.59261852 
12 1:0.029921018 2:0.089650791 3:0.2726074 4:0.57879083 
12 1:0.028670371 2:0.085786521 3:0.2647123 4:0.56544771 
12 1:0.027130898 2:0.081357292 3:0.25586496 4:0.55065389 
12 1:0.025233476 2:0.075997768 3:0.24509157 4:0.5325149 
12 1:0.022886162 2:0.069607469 3:0.23246045 4:0.5114451 
12 1:0.0039493562 2:0.0082637028 3:0.015573058 4:0.025877421 
12 1:0.0043123417 2:0.008784984 3:0.016342019 4:0.026983446 
12 1:0.0046925916 2:0.0093576651 3:0.017196339 4:0.028208614 
12 1:0.0050968884 2:0.010018823 3:0.018238207 4:0.029755039 
12 1:0.0054509633 2:0.010702751 3:0.020461122 4:0.034726077 
12 1:0.0057123892 2:0.012462697 3:0.027525997 4:0.050902291 
12 1:0.021856842 2:0.062883094 3:0.17411237 4:0.35554467 
12 1:0.021935804 2:0.062863649 3:0.17325692 4:0.35311563 
12 1:0.022062032 2:0.062846854 3:0.17234047 4:0.35054289 
12 1:0.022185899 2:0.062919712 3:0.17229199 4:0.35030273 
12 1:0.022258995 2:0.062595252 3:0.17141496 4:0.34871813 
12 1:0.022214666 2:0.061149549 3:0.16738029 4:0.3409069 
12 1:0.021967155 2:0.058566474 3:0.16055855 4:0.32794339 
12 1:0.021433642 2:0.05495888 3:0.151568 4:0.311261 
12 1:0.020563387 2:0.050579328 3:0.141162 4:0.29231139 
12 1:0.019333216 2:0.045598412 3:0.12975626 4:0.27180675 
12 1:0.017725201 2:0.04024662 3:0.11819809 4:0.25157962 
12 1:0.015755368 2:0.035006152 3:0.10787117 4:0.23435043 
12 1:0.01354214 2:0.030808337 3:0.10083492 4:0.22362189 
12 1:0.0078156608 2:0.047713113 3:0.12671004 4:0.24480644 
12 1:0.011959085 2:0.061861069 3:0.15779839 4:0.29977104 
12 1:0.016908173 2:0.074736359 3:0.18422588 4:0.34537673 
12 1:0.022217124 2:0.084881556 3:0.20363318 4:0.378472 
12 1:0.027465822 2:0.092109324 3:0.21622015 4:0.39979829 
12 1:0.032413803 2:0.09741799 3:0.22470477 4:0.41427414 
12 1:0.036867801 2:0.10101544 3:0.23004004 4:0.42394162 
12 1:0.040607683 2:0.10279614 3:0.23277823 4:0.43055393 
12 1:0.043596582 2:0.10379488 3:0.23523343 4:0.43791225 
12 1:0.045889817 2:0.10453642 3:0.2382684 4:0.44708577 
12 1:0.047653459 2:0.10524363 3:0.24112775 4:0.45530582 
12 1:0.049075521 2:0.10617636 3:0.24400757 4:0.46256915 
12 1:0.050375419 2:0.10770154 3:0.24737014 4:0.46938123 
12 1:0.051698023 2:0.10985091 3:0.25164687 4:0.47708591 
12 1:0.053003842 2:0.1118575 3:0.25578792 4:0.48479512 
12 1:0.054173937 2:0.11326894 3:0.25916547 4:0.49186353 
12 1:0.055110898 2:0.11439781 3:0.26297917 4:0.50085498 
12 1:0.055847739 2:0.11564659 3:0.26743446 4:0.51121134 
12 1:0.056437262 2:0.11699608 3:0.27215176 4:0.5219043 
12 1:0.056890556 2:0.11802113 3:0.27593131 4:0.53062108 
12 1:0.057174337 2:0.11818484 3:0.27727957 4:0.53445855 
12 1:0.057157513 2:0.11624913 3:0.27285526 4:0.52697592 
12 1:0.056634833 2:0.1114298 3:0.26099891 4:0.50534218 
12 1:0.055395488 2:0.10341796 3:0.24125738 4:0.46891374 
12 1:0.053284673 2:0.092826814 3:0.21586463 4:0.42239812 
12 1:0.05015649 2:0.079649943 3:0.18514626 4:0.36664544 
12 1:0.045998924 2:0.065637645 3:0.15434736 4:0.31212808 
12 1:0.041044015 2:0.05284127 3:0.12813777 4:0.2669335 
12 1:0.03572864 2:0.042777382 3:0.10904346 4:0.23452688 
12 1:0.030467793 2:0.035663829 3:0.096956687 4:0.21434637 
12 1:0.02550081 2:0.03049608 3:0.089101173 4:0.20131609 
12 1:0.021025017 2:0.027134561 3:0.084714079 4:0.19376357 
12 1:0.017263991 2:0.025596106 3:0.082914852 4:0.18922023 
12 1:0.014257876 2:0.024664465 3:0.080715949 4:0.18241233 
12 1:0.01195095 2:0.02397685 3:0.077882601 4:0.1736682 
12 1:0.0058527302 2:0.01663024 3:0.042140664 4:0.082384003 
12 1:0.0061518467 2:0.016355687 3:0.040452606 4:0.078442605 
12 1:0.0064039658 2:0.015751232 3:0.038173289 4:0.073670138 
12 1:0.0065868529 2:0.014888688 3:0.035455481 4:0.068287232 
12 1:0.0066930625 2:0.013694897 3:0.031826247 4:0.061087112 
12 1:0.0067252062 2:0.012289527 3:0.027583664 4:0.052607619 
12 1:0.0066828056 2:0.01085185 3:0.023446192 4:0.044465831 
12 1:0.0065585383 2:0.0095867978 3:0.020294239 4:0.038680862 
12 1:0.0063570536 2:0.0089493414 3:0.019644947 4:0.038443872 
12 1:0.0061014341 2:0.009333006 3:0.022642546 4:0.046030054 
12 1:0.009212554 2:0.050705364 3:0.13384633 4:0.25863545 
12 1:0.012358523 2:0.063408901 3:0.16338724 4:0.31229356 
12 1:0.016263487 2:0.076472101 3:0.19192024 4:0.36260791 
12 1:0.020778448 2:0.087655444 3:0.2136374 4:0.39872431 
12 1:0.025660521 2:0.096290888 3:0.2278932 4:0.42046744 
12 1:0.0059921639 2:0.020481016 3:0.051353437 4:0.098609426 
12 1:0.0071366541 2:0.023383774 3:0.057149722 4:0.1084345 
12 1:0.0084340342 2:0.026023554 3:0.062020152 4:0.11642383 
12 1:0.0097586441 2:0.027717867 3:0.064495216 4:0.12009069 
12 1:0.010980625 2:0.028585623 3:0.065396357 4:0.12141283 
12 1:0.012023619 2:0.028976303 3:0.065696827 4:0.12218519 
12 1:0.012890678 2:0.029220458 3:0.065848185 4:0.12277386 
12 1:0.013612651 2:0.029338983 3:0.065602066 4:0.1224019 
12 1:0.014236692 2:0.029514822 3:0.065374814 4:0.12181667 
12 1:0.014817055 2:0.029900014 3:0.065525455 4:0.12169338 
12 1:0.015407721 2:0.030596604 3:0.066299431 4:0.1225162 
12 1:0.016041362 2:0.031451861 3:0.067254522 4:0.12344934 
12 1:0.016740214 2:0.032455168 3:0.068398746 4:0.12457095 
12 1:0.017526092 2:0.033654194 3:0.069855424 4:0.12612978 
12 1:0.018378184 2:0.034866976 3:0.071407013 4:0.12799829 
12 1:0.019247574 2:0.03599834 3:0.07308971 4:0.13052168 
12 1:0.020062865 2:0.036978825 3:0.075038474 4:0.13424181 
12 1:0.020758076 2:0.037807373 3:0.077368443 4:0.13944129 
12 1:0.021268648 2:0.038169567 3:0.079083156 4:0.14400941 
12 1:0.021539774 2:0.037845559 3:0.079426521 4:0.14628266 
12 1:0.021560661 2:0.037017697 3:0.078673221 4:0.14652723 
12 1:0.021344512 2:0.035782251 3:0.076910684 4:0.14472981 
12 1:0.020909732 2:0.034124232 3:0.07398285 4:0.14048558 
12 1:0.020255021 2:0.031965117 3:0.069799585 4:0.13375842 
12 1:0.01937763 2:0.029386557 3:0.064685121 4:0.12527332 
12 1:0.018264866 2:0.026409348 3:0.058849039 4:0.11558394 
12 1:0.016918716 2:0.023305186 3:0.053160699 4:0.10648525 
12 1:0.015405667 2:0.020703997 3:0.049159122 4:0.10077104 
12 1:0.013869295 2:0.019251493 3:0.048114539 4:0.10045843 
12 1:0.012453444 2:0.018746394 3:0.048914594 4:0.10295804 
12 1:0.011254503 2:0.018882692 3:0.050620243 4:0.10646715 
12 1:0.010299605 2:0.019301814 3:0.05247346 4:0.10981454 
12 1:0.0095829297 2:0.019902221 3:0.054411256 4:0.11311003 
12 1:0.0090659216 2:0.020440114 3:0.055944382 4:0.11557873 
12 1:0.0086780833 2:0.020600324 3:0.056401952 4:0.11608297 
12 1:0.0083249159 2:0.020162097 3:0.055448294 4:0.11418351 
12 1:0.0079150442 2:0.019148255 3:0.053378752 4:0.11060653 
12 1:0.015209636 2:0.094164007 3:0.26870118 4:0.53882116 
12 1:0.017783905 2:0.097169913 3:0.27741247 4:0.55851158 
12 1:0.019852024 2:0.099799098 3:0.28981535 4:0.58990077 
12 1:0.021321054 2:0.10276841 3:0.3067642 4:0.63330843 
12 1:0.022264001 2:0.10662792 3:0.3274586 4:0.68475603 
12 1:0.022792877 2:0.11147032 3:0.35126049 4:0.74216338 
12 1:0.023045353 2:0.11734086 3:0.37748412 4:0.80347515 
12 1:0.024427044 2:0.13994493 3:0.45889137 4:0.98126636 
12 1:0.0247533 2:0.13994809 3:0.45754121 4:0.97753266 
12 1:0.025124091 2:0.13992215 3:0.45552623 4:0.97193635 
12 1:0.025540301 2:0.13927408 3:0.45098079 4:0.96066042 
12 1:0.025967006 2:0.13656392 3:0.43919264 4:0.93385318 
12 1:0.026356025 2:0.13202108 3:0.42145997 4:0.89467269 
12 1:0.026631073 2:0.12568168 3:0.39867665 4:0.845616 
12 1:0.026717676 2:0.11797445 3:0.37270018 4:0.79089488 
12 1:0.02660477 2:0.11034918 3:0.34805374 4:0.73971845 
12 1:0.026293328 2:0.10317743 3:0.3259325 4:0.69455852 
12 1:0.025880957 2:0.09777151 3:0.30950759 4:0.6610892 
12 1:0.025473474 2:0.095060413 3:0.30171024 4:0.64542296 
12 1:0.025149176 2:0.093398194 3:0.2964501 4:0.63430491 
12 1:0.024984829 2:0.091539971 3:0.28851494 4:0.61590973 
12 1:0.02506878 2:0.089502313 3:0.27719265 4:0.58813981 
12 1:0.025356173 2:0.087494587 3:0.26543382 4:0.55917388 
12 1:0.025692694 2:0.086599595 3:0.25971776 4:0.5450472 
12 1:0.025999767 2:0.087430806 3:0.26168949 4:0.54877581 
12 1:0.026266159 2:0.089152855 3:0.26743422 4:0.56111025 
12 1:0.02648396 2:0.091148995 3:0.27469127 4:0.5771108 
12 1:0.026659838 2:0.092945892 3:0.28139354 4:0.59200279 
12 1:0.026803867 2:0.095118798 3:0.28962638 4:0.6103266 
12 1:0.026929406 2:0.096873349 3:0.2962202 4:0.62496995 
12 1:0.027030688 2:0.098919354 3:0.30406937 4:0.64248075 
12 1:0.027103833 2:0.10103147 3:0.31222907 4:0.66069663 
12 1:0.027111265 2:0.10242399 3:0.31835995 4:0.67491913 
12 1:0.026992328 2:0.10301364 3:0.32269185 4:0.68602697 
12 1:0.026711159 2:0.10293309 3:0.32558329 4:0.69466177 
12 1:0.02628514 2:0.10210611 3:0.32591709 4:0.69771809 
12 1:0.02572009 2:0.099983611 3:0.32171372 4:0.69091042 
12 1:0.024975716 2:0.096445541 3:0.31324043 4:0.67536039 
12 1:0.024004623 2:0.092357529 3:0.30388948 4:0.65860049 
12 1:0.012709056 2:0.074228234 3:0.21660557 4:0.43984107 
12 1:0.01508411 2:0.078670411 3:0.22510638 4:0.45439202 
12 1:0.017246308 2:0.080628848 3:0.22889391 4:0.46204149 
12 1:0.018972421 2:0.081454262 3:0.23234644 4:0.47164894 
12 1:0.020194935 2:0.082889048 3:0.24030734 4:0.4924498 
12 1:0.020968714 2:0.084817059 3:0.25071517 4:0.51866304 
12 1:0.021374737 2:0.087853091 3:0.26532827 4:0.55380028 
12 1:0.021545098 2:0.09197451 3:0.28308643 4:0.59488084 
12 1:0.021619156 2:0.096722806 3:0.30180624 4:0.63686946 
12 1:0.021731527 2:0.10178635 3:0.32001297 4:0.67641138 
12 1:0.021975226 2:0.10648149 3:0.33538181 4:0.70867618 
12 1:0.022414633 2:0.1109702 3:0.34872756 4:0.73568671 
12 1:0.023067016 2:0.11445254 3:0.3576154 4:0.75255559 
12 1:0.023887661 2:0.11663009 3:0.3618832 4:0.75964699 
12 1:0.024811966 2:0.11822275 3:0.36452714 4:0.76372513 
12 1:0.025812645 2:0.11943443 3:0.36590981 4:0.76523877 
12 1:0.026929943 2:0.1204628 3:0.36582 4:0.76300155 
12 1:0.028168129 2:0.12003033 3:0.35987538 4:0.7477033 
12 1:0.029460678 2:0.11768353 3:0.34730059 4:0.71831185 
12 1:0.030649699 2:0.11351076 3:0.32983687 4:0.67962802 
12 1:0.0315409 2:0.10754718 3:0.30856131 4:0.63458329 
12 1:0.031951952 2:0.10010768 3:0.285048 4:0.58677292 
12 1:0.031721663 2:0.091544209 3:0.26087962 4:0.53972789 
12 1:0.030780974 2:0.082539801 3:0.23783627 4:0.49667039 
12 1:0.029188368 2:0.074813592 3:0.22078623 4:0.46710627 
12 1:0.027115859 2:0.068776657 3:0.20950964 4:0.44931481 
12 1:0.02485536 2:0.066041263 3:0.20772495 4:0.44990643 
12 1:0.022790549 2:0.065717177 3:0.20986858 4:0.45524475 
12 1:0.021176728 2:0.066319789 3:0.21119324 4:0.45579709 
12 1:0.020089219 2:0.065675391 3:0.20549242 4:0.43954032 
12 1:0.01945254 2:0.063840341 3:0.19496388 4:0.41282316 
12 1:0.019156398 2:0.060527406 3:0.17926157 4:0.37535889 
12 1:0.019042564 2:0.055839266 3:0.15978709 4:0.33088604 
12 1:0.018948882 2:0.050236008 3:0.138765 4:0.28453585 
12 1:0.018729286 2:0.044144536 3:0.11799619 4:0.24028425 
12 1:0.01828751 2:0.038451879 3:0.10048244 4:0.20437918 
12 1:0.017588901 2:0.03317189 3:0.085532784 4:0.17467158 
12 1:0.016642927 2:0.029266155 3:0.076184474 4:0.15739788 
12 1:0.015488383 2:0.026573044 3:0.071317752 4:0.14972251 
12 1:0.01417927 2:0.024321565 3:0.06784054 4:0.14473619 
12 1:0.012786748 2:0.022621905 3:0.06579303 4:0.14230013 
12 1:0.011324986 2:0.020959201 3:0.063936661 4:0.14025736 
12 1:0.010376805 2:0.060265314 3:0.16648118 4:0.32902441 
12 1:0.014366044 2:0.075578865 3:0.20199759 4:0.39362223 
12 1:0.019414482 2:0.091252368 3:0.23595305 4:0.45351652 
12 1:0.025381661 2:0.10566869 3:0.26415923 4:0.50085329 
12 1:0.032017061 2:0.11787759 3:0.28489319 4:0.53306387 
12 1:0.038919211 2:0.12676725 3:0.29662849 4:0.54850293 
12 1:0.045718383 2:0.13279641 3:0.30175431 4:0.55259208 
12 1:0.022274032 2:0.015962315 3:0.024852006 4:0.048943106 
12 1:0.019831655 2:0.014589764 3:0.023357974 4:0.046136285 
12 1:0.017580607 2:0.012979502 3:0.021716746 4:0.043792338 
12 1:0.01544278 2:0.011189786 3:0.019930961 4:0.041666307 
12 1:0.013384293 2:0.0093960611 3:0.018276209 4:0.040024738 
12 1:0.011482661 2:0.0082085407 3:0.01770509 4:0.039972308 
12 1:0.0097493724 2:0.007245533 3:0.017397678 4:0.040205806 
12 1:0.0082089232 2:0.0065974739 3:0.017479273 4:0.040854321 
12 1:0.0068390494 2:0.0060877456 3:0.017803318 4:0.041985766 
12 1:0.0089914225 2:0.047430381 3:0.1221766 4:0.23323008 
12 1:0.012223241 2:0.057089907 3:0.1426921 4:0.26902983 
12 1:0.015934676 2:0.065023813 3:0.15738402 4:0.29301529 
12 1:0.020034057 2:0.071842765 3:0.16820264 4:0.30911367 
12 1:0.024403296 2:0.077494611 3:0.17545895 4:0.31829632 
12 1:0.008394303 2:0.040884108 3:0.10598698 4:0.20370291 
12 1:0.010083327 2:0.042748473 3:0.10976435 4:0.21113096 
12 1:0.01150534 2:0.044347433 3:0.11570407 4:0.22557524 
12 1:0.012596096 2:0.046689843 3:0.12622764 4:0.25120948 
12 1:0.013361018 2:0.049761776 3:0.14030755 4:0.28499835 
12 1:0.013859575 2:0.053616045 3:0.15723243 4:0.32470873 
12 1:0.014175707 2:0.058265348 3:0.17648448 4:0.36883309 
12 1:0.017207247 2:0.083240962 3:0.25839425 4:0.54266711 
12 1:0.01775315 2:0.083700011 3:0.25946968 4:0.54506216 
12 1:0.018189537 2:0.084245804 3:0.26181152 4:0.55088667 
12 1:0.018481621 2:0.084151595 3:0.26262609 4:0.55390509 
12 1:0.018603768 2:0.083147778 3:0.26085044 4:0.55171175 
12 1:0.018528987 2:0.081178252 3:0.25636813 4:0.54409863 
12 1:0.0094600148 2:0.044691946 3:0.12162166 4:0.24024915 
12 1:0.011342354 2:0.049668952 3:0.13486703 4:0.26693659 
12 1:0.013015382 2:0.053280976 3:0.145811 4:0.29060545 
12 1:0.014280028 2:0.055698213 3:0.15548076 4:0.31362767 
12 1:0.015083749 2:0.05768139 3:0.16527017 4:0.33785009 
12 1:0.01547885 2:0.059517052 3:0.17504705 4:0.36206884 
12 1:0.015578951 2:0.061473623 3:0.18492749 4:0.38594055 
12 1:0.01555239 2:0.063577352 3:0.19402392 4:0.4068921 
12 1:0.015540069 2:0.065697572 3:0.20171771 4:0.42360047 
12 1:0.015610637 2:0.067648759 3:0.20784703 4:0.43620544 
12 1:0.01579541 2:0.069546702 3:0.2131414 4:0.44657949 
12 1:0.016109843 2:0.071443241 3:0.21792824 4:0.45556484 
12 1:0.016570086 2:0.073643136 3:0.22329381 4:0.46552211 
12 1:0.017160659 2:0.075713526 3:0.22801359 4:0.47406086 
12 1:0.017836409 2:0.077652664 3:0.23251129 4:0.48241229 
12 1:0.018571428 2:0.079618022 3:0.23723321 4:0.49141699 
12 1:0.019329003 2:0.081345017 3:0.24141164 4:0.49952888 
12 1:0.020031131 2:0.082058757 3:0.24282239 4:0.50232202 
12 1:0.020593092 2:0.081537957 3:0.24093387 4:0.49878084 
12 1:0.020943123 2:0.079637752 3:0.23522567 4:0.48770687 
12 1:0.020975469 2:0.075470027 3:0.2229892 4:0.46353298 
12 1:0.020545168 2:0.069084264 3:0.20521814 4:0.42894679 
12 1:0.019591582 2:0.061683921 3:0.18571761 4:0.39169265 
12 1:0.018159681 2:0.054173558 3:0.16666662 4:0.35563888 
12 1:0.016356206 2:0.047088641 3:0.1491474 4:0.32253248 
12 1:0.0078711816 2:0.02169359 3:0.059815789 4:0.12223778 
12 1:0.0078602891 2:0.019488763 3:0.051693373 4:0.10447412 
12 1:0.0077751797 2:0.017444837 3:0.045107879 4:0.090764306 
12 1:0.0075823338 2:0.015451379 3:0.039368291 4:0.079333068 
12 1:0.0072630277 2:0.013470424 3:0.034221506 4:0.069516273 
12 1:0.0067996382 2:0.011192215 3:0.028542103 4:0.058849301 
12 1:0.0062079872 2:0.0090230698 3:0.023428619 4:0.049424636 
12 1:0.022199579 2:0.10136478 3:0.32849617 4:0.70359378 
12 1:0.022794985 2:0.10041572 3:0.31861636 4:0.6773969 
12 1:0.023410559 2:0.09749561 3:0.30416758 4:0.64342648 
12 1:0.023928156 2:0.094983444 3:0.29311021 4:0.61830847 
12 1:0.02432802 2:0.093328859 3:0.2860205 4:0.60240294 
12 1:0.024610393 2:0.092249774 3:0.28175869 4:0.59313713 
12 1:0.024784063 2:0.091358487 3:0.27878898 4:0.58707553 
12 1:0.024853631 2:0.09099333 3:0.27842497 4:0.58714856 
12 1:0.024850714 2:0.091478705 3:0.28127493 4:0.5942394 
12 1:0.024811552 2:0.092509431 3:0.28587171 4:0.60489839 
12 1:0.024759123 2:0.093767477 3:0.29099966 4:0.61645569 
12 1:0.024689159 2:0.09492314 3:0.29576314 4:0.62720915 
12 1:0.024571511 2:0.095705874 3:0.29964185 4:0.63637944 
12 1:0.024374472 2:0.096068849 3:0.30265312 4:0.64412729 
12 1:0.024115766 2:0.0964635 3:0.30571933 4:0.65188327 
12 1:0.02383699 2:0.097131077 3:0.30931026 4:0.66037454 
12 1:0.023541718 2:0.097102661 3:0.31036181 4:0.66331916 
12 1:0.023228983 2:0.096985054 3:0.31118215 4:0.66582027 
12 1:0.022912017 2:0.097323951 3:0.3135078 4:0.67146356 
12 1:0.022580064 2:0.097408978 3:0.31501027 4:0.67538393 
12 1:0.022197352 2:0.097070611 3:0.31548546 4:0.6774419 
12 1:0.015069898 2:0.063336036 3:0.19374348 4:0.40629222 
12 1:0.015286442 2:0.062061776 3:0.18881985 4:0.39556067 
12 1:0.015387748 2:0.059324542 3:0.17983908 4:0.37693137 
12 1:0.015302527 2:0.0551946 3:0.16711139 4:0.35105289 
12 1:0.014985926 2:0.050472806 3:0.15340585 4:0.32378505 
12 1:0.014425573 2:0.045433478 3:0.13934631 4:0.29616405 
12 1:0.013623613 2:0.040300274 3:0.1255513 4:0.26937668 
12 1:0.0079170398 2:0.021821808 3:0.057179211 4:0.11398925 
12 1:0.0083725783 2:0.020610613 3:0.049580068 4:0.095280945 
12 1:0.0089575275 2:0.019653672 3:0.042894178 4:0.078679045 
12 1:0.0096417468 2:0.018939129 3:0.03733652 4:0.064833918 
12 1:0.010422765 2:0.018784415 3:0.033753955 4:0.055331385 
12 1:0.011270099 2:0.018906032 3:0.031442934 4:0.048880806 
12 1:0.012100426 2:0.019525795 3:0.03198772 4:0.049486201 
12 1:0.012800292 2:0.021011948 3:0.037359708 4:0.061843574 
12 1:0.013278408 2:0.024342568 3:0.051213286 4:0.093890561 
12 1:0.013541484 2:0.028546721 3:0.068793554 4:0.13428198 
12 1:0.013653333 2:0.033020648 3:0.086977344 4:0.17552342 
12 1:0.013676312 2:0.037576681 3:0.10492282 4:0.21571474 
12 1:0.013644969 2:0.042132073 3:0.12258748 4:0.2550112 
12 1:0.013592287 2:0.046487834 3:0.13917443 4:0.29165209 
12 1:0.013541391 2:0.05026235 3:0.15331355 4:0.322695 
12 1:0.063713032 2:0.09472225 3:0.19016651 4:0.35004582 
12 1:0.061846535 2:0.087120494 3:0.17210374 4:0.31679627 
12 1:0.059273837 2:0.07790227 3:0.15119211 4:0.27914336 
12 1:0.055895834 2:0.067518133 3:0.1289411 4:0.24016473 
12 1:0.051684814 2:0.056579669 3:0.10706585 4:0.20314337 
12 1:0.046746324 2:0.046400477 3:0.088941381 4:0.17436904 
12 1:0.041232762 2:0.037236724 3:0.074710694 4:0.15365467 
12 1:0.035393212 2:0.029639981 3:0.06493951 4:0.1412918 
12 1:0.029539709 2:0.02373268 3:0.05877816 4:0.13467615 
12 1:0.023889091 2:0.018779673 3:0.053879584 4:0.12918882 
12 1:0.018596001 2:0.014612801 3:0.049767166 4:0.1240591 
12 1:0.013864671 2:0.011607723 3:0.046742927 4:0.11927028 
12 1:0.0054743519 2:0.018180145 3:0.044588845 4:0.084700452 
12 1:0.0068386705 2:0.020331978 3:0.046080269 4:0.084083543 
12 1:0.0083858433 2:0.022311402 3:0.047711312 4:0.084585574 
12 1:0.009922254 2:0.023595085 3:0.04836989 4:0.084246668 
12 1:0.011264215 2:0.024284129 3:0.048819175 4:0.084869352 
12 1:0.012307319 2:0.024686068 3:0.049829029 4:0.087736204 
12 1:0.013047414 2:0.025128191 3:0.05182192 4:0.093128602 
12 1:0.013521856 2:0.025768204 3:0.054945608 4:0.10105407 
12 1:0.013788746 2:0.026514866 3:0.058555157 4:0.10990962 
12 1:0.013921054 2:0.027266685 3:0.061974794 4:0.11804538 
12 1:0.013971536 2:0.028015291 3:0.065195141 4:0.12551109 
12 1:0.013986425 2:0.028725014 3:0.068016208 4:0.13186001 
12 1:0.013999371 2:0.029357142 3:0.070303215 4:0.13683759 
12 1:0.014036202 2:0.030002406 3:0.072370318 4:0.14113994 
12 1:0.014117928 2:0.030890505 3:0.075038685 4:0.14656247 
12 1:0.014278513 2:0.032180921 3:0.07869734 4:0.15382777 
12 1:0.014559223 2:0.033856347 3:0.083114125 4:0.16233256 
12 1:0.01498857 2:0.035698592 3:0.087514884 4:0.17043745 
12 1:0.015568451 2:0.037512881 3:0.091391704 4:0.17720492 
12 1:0.016251968 2:0.038823089 3:0.093511661 4:0.18031768 
12 1:0.016970754 2:0.039491665 3:0.093718632 4:0.17965165 
12 1:0.017684122 2:0.039892236 3:0.093256181 4:0.17777596 
12 1:0.018310319 2:0.039770379 3:0.091741162 4:0.17422267 
12 1:0.018730782 2:0.039027298 3:0.089435781 4:0.16995623 
12 1:0.018811683 2:0.037696942 3:0.086950622 4:0.16657272 
12 1:0.018474031 2:0.035979732 3:0.084799424 4:0.16493311 
12 1:0.017705656 2:0.033986884 3:0.082906212 4:0.16446364 
12 1:0.016608679 2:0.032283257 3:0.082178658 4:0.16629488 
12 1:0.01537042 2:0.031398269 3:0.083372792 4:0.17129399 
12 1:0.014197312 2:0.031187966 3:0.08525746 4:0.17640579 
12 1:0.01323591 2:0.031400467 3:0.086981083 4:0.17997776 
12 1:0.01253629 2:0.031753622 3:0.0881257 4:0.18165252 
12 1:0.01210904 2:0.032000205 3:0.088061613 4:0.18029326 
12 1:0.012295451 2:0.032426921 3:0.08760034 4:0.17781571 
12 1:0.012647194 2:0.032888023 3:0.087284711 4:0.17583726 
12 1:0.013128777 2:0.033392148 3:0.087130334 4:0.17434333 
12 1:0.013704115 2:0.033988173 3:0.0874116 4:0.1739744 
12 1:0.014343879 2:0.034738954 3:0.088382866 4:0.17527561 
12 1:0.01502797 2:0.035596011 3:0.089853934 4:0.17780174 
12 1:0.01572806 2:0.036125694 3:0.090390043 4:0.17852111 
12 1:0.016385775 2:0.036008137 3:0.089218441 4:0.17601669 
12 1:0.016919339 2:0.035265266 3:0.08680993 4:0.17155333 
12 1:0.017239315 2:0.033969037 3:0.083695847 4:0.16641975 
12 1:0.01726226 2:0.032170111 3:0.080192065 4:0.16132812 
12 1:0.01693262 2:0.030214525 3:0.077436854 4:0.15859961 
12 1:0.01146767 2:0.039939114 3:0.11984679 4:0.25119068 
12 1:0.0094368752 2:0.027900458 3:0.082015555 4:0.17178217 
12 1:0.009187086 2:0.024985192 3:0.073129578 4:0.15362024 
12 1:0.013320431 2:0.079536047 3:0.21150733 4:0.40923427 
12 1:0.018902721 2:0.096291065 3:0.24662544 4:0.46990585 
12 1:0.025398773 2:0.11144844 3:0.27541076 4:0.51728573 
12 1:0.032489731 2:0.12367913 3:0.29519743 4:0.54704463 
12 1:0.039850255 2:0.13316042 3:0.30766801 4:0.56337303 
12 1:0.047165898 2:0.14009943 3:0.31433103 4:0.5698607 
12 1:0.0096752776 2:0.035210379 3:0.093867455 4:0.1856465 
12 1:0.011429668 2:0.037684676 3:0.094437866 4:0.18168924 
12 1:0.013742197 2:0.042231151 3:0.10058801 4:0.18881279 
12 1:0.014108459 2:0.041783515 3:0.097898853 4:0.18245447 
12 1:0.014447091 2:0.042104593 3:0.097910299 4:0.18186421 
12 1:0.014841259 2:0.043009347 3:0.09912203 4:0.18317931 
12 1:0.01532168 2:0.043931814 3:0.099868856 4:0.18313281 
12 1:0.015859435 2:0.045034469 3:0.1013651 4:0.18485132 
12 1:0.016449492 2:0.046138203 3:0.10272342 4:0.18620515 
12 1:0.017100954 2:0.047371444 3:0.104258 4:0.18776061 
12 1:0.017830813 2:0.048809785 3:0.10612676 4:0.18978173 
12 1:0.018664811 2:0.050533956 3:0.10847884 4:0.19249946 
12 1:0.019630785 2:0.052570179 3:0.11131847 4:0.19587567 
12 1:0.020767951 2:0.055004648 3:0.11476635 4:0.20005306 
12 1:0.022040203 2:0.057768902 3:0.11936165 4:0.20681846 
12 1:0.023457834 2:0.1405693 3:0.45085505 4:0.95431507 
12 1:0.024356164 2:0.13618772 3:0.43737759 4:0.92792576 
12 1:0.024848842 2:0.13377229 3:0.43462174 4:0.92739721 
12 1:0.012636238 2:0.04362866 3:0.13141663 4:0.27600013 
12 1:0.012278661 2:0.038290934 3:0.11394789 4:0.23924954 
12 1:0.011737878 2:0.032351412 3:0.095325543 4:0.20066027 
12 1:0.010968411 2:0.025924686 3:0.076020334 4:0.16125536 
12 1:0.0099389634 2:0.019288435 3:0.056990322 4:0.12304462 
12 1:0.0086579147 2:0.013138104 3:0.04035385 4:0.090305152 
12 1:0.0063308562 2:0.024155361 3:0.062488098 4:0.12132907 
12 1:0.0073397682 2:0.024807679 3:0.06200877 4:0.11894304 
12 1:0.0092136746 2:0.055166575 3:0.14934383 4:0.29174543 
12 1:0.011465849 2:0.059840339 3:0.15872865 4:0.30813078 
12 1:0.013636864 2:0.062775038 3:0.16436596 4:0.31840963 
12 1:0.015565494 2:0.063977816 3:0.16664998 4:0.32358199 
12 1:0.0171656 2:0.064199519 3:0.16753874 4:0.32718326 
12 1:0.023601108 2:0.13972318 3:0.45449023 4:0.96790225 
12 1:0.023948244 2:0.13615386 3:0.4419642 4:0.94137926 
12 1:0.024090155 2:0.13070957 3:0.42408829 4:0.90422632 
12 1:0.023930962 2:0.12328499 3:0.40092186 4:0.85684157 
12 1:0.023373468 2:0.11448708 3:0.37506848 4:0.80511766 
12 1:0.0040621037 2:0.0087071454 3:0.016528738 4:0.027526882 
12 1:0.0044777505 2:0.0092265783 3:0.017640631 4:0.02971991 
12 1:0.0048093848 2:0.010379328 3:0.021975532 4:0.039597998 
12 1:0.0076400441 2:0.031640479 3:0.083588882 4:0.16348525 
12 1:0.0087970013 2:0.032770268 3:0.086737315 4:0.17069814 
12 1:0.0096523535 2:0.033789648 3:0.091126636 4:0.18166332 
12 1:0.010223507 2:0.035071269 3:0.097069904 4:0.19621941 
12 1:0.010579321 2:0.036660667 3:0.10405869 4:0.21277339 
12 1:0.010796297 2:0.038564809 3:0.11184538 4:0.23063802 
12 1:0.010954791 2:0.040696028 3:0.11985373 4:0.24842788 
12 1:0.011993562 2:0.047330261 3:0.13984291 4:0.28953151 
12 1:0.012312257 2:0.047601895 3:0.1401758 4:0.29003398 
12 1:0.012559675 2:0.047580732 3:0.14011776 4:0.29017076 
12 1:0.012724722 2:0.047520181 3:0.14024566 4:0.29090117 
12 1:0.012825372 2:0.047479961 3:0.14044191 4:0.29171123 
12 1:0.012880422 2:0.047356154 3:0.14026513 4:0.29160736 
12 1:0.012898528 2:0.046768712 3:0.13838814 4:0.28775681 
12 1:0.012859537 2:0.045453959 3:0.13417133 4:0.27901164 
12 1:0.012724713 2:0.043449208 3:0.12803622 4:0.26648576 
12 1:0.012443324 2:0.040828603 3:0.12051113 4:0.2514909 
12 1:0.01196771 2:0.037659377 3:0.11193743 4:0.23480185 
12 1:0.01125908 2:0.034045438 3:0.10270284 4:0.2172313 
12 1:0.0053013024 2:0.013482436 3:0.032000057 4:0.060854167 
12 1:0.0055380931 2:0.013240504 3:0.03052239 4:0.057383751 
12 1:0.005758385 2:0.01273028 3:0.028206789 4:0.052187912 
12 1:0.005952337 2:0.012039726 3:0.025432616 4:0.046131008 
12 1:0.0061183446 2:0.011295575 3:0.02255353 4:0.039892211 
12 1:0.0062459471 2:0.010419393 3:0.019447381 4:0.033329911 
12 1:0.0063279459 2:0.0094312085 3:0.01615972 4:0.02651348 
12 1:0.0063574611 2:0.0083615102 3:0.012831158 4:0.019766406 
12 1:0.0063409878 2:0.0074622332 3:0.010197731 4:0.014547483 
12 1:0.0062940895 2:0.0068704964 3:0.0086007448 4:0.011484835 
12 1:0.0062366317 2:0.0065967532 3:0.0079578209 4:0.010319835 
12 1:0.0061720014 2:0.0065028628 3:0.0079967116 4:0.010653548 
12 1:0.00608815 2:0.0063518248 3:0.0080768034 4:0.011263086 
12 1:0.0059805641 2:0.0061872437 3:0.0082386041 4:0.012134645 
12 1:0.0058551181 2:0.0060906945 3:0.0085994562 4:0.013381403 
12 1:0.0057103313 2:0.0059713456 3:0.0089383107 4:0.014611226 
12 1:0.0055546943 2:0.0059149006 3:0.009397871 4:0.016003606 
12 1:0.0053921389 2:0.0058782665 3:0.0098767216 4:0.017387504 
12 1:0.0052359102 2:0.0059757593 3:0.010618263 4:0.01916342 
12 1:0.0050952969 2:0.0061861301 3:0.011580607 4:0.021278729 
12 1:0.0049797619 2:0.0065257156 3:0.012795721 4:0.023789779 
12 1:0.0048925315 2:0.0069282368 3:0.014108863 4:0.02643441 
12 1:0.0048419093 2:0.0074795747 3:0.015746891 4:0.029643859 
12 1:0.0048040352 2:0.0078186035 3:0.016928969 4:0.032135132 
12 1:0.013554398 2:0.062357098 3:0.18574425 4:0.38371585 
12 1:0.014387906 2:0.063770133 3:0.19137443 4:0.3972008 
12 1:0.01498399 2:0.064625325 3:0.19658777 4:0.41087131 
12 1:0.015573085 2:0.062436144 3:0.19424192 4:0.4109904 
12 1:0.015615491 2:0.059657466 3:0.18335884 4:0.38671962 
12 1:0.015628872 2:0.056367893 3:0.17126859 4:0.36033098 
12 1:0.015568356 2:0.052590028 3:0.15826271 4:0.3325864 
12 1:0.015390635 2:0.048410359 3:0.14476429 4:0.30445244 
12 1:0.015073582 2:0.044305797 3:0.13230644 4:0.27907551 
12 1:0.014605106 2:0.04028752 3:0.12079247 4:0.25611995 
12 1:0.01393344 2:0.035400462 3:0.10731301 4:0.22967109 
12 1:0.013022764 2:0.030534581 3:0.09498812 4:0.20638338 
12 1:0.011895399 2:0.026379387 3:0.085423613 4:0.18902808 
12 1:0.013213305 2:0.086711401 3:0.23080759 4:0.44550188 
12 1:0.020372545 2:0.11704268 3:0.30199379 4:0.57522588 
12 1:0.029691184 2:0.14942138 3:0.3735395 4:0.70204554 
12 1:0.041054567 2:0.1815227 3:0.43955979 4:0.81516584 
12 1:0.053863734 2:0.20833371 3:0.48827535 4:0.89368864 
12 1:0.067387656 2:0.22940677 3:0.52114961 4:0.94261617 
12 1:0.080803281 2:0.24440025 3:0.54011407 4:0.96794473 
12 1:0.10859958 2:0.1774992 3:0.46101034 4:0.959133 
12 1:0.09726456 2:0.14687323 3:0.40162724 4:0.86152658 
12 1:0.084465518 2:0.12062935 3:0.35521634 4:0.78822648 
12 1:0.070959941 2:0.099790073 3:0.32307012 4:0.74080007 
12 1:0.057573246 2:0.085047555 3:0.30484711 4:0.71697192 
12 1:0.045141889 2:0.075757302 3:0.29538561 4:0.7040268 
12 1:0.0079855332 2:0.034130003 3:0.092756794 4:0.18386591 
12 1:0.0089499496 2:0.036218933 3:0.10055235 4:0.20195021 
12 1:0.0095973854 2:0.037894339 3:0.10796911 4:0.2198217 
12 1:0.013516327 2:0.060290073 3:0.18151321 4:0.37718575 
12 1:0.013955199 2:0.061841491 3:0.18668951 4:0.38849925 
12 1:0.014293644 2:0.062975858 3:0.19095781 4:0.39823951 
12 1:0.014520061 2:0.06383248 3:0.19460864 4:0.40684854 
12 1:0.011422161 2:0.039768677 3:0.11860084 4:0.24791865 
12 1:0.011287248 2:0.036182068 3:0.10720264 4:0.22434896 
12 1:0.010973854 2:0.032430685 3:0.096225908 4:0.20235952 
12 1:0.010467585 2:0.028646925 3:0.085841838 4:0.18205232 
12 1:0.016368696 2:0.10314761 3:0.30046442 4:0.60831913 
12 1:0.020007015 2:0.10800642 3:0.30823436 4:0.62069086 
12 1:0.023315389 2:0.11078686 3:0.31314328 4:0.63038463 
12 1:0.026054852 2:0.11236596 3:0.31771584 4:0.6421045 
12 1:0.028153845 2:0.11348941 3:0.32310344 4:0.65699595 
12 1:0.029663043 2:0.11459533 3:0.3294888 4:0.67434344 
12 1:0.030655495 2:0.11573391 3:0.33662353 4:0.69332434 
12 1:0.03123402 2:0.11692638 3:0.34398052 4:0.71239642 
12 1:0.031511539 2:0.11814224 3:0.351028 4:0.73016882 
12 1:0.031605381 2:0.11930378 3:0.35709907 4:0.74499128 
12 1:0.031610414 2:0.1197346 3:0.35966007 4:0.75138682 
12 1:0.031554517 2:0.11857158 3:0.3561681 4:0.74434409 
12 1:0.031413439 2:0.11628763 3:0.3490317 4:0.72964563 
12 1:0.031164175 2:0.11360375 3:0.34096723 4:0.71325459 
12 1:0.030813574 2:0.1109672 3:0.33326438 4:0.6977051 
12 1:0.030419904 2:0.10851766 3:0.32569206 4:0.68194312 
12 1:0.03004393 2:0.10580176 3:0.31637229 4:0.66175551 
12 1:0.029710185 2:0.10201766 3:0.30266003 4:0.6316373 
12 1:0.029367041 2:0.096195717 3:0.28192865 4:0.58656583 
12 1:0.028898348 2:0.08830153 3:0.25508962 4:0.52926262 
12 1:0.028148846 2:0.078230863 3:0.22262009 4:0.46131652 
12 1:0.026946485 2:0.066029268 3:0.1853544 4:0.38492189 
12 1:0.025126787 2:0.052465753 3:0.14653951 4:0.30734807 
12 1:0.022594719 2:0.039359038 3:0.11243122 4:0.24181125 
12 1:0.019389841 2:0.027960425 3:0.086078405 4:0.19374378 
12 1:0.015760231 2:0.019575523 3:0.069392037 4:0.16520977 
12 1:0.010279736 2:0.061835939 3:0.16313859 4:0.31418769 
12 1:0.015258988 2:0.077567752 3:0.1975138 4:0.37509714 
12 1:0.021115422 2:0.092475489 3:0.22786227 4:0.42727577 
12 1:0.027575356 2:0.10532168 3:0.25140458 4:0.46582404 
12 1:0.034271727 2:0.11540188 3:0.26744998 4:0.49041602 
12 1:0.064551743 2:0.055401877 3:0.09930279 4:0.19625448 
12 1:0.060657701 2:0.046106747 3:0.083350293 4:0.17238834 
12 1:0.056186272 2:0.03815893 3:0.071411307 4:0.1559434 
12 1:0.051426057 2:0.032462362 3:0.065141957 4:0.14946484 
12 1:0.046735763 2:0.029606069 3:0.065203357 4:0.15352763 
12 1:0.042326781 2:0.028356433 3:0.068252717 4:0.16201563 
12 1:0.03800319 2:0.026436589 3:0.070760857 4:0.17097599 
12 1:0.033623591 2:0.024092246 3:0.073250967 4:0.18109976 
12 1:0.0094771508 2:0.040093089 3:0.11379038 4:0.23056901 
12 1:0.01023337 2:0.039242742 3:0.11048485 4:0.2239597 
12 1:0.010795262 2:0.038545926 3:0.10898092 4:0.22210025 
12 1:0.011153583 2:0.038170831 3:0.10932421 4:0.22461373 
12 1:0.011371131 2:0.03845728 3:0.11167118 4:0.23101284 
12 1:0.011502866 2:0.039017884 3:0.11455292 4:0.23810799 
12 1:0.011594489 2:0.039898415 3:0.11816094 4:0.24638206 
12 1:0.011661601 2:0.040821558 3:0.12180971 4:0.25462606 
12 1:0.0086974154 2:0.042056762 3:0.11181825 4:0.21798189 
12 1:0.011344806 2:0.050333559 3:0.12976949 4:0.24965259 
12 1:0.014383662 2:0.057017555 3:0.14237684 4:0.27046152 
12 1:0.0043540892 2:0.010322511 3:0.020925123 4:0.036161925 
12 1:0.0047790216 2:0.010311836 3:0.020154803 4:0.034307925 
12 1:0.005154221 2:0.010269121 3:0.019721586 4:0.033511617 
12 1:0.0054661669 2:0.01033362 3:0.020041028 4:0.034588392 
12 1:0.0057016921 2:0.010619761 3:0.021577009 4:0.038573433 
12 1:0.0058458117 2:0.011754427 3:0.026796654 4:0.050972491 
12 1:0.0059172063 2:0.01290536 3:0.032007543 4:0.063223755 
12 1:0.0099742431 2:0.040907414 3:0.11551391 4:0.23379373 
12 1:0.010633276 2:0.040995902 3:0.11647318 4:0.23706513 
12 1:0.01106332 2:0.04127223 3:0.1189884 4:0.24421184 
12 1:0.011281213 2:0.041588966 3:0.12206626 4:0.2527131 
12 1:0.014972099 2:0.068272185 3:0.20266632 4:0.41815451 
12 1:0.016152446 2:0.06973464 3:0.20331075 4:0.41688078 
12 1:0.017364883 2:0.069589814 3:0.19906595 4:0.40579328 
12 1:0.018504606 2:0.068226914 3:0.1916673 4:0.38882577 
12 1:0.019538923 2:0.066154981 3:0.18228198 4:0.36791992 
12 1:0.020415839 2:0.063391988 3:0.17139162 4:0.34441475 
12 1:0.02100118 2:0.05998862 3:0.16046302 4:0.32242438 
12 1:0.021195213 2:0.056386371 3:0.15101324 4:0.30507583 
12 1:0.020966739 2:0.052808944 3:0.14319448 4:0.29212334 
12 1:0.020400143 2:0.050133821 3:0.13872999 4:0.28618864 
12 1:0.019613181 2:0.04864038 3:0.13796056 4:0.28757373 
12 1:0.018737427 2:0.04844687 3:0.140803 4:0.29580581 
12 1:0.017920563 2:0.04914114 3:0.14507533 4:0.30572314 
12 1:0.017289499 2:0.049797228 3:0.14716051 4:0.30937933 
12 1:0.016877138 2:0.05014248 3:0.1470691 4:0.30765699 
12 1:0.016674443 2:0.050310502 3:0.14584438 4:0.30327607 
12 1:0.016641739 2:0.049507394 3:0.14098491 4:0.29107429 
12 1:0.016679283 2:0.046813732 3:0.13002702 4:0.26631916 
12 1:0.016691893 2:0.043318201 3:0.11724975 4:0.23848654 
12 1:0.016591743 2:0.039454628 3:0.10441644 4:0.21147718 
12 1:0.016301508 2:0.035473782 3:0.0925373 4:0.18749206 
12 1:0.015771964 2:0.031316956 3:0.081187441 4:0.16538342 
12 1:0.014983855 2:0.027424013 3:0.071698937 4:0.14780863 
12 1:0.013984542 2:0.024504274 3:0.065806624 4:0.13789159 
12 1:0.012834708 2:0.022232279 3:0.062003285 4:0.13214773 
12 1:0.011558417 2:0.02000283 3:0.058467195 4:0.12695151 
12 1:0.010202149 2:0.018017467 3:0.055580307 4:0.12289067 
12 1:0.014589977 2:0.11571615 3:0.34405173 4:0.69959671 
12 1:0.020497428 2:0.14024258 3:0.40675255 4:0.82002734 
12 1:0.027413707 2:0.16220823 3:0.45955443 4:0.91945231 
12 1:0.034970014 2:0.18044665 3:0.50033711 4:0.9946414 
12 1:0.042618125 2:0.1933437 3:0.5263454 4:1.0416232 
12 1:0.069201158 2:0.068692216 3:0.10619687 4:0.18171511 
12 1:0.065039992 2:0.065231098 3:0.10342245 4:0.17961404 
12 1:0.060892046 2:0.061485259 3:0.10001635 4:0.17648533 
12 1:0.056661907 2:0.057039878 3:0.095245978 4:0.17128021 
12 1:0.052263085 2:0.051863049 3:0.089150764 4:0.16412623 
12 1:0.047672147 2:0.046281736 3:0.082407679 4:0.15604998 
12 1:0.042855 2:0.040268647 3:0.075082734 4:0.14729726 
12 1:0.037734384 2:0.033596851 3:0.066890977 4:0.13761676 
12 1:0.032325172 2:0.026792363 3:0.058887914 4:0.12861182 
12 1:0.026865501 2:0.021069222 3:0.052929555 4:0.1224465 
12 1:0.021681878 2:0.016830215 3:0.048843214 4:0.11772088 
12 1:0.017108022 2:0.014014228 3:0.045448076 4:0.11140957 
12 1:0.013336149 2:0.012322681 3:0.042364681 4:0.10346215 
12 1:0.010407563 2:0.011365654 3:0.039361524 4:0.094395171 
12 1:0.0054580183 2:0.013580294 3:0.033151056 4:0.064170304 
12 1:0.0058289713 2:0.015120259 3:0.037005629 4:0.071485081 
12 1:0.0062431339 2:0.016422456 3:0.040349565 4:0.078024461 
12 1:0.006630821 2:0.017337553 3:0.042918827 4:0.083374644 
12 1:0.0069226743 2:0.017737346 3:0.044427034 4:0.086991737 
12 1:0.007068974 2:0.017744431 3:0.04528209 4:0.089681951 
12 1:0.0070444267 2:0.017479219 3:0.04578408 4:0.091959009 
12 1:0.007291372 2:0.032192193 3:0.084973144 4:0.16563422 
12 1:0.0092860859 2:0.036780005 3:0.093769031 4:0.18025316 
12 1:0.011517736 2:0.04081618 3:0.10052584 4:0.19064673 
12 1:0.013881186 2:0.044158974 3:0.10522028 4:0.19706509 
12 1:0.0162863 2:0.046992914 3:0.10867979 4:0.20134693 
12 1:0.018636587 2:0.049302186 3:0.11118179 4:0.20427541 
12 1:0.020849279 2:0.051221967 3:0.11334844 4:0.2072287 
12 1:0.022942615 2:0.053207881 3:0.1160109 4:0.21135167 
12 1:0.024867416 2:0.055170036 3:0.11944536 4:0.2176934 
12 1:0.026619822 2:0.057033371 3:0.12298859 4:0.22448548 
12 1:0.028117218 2:0.058651106 3:0.12694428 4:0.23299674 
12 1:0.029235443 2:0.059756764 3:0.13100269 4:0.24297321 
12 1:0.029939807 2:0.060692863 3:0.1357962 4:0.25524982 
12 1:0.030316544 2:0.061831345 3:0.14150505 4:0.26933766 
12 1:0.030496738 2:0.063266956 3:0.14778941 4:0.2840641 
12 1:0.030605124 2:0.064887801 3:0.15396661 4:0.29784155 
12 1:0.030745604 2:0.066412343 3:0.15889671 4:0.3081987 
12 1:0.030947414 2:0.067492692 3:0.16181591 4:0.31391708 
12 1:0.031203175 2:0.068057992 3:0.16276893 4:0.31533598 
12 1:0.031457779 2:0.067758252 3:0.16099229 4:0.31115991 
12 1:0.031587507 2:0.065819012 3:0.15451451 4:0.29767401 
12 1:0.031412186 2:0.062189004 3:0.14409892 4:0.27714194 
12 1:0.030769239 2:0.057787641 3:0.13340692 4:0.25762707 
12 1:0.029652952 2:0.053822323 3:0.12564124 4:0.24510972 
12 1:0.028244321 2:0.051743019 3:0.12416818 4:0.24551981 
12 1:0.026700168 2:0.050635616 3:0.12541843 4:0.2510486 
12 1:0.025104452 2:0.049943121 3:0.12769082 4:0.25834754 
12 1:0.023408761 2:0.049819607 3:0.13266781 4:0.27195337 
12 1:0.021669305 2:0.050028513 3:0.13853144 4:0.2871781 
12 1:0.019925809 2:0.050559827 3:0.14523931 4:0.30396426 
12 1:0.018267146 2:0.049781274 3:0.14699758 4:0.30991605 
12 1:0.016609223 2:0.049430668 3:0.14962848 4:0.31720266 
12 1:0.014930079 2:0.049114501 3:0.15248421 4:0.3250392 
12 1:0.019001506 2:0.13069166 3:0.40669588 4:0.84701417 
12 1:0.021021349 2:0.1314103 3:0.40822222 4:0.85145709 
12 1:0.022660407 2:0.13212111 3:0.41189806 4:0.86199125 
12 1:0.023854358 2:0.13411846 3:0.42260732 4:0.88932094 
12 1:0.024625892 2:0.13825038 3:0.44224494 4:0.93660957 
12 1:0.025079721 2:0.14304083 3:0.4637647 4:0.98725132 
12 1:0.025315944 2:0.14726668 3:0.48231277 4:1.0304542 
12 1:0.02540567 2:0.15051254 3:0.49651012 4:1.0633984 
12 1:0.02540145 2:0.15219958 3:0.50425491 4:1.0815674 
12 1:0.0056346538 2:0.013909465 3:0.032716472 4:0.062055673 
12 1:0.0059763886 2:0.014193186 3:0.032822 4:0.061862829 
12 1:0.006314044 2:0.014345769 3:0.032497884 4:0.060770389 
12 1:0.0066208198 2:0.014345521 3:0.032039334 4:0.05970226 
12 1:0.0068624603 2:0.014307658 3:0.03206531 4:0.060135415 
12 1:0.0070277784 2:0.014527196 3:0.033414943 4:0.063691021 
12 1:0.0071232807 2:0.015577965 3:0.038003601 4:0.07440019 
12 1:0.0071868887 2:0.017485153 3:0.045439215 4:0.091049074 
12 1:0.0072784904 2:0.020348178 3:0.055656944 4:0.11320479 
12 1:0.0096807775 2:0.037683948 3:0.10596539 4:0.21452512 
12 1:0.010493396 2:0.039296098 3:0.10923383 4:0.22030658 
12 1:0.011274805 2:0.040111333 3:0.11049787 4:0.22243442 
12 1:0.011974477 2:0.040458728 3:0.11083193 4:0.22309409 
12 1:0.0087126479 2:0.043890092 3:0.11746903 4:0.22944945 
12 1:0.011233506 2:0.050137561 3:0.13278829 4:0.2591857 
12 1:0.01362538 2:0.055245624 3:0.14612502 4:0.28626358 
12 1:0.015672233 2:0.058868124 3:0.15675633 4:0.30933684 
12 1:0.017180641 2:0.06130847 3:0.16611401 4:0.33159727 
12 1:0.018106377 2:0.063307747 3:0.17577169 4:0.35549822 
12 1:0.018501528 2:0.065309961 3:0.18642838 4:0.38185678 
12 1:0.018568392 2:0.067483974 3:0.19694176 4:0.40694176 
12 1:0.018552204 2:0.068743664 3:0.20230171 4:0.41922634 
12 1:0.018536083 2:0.069535338 3:0.20524311 4:0.42565941 
12 1:0.018537422 2:0.069852059 3:0.2062457 4:0.42771834 
12 1:0.018540807 2:0.069874738 3:0.20629934 4:0.42781462 
12 1:0.018546347 2:0.069896358 3:0.20634225 4:0.42788403 
12 1:0.0185671 2:0.070143306 3:0.20705858 4:0.42931293 
12 1:0.018603904 2:0.070414908 3:0.20781645 4:0.43080854 
12 1:0.018650662 2:0.0706542 3:0.20848353 4:0.43213866 
12 1:0.018713053 2:0.070945502 3:0.20925369 4:0.43363762 
12 1:0.018794317 2:0.071282479 3:0.21011617 4:0.43529538 
12 1:0.018892482 2:0.071446607 3:0.21031819 4:0.43550722 
12 1:0.018988344 2:0.071171143 3:0.20907383 4:0.4326964 
12 1:0.018977275 2:0.069180604 3:0.20269127 4:0.41950928 
12 1:0.018604442 2:0.06365591 3:0.18642608 4:0.38691496 
12 1:0.017719882 2:0.056555013 3:0.16701491 4:0.34909957 
12 1:0.016252458 2:0.04855519 3:0.14650948 4:0.31011532 
12 1:0.014243763 2:0.040509343 3:0.12697782 4:0.27364918 
12 1:0.0061977421 2:0.016583074 3:0.041918532 4:0.082204116 
12 1:0.0065452663 2:0.01579295 3:0.036986332 4:0.070125413 
12 1:0.0069347477 2:0.015119501 3:0.032837229 4:0.060087931 
12 1:0.0073321686 2:0.015011688 3:0.031235153 4:0.056002561 
12 1:0.0077289661 2:0.015223182 3:0.030942354 4:0.054886483 
12 1:0.0081226078 2:0.015269396 3:0.03006977 4:0.05252373 
12 1:0.0085058794 2:0.015156562 3:0.028720725 4:0.049198369 
12 1:0.0088667832 2:0.014827013 3:0.026771293 4:0.044699623 
12 1:0.0091934412 2:0.014326731 3:0.024421173 4:0.039476768 
12 1:0.0094736644 2:0.013676047 3:0.02177739 4:0.033777693 
12 1:0.0096972808 2:0.012908346 3:0.018965647 4:0.027869184 
12 1:0.0098825422 2:0.012385949 3:0.016925091 4:0.023499967 
12 1:0.010049259 2:0.0121439 3:0.015727332 4:0.020799553 
12 1:0.010221928 2:0.012238423 3:0.015476083 4:0.019934908 
12 1:0.010426269 2:0.012691118 3:0.016180204 4:0.020893527 
12 1:0.010705389 2:0.013717844 3:0.018325434 4:0.024528159 
12 1:0.011083258 2:0.015001156 3:0.020934782 4:0.028884135 
12 1:0.011547307 2:0.016219512 3:0.023297126 4:0.032780146 
12 1:0.012019562 2:0.017158614 3:0.025580337 4:0.03728473 
12 1:0.01239323 2:0.018274799 3:0.030093424 4:0.047849106 
12 1:0.012600516 2:0.02069134 3:0.040729703 4:0.072715604 
12 1:0.012653896 2:0.024347561 3:0.056265084 4:0.10840647 
12 1:0.012598112 2:0.02864001 3:0.073932179 4:0.14847462 
12 1:0.012496338 2:0.033042995 3:0.091322713 4:0.18733549 
12 1:0.01238961 2:0.037310406 3:0.1076775 4:0.22349088 
12 1:0.01230088 2:0.041312473 3:0.12268219 4:0.25641003 
12 1:0.010302186 2:0.070347388 3:0.19200104 4:0.37526315 
12 1:0.015573127 2:0.090133908 3:0.23764773 4:0.45811458 
12 1:0.022153698 2:0.11047499 3:0.28157182 4:0.53544419 
12 1:0.02983897 2:0.12898287 3:0.31787107 4:0.59650355 
12 1:0.018206668 2:0.055675744 3:0.1717237 4:0.36635054 
12 1:0.017020224 2:0.052336622 3:0.16791992 4:0.36377013 
12 1:0.016293132 2:0.09971495 3:0.29606511 4:0.60534362 
12 1:0.018879001 2:0.10123878 3:0.29490609 4:0.59988094 
12 1:0.021193562 2:0.10012191 3:0.28883097 4:0.58732073 
12 1:0.023102395 2:0.099058834 3:0.28582241 4:0.58339311 
12 1:0.02453916 2:0.099577655 3:0.29081322 4:0.59824585 
12 1:0.025472335 2:0.10269672 3:0.30732983 4:0.63937167 
12 1:0.02598522 2:0.10927293 3:0.33676532 4:0.70846239 
12 1:0.026215447 2:0.11794552 3:0.37295212 4:0.79123523 
12 1:0.026288313 2:0.12680065 3:0.40851886 4:0.87144296 
12 1:0.02631054 2:0.13519916 3:0.44095134 4:0.94356708 
12 1:0.026363146 2:0.1427891 3:0.46906068 4:1.0051779 
12 1:0.026473758 2:0.14863829 3:0.49002153 4:1.0506235 
12 1:0.026613141 2:0.15272556 3:0.50465275 4:1.0823947 
12 1:0.026733917 2:0.15549346 3:0.51498222 4:1.1052002 
12 1:0.02680177 2:0.1573727 3:0.52250973 4:1.1222129 
12 1:0.026789517 2:0.15840831 3:0.52738299 4:1.1337135 
12 1:0.026713131 2:0.15752458 3:0.52487505 4:1.1287645 
12 1:0.026588506 2:0.15402091 3:0.51241291 4:1.1017645 
12 1:0.026389028 2:0.14764781 3:0.48978855 4:1.0528112 
12 1:0.026030973 2:0.13870796 3:0.45919823 4:0.98750178 
12 1:0.025397836 2:0.12809046 3:0.4247869 4:0.91548715 
12 1:0.0098595352 2:0.042247321 3:0.12018372 4:0.24366875 
12 1:0.010827147 2:0.041229626 3:0.11330572 4:0.22705544 
12 1:0.01178183 2:0.039925672 3:0.10602764 4:0.21008773 
12 1:0.012671449 2:0.038288923 3:0.098384805 4:0.19295909 
12 1:0.013470825 2:0.036855152 3:0.092089063 4:0.17917256 
12 1:0.014190032 2:0.036276899 3:0.089066673 4:0.17255935 
12 1:0.014889294 2:0.036506162 3:0.088294326 4:0.17025379 
12 1:0.015595028 2:0.03676057 3:0.087187454 4:0.16687568 
12 1:0.016257879 2:0.036625108 3:0.085309909 4:0.16231228 
12 1:0.016820607 2:0.036207836 3:0.083370578 4:0.15830883 
12 1:0.017254927 2:0.035512868 3:0.081109936 4:0.15404613 
12 1:0.017552337 2:0.034465949 3:0.078035872 4:0.1482621 
12 1:0.017705866 2:0.033179217 3:0.074573112 4:0.14188755 
12 1:0.017712257 2:0.032004079 3:0.072002104 4:0.13770633 
12 1:0.017590383 2:0.03115857 3:0.070801189 4:0.13651824 
12 1:0.017368661 2:0.030589388 3:0.070564904 4:0.13729521 
12 1:0.017089423 2:0.030559479 3:0.071972329 4:0.14132797 
12 1:0.016785098 2:0.030887703 3:0.074372489 4:0.14723946 
12 1:0.016464197 2:0.030830554 3:0.075253909 4:0.14973426 
12 1:0.016109836 2:0.030303836 3:0.074664836 4:0.14919284 
12 1:0.015705707 2:0.029575601 3:0.073656284 4:0.14794776 
12 1:0.015242219 2:0.028697601 3:0.07236324 4:0.14623914 
12 1:0.014711752 2:0.027691663 3:0.070860303 4:0.14421767 
12 1:0.014089338 2:0.026303931 3:0.068486349 4:0.14063659 
12 1:0.01335052 2:0.024572439 3:0.065450602 4:0.13598501 
12 1:0.01250069 2:0.022826508 3:0.062596999 4:0.13181216 
12 1:0.011566387 2:0.02128191 3:0.060391001 4:0.12889366 
12 1:0.010565389 2:0.019837952 3:0.058525348 4:0.12662758 
12 1:0.0095276429 2:0.018651789 3:0.0573484 4:0.12561747 
12 1:0.020531371 2:0.16280817 3:0.46953523 4:0.94071255 
12 1:0.029114842 2:0.19682195 3:0.55111031 4:1.0919799 
12 1:0.03923599 2:0.22700071 3:0.61719896 4:1.2098307 
12 1:0.096604659 2:0.074733325 3:0.15700091 4:0.34340742 
12 1:0.085231948 2:0.063600677 3:0.14576402 4:0.33172198 
12 1:0.073574941 2:0.051393594 3:0.13288776 4:0.31805743 
12 1:0.062012924 2:0.041309221 3:0.12350341 4:0.3085955 
12 1:0.05110892 2:0.034058981 3:0.11682951 4:0.29942051 
12 1:0.041385312 2:0.02854881 3:0.10800915 4:0.27976634 
12 1:0.032989262 2:0.024452307 3:0.099618479 4:0.25848778 
12 1:0.025760994 2:0.020573064 3:0.090982939 4:0.23699062 
12 1:0.019664913 2:0.01750662 3:0.082808517 4:0.2155706 
12 1:0.0080706603 2:0.035758582 3:0.094493773 4:0.18427623 
12 1:0.0093551758 2:0.040752895 3:0.10576342 4:0.20438677 
12 1:0.01087005 2:0.045543901 3:0.11591138 4:0.22197249 
12 1:0.012601076 2:0.050048269 3:0.12471173 4:0.23659146 
12 1:0.014516597 2:0.054024823 3:0.13164839 4:0.2473873 
12 1:0.016500169 2:0.056522009 3:0.13485315 4:0.25149358 
12 1:0.018426126 2:0.057773396 3:0.13565394 4:0.25206776 
12 1:0.020234929 2:0.05869277 3:0.13649053 4:0.2536282 
12 1:0.021883489 2:0.059276154 3:0.13727967 4:0.25589402 
12 1:0.023282179 2:0.059778927 3:0.13993632 4:0.26375436 
12 1:0.02435232 2:0.061361374 3:0.14882699 4:0.28674915 
12 1:0.025086174 2:0.064891912 3:0.16606494 4:0.32860525 
12 1:0.025527928 2:0.069677406 3:0.18805748 4:0.38066814 
12 1:0.025748604 2:0.074429166 3:0.20927257 4:0.4302788 
12 1:0.025807079 2:0.078835021 3:0.22858327 4:0.47505184 
12 1:0.025765801 2:0.0825814 3:0.2445947 4:0.51180571 
12 1:0.025670869 2:0.085285306 3:0.25603108 4:0.5379082 
12 1:0.025539949 2:0.087360171 3:0.2649178 4:0.55821284 
12 1:0.025373972 2:0.08891194 3:0.27192627 4:0.57441697 
12 1:0.025158267 2:0.089903695 3:0.2772207 4:0.58710929 
12 1:0.02483226 2:0.089315419 3:0.27784547 4:0.59042242 
12 1:0.024345907 2:0.087769517 3:0.27609597 4:0.58932527 
12 1:0.023675999 2:0.085282726 3:0.27165884 4:0.58280433 
12 1:0.0228064 2:0.081490908 3:0.26309739 4:0.56762583 
12 1:0.021708752 2:0.076637914 3:0.25162732 4:0.54667697 
12 1:0.017989923 2:0.11322579 3:0.3337262 4:0.67949116 
12 1:0.020706758 2:0.11438841 3:0.33583139 4:0.6850357 
12 1:0.022913196 2:0.1157538 3:0.34222377 4:0.70232309 
12 1:0.024567859 2:0.11834334 3:0.35531629 4:0.7354867 
12 1:0.025695204 2:0.12226504 3:0.37456868 4:0.78260611 
12 1:0.026388344 2:0.12733131 3:0.39801957 4:0.83845314 
12 1:0.026777584 2:0.13304303 3:0.42288759 4:0.89631125 
12 1:0.02700573 2:0.13909278 3:0.44743952 4:0.95204595 
12 1:0.027196005 2:0.14474175 3:0.46882819 4:0.99945535 
12 1:0.027433108 2:0.14912465 3:0.48410422 4:1.0323718 
12 1:0.027737951 2:0.15145728 3:0.49116221 4:1.0468527 
12 1:0.028065301 2:0.15171561 3:0.49097161 4:1.0458333 
12 1:0.028370552 2:0.15122995 3:0.48865008 4:1.0406309 
12 1:0.028641426 2:0.15051902 3:0.48571003 4:1.0342144 
12 1:0.028898472 2:0.1493976 3:0.48092667 4:1.0234857 
12 1:0.029161618 2:0.14686572 3:0.47050363 4:1.0000754 
12 1:0.029400647 2:0.14194544 3:0.45156635 4:0.95826337 
12 1:0.029553775 2:0.13503487 3:0.42626912 4:0.90325651 
12 1:0.029528035 2:0.12603364 3:0.39495283 4:0.83628561 
12 1:0.029211876 2:0.11520571 3:0.35920395 4:0.76120659 
12 1:0.028499399 2:0.10324441 3:0.32184785 4:0.68430972 
12 1:0.027317278 2:0.090822918 3:0.2851486 4:0.61029432 
12 1:0.025630533 2:0.078572496 3:0.25102549 4:0.54298951 
12 1:0.023505282 2:0.068472441 3:0.22528088 4:0.4939306 
12 1:0.021186016 2:0.062761026 3:0.21305708 4:0.47207416 
12 1:0.015765134 2:0.056389892 3:0.17771767 4:0.37974848 
12 1:0.015782224 2:0.053164192 3:0.15794141 4:0.33011388 
12 1:0.016171645 2:0.048892086 3:0.13519349 4:0.27507586 
12 1:0.016780375 2:0.043782441 3:0.11085162 4:0.21798792 
12 1:0.017430836 2:0.038172028 3:0.087008508 4:0.16394028 
12 1:0.017948689 2:0.032876957 3:0.067146663 4:0.12075781 
12 1:0.018233519 2:0.028757377 3:0.053795695 4:0.093348472 
12 1:0.018275971 2:0.026569726 3:0.048580933 4:0.08430959 
12 1:0.018131896 2:0.026181877 3:0.04993254 4:0.089383886 
12 1:0.017858849 2:0.026561927 3:0.053787363 4:0.099535154 
12 1:0.017521856 2:0.027511804 3:0.059128764 4:0.11237274 
12 1:0.017177626 2:0.028431115 3:0.063646582 4:0.12282403 
12 1:0.016843553 2:0.029231281 3:0.067467252 4:0.13155146 
12 1:0.016521344 2:0.029725744 3:0.070090349 4:0.13761516 
12 1:0.016197003 2:0.029878487 3:0.071619288 4:0.14141941 
12 1:0.015847834 2:0.029488048 3:0.071460906 4:0.14176641 
12 1:0.015449046 2:0.028714399 3:0.070305199 4:0.14022145 
12 1:0.014993776 2:0.02782237 3:0.068937261 4:0.13833845 
12 1:0.014474864 2:0.026812035 3:0.067379053 4:0.13617592 
12 1:0.01387015 2:0.025455185 3:0.065025065 4:0.13257979 
12 1:0.013155951 2:0.023784232 3:0.062083828 4:0.12805474 
12 1:0.012336803 2:0.02210583 3:0.059334828 4:0.1240238 
12 1:0.011428375 2:0.02051343 3:0.056948489 4:0.12073355 
12 1:0.010450858 2:0.019058296 3:0.055022238 4:0.11834268 
12 1:0.0094166334 2:0.017657596 3:0.053341193 4:0.11646743 
12 1:0.0071227916 2:0.035660674 3:0.090428328 4:0.17142575 
12 1:0.0098975096 2:0.042880964 3:0.10475059 4:0.1955064 
12 1:0.013032199 2:0.04897295 3:0.11530311 4:0.21202268 
12 1:0.016300748 2:0.053393208 3:0.1215418 4:0.22074654 
12 1:0.019509303 2:0.056657732 3:0.12555545 4:0.22620246 
12 1:0.022488012 2:0.058815168 3:0.12775428 4:0.22930536 
12 1:0.0071773689 2:0.0080910453 3:0.018312535 4:0.037841839 
12 1:0.006639762 2:0.0071205204 3:0.016179966 4:0.033818099 
12 1:0.0060665656 2:0.0059907959 3:0.013827074 4:0.029575401 
12 1:0.0053575438 2:0.015513979 3:0.036004843 4:0.066830137 
12 1:0.0058658614 2:0.016034057 3:0.036537033 4:0.067374789 
12 1:0.0063748183 2:0.016584651 3:0.037132036 4:0.068016972 
12 1:0.0068733959 2:0.017046227 3:0.037591247 4:0.068508458 
12 1:0.0073283467 2:0.017457479 3:0.03856178 4:0.070641251 
12 1:0.0077034694 2:0.018099993 3:0.041202857 4:0.077012061 
12 1:0.0079821208 2:0.019291915 3:0.046454304 4:0.089469286 
12 1:0.0081722091 2:0.021174445 3:0.054449757 4:0.10799815 
12 1:0.0083006709 2:0.023601511 3:0.064263042 4:0.13028527 
12 1:0.010932298 2:0.044641417 3:0.12845813 4:0.26238245 
12 1:0.01185255 2:0.048195112 3:0.1369662 4:0.2781658 
12 1:0.012879192 2:0.051178099 3:0.14430634 4:0.29226393 
12 1:0.013947229 2:0.053726676 3:0.15092516 4:0.30554267 
12 1:0.014958322 2:0.055821655 3:0.15728325 4:0.31934311 
12 1:0.015835981 2:0.057284378 3:0.16259664 4:0.33177275 
12 1:0.016529192 2:0.057805598 3:0.16552196 4:0.33967827 
12 1:0.016967124 2:0.057733123 3:0.16780358 4:0.34717849 
12 1:0.017189451 2:0.058772251 3:0.17412736 4:0.36325478 
12 1:0.017314963 2:0.061618773 3:0.18583655 4:0.3899683 
12 1:0.017469029 2:0.065035471 3:0.19796917 4:0.41627011 
12 1:0.017685466 2:0.06722005 3:0.20487023 4:0.430636 
12 1:0.017958503 2:0.068970935 3:0.21011181 4:0.44138114 
12 1:0.018282482 2:0.070455009 3:0.2143088 4:0.44984385 
12 1:0.018630915 2:0.072058753 3:0.21917402 4:0.45997673 
12 1:0.018952476 2:0.073579598 3:0.22432083 4:0.47117616 
12 1:0.019210479 2:0.075047773 3:0.22981062 4:0.48349903 
12 1:0.019368757 2:0.076278293 3:0.23506811 4:0.49573819 
12 1:0.019364102 2:0.07689127 3:0.23919946 4:0.50628868 
12 1:0.019175217 2:0.077228248 3:0.24308889 4:0.51675714 
12 1:0.018850952 2:0.077520394 3:0.24663903 4:0.52620687 
12 1:0.007100524 2:0.017399731 3:0.045424459 4:0.091174707 
12 1:0.0073525421 2:0.017066733 3:0.04146355 4:0.080542993 
12 1:0.0077263138 2:0.016729214 3:0.037755978 4:0.070806605 
12 1:0.0081478671 2:0.016835359 3:0.036440752 4:0.066964046 
12 1:0.008587776 2:0.016913598 3:0.035300602 4:0.063748789 
12 1:0.0090356933 2:0.016759898 3:0.033382853 4:0.058904561 
12 1:0.0094845777 2:0.016409604 3:0.030810688 4:0.052687831 
12 1:0.009915346 2:0.016055285 3:0.028507528 4:0.047272075 
12 1:0.010333114 2:0.015833655 3:0.02668298 4:0.042881089 
12 1:0.010752275 2:0.015766832 3:0.02526831 4:0.039256709 
12 1:0.011181842 2:0.015794088 3:0.024079045 4:0.036036713 
12 1:0.011633026 2:0.015992151 3:0.023348213 4:0.033701212 
12 1:0.012111105 2:0.016335513 3:0.023034233 4:0.032207262 
12 1:0.012652095 2:0.017196817 3:0.024080168 4:0.033302148 
12 1:0.013279534 2:0.018415144 3:0.025956387 4:0.035903264 
12 1:0.014028047 2:0.02018003 3:0.029128363 4:0.040873047 
12 1:0.014873017 2:0.021830464 3:0.031904229 4:0.045094312 
12 1:0.015797657 2:0.023409428 3:0.03438595 4:0.04872722 
12 1:0.016778884 2:0.024831864 3:0.036391217 4:0.051456943 
12 1:0.017755331 2:0.025791684 3:0.037375613 4:0.052507118 
12 1:0.018688967 2:0.026494701 3:0.037942263 4:0.053031654 
12 1:0.019578235 2:0.027145416 3:0.038452528 4:0.053499571 
12 1:0.020378277 2:0.027519765 3:0.038672569 4:0.053836689 
12 1:0.020991818 2:0.027811713 3:0.040153471 4:0.058017092 
12 1:0.021354799 2:0.028204903 3:0.043398784 4:0.066936443 
12 1:0.021481416 2:0.028763738 3:0.047756184 4:0.078458752 
12 1:0.0214089 2:0.029316692 3:0.052231967 4:0.090154723 
12 1:0.021182518 2:0.029939182 3:0.056886752 4:0.10202523 
12 1:0.020843034 2:0.030796913 3:0.062272549 4:0.11526994 
12 1:0.020443676 2:0.031895983 3:0.068123822 4:0.12912719 
12 1:0.020040658 2:0.033097409 3:0.073736014 4:0.14195647 
12 1:0.019662189 2:0.034248525 3:0.078785286 4:0.15327247 
12 1:0.019326588 2:0.035256375 3:0.082983929 4:0.16250925 
12 1:0.019009226 2:0.035504795 3:0.084581669 4:0.16623985 
12 1:0.018662723 2:0.035038571 3:0.084122572 4:0.16591472 
12 1:0.018265979 2:0.034330764 3:0.083137123 4:0.16468506 
12 1:0.017799299 2:0.033392467 3:0.081701332 4:0.1627259 
12 1:0.017251085 2:0.032311122 3:0.080070907 4:0.16053044 
12 1:0.016572068 2:0.030666508 3:0.077223989 4:0.15624451 
12 1:0.015734064 2:0.028671737 3:0.073799961 4:0.15111874 
12 1:0.014730425 2:0.026493698 3:0.070207365 4:0.14587143 
12 1:0.013586299 2:0.024374734 3:0.066935189 4:0.14126767 
12 1:0.012327138 2:0.022339227 3:0.064010006 4:0.13733948 
12 1:0.010987006 2:0.020490925 3:0.061629373 4:0.13440235 
12 1:0.009177555 2:0.04258411 3:0.11003875 4:0.21154147 
12 1:0.011908875 2:0.047649835 3:0.12030993 4:0.22988917 
12 1:0.014543001 2:0.051401733 3:0.12771022 4:0.24346846 
12 1:0.034422998 2:0.081943777 3:0.21465771 4:0.43256481 
12 1:0.034878767 2:0.082807251 3:0.21807486 4:0.44068161 
12 1:0.035122574 2:0.082989568 3:0.22061729 4:0.44800575 
12 1:0.035121876 2:0.082924343 3:0.22314812 4:0.45579322 
12 1:0.034478373 2:0.078513431 3:0.21475326 4:0.44319786 
12 1:0.033014308 2:0.072718039 3:0.20472646 4:0.42903957 
12 1:0.030640343 2:0.066005391 3:0.19415181 4:0.41507961 
12 1:0.027351288 2:0.058802297 3:0.18379228 4:0.40232124 
12 1:0.023361507 2:0.052395117 3:0.17585522 4:0.39374181 
12 1:0.0087329295 2:0.046485874 3:0.12265288 4:0.23723396 
12 1:0.010627624 2:0.049546633 3:0.12786156 4:0.24557241 
12 1:0.012514613 2:0.051509305 3:0.13101251 4:0.25102423 
12 1:0.014275265 2:0.052454134 3:0.13264329 4:0.25484272 
12 1:0.015772031 2:0.053057975 3:0.13590953 4:0.2643267 
12 1:0.016915868 2:0.055341929 3:0.14779757 4:0.29428279 
12 1:0.017718384 2:0.060211021 3:0.17005837 4:0.34726044 
12 1:0.018242411 2:0.06667937 3:0.19801412 4:0.41224665 
12 1:0.018567733 2:0.073290066 3:0.22564924 4:0.47564527 
12 1:0.018761518 2:0.079711361 3:0.25175193 4:0.53488322 
12 1:0.0052211003 2:0.01328944 3:0.03174543 4:0.060589068 
12 1:0.0055155096 2:0.013573214 3:0.031993687 4:0.06077693 
12 1:0.0058116521 2:0.013666146 3:0.03148855 4:0.059278862 
12 1:0.0061059737 2:0.013571153 3:0.030331262 4:0.056386301 
12 1:0.0063953948 2:0.013425721 3:0.029044401 4:0.053251436 
12 1:0.0066730766 2:0.013112816 3:0.027259442 4:0.049112956 
12 1:0.006925176 2:0.012447053 3:0.024415633 4:0.042830915 
12 1:0.0071420076 2:0.011645086 3:0.021296836 4:0.03609726 
12 1:0.0073110838 2:0.010720998 3:0.018031746 4:0.02924333 
12 1:0.0074312221 2:0.0098466691 3:0.015110095 4:0.0232215 
12 1:0.0075008722 2:0.0089511229 3:0.012275247 4:0.017473246 
12 1:0.0075282419 2:0.0082009395 3:0.0099904438 4:0.012896755 
12 1:0.007535266 2:0.0077738476 3:0.0086726436 4:0.010231654 
12 1:0.007572944 2:0.0080977927 3:0.0094011099 4:0.011482896 
12 1:0.0076732173 2:0.0088165023 3:0.011078359 4:0.014458786 
12 1:0.0078401057 2:0.0096034415 3:0.012821232 4:0.017493479 
12 1:0.008034913 2:0.010449002 3:0.015200213 4:0.022288546 
12 1:0.008186112 2:0.011927934 3:0.020999024 4:0.03539938 
12 1:0.0082513072 2:0.016026531 3:0.037433954 4:0.072473577 
12 1:0.0082930715 2:0.02283499 3:0.063292249 4:0.12966485 
12 1:0.024183804 2:0.046589941 3:0.12053045 4:0.24600533 
12 1:0.022310245 2:0.042539122 3:0.11242209 4:0.23195915 
12 1:0.020971301 2:0.038921822 3:0.10605449 4:0.22236931 
12 1:0.019282101 2:0.035304982 3:0.10015348 4:0.21382759 
12 1:0.017321073 2:0.032119325 3:0.09576128 4:0.20824694 
12 1:0.015172189 2:0.029593057 3:0.093433814 4:0.20669446 
12 1:0.01374572 2:0.069401597 3:0.19728756 4:0.39740359 
12 1:0.01585684 2:0.072211046 3:0.19964752 4:0.39816628 
12 1:0.018141563 2:0.075219249 3:0.20276763 4:0.40078672 
12 1:0.02056931 2:0.078547869 3:0.20709873 4:0.40622189 
12 1:0.023050816 2:0.080911935 3:0.20887476 4:0.40693929 
12 1:0.025574238 2:0.083360438 3:0.21080916 4:0.4079204 
12 1:0.028116145 2:0.085865228 3:0.21304409 4:0.40965272 
12 1:0.030592113 2:0.087862614 3:0.21477101 4:0.4113173 
12 1:0.032936743 2:0.089369186 3:0.21602845 4:0.41291454 
12 1:0.034956893 2:0.09090941 3:0.22105029 4:0.42537954 
12 1:0.036483067 2:0.094361184 3:0.23702796 4:0.4644834 
12 1:0.037477243 2:0.10344755 3:0.27625603 4:0.55590268 
12 1:0.038080121 2:0.11496183 3:0.32372881 4:0.66438105 
12 1:0.038478634 2:0.12745934 3:0.37278741 4:0.77446285 
12 1:0.038798782 2:0.13942114 3:0.4181553 4:0.87500127 
12 1:0.039146079 2:0.15033836 3:0.45794114 4:0.96195441 
12 1:0.039570936 2:0.15962976 3:0.49062466 4:1.0325556 
12 1:0.040063966 2:0.16650143 3:0.51412869 4:1.0829457 
12 1:0.040539774 2:0.17018493 3:0.52690611 4:1.1107033 
12 1:0.040844754 2:0.17024716 3:0.52873867 4:1.1163193 
12 1:0.040772394 2:0.16661596 3:0.52061688 4:1.1027752 
12 1:0.040207767 2:0.16169666 3:0.51062342 4:1.0869881 
12 1:0.039142075 2:0.15660445 3:0.50149256 4:1.0738064 
12 1:0.037656803 2:0.14995828 3:0.48650665 4:1.0473019 
12 1:0.035796252 2:0.14350173 3:0.47256976 4:1.0230003 
12 1:0.033608741 2:0.13767058 3:0.46109573 4:1.0038842 
12 1:0.03116419 2:0.13277735 3:0.45277626 4:0.9911609 
12 1:0.011087349 2:0.044168646 3:0.12403989 4:0.25070107 
12 1:0.01213864 2:0.043836229 3:0.1192651 4:0.23842524 
12 1:0.013190885 2:0.04294449 3:0.11331853 4:0.22431301 
12 1:0.014212179 2:0.042281509 3:0.10867505 4:0.2133928 
12 1:0.015193901 2:0.042273473 3:0.10663587 4:0.2082811 
12 1:0.01615059 2:0.042811084 3:0.10644233 4:0.20704433 
12 1:0.01710275 2:0.043696813 3:0.10724031 4:0.20773325 
12 1:0.018058142 2:0.044655771 3:0.10819252 4:0.20866838 
12 1:0.01898254 2:0.045403063 3:0.10884619 4:0.20931191 
12 1:0.019873982 2:0.046090568 3:0.10941931 4:0.2098602 
12 1:0.020679603 2:0.046503228 3:0.10981007 4:0.21060012 
12 1:0.021280248 2:0.047043063 3:0.11254806 4:0.21779523 
12 1:0.021609771 2:0.048876621 3:0.12154355 4:0.23961054 
12 1:0.021697766 2:0.051634201 3:0.13430815 4:0.26971963 
12 1:0.021638192 2:0.054579075 3:0.147067 4:0.29910196 
12 1:0.021518127 2:0.057539647 3:0.15901986 4:0.32595875 
12 1:0.021427784 2:0.06042929 3:0.16956265 4:0.34882785 
12 1:0.021431489 2:0.063127872 3:0.17840239 4:0.36725504 
12 1:0.02155954 2:0.065227345 3:0.18435028 4:0.37892835 
12 1:0.021772542 2:0.065989739 3:0.18556571 4:0.38050046 
12 1:0.021982307 2:0.065426716 3:0.18287715 4:0.37433362 
12 1:0.022050159 2:0.062955787 3:0.17503434 4:0.35828583 
12 1:0.021842641 2:0.059302608 3:0.16502235 4:0.33900187 
12 1:0.021331056 2:0.055653325 3:0.15617882 4:0.32290755 
12 1:0.020560976 2:0.052143169 3:0.14804974 4:0.30828068 
12 1:0.019605251 2:0.049672174 3:0.14343188 4:0.30088438 
12 1:0.018494908 2:0.047602028 3:0.14032323 4:0.29665851 
12 1:0.01725908 2:0.045785017 3:0.13812795 4:0.29428789 
12 1:0.015929135 2:0.044076813 3:0.13626193 4:0.29248448 
12 1:0.014551225 2:0.042571866 3:0.13479955 4:0.29123427 
12 1:0.02790162 2:0.072924947 3:0.20132674 4:0.413107 
12 1:0.027629954 2:0.069418373 3:0.19403763 4:0.40148771 
12 1:0.026793305 2:0.064882125 3:0.18525286 4:0.3879055 
12 1:0.025453467 2:0.060644893 3:0.17815619 4:0.37798736 
12 1:0.023703311 2:0.056724249 3:0.1722466 4:0.37027037 
12 1:0.02151364 2:0.052374669 3:0.16600643 4:0.36240894 
12 1:0.01881995 2:0.047375319 3:0.15909448 4:0.35397744 
12 1:0.0050350232 2:0.012148115 3:0.027580364 4:0.051331769 
12 1:0.0053723576 2:0.012819993 3:0.028634275 4:0.052815204 
12 1:0.0057283556 2:0.013506595 3:0.029706155 4:0.054327036 
12 1:0.0060913418 2:0.014170304 3:0.030822604 4:0.05604824 
12 1:0.0064821546 2:0.015290334 3:0.033166653 4:0.06011111 
12 1:0.0069229905 2:0.016786549 3:0.036445937 4:0.065901155 
12 1:0.0074335811 2:0.018568143 3:0.040354124 4:0.072791523 
12 1:0.0080299636 2:0.020576192 3:0.044695606 4:0.080388203 
12 1:0.0087269919 2:0.022721627 3:0.049105315 4:0.087878055 
12 1:0.0095260869 2:0.024860253 3:0.053290807 4:0.094817749 
12 1:0.010412224 2:0.026640805 3:0.056247196 4:0.099231396 
12 1:0.011365144 2:0.027963224 3:0.057738892 4:0.10069215 
12 1:0.012377303 2:0.029173549 3:0.058844663 4:0.10139065 
12 1:0.013435366 2:0.030281371 3:0.059634592 4:0.10149503 
12 1:0.01450236 2:0.030971691 3:0.059371553 4:0.099701947 
12 1:0.015528566 2:0.031054045 3:0.057661532 4:0.095351025 
12 1:0.01650922 2:0.031168501 3:0.056091358 4:0.091277791 
12 1:0.01744632 2:0.031321209 3:0.054692486 4:0.087560152 
12 1:0.01836571 2:0.031768319 3:0.054024737 4:0.085134963 
12 1:0.019244069 2:0.032076801 3:0.053390111 4:0.083184001 
12 1:0.019958378 2:0.034201137 3:0.06221071 4:0.1039871 
12 1:0.020437007 2:0.038908493 3:0.082697272 4:0.15180334 
12 1:0.020688043 2:0.045348723 3:0.11028121 4:0.21548551 
12 1:0.020767916 2:0.053550276 3:0.14412968 4:0.29250614 
12 1:0.020745287 2:0.062073954 3:0.17837039 4:0.36963459 
12 1:0.020669624 2:0.070379102 3:0.21112569 4:0.44290939 
12 1:0.020591997 2:0.078409622 3:0.24208792 4:0.51162689 
12 1:0.02054651 2:0.085796282 3:0.27000824 4:0.57318237 
12 1:0.020538162 2:0.092123183 3:0.29373341 4:0.62536884 
12 1:0.011247902 2:0.052264884 3:0.15200587 4:0.31047086 
12 1:0.012328878 2:0.052872721 3:0.15085808 4:0.30628497 
12 1:0.013423362 2:0.05379507 3:0.15112337 4:0.30540825 
12 1:0.01452447 2:0.054518465 3:0.15072629 4:0.30314794 
12 1:0.015598865 2:0.054846356 3:0.14937176 4:0.29917507 
12 1:0.016566428 2:0.054841474 3:0.14811359 4:0.29638279 
12 1:0.017349298 2:0.054723849 3:0.14794326 4:0.29700752 
12 1:0.017889619 2:0.054683614 3:0.14946781 4:0.30224219 
12 1:0.018168054 2:0.054805136 3:0.15256274 4:0.31144086 
12 1:0.018221044 2:0.055794865 3:0.15906113 4:0.32801985 
12 1:0.018161272 2:0.058118082 3:0.16942427 4:0.35207984 
12 1:0.018126661 2:0.060945785 3:0.1798546 4:0.37485309 
12 1:0.018235921 2:0.063775336 3:0.18841224 4:0.39214662 
12 1:0.018568894 2:0.066311866 3:0.19428715 4:0.40249475 
12 1:0.019131724 2:0.067785181 3:0.19554669 4:0.40241625 
12 1:0.0198637 2:0.067617713 3:0.19103342 4:0.39011083 
12 1:0.020658386 2:0.065778933 3:0.18147134 4:0.3677356 
12 1:0.021416102 2:0.06299802 3:0.1697492 4:0.34166965 
12 1:0.022062444 2:0.059781681 3:0.15762528 4:0.31559323 
12 1:0.022574885 2:0.05704414 3:0.1479132 4:0.29518208 
12 1:0.022959921 2:0.055384122 3:0.14242918 4:0.28409509 
12 1:0.023256726 2:0.054799741 3:0.14061105 4:0.28069066 
12 1:0.023517448 2:0.054827151 3:0.14046285 4:0.28042456 
12 1:0.023697605 2:0.054632206 3:0.14019245 4:0.28037835 
12 1:0.023695482 2:0.054268117 3:0.14094772 4:0.28373428 
12 1:0.023460906 2:0.054049274 3:0.14343369 4:0.29161416 
12 1:0.022992141 2:0.053930062 3:0.1469447 4:0.30203606 
12 1:0.022314955 2:0.053778987 3:0.15061382 4:0.31281945 
12 1:0.021466915 2:0.053665792 3:0.15444907 4:0.32381676 
12 1:0.020515562 2:0.053981244 3:0.15933774 4:0.33658506 
12 1:0.019580353 2:0.054748654 3:0.16439251 4:0.34851191 
12 1:0.018783108 2:0.055606042 3:0.16791622 4:0.35571365 
12 1:0.018199192 2:0.05596552 3:0.16807988 4:0.35454228 
12 1:0.017847236 2:0.055711198 3:0.16510476 4:0.34602792 
12 1:0.017692929 2:0.054173619 3:0.1572224 4:0.32683926 
12 1:0.017649497 2:0.051182005 3:0.14466332 4:0.29809346 
12 1:0.017628517 2:0.047347512 3:0.12998318 4:0.26553551 
12 1:0.017532797 2:0.04285672 3:0.11423561 4:0.23166946 
12 1:0.017266522 2:0.038021802 3:0.098812753 4:0.19963938 
12 1:0.016756244 2:0.033241423 3:0.08511325 4:0.17237173 
12 1:0.015976655 2:0.02916704 3:0.075043247 4:0.15360528 
12 1:0.014971156 2:0.026204058 3:0.069184539 4:0.1439126 
12 1:0.013795897 2:0.023854407 3:0.065396879 4:0.13842331 
12 1:0.012509767 2:0.021945358 3:0.062869349 4:0.13528174 
12 1:0.011151612 2:0.020296722 3:0.061079877 4:0.13350108 
12 1:0.0097853752 2:0.019125619 3:0.06038505 4:0.13356367 
12 1:0.004905654 2:0.011022075 3:0.025092063 4:0.047115616 
12 1:0.0050802645 2:0.010004175 3:0.021267903 4:0.038871449 
12 1:0.0052167492 2:0.0094571857 3:0.019280868 4:0.034687797 
12 1:0.005342536 2:0.0093412637 3:0.018630829 4:0.033211231 
12 1:0.0054676358 2:0.00929756 3:0.0181552 4:0.032040555 
12 1:0.0055870706 2:0.0092081299 3:0.01760127 4:0.03076649 
12 1:0.0057018707 2:0.0090992178 3:0.016994916 4:0.029388965 
12 1:0.0058095189 2:0.009125981 3:0.016947274 4:0.029273398 
12 1:0.0059247761 2:0.0093170641 3:0.017333093 4:0.029972862 
12 1:0.0060459604 2:0.0094803286 3:0.017622277 4:0.030471807 
12 1:0.0061644765 2:0.0096085707 3:0.017886654 4:0.030998727 
12 1:0.0062614571 2:0.0096400551 3:0.018055109 4:0.03150662 
12 1:0.0063268766 2:0.0095737013 3:0.018046829 4:0.031746261 
12 1:0.0063526349 2:0.0094134871 3:0.017876146 4:0.031740612 
12 1:0.0063323707 2:0.0091543278 3:0.017523771 4:0.031440699 
12 1:0.0062693624 2:0.0087878347 3:0.016838176 4:0.030420385 
12 1:0.0061604637 2:0.0083106515 3:0.015888811 4:0.028894942 
12 1:0.0060080119 2:0.007759768 3:0.014759347 4:0.02700675 
12 1:0.0058241476 2:0.0073334341 3:0.014047011 4:0.025964879 
12 1:0.0056249048 2:0.0071676347 3:0.014169776 4:0.02663133 
12 1:0.005435976 2:0.0073279383 3:0.015194858 4:0.029036736 
12 1:0.0052524217 2:0.0076591696 3:0.016876976 4:0.03290584 
12 1:0.010018031 2:0.054427791 3:0.15370782 4:0.30785811 
12 1:0.012216153 2:0.059940749 3:0.16598071 4:0.33033605 
12 1:0.014389928 2:0.064483497 3:0.17742662 4:0.35321929 
12 1:0.016342661 2:0.068304869 3:0.18894273 4:0.37825623 
12 1:0.01791837 2:0.071229001 3:0.19987405 4:0.40385351 
12 1:0.018939738 2:0.072337032 3:0.20751831 4:0.42448356 
12 1:0.019395011 2:0.073114428 3:0.21560329 4:0.44686159 
12 1:0.019364643 2:0.074045364 3:0.22466425 4:0.47122131 
12 1:0.019030229 2:0.075245073 3:0.23346462 4:0.49368886 
12 1:0.018621027 2:0.076291358 3:0.23931944 4:0.50770528 
12 1:0.018249154 2:0.077090282 3:0.24292232 4:0.51574528 
12 1:0.017939529 2:0.077469332 3:0.24452789 4:0.51911521 
12 1:0.017222263 2:0.0764384 3:0.23937109 4:0.50602034 
12 1:0.01719962 2:0.075604068 3:0.23640473 4:0.4996016 
12 1:0.01712575 2:0.073714133 3:0.230125 4:0.48635835 
12 1:0.016906659 2:0.070033487 3:0.21862872 4:0.46269237 
12 1:0.016391495 2:0.064081934 3:0.20116627 4:0.42764452 
12 1:0.012386703 2:0.085142258 3:0.23075631 4:0.44922886 
12 1:0.020168535 2:0.11781064 3:0.3078534 4:0.59029679 
12 1:0.030590893 2:0.15356365 3:0.38712026 4:0.73126074 
12 1:0.043705237 2:0.1909037 3:0.46453839 4:0.8646093 
12 1:0.059127284 2:0.2259817 3:0.53095518 4:0.97404773 
12 1:0.076122869 2:0.25516822 3:0.57829972 4:1.0455174 
12 1:0.093292323 2:0.27484324 3:0.60336584 4:1.0788601 
12 1:0.10938775 2:0.28729422 3:0.61658808 4:1.0972693 
12 1:0.0041561139 2:0.0082550108 3:0.015477794 4:0.025824463 
12 1:0.0043608649 2:0.0084552408 3:0.015659613 4:0.02597398 
12 1:0.0045624446 2:0.0086215997 3:0.015772389 4:0.026014813 
12 1:0.0047679014 2:0.0089186681 3:0.016198358 4:0.02660697 
12 1:0.004987192 2:0.0094385726 3:0.017180574 4:0.028213195 
12 1:0.0052239753 2:0.010073279 3:0.018431005 4:0.030297155 
12 1:0.0054638775 2:0.010611184 3:0.019609354 4:0.03245839 
12 1:0.0056731449 2:0.011363792 3:0.022418863 4:0.038838355 
12 1:0.0058210066 2:0.012743677 3:0.028455055 4:0.052955141 
12 1:0.0058983074 2:0.014553188 3:0.036549276 4:0.07188657 
12 1:0.069518109 2:0.099337052 3:0.25752463 4:0.54408085 
12 1:0.063667032 2:0.089795058 3:0.24152211 4:0.51884819 
12 1:0.057518423 2:0.080162888 3:0.22579816 4:0.49442424 
12 1:0.051079475 2:0.070300233 3:0.20998298 4:0.47012772 
12 1:0.044439703 2:0.06098616 3:0.19558098 4:0.44822417 
12 1:0.037713574 2:0.052476485 3:0.18277314 4:0.42860355 
12 1:0.03098115 2:0.044420732 3:0.17043763 4:0.40903184 
12 1:0.0077148997 2:0.021648041 3:0.060630622 4:0.12466264 
12 1:0.0074439218 2:0.018394973 3:0.05003819 4:0.10237357 
12 1:0.0070869697 2:0.016037832 3:0.043084514 4:0.088227016 
12 1:0.0066901493 2:0.014463583 3:0.038716995 4:0.079450382 
12 1:0.0045763428 2:0.011312798 3:0.023488648 4:0.041103893 
12 1:0.0049864256 2:0.011189684 3:0.022625425 4:0.039293649 
12 1:0.005324693 2:0.010989618 3:0.022003146 4:0.038365277 
12 1:0.0055709384 2:0.010862695 3:0.022188961 4:0.039549736 
12 1:0.0057126718 2:0.011417116 3:0.025409765 4:0.047690619 
12 1:0.0057686896 2:0.012841073 3:0.031881513 4:0.06289001 
12 1:0.017157584 2:0.1118429 3:0.33810193 4:0.69593467 
12 1:0.019589592 2:0.11326977 3:0.3377944 4:0.69316348 
12 1:0.021713259 2:0.11254508 3:0.33334076 4:0.6841003 
12 1:0.023314878 2:0.10995766 3:0.32633489 4:0.67244657 
12 1:0.024258913 2:0.10691768 3:0.32142946 4:0.66779426 
12 1:0.024604095 2:0.10530341 3:0.32287607 4:0.67732206 
12 1:0.024493305 2:0.10611977 3:0.33283125 4:0.70462774 
12 1:0.024111045 2:0.10771572 3:0.34390009 4:0.73266416 
12 1:0.023670605 2:0.10896441 3:0.35078139 4:0.74912153 
12 1:0.02332107 2:0.1088089 3:0.34996466 4:0.74678834 
12 1:0.023108908 2:0.10775012 3:0.34466667 4:0.73385854 
12 1:0.023040297 2:0.10611926 3:0.33670318 4:0.71479206 
12 1:0.023101267 2:0.10383832 3:0.32612777 4:0.68996964 
12 1:0.023257979 2:0.10085503 3:0.31313183 4:0.66008838 
12 1:0.023458946 2:0.097636646 3:0.29988975 4:0.63021825 
12 1:0.023647586 2:0.094391905 3:0.28740282 4:0.60268034 
12 1:0.023802131 2:0.091604855 3:0.2770465 4:0.58012706 
12 1:0.023898417 2:0.088727544 3:0.26684348 4:0.55824622 
12 1:0.023900543 2:0.085290938 3:0.25526981 4:0.53383716 
12 1:0.023754959 2:0.080916476 3:0.2412991 4:0.50490283 
12 1:0.023358997 2:0.074941663 3:0.22344569 4:0.46887108 
12 1:0.022585656 2:0.067104133 3:0.20146164 4:0.42565819 
12 1:0.021336816 2:0.057623883 3:0.17604337 4:0.37659527 
12 1:0.019658549 2:0.048717171 3:0.15334266 4:0.33353501 
12 1:0.017658862 2:0.041537767 3:0.13649193 4:0.30252134 
12 1:0.009177081 2:0.034641269 3:0.098314015 4:0.20019532 
12 1:0.010087223 2:0.039830889 3:0.11190017 4:0.22629507 
12 1:0.011319363 2:0.045425071 3:0.12578888 4:0.25241078 
12 1:0.012773481 2:0.049634065 3:0.13498567 4:0.26882829 
12 1:0.014324121 2:0.052580349 3:0.14055605 4:0.27825122 
12 1:0.015829622 2:0.054326864 3:0.14332998 4:0.28283896 
12 1:0.017089513 2:0.055373077 3:0.14645217 4:0.2903268 
12 1:0.017971614 2:0.056134269 3:0.15105686 4:0.30273938 
12 1:0.018476767 2:0.057363676 3:0.15843786 4:0.32169932 
12 1:0.018656587 2:0.058777258 3:0.1668407 4:0.3428469 
12 1:0.018591473 2:0.060196413 3:0.17505331 4:0.36316216 
12 1:0.018361843 2:0.061654632 3:0.18296805 4:0.3823021 
12 1:0.018035664 2:0.063122877 3:0.19043362 4:0.39996788 
12 1:0.017668859 2:0.064392053 3:0.19664417 4:0.41442522 
12 1:0.017297103 2:0.065340879 3:0.20126285 4:0.42506301 
12 1:0.016930094 2:0.066189871 3:0.20538524 4:0.43451619 
12 1:0.016564322 2:0.066831121 3:0.20877555 4:0.44239762 
12 1:0.015792928 2:0.066595549 3:0.20500028 4:0.43100713 
12 1:0.015844747 2:0.063689905 3:0.19375836 4:0.40605011 
12 1:0.015803062 2:0.059523275 3:0.17932223 4:0.37519992 
12 1:0.015544184 2:0.054063554 3:0.16208443 4:0.33960681 
12 1:0.014954046 2:0.047618536 3:0.14338902 4:0.30226549 
12 1:0.013972218 2:0.04077882 3:0.12499237 4:0.26661288 
12 1:0.012043623 2:0.070469568 3:0.19058788 4:0.37239854 
12 1:0.016582555 2:0.087145552 3:0.22813751 4:0.43955843 
12 1:0.022075754 2:0.10328647 3:0.26227546 4:0.49904271 
12 1:0.028218807 2:0.11701474 3:0.28903791 4:0.54428832 
12 1:0.034578142 2:0.12673137 3:0.30512317 4:0.56975353 
12 1:0.040749957 2:0.1327128 3:0.31233845 4:0.57962691 
12 1:0.046445696 2:0.13616632 3:0.31471576 4:0.58209401 
12 1:0.051571951 2:0.13848078 3:0.31548594 4:0.58258742 
12 1:0.018998683 2:0.024361215 3:0.077645065 4:0.17885023 
12 1:0.016002936 2:0.022768491 3:0.076428741 4:0.17698369 
12 1:0.013386087 2:0.021438188 3:0.074470335 4:0.17248253 
12 1:0.0088383717 2:0.031786684 3:0.089409508 4:0.18170684 
12 1:0.0091586367 2:0.0308331 3:0.086595281 4:0.17644518 
12 1:0.0093122937 2:0.029673652 3:0.083616204 4:0.17113995 
12 1:0.009322311 2:0.02853278 3:0.080864759 4:0.16631825 
12 1:0.0092271432 2:0.027454322 3:0.078231519 4:0.16155874 
12 1:0.0090599363 2:0.026533156 3:0.07603616 4:0.15756895 
12 1:0.0088690873 2:0.026225528 3:0.075678226 4:0.15722718 
12 1:0.0086340305 2:0.026840419 3:0.076621827 4:0.15797825 
12 1:0.0087030281 2:0.027136311 3:0.07686838 4:0.15789923 
12 1:0.0088016073 2:0.027135864 3:0.076293291 4:0.15627389 
12 1:0.0088733821 2:0.026882161 3:0.075434624 4:0.15453077 
12 1:0.0088709972 2:0.026126324 3:0.073413905 4:0.15073374 
12 1:0.0087786151 2:0.025442019 3:0.072069215 4:0.1486602 
12 1:0.0085883199 2:0.024691301 3:0.070819429 4:0.1469727 
12 1:0.0066824388 2:0.02132239 3:0.055058268 4:0.10789007 
12 1:0.0073866579 2:0.0227133 3:0.056962394 4:0.11013394 
12 1:0.0082658443 2:0.024772988 3:0.060322343 4:0.11491391 
12 1:0.0093814421 2:0.027480707 3:0.064864797 4:0.12153371 
12 1:0.010772399 2:0.030682591 3:0.07015071 4:0.12917676 
12 1:0.012448537 2:0.034100976 3:0.075443159 4:0.13647509 
12 1:0.014349361 2:0.037302704 3:0.080025666 4:0.14251825 
12 1:0.016382455 2:0.040007025 3:0.083432387 4:0.14665854 
12 1:0.018434607 2:0.041802165 3:0.084642838 4:0.14695663 
12 1:0.020363009 2:0.042441606 3:0.083372553 4:0.14315585 
12 1:0.021998749 2:0.042114123 3:0.08092142 4:0.13842064 
12 1:0.023199773 2:0.041328485 3:0.07926918 4:0.13702186 
12 1:0.023939223 2:0.040705081 3:0.079623775 4:0.1406953 
12 1:0.024276155 2:0.040259296 3:0.08105236 4:0.14665535 
12 1:0.024298725 2:0.039880587 3:0.082670392 4:0.15266814 
12 1:0.024105759 2:0.039506074 3:0.083896775 4:0.15727786 
12 1:0.023794487 2:0.039250173 3:0.084919244 4:0.1608017 
12 1:0.023446918 2:0.039090131 3:0.085593699 4:0.16295762 
12 1:0.023126513 2:0.039316918 3:0.087021337 4:0.16623977 
12 1:0.022856591 2:0.039728412 3:0.088776907 4:0.17000208 
12 1:0.022616801 2:0.040056921 3:0.090346604 4:0.17348585 
12 1:0.022380222 2:0.040260782 3:0.091720068 4:0.17675808 
12 1:0.022116626 2:0.040256994 3:0.092704271 4:0.17945846 
12 1:0.021788991 2:0.039895855 3:0.092921539 4:0.18086604 
12 1:0.021374353 2:0.039249448 3:0.092569747 4:0.18133525 
12 1:0.021614495 2:0.039297847 3:0.093455774 4:0.18408828 
12 1:0.02170555 2:0.038556075 3:0.09259012 4:0.18380768 
12 1:0.021567556 2:0.037007275 3:0.090133619 4:0.18094659 
12 1:0.021111715 2:0.034599357 3:0.086154665 4:0.17577764 
12 1:0.020254316 2:0.031414946 3:0.081058558 4:0.16918515 
12 1:0.018934717 2:0.02772678 3:0.075683811 4:0.16280581 
12 1:0.017173026 2:0.024055077 3:0.070984752 4:0.15796205 
12 1:0.015039398 2:0.020728013 3:0.067428426 4:0.15514064 
12 1:0.012649554 2:0.018114903 3:0.065592436 4:0.15508215 
12 1:0.013364525 2:0.065731997 3:0.19477703 4:0.40049962 
12 1:0.014459409 2:0.068316587 3:0.19923127 4:0.40720346 
12 1:0.015606048 2:0.069767934 3:0.20059966 4:0.40810123 
12 1:0.016746042 2:0.070859557 3:0.20166456 4:0.40916104 
12 1:0.017792975 2:0.071620994 3:0.20342021 4:0.41319063 
12 1:0.018654428 2:0.072425166 3:0.2077393 4:0.42459684 
12 1:0.019283809 2:0.073526196 3:0.21482012 4:0.44316558 
12 1:0.019677819 2:0.07495312 3:0.22391122 4:0.46655213 
12 1:0.019857245 2:0.076478691 3:0.23359264 4:0.49119908 
12 1:0.019854068 2:0.078725648 3:0.24594758 4:0.52151987 
12 1:0.019733201 2:0.083336895 3:0.26642537 4:0.56899863 
12 1:0.011537856 2:0.042322675 3:0.11834679 4:0.23961021 
12 1:0.012491391 2:0.039286544 3:0.10271805 4:0.2027859 
12 1:0.013469252 2:0.036069772 3:0.087284148 4:0.16711238 
12 1:0.014437275 2:0.03310755 3:0.07343928 4:0.13543247 
12 1:0.01537573 2:0.030960464 3:0.063140589 4:0.1119161 
12 1:0.01626471 2:0.029448551 3:0.055674466 4:0.094942454 
12 1:0.017062693 2:0.029266402 3:0.053978958 4:0.09120036 
12 1:0.017737118 2:0.02936855 3:0.054066337 4:0.091830477 
12 1:0.01829463 2:0.029663251 3:0.055059662 4:0.094483863 
12 1:0.018744611 2:0.029980586 3:0.056288877 4:0.097669482 
12 1:0.019050594 2:0.030015327 3:0.057363152 4:0.10109407 
12 1:0.019181901 2:0.030144444 3:0.059694776 4:0.1078329 
12 1:0.019154018 2:0.030680971 3:0.063807627 4:0.11853398 
12 1:0.019008015 2:0.031565673 3:0.069026427 4:0.13139028 
12 1:0.018795275 2:0.03275876 3:0.074919303 4:0.1452769 
12 1:0.018532372 2:0.033723741 3:0.079883987 4:0.15701311 
12 1:0.018222579 2:0.033866718 3:0.08182952 4:0.16211099 
12 1:0.017865968 2:0.033461787 3:0.081813606 4:0.16292143 
12 1:0.017456531 2:0.032912197 3:0.081448499 4:0.16306544 
12 1:0.01698548 2:0.032186163 3:0.080681953 4:0.16247285 
12 1:0.016459899 2:0.031420009 3:0.079786303 4:0.16155878 
12 1:0.015861468 2:0.030093019 3:0.077206195 4:0.157201 
12 1:0.015148129 2:0.028130708 3:0.073121823 4:0.15012147 
12 1:0.014303701 2:0.0259176 3:0.068698873 4:0.14264752 
12 1:0.013353697 2:0.023880392 3:0.064920472 4:0.13647394 
12 1:0.012341743 2:0.022270288 3:0.062380762 4:0.13267317 
12 1:0.011334448 2:0.02139551 3:0.061754569 4:0.13241163 
12 1:0.010330128 2:0.0204872 3:0.061072388 4:0.13208569 
12 1:0.0043166548 2:0.0092702621 3:0.019013626 4:0.033546747 
12 1:0.0045466849 2:0.0094903087 3:0.019225681 4:0.033752801 
12 1:0.0047914892 2:0.0099637022 3:0.020093719 4:0.035181541 
12 1:0.0049953066 2:0.011236621 3:0.025048186 4:0.046430001 
12 1:0.0090518887 2:0.039865061 3:0.1039489 4:0.20130341 
12 1:0.011103627 2:0.043200733 3:0.10869492 4:0.2075862 
12 1:0.013273547 2:0.045767681 3:0.11124923 4:0.20971821 
12 1:0.015500256 2:0.047785729 3:0.11233138 4:0.20913721 
12 1:0.023495251 2:0.16708204 3:0.53573045 4:1.1294405 
12 1:0.025138132 2:0.16794636 3:0.54074093 4:1.1435218 
12 1:0.026242655 2:0.17005917 3:0.55364551 4:1.1770017 
12 1:0.026895515 2:0.17455358 3:0.57546584 4:1.2296323 
12 1:0.027262919 2:0.18002767 3:0.59940644 4:1.2853992 
12 1:0.027461002 2:0.18432395 3:0.61765308 4:1.3274484 
12 1:0.027553054 2:0.18718211 3:0.62977486 4:1.3553313 
12 1:0.027570212 2:0.18833425 3:0.6351352 4:1.3679731 
12 1:0.027485934 2:0.18685646 3:0.63114209 4:1.3603428 
12 1:0.011865844 2:0.070834312 3:0.20475537 4:0.41362902 
12 1:0.014450144 2:0.075866823 3:0.21409056 4:0.42912135 
12 1:0.017006621 2:0.078685396 3:0.21773142 4:0.43414468 
12 1:0.01927469 2:0.079866519 3:0.21914056 4:0.43709681 
12 1:0.021061336 2:0.080634412 3:0.22269744 4:0.44725041 
12 1:0.022345975 2:0.081729848 3:0.2291791 4:0.46469372 
12 1:0.023160624 2:0.083172045 3:0.23793229 4:0.48744137 
12 1:0.02358185 2:0.085069938 3:0.2486039 4:0.51418375 
12 1:0.023720158 2:0.087698817 3:0.26148927 4:0.54509152 
12 1:0.023699265 2:0.090915722 3:0.27553189 4:0.57754776 
12 1:0.023655345 2:0.094736001 3:0.29023841 4:0.61016256 
12 1:0.023705984 2:0.098685072 3:0.30371863 4:0.63880667 
12 1:0.023898 2:0.10224483 3:0.31475733 4:0.6614355 
12 1:0.024186793 2:0.10479353 3:0.32224853 4:0.67655179 
12 1:0.024473676 2:0.10595745 3:0.32583143 4:0.68409562 
12 1:0.024738359 2:0.10657869 3:0.32773927 4:0.68822009 
12 1:0.025022216 2:0.1069844 3:0.32831261 4:0.68900684 
12 1:0.025346618 2:0.10660273 3:0.32558537 4:0.68229454 
12 1:0.025624383 2:0.10436909 3:0.31711344 4:0.66385745 
12 1:0.025726857 2:0.10071812 3:0.30535033 4:0.63962349 
12 1:0.025544679 2:0.096095079 3:0.29199043 4:0.61323073 
12 1:0.024988384 2:0.090270464 3:0.27618776 4:0.58274029 
12 1:0.023989434 2:0.08327111 3:0.25798925 4:0.54814385 
12 1:0.02250442 2:0.075456424 3:0.23857798 4:0.51186907 
12 1:0.020529003 2:0.067789958 3:0.22114126 4:0.4805829 
12 1:0.0071351756 2:0.036587011 3:0.092800438 4:0.17577545 
12 1:0.0095371141 2:0.04378009 3:0.10882158 4:0.20466157 
12 1:0.012137941 2:0.049718084 3:0.12141823 4:0.22723837 
12 1:0.014715649 2:0.053697633 3:0.12941225 4:0.24185949 
12 1:0.017082821 2:0.05608321 3:0.13425399 4:0.25159517 
12 1:0.019118634 2:0.057336229 3:0.1371881 4:0.25867426 
12 1:0.020692897 2:0.05792378 3:0.14051125 4:0.2684553 
12 1:0.021745546 2:0.059088152 3:0.14825218 4:0.28923763 
12 1:0.0073011329 2:0.010893951 3:0.025406459 4:0.050838657 
12 1:0.0069728795 2:0.011346465 3:0.027325202 4:0.05490909 
12 1:0.0067160862 2:0.011990415 3:0.029546917 4:0.059385591 
12 1:0.006548793 2:0.012833125 3:0.032049145 4:0.064196853 
12 1:0.0064650531 2:0.013646395 3:0.034284489 4:0.068379337 
12 1:0.0064138277 2:0.014059997 3:0.035564322 4:0.070926801 
12 1:0.0063202728 2:0.014044495 3:0.036291149 4:0.073060237 
12 1:0.014593367 2:0.063808253 3:0.19457145 4:0.40688296 
12 1:0.014598283 2:0.060319105 3:0.18332346 4:0.38361136 
12 1:0.014331773 2:0.055783597 3:0.1699322 4:0.3567776 
12 1:0.013745061 2:0.050669834 3:0.15577614 4:0.32906398 
12 1:0.0048197389 2:0.012094695 3:0.027157722 4:0.050008819 
12 1:0.0051413824 2:0.014096663 3:0.032354224 4:0.059914063 
12 1:0.00555966 2:0.016594421 3:0.038720179 4:0.071936936 
12 1:0.0060998825 2:0.0196328 3:0.046349096 4:0.08624877 
12 1:0.0067891933 2:0.02319966 3:0.055089522 4:0.10245878 
12 1:0.0076388881 2:0.026985259 3:0.064042425 4:0.11881039 
12 1:0.0086483924 2:0.030769107 3:0.072602931 4:0.13414986 
12 1:0.0098069372 2:0.034348778 3:0.080235308 4:0.14746653 
12 1:0.011096364 2:0.037578034 3:0.086564594 4:0.15805605 
12 1:0.012480408 2:0.040194378 3:0.091018822 4:0.16495374 
12 1:0.013865881 2:0.041538061 3:0.092440655 4:0.16657366 
12 1:0.015139462 2:0.042239943 3:0.093943301 4:0.17024953 
12 1:0.016219935 2:0.043160261 3:0.098341222 4:0.18176282 
12 1:0.017062015 2:0.044483337 3:0.10582956 4:0.20110068 
12 1:0.017646851 2:0.046049912 3:0.11534266 4:0.22552508 
12 1:0.017993889 2:0.047794741 3:0.12581651 4:0.25205921 
12 1:0.01813677 2:0.050149471 3:0.13853982 4:0.28330781 
12 1:0.018112436 2:0.054098719 3:0.15712575 4:0.32719353 
12 1:0.017988944 2:0.059947048 3:0.1819022 4:0.38385439 
12 1:0.01784344 2:0.066446976 3:0.20766832 4:0.44150748 
12 1:0.017723214 2:0.071794194 3:0.2279845 4:0.48629414 
12 1:0.020668618 2:0.16771037 3:0.49190258 4:0.99324526 
12 1:0.027492373 2:0.18873783 3:0.53817591 4:1.0758066 
12 1:0.034965989 2:0.20409247 3:0.56611101 4:1.1210216 
12 1:0.04274712 2:0.21488854 3:0.58091773 4:1.1408347 
0.1179344959930339 1:0.00023358908 2:27220.009 3:108875.94 4:244967.81 
0.1179264763127839 1:0.000370618 2:113075.64 3:452286.71 4:1017633.2 
0.1176476564528272 1:0.00059251128 2:244753.65 3:978979.08 4:2202676.3 
0.1178135065707593 1:0.00092064642 2:411653.1 3:1646549.4 4:3704688.9 
0.1177708495022574 1:0.0013683384 2:600376.08 3:2401407.4 4:5403093.9 
