svm_type c_svc
kernel_type rbf
gamma 0.0625
nr_class 4
total_sv 6691
rho 15.5826 0.0624515 0.0183175 1.37824 0.505594 -4.9816
label 1 2 3 4
probA -2.2894 -3.82124 -3.47067 -3.78427 -3.5368 -2.01031
probB 0.279518 -0.370422 0.120316 -0.381477 -0.417545 -0.359261
nr_sv 1336 1459 2015 1881
SV
8 0 0 1:0.69746857 2:-0.2175339 3:0.076009083 4:0.12296768 
8 0 0 1:0.68317202 2:-0.21913562 3:0.052853339 4:0.10903585 
8 0 0 1:0.66925559 2:-0.2133093 3:0.035086728 4:0.092889514 
8 0 0 1:0.65586071 2:-0.20531498 3:0.026219324 4:0.071156919 
8 0 0 1:0.64313618 2:-0.19503996 3:0.023983645 4:0.063255737 
8 0 0 1:0.63083988 2:-0.18847603 3:0.02406047 4:0.063183632 
8 0 0 1:0.61893112 2:-0.18253594 3:0.022428878 4:0.063143074 
8 0 0 1:0.60743093 2:-0.17627335 3:0.017698289 4:0.05890814 
8 0 0 1:0.59633596 2:-0.17006231 3:0.01306555 4:0.051059582 
8 0 0 1:0.58564219 2:-0.16391271 3:0.011109089 4:0.044799622 
8 0 0 1:0.57535077 2:-0.1577455 3:0.010426564 4:0.043093085 
8 0 0 1:0.56595584 2:-0.14400417 3:0.0091660453 4:0.04528681 
8 0 0 1:0.68963046 2:-0.24847805 3:0.0074498109 4:0.11849077 
8 0 0 1:0.67055226 2:-0.29242816 3:0.0073932591 4:0.13730452 
8 0 0 1:0.64898889 2:-0.33052046 3:0.0073371366 4:0.14898736 
8 0 0 1:0.62505962 2:-0.36678478 3:0.007316962 4:0.13739227 
8 0 0 1:0.598511 2:-0.40693371 3:0.0071215539 4:0.098054204 
8 0 0 1:0.56918537 2:-0.44949952 3:0.006313219 4:0.050650486 
8 0 0 1:0.53712701 2:-0.49138633 3:0.0047113209 4:0.022650115 
8 -0 0 1:0.50226978 2:-0.53428696 3:0.0027928511 4:0.011478027 
8 0 0 1:1.137863 2:-0.3402244 3:0.24970828 4:0.2992586 
8 0 0 1:1.1132373 2:-0.3774605 3:0.24591427 4:0.30677728 
8 0 0 1:1.0867715 2:-0.40566334 3:0.2429784 4:0.31417109 
8 0 0 1:1.0588115 2:-0.42856842 3:0.24245132 4:0.32018635 
8 0 0 1:1.029225 2:-0.45349747 3:0.2451767 4:0.3237154 
8 0 0 1:0.99705174 2:-0.49314743 3:0.2509167 4:0.32647017 
8 0 0 1:0.96208185 2:-0.53601393 3:0.25802796 4:0.32987856 
8 0 0 1:1.0242434 2:-0.26928715 3:0.076525993 4:0.050083825 
8 0 0 1:1.0051719 2:-0.29232625 3:0.078677651 4:0.050001686 
8 0 0 1:0.98466377 2:-0.31434581 3:0.20198458 4:0.051437363 
8 0 0 1:0.96350789 2:-0.32427453 3:0.208387 4:0.05360834 
8 0 0 1:0.94256867 2:-0.32095359 3:0.21595649 4:0.055837033 
8 0 0 1:0.92221772 2:-0.3119367 3:0.22416881 4:0.057546029 
8 0 0 1:0.90240848 2:-0.30363353 3:0.22760625 4:0.055336279 
8 0 0 1:0.88299884 2:-0.29750827 3:0.22396633 4:0.048193228 
8 0 0 1:0.86402388 2:-0.29084582 3:0.24590675 4:0.041795728 
8 0 0 1:0.84553722 2:-0.2833611 3:0.31103269 4:0.041305903 
8 0 0 1:0.8274187 2:-0.27771828 3:0.37060822 4:0.048772339 
8 0 0 1:0.80948082 2:-0.27494942 3:0.40044205 4:0.05959807 
8 0 0 1:0.79240784 2:-0.26169236 3:0.39647429 4:0.062966179 
8 0 0 1:0.77660447 2:-0.24223207 3:0.37772037 4:0.056747578 
8 0 0 1:0.76255088 2:-0.21541156 3:0.38700269 4:0.04520445 
8 0 0 1:0.74999247 2:-0.19249366 3:0.40878984 4:0.034114007 
8 0 0 1:0.73915806 2:-0.16606835 3:0.40782114 4:0.027270325 
8 0 0 1:0.73049664 2:-0.13276124 3:0.37786298 4:0.024574811 
8 0 0 1:0.74418062 2:-0.22650103 3:0.21001351 4:0.13763569 
8 0 0 1:0.72628791 2:-0.27425699 3:0.23047899 4:0.11635728 
8 0 0 1:0.70521316 2:-0.3230311 3:0.2556678 4:0.096830242 
8 0 0 1:0.68075889 2:-0.37483187 3:0.27710135 4:0.088048818 
8 0 0 1:0.65303568 2:-0.42493764 3:0.29030331 4:0.089301201 
8 0 0 1:0.62164829 2:-0.4811019 3:0.29818325 4:0.089569735 
8 0 0 1:0.58677928 2:-0.5344675 3:0.30837301 4:0.083841786 
8 0 0 1:0.54876554 2:-0.58266972 3:0.32758949 4:0.072100874 
8 0 0 1:0.50752609 2:-0.63211282 3:0.35615002 4:0.055991259 
8 0 0 1:0.46290281 2:-0.68397976 3:0.39021515 4:0.040474942 
8 0 0 1:0.64509824 2:-0.24610688 3:0.090304648 4:0.61610981 
8 0 0 1:0.63368936 2:-0.25252614 3:0.096371853 4:0.63413796 
8 0 0 1:0.62229666 2:-0.25739514 3:0.10410325 4:0.66847727 
8 0 0 1:0.61110724 2:-0.25887194 3:0.11041785 4:0.70812758 
8 0 0 1:0.60045737 2:-0.25460908 3:0.11460554 4:0.74451201 
8 0 0 1:0.58992802 2:-0.25602847 3:0.11743541 4:0.76534736 
8 0 0 1:0.58071363 2:-0.23877544 3:0.12874503 4:0.77283114 
8 0 0 1:0.57268682 2:-0.22239309 3:0.15028508 4:0.79381515 
8 0 0 1:0.56565069 2:-0.20815504 3:0.17496682 4:0.832772 
8 0 0 1:0.5525883 2:-0.20021859 3:0.1989563 4:0.87985777 
8 0 0 1:0.5400835 2:-0.19167191 3:0.21750509 4:0.92331876 
8 0 0 1:0.5284571 2:-0.17820799 3:0.22755473 4:0.94373883 
8 0 0 1:0.51775966 2:-0.16396897 3:0.2280142 4:0.9302076 
8 0 0 1:0.50798879 2:-0.14976651 3:0.21915094 4:0.87087165 
8 0 0 1:1.08261 2:-0.3213632 3:0.052746784 4:0.24919923 
8 0 0 1:1.0594849 2:-0.35445731 3:0.052443166 4:0.25226109 
8 0 0 1:1.0344274 2:-0.38407859 3:0.046788284 4:0.24940704 
8 0 0 1:1.0076717 2:-0.41010735 3:0.037743843 4:0.24194791 
8 0 0 1:0.59789893 2:-0.17051995 3:0.073048883 4:0.12721828 
8 0 0 1:0.7587267 2:-0.21051283 3:0.14978908 4:0.023781427 
8 0 0 1:0.74278002 2:-0.24442859 3:0.16870322 4:0.030477614 
8 0 0 1:0.72445408 2:-0.28089753 3:0.18188209 4:0.036612567 
8 0 0 1:0.70377478 2:-0.3169697 3:0.18559156 4:0.04102227 
8 0 0 1:0.68136272 2:-0.34352908 3:0.18445977 4:0.043753642 
8 0 0 1:0.65716082 2:-0.37096359 3:0.1847902 4:0.044659906 
8 0 0 1:0.63098144 2:-0.40127401 3:0.18599048 4:0.043493732 
8 0 0 1:0.6027742 2:-0.43235699 3:0.18134184 4:0.040504673 
8 0 0 1:0.57318555 2:-0.45353087 3:0.16691715 4:0.037107404 
8 0 0 1:0.54158642 2:-0.48434735 3:0.15043396 4:0.035212102 
8 0 0 1:0.71715852 2:-0.227617 3:0.25415671 4:0.30255021 
8 0 0 1:0.70019605 2:-0.25999848 3:0.27773923 4:0.30743473 
8 0 0 1:0.68117275 2:-0.2915867 3:0.29005344 4:0.31301387 
8 0 0 1:0.66035733 2:-0.31905607 3:0.28651841 4:0.3224015 
8 0 0 1:0.63792091 2:-0.3439025 3:0.26947965 4:0.33590365 
8 0 0 1:0.61346169 2:-0.37490772 3:0.2408407 4:0.34968778 
8 0 0 1:0.58684089 2:-0.40804017 3:0.20548844 4:0.35763267 
8 0 0 1:0.97966149 2:-0.26761611 3:0.15993957 4:0.1457979 
8 0 0 1:1.0917045 2:-0.29108848 3:0.28200581 4:0.24158771 
8 0 0 1:1.0700108 2:-0.33251801 3:0.28422152 4:0.24516309 
8 0 0 1:1.0454442 2:-0.37655455 3:0.28168693 4:0.24877446 
8 0 0 1:1.0181796 2:-0.41790813 3:0.27302795 4:0.25710473 
8 0 0 1:0.98832805 2:-0.45756015 3:0.25997387 4:0.27253056 
8 0 0 1:0.95603308 2:-0.49501316 3:0.25099641 4:0.28651769 
8 0 0 1:0.74010013 2:-0.214993 3:0.1551117 4:0.068972486 
8 0 0 1:0.72506615 2:-0.23043893 3:0.20433105 4:0.014656429 
8 0 0 1:0.7091624 2:-0.24377055 3:0.24637338 4:0.0030695262 
8 0 0 1:0.69226753 2:-0.25896242 3:0.24112216 4:0.0016319889 
8 0 0 1:0.67488487 2:-0.26643902 3:0.19103547 4:0.002410232 
8 0 0 1:0.65684353 2:-0.27653539 3:0.12782362 4:0.0058743424 
8 0 0 1:0.63853456 2:-0.2806374 3:0.11012884 4:0.010174068 
8 0 0 1:0.91493243 2:-0.2447062 3:0.13715278 4:0.068760419 
8 0 0 1:0.89781675 2:-0.26234687 3:0.14542378 4:0.039250412 
8 0 0 1:0.87961847 2:-0.27894089 3:0.19154818 4:0.026361019 
8 0 0 1:0.86105298 2:-0.28456935 3:0.25146852 4:0.035808884 
8 0 0 1:0.84239341 2:-0.28601151 3:0.27197607 4:0.055296132 
8 0 0 1:0.82414192 2:-0.27975643 3:0.24911088 4:0.0712351 
8 0 0 1:0.80690273 2:-0.26424006 3:0.20566464 4:0.093799101 
8 0 0 1:0.79016027 2:-0.25662615 3:0.169204 4:0.12970575 
8 0 0 1:0.77411773 2:-0.245898 3:0.15305946 4:0.16085471 
8 0 0 1:0.75897114 2:-0.23216494 3:0.14627458 4:0.18150329 
8 0 0 1:0.53730421 2:-0.16690516 3:0.051115851 4:0.20071891 
8 0 0 1:0.52282723 2:-0.22190111 3:0.051010365 4:0.18503699 
8 0 0 1:0.50489445 2:-0.27487142 3:0.050267873 4:0.16180919 
8 0 0 1:0.48349145 2:-0.32806227 3:0.053199538 4:0.13947238 
8 0 0 1:0.45818424 2:-0.38790564 3:0.058846173 4:0.13070193 
8 0 0 1:0.42900436 2:-0.4472654 3:0.063069437 4:0.14208792 
8 8 0 1:0.39611979 2:-0.5040503 3:0.065949462 4:0.16628666 
8 8 0 1:0.35975998 2:-0.5573185 3:0.073548217 4:0.18025332 
8 8 0 1:0.32060116 2:-0.60022115 3:0.094042237 4:0.16880947 
8 8 0 1:0.27885814 2:-0.63983165 3:0.13087426 4:0.14163213 
8 8 0 1:0.23494664 2:-0.67306965 3:0.17807874 4:0.1249802 
8 0 0 1:0.82517239 2:-0.21297855 3:0.14843819 4:0.035651157 
8 0 0 1:0.81021766 2:-0.22922402 3:0.13127836 4:0.033155502 
8 0 0 1:0.79479475 2:-0.23640037 3:0.11560056 4:0.031786321 
8 0 0 1:0.77949541 2:-0.23450626 3:0.11371873 4:0.034445442 
8 0 0 1:0.76464201 2:-0.22767107 3:0.13982298 4:0.041568759 
8 0 0 1:0.75004863 2:-0.2236854 3:0.19107279 4:0.051336072 
8 0 0 1:0.73566339 2:-0.22049501 3:0.23169295 4:0.060644591 
8 0 0 1:0.72130651 2:-0.2200604 3:0.24328468 4:0.068161099 
8 0 0 1:0.70669441 2:-0.22397237 3:0.22888483 4:0.073804316 
8 0 0 1:0.6917704 2:-0.22875333 3:0.20237572 4:0.076098867 
8 0 0 1:0.67646088 2:-0.23466229 3:0.18179027 4:0.074706683 
8 0 0 1:0.66017101 2:-0.24968899 3:0.17298089 4:0.075516604 
8 0 0 1:0.64248584 2:-0.27107589 3:0.16733809 4:0.085840175 
8 0 0 1:0.62355289 2:-0.29020175 3:0.15717528 4:0.1097461 
8 0 0 1:0.60377188 2:-0.30320073 3:0.14518327 4:0.14055498 
8 0 0 1:0.5836912 2:-0.30779405 3:0.13692074 4:0.1617103 
8 0 0 1:0.56418414 2:-0.29900175 3:0.13235525 4:0.16222964 
8 0 0 1:0.5458272 2:-0.28137266 3:0.1304466 4:0.14358162 
8 0 0 1:0.52919674 2:-0.25490951 3:0.13173573 4:0.11711774 
8 0 0 1:0.51469236 2:-0.2223213 3:0.13823249 4:0.096650676 
8 0 0 1:0.50212566 2:-0.19262072 3:0.14364159 4:0.086119814 
8 0 0 1:0.49154612 2:-0.16216185 3:0.1403554 4:0.081984529 
8 0 0 1:0.48292654 2:-0.13211976 3:0.12976283 4:0.081683153 
8 0 0 1:0.47635267 2:-0.10076342 3:0.1262373 4:0.087597804 
8 0 0 1:0.5627351 2:-0.2139652 3:0.039497159 4:0.17066748 
8 0 0 1:0.54604014 2:-0.25589816 3:0.038563035 4:0.16368629 
8 0 0 1:0.52703445 2:-0.29131665 3:0.033819332 4:0.16756831 
8 0 0 1:0.5063401 2:-0.3172003 3:0.030387843 4:0.17625995 
8 0 0 1:0.48368456 2:-0.34726118 3:0.031103732 4:0.17331369 
8 0 0 1:0.4589274 2:-0.37947453 3:0.035318879 4:0.15801856 
8 0 0 1:0.43217984 2:-0.40998303 3:0.043976 4:0.1513056 
8 0 0 1:0.69143325 2:-0.18320608 3:0.04021841 4:0.037148677 
8 0 0 1:0.68367318 2:-0.18923303 3:0.02750447 4:0.033322707 
8 0 0 1:0.6693696 2:-0.21924343 3:0.02980467 4:0.040489011 
8 0 0 1:0.65335231 2:-0.24551089 3:0.026746928 4:0.040370882 
8 0 0 1:0.63588604 2:-0.26772081 3:0.020315682 4:0.036294144 
8 0 0 1:0.61702037 2:-0.28917049 3:0.016299779 4:0.035724088 
8 0 0 1:0.59655283 2:-0.31372376 3:0.01817018 4:0.039353133 
8 0 0 1:0.57505393 2:-0.32953226 3:0.029002156 4:0.042995467 
8 0 0 1:0.61498659 2:-0.16926633 3:0.061314286 4:0.086471075 
8 0 0 1:0.60459268 2:-0.15931653 3:0.057615561 4:0.071034224 
8 0 0 1:0.5673295 2:-0.11833836 3:0.19496685 4:0.029990515 
8 0 0 1:0.55992156 2:-0.1135479 3:0.20864438 4:0.03407644 
8 0 0 1:0.55298841 2:-0.10627043 3:0.21798332 4:0.033132065 
8 0 0 1:0.53479195 2:-0.13167272 3:0.095491116 4:0.026069085 
8 0 0 1:0.52423141 2:-0.16187056 3:0.092095873 4:0.015336794 
8 0 0 1:0.51167973 2:-0.19239056 3:0.090111743 4:0.0099908106 
8 0 0 1:0.49827885 2:-0.20540689 3:0.088089902 4:0.0080818632 
8 0 0 1:0.48428649 2:-0.21447311 3:0.087516565 4:0.0072784289 
8 0 0 1:0.46956592 2:-0.22563493 3:0.084884631 4:0.0064005705 
8 0 0 1:0.45415831 2:-0.23616588 3:0.074965802 4:0.0058011014 
8 0 0 1:0.43815126 2:-0.24535386 3:0.055866753 4:0.0060796491 
8 0 0 1:0.42206738 2:-0.2465316 3:0.038132827 4:0.007804206 
8 0 0 1:0.40664035 2:-0.23646359 3:0.033195335 4:0.010254499 
8 0 0 1:0.39242446 2:-0.2178993 3:0.034273269 4:0.011132822 
8 0 0 1:0.37940363 2:-0.1995815 3:0.034604703 4:0.009347595 
8 0 0 1:0.36728071 2:-0.18581857 3:0.038314307 4:0.0068522397 
8 0 0 1:0.35653626 2:-0.16468949 3:0.047728999 4:0.0056897087 
8 0 0 1:0.34777428 2:-0.13430246 3:0.056749573 4:0.0052145489 
8 0 0 1:0.34082177 2:-0.10656726 3:0.061113723 4:0.0041008482 
8 0 0 1:0.33525913 2:-0.085263394 3:0.061361705 4:0.0028687261 
8 0 0 1:0.33080025 2:-0.068345122 3:0.058650317 4:0.0024026272 
8 0 0 1:0.32749946 2:-0.050594026 3:0.055045136 4:0.0026902994 
8 0 0 1:0.32581073 2:-0.025884714 3:0.053614756 4:0.0047022971 
8 0 0 1:0.32588047 2:0.0010689995 3:0.057432 4:0.0092760527 
7.452963593582819 0 0 1:0.42311194 2:-0.015426778 3:0.23330529 4:0.0036121511 
8 0 0 1:0.42216818 2:-0.014465873 3:0.23849151 4:0.0039061269 
8 0 0 1:0.42647121 2:-0.035760299 3:0.24577453 4:0.0075912195 
8 0 0 1:0.4196457 2:-0.10462043 3:0.2612543 4:0.0072243043 
8 0 0 1:0.40933927 2:-0.1579756 3:0.27490689 4:0.0059660537 
8 0 0 1:0.39621268 2:-0.20120269 3:0.29066038 4:0.0040119351 
8 0 0 1:0.38168691 2:-0.22264913 3:0.3129468 4:0.0028091624 
8 0 0 1:0.36552585 2:-0.24771459 3:0.33605885 4:0.0036912052 
8 0 0 1:0.34738443 2:-0.27806924 3:0.35065453 4:0.0061929925 
8 0 0 1:0.32762816 2:-0.30282164 3:0.35679783 4:0.007759371 
8 0 0 1:0.30597545 2:-0.33188984 3:0.35990925 4:0.0066655483 
8 0 0 1:0.28245606 2:-0.36050219 3:0.36337881 4:0.0049338364 
8 0 0 1:0.6198834 2:-0.19207677 3:0.11176922 4:0.143815 
8 0 0 1:0.60666908 2:-0.20254736 3:0.1234779 4:0.14632163 
8 0 0 1:0.59274306 2:-0.21345628 3:0.13126344 4:0.15292532 
8 0 0 1:0.57812232 2:-0.22410466 3:0.13335437 4:0.15702269 
8 0 0 1:0.56282325 2:-0.23450215 3:0.13259277 4:0.15705345 
8 0 0 1:0.54731948 2:-0.23763986 3:0.13258005 4:0.15701482 
8 0 0 1:0.53179792 2:-0.23791233 3:0.14029852 4:0.15601807 
8 0 0 1:0.51628737 2:-0.2377438 3:0.1519084 4:0.15411719 
8 0 0 1:0.50080613 2:-0.23729442 3:0.1456373 4:0.1527124 
8 0 0 1:0.48530132 2:-0.23765562 3:0.11740788 4:0.15293005 
8 0 0 1:0.46978681 2:-0.23780435 3:0.083442368 4:0.15608128 
8 0 0 1:0.45429978 2:-0.23738314 3:0.060470843 4:0.16324827 
8 0 0 1:0.43835945 2:-0.2443313 3:0.050124323 4:0.17287122 
8 0 0 1:0.4219878 2:-0.25094248 3:0.047644544 4:0.18101634 
8 0 0 1:0.40521925 2:-0.25702616 3:0.044395693 4:0.18474614 
8 0 0 1:0.38811678 2:-0.26214444 3:0.037238223 4:0.19476995 
8 0 0 1:0.37052415 2:-0.26965749 3:0.03405175 4:0.22814384 
8 0 0 1:0.35241472 2:-0.27757905 3:0.037224645 4:0.27263737 
8 0 0 1:0.33406619 2:-0.28124376 3:0.048037749 4:0.29273002 
8 8 0 1:0.31631886 2:-0.27202876 3:0.062608277 4:0.27023084 
8 8 0 1:0.30005309 2:-0.24931964 3:0.068303924 4:0.21041336 
8 8 0 1:0.28606067 2:-0.21447392 3:0.071042539 4:0.14799015 
8 0.2775105175479083 0 1:0.27413552 2:-0.18278714 3:0.079154646 4:0.11674946 
8 0 0 1:0.26365914 2:-0.16058069 3:0.085166511 4:0.10684364 
8 8 0 1:0.25406825 2:-0.14700787 3:0.084288388 4:0.095866087 
8 8 0 1:0.2450165 2:-0.13874408 3:0.075308493 4:0.077045621 
8 8 0 1:0.23638177 2:-0.13235189 3:0.0620999 4:0.060813034 
8 8 0 1:0.22852211 2:-0.12047189 3:0.050993892 4:0.055569519 
8 8 0 1:0.22181708 2:-0.10277383 3:0.041125586 4:0.060922232 
8 8 0 1:0.21597753 2:-0.089507857 3:0.03232758 4:0.074733535 
8 8 0 1:0.21066714 2:-0.081396951 3:0.026569635 4:0.09011056 
8 8 0 1:0.20608109 2:-0.070294385 3:0.023105531 4:0.10158309 
8 8 0 1:0.20282015 2:-0.049983236 3:0.020298171 4:0.10994656 
8 8 2.128719424460432 1:0.20080179 2:-0.030937125 3:0.017977716 4:0.12085216 
8 8 0 1:0.19968536 2:-0.017112464 3:0.018000062 4:0.1334605 
8 8 0 1:0.19974829 2:0.00096455437 3:0.020955179 4:0.15009727 
8 8 0 1:0.20097376 2:0.018783849 3:0.024847686 4:0.17693452 
8 0 0 1:0.42595844 2:-0.024665864 3:0.41280684 4:0.10745815 
8 0 0 1:0.42175734 2:-0.064393908 3:0.4156917 4:0.10522193 
8 0 0 1:0.41453471 2:-0.11070752 3:0.41854338 4:0.10148027 
8 0 0 1:0.40457763 2:-0.15262079 3:0.41882236 4:0.096648299 
8 0 0 1:0.39185283 2:-0.19504408 3:0.41906866 4:0.092111743 
8 0 0 1:0.37643475 2:-0.23632633 3:0.41903153 4:0.089000785 
8 0 0 1:0.35807983 2:-0.28134191 3:0.40700963 4:0.087258314 
8 0 0 1:0.33694008 2:-0.32402731 3:0.38293655 4:0.086105523 
8 0 0 1:0.31285 2:-0.36924952 3:0.35220959 4:0.085508837 
8 0 0 1:0.28605366 2:-0.41073075 3:0.3215672 4:0.08892922 
8 0 0 1:0.78600072 2:-0.26164449 3:0.25979754 4:0.24053567 
8 0 0 1:0.76727437 2:-0.28703493 3:0.30401625 4:0.20843876 
8 0 0 1:0.74719516 2:-0.30777162 3:0.33796087 4:0.14793707 
8 0 0 1:0.72608573 2:-0.32356254 3:0.3634917 4:0.10375804 
8 0 0 1:0.70474757 2:-0.32706843 3:0.37737697 4:0.09814491 
8 0 0 1:0.68428629 2:-0.31362781 3:0.38977928 4:0.12641574 
8 0 0 1:0.66487669 2:-0.29750778 3:0.41184761 4:0.17517473 
8 0 0 1:0.6462909 2:-0.2848806 3:0.44618688 4:0.22394552 
8 0 0 1:0.62817829 2:-0.27762766 3:0.48155185 4:0.27515202 
8 0 0 1:0.61062655 2:-0.26903084 3:0.49552129 4:0.33191974 
8 0 0 1:0.59411336 2:-0.25311198 3:0.47153102 4:0.38206297 
8 0 0 1:0.5786464 2:-0.23707549 3:0.39341731 4:0.41875547 
8 0 0 1:0.564372 2:-0.21879619 3:0.26947714 4:0.43384413 
8 0 0 1:0.55114689 2:-0.20271281 3:0.16595083 4:0.43102732 
8 0 0 1:0.72312687 2:-0.19407526 3:0.38071182 4:0.11375056 
8 0 0 1:0.70742117 2:-0.24073486 3:0.40182658 4:0.11450257 
8 0 0 1:0.6885994 2:-0.28849757 3:0.39654217 4:0.11961005 
8 0 0 1:0.66621633 2:-0.34308479 3:0.37255423 4:0.12916628 
8 0 0 1:0.64032613 2:-0.39684154 3:0.34388573 4:0.14123421 
8 0 0 1:0.87514564 2:-0.21179504 3:0.21838224 4:0.013057431 
8 0 0 1:0.85942345 2:-0.24098762 3:0.22653728 4:0.013355358 
8 0 0 1:0.84194826 2:-0.26785744 3:0.23342235 4:0.012936622 
8 0 0 1:0.82312024 2:-0.28859349 3:0.22671152 4:0.011938919 
8 0 0 1:0.80318785 2:-0.30552112 3:0.19854679 4:0.011808288 
8 0 0 1:0.78224019 2:-0.32108286 3:0.16761107 4:0.014491457 
3.093073419005586 0 0 1:1.1372291 2:-0.268421 3:0.034954103 4:0.038601012 
8 0 0 1:1.118308 2:-0.29002076 3:0.030590952 4:0.038156952 
8 0 0 1:1.0982683 2:-0.30716605 3:0.032166877 4:0.039770002 
8 0 0 1:1.0784312 2:-0.30405994 3:0.037180771 4:0.045120597 
8 0 0 1:1.059288 2:-0.29342423 3:0.044148405 4:0.053243674 
8 0 0 1:1.0408484 2:-0.28264058 3:0.055987922 4:0.056130923 
8 0 0 1:1.0237706 2:-0.2617661 3:0.066391949 4:0.05480045 
8 0 0 1:0.82448882 2:-0.23710667 3:0.10225691 4:0.095618381 
8 0 0 1:0.808265 2:-0.24867658 3:0.10315597 4:0.095293634 
8 0 0 1:0.79205607 2:-0.24844843 3:0.10754984 4:0.097225479 
8 0 0 1:0.77567976 2:-0.25101389 3:0.11542125 4:0.10298847 
8 0 0 1:0.75921419 2:-0.25238211 3:0.12301957 4:0.11008631 
8 0 0 1:0.7425868 2:-0.25486245 3:0.12714985 4:0.11694668 
8 0 0 1:0.72556479 2:-0.26091111 3:0.12806823 4:0.12498532 
8 0 0 1:0.70800917 2:-0.2690903 3:0.12720567 4:0.1347851 
8 0 0 1:0.69002993 2:-0.27558344 3:0.12462196 4:0.14305353 
8 0 0 1:0.67156762 2:-0.28298786 3:0.11943055 4:0.14504433 
8 0 0 1:0.65270426 2:-0.28913516 3:0.112722 4:0.13956498 
8 0 0 1:0.63318018 2:-0.2992625 3:0.1077196 4:0.12914988 
8 0 0 1:0.61309626 2:-0.30784363 3:0.10646882 4:0.11919693 
8 0 0 1:0.59240485 2:-0.31715534 3:0.10853087 4:0.11294739 
8 0 0 1:0.57127046 2:-0.3239451 3:0.1116349 4:0.11121149 
8 0 0 1:0.5496365 2:-0.33160249 3:0.11371652 4:0.11163564 
8 0 0 1:0.52738743 2:-0.34103083 3:0.11528807 4:0.11104545 
8 0 0 1:0.50495249 2:-0.34387984 3:0.12177772 4:0.1123229 
8 0 0 1:0.48233369 2:-0.34669799 3:0.13173711 4:0.11543252 
8 0 0 1:0.4593383 2:-0.35247029 3:0.14181705 4:0.12071389 
8 0 0 1:0.43644015 2:-0.35097988 3:0.15015026 4:0.12855958 
8 0 0 1:0.41466454 2:-0.3337736 3:0.15643156 4:0.13692127 
8 0 0 1:0.3941922 2:-0.31379741 3:0.16207257 4:0.1449964 
8 0 0 1:0.37476752 2:-0.29773889 3:0.16713166 4:0.15186584 
8 0 0 1:0.35591284 2:-0.2890021 3:0.16846277 4:0.1556059 
8 0 0 1:0.33784353 2:-0.27696404 3:0.16718457 4:0.15676352 
8 0 0 1:0.32092877 2:-0.25926717 3:0.16639565 4:0.15502953 
8 0 0 1:0.3052727 2:-0.23997429 3:0.16650299 4:0.15273839 
8 0 0 1:0.29086017 2:-0.22091325 3:0.16900085 4:0.1536548 
8 0 0 1:0.27765557 2:-0.20239841 3:0.174284 4:0.15894351 
8 0 0 1:0.26561341 2:-0.18458066 3:0.18132135 4:0.16938062 
8 0 0 1:0.25511102 2:-0.16097931 3:0.18871734 4:0.17938495 
8 0 0 1:0.24629513 2:-0.1351288 3:0.19371049 4:0.18460513 
8 0 0 1:0.23913712 2:-0.10971699 3:0.19516253 4:0.18598535 
8 0 0 1:0.23335831 2:-0.088576843 3:0.19508857 4:0.18546136 
8 0 0 1:0.22888552 2:-0.06855832 3:0.19394355 4:0.18297354 
8 0 0 1:0.22592784 2:-0.045334912 3:0.19128563 4:0.17714635 
8 0 0 1:0.22439632 2:-0.023474949 3:0.188845 4:0.1685064 
8 0 0 1:0.22436136 2:-0.0005359734 3:0.19059824 4:0.16053079 
8 0 0 1:0.22567549 2:0.020142814 3:0.19693064 4:0.1563453 
8 0 0 1:0.22836426 2:0.041213173 3:0.20513727 4:0.15646079 
8 0 0 1:0.55014221 2:-0.04938839 3:0.26961779 4:1.0553752 
8 0 0 1:0.54715187 2:-0.045835526 3:0.26901471 4:1.0880375 
8 0 0 1:0.54450593 2:-0.040556568 3:0.26325245 4:1.1216937 
8 0 0 1:0.63196494 2:-0.18043289 3:0.12784008 4:0.035801222 
8 0 0 1:0.6186719 2:-0.20375396 3:0.12861784 4:0.038341517 
8 0 0 1:0.60462944 2:-0.21524092 3:0.12664228 4:0.044417034 
8 0 0 1:0.59030381 2:-0.21958146 3:0.1149157 4:0.043491336 
8 0 0 1:0.57624449 2:-0.21549933 3:0.10216054 4:0.031649654 
8 0 0 1:0.56172162 2:-0.22260471 3:0.10829784 4:0.01831734 
8 0 0 1:1.1325037 2:-0.27777401 3:0.32860794 4:0.22311276 
8 0 0 1:0.75885523 2:-0.20344289 3:0.13740218 4:0.040380703 
8 0 0 1:0.74554554 2:-0.20400914 3:0.16045827 4:0.040122688 
8 0 0 1:0.7322028 2:-0.20451579 3:0.17227322 4:0.039866333 
8 0 0 1:0.7185656 2:-0.20902917 3:0.17600642 4:0.039611629 
8 0 0 1:0.7048866 2:-0.20966997 3:0.17599909 4:0.03935945 
8 0 0 1:0.6914487 2:-0.20597442 3:0.17640458 4:0.039108008 
8 0 0 1:0.67801548 2:-0.20590259 3:0.17681369 4:0.038858184 
8 0 0 1:0.6646865 2:-0.20430489 3:0.17722375 4:0.038155297 
8 0 0 1:0.65133395 2:-0.20466614 3:0.17763205 4:0.036815587 
8 0 0 1:0.63798401 2:-0.20462606 3:0.17804401 4:0.038344317 
8 0 0 1:0.62458347 2:-0.20540181 3:0.17845692 4:0.048743713 
8 0 0 1:0.61098338 2:-0.20846035 3:0.17887079 4:0.07027665 
8 0 0 1:0.5967605 2:-0.2180065 3:0.17928562 4:0.094170449 
8 0 0 1:0.581871 2:-0.22822428 3:0.17927466 4:0.099724368 
8 0 0 1:0.56669974 2:-0.23254306 3:0.1805324 4:0.078655555 
8 0 0 1:0.5521524 2:-0.2229797 3:0.18223937 4:0.059085843 
8 0 0 1:0.53918541 2:-0.19875635 3:0.17802499 4:0.058819013 
8 0 0 1:0.52894663 2:-0.15693872 3:0.15750626 4:0.078634824 
8 0 0 1:0.52541955 2:-0.11417561 3:0.25174828 4:0.11056665 
8 0 0 1:0.51588312 2:-0.1461731 3:0.22786912 4:0.11125951 
8 0 0 1:0.50481129 2:-0.16970752 3:0.2068689 4:0.11176217 
8 0 0 1:0.49311302 2:-0.17930967 3:0.19909068 4:0.10962574 
8 0 0 1:0.48160455 2:-0.17640027 3:0.19959194 4:0.10514416 
8 0 0 1:0.47055302 2:-0.1693964 3:0.19832538 4:0.10424925 
8 0 0 1:0.46000643 2:-0.16165671 3:0.18972898 4:0.10936832 
8 0 0 1:0.44992485 2:-0.15452924 3:0.17926188 4:0.1183533 
8 0 0 1:0.44039287 2:-0.14610495 3:0.1663036 4:0.12217816 
8 0 0 1:0.43176784 2:-0.13220318 3:0.14725984 4:0.11429266 
8 0 0 1:0.42406406 2:-0.11808259 3:0.13377526 4:0.10397172 
8 0 0 1:0.41729748 2:-0.10371721 3:0.13252631 4:0.098380136 
8 0 0 1:0.41145407 2:-0.089566997 3:0.14302362 4:0.096534546 
8 0 0 1:0.40589498 2:-0.085209041 3:0.16096257 4:0.095160883 
8 0 0 1:0.40049704 2:-0.082738944 3:0.17794912 4:0.088307127 
8 0 0 1:0.39529998 2:-0.079659853 3:0.19602876 4:0.077244834 
8 0 0 1:0.39041493 2:-0.074877364 3:0.20082434 4:0.06346537 
8 0 0 1:0.38596589 2:-0.068194397 3:0.178058 4:0.04658114 
8 0 0 1:0.38202573 2:-0.060394266 3:0.12465913 4:0.029331566 
8 0 0 1:0.37863554 2:-0.051964338 3:0.06684551 4:0.017614273 
8 0 0 1:0.37578149 2:-0.043746429 3:0.036953281 4:0.012620104 
8 0 0 1:0.37363112 2:-0.032960725 3:0.028247447 4:0.01139636 
8 0 0 1:0.41371839 2:-0.035008653 3:0.1757995 4:0.025905832 
8 0 0 1:0.41026837 2:-0.052881358 3:0.17570587 4:0.025809954 
8 0 0 1:0.40529542 2:-0.07622484 3:0.15619015 4:0.026436826 
8 0 0 1:0.39752523 2:-0.1191004 3:0.11843268 4:0.028404588 
8 0 0 1:0.38742231 2:-0.15485625 3:0.079195705 4:0.03178227 
8 0 0 1:0.3754881 2:-0.18292599 3:0.05461744 4:0.036029979 
8 0 0 1:0.86445697 2:-0.31653383 3:0.017440031 4:0.45149777 
8 0 0 1:0.84197114 2:-0.34465984 3:0.0103909 4:0.46679455 
8 0 0 1:0.81795731 2:-0.36808088 3:0.005420605 4:0.56794523 
8 0 0 1:0.79239378 2:-0.39183444 3:0.0046298248 4:0.62207434 
8 0 0 1:0.76672788 2:-0.39340358 3:0.0053110986 4:0.63082029 
8 0 0 1:0.7419987 2:-0.37904553 3:0.0062093916 4:0.64339064 
8 0 0 1:0.71940978 2:-0.34624006 3:0.0075477639 4:0.66083999 
8 0 0 1:0.69789945 2:-0.32970743 3:0.0089783263 4:0.67711751 
8 0 0 1:0.67713179 2:-0.318324 3:0.0098677168 4:0.68940911 
8 0 0 1:0.6561777 2:-0.32118156 3:0.010082247 4:0.6772283 
8 0 0 1:0.63583204 2:-0.31185562 3:0.0098642931 4:0.66011961 
8 0 0 1:0.61620549 2:-0.30083312 3:0.0090658744 4:0.66381458 
8 0 0 1:0.59735579 2:-0.28892586 3:0.0073726298 4:0.66341278 
8 0 0 1:0.57993622 2:-0.26700488 3:0.0052291589 4:0.63428111 
8 0 0 1:0.56426972 2:-0.24013406 3:0.0035795925 4:0.55451486 
8 0 0 1:0.55037333 2:-0.21300197 3:0.0028069579 4:0.41243838 
8 0 0 1:0.53808712 2:-0.18832149 3:0.0026576726 4:0.27685053 
8 0 0 1:0.52687683 2:-0.17182975 3:0.0017923618 4:0.21680356 
8 0 0 1:0.58712456 2:-0.20071913 3:0.01065732 4:0.17998548 
8 0 0 1:0.57209239 2:-0.23041112 3:0.0044370032 4:0.18530872 
8 0 0 1:0.55557032 2:-0.25324809 3:0.0025126453 4:0.20714024 
8 0 0 1:0.53730813 2:-0.27992048 3:0.0019450639 4:0.2305657 
8 0 0 1:0.51790845 2:-0.29735577 3:0.0016795627 4:0.23903942 
8 0 0 1:0.49857527 2:-0.29633651 3:0.0015255291 4:0.23950455 
8 0 0 1:0.48035472 2:-0.27928217 3:0.0013643869 4:0.23989469 
8 0 0 1:0.4626515 2:-0.27135259 3:0.0012471681 4:0.2404102 
8 0 0 1:0.44492629 2:-0.27168968 3:0.0012847937 4:0.23673501 
8 0 0 1:0.42732743 2:-0.26975304 3:0.0015892389 4:0.22506579 
8 0 0 1:0.41112332 2:-0.24837456 3:0.002278588 4:0.20319069 
8 0 0 1:0.39643526 2:-0.22513665 3:0.0030008296 4:0.18608846 
8 0 0 1:0.38346945 2:-0.19873813 3:0.0035091712 4:0.19362382 
8 0 0 1:0.37193593 2:-0.17678427 3:0.0027265505 4:0.22556875 
8 0 0 1:0.36183654 2:-0.15480224 3:0.0015160106 4:0.26719047 
8 0 0 1:0.35324954 2:-0.13162034 3:0.00068923176 4:0.31406098 
8 0 0 1:0.34596081 2:-0.11172067 3:0.00029586113 4:0.35866241 
8 0 0 1:0.38453557 2:-0.078303467 3:0.00093383114 4:0.80703572 
8 0 0 1:0.37948313 2:-0.07744318 3:0.00069781612 4:0.82293101 
8 0 0 1:0.37444319 2:-0.077251428 3:0.0004414555 4:0.78455621 
8 0 0 1:0.33897888 2:-0.059454602 3:1.3968648e-005 4:0.1625341 
8 0 0 1:0.3347656 2:-0.064580676 3:1.2664515e-005 4:0.15900859 
8 0 0 1:0.33065023 2:-0.06307974 3:9.8954905e-006 4:0.16152787 
8 0 0 1:0.32670932 2:-0.060405878 3:7.5027269e-006 4:0.16865211 
8 0 0 1:0.32337579 2:-0.051095814 3:6.3317776e-006 4:0.17599467 
8 0 0 1:0.47268784 2:-0.10950895 3:0.01091436 4:0.084887038 
8 0 0 1:0.46505574 2:-0.11698382 3:0.011999675 4:0.090516676 
8 0 0 1:0.45716352 2:-0.12097081 3:0.01484853 4:0.089771933 
8 0 0 1:0.45003422 2:-0.10927699 3:0.019194541 4:0.084269894 
8 0 0 1:0.4430066 2:-0.10771842 3:0.022340476 4:0.075712824 
8 0 0 1:0.43567812 2:-0.11233007 3:0.025018338 4:0.077440466 
8 0 0 1:0.42827936 2:-0.11340715 3:0.029003551 4:0.098636789 
8 0 0 1:0.42037201 2:-0.12120284 3:0.036700787 4:0.12335117 
8 0 0 1:0.41156665 2:-0.13496748 3:0.050963375 4:0.14088105 
8 0 0 1:1.0405821 2:-0.26084719 3:0.15806436 4:0.06810711 
8 0 0 1:1.0194507 2:-0.32389986 3:0.17244464 4:0.066266821 
8 0 0 1:0.99414243 2:-0.38792128 3:0.18186125 4:0.059693731 
8 0 0 1:0.9650003 2:-0.44668682 3:0.1885113 4:0.051800427 
8 0 0 1:0.93188173 2:-0.50763702 3:0.19646368 4:0.046953501 
8 0 0 1:0.89460522 2:-0.57136951 3:0.21364597 4:0.04459149 
8 0 0 1:0.85361683 2:-0.62826465 3:0.25106541 4:0.043581598 
8 0 0 1:0.80919015 2:-0.68096628 3:0.29552653 4:0.042796328 
8 0 0 1:0.76271398 2:-0.71238068 3:0.31939215 4:0.041634791 
8 0 0 1:0.71506227 2:-0.73039914 3:0.31173449 4:0.042241277 
8 0 0 1:0.69681314 2:-0.25737423 3:0.14077726 4:0.39883887 
8 0 0 1:0.67783068 2:-0.29096062 3:0.15031472 4:0.40656328 
8 0 0 1:0.65682353 2:-0.32199487 3:0.16578302 4:0.42938458 
8 0 0 1:0.63336776 2:-0.35952701 3:0.17779298 4:0.4608536 
8 0 0 1:0.60770766 2:-0.39331455 3:0.18173167 4:0.49510461 
8 0 0 1:0.58035636 2:-0.41923717 3:0.18594493 4:0.52783337 
8 0 0 1:0.55173357 2:-0.43872634 3:0.20347947 4:0.54805927 
8 0 0 1:0.52187244 2:-0.45770745 3:0.23265113 4:0.54486754 
8 0 0 1:0.49048582 2:-0.48109002 3:0.2579315 4:0.5253164 
8 0 0 1:0.45770955 2:-0.50239047 3:0.27121456 4:0.50266813 
8 0 0 1:0.42363559 2:-0.52228118 3:0.27540612 4:0.49107175 
8 0 0 1:0.65740241 2:-0.18947286 3:0.22817546 4:0.15893608 
8 0 0 1:0.64440166 2:-0.19927372 3:0.24089123 4:0.16817256 
8 0 0 1:0.63155261 2:-0.1969486 3:0.27823491 4:0.17883166 
8 0 0 1:0.61891141 2:-0.19376268 3:0.31946016 4:0.191988 
8 0 0 1:0.60631889 2:-0.19301654 3:0.35241279 4:0.20466355 
8 0 0 1:0.59407622 2:-0.18765395 3:0.3712835 4:0.21363719 
8 0 0 1:0.58266748 2:-0.17487167 3:0.38029389 4:0.21900735 
8 0 0 1:0.57266352 2:-0.15333941 3:0.38716254 4:0.22920879 
8 0 0 1:1.0748636 2:-0.25953877 3:0.06384539 4:0.022841139 
8 0 0 1:0.75980075 2:-0.21420455 3:0.13102047 4:0.027737143 
8 0 0 1:0.74435713 2:-0.23671786 3:0.13324458 4:0.034104089 
8 0 0 1:0.72784411 2:-0.25310941 3:0.1380131 4:0.04594335 
8 0 0 1:0.71037924 2:-0.26769921 3:0.1466318 4:0.063280027 
8 0 0 1:0.69225147 2:-0.27786004 3:0.15885921 4:0.083690765 
8 0 0 1:0.67374221 2:-0.2837075 3:0.16889207 4:0.10306273 
8 0 0 1:0.65481871 2:-0.29005693 3:0.17159802 4:0.1195993 
8 0 0 1:0.63528905 2:-0.29934814 3:0.16520942 4:0.13245736 
8 0 0 1:0.61599104 2:-0.29579732 3:0.049176231 4:0.14125681 
8 0 0 1:0.59771287 2:-0.28016534 3:0.042890305 4:0.14728979 
8 0 0 1:1.3892581 2:-0.31960083 3:0.083085682 4:0.23381042 
8 0 0 1:1.3654425 2:-0.36504209 3:0.081134223 4:0.22774619 
8 0 0 1:1.3386051 2:-0.41136041 3:0.076851123 4:0.21914306 
8 0 0 1:0.96338442 2:-0.29189979 3:0.0060853585 4:0.16040248 
8 0 0 1:0.94451259 2:-0.28926489 3:0.0058320922 4:0.14592342 
8 0 0 1:0.80425881 2:-0.2535188 3:0.17635754 4:0.21825061 
8 0 0 1:0.78742708 2:-0.25799446 3:0.16754192 4:0.18726135 
8 0 0 1:0.77047146 2:-0.25989359 3:0.16070656 4:0.17090859 
8 0 0 1:0.7541486 2:-0.25019461 3:0.16547384 4:0.16575904 
8 0 0 1:0.73881568 2:-0.23502099 3:0.18234941 4:0.16624266 
8 0 0 1:0.72452347 2:-0.21906908 3:0.2025386 4:0.17390641 
8 0 0 1:0.78332871 2:-0.28568012 3:0.046810646 4:0.34267439 
8 0 0 1:0.76605179 2:-0.26481831 3:0.04928858 4:0.30563298 
8 0 0 1:0.72382642 2:-0.2496109 3:0.23561779 4:0.85710049 
8 0 0 1:0.70622843 2:-0.26973968 3:0.24910853 4:0.89153342 
8 0 0 1:0.68765258 2:-0.28472828 3:0.25497691 4:0.91291715 
8 0 0 1:0.668587 2:-0.29223465 3:0.2545505 4:0.92777518 
8 0 0 1:0.64918488 2:-0.29739322 3:0.24996994 4:0.94222535 
8 0 0 1:0.62982339 2:-0.29677036 3:0.24627685 4:0.95537796 
8 0 0 1:0.61108686 2:-0.28719107 3:0.24573037 4:0.96606959 
8 0 0 1:0.59349751 2:-0.26960725 3:0.24768208 4:0.0061592933 
8 0 0 1:0.57771936 2:-0.24184536 3:0.24672236 4:0.0064373331 
8 0 0 1:0.56427739 2:-0.2060368 3:0.23499675 4:0.0066309374 
8 0 0 1:0.55264595 2:-0.17828524 3:0.21286196 4:0.0066456272 
8 0 0 1:0.54268342 2:-0.15270435 3:0.19247009 4:0.0064101896 
8 0 0 1:0.53436196 2:-0.1275502 3:0.1852429 4:0.0060391934 
8 0 0 1:0.52755339 2:-0.10436086 3:0.1948193 4:0.0057730897 
8 0 0 1:0.52196696 2:-0.085628021 3:0.2137235 4:0.0055647248 
8 0 0 1:0.50872867 2:-0.10465746 3:0.22917049 4:0.12731938 
8 0 0 1:0.50178725 2:-0.10639725 3:0.23247996 4:0.10627084 
8 0 0 1:0.49463589 2:-0.10961512 3:0.23494824 4:0.063256787 
8 0 0 1:0.48775576 2:-0.10545774 3:0.23371715 4:0.030342263 
8 0 0 1:0.48143754 2:-0.096844732 3:0.22575252 4:0.015452697 
8 0 0 1:0.47550106 2:-0.090993609 3:0.21007059 4:0.010729009 
8 0 0 1:0.4700562 2:-0.083458209 3:0.19127047 4:0.010270783 
8 0 0 1:0.46510215 2:-0.075935028 3:0.17637301 4:0.0097541238 
8 0 0 1:0.46073572 2:-0.066927955 3:0.17594852 4:0.009155841 
8 0 0 1:0.45726448 2:-0.053206691 3:0.19561246 4:0.010471446 
8 0 0 1:0.44638927 2:-0.063406244 3:0.2015064 4:0.025750973 
8 0 0 1:0.43968801 2:-0.10271607 3:0.1839088 4:0.024201934 
8 0 0 1:0.43039063 2:-0.14250903 3:0.17952811 4:0.017909066 
8 0 0 1:0.41808751 2:-0.18858057 3:0.18285601 4:0.010031058 
8 0 0 1:0.40358241 2:-0.22233233 3:0.19068899 4:0.0049940254 
8 0 0 1:0.38745954 2:-0.24712929 3:0.20302939 4:0.0036991639 
8 0 0 1:0.37077666 2:-0.255713 3:0.2157679 4:0.003986768 
8 0 0 1:0.35318619 2:-0.2696244 3:0.22191743 4:0.0039856953 
8 0 0 1:0.33406652 2:-0.29306374 3:0.21196298 4:0.0025296256 
8 0 0 1:0.31313086 2:-0.32089905 3:0.18061377 4:0.0010897887 
8 0 0 1:0.92415938 2:-0.23354231 3:0.35782305 4:0.17091425 
8 0 0 1:0.9087242 2:-0.23658845 3:0.37480059 4:0.17375065 
8 0 0 1:0.89285697 2:-0.24321086 3:0.37421521 4:0.17448321 
8 0 0 1:0.87665859 2:-0.24828651 3:0.3673629 4:0.17400654 
8 0 0 1:0.86009751 2:-0.25384619 3:0.36246594 4:0.17265163 
8 0 0 1:0.84318862 2:-0.25917725 3:0.35895505 4:0.17293286 
8 0 0 1:0.82594624 2:-0.26428882 3:0.34980694 4:0.17421872 
8 0 0 1:0.80833289 2:-0.26997521 3:0.32697726 4:0.17551767 
8 0 0 1:0.79049717 2:-0.27338356 3:0.2839721 4:0.1764054 
8 0 0 1:0.77240878 2:-0.27725644 3:0.22644312 4:0.17749486 
8 0 0 1:0.75451526 2:-0.27426947 3:0.17308964 4:0.18135335 
8 0 0 1:0.73757099 2:-0.25971961 3:0.14027931 4:0.19182518 
8 0 0 1:0.7218639 2:-0.24075616 3:0.13051586 4:0.21063433 
8 0 0 1:0.70702149 2:-0.22750261 3:0.13942133 4:0.23480779 
8 0 0 1:0.69239157 2:-0.22424538 3:0.15422148 4:0.25833609 
7.099756372984651 0 0 1:0.55905588 2:-0.12138416 3:0.17151843 4:0.90942163 
8 0 0 1:0.55133502 2:-0.1183443 3:0.22619255 4:0.93518351 
8 0 0 1:0.54370045 2:-0.11702166 3:0.28524709 4:0.96364105 
8 0 0 1:0.53640874 2:-0.11176636 3:0.32255549 4:0.99438807 
8 0 0 1:0.52989749 2:-0.099803562 3:0.32310217 4:1.026695 
8 0 0 1:0.52429546 2:-0.085867183 3:0.29661283 4:1.0606656 
8 0 0 1:0.51954312 2:-0.072843326 3:0.2650084 4:1.097097 
8 0 0 1:0.8986659 2:-0.2591855 3:0.46927358 4:0.31553799 
8 0 0 1:0.88118983 2:-0.26787094 3:0.49724416 4:0.22187929 
8 0 0 1:0.86342699 2:-0.27226649 3:0.4879626 4:0.12886761 
8 0 0 1:0.84555731 2:-0.27390406 3:0.43343411 4:0.083373494 
8 0 0 1:0.8285666 2:-0.26043144 3:0.37248043 4:0.063932919 
8 0 0 1:0.81339251 2:-0.23258642 3:0.34991691 4:0.051064964 
8 0 0 1:0.80001492 2:-0.20504994 3:0.36431491 4:0.04409708 
8 0 0 1:0.78828662 2:-0.17976994 3:0.39687046 4:0.040949663 
8 0 0 1:0.77821602 2:-0.15436078 3:0.42561429 4:0.038981487 
8 0 0 1:1.4452199 2:-0.1232103 3:0.28743913 4:1.0929641 
8 0 0 1:1.3865374 2:-0.14585219 3:0.2210376 4:1.0706259 
2.202821733075747 0 0 1:1.2974823 2:-0.13719396 3:0.30299141 4:1.0910794 
8 0 0 1:1.1458531 2:-0.2619832 3:0.21286941 4:0.062923071 
8 0 0 1:1.1251799 2:-0.31687652 3:0.21996398 4:0.063955506 
8 0 0 1:1.1008726 2:-0.37257879 3:0.21957232 4:0.064310904 
8 0 0 1:1.0733414 2:-0.42199483 3:0.21519789 4:0.062642268 
8 0 0 1:1.0431186 2:-0.46325109 3:0.20395922 4:0.061082467 
8 0 0 1:0.67765254 2:-0.25446509 3:0.025622412 4:0.28321289 
8 0 0 1:0.66021354 2:-0.26730267 3:0.025739213 4:0.27574948 
8 0 0 1:0.64220512 2:-0.27603069 3:0.026858525 4:0.25507886 
8 0 0 1:1.1186519 2:-0.29336132 3:0.15528725 4:0.13551748 
8 0 0 1:1.0979067 2:-0.31797955 3:0.068759411 4:0.14180415 
8 0 0 1:1.0756796 2:-0.34069438 3:0.038321332 4:0.15425624 
8 0 0 1:1.0525171 2:-0.35503212 3:0.046644398 4:0.16532599 
8 0 0 1:1.028952 2:-0.36120213 3:0.042117125 4:0.16747591 
8 0 0 1:1.005316 2:-0.36228971 3:0.026516675 4:0.16135966 
8 0 0 1:0.98189075 2:-0.3590597 3:0.016130094 4:0.1558977 
8 0 0 1:0.95918052 2:-0.3480994 3:0.01877403 4:0.15529557 
8 0 0 1:0.93792523 2:-0.32579832 3:0.048379831 4:0.15487219 
8 0 0 1:0.91842177 2:-0.29894641 3:0.10744643 4:0.15115405 
8 0 0 1:0.90036815 2:-0.27672346 3:0.14828001 4:0.1468012 
8 0 0 1:0.88293331 2:-0.26723906 3:0.16568392 4:0.14217686 
8 0 0 1:0.86575534 2:-0.26330166 3:0.17209695 4:0.13577741 
8 0 0 1:0.84905556 2:-0.25597207 3:0.17800719 4:0.12692487 
8 0 0 1:0.83281486 2:-0.2489353 3:0.18779993 4:0.11832023 
8 0 0 1:0.81695944 2:-0.24302974 3:0.20681933 4:0.11273573 
8 0 0 1:0.80167516 2:-0.23427542 3:0.23426211 4:0.11055137 
8 0 0 1:0.78804626 2:-0.20890198 3:0.2498906 4:0.10559151 
8 0 0 1:0.74359971 2:-0.24509217 3:0.21106811 4:0.13341082 
8 0 0 1:0.72493878 2:-0.28603228 3:0.24789215 4:0.1393022 
8 0 0 1:0.7036576 2:-0.32619521 3:0.27668396 4:0.14314575 
8 0 0 1:0.67967912 2:-0.36753893 3:0.29323142 4:0.14345293 
8 0 0 1:0.65297958 2:-0.40924712 3:0.301593 4:0.14061411 
8 0 0 1:0.62347402 2:-0.45225735 3:0.30723336 4:0.13681227 
8 0 0 1:0.59078288 2:-0.50108549 3:0.3153034 4:0.13445648 
8 0 0 1:0.55578874 2:-0.53638554 3:0.32926483 4:0.13538603 
8 0 0 1:1.2654801 2:-0.29513898 3:0.34619325 4:0.04425841 
8 0 0 1:1.242682 2:-0.34944673 3:0.31425832 4:0.037556359 
8 0 0 1:1.2175467 2:-0.38527072 3:0.27783336 4:0.031938537 
8 0 0 1:0.77568663 2:-0.2692178 3:0.13213018 4:0.35799885 
8 0 0 1:0.75781465 2:-0.27393938 3:0.12227218 4:0.36576714 
8 0 0 1:0.74049539 2:-0.26546734 3:0.11796962 4:0.36411866 
8 0 0 1:0.72332424 2:-0.26319703 3:0.11881005 4:0.3685551 
8 0 0 1:0.70551341 2:-0.27300219 3:0.11904976 4:0.38527358 
8 0 0 1:0.68635022 2:-0.29373077 3:0.11869895 4:0.40920894 
8 0 0 1:0.66696103 2:-0.29719501 3:0.11935355 4:0.43209016 
8 0 0 1:0.64833807 2:-0.28545032 3:0.12156392 4:0.4473954 
8 0 0 1:0.63046677 2:-0.2739289 3:0.12538675 4:0.45841857 
8 0 0 1:0.61319293 2:-0.26477109 3:0.13003168 4:0.47028396 
8 0 0 1:0.59652074 2:-0.25554928 3:0.13307179 4:0.48324341 
8 0 0 1:0.58162639 2:-0.22829856 3:0.13297791 4:0.49632639 
8 0 0 1:0.75442308 2:-0.27514329 3:0.069114091 4:0.42266263 
8 0 0 1:0.73565134 2:-0.28773071 3:0.082910531 4:0.45951235 
8 0 0 1:0.71621109 2:-0.29797766 3:0.090598367 4:0.48055349 
8 0 0 1:0.69635438 2:-0.30436101 3:0.10005894 4:0.49495374 
8 0 0 1:0.67624355 2:-0.30825625 3:0.11490806 4:0.50296925 
8 0 0 1:0.65565824 2:-0.31552895 3:0.13072721 4:0.51020564 
8 0 0 1:0.63452533 2:-0.32392248 3:0.13994905 4:0.5306374 
8 0 0 1:0.61286751 2:-0.33196818 3:0.13726539 4:0.54935396 
8 0 0 1:0.59068773 2:-0.33996873 3:0.13070656 4:0.55639397 
8 0 0 1:0.56860512 2:-0.33847936 3:0.12912085 4:0.5483002 
8 0 0 1:0.54772776 2:-0.32000538 3:0.13100985 4:0.52331558 
8 0 0 1:0.52832302 2:-0.29743341 3:0.13239311 4:0.49715311 
8 0 0 1:0.51016611 2:-0.27830676 3:0.13052761 4:0.47993825 
8 0 0 1:0.49256281 2:-0.26982095 3:0.12751187 4:0.47303234 
8 0 0 1:0.47549828 2:-0.26156294 3:0.12484464 4:0.47544582 
8 0 0 1:0.45952169 2:-0.24488713 3:0.11513794 4:0.48235856 
8 0 0 1:0.44475913 2:-0.22627853 3:0.097075986 4:0.48822966 
8 0 0 1:0.43133811 2:-0.20571568 3:0.077787953 4:0.49208191 
8 0 0 1:0.41946354 2:-0.18201183 3:0.065511311 4:0.49389471 
8 0 0 1:0.40908684 2:-0.15905267 3:0.063060737 4:0.49019212 
8 0 0 1:0.40032173 2:-0.13435039 3:0.064019682 4:0.48334901 
8 0 0 1:0.89812384 2:-0.25612097 3:0.27872874 4:0.17703975 
8 0 0 1:0.88024687 2:-0.27401583 3:0.28865328 4:0.20642558 
8 0 0 1:0.8612478 2:-0.2912153 3:0.30394512 4:0.23871515 
8 0 0 1:0.84135532 2:-0.30490938 3:0.31458764 4:0.27313212 
8 0 0 1:0.8208168 2:-0.31481163 3:0.31646566 4:0.31214601 
8 0 0 1:0.79963611 2:-0.32465494 3:0.3183036 4:0.34386271 
8 0 0 1:0.7778185 2:-0.33441734 3:0.32740615 4:0.36416452 
8 0 0 1:0.7558205 2:-0.33718251 3:0.34241409 4:0.37322443 
8 0 0 1:0.73426188 2:-0.33044765 3:0.35117822 4:0.37058354 
8 0 0 1:0.71318848 2:-0.32301043 3:0.33825071 4:0.36563029 
8 0 0 1:0.69238742 2:-0.31883594 3:0.3020219 4:0.36025816 
8 0 0 1:0.67196633 2:-0.31301168 3:0.25355692 4:0.34828409 
8 0 0 1:0.65198645 2:-0.30624898 3:0.19794683 4:0.32962498 
8 0 0 1:0.63282993 2:-0.2936287 3:0.1461762 4:0.30787089 
8 0 0 1:0.6152079 2:-0.2701081 3:0.11354612 4:0.2870513 
8 0 0 1:0.59972703 2:-0.23728882 3:0.10105119 4:0.27261648 
8 0 0 1:0.58600527 2:-0.21032525 3:0.10156871 4:0.26752598 
8 0 0 1:0.57303049 2:-0.19887582 3:0.10138572 4:0.27148391 
8 0 0 1:0.56023801 2:-0.19608139 3:0.095846207 4:0.28179516 
8 0 0 1:0.54817115 2:-0.18495927 3:0.090548422 4:0.29348367 
8 0 0 1:0.56812921 2:-0.16700038 3:0.13876828 4:0.094185084 
8 0 0 1:0.55562173 2:-0.19171313 3:0.15752622 4:0.088530138 
8 0 0 1:0.54133117 2:-0.21904373 3:0.18408772 4:0.084948401 
8 0 0 1:0.52546037 2:-0.24326568 3:0.20506816 4:0.089101756 
8 0 0 1:0.50809919 2:-0.26610987 3:0.2126185 4:0.11258045 
8 0 0 1:0.48976709 2:-0.28099202 3:0.21105623 4:0.14840647 
8 0 0 1:0.47182187 2:-0.27506189 3:0.21336272 4:0.16820508 
8 0 0 1:0.4550232 2:-0.2574879 3:0.22705341 4:0.16155795 
8 0 0 1:0.43931054 2:-0.24084147 3:0.25194846 4:0.14104761 
8 0 0 1:0.42390661 2:-0.23610951 3:0.27896623 4:0.12947761 
8 0 0 1:0.40872768 2:-0.23266057 3:0.29790989 4:0.13889176 
8 0 0 1:0.39436258 2:-0.2201864 3:0.30678809 4:0.15341987 
8 0 0 1:0.38130123 2:-0.20020272 3:0.30907324 4:0.1603347 
8 0 0 1:0.36961364 2:-0.17914575 3:0.30926203 4:0.15751041 
8 0 0 1:0.35908635 2:-0.16136093 3:0.31115076 4:0.15066421 
8 0 0 1:0.34995569 2:-0.13995365 3:0.31148444 4:0.14898976 
8 0 0 1:0.3429146 2:-0.1079249 3:0.30411624 4:0.15661189 
8 0 0 1:0.33860431 2:-0.066067471 3:0.28367739 4:0.16936715 
8 0 0 1:0.33688984 2:-0.026279241 3:0.24560651 4:0.17928106 
8 0 0 1:0.82349272 2:-0.21429376 3:0.17470698 4:0.065018176 
8 0 0 1:0.80901453 2:-0.22191978 3:0.17467823 4:0.050295904 
8 0 0 1:0.79465124 2:-0.22015868 3:0.17080964 4:0.040840092 
8 0 0 1:0.78037981 2:-0.21875052 3:0.16269929 4:0.037805626 
8 0 0 1:0.76589903 2:-0.22195946 3:0.14952729 4:0.038675608 
8 0 0 1:0.75058576 2:-0.23471982 3:0.12950685 4:0.03732611 
8 0 0 1:0.73446034 2:-0.24716832 3:0.10337891 4:0.029866505 
8 0 0 1:0.71814449 2:-0.25008727 3:0.076269466 4:0.019522433 
8 0 0 1:0.70159201 2:-0.25371413 3:0.055776978 4:0.011746175 
8 0 0 1:0.68438355 2:-0.26376902 3:0.047491283 4:0.0083678769 
8 0 0 1:0.66614784 2:-0.2795146 3:0.046070157 4:0.0079239882 
8 0 0 1:0.64694585 2:-0.29432563 3:0.044780697 4:0.0090664049 
8 0 0 1:0.62741837 2:-0.29931465 3:0.041499142 4:0.010499019 
8 0 0 1:0.60867803 2:-0.28724951 3:0.037904518 4:0.010549108 
8 0 0 1:0.59112514 2:-0.26904835 3:0.035927299 4:0.0090061434 
8 0 0 1:0.57454717 2:-0.254105 3:0.03574143 4:0.0073714427 
8 0 0 1:0.55895427 2:-0.23900593 3:0.036923144 4:0.0063632759 
8 0 0 1:0.5443421 2:-0.22397343 3:0.038673083 4:0.0058976366 
8 0 0 1:0.53070578 2:-0.20901568 3:0.040030208 4:0.0057742625 
8 0 0 1:0.51811802 2:-0.19294353 3:0.040488185 4:0.0057619063 
8 0 0 1:0.5061521 2:-0.18341207 3:0.040331397 4:0.0058528019 
8 0 0 1:0.49485399 2:-0.17317588 3:0.039875486 4:0.0062216416 
8 0 0 1:0.48455237 2:-0.15790193 3:0.039317943 4:0.0069669901 
8 0 0 1:0.47537749 2:-0.14063134 3:0.038932285 4:0.008135335 
8 0 0 1:0.46708379 2:-0.1271247 3:0.038835471 4:0.0095466665 
8 0 0 1:0.45991174 2:-0.10993225 3:0.039018713 4:0.010880115 
8 0 0 1:0.45373845 2:-0.094623365 3:0.039360465 4:0.012269251 
8 0 0 1:0.44860678 2:-0.078657575 3:0.039400796 4:0.014085484 
8 0 0 1:0.52507072 2:-0.14445517 3:0.18528839 4:0.1918141 
8 0 0 1:0.51559701 2:-0.14521184 3:0.19817946 4:0.21631677 
8 0 0 1:0.50649795 2:-0.13946924 3:0.20563455 4:0.23116472 
8 0 0 1:0.49756861 2:-0.13686771 3:0.19743725 4:0.22665546 
8 0 0 1:0.4888359 2:-0.1338539 3:0.17421338 4:0.20055101 
8 0 0 1:0.48029973 2:-0.13084126 3:0.14846563 4:0.16432973 
8 0 0 1:0.47183866 2:-0.12969021 3:0.13367172 4:0.13978497 
8 0 0 1:0.46358022 2:-0.12658425 3:0.12945628 4:0.13543788 
8 0 0 1:0.4556313 2:-0.12183997 3:0.13044176 4:0.14063044 
8 0 0 1:0.44853351 2:-0.10879393 3:0.13308981 4:0.14361059 
8 0 0 1:0.44256535 2:-0.091479212 3:0.13499008 4:0.14055549 
8 0 0 1:0.41616138 2:-0.10786679 3:0.1315568 4:0.11467962 
8 0 0 1:0.40788693 2:-0.1268296 3:0.12963769 4:0.11790432 
8 0 0 1:0.39920479 2:-0.13307879 3:0.12409467 4:0.1184853 
8 0 0 1:0.39173011 2:-0.11457085 3:0.11957752 4:0.11538923 
8 0 0 1:0.38603592 2:-0.087279893 3:0.11818862 4:0.10862494 
8 0 0 1:0.3815088 2:-0.069391022 3:0.12144699 4:0.10231414 
8 0 0 1:0.37785826 2:-0.055955023 3:0.12755724 4:0.10512929 
8 0 0 1:0.49820254 2:-0.16531182 3:0.061048828 4:0.32385927 
8 0 0 1:0.48562251 2:-0.19282502 3:0.062397194 4:0.35188205 
8 0 0 1:0.47108478 2:-0.22283231 3:0.067586659 4:0.3807423 
8 0 0 1:0.45381583 2:-0.2646962 3:0.068728928 4:0.39237433 
8 0 0 1:0.43342208 2:-0.31259281 3:0.059643354 4:0.37258062 
8 0 0 1:0.4096414 2:-0.36450718 3:0.049824484 4:0.31421665 
8 0 0 1:0.38420467 2:-0.38989084 3:0.056397346 4:0.22540497 
3.535253540515771 0 0 1:0.83857554 2:-0.087174332 3:0.64949104 4:1.0239992 
8 0 0 1:0.83317837 2:-0.082727055 3:0.65814599 4:1.0583212 
8 0 0 1:0.83259348 2:-0.21643412 3:0.39217359 4:0.10244683 
8 0 0 1:0.81363798 2:-0.29054742 3:0.4173842 4:0.11115577 
8 0 0 1:0.78996576 2:-0.36284465 3:0.44519812 4:0.11984967 
8 0 0 1:0.76141159 2:-0.43767463 3:0.47286994 4:0.12833286 
8 0 0 1:0.72837941 2:-0.50631291 3:0.49566799 4:0.1374079 
8 0 0 1:0.6899884 2:-0.58845235 3:0.51524616 4:0.14587877 
8 0 0 1:0.64635459 2:-0.66881336 3:0.53265055 4:0.15211408 
8 0 0 1:0.59847447 2:-0.73390021 3:0.54336735 4:0.15427759 
8 0 0 1:0.54753437 2:-0.78080319 3:0.54725346 4:0.15228432 
8 0 0 1:1.4430863 2:-0.26726474 3:0.18316661 4:0.10978878 
8 0 0 1:1.4224036 2:-0.31702133 3:0.19814195 4:0.10626978 
8 0 0 1:1.3984583 2:-0.3670306 3:0.1861739 4:0.10537167 
8 0 0 1:1.3712489 2:-0.41706149 3:0.14604996 4:0.10562537 
8 0 0 1:1.0259685 2:-0.29328672 3:0.17984378 4:0.1637762 
8 0 0 1:1.0052003 2:-0.31833229 3:0.19100496 4:0.15632549 
8 0 0 1:0.98282654 2:-0.34294205 3:0.20028027 4:0.13671124 
8 0 0 1:0.95882385 2:-0.36791019 3:0.21069876 4:0.11876983 
8 0 0 1:0.8490466 2:-0.20307559 3:0.24582538 4:0.036810786 
8 0 0 1:0.83171319 2:-0.26568424 3:0.21922822 4:0.03699242 
8 0 0 1:0.810355 2:-0.32737557 3:0.18329135 4:0.033799645 
8 0 0 1:0.78545124 2:-0.38172155 3:0.15536495 4:0.029627252 
8 0 0 1:0.75712653 2:-0.43415746 3:0.15534655 4:0.031606479 
8 0 0 1:0.72572435 2:-0.4813285 3:0.17160055 4:0.041248646 
8 0 0 1:0.6918453 2:-0.51929363 3:0.19686621 4:0.05023328 
8 0 0 1:0.6563487 2:-0.5440872 3:0.22277039 4:0.057189364 
8 0 0 1:0.61890287 2:-0.57396481 3:0.23941578 4:0.074870433 
8 0 0 1:0.31283298 2:-0.13640234 3:0.015063598 4:0.0018451308 
8 0 0 1:0.30840622 2:-0.13054244 3:0.012358391 4:0.0023017794 
8 0 0 1:0.30403531 2:-0.13003076 3:0.0084432199 4:0.0030120112 
8 0 0 1:0.3004902 2:-0.11762059 3:0.0058108754 4:0.0029200098 
8 0 0 1:0.29838237 2:-0.095064193 3:0.0046355012 4:0.00196576 
8 0 0 1:0.29829394 2:-0.062419457 3:0.0043510647 4:0.0012002791 
8 0 0 1:0.30042536 2:-0.025251441 3:0.0058024171 4:0.0012280137 
8 0 0 1:0.30428417 2:0.0057554316 3:0.0066123354 4:0.0017453917 
8 0 0 1:0.99638203 2:-0.28425286 3:0.16011054 4:0.11347288 
8 0 0 1:0.97290609 2:-0.35983603 3:0.17637311 4:0.097095371 
8 0 0 1:0.94380754 2:-0.44601885 3:0.19510925 4:0.080010517 
8 0 0 1:0.90940524 2:-0.52731394 3:0.21630058 4:0.065431997 
8 0 0 1:1.0485324 2:-0.34012905 3:0.13146269 4:0.3264636 
8 0 0 1:1.024744 2:-0.36462529 3:0.13963578 4:0.32132547 
8 0 0 1:0.78288494 2:-0.20910417 3:0.38497383 4:0.12544432 
8 0 0 1:0.76744345 2:-0.23668525 3:0.38725023 4:0.12507483 
8 0 0 1:1.1450821 2:-0.27323112 3:0.060186851 4:0.059372447 
8 0 0 1:1.1250967 2:-0.30633373 3:0.05995824 4:0.067768091 
8 0 0 1:1.103322 2:-0.33376087 3:0.063039994 4:0.070862574 
8 0 0 1:1.0801845 2:-0.35464789 3:0.07295087 4:0.078316377 
8 0 0 1:1.0567113 2:-0.35979393 3:0.093647319 4:0.099117001 
8 0 0 1:1.0344485 2:-0.34124222 3:0.12684129 4:0.1355781 
8 0 0 1:1.0144978 2:-0.30580054 3:0.16143175 4:0.17418708 
8 0 0 1:0.96217724 2:-0.26619612 3:0.33734425 4:0.084041103 
8 0 0 1:0.94018889 2:-0.3370346 3:0.34458474 4:0.10485934 
8 0 0 1:0.692102 2:-0.23985141 3:0.24066753 4:0.28087874 
8 0 0 1:0.67462206 2:-0.26793028 3:0.25892113 4:0.29298559 
8 0 0 1:0.65546447 2:-0.29364489 3:0.27927481 4:0.30678219 
8 0 0 1:0.63427415 2:-0.32480245 3:0.2801969 4:0.31662805 
8 0 0 1:0.61125152 2:-0.35288785 3:0.24876922 4:0.31799719 
8 0 0 1:0.58664922 2:-0.37710084 3:0.18961473 4:0.31432888 
8 0 0 1:0.85425574 2:-0.1930421 3:0.35169251 4:0.069522198 
8 0 0 1:0.84026969 2:-0.21437628 3:0.40306716 4:0.065388327 
8 0 0 1:0.82531535 2:-0.22921812 3:0.41700365 4:0.065893324 
8 0 0 1:0.80922725 2:-0.24659631 3:0.41199148 4:0.076236727 
8 0 0 1:0.79107463 2:-0.27824107 3:0.39186242 4:0.097725741 
8 0 0 1:0.77036561 2:-0.31742513 3:0.34214402 4:0.12242462 
8 0 0 1:0.74727512 2:-0.35392804 3:0.27066466 4:0.13621153 
8 0 0 1:0.72145977 2:-0.39569418 3:0.22455789 4:0.14534527 
8 0 0 1:0.69307696 2:-0.435048 3:0.21023738 4:0.1555051 
8 0 0 1:0.66249852 2:-0.46870243 3:0.21114912 4:0.15893363 
8 0 0 1:0.62923709 2:-0.50982676 3:0.2142857 4:0.15216527 
8 0 0 1:0.65781091 2:-0.16143844 3:0.18322654 4:0.93930343 
8 0 0 1:0.64751592 2:-0.15780032 3:0.15780616 4:0.96497867 
8 0 0 1:0.63778408 2:-0.14916824 3:0.10753514 4:0.9913603 
8 0 0 1:0.62967023 2:-0.12436814 3:0.078212816 4:1.0017709 
8 0 0 1:0.56694707 2:-0.13354194 3:0.087891744 4:0.01828521 
8 0 0 1:0.55788596 2:-0.13888748 3:0.085527306 4:0.033277649 
8 0 0 1:0.54824179 2:-0.1478246 3:0.093011599 4:0.055556656 
8 0 0 1:0.53810512 2:-0.15537353 3:0.10213327 4:0.062307085 
8 0 0 1:0.52721112 2:-0.1669819 3:0.09918035 4:0.058703394 
8 0 0 1:0.51676731 2:-0.1600813 3:0.0822187 4:0.05751069 
8 0 0 1:0.50686695 2:-0.15175139 3:0.062993349 4:0.058704797 
8 0 0 1:0.49815205 2:-0.13358083 3:0.053190273 4:0.062756956 
8 0 0 1:0.49087451 2:-0.11154926 3:0.053020908 4:0.070932931 
8 0 0 1:0.45865346 2:-0.088891334 3:0.27883081 4:0.14828287 
8 0 0 1:0.45067114 2:-0.1223519 3:0.28972886 4:0.15181441 
8 0 0 1:0.44043301 2:-0.15692875 3:0.28344509 4:0.14946203 
8 0 0 1:0.42763133 2:-0.19622251 3:0.25935977 4:0.14036018 
8 0 0 1:0.41233918 2:-0.23439605 3:0.22471936 4:0.1265922 
8 0 0 1:0.39517057 2:-0.26315816 3:0.20038896 4:0.11641968 
8 0 0 1:0.37637477 2:-0.28809953 3:0.18500568 4:0.11341819 
8 0 0 1:0.35682024 2:-0.29972931 3:0.16435252 4:0.11574753 
8 0 0 1:0.33687986 2:-0.30564357 3:0.13100293 4:0.12090705 
8 8 0 1:0.31671137 2:-0.30913994 3:0.089054526 4:0.12412264 
8 8 0 1:0.29607677 2:-0.31628442 3:0.054040953 4:0.12245194 
8 8 0 1:0.27567774 2:-0.31267365 3:0.034705479 4:0.11597648 
8 8 0 1:0.25438113 2:-0.32643163 3:0.026180919 4:0.10725933 
8 8 0 1:0.23519912 2:-0.29401933 3:0.021947298 4:0.098563896 
8 8 0 1:0.21775091 2:-0.26744389 3:0.019304056 4:0.093827872 
8 8 0 1:0.20208783 2:-0.24008165 3:0.017725947 4:0.095017266 
8 8 8 1:0.18729599 2:-0.22672734 3:0.017046155 4:0.10174955 
8 8 8 1:0.17335299 2:-0.2137166 3:0.01501911 4:0.11147119 
8 8 8 1:0.16049766 2:-0.19704473 3:0.011613111 4:0.11989729 
8 8 8 1:0.14905145 2:-0.17544596 3:0.010076002 4:0.1242551 
8 8 8 1:0.13892675 2:-0.15519013 3:0.0080722551 4:0.14246073 
8 8 8 1:0.1301157 2:-0.13505459 3:0.011836698 4:0.13964916 
8 8 8 1:0.1225904 2:-0.11534681 3:0.018857173 4:0.13628312 
8 8 8 1:0.11644068 2:-0.094262112 3:0.024988004 4:0.13489743 
8 8 8 1:0.11162785 2:-0.073770436 3:0.029794575 4:0.13613014 
8 8 8 1:0.10822635 2:-0.052137786 3:0.036935076 4:0.1401996 
8 8 8 1:0.10597761 2:-0.034468283 3:0.048578454 4:0.14021144 
8 8 8 1:0.10480471 2:-0.017978178 3:0.0638294 4:0.13439488 
8 8 8 1:0.10472255 2:-0.001259293 3:0.078175344 4:0.13800054 
8 8 8 1:0.10576814 2:0.016026685 3:0.090635592 4:0.15556807 
8 8 8 1:0.10792948 2:0.033128663 3:0.1000607 4:0.18078376 
8 8 8 1:0.11121091 2:0.050297343 3:0.10531546 4:0.20340911 
8 8 8 1:0.11560005 2:0.067276239 3:0.10537007 4:0.22930718 
8 8 8 1:0.12110138 2:0.084323673 3:0.10201786 4:0.2325919 
8 8 8 1:0.12749027 2:0.097927989 3:0.098787535 4:0.23446537 
0 0 8 1:0.13499694 2:0.11506123 3:0.10162078 4:0.23176228 
0 0 8 1:0.14289818 2:0.1211093 3:0.11310817 4:0.22115021 
0 0 8 1:0.15233543 2:0.14465279 3:0.12280726 4:0.19925451 
0 0 8 1:0.16035316 2:0.12289482 3:0.12526315 4:0.16456168 
0 0 8 1:0.16722572 2:0.1053417 3:0.11926191 4:0.1249029 
8 0 8 1:0.17309244 2:0.089924329 3:0.10775663 4:0.097829233 
8 0 8 1:0.17911954 2:0.092382566 3:0.097440883 4:0.089422421 
0 0 8 1:0.1853207 2:0.095050589 3:0.087190715 4:0.092139765 
0 0 8 1:0.19141877 2:0.093470321 3:0.079065307 4:0.097116112 
8 0 0 1:0.42170151 2:-0.071522222 3:0.15275225 4:0.11485668 
8 0 0 1:0.41681017 2:-0.074973811 3:0.15565333 4:0.11718268 
8 0 0 1:0.41195962 2:-0.074348624 3:0.15640372 4:0.1107373 
8 0 0 1:0.40756376 2:-0.067379124 3:0.15602531 4:0.099385805 
8 0 0 1:0.40335544 2:-0.06450462 3:0.15222226 4:0.085311162 
8 0 0 1:0.39933687 2:-0.061596083 3:0.14427904 4:0.070553736 
8 0 0 1:0.3954592 2:-0.059436389 3:0.13897695 4:0.062242661 
8 0 0 1:0.3917477 2:-0.05688945 3:0.1388735 4:0.061255856 
8 0 0 1:0.38823175 2:-0.053891981 3:0.14363124 4:0.063398139 
8 0 0 1:0.38490739 2:-0.050955286 3:0.15045587 4:0.062404671 
8 0 0 1:0.38177689 2:-0.047984004 3:0.15540895 4:0.052880897 
8 0 0 1:0.37879379 2:-0.04572454 3:0.16058288 4:0.043221157 
8 0 0 1:0.37596584 2:-0.043346418 3:0.16331699 4:0.040793244 
8 0 0 1:0.37333381 2:-0.040343361 3:0.15993318 4:0.045066153 
8 0 0 1:0.37089335 2:-0.037407042 3:0.15515707 4:0.056026184 
8 0 0 1:0.36864643 2:-0.034440567 3:0.15403158 4:0.072224786 
8 0 0 1:0.36656522 2:-0.031900414 3:0.15511484 4:0.092113933 
8 0 0 1:0.33277007 2:-0.031046129 3:0.017025131 4:0.084157571 
8 0 0 1:0.33071702 2:-0.031468799 3:0.019871487 4:0.051560866 
8 0 0 1:0.32867468 2:-0.031304721 3:0.02529907 4:0.036994847 
8 0 0 1:0.32659547 2:-0.031869808 3:0.027027114 4:0.034945864 
8 0 0 1:0.32443696 2:-0.033085466 3:0.021664555 4:0.044240261 
8 0 0 1:0.32214477 2:-0.035134339 3:0.013124291 4:0.065780662 
8 0 0 1:0.31972548 2:-0.037082591 3:0.0080185997 4:0.1041299 
8 0 0 1:0.7453055 2:-0.2601137 3:0.1287004 4:0.3447945 
8 0 0 1:0.72805261 2:-0.26444995 3:0.14779794 4:0.34379646 
8 0 0 1:0.71048347 2:-0.26929754 3:0.16883501 4:0.35023131 
8 0 0 1:0.69261677 2:-0.2738585 3:0.19230071 4:0.36619543 
8 0 0 1:0.67441686 2:-0.27896574 3:0.20705161 4:0.3792916 
8 0 0 1:0.65612316 2:-0.28040348 3:0.20898319 4:0.38263064 
8 0 0 1:0.63762058 2:-0.28360507 3:0.20175759 4:0.37585465 
8 0 0 1:0.618596 2:-0.29160634 3:0.18908606 4:0.36424847 
8 0 0 1:0.59894587 2:-0.30119461 3:0.17579272 4:0.36062273 
8 0 0 1:0.57903916 2:-0.30512744 3:0.15823149 4:0.35159897 
8 0 0 1:0.5588992 2:-0.30870259 3:0.13463467 4:0.32704297 
8 0 0 1:0.53910187 2:-0.30345095 3:0.11313141 4:0.31880259 
8 0 0 1:0.52049067 2:-0.28527002 3:0.10240697 4:0.35081307 
8 0 0 1:0.50333516 2:-0.26295732 3:0.10270069 4:0.42488335 
8 0 0 1:0.48727755 2:-0.246129 3:0.1085191 4:0.51592693 
8 0 0 1:0.47152464 2:-0.24145849 3:0.11050956 4:0.59023283 
8 0 0 1:0.45594859 2:-0.23874772 3:0.10358085 4:0.64207505 
8 0 0 1:0.44110351 2:-0.22754347 3:0.096163741 4:0.67793331 
8 0 0 1:0.42753785 2:-0.20793264 3:0.095249641 4:0.69946867 
8 0 0 1:0.41536387 2:-0.1866011 3:0.099342836 4:0.71222321 
8 0 0 1:0.40454934 2:-0.16576382 3:0.10390024 4:0.72186978 
8 0 0 1:0.39509162 2:-0.1449667 3:0.10426779 4:0.72606224 
8 0 0 1:0.38698852 2:-0.12420324 3:0.10610467 4:0.72001317 
8 0 0 1:0.38021717 2:-0.10379025 3:0.11391052 4:0.69778875 
8 0 0 1:0.93648897 2:-0.28627597 3:0.12676088 4:0.13600389 
8 0 0 1:0.91406896 2:-0.3436509 3:0.12911924 4:0.13654192 
8 0 0 1:0.88790156 2:-0.40109047 3:0.12900738 4:0.13098252 
8 0 0 1:0.85821385 2:-0.45504932 3:0.12573208 4:0.11928022 
8 0 0 1:0.82497831 2:-0.50943008 3:0.11951498 4:0.10595781 
8 0 0 1:0.78846092 2:-0.55973368 3:0.11107366 4:0.098188072 
8 0 0 1:0.74956823 2:-0.59614217 3:0.10052559 4:0.097865644 
8 0 0 1:0.70909275 2:-0.62040282 3:0.089820751 4:0.098933683 
8 0 0 1:1.0261911 2:-0.23822711 3:0.21648302 4:0.033087087 
8 0 0 1:1.0083277 2:-0.27380744 3:0.23378603 4:0.026641404 
8 0 0 1:0.98888228 2:-0.29805735 3:0.24750438 4:0.022809129 
8 0 0 1:0.96849451 2:-0.312501 3:0.25988698 4:0.022031784 
8 0 0 1:0.91885234 2:-0.22267653 3:0.21407481 4:0.010487982 
8 0 0 1:0.90244551 2:-0.25148167 3:0.21879786 4:0.011523943 
8 0 0 1:0.88412158 2:-0.28086681 3:0.2216466 4:0.012050004 
8 0 0 1:0.86399655 2:-0.30847391 3:0.22575956 4:0.012051535 
8 0 0 1:0.84186559 2:-0.33922031 3:0.23427314 4:0.011860618 
8 0 0 1:0.72386711 2:-0.11117343 3:0.49552442 4:0.052852599 
8 0 0 1:0.71358064 2:-0.15766968 3:0.51281009 4:0.044432896 
8 0 0 1:0.70077288 2:-0.19631568 3:0.52615634 4:0.040846082 
8 0 0 1:0.68613384 2:-0.22438538 3:0.53830199 4:0.040726279 
8 0 0 1:0.67068493 2:-0.23679887 3:0.54747093 4:0.037977618 
8 0 0 1:0.65412674 2:-0.25380164 3:0.091400766 4:0.034097474 
8 0 0 1:0.63597663 2:-0.2782026 3:0.099916728 4:0.057280396 
8 0 0 1:0.61664057 2:-0.29638056 3:0.11049362 4:0.12660157 
8 0 0 1:0.59692472 2:-0.30220197 3:0.11904926 4:0.20237301 
8 0 0 1:0.89807176 2:-0.22248665 3:0.21502193 4:0.063337986 
8 0 0 1:0.76909816 2:-0.28598258 3:0.054778408 4:0.12852401 
8 0 0 1:0.74683404 2:-0.34126145 3:0.048903826 4:0.10692219 
8 0 0 1:0.72175187 2:-0.38445631 3:0.047425607 4:0.11276361 
8 0 0 1:0.69443467 2:-0.41871436 3:0.050494371 4:0.13196013 
8 0 0 1:0.66593999 2:-0.43676281 3:0.056180513 4:0.15809545 
8 0 0 1:0.63539974 2:-0.46811691 3:0.061200078 4:0.18887052 
8 0 0 1:0.60411881 2:-0.47946992 3:0.06487105 4:0.221603 
8 0 0 1:0.5736564 2:-0.46692383 3:0.067980652 4:0.24294953 
8 0 0 1:0.54439782 2:-0.44847166 3:0.071637625 4:0.25024995 
8 0 0 1:0.51629796 2:-0.43071097 3:0.079360255 4:0.25223323 
8 0 0 1:0.48895523 2:-0.41910585 3:0.095483586 4:0.25452643 
8 0 0 1:0.4622448 2:-0.40941398 3:0.11674902 4:0.24832933 
8 0 0 1:0.43666757 2:-0.39204437 3:0.13226562 4:0.23006193 
8 0 0 1:0.41250433 2:-0.37037104 3:0.14156985 4:0.20376065 
8 0 0 1:0.38916083 2:-0.35780605 3:0.14883692 4:0.17351202 
8 0 0 1:0.3673507 2:-0.33430285 3:0.15210856 4:0.15336109 
8 0 0 1:0.34676406 2:-0.31554929 3:0.14825257 4:0.14007818 
8 0 0 1:0.32836885 2:-0.28195943 3:0.13385249 4:0.13307603 
8 0 0 1:0.31234112 2:-0.24567086 3:0.11181939 4:0.13135924 
8 0 0 1:0.29886654 2:-0.20653658 3:0.099696404 4:0.11800327 
8 0 0 1:0.28785503 2:-0.16878304 3:0.10212271 4:0.096352416 
8 0 0 1:0.27955064 2:-0.12728855 3:0.11947001 4:0.078252296 
8 0 0 1:0.2738514 2:-0.087357259 3:0.14561464 4:0.069474498 
8 0 0 1:0.27021331 2:-0.05576412 3:0.1606517 4:0.068056865 
8 0 0 1:0.26852055 2:-0.025946386 3:0.16043329 4:0.064419018 
8 0 0 1:0.26918588 2:0.010198097 3:0.15248368 4:0.054660591 
8 0 0 1:0.27195815 2:0.042492909 3:0.14403069 4:0.047403878 
8 0 0 1:0.55218929 2:-0.20700918 3:0.24103921 4:0.25606249 
8 0 0 1:0.53501285 2:-0.26327816 3:0.24273808 4:0.25167435 
8 0 0 1:0.51442164 2:-0.31561928 3:0.24472556 4:0.24909957 
8 0 0 1:0.48999732 2:-0.37437291 3:0.2474802 4:0.25417562 
8 0 0 1:0.46147163 2:-0.43723797 3:0.25270061 4:0.26900777 
8 0 0 1:0.8915722 2:-0.2414384 3:0.061951304 4:0.042333477 
8 0 0 1:0.87466315 2:-0.25917969 3:0.075738149 4:0.038618222 
8 0 0 1:0.85661539 2:-0.27663379 3:0.079967853 4:0.041764329 
8 0 0 1:0.82273085 2:-0.26310474 3:0.20550348 4:0.20710678 
8 0 0 1:0.804253 2:-0.28322601 3:0.2206249 4:0.21240084 
8 0 0 1:0.78565556 2:-0.28505911 3:0.22272349 4:0.22034564 
8 0 0 1:0.76765454 2:-0.2759173 3:0.21051646 4:0.22926079 
8 0 0 1:0.74999736 2:-0.270647 3:0.19294315 4:0.2367959 
8 0 0 1:0.73206703 2:-0.27483367 3:0.18306084 4:0.24115077 
8 0 0 1:0.71395342 2:-0.2776431 3:0.18296501 4:0.24257362 
8 0 0 1:0.69670606 2:-0.26436531 3:0.18921362 4:0.24241848 
8 0 0 1:0.68066996 2:-0.24579926 3:0.19447977 4:0.24283988 
8 0 0 1:0.66590478 2:-0.22631867 3:0.19380414 4:0.24668679 
8 0 0 1:0.65225122 2:-0.20927994 3:0.19323342 4:0.25629287 
8 0 0 1:0.9179171 2:-0.33275661 3:0.25010913 4:0.391505 
8 0 0 1:0.89318541 2:-0.37908409 3:0.24090945 4:0.41212869 
8 0 0 1:1.2614576 2:-0.29988631 3:0.20945928 4:0.23335509 
8 0 0 1:1.2406236 2:-0.31934156 3:0.1739625 4:0.20052961 
8 0 0 1:1.219201 2:-0.32836187 3:0.14337525 4:0.18236935 
8 0 0 1:1.1976344 2:-0.33057065 3:0.1270083 4:0.18474914 
8 0 0 1:1.1762701 2:-0.32746834 3:0.12333665 4:0.19330106 
8 0 0 1:1.155069 2:-0.32496878 3:0.12609513 4:0.19880757 
8 0 0 1:1.1344507 2:-0.31603412 3:0.12818199 4:0.20499729 
8 0 0 1:1.1140443 2:-0.3127871 3:0.1270562 4:0.21636078 
8 0 0 1:0.9997769 2:-0.3210985 3:0.12034804 4:0.3727529 
8 0 0 1:0.97765218 2:-0.33912474 3:0.12235811 4:0.39078142 
8 0 0 1:0.95429537 2:-0.35801019 3:0.12458798 4:0.39590628 
8 0 0 1:0.92973516 2:-0.37645571 3:0.12706568 4:0.40285584 
8 0 0 1:0.9040386 2:-0.3938734 3:0.12993239 4:0.41646831 
8 0 0 1:0.87712204 2:-0.4125735 3:0.13310836 4:0.43820481 
8 0 0 1:0.84886781 2:-0.43307723 3:0.13619899 4:0.46547373 
8 0 0 1:0.81926917 2:-0.45368402 3:0.13903817 4:0.49130972 
8 0 0 1:0.78909151 2:-0.46255923 3:0.1414699 4:0.51168831 
8 0 0 1:0.75937731 2:-0.45545537 3:0.14379993 4:0.52738988 
8 0 0 1:0.73086381 2:-0.4370512 3:0.14628149 4:0.54699777 
8 0 0 1:0.70370495 2:-0.41628738 3:0.14874453 4:0.57766606 
8 0 0 1:0.67775286 2:-0.39779024 3:0.15087692 4:0.61558181 
8 0 0 1:0.65302819 2:-0.37897651 3:0.15210386 4:0.64716389 
8 0 0 1:0.6295298 2:-0.36018022 3:0.15200444 4:0.66286387 
8 0 0 1:0.60729462 2:-0.34081793 3:0.15043722 4:0.66996636 
8 0 0 1:0.58634117 2:-0.32117172 3:0.14826021 4:0.68097868 
8 0 0 1:0.56666035 2:-0.3016651 3:0.14637012 4:0.6993233 
8 0 0 1:0.54828905 2:-0.28159288 3:0.14536957 4:0.71937553 
8 0 0 1:0.53103041 2:-0.26453817 3:0.14786718 4:0.7305286 
8 0 0 1:0.51531854 2:-0.24082946 3:0.15790126 4:0.7301911 
8 0 0 1:0.50182326 2:-0.20685384 3:0.17283285 4:0.72230536 
8 0 0 1:0.49090494 2:-0.16735467 3:0.18472879 4:0.70972199 
8 0 0 1:0.9055138 2:-0.24213749 3:0.32187379 4:0.1843315 
8 0 0 1:0.89041845 2:-0.23137946 3:0.35830428 4:0.11661376 
8 0 0 1:0.87590659 2:-0.22243587 3:0.38256272 4:0.11630144 
8 0 0 1:0.86169789 2:-0.21778911 3:0.39461942 4:0.11835775 
8 0 0 1:0.84713176 2:-0.22326771 3:0.40058152 4:0.12467657 
8 0 0 1:0.83148649 2:-0.23980864 3:0.40519432 4:0.15260921 
8 0 0 1:0.81535911 2:-0.24719848 3:0.40503674 4:0.22778305 
8 0 0 1:0.79925728 2:-0.24680665 3:0.39681099 4:0.2971672 
8 0 0 1:0.78357204 2:-0.24042135 3:0.38427847 4:0.32479227 
8 0 0 1:0.7683241 2:-0.23371836 3:0.37233038 4:0.31427353 
8 0 0 1:0.75369829 2:-0.22418248 3:0.36369473 4:0.28689625 
8 0 0 1:0.73929479 2:-0.220775 3:0.35238523 4:0.26715892 
8 0 0 1:0.72566263 2:-0.20895194 3:0.33268121 4:0.25773739 
8 0 0 1:0.58138086 2:-0.14595024 3:0.34258334 4:0.25578542 
8 0 0 1:0.89924231 2:-0.22766826 3:0.22539355 4:0.98726789 
8 0 0 1:0.88264054 2:-0.25446965 3:0.25383839 4:1.0230705 
8 0 0 1:0.86487112 2:-0.27236734 3:0.27265989 4:1.0626386 
8 0 0 1:0.84572581 2:-0.29345687 3:0.27092629 4:0.00027918875 
8 0 0 1:0.82505259 2:-0.31687633 3:0.25139848 4:0.00030715502 
8 0 0 1:1.4598272 2:-0.27438571 3:0.12128525 4:0.15046421 
8 0 0 1:1.4399822 2:-0.30418138 3:0.068923981 4:0.10602508 
8 0 0 1:1.4186503 2:-0.32697289 3:0.035764576 4:0.057938557 
8 0 0 1:1.3959489 2:-0.34796435 3:0.027208147 4:0.036994356 
8 0 0 1:1.3722889 2:-0.36265707 3:0.036238339 4:0.038758155 
8 0 0 1:1.3484959 2:-0.3646959 3:0.071852106 4:0.062330021 
8 0 0 1:1.3252049 2:-0.35700129 3:0.1374612 4:0.10697082 
8 0 0 1:1.3023769 2:-0.34990401 3:0.18562219 4:0.14617009 
8 0 0 1:1.2799505 2:-0.34374921 3:0.20369051 4:0.16959834 
8 0 0 1:1.2579468 2:-0.33727043 3:0.20467069 4:0.17790329 
8 0 0 1:1.2363659 2:-0.33078892 3:0.18817139 4:0.16329388 
8 0 0 1:1.2150944 2:-0.32604701 3:0.16869343 4:0.12554501 
8 0 0 1:1.194223 2:-0.31991395 3:0.14871334 4:0.078283043 
8 0 0 1:1.173925 2:-0.311125 3:0.1088879 4:0.044809336 
8 0 0 1:1.1543457 2:-0.30010897 3:0.059637921 4:0.028465511 
8 0 0 1:1.1354531 2:-0.28958277 3:0.12482385 4:0.079755034 
8 0 0 1:1.1172472 2:-0.27905847 3:0.12071006 4:0.094109718 
8 0 0 1:1.4416861 2:-0.24012899 3:0.2051102 4:0.00011158581 
8 0 0 1:1.4246105 2:-0.2617329 3:0.2179584 4:0.00017244859 
8 0 0 1:1.4061023 2:-0.28369054 3:0.24618245 4:0.00023134593 
8 0 0 1:1.3864445 2:-0.30131266 3:0.29413346 4:0.00025899766 
8 0 0 1:1.1345299 2:-0.0049863614 3:0.041604389 4:1.3015674 
8 0 0 1:1.1340163 2:-0.0078726015 3:0.047329639 4:1.3655521 
8 0 0 1:1.1333057 2:-0.010891956 3:0.049603952 4:1.4317876 
8 0 0 1:1.1323993 2:-0.013892981 3:0.050426983 4:1.4992011 
8 0 0 1:1.0666551 2:-0.25692911 3:0.10632597 4:1.7816161e-005 
8 0 0 1:1.0470367 2:-0.3007083 3:0.10730304 4:1.6877624e-005 
8 0 0 1:1.0248529 2:-0.34003127 3:0.10917543 4:1.5988772e-005 
8 0 0 1:1.0006809 2:-0.37050501 3:0.10927529 4:1.5153658e-005 
8 0 0 1:1.816278 2:-0.069406389 3:0.020356579 4:0.92189498 
8 0 0 1:1.810502 2:-0.088534456 3:0.019540969 4:0.96289101 
8 0 0 1:1.8033841 2:-0.10910175 3:0.020696437 4:1.0037962 
8 0 0 1:1.795288 2:-0.12409647 3:0.020488241 4:1.0437317 
8 0 0 1:1.7867654 2:-0.13063249 3:0.018577812 4:1.0859509 
8 0 0 1:1.7266876 2:-0.12298517 3:0.029131089 4:0.89089585 
8 0 0 1:1.7189997 2:-0.11784007 3:0.027212397 4:0.93076659 
8 0 0 1:1.7116531 2:-0.11260687 3:0.02464816 4:0.96987642 
8 0 0 1:1.7045413 2:-0.10900923 3:0.024252374 4:1.0078614 
8 0 0 1:1.6978713 2:-0.10223727 3:0.027184973 4:1.0441947 
8 0 0 1:1.691294 2:-0.10081597 3:0.03275676 4:1.0801247 
8 0 0 1:1.6208493 2:-0.22583423 3:0.098181505 4:0.00029881906 
8 0 0 1:1.6042901 2:-0.25381631 3:0.10071425 4:0.00026278663 
8 0 0 1:1.5857755 2:-0.28379038 3:0.1073623 4:0.00022957389 
8 0 0 1:1.5655281 2:-0.31034831 3:0.11850295 4:0.0002224402 
3.380839004176076 0 0 1:0.74807486 2:-0.18835632 3:0.55452718 4:0.45638179 
8 0 0 1:0.73593625 2:-0.18605898 3:0.5525561 4:0.39462649 
8 0 0 1:0.72404159 2:-0.1823198 3:0.54961046 4:0.34974405 
8 0 0 1:0.71247541 2:-0.17728492 3:0.5449799 4:0.33221135 
8 0 0 1:0.70160047 2:-0.16668966 3:0.53549177 4:0.33346148 
8 0 0 1:0.66390567 2:-0.22716422 3:0.11645782 4:0.31497799 
8 0 0 1:0.59574359 2:-0.15075732 3:0.044779508 4:0.047640135 
8 0 0 1:0.49530541 2:-0.12570571 3:0.1876515 4:0.1987806 
8 0 0 1:0.48644285 2:-0.13584417 3:0.21905563 4:0.2479437 
8 0 0 1:0.47716063 2:-0.14227664 3:0.24754405 4:0.36001658 
8 0 0 1:0.46803948 2:-0.13980779 3:0.24987323 4:0.46784815 
8 0 0 1:0.60724686 2:-0.19693541 3:0.055753467 4:0.77897371 
8 0 0 1:0.59465547 2:-0.1929993 3:0.055698401 4:0.79828519 
8 0 0 1:0.58215343 2:-0.19162959 3:0.075613518 4:0.81802558 
8 0 0 1:0.56972418 2:-0.19051393 3:0.097606103 4:0.8386886 
8 0 0 1:0.55763247 2:-0.18534008 3:0.11108246 4:0.86205165 
8 0 0 1:0.54610287 2:-0.17672418 3:0.11418995 4:0.88621421 
8 0 0 1:0.5352849 2:-0.16581648 3:0.10147312 4:0.91085982 
8 0 0 1:0.52516693 2:-0.15508697 3:0.077190476 4:0.93556341 
8 0 0 1:0.51604261 2:-0.13985633 3:0.062684498 4:0.96068122 
8 0 0 1:0.50762094 2:-0.12908625 3:0.062447076 4:0.98580709 
8 0 0 1:0.49934214 2:-0.12689633 3:0.076242878 4:1.0120949 
8 0 0 1:0.49128227 2:-0.12354061 3:0.099222138 4:1.0396341 
8 0 0 1:0.48397514 2:-0.11200273 3:0.1090723 4:1.0677244 
8 0 0 1:0.67515438 2:-0.22820593 3:0.1642227 4:0.29721599 
8 0 0 1:0.65946564 2:-0.24047493 3:0.15338746 4:0.30559364 
8 0 0 1:0.64275063 2:-0.25620542 3:0.15384161 4:0.27572606 
8 0 0 1:0.62526464 2:-0.26802294 3:0.16246277 4:0.21466524 
8 0 0 1:0.60727533 2:-0.27573783 3:0.16821958 4:0.15941561 
8 0 0 1:0.58894218 2:-0.28100817 3:0.16183051 4:0.14451706 
8 0 0 1:0.5711105 2:-0.2733217 3:0.14548904 4:0.16743485 
8 0 0 1:0.5542411 2:-0.25857193 3:0.12938552 4:0.20138429 
8 0 0 1:0.53813151 2:-0.2469256 3:0.11778773 4:0.22497747 
8 0 0 1:0.52279607 2:-0.23505965 3:0.10705774 4:0.23359935 
8 0 0 1:0.50824032 2:-0.22310864 3:0.09198901 4:0.23263487 
8 0 0 1:0.49458348 2:-0.20933022 3:0.071555676 4:0.22551345 
8 0 0 1:0.481567 2:-0.19951485 3:0.052002664 4:0.21316203 
8 0 0 1:0.46933207 2:-0.18753544 3:0.038426325 4:0.19983933 
8 0 0 1:0.45785055 2:-0.17598718 3:0.030328346 4:0.189762 
8 0 0 1:0.4472981 2:-0.16174671 3:0.025168926 4:0.18459836 
8 0 0 1:0.4375938 2:-0.1487461 3:0.021615494 4:0.18294082 
8 0 0 1:0.42875441 2:-0.13548902 3:0.020440864 4:0.18342323 
8 0 0 1:0.42078168 2:-0.12220504 3:0.023042739 4:0.18482615 
8 0 0 1:0.41365107 2:-0.10929702 3:0.029888866 4:0.18669389 
8 0 0 1:0.37961093 2:-0.078634555 3:0.031392781 4:0.15340475 
8 0 0 1:0.37435441 2:-0.080571233 3:0.026151256 4:0.13681626 
8 0 0 1:0.36912921 2:-0.080091131 3:0.020513744 4:0.12756997 
8 0 0 1:0.36385653 2:-0.080818986 3:0.013514929 4:0.11838093 
8 0 0 1:0.35856302 2:-0.081138182 3:0.0072355487 4:0.1040372 
8 0 0 1:0.35324149 2:-0.081567813 3:0.003749568 4:0.087426526 
8 0 0 1:0.34787675 2:-0.082229947 3:0.0023265569 4:0.071813421 
8 0 0 1:0.34250418 2:-0.082350033 3:0.0018732395 4:0.060625552 
8 0 0 1:0.33712718 2:-0.082418054 3:0.002025451 4:0.05844558 
8 0 0 1:0.33161574 2:-0.084478529 3:0.0029041379 4:0.07052622 
8 0 0 1:0.32600387 2:-0.086018079 3:0.0055570074 4:0.10039742 
8 0 0 1:0.31996932 2:-0.092496802 3:0.013227048 4:0.14276941 
8 0 0 1:0.31378988 2:-0.09471762 3:0.030508953 4:0.18155979 
8 0 0 1:0.30775248 2:-0.092540417 3:0.053423196 4:0.20672949 
8 0 0 1:0.30148898 2:-0.096006118 3:0.068894562 4:0.22385706 
8 0 0 1:0.2951177 2:-0.097658163 3:0.073080805 4:0.24530932 
8 0 0 1:0.28845551 2:-0.10211721 3:0.074848124 4:0.27602788 
8 0 0 1:0.28148716 2:-0.10680995 3:0.085000547 4:0.31472671 
8 0 0 1:0.27445595 2:-0.10777343 3:0.10919293 4:0.35341896 
8 0 0 1:0.2676061 2:-0.10499357 3:0.14731391 4:0.38517348 
8 0 0 1:0.2611612 2:-0.098786602 3:0.18444203 4:0.40484918 
8 0 0 1:0.255531 2:-0.086299039 3:0.2047829 4:0.40992437 
8 0 0 1:0.25105187 2:-0.068655527 3:0.20292602 4:0.40120059 
8 0 0 1:0.2482554 2:-0.042863952 3:0.17997359 4:0.3851529 
8 0 0 1:0.24673191 2:-0.0233518 3:0.14711108 4:0.37179892 
8 0 0 1:0.24592568 2:-0.012357823 3:0.12198791 4:0.37159719 
8 0 0 1:0.24493746 2:-0.015147342 3:0.11269617 4:0.38885547 
8 0 0 1:0.24369451 2:-0.019051656 3:0.11803586 4:0.41639764 
8 0 0 1:0.24238761 2:-0.02003203 3:0.13044249 4:0.43935739 
8 0 0 1:0.2410036 2:-0.021213865 3:0.14013733 4:0.45102418 
8 0 0 1:0.23946321 2:-0.023610989 3:0.14102314 4:0.44891941 
8 0 0 1:0.23784008 2:-0.024879083 3:0.13480077 4:0.43646342 
8 0 0 1:0.23615684 2:-0.025800563 3:0.12847986 4:0.42587103 
8 0 0 1:0.23433269 2:-0.027960191 3:0.12629612 4:0.42255539 
8 0 0 1:0.2324996 2:-0.02809743 3:0.13000657 4:0.42697329 
8 0 0 1:0.23071257 2:-0.027391292 3:0.13214203 4:0.42960898 
8 0 0 1:0.22912934 2:-0.024267654 3:0.12470944 4:0.41520535 
8 0 0 1:0.22769538 2:-0.021979552 3:0.10865477 4:0.38204906 
8 0 0 1:0.2264299 2:-0.019397134 3:0.091543346 4:0.34876052 
8 0 0 1:0.22542581 2:-0.015390491 3:0.080791959 4:0.33649896 
8 0 0 1:0.22453068 2:-0.013720516 3:0.077646283 4:0.34763626 
8 0 0 1:0.22371314 2:-0.012531083 3:0.077884204 4:0.36442136 
8 0 0 1:0.22307621 2:-0.0097627378 3:0.078361152 4:0.36886276 
8 0 0 1:0.22252204 2:-0.0084943295 3:0.078361143 4:0.36349028 
8 0 0 1:0.22210568 2:-0.0063818044 3:0.075298793 4:0.36055885 
3.333611817144945 0 0 1:0.22191574 2:-0.0029113679 3:0.068663622 4:0.37226715 
8 0 0 1:0.26096674 2:0.0062889158 3:0.11161793 4:0.18100781 
8 0 0 1:0.26115924 2:0.002950697 3:0.083734643 4:0.12954981 
8 0 0 1:0.26126717 2:0.0016543856 3:0.069649582 4:0.12624535 
8 0 0 1:0.26132619 2:0.00090464615 3:0.068666786 4:0.17087539 
8 0 0 1:0.79355114 2:-0.25239186 3:0.28392411 4:0.2962692 
8 0 0 1:0.77586422 2:-0.27110268 3:0.25166347 4:0.30447496 
8 0 0 1:0.75713942 2:-0.28701128 3:0.21882225 4:0.31223878 
8 0 0 1:0.949298 2:-0.28262598 3:0.20428089 4:0.17573648 
8 0 0 1:0.93045615 2:-0.28880542 3:0.21209543 4:0.12895308 
8 0 0 1:0.9115524 2:-0.28975411 3:0.23777504 4:0.089105864 
8 0 0 1:0.89280116 2:-0.28741656 3:0.27591457 4:0.058796806 
8 0 0 1:0.87396759 2:-0.28867852 3:0.29761138 4:0.039183095 
8 0 0 1:0.85426835 2:-0.30194742 3:0.29536483 4:0.030449421 
8 0 0 1:0.83294439 2:-0.32685075 3:0.274744 4:0.035523884 
8 0 0 1:0.80924379 2:-0.36327981 3:0.25917748 4:0.059918127 
8 0 0 1:0.68671057 2:-0.22780675 3:0.25710479 4:0.34533035 
8 0 0 1:0.67165607 2:-0.23075342 3:0.29622212 4:0.33373771 
8 0 0 1:0.65661639 2:-0.23052625 3:0.33709503 4:0.33127392 
8 0 0 1:0.64153402 2:-0.23118046 3:0.36008602 4:0.32869656 
8 0 0 1:0.62640168 2:-0.23194653 3:0.36480537 4:0.32276206 
8 0 0 1:0.61304877 2:-0.20467175 3:0.34929961 4:0.31833691 
8 0 0 1:0.60150451 2:-0.17694881 3:0.31770474 4:0.32371006 
8 0 0 1:0.63835682 2:-0.20771564 3:0.29557234 4:0.44503078 
8 0 0 1:0.62453584 2:-0.21184612 3:0.2902412 4:0.43909366 
8 0 0 1:0.61043948 2:-0.21606717 3:0.27358907 4:0.42113632 
8 0 0 1:0.59603376 2:-0.22080903 3:0.24565807 4:0.40434699 
8 0 0 1:0.58131259 2:-0.22564416 3:0.20825972 4:0.40478415 
8 0 0 1:0.56628405 2:-0.23035537 3:0.17104194 4:0.43222547 
8 0 0 1:0.55098553 2:-0.23449373 3:0.14670593 4:0.48136923 
8 0 0 1:0.53562545 2:-0.23543728 3:0.13478315 4:0.52982406 
8 0 0 1:0.52033204 2:-0.23441539 3:0.13024083 4:0.56129229 
8 0 0 1:0.50460834 2:-0.24101087 3:0.13056596 4:0.56483999 
8 0 0 1:0.48832693 2:-0.24955924 3:0.13601303 4:0.5390197 
8 0 0 1:0.47186446 2:-0.25233466 3:0.14674923 4:0.50915463 
8 0 0 1:0.45652136 2:-0.23517708 3:0.1579307 4:0.49305736 
8 0 0 1:0.44263944 2:-0.21278019 3:0.16500024 4:0.49559984 
8 0 0 1:0.42977705 2:-0.19715308 3:0.16816396 4:0.51109113 
8 0 0 1:0.41712148 2:-0.19398291 3:0.16941053 4:0.51979696 
8 0 0 1:0.40457907 2:-0.19224836 3:0.16994549 4:0.52373672 
8 0 0 1:0.39287604 2:-0.17938246 3:0.16977492 4:0.53201528 
8 0 0 1:0.38206629 2:-0.16569054 3:0.16643309 4:0.54109132 
8 0 0 1:0.37239825 2:-0.14819045 3:0.1536287 4:0.55218622 
8 0 0 1:0.36364376 2:-0.13418764 3:0.14228016 4:0.56573974 
8 0 0 1:0.35589603 2:-0.11875612 3:0.15144829 4:0.58456329 
8 0 0 1:0.34894147 2:-0.10659869 3:0.16807969 4:0.60808044 
8 0 0 1:0.34314184 2:-0.088895859 3:0.17910242 4:0.63473451 
8 0 0 1:0.33836627 2:-0.073199281 3:0.18589267 4:0.66053251 
8 0 0 1:0.33474716 2:-0.055473314 3:0.19649491 4:0.68095065 
8 0 0 1:0.50548271 2:-0.086353912 3:0.17609614 4:0.026769973 
8 0 0 1:0.49755958 2:-0.12144473 3:0.18694153 4:0.030818306 
8 0 0 1:0.488327 2:-0.14151571 3:0.200292 4:0.037042095 
8 0 0 1:0.47798606 2:-0.15850451 3:0.20982799 4:0.045552179 
8 0 0 1:0.46747638 2:-0.16109113 3:0.21722409 4:0.053967624 
8 0 0 1:0.45736851 2:-0.15493204 3:0.22577863 4:0.05936631 
8 0 0 1:0.44743527 2:-0.15225546 3:0.23244061 4:0.060899001 
8 0 0 1:0.43766341 2:-0.14978179 3:0.23572526 4:0.057632974 
8 0 0 1:0.42806772 2:-0.14708141 3:0.23618671 4:0.049406737 
8 0 0 1:1.0402858 2:-0.25361036 3:0.19333676 4:0.96547749 
8 0 0 1:1.0227013 2:-0.26953307 3:0.21181898 4:0.99247566 
8 0 0 1:1.0046051 2:-0.27737723 3:0.22927909 4:1.018569 
8 0 0 1:0.98600199 2:-0.28514525 3:0.23339844 4:1.0212255 
8 0 0 1:0.94705901 2:-0.30321798 3:0.19815197 4:0.60501891 
8 0 0 1:0.92674538 2:-0.31136465 3:0.18686394 4:0.60539937 
8 0 0 1:0.90614381 2:-0.31577826 3:0.20176541 4:0.62042571 
8 0 0 1:0.88564138 2:-0.31425855 3:0.23575942 4:0.64988574 
8 0 0 1:0.86554205 2:-0.3080798 3:0.26563166 4:0.6693834 
8 0 0 1:0.84586253 2:-0.30164514 3:0.27991939 4:0.66337269 
8 0 0 1:0.82636757 2:-0.29881615 3:0.28134624 4:0.6483354 
8 0 0 1:0.80753682 2:-0.2886353 3:0.27815472 4:0.64651487 
8 0 0 1:0.78999187 2:-0.26892668 3:0.26912119 4:0.67334501 
8 0 0 1:0.77391765 2:-0.2463835 3:0.24732819 4:0.72257901 
8 0 0 1:1.1037963 2:-0.28992969 3:0.14390682 4:0.15118049 
8 0 0 1:1.0846626 2:-0.29327932 3:0.13793444 4:0.15631064 
8 0 0 1:0.86397184 2:-0.2832413 3:0.05728944 4:0.2372562 
8 0 0 1:0.84392708 2:-0.30724345 3:0.066204428 4:0.18216583 
8 0 0 1:0.82282199 2:-0.323496 3:0.089285277 4:0.13204568 
8 0 0 1:0.80123219 2:-0.33092557 3:0.12948677 4:0.12987056 
8 0 0 1:0.77908979 2:-0.33939578 3:0.18334774 4:0.18288002 
8 0 0 1:0.75712009 2:-0.3367487 3:0.23849227 4:0.21993949 
8 0 0 1:0.7353477 2:-0.33372442 3:0.27266305 4:0.19349405 
8 0 0 1:0.71365164 2:-0.33255436 3:0.28302353 4:0.11314594 
8 0 0 1:0.69187702 2:-0.33375852 3:0.2753885 4:0.055303766 
8 0 0 1:0.67107633 2:-0.31883024 3:0.27099714 4:0.043092943 
8 0 0 1:0.65183913 2:-0.29486517 3:0.28537329 4:0.057678195 
8 0 0 1:0.63440276 2:-0.2672624 3:0.30227216 4:0.092478068 
8 0 0 1:0.61854441 2:-0.24307477 3:0.30856492 4:0.14037394 
8 0 0 1:0.60368109 2:-0.22782304 3:0.30721396 4:0.19661117 
8 0 0 1:0.58951758 2:-0.21709647 3:0.30058583 4:0.23729128 
8 0 0 1:0.57620101 2:-0.20411453 3:0.28680397 4:0.25029597 
8 0 0 1:0.56349986 2:-0.1946816 3:0.25233577 4:0.24330077 
8 0 0 1:0.55141768 2:-0.18519409 3:0.17866578 4:0.22874644 
8 0 0 1:0.53989891 2:-0.17655816 3:0.096634222 4:0.21359156 
8 0 0 1:0.5290512 2:-0.16627224 3:0.054112089 4:0.20284493 
8 0 0 1:0.60458067 2:-0.17088332 3:0.093922829 4:0.11727493 
8 0 0 1:0.59248471 2:-0.18540527 3:0.093928555 4:0.11304547 
8 0 0 1:0.58009407 2:-0.18992205 3:0.090555606 4:0.10685416 
8 0 0 1:0.56773388 2:-0.18945542 3:0.083412934 4:0.10705774 
8 0 0 1:0.55516932 2:-0.19258793 3:0.078068777 4:0.11598478 
8 0 0 1:0.54235574 2:-0.19640492 3:0.090545801 4:0.13563933 
8 0 0 1:0.52918496 2:-0.20187987 3:0.13431717 4:0.16053434 
8 0 0 1:0.51617137 2:-0.19947072 3:0.18792666 4:0.17674462 
8 0 0 1:0.5033736 2:-0.19616243 3:0.22077265 4:0.18027382 
8 0 0 1:0.49075777 2:-0.19337389 3:0.22406077 4:0.17281239 
8 0 0 1:0.47833714 2:-0.19038167 3:0.20754572 4:0.16004204 
8 0 0 1:0.46614498 2:-0.18687984 3:0.19939123 4:0.15541741 
8 0 0 1:0.45407411 2:-0.18502084 3:0.19862342 4:0.15699746 
8 0 0 1:0.44201999 2:-0.18476393 3:0.17922726 4:0.15500708 
8 0 0 1:0.43036834 2:-0.17859491 3:0.12492579 4:0.14438067 
8 0 0 1:0.41929576 2:-0.16971905 3:0.051417201 4:0.12206245 
8 0 0 1:0.40901649 2:-0.15755938 3:0.010847125 4:0.089879089 
8 0 0 1:0.39941994 2:-0.14709454 3:0.0018487006 4:0.059280273 
8 0 0 1:0.39055895 2:-0.13582021 3:0.00042851682 4:0.04010525 
8 0 0 1:0.38231044 2:-0.12643204 3:0.00017630495 4:0.033490837 
8 0 0 1:0.37425718 2:-0.12343924 3:0.00014972087 4:0.037183549 
8 0 0 1:0.36655701 2:-0.11802722 3:0.00020729637 4:0.050887138 
8 0 0 1:0.35969321 2:-0.1052074 3:0.00040452327 4:0.074134426 
8 0 0 1:0.35382791 2:-0.089902682 3:0.0012127406 4:0.10377373 
8 0 0 1:0.34902206 2:-0.073663323 3:0.0045867313 4:0.13569715 
8 0 0 1:0.66900103 2:-0.21614514 3:0.096889762 4:0.14418957 
8 0 0 1:0.6546418 2:-0.22009641 3:0.10759943 4:0.15837958 
8 0 0 1:0.63944643 2:-0.23291266 3:0.10418966 4:0.16135555 
8 0 0 1:0.43816835 2:-0.14110466 3:0.44865538 4:0.03967843 
8 0 0 1:0.42948553 2:-0.17270519 3:0.47306214 4:0.042965456 
8 0 0 1:0.41855051 2:-0.2134581 3:0.48307238 4:0.04429864 
8 0 0 1:0.40553396 2:-0.25297374 3:0.47578914 4:0.043216899 
8 0 0 1:0.39002842 2:-0.29971639 3:0.45917231 4:0.040381114 
8 0 0 1:0.3724154 2:-0.34177589 3:0.45475108 4:0.038355997 
8 0 0 1:0.35421097 2:-0.36127076 3:0.48833079 4:0.042654465 
8 0 0 1:0.33291148 2:-0.41855149 3:0.5242358 4:0.049808572 
8 0 0 1:0.31027884 2:-0.45014766 3:0.55910195 4:0.053140702 
8 0 0 1:0.28641012 2:-0.48017013 3:0.59259499 4:0.057441162 
8 0 0 1:0.26198424 2:-0.499647 3:0.62046245 4:0.062085367 
8 0 0 1:0.72161931 2:-0.20091861 3:0.016950735 4:0.037070197 
8 0 0 1:0.7053921 2:-0.24872846 3:0.023108142 4:0.035288696 
8 0 0 1:0.68579329 2:-0.30040801 3:0.036114461 4:0.029915614 
8 0 0 1:0.66294364 2:-0.3502365 3:0.055200457 4:0.024855024 
8 0 0 1:0.63710147 2:-0.39610539 3:0.073363999 4:0.021999262 
8 0 0 1:0.6082884 2:-0.44164291 3:0.084337686 4:0.021551703 
8 0 0 1:0.57584726 2:-0.49725362 3:0.090950933 4:0.022421088 
8 0 0 1:0.54180464 2:-0.52180067 3:0.099231407 4:0.02405633 
8 0 0 1:0.5066168 2:-0.53935473 3:0.11378165 4:0.027621441 
8 0 0 1:0.51242063 2:-0.11499779 3:0.43326198 4:0.36905852 
8 0 0 1:0.50501438 2:-0.11352204 3:0.43827611 4:0.34810735 
8 0 0 1:0.49772037 2:-0.11180171 3:0.44953234 4:0.34189529 
8 0 0 1:0.49053381 2:-0.11015462 3:0.46561708 4:0.35704616 
8 0 0 1:0.48363085 2:-0.10580761 3:0.48129806 4:0.3927085 
8 0 0 1:0.47682225 2:-0.10436144 3:0.49303875 4:0.43608578 
8 0 0 1:0.47016919 2:-0.10197711 3:0.4995341 4:0.47043374 
8 0 0 1:0.46364697 2:-0.099971802 3:0.50369863 4:0.48924757 
8 0 0 1:0.45749387 2:-0.094313963 3:0.50729188 4:0.49748376 
8 0 0 1:0.45159679 2:-0.090389622 3:0.50738401 4:0.51011037 
8 0 0 1:0.445705 2:-0.090308502 3:0.49798823 4:0.53845311 
8 0 0 1:0.43947934 2:-0.095426125 3:0.47535177 4:0.57881818 
8 0 0 1:0.43316746 2:-0.096747646 3:0.4478663 4:0.61773108 
8 0 0 1:0.42745837 2:-0.087508174 3:0.42971565 4:0.64423055 
4.577550826844102 0 0 1:0.53044809 2:-0.19615061 3:0.0084899624 4:0.4805264 
8 0 0 1:0.51691299 2:-0.20746428 3:0.010775363 4:0.45800555 
8 0 0 1:0.50318756 2:-0.21038149 3:0.012563749 4:0.45220317 
8 0 0 1:0.49033657 2:-0.19697828 3:0.013738804 4:0.46959084 
8 0 0 1:0.47869581 2:-0.17842819 3:0.014992303 4:0.49374083 
8 0 0 1:0.46778495 2:-0.16724023 3:0.016984517 4:0.50477983 
8 0 0 1:0.45723455 2:-0.16171512 3:0.020086795 4:0.51652129 
8 0 0 1:0.44698682 2:-0.15707576 3:0.023851688 4:0.56370562 
8 0 0 1:0.43725402 2:-0.14918316 3:0.029055574 4:0.63311863 
8 0 0 1:0.42817739 2:-0.13912545 3:0.036314044 4:0.68360364 
8 0 0 1:0.41996004 2:-0.12595441 3:0.049553214 4:0.70394048 
8 0 0 1:0.41234464 2:-0.11672786 3:0.073665402 4:0.70257779 
8 0 0 1:0.72471531 2:-0.24528568 3:0.052154484 4:0.21046145 
8 0 0 1:0.70813414 2:-0.25415403 3:0.052217324 4:0.21037914 
8 0 0 1:0.69144331 2:-0.25583493 3:0.055249807 4:0.22133497 
8 0 0 1:0.92139663 2:-0.19717962 3:0.28097952 4:0.0075807398 
8 0 0 1:0.90537605 2:-0.24556129 3:0.28209552 4:0.0072207427 
8 0 0 1:0.88633983 2:-0.29178465 3:0.28587815 4:0.0062011024 
8 0 0 1:0.86420729 2:-0.33924476 3:0.30138899 4:0.0049567397 
8 0 0 1:0.83907026 2:-0.38529702 3:0.32746293 4:0.0039656925 
8 0 0 1:0.97840108 2:-0.2420903 3:0.1987193 4:0.043470569 
8 0 0 1:0.95939197 2:-0.29136914 3:0.18300695 4:0.032534021 
8 0 0 1:0.93735203 2:-0.33782533 3:0.18767373 4:0.018952164 
8 0 0 1:0.91318685 2:-0.37040061 3:0.21148281 4:0.012794466 
8 0 0 1:0.88754145 2:-0.39308934 3:0.2408559 4:0.014303184 
8 0 0 1:0.86151114 2:-0.3989892 3:0.26030723 4:0.019190644 
8 0 0 1:0.74466161 2:-0.19468697 3:0.20522227 4:0.056171954 
8 0 0 1:0.72958612 2:-0.23107511 3:0.23387872 4:0.071186787 
8 0 0 1:0.71215148 2:-0.26723593 3:0.2353357 4:0.088827852 
8 0 0 1:0.69229646 2:-0.30433509 3:0.20553795 4:0.097599996 
8 0 0 1:0.67009817 2:-0.34025244 3:0.1588653 4:0.095635751 
8 0 0 1:0.64584207 2:-0.37179428 3:0.1211047 4:0.090281028 
-0 8 0 1:0.26404333 2:-0.60449016 3:0.0001501802 4:0.003356349 
-0 8 0 1:0.22683221 2:-0.57036725 3:0.00021246333 4:0.0046284579 
-0 8 0 1:0.19095058 2:-0.54998892 3:0.00035891121 4:0.0074892173 
-0 8 0 1:0.15528532 2:-0.54667246 3:0.00061408787 4:0.012080459 
-0 8 0 1:0.11933167 2:-0.55109286 3:0.00091224977 4:0.016999455 
-8 0 0 1:0.92449239 2:-0.57616621 3:0.26300126 4:0.33438963 
-8 0 0 1:0.88503103 2:-0.60485857 3:0.26736912 4:0.33925567 
-8 0 0 1:0.85863194 2:-0.18326551 3:0.13627035 4:0.20025686 
-8 0 0 1:0.84626221 2:-0.18960157 3:0.12438795 4:0.20620256 
-8 0 0 1:0.83348097 2:-0.19590923 3:0.12264558 4:0.21008022 
-8 0 0 1:0.82055024 2:-0.19820056 3:0.12496686 4:0.21033927 
-8 0 0 1:0.80744579 2:-0.20086323 3:0.12954634 4:0.20657872 
-8 0 0 1:0.79425121 2:-0.20224475 3:0.13549061 4:0.19970797 
-8 0 0 1:0.7808532 2:-0.20536308 3:0.14209943 4:0.19041183 
-8 0 0 1:0.76712721 2:-0.21039007 3:0.15104823 4:0.18127109 
-8 0 0 1:0.75324259 2:-0.21282164 3:0.16449979 4:0.17415569 
-8 0 0 1:0.73905122 2:-0.21752342 3:0.18399009 4:0.1696829 
-8 0 0 1:0.72435244 2:-0.22530103 3:0.20617003 4:0.17067429 
-8 0 0 1:0.70926118 2:-0.23131688 3:0.22547172 4:0.17561693 
-8 0 0 1:0.69342604 2:-0.24271898 3:0.24027282 4:0.18101698 
-8 0 0 1:0.67677603 2:-0.2552092 3:0.24974499 4:0.18627896 
-8 0 0 1:0.65958149 2:-0.26355562 3:0.25482201 4:0.18991486 
-8 0 0 1:0.64183292 2:-0.27204774 3:0.25791702 4:0.19224292 
-8 0 0 1:0.62347442 2:-0.28139665 3:0.26166661 4:0.1944835 
-8 0 0 1:0.60443507 2:-0.29183265 3:0.26946632 4:0.19820286 
-8 0 0 1:0.58464244 2:-0.30337884 3:0.27779687 4:0.20413235 
-8 0 0 1:0.56418568 2:-0.31355853 3:0.27713742 4:0.21175867 
-8 0 0 1:0.54346425 2:-0.3176154 3:0.26108652 4:0.21867603 
-8 0 0 1:0.52294101 2:-0.31457745 3:0.23085593 4:0.22161281 
-8 0 0 1:0.50280845 2:-0.3085893 3:0.20280344 4:0.22038006 
-8 0 0 1:0.48321445 2:-0.30033434 3:0.193076 4:0.21893588 
-8 0 0 1:0.46389335 2:-0.29615119 3:0.2029646 4:0.22281771 
-8 0 0 1:0.44450216 2:-0.29722568 3:0.2222312 4:0.23355686 
-8 0 0 1:0.4249093 2:-0.30031677 3:0.23942979 4:0.24629162 
-8 0 0 1:0.40497018 2:-0.30562416 3:0.24706649 4:0.25523207 
-8 0 0 1:0.38429778 2:-0.31686396 3:0.24825263 4:0.25982789 
-8 0 0 1:0.36293668 2:-0.32742013 3:0.24731002 4:0.26408061 
-8 0 0 1:0.34083854 2:-0.33871726 3:0.24938265 4:0.27119834 
-8 0 0 1:0.31778614 2:-0.3533443 3:0.26007909 4:0.27851513 
-8 0 0 1:0.29396202 2:-0.36517296 3:0.28273568 4:0.28195269 
-8 0 0 1:0.97991169 2:-0.42550222 3:0.026400157 4:0.23099452 
-8 0 0 1:0.95191815 2:-0.4290813 3:0.016816598 4:0.21968134 
-8 0 0 1:0.92402717 2:-0.42750935 3:0.011467128 4:0.21098186 
-8 0 0 1:0.89606838 2:-0.4285486 3:0.0093124494 4:0.20525292 
-8 0 0 1:0.86802474 2:-0.42984924 3:0.0091993509 4:0.20332381 
-8 0 0 1:0.83919916 2:-0.44183471 3:0.010088332 4:0.20437124 
-8 0 0 1:0.80926696 2:-0.45879694 3:0.010509874 4:0.20607565 
-8 0 0 1:0.77792699 2:-0.48037493 3:0.010452066 4:0.20781224 
-8 0 0 1:0.74471736 2:-0.50903285 3:0.010939616 4:0.21152924 
-8 0 0 1:0.70877816 2:-0.55087129 3:0.0120457 4:0.21792261 
-0 8 0 1:0.18610714 2:-0.40302324 3:0.03457587 4:0.041516632 
-0 8 0 1:0.1617116 2:-0.37393165 3:0.026576953 4:0.05754878 
-0 8 0 1:0.13854254 2:-0.35513225 3:0.016520132 4:0.094288047 
-0 8 0 1:0.11599248 2:-0.34564432 3:0.0099693855 4:0.14489068 
-0 8 0 1:0.093605699 2:-0.34314167 3:0.0070886694 4:0.18530095 
-0 8 0 1:0.053784093 2:-0.73204316 3:0.1757824 4:0.051216874 
-8 0 0 1:0.55885698 2:-0.42893363 3:0.17725166 4:0.3561108 
-8 0 0 1:0.52969011 2:-0.44706592 3:0.18425564 4:0.34507738 
-8 0 0 1:0.50010242 2:-0.45351633 3:0.22222281 4:0.32842499 
-8 0 0 1:0.46916655 2:-0.47418096 3:0.26189346 4:0.31047298 
-8 0 0 1:0.93697034 2:-0.25696708 3:0.1944227 4:0.098983694 
-8 0 0 1:0.91756063 2:-0.29750941 3:0.19296247 4:0.09925485 
-8 0 0 1:0.89504931 2:-0.34505063 3:0.18736693 4:0.094271686 
-8 0 0 1:0.8698596 2:-0.38610458 3:0.17663255 4:0.083936972 
-8 0 0 1:0.84251664 2:-0.41910932 3:0.16618297 4:0.07338106 
-8 0 0 1:0.81271325 2:-0.45682233 3:0.16077703 4:0.070222101 
-8 0 0 1:0.77945887 2:-0.50971885 3:0.15904362 4:0.077027941 
-8 0 0 1:0.92129588 2:-0.53244727 3:0.25098805 4:0.29278295 
-8 0 0 1:0.88410023 2:-0.57013 3:0.2557824 4:0.2954956 
-8 0 0 1:0.89471329 2:-0.22396942 3:0.066523366 4:0.12435744 
-8 0 0 1:0.87902148 2:-0.24052199 3:0.091320031 4:0.1461786 
-8 0 0 1:0.86194632 2:-0.26172591 3:0.10706176 4:0.16320541 
-8 0 0 1:0.84308185 2:-0.28915211 3:0.10822835 4:0.17208302 
-8 0 0 1:0.82213798 2:-0.3210249 3:0.089977899 4:0.17071921 
-8 0 0 1:0.79909854 2:-0.35314549 3:0.061463801 4:0.16431198 
-8 0 0 1:0.774152 2:-0.38237733 3:0.038240985 4:0.15732145 
-8 0 0 1:0.74757203 2:-0.40741426 3:0.0244544 4:0.15195302 
-8 0 0 1:0.71930409 2:-0.43328719 3:0.019053226 4:0.15697019 
-8 0 0 1:0.68931594 2:-0.45965452 3:0.017765367 4:0.17443537 
-8 0 0 1:0.65769932 2:-0.48461537 3:0.015364241 4:0.18327588 
-8 0 0 1:0.62487234 2:-0.50316761 3:0.013095825 4:0.16634478 
-8 0 0 1:0.59157941 2:-0.51030968 3:0.011912684 4:0.14363733 
-0 8 0 1:0.23749458 2:-0.48434273 3:0.013736525 4:0.13901352 
-0 8 0 1:0.20614154 2:-0.48057518 3:0.012115269 4:0.14332064 
-0 8 0 1:0.17463605 2:-0.48291207 3:0.016696395 4:0.14043204 
-0 8 0 1:0.14302185 2:-0.48457839 3:0.028020866 4:0.13726211 
-0 8 0 1:0.11160983 2:-0.48147933 3:0.036615676 4:0.13696771 
-0 8 0 1:0.080800898 2:-0.47223519 3:0.039572911 4:0.13841798 
-0 8 0 1:0.050889563 2:-0.45847703 3:0.041816608 4:0.13896588 
-0 8 0 1:0.035154612 2:-0.4440354 3:0.042332143 4:0.13584802 
-0 8 0 1:0.020121425 2:-0.43161226 3:0.040379346 4:0.12684354 
-0 8 8 1:0.0055881736 2:-0.42262018 3:0.040722806 4:0.11536795 
-0 8 8 1:-0.008334496 2:-0.41217044 3:0.044673035 4:0.10506704 
-0 8 8 1:-0.021537381 2:-0.40040571 3:0.042013994 4:0.091379694 
-8 0 0 1:0.61917058 2:-0.2968086 3:0.10749406 4:0.012531846 
-8 0 0 1:0.59897761 2:-0.30951525 3:0.11119916 4:0.015916483 
-8 0 0 1:0.57788325 2:-0.32333146 3:0.12286547 4:0.025007033 
-8 0 0 1:0.55581438 2:-0.33826885 3:0.14338152 4:0.048179151 
-8 0 0 1:0.53272559 2:-0.35390192 3:0.18348354 4:0.086375937 
-8 0 0 1:0.50890368 2:-0.36513917 3:0.22853166 4:0.11025526 
-8 0 0 1:0.48424085 2:-0.37802863 3:0.25043841 4:0.10044116 
-8 0 0 1:0.458833 2:-0.38944813 3:0.26283022 4:0.07754286 
-8 0 0 1:0.35400371 2:-0.39815664 3:0.33862793 4:0.24858438 
-8 0 0 1:0.32907398 2:-0.38211963 3:0.36249184 4:0.24641971 
-8 0 0 1:0.30665732 2:-0.34359965 3:0.3933781 4:0.24661676 
-8 0 0 1:0.28619302 2:-0.31367411 3:0.42521484 4:0.24603211 
-8 0 0 1:0.26697003 2:-0.29464754 3:0.45464004 4:0.24410157 
-8 0 0 1:0.24880144 2:-0.27848569 3:0.48533522 4:0.24305222 
-8 0 0 1:0.23123323 2:-0.26928329 3:0.5208132 4:0.25183529 
-8 0 0 1:0.21335135 2:-0.27409097 3:0.55406557 4:0.26519553 
-8 0 0 1:0.40332196 2:-0.44232976 3:0.057407766 4:0.19338394 
-0 8 0 1:0.20304659 2:-0.55303286 3:0.048108549 4:0.16003219 
-0 8 0 1:0.16569679 2:-0.57249286 3:0.044196498 4:0.14836605 
-0 8 0 1:0.12632256 2:-0.60352303 3:0.046059262 4:0.15512854 
-0 8 0 1:0.083839884 2:-0.6511689 3:0.045597605 4:0.19038049 
-8 0 0 1:0.55286113 2:-0.34016833 3:0.046401877 4:0.046028303 
-8 0 0 1:0.52984439 2:-0.35279753 3:0.059680363 4:0.047691532 
-8 0 0 1:0.50573466 2:-0.36955079 3:0.063881961 4:0.044753835 
-8 0 0 1:0.48022798 2:-0.39096311 3:0.064190473 4:0.036993623 
-8 0 0 1:0.45360951 2:-0.40800436 3:0.063392275 4:0.027291047 
-0 8 0 1:0.10435836 2:-0.33151869 3:0.093003922 4:0.070825723 
-0 8 0 1:0.084604249 2:-0.30278839 3:0.099893634 4:0.081791301 
-0 8 0 1:0.066659038 2:-0.27506185 3:0.11016762 4:0.089880784 
-0 8 8 1:0.050870544 2:-0.24200397 3:0.11454805 4:0.092581767 
-0 8 8 1:0.042753372 2:-0.21929327 3:0.10346944 4:0.091820332 
-0 8 8 1:0.035548677 2:-0.2040224 3:0.07657453 4:0.088690934 
-8 8 8 1:0.028971268 2:-0.19364186 3:0.055680712 4:0.085547828 
-8 8 8 1:0.023062148 2:-0.18301777 3:0.053914146 4:0.085141823 
-8 8 8 1:0.01800824 2:-0.17000264 3:0.067854149 4:0.084940276 
-8 8 8 1:0.013936013 2:-0.15574882 3:0.084729463 4:0.080285755 
-8 8 8 1:0.01095311 2:-0.14076911 3:0.088790768 4:0.065123276 
-8 0 0 1:0.94810425 2:-0.11716142 3:0.23726894 4:0.022588242 
-8 0 0 1:0.93893878 2:-0.14048705 3:0.23566151 4:0.024368884 
-8 0 0 1:0.92843678 2:-0.16097329 3:0.23294417 4:0.022635534 
-8 0 0 1:0.9165245 2:-0.18258999 3:0.2249105 4:0.02093667 
-8 0 0 1:0.90330588 2:-0.20261328 3:0.21257255 4:0.020967769 
-8 0 0 1:0.88850867 2:-0.22680967 3:0.20286931 4:0.0231774 
-8 0 0 1:0.87232405 2:-0.24807571 3:0.19889765 4:0.026520386 
-8 0 0 1:0.85479574 2:-0.26867169 3:0.19383909 4:0.027830823 
-8 0 0 1:0.83538532 2:-0.29752035 3:0.18769178 4:0.02570038 
-8 0 0 1:0.81387839 2:-0.32965529 3:0.18493352 4:0.021452729 
-8 0 0 1:0.7908719 2:-0.35264052 3:0.18499689 4:0.017126615 
-8 0 0 1:0.76753684 2:-0.35767673 3:0.18557638 4:0.014371362 
-8 0 0 1:0.74458303 2:-0.35183296 3:0.18616312 4:0.013372067 
-8 0 0 1:0.72193958 2:-0.34707589 3:0.18607379 4:0.014343682 
-8 0 0 1:0.70012548 2:-0.33436369 3:0.18441089 4:0.017117931 
-8 0 0 1:0.6788672 2:-0.32584413 3:0.18154887 4:0.019576426 
-8 0 0 1:0.65749791 2:-0.32754558 3:0.17816614 4:0.01977115 
-8 0 0 1:0.63564486 2:-0.33496069 3:0.1773427 4:0.016973547 
-8 0 0 1:0.61345246 2:-0.34016218 3:0.18260066 4:0.013783046 
-8 0 0 1:0.59125031 2:-0.34031172 3:0.18919649 4:0.011986725 
-8 0 0 1:0.56894455 2:-0.34189982 3:0.19428678 4:0.011261173 
-8 0 0 1:0.54585141 2:-0.35396859 3:0.1978317 4:0.010596829 
-8 0 0 1:0.52170356 2:-0.37013498 3:0.1993883 4:0.0090127028 
-8 0 0 1:0.49650327 2:-0.38626673 3:0.19770907 4:0.0065373773 
-8 0 0 1:0.47078653 2:-0.39418282 3:0.19081964 4:0.0044816035 
-8 0 0 1:0.44514706 2:-0.39299844 3:0.18241777 4:0.0038092107 
-8 0 0 1:0.42032492 2:-0.38047063 3:0.1802082 4:0.0048093761 
-8 0 0 1:0.39621483 2:-0.36955618 3:0.18882901 4:0.0076563363 
-8 0 0 1:0.61076329 2:-0.45313539 3:0.32345123 4:0.15156305 
-8 0 0 1:0.76005462 2:-0.34005756 3:0.15049649 4:0.017765415 
-8 0 0 1:0.7374354 2:-0.34670438 3:0.15043671 4:0.017501592 
-8 0 0 1:0.71482443 2:-0.34657807 3:0.16205447 4:0.014895523 
-8 0 0 1:0.69230052 2:-0.34524355 3:0.17500714 4:0.013707593 
-8 0 0 1:0.66973497 2:-0.34588178 3:0.19377162 4:0.014169085 
-8 0 0 1:0.6464945 2:-0.3562268 3:0.22663762 4:0.015325385 
-8 0 0 1:0.62245694 2:-0.36844459 3:0.27562977 4:0.017228756 
-8 0 0 1:0.59726199 2:-0.38618494 3:0.32860788 4:0.019380745 
-8 0 0 1:0.57048929 2:-0.41036844 3:0.36459262 4:0.020480312 
-0 8 0 1:0.144884 2:-0.42334841 3:0.065762585 4:0.089883161 
-0 8 0 1:0.11585416 2:-0.44496555 3:0.069573307 4:0.098639578 
-0 8 0 1:0.086594827 2:-0.44848329 3:0.072427222 4:0.10737896 
-0 8 0 1:0.057957956 2:-0.4389422 3:0.070846656 4:0.12954513 
-8 0 0 1:0.54640015 2:-0.23484547 3:0.12374896 4:0.010378893 
-8 0 0 1:0.53048676 2:-0.24391837 3:0.13677978 4:0.0059629807 
-8 0 0 1:0.51393625 2:-0.25368413 3:0.1434929 4:0.0038202179 
-8 0 0 1:0.49653252 2:-0.26676201 3:0.14320214 4:0.0030752572 
-8 0 0 1:0.47722621 2:-0.29592466 3:0.14067794 4:0.0030228858 
-8 0 0 1:0.45563225 2:-0.33098932 3:0.13736207 4:0.0034101657 
-8 0 0 1:0.43278865 2:-0.35014378 3:0.13294434 4:0.0035585035 
-8 0 0 1:0.40862279 2:-0.37041107 3:0.12986764 4:0.002851685 
-0 8 0 1:0.084597073 2:-0.44544324 3:0.10084685 4:0.011940297 
-0 8 0 1:0.058500997 2:-0.39999723 3:0.099117611 4:0.014316827 
-0 8 0 1:0.034950216 2:-0.36098328 3:0.09578645 4:0.015266294 
-0 8 8 1:0.01298581 2:-0.33666752 3:0.092154661 4:0.013019673 
-8 0 0 1:0.36285001 2:-0.19371493 3:0.049599559 4:0.041536772 
-8 0 0 1:0.34914845 2:-0.2100158 3:0.065804111 4:0.047758723 
-8 0 0 1:0.33369881 2:-0.23681007 3:0.10313904 4:0.050621945 
-8 0 0 1:0.31598856 2:-0.27146041 3:0.1580479 4:0.048264339 
-8 0 0 1:0.29706929 2:-0.28999198 3:0.21029769 4:0.042196419 
-8 0 0 1:0.27667993 2:-0.31252552 3:0.21870793 4:0.035931623 
-0 8 0 1:0.15770466 2:-0.36727388 3:0.059395283 4:0.022218486 
-0 8 0 1:0.13426252 2:-0.35931802 3:0.070156712 4:0.024550706 
-0 8 0 1:0.11142286 2:-0.35008338 3:0.065066609 4:0.030313716 
-0 8 0 1:0.089232685 2:-0.34012807 3:0.057783348 4:0.041361619 
-0 8 0 1:0.068308747 2:-0.32071938 3:0.061326471 4:0.045185001 
-0 8 8 1:0.048867475 2:-0.29799326 3:0.071956948 4:0.054687167 
-8 0 0 1:0.40206584 2:-0.14562714 3:0.067304948 4:0.14376045 
-8 0 0 1:0.39148275 2:-0.16221617 3:0.097606753 4:0.1303965 
-8 0 0 1:0.37991096 2:-0.17737095 3:0.12643574 4:0.11490811 
-8 0 0 1:0.36740319 2:-0.19171744 3:0.13993411 4:0.096914028 
-8 0 0 1:0.35395551 2:-0.20612418 3:0.13337788 4:0.074982609 
-8 0 0 1:0.33900763 2:-0.2291192 3:0.11641928 4:0.058462351 
-8 0 0 1:0.32141099 2:-0.26971904 3:0.097849648 4:0.048787896 
-8 0 0 1:0.30043994 2:-0.32144141 3:0.085565806 4:0.046108043 
-0 8 0 1:0.17269313 2:-0.43704142 3:0.052212308 4:0.047697532 
-0 8 0 1:0.14381164 2:-0.44269169 3:0.049693424 4:0.081266418 
-0 8 0 1:0.11585765 2:-0.42847512 3:0.050923094 4:0.12916844 
-0 8 0 1:0.090724227 2:-0.38524176 3:0.059384681 4:0.16503301 
-0 8 0 1:0.067921644 2:-0.349515 3:0.066576434 4:0.16326907 
-0 8 0 1:0.046268896 2:-0.33189049 3:0.069354651 4:0.13245247 
-0 8 8 1:0.025437812 2:-0.31929612 3:0.070728011 4:0.088610274 
-0 8 8 1:0.0044228829 2:-0.32211408 3:0.076024306 4:0.061036059 
-0 8 0 1:0.12697576 2:-0.9002512 3:0.11662295 4:0.033336803 
-8 0 0 1:0.84976577 2:-0.071523594 3:0.075749611 4:0.12246388 
-8 0 0 1:0.84461238 2:-0.078990347 3:0.069821591 4:0.13129632 
-8 0 0 1:0.83890554 2:-0.087473739 3:0.0692918 4:0.1427823 
-8 0 0 1:0.83251428 2:-0.097964479 3:0.079043051 4:0.14957384 
-8 0 0 1:0.82554839 2:-0.10677224 3:0.081334409 4:0.15044579 
-8 0 0 1:0.81800046 2:-0.11569357 3:0.074278318 4:0.14662141 
-8 0 0 1:0.81001261 2:-0.12243678 3:0.066962439 4:0.13817163 
-8 0 0 1:0.80149169 2:-0.13060756 3:0.060638231 4:0.12682113 
-8 0 0 1:0.79251983 2:-0.13751955 3:0.055660927 4:0.11804407 
-8 0 0 1:0.78300288 2:-0.14587451 3:0.052325304 4:0.11795168 
-8 0 0 1:0.77277848 2:-0.1567182 3:0.050751735 4:0.12600988 
-8 0 0 1:0.7620679 2:-0.16417043 3:0.05050523 4:0.13465345 
-8 0 0 1:0.75063649 2:-0.17521911 3:0.052008735 4:0.13834067 
-8 0 0 1:0.73859949 2:-0.18450159 3:0.056279013 4:0.13710675 
-8 0 0 1:0.72607509 2:-0.19197232 3:0.06591706 4:0.13494841 
-8 0 0 1:0.71349141 2:-0.19288104 3:0.078188351 4:0.13420782 
-8 0 0 1:0.70086599 2:-0.19352073 3:0.08446571 4:0.13238905 
-8 0 0 1:0.68815285 2:-0.1948654 3:0.083700145 4:0.12700426 
-8 0 0 1:0.67525664 2:-0.19767142 3:0.084425283 4:0.11728642 
-8 0 0 1:0.66240973 2:-0.19691567 3:0.086788412 4:0.10226136 
-8 0 0 1:0.64954185 2:-0.19723726 3:0.093446482 4:0.081877587 
-8 0 0 1:0.63665107 2:-0.1975881 3:0.11692358 4:0.062591776 
-8 0 0 1:0.6236874 2:-0.19870548 3:0.1730752 4:0.052127711 
-8 0 0 1:0.61066313 2:-0.19963432 3:0.26325762 4:0.055469586 
-8 0 0 1:0.59759481 2:-0.20030948 3:0.347828 4:0.071506339 
-8 0 0 1:0.58447106 2:-0.20115913 3:0.4029516 4:0.082978696 
-8 0 0 1:0.57127931 2:-0.20220148 3:0.42735949 4:0.079100334 
-8 0 0 1:0.55785178 2:-0.20581534 3:0.42874086 4:0.073385502 
-8 0 0 1:0.54399978 2:-0.21232161 3:0.42731597 4:0.075391299 
-8 0 0 1:0.52973999 2:-0.21857221 3:0.4304717 4:0.08886977 
-8 0 0 1:0.51502068 2:-0.2256157 3:0.4268369 4:0.10460165 
-8 0 0 1:0.49984786 2:-0.23256705 3:0.40493119 4:0.10484295 
-8 0 0 1:0.48421508 2:-0.23961721 3:0.36199504 4:0.093443995 
-8 0 0 1:0.46805933 2:-0.24763309 3:0.30119266 4:0.083285315 
-8 0 0 1:0.45149154 2:-0.25394904 3:0.23501213 4:0.08080467 
-8 0 0 1:0.43450744 2:-0.26032994 3:0.1819728 4:0.085694275 
-8 0 0 1:0.4170866 2:-0.26702438 3:0.15144678 4:0.099295637 
-8 0 0 1:0.39936844 2:-0.27158167 3:0.15521782 4:0.12112085 
-8 0 0 1:0.38128344 2:-0.27720444 3:0.19911741 4:0.14390457 
-8 0 0 1:0.36285786 2:-0.28242489 3:0.27316496 4:0.16413329 
-8 0 0 1:0.34415734 2:-0.28663909 3:0.3625494 4:0.1809617 
-8 0 0 1:0.32496634 2:-0.2941572 3:0.43642469 4:0.19387438 
-8 0 0 1:0.30510866 2:-0.30437583 3:0.48729301 4:0.20602719 
-0 8 0 1:0.00086533979 2:-0.46314282 3:0.18237535 4:0.16601473 
-0 8 0 1:-0.030806243 2:-0.48545786 3:0.20517819 4:0.18602453 
-0 8 0 1:-0.064510351 2:-0.51661215 3:0.21330794 4:0.20327651 
-8 0 0 1:1.0556226 2:-0.29492311 3:0.04535813 4:0.023515541 
-8 0 0 1:1.0342767 2:-0.32718723 3:0.033189543 4:0.024931553 
-8 0 0 1:1.0112679 2:-0.35267614 3:0.029681951 4:0.02845765 
-8 0 0 1:0.98734706 2:-0.36665535 3:0.03303294 4:0.033673193 
-8 0 0 1:0.96250505 2:-0.38077507 3:0.039648598 4:0.036276508 
-8 0 0 1:0.93693881 2:-0.39187605 3:0.047352446 4:0.035082534 
-8 0 0 1:0.91079988 2:-0.40065403 3:0.055889718 4:0.031647919 
-8 0 0 1:0.88376978 2:-0.41431376 3:0.060539802 4:0.025909531 
-8 0 0 1:0.85529704 2:-0.43642656 3:0.06054034 4:0.020589529 
-8 0 0 1:0.82550658 2:-0.4566242 3:0.058908033 4:0.017844346 
-8 0 0 1:0.79475312 2:-0.47138504 3:0.061190679 4:0.016903642 
-8 0 0 1:0.76346238 2:-0.47962027 3:0.069267146 4:0.015778431 
-8 0 0 1:0.73193664 2:-0.48322242 3:0.080622798 4:0.014286248 
-8 0 0 1:0.70028852 2:-0.48509823 3:0.091116865 4:0.01378533 
-8 0 0 1:0.66858696 2:-0.48591738 3:0.088739789 4:0.013228588 
-8 0 0 1:0.63714419 2:-0.48195067 3:0.071789423 4:0.01129149 
-0 8 0 1:0.21022272 2:-0.45181041 3:0.029578628 4:0.025410093 
-0 8 0 1:0.1811064 2:-0.4462911 3:0.039459454 4:0.024205101 
-0 8 0 1:0.15261355 2:-0.43673468 3:0.053525267 4:0.023390881 
-0 8 0 1:0.12450284 2:-0.43087735 3:0.066893065 4:0.023247244 
-0 8 0 1:0.096675313 2:-0.42653666 3:0.074060725 4:0.023240525 
-0 8 0 1:0.069285241 2:-0.41983142 3:0.071891239 4:0.023912811 
-8 0 0 1:0.58055668 2:-0.26296796 3:0.043885652 4:0.15168051 
-8 0 0 1:0.5632849 2:-0.26473952 3:0.049687089 4:0.152304 
-8 0 0 1:0.54487894 2:-0.28212419 3:0.053552566 4:0.14757153 
-8 0 0 1:0.5247939 2:-0.30786079 3:0.048333943 4:0.13650678 
-8 0 0 1:0.50314961 2:-0.3317608 3:0.036873723 4:0.12044222 
-8 0 0 1:0.47950042 2:-0.36249174 3:0.027409685 4:0.10363476 
-8 0 0 1:0.45380753 2:-0.39381731 3:0.023702546 4:0.091093407 
-8 0 0 1:0.42616645 2:-0.42367877 3:0.023855091 4:0.08657116 
-0 8 0 1:0.23201607 2:-0.49769961 3:0.020458311 4:0.056710015 
-0 8 0 1:0.20095102 2:-0.47616102 3:0.023748423 4:0.061502271 
-0 8 0 1:0.17167138 2:-0.44879454 3:0.029930117 4:0.069183151 
-0 8 0 1:0.14361898 2:-0.42998349 3:0.037996033 4:0.073399523 
-0 8 0 1:0.11643678 2:-0.41664519 3:0.043152667 4:0.068740004 
-0 8 0 1:0.089933125 2:-0.40624458 3:0.041739068 4:0.057299027 
-0 8 0 1:0.063885761 2:-0.39925059 3:0.035945775 4:0.047484739 
-0 8 3.146178728347156 1:0.037962922 2:-0.39734187 3:0.02874324 4:0.041438622 
-0 8 8 1:0.012247588 2:-0.39416126 3:0.022903216 4:0.036872265 
-8 0 0 1:1.3085849 2:-0.46014578 3:0.073742369 4:0.20698238 
-8 0 0 1:1.2754183 2:-0.50837318 3:0.073386464 4:0.1899679 
-8 0 0 1:1.2391682 2:-0.55563718 3:0.075458057 4:0.16651833 
-8 0 0 1:1.199627 2:-0.60608193 3:0.077899675 4:0.14224658 
-8 0 0 1:0.63893377 2:-0.21058935 3:0.24152088 4:0.35857818 
